{"learner":{"attributes":{"best_iteration":"0","best_score":"0.6936269102485666","scikit_learn":"{\"_estimator_type\": \"classifier\"}"},"feature_names":["home_goals_per_game","home_goals_conceded_per_game","home_over15_rate","home_over05_rate","home_first_half_goals","away_goals_per_game","away_goals_conceded_per_game","away_over15_rate","away_over05_rate","away_first_half_goals","home_home_goals","home_home_conceded","away_away_goals","away_away_conceded","total_expected_goals","defensive_strength","over15_odds","under15_odds","home_btts_rate","away_btts_rate","home_clean_sheet_rate","away_clean_sheet_rate","home_attack_strength","away_attack_strength","attack_vs_defense_ratio","home_momentum","away_momentum","home_goals_std","away_goals_std","home_over25_rate","away_over25_rate","home_scored_in_rate","away_scored_in_rate"],"feature_types":["float","float","float","float","float","float","float","float","float","float","float","float","float","float","float","float","float","float","float","float","float","float","float","float","float","float","float","float","float","float","float","float","float"],"gradient_booster":{"model":{"gbtree_model_param":{"num_parallel_tree":"1","num_trees":"21"},"iteration_indptr":[0,1,2,3,4,5,6,7,8,9,10,11,12,13,14,15,16,17,18,19,20,21],"tree_info":[0,0,0,0,0,0,0,0,0,0,0,0,0,0,0,0,0,0,0,0,0],"trees":[{"base_weights":[4.197609E-2,3.3870175E-1,-2.0043643E-1,6.5068775E-1,2.5517535E-1,-3.8329417E-1,-9.103673E-2,9.3688175E-2,6.929066E-1,-2.4314146E-3,2.9100135E-1,-4.9996215E-1,-1.6174515E-1,1.17242105E-1,-1.2916924E-1,2.8967831E-2,-1.105234E-2,2.6302591E-2,4.191879E-2,-9.345199E-3,2.5276655E-2,1.3013971E-2,2.566803E-2,-2.787984E-2,-1.2510067E-3,-1.2379301E-2,2.4750188E-2,3.8299363E-2,3.0161126E-3,-5.345199E-3,-2.610438E-2],"categories":[],"categories_nodes":[],"categories_segments":[],"categories_sizes":[],"default_left":[0,0,0,0,0,0,0,0,0,0,0,0,0,0,0,0,0,0,0,0,0,0,0,0,0,0,0,0,0,0,0],"id":0,"left_children":[1,3,5,7,9,11,13,15,17,19,21,23,25,27,29,-1,-1,-1,-1,-1,-1,-1,-1,-1,-1,-1,-1,-1,-1,-1,-1],"loss_changes":[2.1310858E2,3.4458603E1,3.2533363E1,6.451149E0,9.745285E0,1.5611076E1,8.131345E0,3.3864086E0,5.7419586E0,1.2167724E1,6.1049347E0,1.0838142E1,1.2053652E1,5.714299E0,7.444497E0,0E0,0E0,0E0,0E0,0E0,0E0,0E0,0E0,0E0,0E0,0E0,0E0,0E0,0E0,0E0,0E0],"parents":[2147483647,0,0,1,1,2,2,3,3,4,4,5,5,6,6,7,7,8,8,9,9,10,10,11,11,12,12,13,13,14,14],"right_children":[2,4,6,8,10,12,14,16,18,20,22,24,26,28,30,-1,-1,-1,-1,-1,-1,-1,-1,-1,-1,-1,-1,-1,-1,-1,-1],"split_conditions":[1.92E0,1.55E0,1.68E0,6.666667E-1,9E-1,1.0801234E0,5.714286E-1,1.2292726E0,8.333333E-1,3.35E0,1.1E0,1.6666666E0,1.7142857E0,1.69E0,1E0,2.8967831E-2,-1.105234E-2,2.6302591E-2,4.191879E-2,-9.345199E-3,2.5276655E-2,1.3013971E-2,2.566803E-2,-2.787984E-2,-1.2510067E-3,-1.2379301E-2,2.4750188E-2,3.8299363E-2,3.0161126E-3,-5.345199E-3,-2.610438E-2],"split_indices":[16,16,17,13,3,28,31,28,2,14,4,11,5,17,7,0,0,0,0,0,0,0,0,0,0,0,0,0,0,0,0],"split_type":[0,0,0,0,0,0,0,0,0,0,0,0,0,0,0,0,0,0,0,0,0,0,0,0,0,0,0,0,0,0,0],"sum_hessian":[2.9605852E3,1.3311738E3,1.6294114E3,2.7943753E2,1.0517362E3,6.086526E2,1.02075885E3,2.0081903E1,2.5935565E2,1.2818236E2,9.235539E2,3.9757895E2,2.1107361E2,1.5723703E2,8.635218E2,7.6909413E0,1.2390962E1,1.232687E2,1.3608693E2,9.4641304E1,3.354105E1,8.137443E2,1.09809555E2,3.5421057E2,4.3368362E1,1.8735988E2,2.3713736E1,1.1536412E1,1.457006E2,8.18658E2,4.4863827E1],"tree_param":{"num_deleted":"0","num_feature":"33","num_nodes":"31","size_leaf_vector":"1"}},{"base_weights":[3.952859E-2,-1.07353136E-1,2.1500868E-1,-2.1619833E-1,3.7387207E-2,1.3618132E-1,4.68014E-1,-4.9289566E-1,-1.5538622E-1,6.067459E-2,-5.928155E-1,6.012479E-2,2.9246983E-1,5.0692517E-1,-1.4696975E-1,-5.1112574E-2,-1.7215261E-2,-2.5767668E-3,-1.36497235E-2,-1.393974E-2,4.857575E-3,2.43775E-2,-5.682623E-2,4.0734574E-4,1.645159E-2,3.750898E-2,1.3049579E-2,2.236399E-2,4.158486E-2,-2.607646E-2,2.3892848E-2],"categories":[],"categories_nodes":[],"categories_segments":[],"categories_sizes":[],"default_left":[0,0,0,0,0,0,0,0,0,0,0,0,0,0,0,0,0,0,0,0,0,0,0,0,0,0,0,0,0,0,0],"id":1,"left_children":[1,3,5,7,9,11,13,15,17,19,21,23,25,27,29,-1,-1,-1,-1,-1,-1,-1,-1,-1,-1,-1,-1,-1,-1,-1,-1],"loss_changes":[7.657283E1,2.5498135E1,2.6873394E1,1.5396122E1,1.0174287E1,1.223601E1,7.7885513E0,1.2538551E1,9.22094E0,8.314796E0,1.5120084E1,9.707117E0,4.5690327E0,5.352951E0,4.8677073E0,0E0,0E0,0E0,0E0,0E0,0E0,0E0,0E0,0E0,0E0,0E0,0E0,0E0,0E0,0E0,0E0],"parents":[2147483647,0,0,1,1,2,2,3,3,4,4,5,5,6,6,7,7,8,8,9,9,10,10,11,11,12,12,13,13,14,14],"right_children":[2,4,6,8,10,12,14,16,18,20,22,24,26,28,30,-1,-1,-1,-1,-1,-1,-1,-1,-1,-1,-1,-1,-1,-1,-1,-1],"split_conditions":[2.7333333E0,7.5E-1,1E0,5.714286E-1,1.5E0,3.5333333E0,6E-1,2.2222222E-1,2.2222222E-1,5E-1,1.3333334E0,3.45E0,7E-1,1.5238839E0,1.4240006E0,-5.1112574E-2,-1.7215261E-2,-2.5767668E-3,-1.36497235E-2,-1.393974E-2,4.857575E-3,2.43775E-2,-5.682623E-2,4.0734574E-4,1.645159E-2,3.750898E-2,1.3049579E-2,2.236399E-2,4.158486E-2,-2.607646E-2,2.3892848E-2],"split_indices":[14,7,4,2,22,14,21,30,20,12,0,15,1,28,28,0,0,0,0,0,0,0,0,0,0,0,0,0,0,0,0],"split_type":[0,0,0,0,0,0,0,0,0,0,0,0,0,0,0,0,0,0,0,0,0,0,0,0,0,0,0,0,0,0,0],"sum_hessian":[2.9685256E3,1.6158405E3,1.3526852E3,9.223943E2,6.934461E2,1.0328269E3,3.1985822E2,1.6461954E2,7.577748E2,6.697594E2,2.3686687E1,6.9610004E2,3.3672687E2,3.0114267E2,1.8715551E1,3.464468E1,1.2997485E2,4.036397E2,3.5413504E2,6.4074135E1,6.056853E2,7.902855E0,1.5783833E1,5.845188E2,1.1158128E2,1.9994108E1,3.1673276E2,2.5668652E2,4.4456154E1,1.1904582E1,6.81097E0],"tree_param":{"num_deleted":"0","num_feature":"33","num_nodes":"31","size_leaf_vector":"1"}},{"base_weights":[3.284617E-2,-1.608068E-1,3.0014163E-1,-3.3383596E-1,-6.3578136E-2,5.802593E-1,2.19073E-1,-4.402972E-1,-1.16342336E-1,-3.772824E-3,-1.7106028E-1,3.7264106E-1,6.742467E-1,3.6034394E-2,2.8287104E-1,-1.4064647E-2,-2.9907256E-2,-5.9111234E-2,-3.9950814E-3,-8.638061E-3,3.5956216E-3,-6.7829858E-3,-5.0611295E-2,2.8589123E-3,3.217373E-2,-1.7919882E-3,3.5188742E-2,-7.028982E-3,1.5777836E-2,-1.43881785E-2,1.5386927E-2],"categories":[],"categories_nodes":[],"categories_segments":[],"categories_sizes":[],"default_left":[0,0,0,0,0,0,0,0,0,0,0,0,0,0,0,0,0,0,0,0,0,0,0,0,0,0,0,0,0,0,0],"id":2,"left_children":[1,3,5,7,9,11,13,15,17,19,21,23,25,27,29,-1,-1,-1,-1,-1,-1,-1,-1,-1,-1,-1,-1,-1,-1,-1,-1],"loss_changes":[1.5297597E2,2.8765663E1,2.7989372E1,1.415271E1,7.0439453E0,5.065048E0,1.1224918E1,1.0104218E1,7.7050095E0,9.071351E0,1.1425071E1,7.508934E0,4.0688934E0,1.2449558E1,1.0235443E1,0E0,0E0,0E0,0E0,0E0,0E0,0E0,0E0,0E0,0E0,0E0,0E0,0E0,0E0,0E0,0E0],"parents":[2147483647,0,0,1,1,2,2,3,3,4,4,5,5,6,6,7,7,8,8,9,9,10,10,11,11,12,12,13,13,14,14],"right_children":[2,4,6,8,10,12,14,16,18,20,22,24,26,28,30,-1,-1,-1,-1,-1,-1,-1,-1,-1,-1,-1,-1,-1,-1,-1,-1],"split_conditions":[2E0,1.68E0,1.55E0,1.1005049E0,1.5E0,1.6666666E0,4.2857143E-1,8.666667E-1,4.2857143E-1,1E0,1.978022E0,6.25E-1,1.25E0,7.777778E-1,1.6666666E0,-1.4064647E-2,-2.9907256E-2,-5.9111234E-2,-3.9950814E-3,-8.638061E-3,3.5956216E-3,-6.7829858E-3,-5.0611295E-2,2.8589123E-3,3.217373E-2,-1.7919882E-3,3.5188742E-2,-7.028982E-3,1.5777836E-2,-1.43881785E-2,1.5386927E-2],"split_indices":[17,17,16,28,6,10,9,22,1,6,24,30,15,4,14,0,0,0,0,0,0,0,0,0,0,0,0,0,0,0,0],"split_type":[0,0,0,0,0,0,0,0,0,0,0,0,0,0,0,0,0,0,0,0,0,0,0,0,0,0,0,0,0,0,0],"sum_hessian":[2.9531382E3,1.7124843E3,1.2406539E3,6.1484235E2,1.097642E3,2.7680716E2,9.638468E2,4.117904E2,2.0305194E2,7.064975E2,3.9114447E2,8.8138336E1,1.8866881E2,2.4992793E2,7.139189E2,2.068454E2,2.04945E2,5.5823684E0,1.9746957E2,2.1855388E2,4.8794363E2,3.7657635E2,1.45681095E1,4.1444614E1,4.669372E1,7.388605E0,1.8128021E2,1.532423E2,9.6685646E1,2.920306E1,6.847158E2],"tree_param":{"num_deleted":"0","num_feature":"33","num_nodes":"31","size_leaf_vector":"1"}},{"base_weights":[4.424816E-2,-1.4011788E-1,3.0109715E-1,-2.7690512E-1,-6.339095E-2,5.782291E-1,2.2470641E-1,-3.708569E-1,-6.552791E-2,-7.7033706E-2,4.5069242E-1,8.7712693E-1,4.6979478E-1,1.3511132E-1,3.8367712E-1,-2.7007986E-2,-1.11199785E-2,-8.109786E-3,1.7206153E-2,-9.872427E-3,-9.0110704E-4,3.5529543E-2,-1.1733479E-2,4.7832474E-2,-2.2576686E-3,-1.8566193E-2,2.6439322E-2,2.7695396E-3,1.2923687E-2,-1.1974578E-2,2.0428428E-2],"categories":[],"categories_nodes":[],"categories_segments":[],"categories_sizes":[],"default_left":[0,0,0,0,0,0,0,0,0,0,0,0,0,0,0,0,0,0,0,0,0,0,0,0,0,0,0,0,0,0,0],"id":3,"left_children":[1,3,5,7,9,11,13,15,17,19,21,23,25,27,29,-1,-1,-1,-1,-1,-1,-1,-1,-1,-1,-1,-1,-1,-1,-1,-1],"loss_changes":[1.4042598E2,1.8063652E1,2.6023315E1,1.22347145E1,7.7651505E0,8.101929E0,1.3759281E1,1.0569313E1,7.6473265E0,7.6489353E0,5.3067026E0,5.241684E0,1.0047016E1,6.0953093E0,5.542034E0,0E0,0E0,0E0,0E0,0E0,0E0,0E0,0E0,0E0,0E0,0E0,0E0,0E0,0E0,0E0,0E0],"parents":[2147483647,0,0,1,1,2,2,3,3,4,4,5,5,6,6,7,7,8,8,9,9,10,10,11,11,12,12,13,13,14,14],"right_children":[2,4,6,8,10,12,14,16,18,20,22,24,26,28,30,-1,-1,-1,-1,-1,-1,-1,-1,-1,-1,-1,-1,-1,-1,-1,-1],"split_conditions":[2E0,1.68E0,1.54E0,1.1126972E0,2.28E0,-3.3333334E-1,8E-1,1.125E0,1.7E0,1.1E0,1.3333334E0,2.6666667E0,7.5E-1,8.75E-1,1.1666666E0,-2.7007986E-2,-1.11199785E-2,-8.109786E-3,1.7206153E-2,-9.872427E-3,-9.0110704E-4,3.5529543E-2,-1.1733479E-2,4.7832474E-2,-2.2576686E-3,-1.8566193E-2,2.6439322E-2,2.7695396E-3,1.2923687E-2,-1.1974578E-2,2.0428428E-2],"split_indices":[17,17,16,28,16,26,4,6,5,5,22,13,13,7,10,0,0,0,0,0,0,0,0,0,0,0,0,0,0,0,0],"split_type":[0,0,0,0,0,0,0,0,0,0,0,0,0,0,0,0,0,0,0,0,0,0,0,0,0,0,0,0,0,0,0],"sum_hessian":[2.9632056E3,1.725039E3,1.2381666E3,6.184918E2,1.1065471E3,2.6584613E2,9.7232056E2,4.2732788E2,1.9116396E2,1.0789584E3,2.758875E1,6.863724E1,1.972089E2,6.234348E2,3.4888574E2,1.9809995E2,2.2922794E2,1.5535263E2,3.581132E1,3.5352985E2,7.2542847E2,2.0082352E1,7.506399E0,6.3254368E1,5.3828707E0,1.2466633E1,1.8474226E2,3.800771E2,2.4335774E2,1.2914961E1,3.3597076E2],"tree_param":{"num_deleted":"0","num_feature":"33","num_nodes":"31","size_leaf_vector":"1"}},{"base_weights":[4.239724E-2,2.786313E-1,-1.5206742E-1,5.27855E-1,1.9989102E-1,-3.0906597E-1,-5.50024E-2,-2.4328938E-2,5.47356E-1,1.7170563E-1,5.1297885E-1,-4.3491027E-1,-1.8098198E-1,-2.6101122E-2,-4.1422427E-1,4.7794916E-3,2.9278934E-2,1.5608712E-2,5.898465E-3,1.65392E-2,4.006538E-2,-2.8383588E-2,-9.1334395E-3,-3.0089272E-4,-1.537245E-2,-1.813422E-3,3.4931745E-2,-1.5685061E-2,-6.613131E-2],"categories":[],"categories_nodes":[],"categories_segments":[],"categories_sizes":[],"default_left":[0,0,0,0,0,0,0,0,0,0,0,0,0,0,0,0,0,0,0,0,0,0,0,0,0,0,0,0,0],"id":4,"left_children":[1,3,5,7,9,11,13,-1,15,17,19,21,23,25,27,-1,-1,-1,-1,-1,-1,-1,-1,-1,-1,-1,-1,-1,-1],"loss_changes":[1.3545154E2,2.5947456E1,2.4587864E1,6.577484E0,8.787964E0,9.80743E0,1.0335667E1,0E0,5.2854614E0,6.952759E0,3.9774742E0,1.0209034E1,6.781172E0,6.7943964E0,6.1971035E0,0E0,0E0,0E0,0E0,0E0,0E0,0E0,0E0,0E0,0E0,0E0,0E0,0E0,0E0],"parents":[2147483647,0,0,1,1,2,2,3,3,4,4,5,5,6,6,8,8,9,9,10,10,11,11,12,12,13,13,14,14],"right_children":[2,4,6,8,10,12,14,-1,16,18,20,22,24,26,28,-1,-1,-1,-1,-1,-1,-1,-1,-1,-1,-1,-1,-1,-1],"split_conditions":[1.93E0,1.57E0,1.68E0,1.6666666E0,2.25E0,1.125E0,1.8333334E0,-2.4328938E-2,7.5E-1,1.68E0,1.78E0,1.1126972E0,3E-1,2.5E0,7.777778E-1,4.7794916E-3,2.9278934E-2,1.5608712E-2,5.898465E-3,1.65392E-2,4.006538E-2,-2.8383588E-2,-9.1334395E-3,-3.0089272E-4,-1.537245E-2,-1.813422E-3,3.4931745E-2,-1.5685061E-2,-6.613131E-2],"split_indices":[16,16,17,14,23,6,0,0,13,16,16,28,20,10,19,0,0,0,0,0,0,0,0,0,0,0,0,0,0],"split_type":[0,0,0,0,0,0,0,0,0,0,0,0,0,0,0,0,0,0,0,0,0,0,0,0,0,0,0,0,0],"sum_hessian":[2.9462996E3,1.3303198E3,1.6159799E3,3.1771973E2,1.01260004E3,6.1615735E2,9.998225E2,5.4440427E0,3.122757E2,9.306841E2,8.1915955E1,3.0919388E2,3.069635E2,9.26622E2,7.320055E1,2.483694E1,2.8743875E2,2.5567384E2,6.7501025E2,5.172501E1,3.0190943E1,2.0149475E2,1.0769911E2,1.2955942E2,1.7740407E2,9.148752E2,1.17468405E1,6.7217705E1,5.9828424E0],"tree_param":{"num_deleted":"0","num_feature":"33","num_nodes":"29","size_leaf_vector":"1"}},{"base_weights":[4.3779314E-2,2.8832394E-1,-1.495312E-1,2.1611685E-1,5.564058E-1,-2.8681687E-1,-8.0141164E-2,4.79459E-1,1.7275473E-1,-1.4282525E-2,5.86622E-1,-3.7160736E-1,-1.1633747E-1,-4.0720936E-2,-7.396415E-2,3.4949835E-2,1.6737811E-2,1.8884585E-3,1.3039263E-2,1.9358998E-3,3.1858306E-2,-9.564325E-3,-2.685087E-2,-3.3186715E-2,-3.42373E-3,1.4049375E-2,-4.663522E-3],"categories":[],"categories_nodes":[],"categories_segments":[],"categories_sizes":[],"default_left":[0,0,0,0,0,0,0,0,0,0,0,0,0,0,0,0,0,0,0,0,0,0,0,0,0,0,0],"id":5,"left_children":[1,3,5,7,9,11,13,15,17,-1,19,21,23,-1,25,-1,-1,-1,-1,-1,-1,-1,-1,-1,-1,-1,-1],"loss_changes":[1.402763E2,2.5162842E1,1.5725769E1,1.16597595E1,7.2473373E0,7.9373283E0,4.8518114E0,4.278633E0,1.0532928E1,0E0,7.3271255E0,1.08639145E1,4.763773E0,0E0,7.508596E0,0E0,0E0,0E0,0E0,0E0,0E0,0E0,0E0,0E0,0E0,0E0,0E0],"parents":[2147483647,0,0,1,1,2,2,3,3,4,4,5,5,6,6,7,7,8,8,10,10,11,11,12,12,14,14],"right_children":[2,4,6,8,10,12,14,16,18,-1,20,22,24,-1,26,-1,-1,-1,-1,-1,-1,-1,-1,-1,-1,-1,-1],"split_conditions":[1.92E0,2.3333333E0,1.66E0,1.54E0,5E-1,1.1005049E0,3.3333334E-1,-1.904762E-1,5.714286E-1,-1.4282525E-2,-1E0,8.5714287E-1,1.3E0,-4.0720936E-2,2.857143E-1,3.4949835E-2,1.6737811E-2,1.8884585E-3,1.3039263E-2,1.9358998E-3,3.1858306E-2,-9.564325E-3,-2.685087E-2,-3.3186715E-2,-3.42373E-3,1.4049375E-2,-4.663522E-3],"split_indices":[16,10,17,16,13,28,6,25,9,0,25,22,14,0,19,0,0,0,0,0,0,0,0,0,0,0,0],"split_type":[0,0,0,0,0,0,0,0,0,0,0,0,0,0,0,0,0,0,0,0,0,0,0,0,0,0,0],"sum_hessian":[2.965158E3,1.3091115E3,1.6560464E3,1.0330433E3,2.7606815E2,5.5447107E2,1.1015753E3,1.4430464E2,8.887387E2,9.155754E0,2.6691238E2,3.6911816E2,1.853529E2,7.9629545E0,1.0936123E3,5.553194E1,8.87727E1,3.518218E2,5.369169E2,2.2859306E1,2.4405307E2,1.779203E2,1.9119786E2,1.3700998E1,1.7165192E2,5.5448166E1,1.0381642E3],"tree_param":{"num_deleted":"0","num_feature":"33","num_nodes":"27","size_leaf_vector":"1"}},{"base_weights":[3.0873643E-2,-1.23217285E-1,2.488907E-1,-1.9724172E-1,6.0025794E-3,1.6879569E-1,4.6335578E-1,-3.3797336E-1,-1.1790183E-1,7.89164E-1,-8.232377E-3,3.7365046E-1,1.2486415E-1,-1.1826212E-1,5.1623166E-1,-2.1675764E-2,-4.148621E-3,-4.940267E-3,-3.5805836E-2,2.0301858E-2,5.15818E-2,1.9131502E-3,-9.7130705E-3,-5.3712327E-2,2.1930983E-2,1.6369978E-3,1.5778631E-2,1.3172746E-2,-4.4483703E-2,2.193799E-2,3.7905287E-2],"categories":[],"categories_nodes":[],"categories_segments":[],"categories_sizes":[],"default_left":[0,0,0,0,0,0,0,0,0,0,0,0,0,0,0,0,0,0,0,0,0,0,0,0,0,0,0,0,0,0,0],"id":6,"left_children":[1,3,5,7,9,11,13,15,17,19,21,23,25,27,29,-1,-1,-1,-1,-1,-1,-1,-1,-1,-1,-1,-1,-1,-1,-1,-1],"loss_changes":[9.858324E1,1.6462965E1,2.0733719E1,1.2123257E1,7.069544E0,7.8836327E0,1.0235138E1,9.492195E0,7.8582325E0,4.8902225E-1,5.3531065E0,1.5051931E1,1.2816059E1,8.576595E0,5.214447E0,0E0,0E0,0E0,0E0,0E0,0E0,0E0,0E0,0E0,0E0,0E0,0E0,0E0,0E0,0E0,0E0],"parents":[2147483647,0,0,1,1,2,2,3,3,4,4,5,5,6,6,7,7,8,8,9,9,10,10,11,11,12,12,13,13,14,14],"right_children":[2,4,6,8,10,12,14,16,18,20,22,24,26,28,30,-1,-1,-1,-1,-1,-1,-1,-1,-1,-1,-1,-1,-1,-1,-1,-1],"split_conditions":[2E0,1.1126972E0,2.49E0,1.66E0,2.0168068E-1,8E-1,7.5E-1,2.8333333E0,1.9E0,7E-1,1.6E0,7.777778E-1,3.3333333E0,2.3809524E-1,1E0,-2.1675764E-2,-4.148621E-3,-4.940267E-3,-3.5805836E-2,2.0301858E-2,5.15818E-2,1.9131502E-3,-9.7130705E-3,-5.3712327E-2,2.1930983E-2,1.6369978E-3,1.5778631E-2,1.3172746E-2,-4.4483703E-2,2.193799E-2,3.7905287E-2],"split_indices":[17,28,17,17,24,11,13,15,5,19,6,0,15,26,31,0,0,0,0,0,0,0,0,0,0,0,0,0,0,0,0],"split_type":[0,0,0,0,0,0,0,0,0,0,0,0,0,0,0,0,0,0,0,0,0,0,0,0,0,0,0,0,0,0,0],"sum_hessian":[2.9322227E3,1.7179673E3,1.2142554E3,1.0924167E3,6.2555054E2,8.8572296E2,3.2853238E2,3.9220703E2,7.0020966E2,1.0320784E1,6.152298E2,1.5467673E2,7.310462E2,2.7117754E1,3.014146E2,2.8451483E2,1.076922E2,6.7983984E2,2.0369827E1,5.1966367E0,5.124147E0,4.9241437E2,1.2281539E2,5.9092774E0,1.4876746E2,4.940736E2,2.3697263E2,1.8494823E1,8.622931E0,2.3073732E2,7.0677315E1],"tree_param":{"num_deleted":"0","num_feature":"33","num_nodes":"31","size_leaf_vector":"1"}},{"base_weights":[3.773791E-2,2.5174624E-1,-1.2540647E-1,5.1930934E-1,1.872779E-1,-6.645789E-2,-2.936194E-1,-1.51992235E-2,5.670341E-1,5.8216553E-2,2.7699396E-1,-1.2779032E-1,3.274501E-2,-9.3027556E-1,-2.7209768E-1,-2.5745008E-2,1.7513167E-2,3.9869428E-2,2.365329E-2,4.2107943E-3,-5.587963E-2,2.121823E-2,9.758646E-3,-1.228373E-2,-2.6168353E-3,2.358412E-3,-4.3066442E-2,-2.0893304E-2,-7.323655E-2,-5.3943815E-3,-1.8767087E-2],"categories":[],"categories_nodes":[],"categories_segments":[],"categories_sizes":[],"default_left":[0,0,0,0,0,0,0,0,0,0,0,0,0,0,0,0,0,0,0,0,0,0,0,0,0,0,0,0,0,0,0],"id":7,"left_children":[1,3,5,7,9,11,13,15,17,19,21,23,25,27,29,-1,-1,-1,-1,-1,-1,-1,-1,-1,-1,-1,-1,-1,-1,-1,-1],"loss_changes":[1.0306134E2,2.1858192E1,1.6550182E1,6.366295E0,1.188652E1,7.5693073E0,5.5710907E0,4.0417027E0,4.409668E0,1.29665165E1,7.179268E0,6.790365E0,6.0794625E0,2.9298658E0,7.0524216E0,0E0,0E0,0E0,0E0,0E0,0E0,0E0,0E0,0E0,0E0,0E0,0E0,0E0,0E0,0E0,0E0],"parents":[2147483647,0,0,1,1,2,2,3,3,4,4,5,5,6,6,7,7,8,8,9,9,10,10,11,11,12,12,13,13,14,14],"right_children":[2,4,6,8,10,12,14,16,18,20,22,24,26,28,30,-1,-1,-1,-1,-1,-1,-1,-1,-1,-1,-1,-1,-1,-1,-1,-1],"split_conditions":[1.92E0,1.54E0,2.38E0,7.5E-1,2.6666667E0,1.375E0,4E-1,5.714286E-1,-3E-1,1.1904762E0,1.125E0,9.660918E-1,3.2E0,1.1111112E0,2.5E-1,-2.5745008E-2,1.7513167E-2,3.9869428E-2,2.365329E-2,4.2107943E-3,-5.587963E-2,2.121823E-2,9.758646E-3,-1.228373E-2,-2.6168353E-3,2.358412E-3,-4.3066442E-2,-2.0893304E-2,-7.323655E-2,-5.3943815E-3,-1.8767087E-2],"split_indices":[16,16,16,13,14,11,7,18,26,25,1,27,13,1,20,0,0,0,0,0,0,0,0,0,0,0,0,0,0,0,0],"split_type":[0,0,0,0,0,0,0,0,0,0,0,0,0,0,0,0,0,0,0,0,0,0,0,0,0,0,0,0,0,0,0],"sum_hessian":[2.9495752E3,1.2759236E3,1.6736516E3,2.4606654E2,1.0298569E3,1.240811E3,4.328406E2,2.005381E1,2.2601274E2,4.2345624E2,6.0640076E2,7.672047E2,4.7360623E2,1.2620781E1,4.2021985E2,8.413993E0,1.1639817E1,6.3007046E1,1.6300569E2,4.152869E2,8.169343E0,2.1455324E2,3.918475E2,2.9801788E2,4.6918686E2,4.6712958E2,6.476656E0,7.448493E0,5.172288E0,1.6337877E2,2.5684106E2],"tree_param":{"num_deleted":"0","num_feature":"33","num_nodes":"31","size_leaf_vector":"1"}},{"base_weights":[3.159056E-2,2.3724447E-1,-1.255242E-1,4.8637632E-1,1.7292808E-1,-2.05786E-1,-8.397836E-3,7.6587516E-1,4.107345E-1,-1.1092933E-4,2.3683026E-1,-8.0542825E-2,-3.0671066E-1,-3.986934E-1,1.6294897E-2,1.9009415E-3,4.4126503E-2,-6.1444486E-3,2.3021907E-2,2.0484893E-2,-3.9940965E-3,-2.248468E-3,1.4132613E-2,6.086656E-4,-1.949258E-2,-1.6128631E-2,2.6988251E-2,-3.164768E-2,2.8394038E-2,2.8315058E-3,-9.140806E-3],"categories":[],"categories_nodes":[],"categories_segments":[],"categories_sizes":[],"default_left":[0,0,0,0,0,0,0,0,0,0,0,0,0,0,0,0,0,0,0,0,0,0,0,0,0,0,0,0,0,0,0],"id":8,"left_children":[1,3,5,7,9,11,13,15,17,19,21,23,25,27,29,-1,-1,-1,-1,-1,-1,-1,-1,-1,-1,-1,-1,-1,-1,-1,-1],"loss_changes":[9.5118935E1,2.028032E1,1.5662243E1,5.0806046E0,1.125032E1,1.2444214E1,6.59823E0,4.467947E0,5.597969E0,8.970021E0,9.616241E0,1.2757135E1,7.4989777E0,9.59112E0,5.1397805E0,0E0,0E0,0E0,0E0,0E0,0E0,0E0,0E0,0E0,0E0,0E0,0E0,0E0,0E0,0E0,0E0],"parents":[2147483647,0,0,1,1,2,2,3,3,4,4,5,5,6,6,7,7,8,8,9,9,10,10,11,11,12,12,13,13,14,14],"right_children":[2,4,6,8,10,12,14,16,18,20,22,24,26,28,30,-1,-1,-1,-1,-1,-1,-1,-1,-1,-1,-1,-1,-1,-1,-1,-1],"split_conditions":[1.92E0,1.55E0,7.1428573E-1,9.189366E-1,4.2857143E-1,2.21E0,5E-1,-7.1428573E-1,7.5E-1,4.5454547E-1,8.333333E-1,1.5E0,1.7159383E0,1.6666666E0,1.5555556E0,1.9009415E-3,4.4126503E-2,-6.1444486E-3,2.3021907E-2,2.0484893E-2,-3.9940965E-3,-2.248468E-3,1.4132613E-2,6.086656E-4,-1.949258E-2,-1.6128631E-2,2.6988251E-2,-3.164768E-2,2.8394038E-2,2.8315058E-3,-9.140806E-3],"split_indices":[16,16,7,28,9,16,12,25,13,23,10,6,28,11,0,0,0,0,0,0,0,0,0,0,0,0,0,0,0,0,0],"split_type":[0,0,0,0,0,0,0,0,0,0,0,0,0,0,0,0,0,0,0,0,0,0,0,0,0,0,0,0,0,0,0],"sum_hessian":[2.9415647E3,1.2740436E3,1.6675211E3,2.5975525E2,1.0142883E3,9.8851935E2,6.790018E2,5.310042E1,2.0665483E2,2.733971E2,7.4089124E2,4.423593E2,5.4616003E2,3.974186E1,6.392599E2,7.636485E0,4.546394E1,1.731157E1,1.8934326E2,4.3668537E1,2.2972855E2,1.03320305E2,6.375709E2,3.408315E2,1.0152782E2,5.368374E2,9.322632E0,3.2350075E1,7.3917875E0,5.325879E2,1.06672005E2],"tree_param":{"num_deleted":"0","num_feature":"33","num_nodes":"31","size_leaf_vector":"1"}},{"base_weights":[2.4391515E-2,3.2212538E-1,-7.488616E-2,2.2424613E-1,4.8929283E-1,-1.7043883E-1,3.0629773E-2,-1.0624891E-1,2.7255753E-1,8.3366114E-1,4.32321E-1,-1.8716829E-1,5.523482E-1,2.6313209E-3,4.2498457E-1,1.1886182E-2,-2.2471676E-2,2.9048944E-2,1.0098326E-2,5.1839776E-2,2.4861998E-3,1.6713524E-2,3.6568917E-2,-1.9168494E-2,-7.113036E-3,1.4642238E-2,4.555526E-2,-1.1263545E-2,1.867867E-3,2.9756157E-2,4.593922E-3],"categories":[],"categories_nodes":[],"categories_segments":[],"categories_sizes":[],"default_left":[0,0,0,0,0,0,0,0,0,0,0,0,0,0,0,0,0,0,0,0,0,0,0,0,0,0,0,0,0,0,0],"id":9,"left_children":[1,3,5,7,9,11,13,15,17,19,21,23,25,27,29,-1,-1,-1,-1,-1,-1,-1,-1,-1,-1,-1,-1,-1,-1,-1,-1],"loss_changes":[8.670645E1,1.1821617E1,2.2192144E1,7.468294E0,4.8038025E0,1.4029675E1,1.1499362E1,7.1807103E0,8.646795E0,5.724663E0,6.502228E0,9.844765E0,2.0557346E0,7.7248707E0,3.7906542E0,0E0,0E0,0E0,0E0,0E0,0E0,0E0,0E0,0E0,0E0,0E0,0E0,0E0,0E0,0E0,0E0],"parents":[2147483647,0,0,1,1,2,2,3,3,4,4,5,5,6,6,7,7,8,8,9,9,10,10,11,11,12,12,13,13,14,14],"right_children":[2,4,6,8,10,12,14,16,18,20,22,24,26,28,30,-1,-1,-1,-1,-1,-1,-1,-1,-1,-1,-1,-1,-1,-1,-1,-1],"split_conditions":[1.73E0,1.8571428E0,1.81E0,1.8333334E0,7.058824E-1,1.7159383E0,2.25E0,8.333333E-1,1.51E0,3.25E0,2.1666667E0,8.888889E-1,8.333333E-1,4E-1,1.3374935E0,1.1886182E-2,-2.2471676E-2,2.9048944E-2,1.0098326E-2,5.1839776E-2,2.4861998E-3,1.6713524E-2,3.6568917E-2,-1.9168494E-2,-7.113036E-3,1.4642238E-2,4.555526E-2,-1.1263545E-2,1.867867E-3,2.9756157E-2,4.593922E-3],"split_indices":[16,0,17,15,24,28,23,9,16,23,22,6,9,19,27,0,0,0,0,0,0,0,0,0,0,0,0,0,0,0,0],"split_type":[0,0,0,0,0,0,0,0,0,0,0,0,0,0,0,0,0,0,0,0,0,0,0,0,0,0,0,0,0,0,0],"sum_hessian":[2.9307498E3,7.32561E2,2.1981887E3,4.638872E2,2.6867377E2,1.1537306E3,1.0444581E3,5.8745296E1,4.051419E2,3.5954906E1,2.3271886E2,1.1284902E3,2.524036E1,9.7639606E2,6.8062035E1,2.9346914E1,2.9398382E1,7.3847176E1,3.3129474E2,2.8198088E1,7.7568207E0,1.7710454E2,5.5614315E1,2.083674E2,9.2012286E2,1.58618555E1,9.378505E0,1.27997665E2,8.483984E2,4.4332047E1,2.3729994E1],"tree_param":{"num_deleted":"0","num_feature":"33","num_nodes":"31","size_leaf_vector":"1"}},{"base_weights":[1.1374902E-2,-1.16627865E-1,2.2288312E-1,-2.2070993E-1,-6.174479E-2,4.6301544E-1,1.6026701E-1,-1.3918202E-1,-3.7947887E-1,-1.3768695E-1,1.4885042E-2,3.7345394E-1,7.171252E-1,1.1204342E-1,3.9825147E-1,-1.0908984E-2,4.476649E-3,-2.5588533E-2,-3.1944055E-3,1.1440022E-2,-9.421471E-3,-3.7799202E-2,1.5637216E-3,3.6509495E-2,1.5708804E-2,2.2164313E-3,4.704442E-2,-9.50377E-3,7.6290676E-3,2.7658561E-2,1.1280753E-2],"categories":[],"categories_nodes":[],"categories_segments":[],"categories_sizes":[],"default_left":[0,0,0,0,0,0,0,0,0,0,0,0,0,0,0,0,0,0,0,0,0,0,0,0,0,0,0,0,0,0,0],"id":10,"left_children":[1,3,5,7,9,11,13,15,17,19,21,23,25,27,29,-1,-1,-1,-1,-1,-1,-1,-1,-1,-1,-1,-1,-1,-1,-1,-1],"loss_changes":[7.918707E1,1.0364054E1,1.6446358E1,8.023098E0,6.9670587E0,4.794796E0,9.964926E0,7.564392E0,8.762556E0,1.1212148E1,7.4675107E0,3.2695198E0,8.56772E0,8.973885E0,3.7278175E0,0E0,0E0,0E0,0E0,0E0,0E0,0E0,0E0,0E0,0E0,0E0,0E0,0E0,0E0,0E0,0E0],"parents":[2147483647,0,0,1,1,2,2,3,3,4,4,5,5,6,6,7,7,8,8,9,9,10,10,11,11,12,12,13,13,14,14],"right_children":[2,4,6,8,10,12,14,16,18,20,22,24,26,28,30,-1,-1,-1,-1,-1,-1,-1,-1,-1,-1,-1,-1,-1,-1,-1,-1],"split_conditions":[2.03E0,1.68E0,1.54E0,1.904762E-1,6E-1,3.3333334E-1,2.3333333E0,2.9E0,7.777778E-1,4.375E-1,8.888889E-1,7.222222E-1,6.666667E-1,8.75E-1,5.555556E-1,-1.0908984E-2,4.476649E-3,-2.5588533E-2,-3.1944055E-3,1.1440022E-2,-9.421471E-3,-3.7799202E-2,1.5637216E-3,3.6509495E-2,1.5708804E-2,2.2164313E-3,4.704442E-2,-9.50377E-3,7.6290676E-3,2.7658561E-2,1.1280753E-2],"split_indices":[17,17,16,25,9,21,10,15,7,23,5,22,13,3,30,0,0,0,0,0,0,0,0,0,0,0,0,0,0,0,0],"split_type":[0,0,0,0,0,0,0,0,0,0,0,0,0,0,0,0,0,0,0,0,0,0,0,0,0,0,0,0,0,0,0],"sum_hessian":[2.922525E3,1.8206566E3,1.1018683E3,6.2691364E2,1.1937429E3,2.2624167E2,8.7562665E2,4.1587045E2,2.1104315E2,5.998169E2,5.939261E2,1.6939963E2,5.6842037E1,7.2966345E2,1.4596317E2,3.0946518E2,1.064053E2,1.480457E2,6.2997448E1,7.228179E1,5.275351E2,1.1298056E1,5.82628E2,2.228469E1,1.4711493E2,1.459718E1,4.2244854E1,8.559443E1,6.4406903E2,7.5461945E1,7.050122E1],"tree_param":{"num_deleted":"0","num_feature":"33","num_nodes":"31","size_leaf_vector":"1"}},{"base_weights":[3.298605E-2,-8.697718E-2,2.3252356E-1,-1.5302615E-1,3.4060965E-3,1.7269479E-1,4.374752E-1,-3.46223E-1,-1.12955324E-1,7.9349965E-1,-1.0020427E-2,1.620135E-1,7.9135936E-1,-2.1876771E-2,4.6656367E-1,-2.282255E-2,4.6804198E-4,-0E0,-9.51661E-3,2.4563234E-2,4.775877E-2,-4.5755487E-3,6.2423293E-3,1.3381201E-2,4.3935794E-3,2.2100588E-2,5.2198846E-2,1.8001467E-2,3.4103066E-2],"categories":[],"categories_nodes":[],"categories_segments":[],"categories_sizes":[],"default_left":[0,0,0,0,0,0,0,0,0,0,0,0,0,0,0,0,0,0,0,0,0,0,0,0,0,0,0,0,0],"id":11,"left_children":[1,3,5,7,9,11,13,15,17,19,21,23,25,-1,27,-1,-1,-1,-1,-1,-1,-1,-1,-1,-1,-1,-1,-1,-1],"loss_changes":[6.976895E1,1.0879208E1,1.3283142E1,8.05991E0,8.240812E0,5.3877735E0,6.475025E0,7.0970078E0,7.6410294E0,2.0445824E-2,8.324701E0,6.4881916E0,6.2507725E-1,0E0,5.135582E0,0E0,0E0,0E0,0E0,0E0,0E0,0E0,0E0,0E0,0E0,0E0,0E0,0E0,0E0],"parents":[2147483647,0,0,1,1,2,2,3,3,4,4,5,5,6,6,7,7,8,8,9,9,10,10,11,11,12,12,14,14],"right_children":[2,4,6,8,10,12,14,16,18,20,22,24,26,-1,28,-1,-1,-1,-1,-1,-1,-1,-1,-1,-1,-1,-1,-1,-1],"split_conditions":[2.04E0,7.777778E-1,2.3333333E0,5.714286E-1,2.0168068E-1,1.5E0,5E-1,1.6E0,4E-1,2.3636363E0,1.4E0,-1.25E-1,2.8333333E0,-2.1876771E-2,1E0,-2.282255E-2,4.6804198E-4,-0E0,-9.51661E-3,2.4563234E-2,4.775877E-2,-4.5755487E-3,6.2423293E-3,1.3381201E-2,4.3935794E-3,2.2100588E-2,5.2198846E-2,1.8001467E-2,3.4103066E-2],"split_indices":[17,7,10,2,24,26,13,23,30,23,11,26,14,0,31,0,0,0,0,0,0,0,0,0,0,0,0,0,0],"split_type":[0,0,0,0,0,0,0,0,0,0,0,0,0,0,0,0,0,0,0,0,0,0,0,0,0,0,0,0,0],"sum_hessian":[2.9122178E3,1.8188041E3,1.0934137E3,1.0511057E3,7.6769836E2,8.48154E2,2.4525967E2,1.7881825E2,8.7228754E2,1.1981589E1,7.5571674E2,8.3515845E2,1.2995553E1,7.328606E0,2.3793108E2,1.3650151E2,4.231675E1,3.5479132E2,5.1749615E2,5.798686E0,6.182903E0,4.7174048E2,2.839763E2,3.4284244E2,4.92316E2,6.7737045E0,6.221848E0,1.6131662E2,7.661445E1],"tree_param":{"num_deleted":"0","num_feature":"33","num_nodes":"29","size_leaf_vector":"1"}},{"base_weights":[3.0577153E-2,-6.4198606E-2,2.514468E-1,-2.1209377E-1,2.0826703E-3,1.4978978E-1,3.3824503E-1,-2.4455124E-1,1.7802674E-1,3.3706433E-1,-1.47230495E-2,3.286614E-1,3.6166474E-2,4.5212947E-2,4.0385967E-1,7.961045E-3,-1.3565819E-2,-3.9142944E-2,2.038641E-2,-1.925191E-2,2.5127787E-2,2.449911E-2,-1.2938771E-3,-1.4239174E-2,2.051353E-2,-6.4842105E-3,1.1903267E-2,8.781719E-3,-2.6646286E-2,3.0995706E-2,1.7556172E-2],"categories":[],"categories_nodes":[],"categories_segments":[],"categories_sizes":[],"default_left":[0,0,0,0,0,0,0,0,0,0,0,0,0,0,0,0,0,0,0,0,0,0,0,0,0,0,0,0,0,0,0],"id":12,"left_children":[1,3,5,7,9,11,13,15,17,19,21,23,25,27,29,-1,-1,-1,-1,-1,-1,-1,-1,-1,-1,-1,-1,-1,-1,-1,-1],"loss_changes":[6.1445717E1,2.0149166E1,7.6775627E0,8.102274E0,8.022117E0,8.249337E0,9.052719E0,6.405941E0,1.1137659E1,8.341585E0,7.57369E0,8.045942E0,8.451117E0,6.704102E0,4.094326E0,0E0,0E0,0E0,0E0,0E0,0E0,0E0,0E0,0E0,0E0,0E0,0E0,0E0,0E0,0E0,0E0],"parents":[2147483647,0,0,1,1,2,2,3,3,4,4,5,5,6,6,7,7,8,8,9,9,10,10,11,11,12,12,13,13,14,14],"right_children":[2,4,6,8,10,12,14,16,18,20,22,24,26,28,30,-1,-1,-1,-1,-1,-1,-1,-1,-1,-1,-1,-1,-1,-1,-1,-1],"split_conditions":[2.12E0,1.68E0,2.35E0,1.625E0,6.324555E-1,1.0540925E0,9.2796075E-1,4E-1,1.0540925E0,8.5714287E-1,2.625E-1,8.164966E-1,7.777778E-1,1.3888888E0,1.0801234E0,7.961045E-3,-1.3565819E-2,-3.9142944E-2,2.038641E-2,-1.925191E-2,2.5127787E-2,2.449911E-2,-1.2938771E-3,-1.4239174E-2,2.051353E-2,-6.4842105E-3,1.1903267E-2,8.781719E-3,-2.6646286E-2,3.0995706E-2,1.7556172E-2],"split_indices":[17,17,17,5,28,27,27,12,28,3,24,28,4,24,27,0,0,0,0,0,0,0,0,0,0,0,0,0,0,0,0],"split_type":[0,0,0,0,0,0,0,0,0,0,0,0,0,0,0,0,0,0,0,0,0,0,0,0,0,0,0,0,0,0,0],"sum_hessian":[2.9326733E3,2.0522878E3,8.8038556E2,6.349085E2,1.4173793E3,4.0727167E2,4.7311392E2,5.867234E2,4.818509E1,6.7085464E1,1.3502938E3,1.5713269E2,2.5013898E2,8.714433E1,3.8596957E2,3.5934807E1,5.507886E2,8.747809E0,3.943728E1,1.2148032E1,5.493743E1,2.8075489E1,1.3222183E3,1.8013412E1,1.3911928E2,1.3725372E2,1.1288526E2,7.181326E1,1.533107E1,7.32444E1,3.127252E2],"tree_param":{"num_deleted":"0","num_feature":"33","num_nodes":"31","size_leaf_vector":"1"}},{"base_weights":[2.9011926E-2,1.7453481E-1,-1.2720633E-1,4.2993266E-2,2.6498708E-1,-4.3334085E-1,-1.0307384E-1,1.8459907E-3,3.6239606E-1,4.5824155E-1,1.9760866E-1,-5.8938026E-1,2.1578902E-1,2.822324E-3,-1.8504977E-1,-3.039254E-2,1.2281127E-3,9.039092E-3,3.706893E-2,-2.8954642E-3,2.5525404E-2,9.262768E-3,5.1376052E-2,-2.0866802E-2,-5.8257688E-2,-1.838676E-2,3.9145213E-2,1.0291075E-2,-2.9635918E-3,-1.4650593E-2,-6.974518E-4],"categories":[],"categories_nodes":[],"categories_segments":[],"categories_sizes":[],"default_left":[0,0,0,0,0,0,0,0,0,0,0,0,0,0,0,0,0,0,0,0,0,0,0,0,0,0,0,0,0,0,0],"id":13,"left_children":[1,3,5,7,9,11,13,15,17,19,21,23,25,27,29,-1,-1,-1,-1,-1,-1,-1,-1,-1,-1,-1,-1,-1,-1,-1,-1],"loss_changes":[6.6943825E1,1.8099041E1,1.0391302E1,8.149262E0,1.1599525E1,1.0610928E1,1.14578285E1,7.6168523E0,4.64709E0,6.34037E0,6.5733147E0,7.630724E0,7.1447577E0,7.2801523E0,1.369569E1,0E0,0E0,0E0,0E0,0E0,0E0,0E0,0E0,0E0,0E0,0E0,0E0,0E0,0E0,0E0,0E0],"parents":[2147483647,0,0,1,1,2,2,3,3,4,4,5,5,6,6,7,7,8,8,9,9,10,10,11,11,12,12,13,13,14,14],"right_children":[2,4,6,8,10,12,14,16,18,20,22,24,26,28,30,-1,-1,-1,-1,-1,-1,-1,-1,-1,-1,-1,-1,-1,-1,-1,-1],"split_conditions":[2.01E0,2.8E0,1.25E0,2.1666667E0,1.57E0,4.1666666E-1,8.75E-1,1.6666667E-1,2.26E0,7.5E-1,2.8E0,1.1E0,1.64E0,1.7142857E0,6.666667E-1,-3.039254E-2,1.2281127E-3,9.039092E-3,3.706893E-2,-2.8954642E-3,2.5525404E-2,9.262768E-3,5.1376052E-2,-2.0866802E-2,-5.8257688E-2,-1.838676E-2,3.9145213E-2,1.0291075E-2,-2.9635918E-3,-1.4650593E-2,-6.974518E-4],"split_indices":[16,14,14,11,16,26,22,4,17,13,11,5,17,14,4,0,0,0,0,0,0,0,0,0,0,0,0,0,0,0,0],"split_type":[0,0,0,0,0,0,0,0,0,0,0,0,0,0,0,0,0,0,0,0,0,0,0,0,0,0,0,0,0,0,0],"sum_hessian":[2.9425583E3,1.5237002E3,1.4188583E3,6.218893E2,9.018109E2,1.0213364E2,1.3167246E3,5.520854E2,6.9803894E1,2.312514E2,6.7055945E2,8.253885E1,1.9594788E1,5.7442737E2,7.4229724E2,1.8747528E1,5.333378E2,4.836671E1,2.1437187E1,2.1077942E1,2.1017346E2,6.620485E2,8.510935E0,6.501156E1,1.7527296E1,9.744044E0,9.850743E0,1.3438608E2,4.4004126E2,4.5432672E2,2.8797052E2],"tree_param":{"num_deleted":"0","num_feature":"33","num_nodes":"31","size_leaf_vector":"1"}},{"base_weights":[2.0708421E-2,-1.5615949E-1,1.1672526E-1,-2.1981451E-1,-3.5010032E-2,2.8074673E-1,5.696042E-2,-1.9565271E-1,-8.5190266E-1,-1.0089924E-1,4.0414748E-1,1.7730865E-1,4.947759E-1,-7.763034E-2,9.887718E-2,-1.7241618E-2,-5.1734163E-3,-5.9359133E-2,-2.0794718E-2,-2.9624102E-3,-3.4964733E-2,4.050858E-2,9.525245E-3,7.765971E-3,5.2613415E-2,-2.0870294E-2,2.6632149E-2,-7.0893025E-4,-5.0727535E-2,-2.6766468E-2,5.5954494E-3],"categories":[],"categories_nodes":[],"categories_segments":[],"categories_sizes":[],"default_left":[0,0,0,0,0,0,0,0,0,0,0,0,0,0,0,0,0,0,0,0,0,0,0,0,0,0,0,0,0,0,0],"id":14,"left_children":[1,3,5,7,9,11,13,15,17,19,21,23,25,27,29,-1,-1,-1,-1,-1,-1,-1,-1,-1,-1,-1,-1,-1,-1,-1,-1],"loss_changes":[4.965846E1,7.899502E0,1.8532698E1,1.0016094E1,1.0312811E1,1.1037388E1,7.857789E0,8.861792E0,2.9055805E0,7.623818E0,3.7749972E0,6.3093576E0,5.893406E0,1.9521664E1,8.792722E0,0E0,0E0,0E0,0E0,0E0,0E0,0E0,0E0,0E0,0E0,0E0,0E0,0E0,0E0,0E0,0E0],"parents":[2147483647,0,0,1,1,2,2,3,3,4,4,5,5,6,6,7,7,8,8,9,9,10,10,11,11,12,12,13,13,14,14],"right_children":[2,4,6,8,10,12,14,16,18,20,22,24,26,28,30,-1,-1,-1,-1,-1,-1,-1,-1,-1,-1,-1,-1,-1,-1,-1,-1],"split_conditions":[1.77E0,7.5E-1,1.66E0,6.25E-1,1.3498971E0,2.25E0,2.1666667E0,1.1E0,8.333333E-1,1.76E0,1.2222222E0,2.625E0,8.4615386E-1,1.5555556E0,1.6666667E-1,-1.7241618E-2,-5.1734163E-3,-5.9359133E-2,-2.0794718E-2,-2.9624102E-3,-3.4964733E-2,4.050858E-2,9.525245E-3,7.765971E-3,5.2613415E-2,-2.0870294E-2,2.6632149E-2,-7.0893025E-4,-5.0727535E-2,-2.6766468E-2,5.5954494E-3],"split_indices":[17,2,16,18,27,10,14,6,12,17,1,1,22,0,4,0,0,0,0,0,0,0,0,0,0,0,0,0,0,0,0],"split_type":[0,0,0,0,0,0,0,0,0,0,0,0,0,0,0,0,0,0,0,0,0,0,0,0,0,0,0,0,0,0,0],"sum_hessian":[2.9222896E3,1.0276458E3,1.8946437E3,6.726031E2,3.5504266E2,5.045532E2,1.3900906E3,6.492529E2,2.3350193E1,3.0959097E2,4.545168E1,3.417059E2,1.6284727E2,3.2934784E2,1.0607427E3,2.4650867E2,4.0274423E2,1.2096259E1,1.1253934E1,2.9062808E2,1.8962908E1,1.4546343E1,3.0905336E1,3.3458893E2,7.116983E0,5.9860177E0,1.5686127E2,3.0950864E2,1.983921E1,2.0396048E1,1.0403467E3],"tree_param":{"num_deleted":"0","num_feature":"33","num_nodes":"31","size_leaf_vector":"1"}},{"base_weights":[1.0857816E-2,-8.3197035E-2,2.3342095E-1,-1.5636934E-1,9.411688E-3,1.7166021E-1,4.242078E-1,-9.8813355E-2,-2.7586657E-1,8.2750255E-1,-5.019303E-3,2.3204996E-1,1.4363228E-2,2.9372707E-1,6.61188E-1,-8.36243E-3,5.072031E-3,-2.0622605E-2,-4.8846733E-3,1.849494E-2,5.003072E-2,-1.6649984E-2,7.5880886E-4,9.271534E-3,2.4823068E-2,-4.289806E-2,3.5634504E-3,1.8945059E-3,2.5542362E-2,3.9353833E-2,1.49325E-2],"categories":[],"categories_nodes":[],"categories_segments":[],"categories_sizes":[],"default_left":[0,0,0,0,0,0,0,0,0,0,0,0,0,0,0,0,0,0,0,0,0,0,0,0,0,0,0,0,0,0,0],"id":15,"left_children":[1,3,5,7,9,11,13,15,17,19,21,23,25,27,29,-1,-1,-1,-1,-1,-1,-1,-1,-1,-1,-1,-1,-1,-1,-1,-1],"loss_changes":[6.1194485E1,1.3936154E1,1.0101215E1,7.8321476E0,1.0794505E1,6.224169E0,6.24448E0,1.0672573E1,8.964596E0,7.482815E-1,5.946304E0,5.695736E0,9.122011E0,7.6108503E0,3.0320473E0,0E0,0E0,0E0,0E0,0E0,0E0,0E0,0E0,0E0,0E0,0E0,0E0,0E0,0E0,0E0,0E0],"parents":[2147483647,0,0,1,1,2,2,3,3,4,4,5,5,6,6,7,7,8,8,9,9,10,10,11,11,12,12,13,13,14,14],"right_children":[2,4,6,8,10,12,14,16,18,20,22,24,26,28,30,-1,-1,-1,-1,-1,-1,-1,-1,-1,-1,-1,-1,-1,-1,-1,-1],"split_conditions":[2.12E0,7.5E-1,2.3333333E0,2.0833333E-1,2.0168068E-1,1.3165612E0,1E0,1.2292726E0,5.555556E-1,2E-1,5E-1,1E0,1.1111112E0,-4.761905E-2,7.777778E-1,-8.36243E-3,5.072031E-3,-2.0622605E-2,-4.8846733E-3,1.849494E-2,5.003072E-2,-1.6649984E-2,7.5880886E-4,9.271534E-3,2.4823068E-2,-4.289806E-2,3.5634504E-3,1.8945059E-3,2.5542362E-2,3.9353833E-2,1.49325E-2],"split_indices":[17,7,10,25,24,27,31,28,25,29,12,7,0,25,18,0,0,0,0,0,0,0,0,0,0,0,0,0,0,0,0],"split_type":[0,0,0,0,0,0,0,0,0,0,0,0,0,0,0,0,0,0,0,0,0,0,0,0,0,0,0,0,0,0,0],"sum_hessian":[2.9206848E3,2.0531877E3,8.674972E2,1.1471718E3,9.0601587E2,6.5718115E2,2.1031604E2,7.7605E2,3.711218E2,1.4848421E1,8.911674E2,4.7406595E2,1.8311522E2,1.3735185E2,7.296418E1,5.7888477E2,1.9716519E2,2.0901616E2,1.6210564E2,5.094925E0,9.753496E0,5.1079792E1,8.4008765E2,4.0477768E2,6.928825E1,1.0244241E1,1.7287097E2,6.3804665E1,7.3547195E1,5.3084225E1,1.987996E1],"tree_param":{"num_deleted":"0","num_feature":"33","num_nodes":"31","size_leaf_vector":"1"}},{"base_weights":[1.9753909E-2,-5.0890323E-2,1.826875E-1,-1.0785064E-1,4.1957628E-2,1.2035524E-1,3.7984762E-1,-3.3496225E-1,-6.93512E-2,-1.8770067E-2,2.2929531E-1,2.5706887E-1,3.1738937E-2,-1.4847481E-1,4.2858982E-1,-2.333945E-2,-3.6052025E-3,8.631161E-3,-4.9372497E-3,-1.9514238E-2,5.322719E-4,2.3898527E-2,2.8557887E-3,1.4210604E-2,-4.3182034E-2,-9.090134E-3,7.5365463E-3,1.3122884E-2,-4.4621494E-2,3.063607E-2,1.4397058E-2],"categories":[],"categories_nodes":[],"categories_segments":[],"categories_sizes":[],"default_left":[0,0,0,0,0,0,0,0,0,0,0,0,0,0,0,0,0,0,0,0,0,0,0,0,0,0,0,0,0,0,0],"id":16,"left_children":[1,3,5,7,9,11,13,15,17,19,21,23,25,27,29,-1,-1,-1,-1,-1,-1,-1,-1,-1,-1,-1,-1,-1,-1,-1,-1],"loss_changes":[3.3414898E1,1.0715464E1,1.069515E1,1.0913092E1,8.781113E0,8.067854E0,5.501251E0,6.195772E0,7.656117E0,6.3995595E0,8.006771E0,8.173056E0,1.0378274E1,5.8957973E0,4.7254715E0,0E0,0E0,0E0,0E0,0E0,0E0,0E0,0E0,0E0,0E0,0E0,0E0,0E0,0E0,0E0,0E0],"parents":[2147483647,0,0,1,1,2,2,3,3,4,4,5,5,6,6,7,7,8,8,9,9,10,10,11,11,12,12,13,13,14,14],"right_children":[2,4,6,8,10,12,14,16,18,20,22,24,26,28,30,-1,-1,-1,-1,-1,-1,-1,-1,-1,-1,-1,-1,-1,-1,-1,-1],"split_conditions":[2.11E0,1.1126972E0,2.3333333E0,5.555556E-1,1.75E0,-1.4285715E-1,-1.0333333E0,7.1428573E-1,4.375E-1,7E-1,2.0666666E0,3E0,8E-1,-1.25E0,1.0540925E0,-2.333945E-2,-3.6052025E-3,8.631161E-3,-4.9372497E-3,-1.9514238E-2,5.322719E-4,2.3898527E-2,2.8557887E-3,1.4210604E-2,-4.3182034E-2,-9.090134E-3,7.5365463E-3,1.3122884E-2,-4.4621494E-2,3.063607E-2,1.4397058E-2],"split_indices":[17,28,10,2,5,26,25,7,23,0,15,22,2,25,28,0,0,0,0,0,0,0,0,0,0,0,0,0,0,0,0],"split_type":[0,0,0,0,0,0,0,0,0,0,0,0,0,0,0,0,0,0,0,0,0,0,0,0,0,0,0,0,0,0,0],"sum_hessian":[2.9000857E3,2.0230234E3,8.770622E2,1.2543939E3,7.686296E2,6.6799335E2,2.0906882E2,1.8032764E2,1.0740663E3,5.8074146E2,1.8788809E2,2.6151273E2,4.0648062E2,1.7313036E1,1.9175578E2,1.1932724E2,6.100039E1,1.1544336E2,9.586229E2,4.195726E1,5.387842E2,7.590432E1,1.1198378E2,2.5614462E2,5.3681045E0,1.4496317E2,2.6151746E2,1.1483038E1,5.8299975E0,8.127994E1,1.1047584E2],"tree_param":{"num_deleted":"0","num_feature":"33","num_nodes":"31","size_leaf_vector":"1"}},{"base_weights":[1.5313467E-2,1.9034633E-1,-6.59236E-2,4.1608974E-1,1.4707665E-1,-1.6514519E-1,-6.357474E-3,7.3775905E-1,2.4483933E-1,-4.4365764E-1,1.5975894E-1,-1.3695821E-1,-5.7314336E-1,-2.7402654E-2,2.8117234E-1,4.345044E-2,9.390371E-3,-2.4969896E-2,1.6296642E-2,8.323092E-3,-5.4658916E-2,-2.1296528E-3,9.34372E-3,-3.7860584E-3,-1.5363923E-2,-1.9504746E-2,-7.599878E-2,7.2388137E-3,-3.638866E-3,2.991043E-2,-5.955448E-4],"categories":[],"categories_nodes":[],"categories_segments":[],"categories_sizes":[],"default_left":[0,0,0,0,0,0,0,0,0,0,0,0,0,0,0,0,0,0,0,0,0,0,0,0,0,0,0,0,0,0,0],"id":17,"left_children":[1,3,5,7,9,11,13,15,17,19,21,23,25,27,29,-1,-1,-1,-1,-1,-1,-1,-1,-1,-1,-1,-1,-1,-1,-1,-1],"loss_changes":[4.1262028E1,8.86866E0,1.1690761E1,7.821825E0,5.8405857E0,8.389561E0,7.4833937E0,3.3683548E0,6.0397925E0,6.759796E0,4.184471E0,7.198413E0,7.438018E0,9.037069E0,7.899495E0,0E0,0E0,0E0,0E0,0E0,0E0,0E0,0E0,0E0,0E0,0E0,0E0,0E0,0E0,0E0,0E0],"parents":[2147483647,0,0,1,1,2,2,3,3,4,4,5,5,6,6,7,7,8,8,9,9,10,10,11,11,12,12,13,13,14,14],"right_children":[2,4,6,8,10,12,14,16,18,20,22,24,26,28,30,-1,-1,-1,-1,-1,-1,-1,-1,-1,-1,-1,-1,-1,-1,-1,-1],"split_conditions":[1.8E0,1.49E0,1.2E0,-2.2222222E-1,7.777778E-1,2.76E0,2.1818182E0,2.25E0,1.8E0,7E-1,6.25E-1,1.1E0,1.2666667E0,2E-1,1.2472191E0,4.345044E-2,9.390371E-3,-2.4969896E-2,1.6296642E-2,8.323092E-3,-5.4658916E-2,-2.1296528E-3,9.34372E-3,-3.7860584E-3,-1.5363923E-2,-1.9504746E-2,-7.599878E-2,7.2388137E-3,-3.638866E-3,2.991043E-2,-5.955448E-4],"split_indices":[16,16,10,26,3,16,23,13,15,30,2,0,22,20,28,0,0,0,0,0,0,0,0,0,0,0,0,0,0,0,0],"split_type":[0,0,0,0,0,0,0,0,0,0,0,0,0,0,0,0,0,0,0,0,0,0,0,0,0,0,0,0,0,0,0],"sum_hessian":[2.899104E3,9.1897473E2,1.9801292E3,1.4605583E2,7.729189E2,7.415123E2,1.2386168E3,4.939062E1,9.666521E1,1.5364862E1,7.57554E2,6.9507324E2,4.6439083E1,1.1553088E3,8.330808E1,3.9259167E1,1.0131455E1,8.869916E0,8.779529E1,8.226837E0,7.1380258E0,8.901457E1,6.685395E2,5.1275037E2,1.8232286E2,4.018738E1,6.2516985E0,2.400436E2,9.152652E2,3.9682514E1,4.3625565E1],"tree_param":{"num_deleted":"0","num_feature":"33","num_nodes":"31","size_leaf_vector":"1"}},{"base_weights":[1.9170277E-2,-5.078382E-2,1.8316327E-1,8.078784E-4,-1.7295158E-1,3.133471E-1,1.1327279E-1,-2.3167305E-2,2.150629E-1,-1.8954867E-1,4.9708563E-1,6.343436E-1,2.4782641E-1,1.1980896E-2,2.4802133E-1,1.5891759E-3,-6.808873E-3,6.1747618E-2,7.879907E-3,-1.95323E-2,-6.6841613E-3,1.6541265E-4,5.1214397E-2,3.9095234E-2,3.0208332E-3,-3.5319734E-2,1.3613802E-2,-1.6908115E-2,3.639711E-3,3.2787077E-2,7.5175227E-3],"categories":[],"categories_nodes":[],"categories_segments":[],"categories_sizes":[],"default_left":[0,0,0,0,0,0,0,0,0,0,0,0,0,0,0,0,0,0,0,0,0,0,0,0,0,0,0,0,0,0,0],"id":18,"left_children":[1,3,5,7,9,11,13,15,17,19,21,23,25,27,29,-1,-1,-1,-1,-1,-1,-1,-1,-1,-1,-1,-1,-1,-1,-1,-1],"loss_changes":[3.3635986E1,1.296509E1,7.8993034E0,7.4455523E0,6.85289E0,6.173773E0,7.785935E0,8.086726E0,8.217833E0,6.598175E0,3.7694433E0,4.1739902E0,6.106886E0,6.9894423E0,9.586455E0,0E0,0E0,0E0,0E0,0E0,0E0,0E0,0E0,0E0,0E0,0E0,0E0,0E0,0E0,0E0,0E0],"parents":[2147483647,0,0,1,1,2,2,3,3,4,4,5,5,6,6,7,7,8,8,9,9,10,10,11,11,12,12,13,13,14,14],"right_children":[2,4,6,8,10,12,14,16,18,20,22,24,26,28,30,-1,-1,-1,-1,-1,-1,-1,-1,-1,-1,-1,-1,-1,-1,-1,-1],"split_conditions":[2.11E0,2.29E0,-2.2222222E-1,1.875E0,1.0333333E0,1.49E0,8.5714287E-1,6E-1,6.666667E-1,8.333333E-1,1.0909091E0,2.25E0,1.5E0,1E0,8.4327406E-1,1.5891759E-3,-6.808873E-3,6.1747618E-2,7.879907E-3,-1.95323E-2,-6.6841613E-3,1.6541265E-4,5.1214397E-2,3.9095234E-2,3.0208332E-3,-3.5319734E-2,1.3613802E-2,-1.6908115E-2,3.639711E-3,3.2787077E-2,7.5175227E-3],"split_indices":[17,16,26,23,25,16,2,30,27,6,23,13,16,5,28,0,0,0,0,0,0,0,0,0,0,0,0,0,0,0,0],"split_type":[0,0,0,0,0,0,0,0,0,0,0,0,0,0,0,0,0,0,0,0,0,0,0,0,0,0,0,0,0,0,0],"sum_hessian":[2.9290469E3,2.0532693E3,8.7577765E2,1.4437468E3,6.0952246E2,3.0421225E2,5.7156537E2,1.2988324E3,1.4491447E2,5.956347E2,1.3887766E1,4.983834E1,2.5437392E2,3.2733514E2,2.4423024E2,8.7378906E2,4.2504327E2,6.5437994E0,1.3837067E2,1.2780304E2,4.678317E2,7.7887673E0,6.098999E0,3.921838E1,1.0619959E1,5.555907E0,2.4881801E2,4.752082E1,2.7981433E2,4.5897346E1,1.9833289E2],"tree_param":{"num_deleted":"0","num_feature":"33","num_nodes":"31","size_leaf_vector":"1"}},{"base_weights":[1.4167926E-2,1.21244736E-1,-9.804418E-2,3.3883035E-1,8.3085485E-2,-3.1429115E-1,-5.196657E-2,-7.867932E-2,3.7712884E-1,7.545882E-2,6.91508E-1,-1.9558975E-1,-6.496672E-1,4.9836736E-2,-1.1435225E-1,-3.433999E-2,2.1615941E-2,1.4574828E-2,3.6760155E-2,-1.6884779E-3,5.913661E-3,-0E0,5.5043705E-2,-2.9543743E-2,-3.3443351E-3,-2.5428528E-2,-8.5313074E-2,-5.2318066E-2,3.3441752E-3,-1.9667191E-2,-3.4793366E-3],"categories":[],"categories_nodes":[],"categories_segments":[],"categories_sizes":[],"default_left":[0,0,0,0,0,0,0,0,0,0,0,0,0,0,0,0,0,0,0,0,0,0,0,0,0,0,0,0,0,0,0],"id":19,"left_children":[1,3,5,7,9,11,13,15,17,19,21,23,25,27,29,-1,-1,-1,-1,-1,-1,-1,-1,-1,-1,-1,-1,-1,-1,-1,-1],"loss_changes":[3.502562E1,1.231735E1,1.4125296E1,3.6076736E0,5.769204E0,9.715311E0,7.4719114E0,6.3050914E0,5.9273567E0,5.889094E0,4.2928534E0,9.348432E0,8.5317135E0,8.313367E0,9.033319E0,0E0,0E0,0E0,0E0,0E0,0E0,0E0,0E0,0E0,0E0,0E0,0E0,0E0,0E0,0E0,0E0],"parents":[2147483647,0,0,1,1,2,2,3,3,4,4,5,5,6,6,7,7,8,8,9,9,10,10,11,11,12,12,13,13,14,14],"right_children":[2,4,6,8,10,12,14,16,18,20,22,24,26,28,30,-1,-1,-1,-1,-1,-1,-1,-1,-1,-1,-1,-1,-1,-1,-1,-1],"split_conditions":[2.01E0,1.54E0,8.888889E-1,6.666667E-1,2.0575066E0,5E-1,1.4E0,2.1666667E0,3.3333334E-1,4.2857143E-1,2.4E0,4E-1,2.71E0,7E-1,3.3333334E-1,-3.433999E-2,2.1615941E-2,1.4574828E-2,3.6760155E-2,-1.6884779E-3,5.913661E-3,-0E0,5.5043705E-2,-2.9543743E-2,-3.3443351E-3,-2.5428528E-2,-8.5313074E-2,-5.2318066E-2,3.3441752E-3,-1.9667191E-2,-3.4793366E-3],"split_indices":[16,16,6,13,27,19,13,22,21,9,10,18,16,8,19,0,0,0,0,0,0,0,0,0,0,0,0,0,0,0,0],"split_type":[0,0,0,0,0,0,0,0,0,0,0,0,0,0,0,0,0,0,0,0,0,0,0,0,0,0,0,0,0,0,0],"sum_hessian":[2.912899E3,1.4909713E3,1.4219275E3,2.2089857E2,1.2700728E3,2.4835953E2,1.173568E3,1.825264E1,2.0264594E2,1.2556217E3,1.4451032E1,1.8482486E2,6.3534668E1,4.4537936E2,7.2818866E2,8.266562E0,9.986078E0,1.6522601E2,3.7419926E1,3.5297784E2,9.0264386E2,5.812407E0,8.638624E0,4.432419E1,1.4050067E2,5.7440136E1,6.094532E0,5.8055215E0,4.3957382E2,9.930025E1,6.2888837E2],"tree_param":{"num_deleted":"0","num_feature":"33","num_nodes":"31","size_leaf_vector":"1"}},{"base_weights":[2.804176E-2,1.43135E-1,-9.334811E-2,9.568601E-2,3.4486604E-1,-2.851875E-1,-5.1822662E-2,4.6960434E-1,8.1104554E-2,-3.001641E-1,3.9993095E-1,-4.767399E-1,-1.0548361E-1,-3.47783E-1,-2.7073342E-2,-1.306618E-2,2.9227687E-2,3.6012714E-3,2.9833395E-2,3.3158302E-2,-3.1484492E-2,5.886692E-3,2.544714E-2,-3.5637576E-2,-1.1928391E-2,6.0498635E-3,-1.95925E-2,-3.3535525E-2,-4.9090474E-3,-2.5375385E-3,1.533462E-2],"categories":[],"categories_nodes":[],"categories_segments":[],"categories_sizes":[],"default_left":[0,0,0,0,0,0,0,0,0,0,0,0,0,0,0,0,0,0,0,0,0,0,0,0,0,0,0,0,0,0,0],"id":20,"left_children":[1,3,5,7,9,11,13,15,17,19,21,23,25,27,29,-1,-1,-1,-1,-1,-1,-1,-1,-1,-1,-1,-1,-1,-1,-1,-1],"loss_changes":[4.0611534E1,1.4206654E1,1.1217755E1,6.503439E0,1.0194885E1,8.531742E0,8.480998E0,3.961257E0,5.3477426E0,7.6253853E0,7.926605E0,6.533222E0,8.574658E0,7.067176E0,8.491695E0,0E0,0E0,0E0,0E0,0E0,0E0,0E0,0E0,0E0,0E0,0E0,0E0,0E0,0E0,0E0,0E0],"parents":[2147483647,0,0,1,1,2,2,3,3,4,4,5,5,6,6,7,7,8,8,9,9,10,10,11,11,12,12,13,13,14,14],"right_children":[2,4,6,8,10,12,14,16,18,20,22,24,26,28,30,-1,-1,-1,-1,-1,-1,-1,-1,-1,-1,-1,-1,-1,-1,-1,-1],"split_conditions":[2.01E0,1E0,8.888889E-1,3.2748538E-1,1.5E0,1.0540925E0,1.25E0,5.555556E-1,2.7E0,1.4285715E0,4.4444445E-1,5E-1,4.761905E-2,7.527726E-1,3.85E0,-1.306618E-2,2.9227687E-2,3.6012714E-3,2.9833395E-2,3.3158302E-2,-3.1484492E-2,5.886692E-3,2.544714E-2,-3.5637576E-2,-1.1928391E-2,6.0498635E-3,-1.95925E-2,-3.3535525E-2,-4.9090474E-3,-2.5375385E-3,1.533462E-2],"split_indices":[16,4,6,24,10,28,14,30,1,0,19,4,25,27,15,0,0,0,0,0,0,0,0,0,0,0,0,0,0,0,0],"split_type":[0,0,0,0,0,0,0,0,0,0,0,0,0,0,0,0,0,0,0,0,0,0,0,0,0,0,0,0,0,0,0],"sum_hessian":[2.9045007E3,1.4912491E3,1.4132517E3,1.2088796E3,2.823695E2,2.5000441E2,1.1632473E3,4.3943924E1,1.1649357E3,2.1716408E1,2.606531E2,1.19943375E2,1.3006102E2,8.84493E1,1.074798E3,5.6804376E0,3.826349E1,1.1460867E3,1.8849043E1,5.199709E0,1.6516699E1,7.3467186E1,1.8718591E2,5.9033207E1,6.0910168E1,7.275163E1,5.7309395E1,3.765049E1,5.0798817E1,1.00467377E3,7.012425E1],"tree_param":{"num_deleted":"0","num_feature":"33","num_nodes":"31","size_leaf_vector":"1"}}]},"name":"gbtree"},"learner_model_param":{"base_score":"6.9069016E-1","boost_from_average":"1","num_class":"0","num_feature":"33","num_target":"1"},"objective":{"name":"binary:logistic","reg_loss_param":{"scale_pos_weight":"1"}}},"version":[2,1,4]}