{"learner":{"attributes":{"scikit_learn":"{\"_estimator_type\": \"classifier\"}"},"feature_names":["home_goals_per_game","home_goals_conceded_per_game","home_over15_rate","home_over05_rate","home_first_half_goals","away_goals_per_game","away_goals_conceded_per_game","away_over15_rate","away_over05_rate","away_first_half_goals","home_home_goals","home_home_conceded","away_away_goals","away_away_conceded","total_expected_goals","defensive_strength","over15_odds","under15_odds"],"feature_types":["float","float","float","float","float","float","float","float","float","float","float","float","float","float","float","float","float","float"],"gradient_booster":{"model":{"gbtree_model_param":{"num_parallel_tree":"1","num_trees":"100"},"iteration_indptr":[0,1,2,3,4,5,6,7,8,9,10,11,12,13,14,15,16,17,18,19,20,21,22,23,24,25,26,27,28,29,30,31,32,33,34,35,36,37,38,39,40,41,42,43,44,45,46,47,48,49,50,51,52,53,54,55,56,57,58,59,60,61,62,63,64,65,66,67,68,69,70,71,72,73,74,75,76,77,78,79,80,81,82,83,84,85,86,87,88,89,90,91,92,93,94,95,96,97,98,99,100],"tree_info":[0,0,0,0,0,0,0,0,0,0,0,0,0,0,0,0,0,0,0,0,0,0,0,0,0,0,0,0,0,0,0,0,0,0,0,0,0,0,0,0,0,0,0,0,0,0,0,0,0,0,0,0,0,0,0,0,0,0,0,0,0,0,0,0,0,0,0,0,0,0,0,0,0,0,0,0,0,0,0,0,0,0,0,0,0,0,0,0,0,0,0,0,0,0,0,0,0,0,0,0],"trees":[{"base_weights":[6.403661E-2,-4.1738033E-2,3.7466195E-1,-2.675146E-1,3.715012E-2,-1.5643789E-1,4.9016172E-1,-3.5265267E-1,2.1825626E-1,2.533638E-3,5.099307E-1,6.767269E-2,-7.2682387E-1,-1.4867961E-1,5.3070384E-1,5.9231657E-1,-3.972796E-1,3.841534E-1,-1.1754173E-1,-1.3265201E0,1.2054879E-2,8.345591E-1,7.100026E-2,8.61079E-1,-1.4498588E-1,-1.2952907E0,1.6618413E-1,-1.2878631E0,3.268333E-1,2.0772702E-1,6.0177416E-1,8.7976545E-2,-2.3727838E-3,-5.3769227E-2,-1.2722141E-2,7.111057E-2,1.8797703E-3,-2.635788E-2,-1.7376614E-1,-9.251603E-2,2.6636638E-3,-2.3727838E-3,9.47763E-2,5.949359E-2,-4.7647253E-2,1.2864624E-2,1.1010261E-1,-9.200608E-2,1.262297E-2,-1.3988736E-2,-1.9284673E-1,-7.549397E-2,5.8232274E-2,-2.635788E-2,-1.6131589E-1,5.7270087E-2,-7.549397E-2,-5.850181E-2,4.297753E-2,7.513254E-2,3.8723078E-2],"categories":[],"categories_nodes":[],"categories_segments":[],"categories_sizes":[],"default_left":[0,0,0,0,0,0,0,0,0,0,0,0,0,0,0,0,0,0,0,0,0,0,0,0,0,0,0,0,0,0,0,0,0,0,0,0,0,0,0,0,0,0,0,0,0,0,0,0,0,0,0,0,0,0,0,0,0,0,0,0,0],"id":0,"left_children":[1,3,5,7,9,11,13,15,17,19,21,23,25,27,29,31,33,35,-1,37,39,41,43,45,47,49,51,53,55,57,59,-1,-1,-1,-1,-1,-1,-1,-1,-1,-1,-1,-1,-1,-1,-1,-1,-1,-1,-1,-1,-1,-1,-1,-1,-1,-1,-1,-1,-1,-1],"loss_changes":[2.7312233E1,1.1064381E1,1.3028305E1,6.728484E0,7.5404863E0,4.9671636E0,4.576832E0,6.022354E0,6.1396217E0,5.4622006E0,4.419729E0,4.9394636E0,5.7676682E0,6.457912E0,3.6284637E0,1.1878204E0,4.9232407E0,2.7028282E0,0E0,8.8378143E-1,5.8781114E0,1.7691307E0,4.4303627E0,9.437275E-1,5.026605E0,4.7026815E0,2.4101102E0,7.357893E-1,2.7357364E0,5.7117634E0,3.9924736E0,0E0,0E0,0E0,0E0,0E0,0E0,0E0,0E0,0E0,0E0,0E0,0E0,0E0,0E0,0E0,0E0,0E0,0E0,0E0,0E0,0E0,0E0,0E0,0E0,0E0,0E0,0E0,0E0,0E0,0E0],"parents":[2147483647,0,0,1,1,2,2,3,3,4,4,5,5,6,6,7,7,8,8,9,9,10,10,11,11,12,12,13,13,14,14,15,15,16,16,17,17,19,19,20,20,21,21,22,22,23,23,24,24,25,25,26,26,27,27,28,28,29,29,30,30],"right_children":[2,4,6,8,10,12,14,16,18,20,22,24,26,28,30,32,34,36,-1,38,40,42,44,46,48,50,52,54,56,58,60,-1,-1,-1,-1,-1,-1,-1,-1,-1,-1,-1,-1,-1,-1,-1,-1,-1,-1,-1,-1,-1,-1,-1,-1,-1,-1,-1,-1,-1,-1],"split_conditions":[1.7142857E0,6.666667E-1,7E-1,1.6666666E0,2.75E0,2.6666667E0,2.4166667E0,7E-1,4.5E0,3E-1,4.6666665E0,7.1428573E-1,2.375E0,8E-1,1.1E0,7.5E-1,1.2E0,1.2222222E0,-1.1754173E-1,1.75E0,5E-1,5E-1,1E0,8.333333E-1,2.65E0,3.3333334E-1,7.5E-1,3.3333334E-1,1.5555556E0,8.333333E-1,3.15E0,8.7976545E-2,-2.3727838E-3,-5.3769227E-2,-1.2722141E-2,7.111057E-2,1.8797703E-3,-2.635788E-2,-1.7376614E-1,-9.251603E-2,2.6636638E-3,-2.3727838E-3,9.47763E-2,5.949359E-2,-4.7647253E-2,1.2864624E-2,1.1010261E-1,-9.200608E-2,1.262297E-2,-1.3988736E-2,-1.9284673E-1,-7.549397E-2,5.8232274E-2,-2.635788E-2,-1.6131589E-1,5.7270087E-2,-7.549397E-2,-5.850181E-2,4.297753E-2,7.513254E-2,3.8723078E-2],"split_indices":[0,2,7,10,13,10,14,3,14,6,15,4,0,7,6,10,11,5,0,12,5,12,7,6,14,9,8,9,5,1,15,0,0,0,0,0,0,0,0,0,0,0,0,0,0,0,0,0,0,0,0,0,0,0,0,0,0,0,0,0,0],"split_type":[0,0,0,0,0,0,0,0,0,0,0,0,0,0,0,0,0,0,0,0,0,0,0,0,0,0,0,0,0,0,0,0,0,0,0,0,0,0,0,0,0,0,0,0,0,0,0,0,0,0,0,0,0,0,0,0,0,0,0,0,0],"sum_hessian":[8.297876E2,6.1964923E2,2.1013832E2,1.5982935E2,4.5981992E2,3.7472942E1,1.7266537E2,1.362276E2,2.3601742E1,4.2938608E2,3.0433826E1,2.7535366E1,9.937576E0,1.01446085E1,1.6252077E2,5.589886E0,1.3063771E2,2.1738447E1,1.8632954E0,2.0703282E0,4.2731577E2,1.6976692E1,1.3457134E1,5.175821E0,2.2359545E1,5.7969193E0,4.1406565E0,2.484394E0,7.660215E0,3.001976E1,1.32501E2,3.5195582E0,2.0703282E0,8.529752E1,4.534019E1,1.097274E1,1.0765707E1,1.0351641E0,1.0351641E0,5.589886E0,4.2172586E2,2.0703282E0,1.49063635E1,6.832083E0,6.6250505E0,1.6562626E0,3.5195582E0,5.175821E0,1.7183725E1,2.484394E0,3.3125253E0,1.0351641E0,3.1054924E0,1.0351641E0,1.4492298E0,6.6250505E0,1.0351641E0,6.2109847E0,2.3808775E1,7.660215E1,5.5898865E1],"tree_param":{"num_deleted":"0","num_feature":"18","num_nodes":"61","size_leaf_vector":"1"}},{"base_weights":[5.758452E-2,-3.7643354E-2,3.4237534E-1,-2.3790078E-1,3.3206236E-2,-1.4373688E-1,4.5077682E-1,-3.123229E-1,1.9731696E-1,-5.941368E-3,3.9374357E-1,5.550986E-1,-3.0326918E-1,-1.5142244E-1,4.8983514E-1,3.9184162E-1,-3.6483884E-1,3.5473686E-1,-1.06462374E-1,-1.4022465E-1,8.900941E-2,9.104888E-1,2.1773835E-1,8.398881E-1,-3.7461944E-2,8.851982E-2,-3.972467E-1,-1.1759838E0,2.9710704E-1,8.916786E-1,4.3326116E-1,7.922808E-2,-3.895684E-2,-4.7255185E-2,7.954062E-3,1.6744394E-3,7.1605876E-2,-3.725521E-2,-2.6299586E-3,-6.905773E-2,1.0944752E-2,1.2162249E-2,1.21874265E-1,3.307869E-2,-1.1566686E-1,1.9870471E-2,1.0694063E-1,7.937084E-2,-4.757138E-2,-3.3057712E-2,-1.6235986E-1,5.3474512E-2,-7.049893E-2,-1.661797E-2,1.0148551E-1,3.6993347E-2,7.9101674E-2],"categories":[],"categories_nodes":[],"categories_segments":[],"categories_sizes":[],"default_left":[0,0,0,0,0,0,0,0,0,0,0,0,0,0,0,0,0,0,0,0,0,0,0,0,0,0,0,0,0,0,0,0,0,0,0,0,0,0,0,0,0,0,0,0,0,0,0,0,0,0,0,0,0,0,0,0,0],"id":1,"left_children":[1,3,5,7,9,11,13,15,17,19,21,23,25,27,29,31,33,35,-1,37,39,41,43,45,-1,-1,47,49,51,53,55,-1,-1,-1,-1,-1,-1,-1,-1,-1,-1,-1,-1,-1,-1,-1,-1,-1,-1,-1,-1,-1,-1,-1,-1,-1,-1],"loss_changes":[2.2473532E1,8.826692E0,1.10061245E1,5.3268375E0,6.4948955E0,4.473683E0,4.07312E0,5.290798E0,5.215083E0,5.3157425E0,3.9008937E0,2.308538E0,3.9354002E0,5.459268E0,3.2487488E0,3.4826274E0,6.263115E0,2.7236207E0,0E0,4.5604467E0,3.9674623E0,2.5598707E0,5.810432E0,6.8125343E-1,0E0,0E0,3.2208948E0,8.20786E-1,2.4087803E0,2.6167917E0,2.926979E0,0E0,0E0,0E0,0E0,0E0,0E0,0E0,0E0,0E0,0E0,0E0,0E0,0E0,0E0,0E0,0E0,0E0,0E0,0E0,0E0,0E0,0E0,0E0,0E0,0E0,0E0],"parents":[2147483647,0,0,1,1,2,2,3,3,4,4,5,5,6,6,7,7,8,8,9,9,10,10,11,11,12,12,13,13,14,14,15,15,16,16,17,17,19,19,20,20,21,21,22,22,23,23,26,26,27,27,28,28,29,29,30,30],"right_children":[2,4,6,8,10,12,14,16,18,20,22,24,26,28,30,32,34,36,-1,38,40,42,44,46,-1,-1,48,50,52,54,56,-1,-1,-1,-1,-1,-1,-1,-1,-1,-1,-1,-1,-1,-1,-1,-1,-1,-1,-1,-1,-1,-1,-1,-1,-1,-1],"split_conditions":[1.7142857E0,6.666667E-1,7E-1,1.6666666E0,2.6E0,7.1428573E-1,2.4166667E0,4E-1,4.5E0,5.555556E-1,1.375E0,1.6E0,4E-1,8E-1,1E0,1.25E0,1.75E0,1E0,-1.06462374E-1,1.2E0,7.5E-1,9E-1,1E0,8.333333E-1,-3.7461944E-2,8.851982E-2,6.25E-1,5E-1,1.5555556E0,5E-1,2.25E0,7.922808E-2,-3.895684E-2,-4.7255185E-2,7.954062E-3,1.6744394E-3,7.1605876E-2,-3.725521E-2,-2.6299586E-3,-6.905773E-2,1.0944752E-2,1.2162249E-2,1.21874265E-1,3.307869E-2,-1.1566686E-1,1.9870471E-2,1.0694063E-1,7.937084E-2,-4.757138E-2,-3.3057712E-2,-1.6235986E-1,5.3474512E-2,-7.049893E-2,-1.661797E-2,1.0148551E-1,3.6993347E-2,7.9101674E-2],"split_indices":[0,2,7,10,13,4,14,10,14,9,1,12,6,7,5,12,5,1,0,10,1,3,4,1,0,0,2,12,5,11,5,0,0,0,0,0,0,0,0,0,0,0,0,0,0,0,0,0,0,0,0,0,0,0,0,0,0],"split_type":[0,0,0,0,0,0,0,0,0,0,0,0,0,0,0,0,0,0,0,0,0,0,0,0,0,0,0,0,0,0,0,0,0,0,0,0,0,0,0,0,0,0,0,0,0,0,0,0,0,0,0,0,0,0,0,0,0],"sum_hessian":[8.271941E2,6.2056006E2,2.0663402E2,1.6155753E2,4.5900256E2,3.7617466E1,1.6901656E2,1.382066E2,2.3350922E1,4.1493222E2,4.4070347E1,6.530574E0,3.1086891E1,1.0119398E1,1.5889716E2,9.143518E0,1.2906308E2,2.1400257E1,1.9506644E0,1.716711E2,2.4326112E2,1.0136592E1,3.3933754E1,5.073186E0,1.457388E0,1.6610829E0,2.9425808E1,2.5873446E0,7.532053E0,1.7788027E1,1.4110913E2,6.0362744E0,3.1072443E0,1.03831894E2,2.5231182E1,1.1597713E1,9.802544E0,5.5736824E1,1.1593428E2,5.376905E0,2.3788422E2,3.2398632E0,6.896729E0,3.205636E1,1.877395E0,1.829113E0,3.244073E0,1.2554666E0,2.8170341E1,1.49752E0,1.0898248E0,6.465251E0,1.0668021E0,1.8187987E0,1.5969228E1,1.2161553E2,1.9493599E1],"tree_param":{"num_deleted":"0","num_feature":"18","num_nodes":"57","size_leaf_vector":"1"}},{"base_weights":[5.244624E-2,-3.375337E-2,3.144966E-1,-1.3846166E-1,9.043099E-2,-1.2236542E-1,4.1461936E-1,-1.6612469E-1,5.4621303E-1,-1.5337798E-1,1.08228296E-1,7.998132E-2,-6.257521E-1,-1.5514083E-1,4.522688E-1,-2.709765E-1,4.0362813E-2,7.996684E-1,-3.458742E-1,-1.0242013E-1,1.9475588E-1,-1.6976237E-1,6.182633E-1,-9.886087E-1,4.5468354E-1,-1.0881424E0,2.6996022E-1,1.41257E-1,5.220695E-1,-4.8895363E-2,1.4627464E-4,1.109327E-2,-8.724701E-2,5.9003094E-3,9.127989E-2,7.488208E-2,-1.1784603E-1,-3.544544E-2,1.938339E-2,-6.8680674E-2,2.1589002E-2,2.2532806E-2,-9.866196E-2,-2.8494984E-2,1.1740593E-1,3.806396E-3,-1.5085314E-1,8.479827E-2,-2.3910468E-2,-2.833733E-2,-1.5352657E-1,4.9923167E-2,-6.591841E-2,-1.4468158E-2,8.024827E-2,6.6887505E-2,3.1553E-2],"categories":[],"categories_nodes":[],"categories_segments":[],"categories_sizes":[],"default_left":[0,0,0,0,0,0,0,0,0,0,0,0,0,0,0,0,0,0,0,0,0,0,0,0,0,0,0,0,0,0,0,0,0,0,0,0,0,0,0,0,0,0,0,0,0,0,0,0,0,0,0,0,0,0,0,0,0],"id":2,"left_children":[1,3,5,7,9,11,13,15,17,-1,19,21,23,25,27,29,31,33,35,37,39,41,43,45,47,49,51,53,55,-1,-1,-1,-1,-1,-1,-1,-1,-1,-1,-1,-1,-1,-1,-1,-1,-1,-1,-1,-1,-1,-1,-1,-1,-1,-1,-1,-1],"loss_changes":[1.8664087E1,8.104262E0,8.995453E0,6.49282E0,8.412349E0,4.0125113E0,3.6438618E0,7.0615826E0,3.2972848E0,0E0,5.1803102E0,3.9543593E0,4.8667045E0,4.684677E0,3.3242493E0,1.2834656E1,7.217847E0,8.432007E-1,4.2127814E0,6.272696E0,3.893643E0,6.788014E0,4.9983244E0,4.7278214E0,1.1625979E0,8.833947E-1,2.11995E0,5.799776E0,3.6538239E0,0E0,0E0,0E0,0E0,0E0,0E0,0E0,0E0,0E0,0E0,0E0,0E0,0E0,0E0,0E0,0E0,0E0,0E0,0E0,0E0,0E0,0E0,0E0,0E0,0E0,0E0,0E0,0E0],"parents":[2147483647,0,0,1,1,2,2,3,3,4,4,5,5,6,6,7,7,8,8,10,10,11,11,12,12,13,13,14,14,15,15,16,16,17,17,18,18,19,19,20,20,21,21,22,22,23,23,24,24,25,25,26,26,27,27,28,28],"right_children":[2,4,6,8,10,12,14,16,18,-1,20,22,24,26,28,30,32,34,36,38,40,42,44,46,48,50,52,54,56,-1,-1,-1,-1,-1,-1,-1,-1,-1,-1,-1,-1,-1,-1,-1,-1,-1,-1,-1,-1,-1,-1,-1,-1,-1,-1,-1,-1],"split_conditions":[1.7142857E0,1.4E0,7E-1,3E0,3E-1,2.6666667E0,2.4166667E0,1.5555556E0,3E0,-1.5337798E-1,4.2857143E-1,3.4E0,2.6E0,8E-1,1.1E0,5.555556E-1,1.625E0,7.1428573E-1,1.1111111E-1,7.1428573E-1,1.1E0,1.1E0,1.1111112E0,3.3333334E-1,4E0,2.25E0,1.5555556E0,2.3333333E0,3.15E0,-4.8895363E-2,1.4627464E-4,1.109327E-2,-8.724701E-2,5.9003094E-3,9.127989E-2,7.488208E-2,-1.1784603E-1,-3.544544E-2,1.938339E-2,-6.8680674E-2,2.1589002E-2,2.2532806E-2,-9.866196E-2,-2.8494984E-2,1.1740593E-1,3.806396E-3,-1.5085314E-1,8.479827E-2,-2.3910468E-2,-2.833733E-2,-1.5352657E-1,4.9923167E-2,-6.591841E-2,-1.4468158E-2,8.024827E-2,6.6887505E-2,3.1553E-2],"split_indices":[0,11,7,13,6,10,14,5,6,0,9,14,0,7,6,4,0,0,9,7,1,5,5,9,10,14,5,0,15,0,0,0,0,0,0,0,0,0,0,0,0,0,0,0,0,0,0,0,0,0,0,0,0,0,0,0,0],"split_type":[0,0,0,0,0,0,0,0,0,0,0,0,0,0,0,0,0,0,0,0,0,0,0,0,0,0,0,0,0,0,0,0,0,0,0,0,0,0,0,0,0,0,0,0,0,0,0,0,0,0,0,0,0,0,0,0,0],"sum_hessian":[8.2479004E2,6.2129175E2,2.034983E2,3.3701578E2,2.8427594E2,3.7901573E1,1.6559674E2,3.24656E2,1.2359768E1,2.1579452E0,2.8211798E2,2.7634447E1,1.0267127E1,1.0070855E1,1.5552588E2,2.1511232E2,1.0954371E2,9.705803E0,2.653965E0,8.208972E1,2.0002827E2,1.9344097E1,8.290351E0,7.7495027E0,2.5176246E0,2.664077E0,7.4067783E0,2.9061214E1,1.2646466E2,1.1905909E2,9.605322E1,1.02498184E2,7.0455236E0,1.4876573E0,8.218145E0,1.1899767E0,1.4639884E0,4.4249E1,3.784072E1,3.9456782E0,1.960826E2,1.3526074E1,5.8180223E0,3.343769E0,4.946582E0,2.91673E0,4.8327727E0,1.4649273E0,1.0526973E0,1.5350102E0,1.129067E0,6.311964E0,1.0948143E0,2.083331E1,8.227906E0,7.261348E1,5.385118E1],"tree_param":{"num_deleted":"0","num_feature":"18","num_nodes":"57","size_leaf_vector":"1"}},{"base_weights":[4.7233514E-2,-3.0595705E-2,2.877863E-1,-1.2391939E-1,8.114149E-2,-1.105651E-1,3.8108954E-1,-2.409695E-1,2.3011502E-2,-1.3766472E-1,9.7779214E-2,5.3893495E-1,-2.551189E-1,-1.5756716E-1,4.1729409E-1,-3.7958136E-1,5.1012594E-2,7.125426E-1,-2.7631357E-2,7.536481E-1,7.0124716E-2,8.1091124E-1,-3.2488134E-2,8.3703496E-2,-3.374025E-1,-1.0105377E0,2.4513325E-1,8.121347E-1,3.6321393E-1,-5.4522224E-2,-2.0543174E-3,2.111668E-2,-4.2167272E-2,1.187399E-1,8.673974E-3,-1.2971221E-1,1.4327272E-3,1.2045757E-1,6.1982623E-3,-2.9103642E-2,1.426174E-2,1.854933E-2,1.0397982E-1,-6.7514546E-2,-4.6580504E-3,-1.552277E-2,-1.314268E-1,4.6594393E-2,-6.170792E-2,-2.5015077E-2,9.423005E-2,3.0120296E-2,7.2032824E-2],"categories":[],"categories_nodes":[],"categories_segments":[],"categories_sizes":[],"default_left":[0,0,0,0,0,0,0,0,0,0,0,0,0,0,0,0,0,0,0,0,0,0,0,0,0,0,0,0,0,0,0,0,0,0,0,0,0,0,0,0,0,0,0,0,0,0,0,0,0,0,0,0,0],"id":3,"left_children":[1,3,5,7,9,11,13,15,17,-1,19,21,23,25,27,29,31,33,35,37,39,41,-1,-1,43,45,47,49,51,-1,-1,-1,-1,-1,-1,-1,-1,-1,-1,-1,-1,-1,-1,-1,-1,-1,-1,-1,-1,-1,-1,-1,-1],"loss_changes":[1.541895E1,6.504409E0,7.524145E0,5.848765E0,7.023806E0,3.7970111E0,3.2509384E0,7.67647E0,5.3122034E0,0E0,5.0577993E0,2.005977E0,3.2085228E0,4.030321E0,2.978775E0,7.62549E0,4.7663083E0,2.989685E0,7.5906076E0,3.4489036E0,7.1490526E0,6.555667E-1,0E0,0E0,3.0126886E0,7.641759E-1,1.8649312E0,2.6776772E0,2.8092613E0,0E0,0E0,0E0,0E0,0E0,0E0,0E0,0E0,0E0,0E0,0E0,0E0,0E0,0E0,0E0,0E0,0E0,0E0,0E0,0E0,0E0,0E0,0E0,0E0],"parents":[2147483647,0,0,1,1,2,2,3,3,4,4,5,5,6,6,7,7,8,8,10,10,11,11,12,12,13,13,14,14,15,15,16,16,17,17,18,18,19,19,20,20,21,21,24,24,25,25,26,26,27,27,28,28],"right_children":[2,4,6,8,10,12,14,16,18,-1,20,22,24,26,28,30,32,34,36,38,40,42,-1,-1,44,46,48,50,52,-1,-1,-1,-1,-1,-1,-1,-1,-1,-1,-1,-1,-1,-1,-1,-1,-1,-1,-1,-1,-1,-1,-1,-1],"split_conditions":[1.7142857E0,1.4E0,7E-1,1.2857143E0,3E-1,7.1428573E-1,2.4166667E0,1.5555556E0,1.3333334E0,-1.3766472E-1,6.666667E-1,1.6E0,4E-1,8E-1,1E0,1.375E0,1.8E0,1.75E0,6.25E-1,8.333333E-1,6.666667E-1,8.333333E-1,-3.2488134E-2,8.3703496E-2,2.1E0,2.4166667E0,1.5555556E0,1.2222222E0,2.25E0,-5.4522224E-2,-2.0543174E-3,2.111668E-2,-4.2167272E-2,1.187399E-1,8.673974E-3,-1.2971221E-1,1.4327272E-3,1.2045757E-1,6.1982623E-3,-2.9103642E-2,1.426174E-2,1.854933E-2,1.0397982E-1,-6.7514546E-2,-4.6580504E-3,-1.552277E-2,-1.314268E-1,4.6594393E-2,-6.170792E-2,-2.5015077E-2,9.423005E-2,3.0120296E-2,7.2032824E-2],"split_indices":[0,11,7,0,6,4,14,5,15,0,6,12,6,7,5,1,13,10,6,2,7,1,0,0,0,15,5,6,5,0,0,0,0,0,0,0,0,0,0,0,0,0,0,0,0,0,0,0,0,0,0,0,0],"split_type":[0,0,0,0,0,0,0,0,0,0,0,0,0,0,0,0,0,0,0,0,0,0,0,0,0,0,0,0,0,0,0,0,0,0,0,0,0,0,0,0,0,0,0,0,0,0,0,0,0,0,0,0,0],"sum_hessian":[8.221019E2,6.217967E2,2.0030528E2,3.3875613E2,2.8304053E2,3.7977615E1,1.6232767E2,1.8819424E2,1.5056189E2,2.2714868E0,2.8076904E2,6.4169793E0,3.1560635E1,1.0012219E1,1.5231544E2,1.2740947E2,6.0784775E1,9.4072275E0,1.4115466E2,1.0297427E1,2.7047162E2,4.9269524E0,1.490027E0,1.5685565E0,2.9992079E1,2.7268984E0,7.2853208E0,1.6660385E1,1.3565506E2,8.683153E1,4.057794E1,4.5815075E1,1.4969701E1,4.8384404E0,4.568787E0,3.5590339E0,1.3759563E2,5.7846184E0,4.512809E0,4.471002E1,2.257616E2,1.8050872E0,3.1218653E0,1.3265189E1,1.6726889E1,1.110573E0,1.6163254E0,6.1658545E0,1.1194664E0,1.7179973E0,1.4942388E1,1.1715514E2,1.8499916E1],"tree_param":{"num_deleted":"0","num_feature":"18","num_nodes":"53","size_leaf_vector":"1"}},{"base_weights":[4.2934142E-2,-2.748551E-2,2.6391342E-1,-1.2149965E-1,6.7215E-2,-9.5984615E-2,3.501113E-1,-2.4845766E-2,-2.9862478E-1,2.6136996E-2,4.355527E-1,8.845621E-2,-5.477794E-1,-1.5671813E-1,3.8470516E-1,9.1433233E-1,-5.763406E-2,-8.331416E-1,-1.880997E-1,-3.389923E-2,2.8980577E-1,5.6769025E-1,-9.304907E-2,-1.4099427E-1,5.9381986E-1,-1.0037516E0,1.9686556E-1,-9.338552E-1,2.2240582E-1,9.020799E-2,4.523019E-1,1.1033974E-1,3.9645515E-2,-3.626206E-2,4.953034E-3,-1.2001568E-1,1.7053628E-2,-3.7531946E-2,9.164474E-3,-7.4221343E-3,6.6365145E-2,5.9784938E-2,4.1652803E-4,-5.4186232E-2,6.608461E-2,2.15552E-2,-8.476819E-2,-2.4140047E-2,1.133615E-1,-1.0221011E-2,-1.4622615E-1,-6.669345E-2,5.881995E-2,-2.2147259E-2,-1.3451718E-1,4.3470576E-2,-5.7828385E-2,-1.7423641E-2,7.3099524E-2,6.401331E-2,2.9223336E-2],"categories":[],"categories_nodes":[],"categories_segments":[],"categories_sizes":[],"default_left":[0,0,0,0,0,0,0,0,0,0,0,0,0,0,0,0,0,0,0,0,0,0,0,0,0,0,0,0,0,0,0,0,0,0,0,0,0,0,0,0,0,0,0,0,0,0,0,0,0,0,0,0,0,0,0,0,0,0,0,0,0],"id":4,"left_children":[1,3,5,7,9,11,13,15,17,19,21,23,25,27,29,31,33,35,37,39,41,43,-1,45,47,49,51,53,55,57,59,-1,-1,-1,-1,-1,-1,-1,-1,-1,-1,-1,-1,-1,-1,-1,-1,-1,-1,-1,-1,-1,-1,-1,-1,-1,-1,-1,-1,-1,-1],"loss_changes":[1.277695E1,5.5566707E0,6.1885424E0,5.3526554E0,4.6959295E0,3.3084373E0,2.8705292E0,6.3238945E0,6.367918E0,4.457354E0,6.151179E0,3.4048748E0,4.0955467E0,3.4343755E0,2.9518185E0,2.4100876E-1,6.480198E0,7.0680923E0,4.8951864E0,6.5113144E0,4.59176E0,3.358117E0,0E0,5.349581E0,4.392315E0,2.8615694E0,2.14871E0,8.106272E-1,1.6398909E0,5.094542E0,3.4814606E0,0E0,0E0,0E0,0E0,0E0,0E0,0E0,0E0,0E0,0E0,0E0,0E0,0E0,0E0,0E0,0E0,0E0,0E0,0E0,0E0,0E0,0E0,0E0,0E0,0E0,0E0,0E0,0E0,0E0,0E0],"parents":[2147483647,0,0,1,1,2,2,3,3,4,4,5,5,6,6,7,7,8,8,9,9,10,10,11,11,12,12,13,13,14,14,15,15,16,16,17,17,18,18,19,19,20,20,21,21,23,23,24,24,25,25,26,26,27,27,28,28,29,29,30,30],"right_children":[2,4,6,8,10,12,14,16,18,20,22,24,26,28,30,32,34,36,38,40,42,44,-1,46,48,50,52,54,56,58,60,-1,-1,-1,-1,-1,-1,-1,-1,-1,-1,-1,-1,-1,-1,-1,-1,-1,-1,-1,-1,-1,-1,-1,-1,-1,-1,-1,-1,-1,-1],"split_conditions":[1.7142857E0,7.777778E-1,7E-1,1.6666666E0,2.6E0,2.6666667E0,2.4166667E0,7E-1,1.375E0,7.777778E-1,1E0,3.4E0,2.375E0,8E-1,1.1E0,1.2E0,1E0,1E0,1.1111112E0,1.3E0,2.8333333E0,7.777778E-1,-9.304907E-2,1.1E0,1.1111112E0,3.3333334E-1,7.5E-1,2.25E0,1.5555556E0,2.3333333E0,1.75E0,1.1033974E-1,3.9645515E-2,-3.626206E-2,4.953034E-3,-1.2001568E-1,1.7053628E-2,-3.7531946E-2,9.164474E-3,-7.4221343E-3,6.6365145E-2,5.9784938E-2,4.1652803E-4,-5.4186232E-2,6.608461E-2,2.15552E-2,-8.476819E-2,-2.4140047E-2,1.133615E-1,-1.0221011E-2,-1.4622615E-1,-6.669345E-2,5.881995E-2,-2.2147259E-2,-1.3451718E-1,4.3470576E-2,-5.7828385E-2,-1.7423641E-2,7.3099524E-2,6.401331E-2,2.9223336E-2],"split_indices":[0,2,7,13,13,10,14,3,6,4,4,14,0,7,6,12,1,3,0,9,14,7,0,5,5,9,8,14,5,0,13,0,0,0,0,0,0,0,0,0,0,0,0,0,0,0,0,0,0,0,0,0,0,0,0,0,0,0,0,0,0],"split_type":[0,0,0,0,0,0,0,0,0,0,0,0,0,0,0,0,0,0,0,0,0,0,0,0,0,0,0,0,0,0,0,0,0,0,0,0,0,0,0,0,0,0,0,0,0,0,0,0,0,0,0,0,0,0,0,0,0,0,0,0,0],"sum_hessian":[8.196069E2,6.2220416E2,1.9740271E2,3.1209158E2,3.1011258E2,3.812164E1,1.5928107E2,2.026497E2,1.094419E2,2.799615E2,3.01511E1,2.7641483E1,1.0480156E1,9.95159E0,1.4932948E2,5.9292107E0,1.9672049E2,1.7632122E1,9.180978E1,2.28748E2,5.1213486E1,2.8024694E1,2.1264048E0,1.9506117E1,8.135366E0,6.2841744E0,4.1959815E0,2.7832427E0,7.168347E0,2.8313068E1,1.210164E2,3.5152555E0,2.413955E0,5.0529972E1,1.4619052E2,1.2767622E1,4.864499E0,5.4795853E1,3.7013927E1,2.1709251E2,1.1655497E1,2.411457E1,2.7098917E1,1.7975736E0,2.6227121E1,1.3426836E1,6.0792804E0,3.4107442E0,4.7246222E0,2.5308423E0,3.7533321E0,1.0886722E0,3.107309E0,1.581903E0,1.2013397E0,6.0273128E0,1.1410341E0,2.0557396E1,7.755674E0,5.4299713E1,6.671669E1],"tree_param":{"num_deleted":"0","num_feature":"18","num_nodes":"61","size_leaf_vector":"1"}},{"base_weights":[3.8913038E-2,-6.777707E-2,1.6132578E-1,-2.1761298E-1,5.4230347E-2,1.8164998E-1,-5.9055907E-1,-8.070757E-1,-1.551484E-1,-7.496986E-2,1.8295287E-1,1.5516366E-1,6.6757184E-1,4.908665E-2,-8.521248E-1,7.279295E-2,-9.3952364E-1,-2.0664713E-1,2.879348E-1,-1.1017595E-1,1.03356615E-1,7.3591083E-1,1.1790747E-1,1.702106E-1,-7.925715E-1,8.112735E-1,1.030678E-1,4.1550063E-2,-1.1604055E0,5.5094464E-3,-1.1346846E-1,-3.7172414E-2,-1.0419048E-2,-5.8364153E-2,5.716281E-2,1.9669307E-2,-2.3253491E-2,9.176648E-2,-4.047258E-2,-8.4973946E-2,1.75555E-2,8.3796745E-3,3.4496754E-2,3.131194E-3,-1.1036416E-1,-2.9221222E-2,9.1253616E-2,-6.5625906E-2,6.659796E-2,-1.518823E-1,6.897791E-3],"categories":[],"categories_nodes":[],"categories_segments":[],"categories_sizes":[],"default_left":[0,0,0,0,0,0,0,0,0,0,0,0,0,0,0,0,0,0,0,0,0,0,0,0,0,0,0,0,0,0,0,0,0,0,0,0,0,0,0,0,0,0,0,0,0,0,0,0,0,0,0],"id":5,"left_children":[1,3,5,7,9,11,13,15,17,19,21,23,25,-1,27,-1,29,31,33,35,-1,37,39,41,43,45,47,-1,49,-1,-1,-1,-1,-1,-1,-1,-1,-1,-1,-1,-1,-1,-1,-1,-1,-1,-1,-1,-1,-1,-1],"loss_changes":[1.0694386E1,8.0149E0,5.9330854E0,7.1167173E0,4.040047E0,4.683709E0,3.3230488E0,4.466894E0,4.1456676E0,4.8570194E0,4.285568E0,5.1837063E0,1.4515018E0,0E0,3.8564124E0,0E0,3.4722023E0,2.6844802E0,5.047426E0,4.5025916E0,0E0,2.9843884E0,6.283017E0,5.2464848E0,1.4979353E0,1.9359217E0,2.5679824E0,0E0,3.2813463E0,0E0,0E0,0E0,0E0,0E0,0E0,0E0,0E0,0E0,0E0,0E0,0E0,0E0,0E0,0E0,0E0,0E0,0E0,0E0,0E0,0E0,0E0],"parents":[2147483647,0,0,1,1,2,2,3,3,4,4,5,5,6,6,7,7,8,8,9,9,10,10,11,11,12,12,14,14,16,16,17,17,18,18,19,19,21,21,22,22,23,23,24,24,25,25,26,26,28,28],"right_children":[2,4,6,8,10,12,14,16,18,20,22,24,26,-1,28,-1,30,32,34,36,-1,38,40,42,44,46,48,-1,50,-1,-1,-1,-1,-1,-1,-1,-1,-1,-1,-1,-1,-1,-1,-1,-1,-1,-1,-1,-1,-1,-1],"split_conditions":[1.6E0,1E0,2.4E0,9E-1,1.3333334E0,2.1E0,4.2857143E-1,1.1111111E-1,4E0,1E0,2.6E0,4.75E0,2.25E0,4.908665E-2,1.1E0,7.279295E-2,4.4444445E-1,1.2E0,8.333333E-1,1E0,1.03356615E-1,2.7E0,1E0,1E0,1E0,3.75E-1,3E0,4.1550063E-2,1.8333334E0,5.5094464E-3,-1.1346846E-1,-3.7172414E-2,-1.0419048E-2,-5.8364153E-2,5.716281E-2,1.9669307E-2,-2.3253491E-2,9.176648E-2,-4.047258E-2,-8.4973946E-2,1.75555E-2,8.3796745E-3,3.4496754E-2,3.131194E-3,-1.1036416E-1,-2.9221222E-2,9.1253616E-2,-6.5625906E-2,6.659796E-2,-1.518823E-1,6.897791E-3],"split_indices":[10,8,1,1,11,1,4,9,15,2,15,15,11,0,5,0,2,13,5,1,0,5,13,4,12,4,11,0,5,0,0,0,0,0,0,0,0,0,0,0,0,0,0,0,0,0,0,0,0,0,0],"split_type":[0,0,0,0,0,0,0,0,0,0,0,0,0,0,0,0,0,0,0,0,0,0,0,0,0,0,0,0,0,0,0,0,0,0,0,0,0,0,0,0,0,0,0,0,0,0,0,0,0,0,0],"sum_hessian":[8.170141E2,4.3678015E2,3.8023395E2,1.9568185E2,2.4109828E2,3.7096478E2,9.269141E0,1.7607141E1,1.7807472E2,1.2053429E2,1.20563995E2,3.530408E2,1.7924006E1,1.6345521E0,7.6345897E0,1.0414375E0,1.6565702E1,1.600106E2,1.8064116E1,1.17696945E2,2.8373368E0,1.160393E1,1.0896007E2,3.4833084E2,4.709952E0,1.3938611E1,3.9853945E0,1.4254507E0,6.209139E0,2.8350172E0,1.3730686E1,6.027235E1,9.973825E1,4.176272E0,1.3887843E1,3.33784E1,8.431855E1,1.0177659E1,1.4262719E0,5.3537655E0,1.036063E2,2.3406824E2,1.142626E2,1.5374054E0,3.1725464E0,1.0130831E0,1.2925529E1,1.6260896E0,2.359305E0,4.6252475E0,1.5838913E0],"tree_param":{"num_deleted":"0","num_feature":"18","num_nodes":"51","size_leaf_vector":"1"}},{"base_weights":[3.5296924E-2,-1.00990616E-1,1.18305236E-1,1.1293363E-1,-1.1910689E-1,-1.6600336E-1,1.5691057E-1,-2.738705E-1,3.8600406E-3,-3.227376E-1,4.7129264E-1,-1.0222726E-1,1.644239E-1,-2.0539476E-1,-9.1219693E-1,7.3710245E-1,-3.7963837E-2,4.5792887E-1,-4.1229373E-1,6.837977E-1,-4.052375E-2,1.5054189E-1,8.3181584E-1,-8.959704E-2,-1.3557634E-2,1.1184223E-2,-1.240057E-1,1.08812965E-1,-4.1072205E-2,7.151593E-2,-7.458202E-3,8.419602E-2,-3.7613463E-2,-6.360714E-2,-5.7892743E-3,9.4663195E-2,-5.622798E-3,1.8354816E-2,-1.0484558E-2,8.900895E-2,2.2294478E-2],"categories":[],"categories_nodes":[],"categories_segments":[],"categories_sizes":[],"default_left":[0,0,0,0,0,0,0,0,0,0,0,0,0,0,0,0,0,0,0,0,0,0,0,0,0,0,0,0,0,0,0,0,0,0,0,0,0,0,0,0,0],"id":6,"left_children":[1,3,5,-1,7,9,11,13,15,17,19,-1,21,23,25,27,29,31,33,35,-1,37,39,-1,-1,-1,-1,-1,-1,-1,-1,-1,-1,-1,-1,-1,-1,-1,-1,-1,-1],"loss_changes":[9.243883E0,7.0314045E0,5.597547E0,0E0,5.821544E0,6.2624235E0,4.132245E0,5.7322206E0,5.2848244E0,3.6629038E0,2.601978E0,0E0,4.0019503E0,5.8378415E0,4.4462204E0,4.193613E0,4.551798E0,2.1064405E0,3.5402284E0,2.0795717E0,0E0,3.7080727E0,1.15787506E-1,0E0,0E0,0E0,0E0,0E0,0E0,0E0,0E0,0E0,0E0,0E0,0E0,0E0,0E0,0E0,0E0,0E0,0E0],"parents":[2147483647,0,0,1,1,2,2,4,4,5,5,6,6,7,7,8,8,9,9,10,10,12,12,13,13,14,14,15,15,16,16,17,17,18,18,19,19,21,21,22,22],"right_children":[2,4,6,-1,8,10,12,14,16,18,20,-1,22,24,26,28,30,32,34,36,-1,38,40,-1,-1,-1,-1,-1,-1,-1,-1,-1,-1,-1,-1,-1,-1,-1,-1,-1,-1],"split_conditions":[1.2E0,6.666667E-1,2.0833333E0,1.1293363E-1,8E-1,8.5714287E-1,7E-1,2.2E0,2.5E-1,2E-1,1.5555556E0,-1.0222726E-1,3.8E0,8E-1,1.5E0,2E0,9E-1,1.625E0,2.8333333E0,6.25E-1,-4.052375E-2,2.8E0,1.5555556E0,-8.959704E-2,-1.3557634E-2,1.1184223E-2,-1.240057E-1,1.08812965E-1,-4.1072205E-2,7.151593E-2,-7.458202E-3,8.419602E-2,-3.7613463E-2,-6.360714E-2,-5.7892743E-3,9.4663195E-2,-5.622798E-3,1.8354816E-2,-1.0484558E-2,8.900895E-2,2.2294478E-2],"split_indices":[0,8,14,0,7,7,8,13,10,9,0,0,10,8,14,12,8,0,15,9,0,10,1,0,0,0,0,0,0,0,0,0,0,0,0,0,0,0,0,0,0],"split_type":[0,0,0,0,0,0,0,0,0,0,0,0,0,0,0,0,0,0,0,0,0,0,0,0,0,0,0,0,0,0,0,0,0,0,0,0,0,0,0,0,0],"sum_hessian":[8.1504663E2,3.0843112E2,5.066155E2,3.585589E0,3.0484555E2,6.017288E1,4.4644266E2,1.3442892E2,1.7041661E2,4.869146E1,1.1481416E1,1.9714484E0,4.444712E2,1.2259902E2,1.1829899E1,8.29891E0,1.621177E2,4.587616E0,4.4103844E1,9.418005E0,2.0634108E0,4.3661502E2,7.8561897E0,1.0170408E1,1.1242862E2,3.0287533E0,8.801146E0,6.395154E0,1.9037558E0,6.657768E0,1.5545995E2,3.1347854E0,1.4528306E0,2.6546772E1,1.7557074E1,6.7436733E0,2.674332E0,3.868941E2,4.97209E1,6.7484426E0,1.1077471E0],"tree_param":{"num_deleted":"0","num_feature":"18","num_nodes":"41","size_leaf_vector":"1"}},{"base_weights":[3.2123577E-2,-8.6204596E-2,1.19154416E-1,-1.5148507E-1,1.064496E-1,7.9061605E-2,3.503133E-1,2.1090345E-1,-2.0260113E-1,2.906163E-1,-1.7428708E-1,4.5671183E-1,4.2530484E-2,6.49218E-1,1.09090656E-1,-5.269524E-1,3.9026898E-1,-3.1487688E-1,-5.4704692E-2,-5.525807E-2,4.8093438E-1,-5.7023674E-1,2.762056E-1,-3.5126305E-1,6.8158966E-1,-2.1646658E-1,1.0365097E-1,-7.000358E-2,7.2102326E-1,3.6767408E-1,-4.946028E-1,5.419615E-2,-1.0260236E-1,-3.3510804E-2,5.2099448E-2,-5.569442E-2,-1.9413482E-2,-8.15971E-2,1.2656042E-3,3.674128E-2,-8.643479E-2,1.0203948E-1,2.9077692E-2,7.469794E-2,-8.1333004E-2,-1.8532116E-2,5.8438398E-2,4.3756273E-2,-8.170982E-2,-3.2064162E-2,8.276386E-2,7.902669E-2,-3.26582E-2,6.9666873E-3,7.7656925E-2,5.052541E-2,1.0260228E-1,4.594794E-2,-3.4744807E-2,-1.0006446E-1,2.3057623E-2],"categories":[],"categories_nodes":[],"categories_segments":[],"categories_sizes":[],"default_left":[0,0,0,0,0,0,0,0,0,0,0,0,0,0,0,0,0,0,0,0,0,0,0,0,0,0,0,0,0,0,0,0,0,0,0,0,0,0,0,0,0,0,0,0,0,0,0,0,0,0,0,0,0,0,0,0,0,0,0,0,0],"id":7,"left_children":[1,3,5,7,9,11,13,15,17,19,21,23,25,27,29,31,33,35,37,39,41,43,45,47,49,51,53,-1,55,57,59,-1,-1,-1,-1,-1,-1,-1,-1,-1,-1,-1,-1,-1,-1,-1,-1,-1,-1,-1,-1,-1,-1,-1,-1,-1,-1,-1,-1,-1,-1],"loss_changes":[8.396412E0,4.3637447E0,4.3248224E0,4.833263E0,4.604505E0,5.5198593E0,4.91321E0,4.501465E0,3.7547255E0,3.5523467E0,6.492653E0,6.655302E0,5.835269E0,3.4760761E0,6.3409934E0,4.169188E0,2.7050977E0,3.6598377E0,5.09918E0,7.125816E0,3.25813E0,6.7647324E0,2.5671573E0,3.4251232E0,4.3584757E0,8.066219E0,6.7554274E0,0E0,1.4303503E0,2.010816E0,4.7291875E0,0E0,0E0,0E0,0E0,0E0,0E0,0E0,0E0,0E0,0E0,0E0,0E0,0E0,0E0,0E0,0E0,0E0,0E0,0E0,0E0,0E0,0E0,0E0,0E0,0E0,0E0,0E0,0E0,0E0,0E0],"parents":[2147483647,0,0,1,1,2,2,3,3,4,4,5,5,6,6,7,7,8,8,9,9,10,10,11,11,12,12,13,13,14,14,15,15,16,16,17,17,18,18,19,19,20,20,21,21,22,22,23,23,24,24,25,25,26,26,28,28,29,29,30,30],"right_children":[2,4,6,8,10,12,14,16,18,20,22,24,26,28,30,32,34,36,38,40,42,44,46,48,50,52,54,-1,56,58,60,-1,-1,-1,-1,-1,-1,-1,-1,-1,-1,-1,-1,-1,-1,-1,-1,-1,-1,-1,-1,-1,-1,-1,-1,-1,-1,-1,-1,-1,-1],"split_conditions":[7.777778E-1,1.625E0,1.1E0,3E-1,5.555556E-1,6.666667E-1,1.6E0,7.1428573E-1,1.1111112E0,2.55E0,1.1111112E0,7.5E-1,2.35E0,2.5E-1,1.6E0,1.1111111E-1,1E0,1E0,1.7333333E0,2.25E0,1.9E0,5.714286E-1,7E-1,5.555556E-1,1.25E0,3.3333334E-1,1.3E0,-7.000358E-2,2.4285715E0,8.333333E-1,1.8333334E0,5.419615E-2,-1.0260236E-1,-3.3510804E-2,5.2099448E-2,-5.569442E-2,-1.9413482E-2,-8.15971E-2,1.2656042E-3,3.674128E-2,-8.643479E-2,1.0203948E-1,2.9077692E-2,7.469794E-2,-8.1333004E-2,-1.8532116E-2,5.8438398E-2,4.3756273E-2,-8.170982E-2,-3.2064162E-2,8.276386E-2,7.902669E-2,-3.26582E-2,6.9666873E-3,7.7656925E-2,5.052541E-2,1.0260228E-1,4.594794E-2,-3.4744807E-2,-1.0006446E-1,2.3057623E-2],"split_indices":[2,5,4,9,4,11,13,0,0,14,6,1,15,12,12,4,6,11,14,14,5,6,2,1,0,13,9,0,0,9,5,0,0,0,0,0,0,0,0,0,0,0,0,0,0,0,0,0,0,0,0,0,0,0,0,0,0,0,0,0,0],"split_type":[0,0,0,0,0,0,0,0,0,0,0,0,0,0,0,0,0,0,0,0,0,0,0,0,0,0,0,0,0,0,0,0,0,0,0,0,0,0,0,0,0,0,0,0,0,0,0,0,0,0,0,0,0,0,0,0,0,0,0,0,0],"sum_hessian":[8.133306E2,3.446923E2,4.686383E2,2.57614E2,8.7078285E1,4.005141E2,6.812421E1,3.1458967E1,2.2615506E2,5.2561867E1,3.451642E1,3.4311172E1,3.6620294E2,2.9669125E1,3.8455082E1,5.772944E0,2.5686022E1,1.2791738E2,9.823767E1,1.8908386E1,3.365348E1,1.8228825E1,1.6287592E1,7.348034E0,2.696314E1,6.943436E1,2.967686E2,1.0570769E0,2.8612047E1,2.7196718E1,1.1258365E1,1.8101064E0,3.9628377E0,3.6834784E0,2.2002544E1,4.1368305E1,8.654908E1,7.082501E0,9.115517E1,1.2778667E1,6.1297193E0,7.6330695E0,2.6020412E1,2.5170763E0,1.5711749E1,6.6809235E0,9.606669E0,2.7507389E0,4.5972953E0,3.2773757E0,2.3685764E1,6.2368703E0,6.3197487E1,2.83552E2,1.3216576E1,1.8313147E1,1.0298901E1,2.4419317E1,2.7773995E0,6.407352E0,4.851013E0],"tree_param":{"num_deleted":"0","num_feature":"18","num_nodes":"61","size_leaf_vector":"1"}},{"base_weights":[2.9439248E-2,-2.2246182E-2,1.9820796E-1,1.024185E-1,-2.8608836E-2,-1.8049126E-2,3.2342774E-1,-2.2342296E-1,4.5274682E-3,-2.882917E-1,2.2742277E-1,4.5636E-1,1.3294134E-1,-8.58888E-1,-1.2314428E-1,-1.42875E-1,6.1619088E-2,-8.003834E-2,-1.1555971E0,3.75333E-1,-4.2358476E-1,5.461903E-1,-9.856054E-2,2.5700755E-2,7.526443E-1,-1.5641116E-1,-1.3365023E-2,2.1739586E-3,-5.9827495E-2,-6.344372E-2,-6.1742323E-3,6.75481E-2,4.245232E-3,-1.1131575E-1,1.0379872E-2,2.3682108E-2,-1.4602011E-1,-1.4205701E-2,6.9585726E-2,-7.083361E-2,6.6780545E-2,1.0644581E-2,6.9090575E-2,1.2822776E-2,-9.803756E-2,-2.5049577E-2,2.509501E-2,9.566607E-2,-1.9403256E-2],"categories":[],"categories_nodes":[],"categories_segments":[],"categories_sizes":[],"default_left":[0,0,0,0,0,0,0,0,0,0,0,0,0,0,0,0,0,0,0,0,0,0,0,0,0,0,0,0,0,0,0,0,0,0,0,0,0,0,0,0,0,0,0,0,0,0,0,0,0],"id":8,"left_children":[1,3,5,-1,7,9,11,13,15,17,19,21,23,25,27,29,31,33,35,37,39,41,43,45,47,-1,-1,-1,-1,-1,-1,-1,-1,-1,-1,-1,-1,-1,-1,-1,-1,-1,-1,-1,-1,-1,-1,-1,-1],"loss_changes":[7.0907702E0,4.1761007E0,5.1662736E0,0E0,4.0035734E0,4.7640405E0,2.9966211E0,5.639009E0,4.4763927E0,6.0763273E0,3.7866132E0,3.5781689E0,3.3724287E0,5.989728E0,5.4534435E0,5.88386E0,4.4818993E0,5.5502977E0,3.1190386E0,5.277756E0,2.786639E0,3.8085613E0,2.2650645E0,2.834027E0,1.6329451E0,0E0,0E0,0E0,0E0,0E0,0E0,0E0,0E0,0E0,0E0,0E0,0E0,0E0,0E0,0E0,0E0,0E0,0E0,0E0,0E0,0E0,0E0,0E0,0E0],"parents":[2147483647,0,0,1,1,2,2,4,4,5,5,6,6,7,7,8,8,9,9,10,10,11,11,12,12,13,13,14,14,15,15,16,16,17,17,18,18,19,19,20,20,21,21,22,22,23,23,24,24],"right_children":[2,4,6,-1,8,10,12,14,16,18,20,22,24,26,28,30,32,34,36,38,40,42,44,46,48,-1,-1,-1,-1,-1,-1,-1,-1,-1,-1,-1,-1,-1,-1,-1,-1,-1,-1,-1,-1,-1,-1,-1,-1],"split_conditions":[1.7142857E0,6E-1,8E-1,1.024185E-1,8.5714287E-1,2.1E0,2.5E0,2.857143E-1,1.1E0,2.6666667E0,2E0,2.6E0,2.1111112E0,1.5555556E0,2.2E0,7.5E-1,4E-1,1.5E0,1.8333334E0,1E0,1.5714285E0,1.125E0,2E0,2.3333333E0,4.25E0,-1.5641116E-1,-1.3365023E-2,2.1739586E-3,-5.9827495E-2,-6.344372E-2,-6.1742323E-3,6.75481E-2,4.245232E-3,-1.1131575E-1,1.0379872E-2,2.3682108E-2,-1.4602011E-1,-1.4205701E-2,6.9585726E-2,-7.083361E-2,6.6780545E-2,1.0644581E-2,6.9090575E-2,1.2822776E-2,-9.803756E-2,-2.5049577E-2,2.509501E-2,9.566607E-2,-1.9403256E-2],"split_indices":[0,8,7,0,5,0,10,4,6,10,13,13,6,6,13,10,10,10,0,11,4,6,11,0,15,0,0,0,0,0,0,0,0,0,0,0,0,0,0,0,0,0,0,0,0,0,0,0,0],"split_type":[0,0,0,0,0,0,0,0,0,0,0,0,0,0,0,0,0,0,0,0,0,0,0,0,0,0,0,0,0,0,0,0,0,0,0,0,0,0,0,0,0,0,0,0,0,0,0,0,0],"sum_hessian":[8.113874E2,6.218224E2,1.8956497E2,2.7912571E0,6.190311E2,6.982744E1,1.1973753E2,8.915148E1,5.298797E2,3.315372E1,3.6673714E1,6.970067E1,5.003686E1,1.1119883E1,7.80316E1,1.475148E2,3.8236487E2,2.7615175E1,5.538544E0,3.0229067E1,6.4446483E0,6.000312E1,9.69755E0,4.354313E1,6.493735E0,5.051296E0,6.0685863E0,6.0528576E1,1.7503023E1,1.993202E1,1.2758279E2,1.0540415E1,3.7182446E2,3.4079883E0,2.4207188E1,1.0340735E0,4.504471E0,1.17764015E1,1.8452665E1,5.389475E0,1.0551733E0,1.5286827E1,4.4716293E1,8.393474E0,1.3040764E0,1.9509214E1,2.4033915E1,5.333728E0,1.1600071E0],"tree_param":{"num_deleted":"0","num_feature":"18","num_nodes":"49","size_leaf_vector":"1"}},{"base_weights":[2.6524937E-2,-7.532534E-2,1.0234155E-1,-1.345891E-1,1.01057425E-1,7.5479485E-2,3.865216E-1,6.0660887E-1,-1.5650328E-1,2.708973E-1,-1.5394266E-1,1.374842E-1,-8.385502E-2,2.2862962E-1,9.5794904E-1,9.5938355E-2,1.07378185E-1,1.4552152E-1,-1.9750479E-1,4.373573E-1,-8.870944E-2,-4.9222046E-1,2.470102E-1,9.58092E-2,4.2513695E-1,2.1888281E-1,-2.0847349E-1,3.7424156E-1,-8.4632283E-1,1.1578673E-1,4.4445223E-3,-6.869582E-2,8.914957E-2,-4.5268636E-2,3.049852E-2,-3.7302505E-2,-1.0424528E-2,2.4499627E-2,8.8186316E-2,-9.725981E-2,1.2268279E-2,7.111861E-2,-7.040167E-2,5.89024E-2,-1.3797358E-2,1.109366E-2,-1.19596854E-1,-7.086293E-2,4.9189936E-2,-1.2906644E-1,3.362229E-2,-2.82166E-2,7.008515E-2,-1.6165812E-2,5.50839E-2,-1.4430316E-1,8.339998E-3],"categories":[],"categories_nodes":[],"categories_segments":[],"categories_sizes":[],"default_left":[0,0,0,0,0,0,0,0,0,0,0,0,0,0,0,0,0,0,0,0,0,0,0,0,0,0,0,0,0,0,0,0,0,0,0,0,0,0,0,0,0,0,0,0,0,0,0,0,0,0,0,0,0,0,0,0,0],"id":9,"left_children":[1,3,5,7,9,11,13,15,17,19,21,23,25,27,29,31,-1,33,35,37,39,41,43,45,47,49,51,53,55,-1,-1,-1,-1,-1,-1,-1,-1,-1,-1,-1,-1,-1,-1,-1,-1,-1,-1,-1,-1,-1,-1,-1,-1,-1,-1,-1,-1],"loss_changes":[6.2665033E0,3.6351144E0,3.5209937E0,4.3140078E0,3.840012E0,4.221636E0,3.3828325E0,1.7254705E0,3.1628337E0,3.211596E0,4.963518E0,3.6413217E0,4.5728135E0,5.4182367E0,1.4696598E0,3.5770137E0,0E0,3.078718E0,3.6156406E0,2.8963995E0,3.4083817E0,5.520952E0,2.3198996E0,5.400403E0,3.2685957E0,6.7185388E0,5.928443E0,2.8711624E0,2.447521E0,0E0,0E0,0E0,0E0,0E0,0E0,0E0,0E0,0E0,0E0,0E0,0E0,0E0,0E0,0E0,0E0,0E0,0E0,0E0,0E0,0E0,0E0,0E0,0E0,0E0,0E0,0E0,0E0],"parents":[2147483647,0,0,1,1,2,2,3,3,4,4,5,5,6,6,7,7,8,8,9,9,10,10,11,11,12,12,13,13,14,14,15,15,17,17,18,18,19,19,20,20,21,21,22,22,23,23,24,24,25,25,26,26,27,27,28,28],"right_children":[2,4,6,8,10,12,14,16,18,20,22,24,26,28,30,32,-1,34,36,38,40,42,44,46,48,50,52,54,56,-1,-1,-1,-1,-1,-1,-1,-1,-1,-1,-1,-1,-1,-1,-1,-1,-1,-1,-1,-1,-1,-1,-1,-1,-1,-1,-1,-1],"split_conditions":[7.777778E-1,1.625E0,1.1428572E0,2E-1,5.555556E-1,1.6E0,2.1E0,1.4444444E0,3E-1,2.8E0,1.1111112E0,2.25E0,1.2222222E0,2E0,3E0,6.25E-1,1.07378185E-1,7.1428573E-1,4.2857143E-1,1E0,7.1428573E-1,5.714286E-1,2.4166667E0,3.2E0,6.666667E-1,2.857143E-1,2.5E0,3.25E0,1.3333334E0,1.1578673E-1,4.4445223E-3,-6.869582E-2,8.914957E-2,-4.5268636E-2,3.049852E-2,-3.7302505E-2,-1.0424528E-2,2.4499627E-2,8.8186316E-2,-9.725981E-2,1.2268279E-2,7.111861E-2,-7.040167E-2,5.89024E-2,-1.3797358E-2,1.109366E-2,-1.19596854E-1,-7.086293E-2,4.9189936E-2,-1.2906644E-1,3.362229E-2,-2.82166E-2,7.008515E-2,-1.6165812E-2,5.50839E-2,-1.4430316E-1,8.339998E-3],"split_indices":[2,5,9,11,4,12,1,6,9,15,6,0,1,1,12,4,0,0,9,3,7,6,15,10,13,9,13,14,9,0,0,0,0,0,0,0,0,0,0,0,0,0,0,0,0,0,0,0,0,0,0,0,0,0,0,0,0],"split_type":[0,0,0,0,0,0,0,0,0,0,0,0,0,0,0,0,0,0,0,0,0,0,0,0,0,0,0,0,0,0,0,0,0,0,0,0,0,0,0,0,0,0,0,0,0,0,0,0,0,0,0,0,0,0,0,0,0],"sum_hessian":[8.095208E2,3.454533E2,4.6406754E2,2.5875113E2,8.670219E1,4.2514627E2,3.8921253E1,6.6643205E0,2.520868E2,5.200351E1,3.469868E1,3.0614694E2,1.1899933E2,3.1592094E1,7.3291564E0,3.759806E0,2.9045146E0,2.9826925E1,2.2225989E2,3.5400566E1,1.6602943E1,1.8696827E1,1.6001852E1,2.6856976E2,3.7577183E1,3.448001E1,8.451932E1,2.8397282E1,3.1948133E0,5.793714E0,1.5354424E0,1.9637827E0,1.7960232E0,5.890532E0,2.3936394E1,7.607745E1,1.4618243E2,2.5790728E1,9.6098385E0,2.5094266E0,1.4093516E1,2.445252E0,1.6251575E1,8.193169E0,7.8086843E0,2.6636462E2,2.205149E0,1.5550454E0,3.6022137E1,1.7656804E0,3.271433E1,7.882127E1,5.698049E0,7.0594354E0,2.1337847E1,1.6096249E0,1.5851884E0],"tree_param":{"num_deleted":"0","num_feature":"18","num_nodes":"57","size_leaf_vector":"1"}},{"base_weights":[2.4151111E-2,-3.101241E-2,1.3965032E-1,-1.3145159E-1,4.816445E-2,-1.6642304E-1,1.791617E-1,-3.004457E-1,1.2899971E-2,-1.1094121E0,6.1433543E-2,4.2374024E-1,-3.7612352E-1,-7.727049E-2,2.66344E-1,-3.937132E-1,3.0914262E-1,8.031097E-2,-4.7728288E-1,-1.3560468E-2,-1.4979295E-1,2.9188268E-2,7.4908894E-1,-2.1109198E-1,7.868812E-1,2.4493262E-1,-6.276665E-1,-1.0530441E0,-1.1954283E-2,4.1692233E-1,1.22167416E-1,2.0806944E-2,-4.5972798E-2,-1.0967329E-2,1.1551118E-1,-3.8649645E-2,1.7560748E-2,8.494296E-2,-6.68328E-2,4.4443845E-3,-1.19734526E-1,8.453722E-2,-7.4780807E-3,-9.128948E-2,4.905498E-2,1.0244644E-1,1.8448738E-2,1.0232021E-1,-5.0218582E-2,7.06979E-3,-8.252336E-2,-3.2213658E-2,-1.3846257E-1,-1.22502044E-1,4.137808E-3,-4.728547E-2,5.1198002E-2,7.2422706E-2,5.5367877E-3],"categories":[],"categories_nodes":[],"categories_segments":[],"categories_sizes":[],"default_left":[0,0,0,0,0,0,0,0,0,0,0,0,0,0,0,0,0,0,0,0,0,0,0,0,0,0,0,0,0,0,0,0,0,0,0,0,0,0,0,0,0,0,0,0,0,0,0,0,0,0,0,0,0,0,0,0,0,0,0],"id":10,"left_children":[1,3,5,7,9,11,13,15,17,19,21,23,25,27,29,31,33,35,37,-1,-1,39,41,43,45,47,49,51,53,55,57,-1,-1,-1,-1,-1,-1,-1,-1,-1,-1,-1,-1,-1,-1,-1,-1,-1,-1,-1,-1,-1,-1,-1,-1,-1,-1,-1,-1],"loss_changes":[5.157362E0,4.3656874E0,3.193512E0,5.9051895E0,4.78776E0,3.9251108E0,5.211215E0,6.4601336E0,4.381158E0,1.1341925E0,6.735138E0,2.1135674E0,3.7438307E0,3.7912643E0,3.7155943E0,3.9543114E0,5.566655E0,5.245657E0,4.631459E0,0E0,0E0,5.519261E0,1.1427312E0,2.3497164E0,6.103511E-1,4.784026E0,2.3537793E0,4.58663E-1,3.7351382E0,7.3847437E0,3.581285E0,0E0,0E0,0E0,0E0,0E0,0E0,0E0,0E0,0E0,0E0,0E0,0E0,0E0,0E0,0E0,0E0,0E0,0E0,0E0,0E0,0E0,0E0,0E0,0E0,0E0,0E0,0E0,0E0],"parents":[2147483647,0,0,1,1,2,2,3,3,4,4,5,5,6,6,7,7,8,8,9,9,10,10,11,11,12,12,13,13,14,14,15,15,16,16,17,17,18,18,21,21,22,22,23,23,24,24,25,25,26,26,27,27,28,28,29,29,30,30],"right_children":[2,4,6,8,10,12,14,16,18,20,22,24,26,28,30,32,34,36,38,-1,-1,40,42,44,46,48,50,52,54,56,58,-1,-1,-1,-1,-1,-1,-1,-1,-1,-1,-1,-1,-1,-1,-1,-1,-1,-1,-1,-1,-1,-1,-1,-1,-1,-1,-1,-1],"split_conditions":[1.6E0,1.4E0,2.55E0,1E0,3E-1,8E-1,1.1E0,1.6666666E0,1.1E0,1.625E0,2.5555556E0,7.777778E-1,6.666667E-1,8.888889E-1,1.6666666E0,2.2222222E-1,1.2222222E0,8E-1,7E-1,-1.3560468E-2,-1.4979295E-1,4.3333335E0,2E0,7.1428573E-1,1.6666666E0,1.3333334E0,8.333333E-1,8.333333E-1,1.1111111E-1,8.333333E-1,2.5333333E0,2.0806944E-2,-4.5972798E-2,-1.0967329E-2,1.1551118E-1,-3.8649645E-2,1.7560748E-2,8.494296E-2,-6.68328E-2,4.4443845E-3,-1.19734526E-1,8.453722E-2,-7.4780807E-3,-9.128948E-2,4.905498E-2,1.0244644E-1,1.8448738E-2,1.0232021E-1,-5.0218582E-2,7.06979E-3,-8.252336E-2,-3.2213658E-2,-1.3846257E-1,-1.22502044E-1,4.137808E-3,-4.728547E-2,5.1198002E-2,7.2422706E-2,5.5367877E-3],"split_indices":[0,1,14,8,6,11,6,12,9,5,5,1,4,3,13,4,6,12,1,0,0,14,13,4,10,1,8,6,9,8,15,0,0,0,0,0,0,0,0,0,0,0,0,0,0,0,0,0,0,0,0,0,0,0,0,0,0,0,0],"split_type":[0,0,0,0,0,0,0,0,0,0,0,0,0,0,0,0,0,0,0,0,0,0,0,0,0,0,0,0,0,0,0,0,0,0,0,0,0,0,0,0,0,0,0,0,0,0,0,0,0,0,0,0,0,0,0,0,0,0,0],"sum_hessian":[8.077826E2,5.471771E2,2.606055E2,2.4091104E2,3.0626605E2,2.9428308E1,2.311772E2,1.1048435E2,1.304267E2,2.53469E0,3.0373135E2,7.447632E0,2.1980677E1,5.8683414E1,1.7249379E2,9.613045E1,1.4353904E1,1.1539367E2,1.5033025E1,1.1075871E0,1.4271027E0,2.9112262E2,1.2608765E1,2.8623908E0,4.585241E0,6.3439155E0,1.5636762E1,2.7329538E0,5.5950462E1,8.344838E1,8.90454E1,9.290205E0,8.684024E1,1.01829605E1,4.1709433E0,1.9045258E1,9.634842E1,1.4584686E0,1.3574556E1,2.8849805E2,2.6245635E0,1.1266036E1,1.3427283E0,1.2805064E0,1.5818843E0,2.7858503E0,1.7993907E0,2.9261887E0,3.417727E0,3.5897598E0,1.2047002E1,1.4681708E0,1.2647831E0,1.4310521E0,5.451941E1,7.670942E0,7.577744E1,7.9101315E0,8.113527E1],"tree_param":{"num_deleted":"0","num_feature":"18","num_nodes":"59","size_leaf_vector":"1"}},{"base_weights":[2.1704612E-2,-7.327268E-2,8.1273936E-2,9.612611E-1,-9.122721E-2,6.070753E-1,6.6518776E-2,1.067998E-1,2.6508544E-2,-7.751845E-1,-6.562891E-2,7.748551E-1,-6.350257E-2,-1.5801343E-1,1.063448E-1,-1.0032554E0,4.7935035E-2,-1.9677337E-1,2.8426051E-2,3.3412424E-1,1.03133254E-1,-2.4063872E-1,6.8385106E-1,7.862162E-2,4.4046333E-1,-1.6607831E-1,-5.293381E-2,-3.1590562E-2,2.3579985E-2,-5.4449815E-2,7.930125E-3,6.59746E-2,-5.4238033E-3,-5.0467276E-3,-7.3317535E-2,1.241081E-2,9.788496E-2,5.092989E-3,3.82733E-2,-9.567498E-2,5.728327E-2],"categories":[],"categories_nodes":[],"categories_segments":[],"categories_sizes":[],"default_left":[0,0,0,0,0,0,0,0,0,0,0,0,0,0,0,0,0,0,0,0,0,0,0,0,0,0,0,0,0,0,0,0,0,0,0,0,0,0,0,0,0],"id":11,"left_children":[1,3,5,7,9,11,13,-1,-1,15,17,19,-1,21,23,25,-1,27,29,31,-1,33,35,37,39,-1,-1,-1,-1,-1,-1,-1,-1,-1,-1,-1,-1,-1,-1,-1,-1],"loss_changes":[4.5712504E0,5.8745394E0,3.8105624E0,1.1825466E-1,5.3266726E0,3.2899938E0,4.344301E0,0E0,0E0,3.624899E0,3.6709633E0,1.043344E0,0E0,5.263857E0,3.7782388E0,2.1189919E0,0E0,6.476716E0,5.1126137E0,7.940407E-1,0E0,6.2851486E0,1.0033658E0,3.191665E0,6.3407474E0,0E0,0E0,0E0,0E0,0E0,0E0,0E0,0E0,0E0,0E0,0E0,0E0,0E0,0E0,0E0,0E0],"parents":[2147483647,0,0,1,1,2,2,3,3,4,4,5,5,6,6,9,9,10,10,11,11,13,13,14,14,15,15,17,17,18,18,19,19,21,21,22,22,23,23,24,24],"right_children":[2,4,6,8,10,12,14,-1,-1,16,18,20,-1,22,24,26,-1,28,30,32,-1,34,36,38,40,-1,-1,-1,-1,-1,-1,-1,-1,-1,-1,-1,-1,-1,-1,-1,-1],"split_conditions":[1.2E0,7E-1,1.2E0,6.666667E-1,8E-1,1.375E0,1E0,1.067998E-1,2.6508544E-2,1.8E0,1.3333334E0,6.25E-1,-6.350257E-2,2.3333333E0,2.2857144E0,1.2222222E0,4.7935035E-2,1.75E0,7.5E-1,5E-1,1.03133254E-1,3.8E0,1.2E0,2.8E0,8.888889E-1,-1.6607831E-1,-5.293381E-2,-3.1590562E-2,2.3579985E-2,-5.4449815E-2,7.930125E-3,6.59746E-2,-5.4238033E-3,-5.0467276E-3,-7.3317535E-2,1.241081E-2,9.788496E-2,5.092989E-3,3.82733E-2,-9.567498E-2,5.728327E-2],"split_indices":[0,8,15,8,8,4,13,0,0,13,1,1,0,0,5,1,0,5,13,1,0,14,12,13,3,0,0,0,0,0,0,0,0,0,0,0,0,0,0,0,0],"split_type":[0,0,0,0,0,0,0,0,0,0,0,0,0,0,0,0,0,0,0,0,0,0,0,0,0,0,0,0,0,0,0,0,0,0,0,0,0,0,0,0,0],"sum_hessian":[8.059124E2,3.1054675E2,4.9536563E2,4.4013934E0,3.061454E2,1.2425857E1,4.829398E2,3.3531926E0,1.0482008E0,9.988247E0,2.9615714E2,1.1278553E1,1.1473038E0,7.230863E1,4.1063116E2,8.621229E0,1.3670177E0,1.2323445E2,1.7292267E2,4.9960623E0,6.2824903E0,6.649646E1,5.812173E0,3.8031055E2,3.0320608E1,2.562107E0,6.059122E0,9.683535E1,2.6399105E1,1.3311733E1,1.5961093E2,2.337445E0,2.6586173E0,4.8768932E1,1.7727522E1,2.4962974E0,3.3158755E0,3.496405E2,3.067004E1,2.0849738E0,2.8235634E1],"tree_param":{"num_deleted":"0","num_feature":"18","num_nodes":"41","size_leaf_vector":"1"}},{"base_weights":[1.9797964E-2,-1.8178474E-2,1.4790611E-1,7.853068E-1,-2.5048306E-2,-4.012215E-2,2.598408E-1,1.24809975E-2,1.04019105E-1,-4.898199E-2,2.1346404E-1,-2.7511662E-1,1.800387E-1,3.9438066E-1,6.974487E-2,-2.3228172E-2,-4.9227685E-1,2.927173E-1,-6.7197436E-1,-5.1692927E-1,3.0675444E-1,-6.488032E-2,5.62539E-1,4.845334E-1,-1.4353387E-1,-3.179845E-2,6.8096566E-1,-9.504149E-3,6.961619E-3,-1.1308768E-1,-5.683338E-3,-7.4662245E-3,4.216446E-2,1.6559562E-2,-1.1952212E-1,-6.352534E-2,4.035857E-2,6.414124E-2,-8.032408E-2,-9.616399E-2,6.3799135E-3,3.4190386E-3,9.908477E-2,-1.4443466E-2,5.6720056E-2,-3.751835E-2,5.5625677E-2,-4.68732E-2,9.433828E-3,1.01708286E-1,-2.0427366E-3],"categories":[],"categories_nodes":[],"categories_segments":[],"categories_sizes":[],"default_left":[0,0,0,0,0,0,0,0,0,0,0,0,0,0,0,0,0,0,0,0,0,0,0,0,0,0,0,0,0,0,0,0,0,0,0,0,0,0,0,0,0,0,0,0,0,0,0,0,0,0,0],"id":12,"left_children":[1,3,5,7,9,11,13,-1,-1,15,17,19,21,23,25,27,29,31,33,35,37,39,41,43,45,47,49,-1,-1,-1,-1,-1,-1,-1,-1,-1,-1,-1,-1,-1,-1,-1,-1,-1,-1,-1,-1,-1,-1,-1,-1],"loss_changes":[3.920654E0,3.4533777E0,3.8883586E0,7.631948E-1,3.5369565E0,3.651541E0,2.9297886E0,0E0,0E0,6.4074187E0,4.163176E0,4.9526443E0,3.4605598E0,3.3426476E0,3.0712855E0,3.5565102E0,8.50631E0,2.5217795E0,2.366004E0,2.9185605E0,4.4640293E0,2.7360759E0,3.218236E0,3.0994377E0,1.9042643E0,2.4191146E0,1.681566E0,0E0,0E0,0E0,0E0,0E0,0E0,0E0,0E0,0E0,0E0,0E0,0E0,0E0,0E0,0E0,0E0,0E0,0E0,0E0,0E0,0E0,0E0,0E0,0E0],"parents":[2147483647,0,0,1,1,2,2,3,3,4,4,5,5,6,6,9,9,10,10,11,11,12,12,13,13,14,14,15,15,16,16,17,17,18,18,19,19,20,20,21,21,22,22,23,23,24,24,25,25,26,26],"right_children":[2,4,6,8,10,12,14,-1,-1,16,18,20,22,24,26,28,30,32,34,36,38,40,42,44,46,48,50,-1,-1,-1,-1,-1,-1,-1,-1,-1,-1,-1,-1,-1,-1,-1,-1,-1,-1,-1,-1,-1,-1,-1,-1],"split_conditions":[1.7142857E0,4E-1,8E-1,7.777778E-1,2.5E0,2.1E0,2.5E0,1.24809975E-2,1.04019105E-1,2.25E0,1E0,1.5E0,1.2E0,2.6E0,2.1111112E0,1.4E0,1.1E0,2E0,8.333333E-1,2E0,1.6E0,2.65E0,7E-1,1E0,1.5555556E0,1.2222222E0,3.2E0,-9.504149E-3,6.961619E-3,-1.1308768E-1,-5.683338E-3,-7.4662245E-3,4.216446E-2,1.6559562E-2,-1.1952212E-1,-6.352534E-2,4.035857E-2,6.414124E-2,-8.032408E-2,-9.616399E-2,6.3799135E-3,3.4190386E-3,9.908477E-2,-1.4443466E-2,5.6720056E-2,-3.751835E-2,5.5625677E-2,-4.68732E-2,9.433828E-3,1.01708286E-1,-2.0427366E-3],"split_indices":[0,7,7,8,13,0,10,0,0,13,4,13,11,13,6,11,0,6,2,11,12,14,7,6,5,5,10,0,0,0,0,0,0,0,0,0,0,0,0,0,0,0,0,0,0,0,0,0,0,0,0],"split_type":[0,0,0,0,0,0,0,0,0,0,0,0,0,0,0,0,0,0,0,0,0,0,0,0,0,0,0,0,0,0,0,0,0,0,0,0,0,0,0,0,0,0,0,0,0,0,0,0,0,0,0],"sum_hessian":[8.0432214E2,6.2106995E2,1.8325217E2,4.304544E0,6.167654E2,6.86221E1,1.1463007E2,1.6133765E0,2.6911674E0,5.612418E2,5.5523563E1,3.3072105E1,3.5549995E1,6.6494286E1,4.8135788E1,5.3142065E2,2.9821207E1,5.1576496E1,3.9470665E0,2.3441816E1,9.630289E0,2.2178953E1,1.3371042E1,5.703469E1,9.459596E0,4.2091087E1,6.0447E0,2.9963507E2,2.3178557E2,1.1442756E1,1.8378452E1,1.3507539E1,3.806896E1,1.780505E0,2.1665616E0,2.1046381E1,2.3954344E0,7.7237616E0,1.906527E0,1.9708779E0,2.0208075E1,6.469854E0,6.9011884E0,6.538642E0,5.0496048E1,7.45549E0,2.0041058E0,8.820634E0,3.3270454E1,3.7821517E0,2.2625482E0],"tree_param":{"num_deleted":"0","num_feature":"18","num_nodes":"51","size_leaf_vector":"1"}},{"base_weights":[1.8100217E-2,-4.132514E-2,8.9561775E-2,-7.5357E-2,3.0943516E-1,1.10669926E-1,-5.7040334E-1,-4.203346E-2,-6.362201E-1,4.5421165E-1,-6.6257906E-1,7.542325E-2,4.5989943E-1,1.3976255E-1,-8.966342E-1,-1.776676E-1,2.331606E-2,-1.0971931E0,-9.916883E-2,-4.1287705E-1,5.846099E-1,-1.2503566E-1,8.158538E-2,4.5227997E-2,4.7457883E-1,7.258149E-1,2.0731376E-1,-1.1525196E-1,9.19893E-2,-1.4124635E0,-1.00891754E-1,-1.1025441E-2,-1.09980226E-1,-6.5828964E-2,4.491029E-3,2.6120191E-2,-1.5082641E-1,-6.442939E-2,6.108565E-2,2.2222029E-2,-1.19604446E-1,2.0762958E-2,7.9027735E-2,6.8605505E-2,-5.102557E-2,6.834867E-3,-3.7521426E-2,6.691061E-2,-3.1030012E-2,1.3269347E-2,8.775657E-2,-7.307563E-4,8.042016E-2,-1.7482576E-1,-1.9196345E-2,8.567958E-2,-1.1021631E-1],"categories":[],"categories_nodes":[],"categories_segments":[],"categories_sizes":[],"default_left":[0,0,0,0,0,0,0,0,0,0,0,0,0,0,0,0,0,0,0,0,0,0,0,0,0,0,0,0,0,0,0,0,0,0,0,0,0,0,0,0,0,0,0,0,0,0,0,0,0,0,0,0,0,0,0,0,0],"id":13,"left_children":[1,3,5,7,9,11,13,15,17,19,21,23,25,27,29,31,33,35,37,39,41,-1,43,45,47,49,51,-1,-1,53,55,-1,-1,-1,-1,-1,-1,-1,-1,-1,-1,-1,-1,-1,-1,-1,-1,-1,-1,-1,-1,-1,-1,-1,-1,-1,-1],"loss_changes":[3.4167774E0,5.2695904E0,5.150857E0,7.4759607E0,5.798478E0,4.3318353E0,2.7853336E0,3.372209E0,5.447195E0,4.1528916E0,2.495067E0,3.8765032E0,2.0206285E0,5.575928E0,3.1421733E0,7.5664654E0,3.8169796E0,7.0820284E0,4.8312187E0,2.8067107E0,2.1995878E0,0E0,1.5496305E0,2.9591558E0,3.664237E0,1.264863E0,2.3088727E0,0E0,0E0,1.6226549E0,4.994891E0,0E0,0E0,0E0,0E0,0E0,0E0,0E0,0E0,0E0,0E0,0E0,0E0,0E0,0E0,0E0,0E0,0E0,0E0,0E0,0E0,0E0,0E0,0E0,0E0,0E0,0E0],"parents":[2147483647,0,0,1,1,2,2,3,3,4,4,5,5,6,6,7,7,8,8,9,9,10,10,11,11,12,12,13,13,14,14,15,15,16,16,17,17,18,18,19,19,20,20,22,22,23,23,24,24,25,25,26,26,29,29,30,30],"right_children":[2,4,6,8,10,12,14,16,18,20,22,24,26,28,30,32,34,36,38,40,42,-1,44,46,48,50,52,-1,-1,54,56,-1,-1,-1,-1,-1,-1,-1,-1,-1,-1,-1,-1,-1,-1,-1,-1,-1,-1,-1,-1,-1,-1,-1,-1,-1,-1],"split_conditions":[1.6E0,2.5E0,4.75E0,2.25E0,7.777778E-1,3.8333333E0,1E0,1.1E0,1.1E0,6.666667E-1,5.555556E-1,2.3333333E0,1.3E0,3.75E-1,5.0666666E0,1.5E0,7.777778E-1,1.5E0,1.3333334E0,5.555556E-1,1.1E0,-1.2503566E-1,1.5555556E0,2.5E0,5.4E0,7.1428573E-1,2.1E0,-1.1525196E-1,9.19893E-2,1E0,5.5E0,-1.1025441E-2,-1.09980226E-1,-6.5828964E-2,4.491029E-3,2.6120191E-2,-1.5082641E-1,-6.442939E-2,6.108565E-2,2.2222029E-2,-1.19604446E-1,2.0762958E-2,7.9027735E-2,6.8605505E-2,-5.102557E-2,6.834867E-3,-3.7521426E-2,6.691061E-2,-3.1030012E-2,1.3269347E-2,8.775657E-2,-7.307563E-4,8.042016E-2,-1.7482576E-1,-1.9196345E-2,8.567958E-2,-1.1021631E-1],"split_indices":[10,13,15,13,4,15,12,6,0,0,9,5,5,9,15,13,8,14,5,0,5,0,5,13,14,7,0,0,0,2,15,0,0,0,0,0,0,0,0,0,0,0,0,0,0,0,0,0,0,0,0,0,0,0,0,0,0],"split_type":[0,0,0,0,0,0,0,0,0,0,0,0,0,0,0,0,0,0,0,0,0,0,0,0,0,0,0,0,0,0,0,0,0,0,0,0,0,0,0,0,0,0,0,0,0,0,0,0,0,0,0,0,0,0,0,0,0],"sum_hessian":[8.0271436E2,4.3849576E2,3.6421863E2,4.0042993E2,3.8065804E1,3.537371E2,1.0481526E1,3.7898746E2,2.1442501E1,3.359475E1,4.471053E0,3.224129E2,3.1324188E1,3.4792333E0,7.0022936E0,1.2266832E2,2.5631912E2,1.0977268E1,1.0465232E1,4.108543E0,2.9486206E1,2.117965E0,2.3530881E0,3.0077335E2,2.1639542E1,1.4346761E1,1.6977428E1,1.1300194E0,2.3492136E0,3.7781396E0,3.2241542E0,1.15354805E2,7.313516E0,6.965755E0,2.4935336E2,2.6348658E0,8.342402E0,5.9724407E0,4.492791E0,2.6642587E0,1.4442844E0,1.1117608E1,1.8368599E1,1.0853705E0,1.2677176E0,2.8588937E2,1.4883994E1,1.7459757E1,4.1797857E0,3.3046963E0,1.1042065E1,1.32139E1,3.7635288E0,2.623837E0,1.1543025E0,1.7216945E0,1.5024598E0],"tree_param":{"num_deleted":"0","num_feature":"18","num_nodes":"57","size_leaf_vector":"1"}},{"base_weights":[1.5968964E-2,-5.5179134E-2,7.014708E-2,2.0947428E-2,-1.9625075E-1,6.2591255E-2,9.344194E-2,7.7194315E-1,-3.6664277E-3,-6.0919564E-2,-4.4207826E-1,2.8114748E-1,3.6572468E-2,9.5660824E-1,5.3448416E-3,-2.2417551E-1,8.65011E-2,6.416418E-1,-1.3364199E-1,-3.3762315E-1,-1.7560734E-1,4.3033266E-1,-7.19764E-1,1.572352E-2,3.7908074E-1,1.069394E-1,2.8133199E-2,-4.8145797E-2,1.0924301E-2,1.1334218E-2,-1.06020905E-1,1.0514535E-1,-3.5735022E-2,-3.4321535E-2,1.015595E-2,-7.1950495E-2,1.689534E-2,-4.369285E-2,4.8157707E-2,-1.4300959E-1,3.318589E-2,9.470205E-2,1.8773909E-4,-8.219714E-2,4.866464E-2],"categories":[],"categories_nodes":[],"categories_segments":[],"categories_sizes":[],"default_left":[0,0,0,0,0,0,0,0,0,0,0,0,0,0,0,0,0,0,0,0,0,0,0,0,0,0,0,0,0,0,0,0,0,0,0,0,0,0,0,0,0,0,0,0,0],"id":14,"left_children":[1,3,5,7,9,11,-1,13,15,17,19,21,23,25,-1,27,29,31,33,35,-1,37,39,41,43,-1,-1,-1,-1,-1,-1,-1,-1,-1,-1,-1,-1,-1,-1,-1,-1,-1,-1,-1,-1],"loss_changes":[3.0958724E0,3.7341282E0,2.9181535E0,4.1895275E0,4.026169E0,2.5654004E0,0E0,9.0317106E-1,4.399571E0,4.1595516E0,5.3222733E0,7.4825377E0,2.8925855E0,1.3042259E-1,0E0,5.5612297E0,4.9550543E0,3.5082812E0,3.6372664E0,8.084257E0,0E0,2.0961394E0,5.4086704E0,4.945444E0,3.4033394E0,0E0,0E0,0E0,0E0,0E0,0E0,0E0,0E0,0E0,0E0,0E0,0E0,0E0,0E0,0E0,0E0,0E0,0E0,0E0,0E0],"parents":[2147483647,0,0,1,1,2,2,3,3,4,4,5,5,7,7,8,8,9,9,10,10,11,11,12,12,13,13,15,15,16,16,17,17,18,18,19,19,21,21,22,22,23,23,24,24],"right_children":[2,4,6,8,10,12,-1,14,16,18,20,22,24,26,-1,28,30,32,34,36,-1,38,40,42,44,-1,-1,-1,-1,-1,-1,-1,-1,-1,-1,-1,-1,-1,-1,-1,-1,-1,-1,-1,-1],"split_conditions":[7.777778E-1,1.6666666E0,6.2E0,7E-1,1.25E0,6.666667E-1,9.344194E-2,3.0833333E0,1E0,8.333333E-1,2.4444444E0,4.65E0,2.4444444E0,1.2222222E0,5.3448416E-3,1E0,1.1E0,1.4285715E0,1.1E0,2.2E0,-1.7560734E-1,1.1111112E0,1E0,1E-1,5E-1,1.069394E-1,2.8133199E-2,-4.8145797E-2,1.0924301E-2,1.1334218E-2,-1.06020905E-1,1.0514535E-1,-3.5735022E-2,-3.4321535E-2,1.015595E-2,-7.1950495E-2,1.689534E-2,-4.369285E-2,4.8157707E-2,-1.4300959E-1,3.318589E-2,9.470205E-2,1.8773909E-4,-8.219714E-2,4.866464E-2],"split_indices":[2,13,14,3,12,11,0,14,1,8,6,14,5,1,0,8,4,1,5,13,0,0,2,4,6,0,0,0,0,0,0,0,0,0,0,0,0,0,0,0,0,0,0,0,0],"split_type":[0,0,0,0,0,0,0,0,0,0,0,0,0,0,0,0,0,0,0,0,0,0,0,0,0,0,0,0,0,0,0,0,0,0,0,0,0,0,0,0,0,0,0,0,0],"sum_hessian":[8.0114435E2,3.4632413E2,4.5482022E2,2.2549283E2,1.20831314E2,4.519416E2,2.8786411E0,6.192444E0,2.1930038E2,7.873468E1,4.2096634E1,4.7036053E1,4.0490552E2,4.6626573E0,1.5297863E0,6.3216106E1,1.5608427E2,6.651574E0,7.20831E1,4.0161007E1,1.9356269E0,4.1430866E1,5.6051846E0,3.826585E2,2.2247038E1,3.4952374E0,1.16742E0,3.543143E1,2.7784674E1,1.5339491E2,2.6893613E0,4.6794367E0,1.9721373E0,3.787543E1,3.4207672E1,2.2659134E1,1.7501875E1,1.8915688E0,3.95393E1,3.130652E0,2.4745324E0,4.618523E0,3.7803998E2,1.2827363E0,2.0964302E1],"tree_param":{"num_deleted":"0","num_feature":"18","num_nodes":"45","size_leaf_vector":"1"}},{"base_weights":[1.4430528E-2,-8.728343E-2,5.155706E-2,-6.0421504E-2,-8.9408165E-1,-5.8368485E-2,1.4421871E-1,-9.2510976E-2,5.357379E-1,-1.6972224E-1,-1.3317087E-1,-2.1999992E-1,4.5170315E-2,1.0295252E-1,1.2686303E-1,-6.706109E-2,-8.5488415E-1,-4.6065267E-2,7.9492134E-1,-8.945592E-2,5.8415215E-2,-3.0332044E-1,1.4266765E-1,7.234692E-1,8.620164E-3,2.682723E-1,5.418798E-2,7.940003E-2,-8.514117E-3,-1.6474323E-1,3.8435794E-2,1.18610226E-1,-5.6658756E-2,-1.9216727E-2,-6.612363E-2,5.275732E-2,-1.6438428E-2,-1.7175544E-2,9.8992705E-2,-8.6968385E-2,3.634616E-3,-7.931182E-2,2.9945998E-2,-1.6918868E-2,1.2469609E-2],"categories":[],"categories_nodes":[],"categories_segments":[],"categories_sizes":[],"default_left":[0,0,0,0,0,0,0,0,0,0,0,0,0,0,0,0,0,0,0,0,0,0,0,0,0,0,0,0,0,0,0,0,0,0,0,0,0,0,0,0,0,0,0,0,0],"id":15,"left_children":[1,3,5,7,9,11,13,15,17,-1,19,21,23,-1,25,27,29,-1,31,-1,-1,33,35,37,39,41,43,-1,-1,-1,-1,-1,-1,-1,-1,-1,-1,-1,-1,-1,-1,-1,-1,-1,-1],"loss_changes":[3.028831E0,4.595273E0,5.991054E0,4.041865E0,3.9540248E0,4.5176916E0,4.7706585E0,3.8014405E0,3.1569574E0,0E0,3.0335255E0,3.2265425E0,4.084784E0,0E0,3.2123575E0,3.0806823E0,6.859673E0,0E0,5.4348783E0,0E0,0E0,3.2936678E0,2.4930904E0,2.1797457E0,3.8691964E0,3.757547E0,3.307401E0,0E0,0E0,0E0,0E0,0E0,0E0,0E0,0E0,0E0,0E0,0E0,0E0,0E0,0E0,0E0,0E0,0E0,0E0],"parents":[2147483647,0,0,1,1,2,2,3,3,4,4,5,5,6,6,7,7,8,8,10,10,11,11,12,12,14,14,15,15,16,16,18,18,21,21,22,22,23,23,24,24,25,25,26,26],"right_children":[2,4,6,8,10,12,14,16,18,-1,20,22,24,-1,26,28,30,-1,32,-1,-1,34,36,38,40,42,44,-1,-1,-1,-1,-1,-1,-1,-1,-1,-1,-1,-1,-1,-1,-1,-1,-1,-1],"split_conditions":[1.1E0,1.6666666E0,5.555556E-1,3.35E0,1E0,1E0,9E-1,3.05E0,6.666667E-1,-1.6972224E-1,1E0,8.333333E-1,3.3333334E-1,1.0295252E-1,1.375E0,2.5E-1,2E0,-4.6065267E-2,3.6666667E0,-8.945592E-2,5.8415215E-2,8.333333E-1,2.35E0,5.555556E-1,1.15E0,7.5E-1,8E-1,7.940003E-2,-8.514117E-3,-1.6474323E-1,3.8435794E-2,1.18610226E-1,-5.6658756E-2,-1.9216727E-2,-6.612363E-2,5.275732E-2,-1.6438428E-2,-1.7175544E-2,9.8992705E-2,-8.6968385E-2,3.634616E-3,-7.931182E-2,2.9945998E-2,-1.6918868E-2,1.2469609E-2],"split_indices":[6,13,4,15,10,8,0,15,10,0,3,7,10,0,6,7,1,0,11,0,0,2,14,2,14,3,7,0,0,0,0,0,0,0,0,0,0,0,0,0,0,0,0,0,0],"split_type":[0,0,0,0,0,0,0,0,0,0,0,0,0,0,0,0,0,0,0,0,0,0,0,0,0,0,0,0,0,0,0,0,0,0,0,0,0,0,0,0,0,0,0,0,0],"sum_hessian":[7.998743E2,2.135285E2,5.863458E2,2.076885E2,5.8399906E0,2.6835886E2,3.1798697E2,1.9788194E2,9.806571E0,2.2425094E0,3.5974813E0,1.0434464E2,1.640142E2,4.992691E0,3.1299426E2,1.9254237E2,5.339574E0,1.863874E0,7.9426966E0,1.6252801E0,1.9722011E0,8.49838E1,1.9360838E1,7.4250994E0,1.5658911E2,1.053383E2,2.0765598E2,3.0771635E0,1.8946521E2,3.055844E0,2.2837298E0,6.2700534E0,1.6726432E0,6.601828E1,1.8965519E1,8.272563E0,1.1088276E1,1.7846344E0,5.640465E0,3.8625994E0,1.5272652E2,2.3095129E0,1.03028786E2,4.948453E1,1.5817145E2],"tree_param":{"num_deleted":"0","num_feature":"18","num_nodes":"45","size_leaf_vector":"1"}},{"base_weights":[1.2890374E-2,4.4135633E-1,4.729132E-3,1.2586564E-1,8.369586E-1,-6.511299E-2,5.6933284E-2,5.243938E-1,-5.408899E-1,1.0799109E-1,1.9026145E-2,-5.1792093E-2,-8.202685E-1,5.011864E-2,8.923706E-2,8.058054E-1,-6.667517E-2,-1.2843463E-1,2.3486864E-2,-9.124677E-2,1.9304292E-1,-1.360373E0,7.2698854E-2,5.6123696E-2,-7.3322266E-1,9.261545E-2,2.2555454E-2,-2.9864535E-2,1.9840598E-2,-1.078061E-2,6.061676E-2,-9.6024126E-2,2.7751485E-2,-4.2160545E-2,-1.7936358E-1,3.2600933E-3,3.5697684E-2,3.1318653E-2,-1.3973926E-1],"categories":[],"categories_nodes":[],"categories_segments":[],"categories_sizes":[],"default_left":[0,0,0,0,0,0,0,0,0,0,0,0,0,0,0,0,0,0,0,0,0,0,0,0,0,0,0,0,0,0,0,0,0,0,0,0,0,0,0],"id":16,"left_children":[1,3,5,7,9,11,13,15,17,-1,-1,19,21,23,-1,25,27,-1,-1,29,31,33,-1,35,37,-1,-1,-1,-1,-1,-1,-1,-1,-1,-1,-1,-1,-1,-1],"loss_changes":[2.7940722E0,1.7587388E0,2.8683891E0,2.8042867E0,8.07847E-1,3.3428922E0,2.5181003E0,1.1257517E0,2.6322958E0,0E0,0E0,3.2225125E0,5.807718E0,2.146534E0,0E0,1.0134411E-1,2.4387157E-1,0E0,0E0,3.3729966E0,4.7834296E0,1.1239233E0,0E0,3.1382618E0,2.8534863E0,0E0,0E0,0E0,0E0,0E0,0E0,0E0,0E0,0E0,0E0,0E0,0E0,0E0,0E0],"parents":[2147483647,0,0,1,1,2,2,3,3,4,4,5,5,6,6,7,7,8,8,11,11,12,12,13,13,15,15,16,16,19,19,20,20,21,21,23,23,24,24],"right_children":[2,4,6,8,10,12,14,16,18,-1,-1,20,22,24,-1,26,28,-1,-1,30,32,34,-1,36,38,-1,-1,-1,-1,-1,-1,-1,-1,-1,-1,-1,-1,-1,-1],"split_conditions":[2E-1,1.4444444E0,7.777778E-1,1.25E0,1.5555556E0,1.1111112E0,6.2E0,2.1E0,2.0833333E0,1.0799109E-1,1.9026145E-2,1.6E0,1.4E0,3.3E0,8.923706E-2,8.333333E-1,3.5E0,-1.2843463E-1,2.3486864E-2,2.142857E0,6.666667E-1,1.1E0,7.2698854E-2,2.3333333E0,1.4285715E0,9.261545E-2,2.2555454E-2,-2.9864535E-2,1.9840598E-2,-1.078061E-2,6.061676E-2,-9.6024126E-2,2.7751485E-2,-4.2160545E-2,-1.7936358E-1,3.2600933E-3,3.5697684E-2,3.1318653E-2,-1.3973926E-1],"split_indices":[11,6,2,13,5,4,14,5,14,0,0,0,4,5,0,7,14,0,0,1,6,6,0,5,0,0,0,0,0,0,0,0,0,0,0,0,0,0,0],"split_type":[0,0,0,0,0,0,0,0,0,0,0,0,0,0,0,0,0,0,0,0,0,0,0,0,0,0,0,0,0,0,0,0,0,0,0,0,0,0,0],"sum_hessian":[7.9863043E2,1.3935506E1,7.8469495E2,8.486071E0,5.449435E0,3.3554013E2,4.4915482E2,5.4450254E0,3.0410457E0,3.4743125E0,1.9751226E0,3.307739E2,4.7662487E0,4.465721E2,2.5826876E0,3.4426546E0,2.0023706E0,1.2180829E0,1.8229629E0,2.8540823E2,4.5365654E1,3.6225135E0,1.1437349E0,4.4409607E2,2.4760642E0,2.3575506E0,1.0851041E0,1.0003525E0,1.0020182E0,2.796145E2,5.793718E0,2.3884795E0,4.2977177E1,1.766993E0,1.8555206E0,4.1291953E2,3.1176523E1,1.1665702E0,1.3094941E0],"tree_param":{"num_deleted":"0","num_feature":"18","num_nodes":"39","size_leaf_vector":"1"}},{"base_weights":[1.1681688E-2,7.252682E-1,7.022424E-3,1.0159459E-1,-2.2344155E-2,-2.9511574E-1,2.5618773E-2,-1.26507E0,-1.8799642E-1,5.1078737E-1,1.478978E-2,-1.0137271E-2,-1.6372953E-1,-6.5779686E-1,2.222907E-2,7.861056E-1,-3.180764E-1,-3.025051E-1,2.99294E-2,3.1199982E-2,-7.7940695E-2,4.0809024E-2,-3.2473102E-2,1.198728E-1,3.9626043E-2,-8.5960686E-2,4.6823997E-2,-7.984411E-2,2.253673E-2,1.963617E-3,4.650381E-2],"categories":[],"categories_nodes":[],"categories_segments":[],"categories_sizes":[],"default_left":[0,0,0,0,0,0,0,0,0,0,0,0,0,0,0,0,0,0,0,0,0,0,0,0,0,0,0,0,0,0,0],"id":17,"left_children":[1,3,5,-1,-1,7,9,11,13,15,17,-1,-1,19,21,23,25,27,29,-1,-1,-1,-1,-1,-1,-1,-1,-1,-1,-1,-1],"loss_changes":[2.650034E0,1.6529076E0,4.4711123E0,0E0,0E0,4.556202E0,3.9290488E0,1.7461147E0,4.2344265E0,3.9763174E0,3.534725E0,0E0,0E0,1.8048029E0,4.213795E0,1.5430465E0,2.4393442E0,8.953896E0,3.1323457E0,0E0,0E0,0E0,0E0,0E0,0E0,0E0,0E0,0E0,0E0,0E0,0E0],"parents":[2147483647,0,0,1,1,2,2,5,5,6,6,7,7,8,8,9,9,10,10,13,13,14,14,15,15,16,16,17,17,18,18],"right_children":[2,4,6,-1,-1,8,10,12,14,16,18,-1,-1,20,22,24,26,28,30,-1,-1,-1,-1,-1,-1,-1,-1,-1,-1,-1,-1],"split_conditions":[1.4285715E-1,1.75E0,6.666667E-1,1.0159459E-1,-2.2344155E-2,6.666667E-1,5E-1,1.2E0,1.2E0,2.15E0,7.5E-1,-1.0137271E-2,-1.6372953E-1,7.5E-1,3.15E0,1E0,7E-1,1E0,2.75E0,3.1199982E-2,-7.7940695E-2,4.0809024E-2,-3.2473102E-2,1.198728E-1,3.9626043E-2,-8.5960686E-2,4.6823997E-2,-7.984411E-2,2.253673E-2,1.963617E-3,4.650381E-2],"split_indices":[0,5,0,0,0,5,10,11,13,14,10,0,0,3,15,8,2,8,12,0,0,0,0,0,0,0,0,0,0,0,0],"split_type":[0,0,0,0,0,0,0,0,0,0,0,0,0,0,0,0,0,0,0,0,0,0,0,0,0,0,0,0,0,0,0],"sum_hessian":[7.975854E2,4.17065E0,7.9341473E2,3.138244E0,1.0324061E0,4.5140438E1,7.482743E2,3.41431E0,4.1726128E1,1.5328902E1,7.329454E2,1.1357937E0,2.2785165E0,1.2241188E1,2.9484941E1,1.1545497E1,3.7834048E0,3.251512E1,7.0043024E2,1.1895317E0,1.1051656E1,1.3876464E1,1.5608478E1,4.6009007E0,6.9445963E0,2.185239E0,1.5981659E0,1.650042E1,1.6014702E1,6.852643E2,1.5165956E1],"tree_param":{"num_deleted":"0","num_feature":"18","num_nodes":"31","size_leaf_vector":"1"}},{"base_weights":[1.0596058E-2,-8.119413E-2,4.4273775E-2,-5.6471247E-2,-8.1502086E-1,-5.062339E-2,1.2520838E-1,-8.476012E-2,4.8778656E-1,2.5545621E-2,-1.2061799E0,6.457682E-2,-1.747881E-1,9.812826E-2,1.0886795E-1,2.2380395E-1,-1.4434451E-1,6.871852E-1,-6.466801E-2,-1.6361175E-1,-1.8304044E-2,-6.834727E-2,3.6235473E-1,-2.9166752E-1,2.853509E-1,1.9249268E-1,-7.970495E-3,3.916212E-2,-7.9107754E-2,8.659562E-3,-2.5315592E-2,-5.5358764E-2,1.0340213E-1,-4.621464E-2,8.206396E-3,4.3956377E-3,6.340115E-2,-8.143374E-2,-2.2258846E-2,-7.731152E-2,4.179903E-2,-1.4457111E-2,2.6713774E-2,-1.0439026E-2,3.7842896E-2],"categories":[],"categories_nodes":[],"categories_segments":[],"categories_sizes":[],"default_left":[0,0,0,0,0,0,0,0,0,0,0,0,0,0,0,0,0,0,0,0,0,0,0,0,0,0,0,0,0,0,0,0,0,0,0,0,0,0,0,0,0,0,0,0,0],"id":18,"left_children":[1,3,5,7,9,11,13,15,17,-1,19,21,23,-1,25,27,29,31,-1,-1,-1,33,35,37,39,41,43,-1,-1,-1,-1,-1,-1,-1,-1,-1,-1,-1,-1,-1,-1,-1,-1,-1,-1],"loss_changes":[2.4699326E0,3.845603E0,4.494267E0,3.25287E0,3.20437E0,3.8686905E0,4.308726E0,3.693515E0,2.8092387E0,0E0,2.0057516E0,5.5907073E0,7.0778666E0,0E0,3.0388775E0,5.8657703E0,4.231339E0,4.6074204E0,0E0,0E0,0E0,5.846307E0,3.739565E0,3.5812454E0,4.0927095E0,4.598286E0,4.906713E0,0E0,0E0,0E0,0E0,0E0,0E0,0E0,0E0,0E0,0E0,0E0,0E0,0E0,0E0,0E0,0E0,0E0,0E0],"parents":[2147483647,0,0,1,1,2,2,3,3,4,4,5,5,6,6,7,7,8,8,10,10,11,11,12,12,14,14,15,15,16,16,17,17,21,21,22,22,23,23,24,24,25,25,26,26],"right_children":[2,4,6,8,10,12,14,16,18,-1,20,22,24,-1,26,28,30,32,-1,-1,-1,34,36,38,40,42,44,-1,-1,-1,-1,-1,-1,-1,-1,-1,-1,-1,-1,-1,-1,-1,-1,-1,-1],"split_conditions":[1.1E0,1.6666666E0,5.555556E-1,3.35E0,1E0,2.25E0,9E-1,5E-1,3.2E0,2.5545621E-2,1.6666666E0,1.2222222E0,1E0,9.812826E-2,8.333333E-1,1.8333334E0,4.2857143E-1,6.666667E-1,-6.466801E-2,-1.6361175E-1,-1.8304044E-2,2.4166667E0,2E0,5.555556E-1,2.4166667E0,2.0833333E0,1E0,3.916212E-2,-7.9107754E-2,8.659562E-3,-2.5315592E-2,-5.5358764E-2,1.0340213E-1,-4.621464E-2,8.206396E-3,4.3956377E-3,6.340115E-2,-8.143374E-2,-2.2258846E-2,-7.731152E-2,4.179903E-2,-1.4457111E-2,2.6713774E-2,-1.0439026E-2,3.7842896E-2],"split_indices":[6,13,4,15,11,14,0,13,1,0,10,5,9,0,7,1,4,10,0,0,0,15,14,2,14,14,2,0,0,0,0,0,0,0,0,0,0,0,0,0,0,0,0,0,0],"split_type":[0,0,0,0,0,0,0,0,0,0,0,0,0,0,0,0,0,0,0,0,0,0,0,0,0,0,0,0,0,0,0,0,0,0,0,0,0,0,0,0,0,0,0,0,0],"sum_hessian":[7.96836E2,2.135056E2,5.833304E2,2.0758882E2,5.916787E0,2.6867685E2,3.1465356E2,1.9813464E2,9.454174E0,1.6762773E0,4.24051E0,1.396185E2,1.2905835E2,4.7874374E0,3.0986612E2,3.1621788E1,1.6651286E2,8.376204E0,1.0779709E0,2.563976E0,1.6765339E0,9.706185E1,4.2556637E1,1.0320857E2,2.584977E1,1.8022574E2,1.2964038E2,2.7661844E1,3.9599452E0,5.3394054E1,1.13118805E2,1.6996739E0,6.6765294E0,2.6253555E1,7.08083E1,2.012763E1,2.2429008E1,1.0788852E1,9.241972E1,2.3408692E0,2.35089E1,3.250606E1,1.4771967E2,1.04335075E2,2.5305304E1],"tree_param":{"num_deleted":"0","num_feature":"18","num_nodes":"45","size_leaf_vector":"1"}},{"base_weights":[9.504857E-3,6.880462E-1,5.2151787E-3,9.775167E-2,-2.1746302E-2,-2.6789293E-1,2.2179633E-2,-1.1211292E0,-1.715677E-1,4.7716007E-1,1.2192403E-2,-1.664572E-2,-1.5810768E-1,6.5082796E-3,-6.9361717E-1,7.3863876E-1,-2.8336185E-1,2.4308106E-2,-3.3867332E-1,1.0769304E-2,-1.1176839E-1,-1.10303335E-1,6.609717E-2,1.1460356E-1,3.644992E-2,-1.0754788E-1,2.4755541E-2,-4.9184335E-5,4.317945E-2,-8.674484E-2,-1.2041058E-3],"categories":[],"categories_nodes":[],"categories_segments":[],"categories_sizes":[],"default_left":[0,0,0,0,0,0,0,0,0,0,0,0,0,0,0,0,0,0,0,0,0,0,0,0,0,0,0,0,0,0,0],"id":19,"left_children":[1,3,5,-1,-1,7,9,11,13,15,17,-1,-1,19,21,23,25,27,29,-1,-1,-1,-1,-1,-1,-1,-1,-1,-1,-1,-1],"loss_changes":[2.314998E0,1.52226E0,3.6780229E0,0E0,0E0,3.6235445E0,3.3891897E0,1.7255573E0,3.9926534E0,3.3954291E0,3.120462E0,0E0,0E0,3.871748E0,6.785619E0,1.4418325E0,2.294104E0,7.161228E0,4.2217426E0,0E0,0E0,0E0,0E0,0E0,0E0,0E0,0E0,0E0,0E0,0E0,0E0],"parents":[2147483647,0,0,1,1,2,2,5,5,6,6,7,7,8,8,9,9,10,10,13,13,14,14,15,15,16,16,17,17,18,18],"right_children":[2,4,6,-1,-1,8,10,12,14,16,18,-1,-1,20,22,24,26,28,30,-1,-1,-1,-1,-1,-1,-1,-1,-1,-1,-1,-1],"split_conditions":[1.4285715E-1,1.75E0,6.666667E-1,9.775167E-2,-2.1746302E-2,6.666667E-1,5E-1,5.555556E-1,8.333333E-1,2.15E0,4.75E0,-1.664572E-2,-1.5810768E-1,2.6666667E0,2.65E0,1E0,8.75E-1,4.15E0,2.5E0,1.0769304E-2,-1.1176839E-1,-1.10303335E-1,6.609717E-2,1.1460356E-1,3.644992E-2,-1.0754788E-1,2.4755541E-2,-4.9184335E-5,4.317945E-2,-8.674484E-2,-1.2041058E-3],"split_indices":[0,5,0,0,0,5,10,2,9,14,15,0,0,13,14,8,6,15,13,0,0,0,0,0,0,0,0,0,0,0,0],"split_type":[0,0,0,0,0,0,0,0,0,0,0,0,0,0,0,0,0,0,0,0,0,0,0,0,0,0,0,0,0,0,0],"sum_hessian":[7.9556683E2,3.9965506E0,7.9157025E2,2.968173E0,1.0283777E0,4.5428738E1,7.4614154E2,3.529134E0,4.1899605E1,1.5021937E1,7.311196E2,1.5902661E0,1.9388679E0,3.197885E1,9.920753E0,1.1199989E1,3.8219483E0,7.076157E2,2.3503876E1,3.0167755E1,1.8110943E0,7.760804E0,2.1599488E0,4.37403E0,6.825959E0,1.1221001E0,2.6998482E0,6.679618E2,3.9653904E1,8.342585E0,1.516129E1],"tree_param":{"num_deleted":"0","num_feature":"18","num_nodes":"31","size_leaf_vector":"1"}},{"base_weights":[8.387389E-3,4.9841334E-3,8.449261E-2,3.902847E-1,-2.0773164E-3,7.108083E-1,1.3601247E-2,-5.023708E-2,6.2923774E-2,3.714541E-2,1.0735128E-1,-9.500492E-2,4.556423E-1,-9.887872E-2,1.2787415E-1,3.327094E-1,2.5746265E-2,7.581135E-2,-6.47544E-2,-2.6657848E-2,6.724649E-2,-1.2527532E-3,-2.2346636E-2,3.754901E-2,6.3824415E-4,-1.2699002E-2,4.915666E-2,-1.02267385E-1,3.8339514E-3],"categories":[],"categories_nodes":[],"categories_segments":[],"categories_sizes":[],"default_left":[0,0,0,0,0,0,0,0,0,0,0,0,0,0,0,0,0,0,0,0,0,0,0,0,0,0,0,0,0],"id":20,"left_children":[1,3,-1,5,7,9,11,13,15,17,-1,-1,19,21,23,25,27,-1,-1,-1,-1,-1,-1,-1,-1,-1,-1,-1,-1],"loss_changes":[2.2614295E0,2.1600046E0,0E0,1.7153857E0,2.4458592E0,1.8415082E0,3.6651578E0,3.9006522E0,3.326713E0,2.3324862E0,0E0,0E0,1.0996732E0,3.7956274E0,2.906787E0,2.997386E0,3.9121993E0,0E0,0E0,0E0,0E0,0E0,0E0,0E0,0E0,0E0,0E0,0E0,0E0],"parents":[2147483647,0,0,1,1,3,3,4,4,5,5,6,6,7,7,8,8,9,9,12,12,13,13,14,14,15,15,16,16],"right_children":[2,4,-1,6,8,10,12,14,16,18,-1,-1,20,22,24,26,28,-1,-1,-1,-1,-1,-1,-1,-1,-1,-1,-1,-1],"split_conditions":[4.4E0,2E-1,8.449261E-2,1.4285715E0,1.4E0,1.6666666E0,1.6666666E0,1.7777778E0,1.2857143E0,6E-1,1.0735128E-1,-9.500492E-2,6.25E-1,1.2E0,8.5714287E-1,1.1E0,3E-1,7.581135E-2,-6.47544E-2,-2.6657848E-2,6.724649E-2,-1.2527532E-3,-2.2346636E-2,3.754901E-2,6.3824415E-4,-1.2699002E-2,4.915666E-2,-1.02267385E-1,3.8339514E-3],"split_indices":[10,11,0,5,11,14,12,5,1,12,0,0,9,12,9,1,6,0,0,0,0,0,0,0,0,0,0,0,0],"split_type":[0,0,0,0,0,0,0,0,0,0,0,0,0,0,0,0,0,0,0,0,0,0,0,0,0,0,0,0,0],"sum_hessian":[7.94812E2,7.925935E2,2.2185168E0,1.3287822E1,7.7930566E2,6.6998425E0,6.5879793E0,4.47774E2,3.315317E2,2.730608E0,3.9692347E0,1.7102964E0,4.8776827E0,3.5206967E2,9.570432E1,3.919035E1,2.9234137E2,1.2778322E0,1.4527758E0,1.0732582E0,3.8044245E0,2.0859433E2,1.4347533E2,3.0812916E1,6.48914E1,1.011635E1,2.9074E1,2.5178254E0,2.8982355E2],"tree_param":{"num_deleted":"0","num_feature":"18","num_nodes":"29","size_leaf_vector":"1"}},{"base_weights":[7.76856E-3,-1.1653312E-2,1.4527042E-1,-1.7776088E-3,-5.8992577E-1,2.761632E-1,-1.3191177E-1,-1.2466406E-2,4.7899827E-1,-1.0742373E0,2.7258086E-1,-7.056967E-1,3.2495663E-1,1.9126844E-1,-4.7646812E-1,9.45253E-2,-1.7546326E-2,6.794272E-1,-2.7998152E-1,3.5625464E-1,-1.6931047E0,-4.9051624E-2,8.8931255E-2,1.8752068E-3,-1.1997111E-1,6.2171614E-1,1.9736989E-1,-6.326896E-1,4.6951976E-1,-1.0095018E0,3.601379E-1,-1.1773689E-2,2.647801E-3,9.623747E-2,5.389896E-3,1.4192904E-2,-6.829429E-2,7.500426E-2,-2.4110058E-2,-3.368933E-2,-2.0280778E-1,8.0695875E-2,-3.1048266E-2,-5.314807E-2,3.249173E-2,4.5111342E-3,-1.005008E-1,-7.453724E-2,6.354349E-2,4.4430303E-3,-1.338045E-1,-3.3046465E-2,9.328773E-2],"categories":[],"categories_nodes":[],"categories_segments":[],"categories_sizes":[],"default_left":[0,0,0,0,0,0,0,0,0,0,0,0,0,0,0,0,0,0,0,0,0,0,0,0,0,0,0,0,0,0,0,0,0,0,0,0,0,0,0,0,0,0,0,0,0,0,0,0,0,0,0,0,0],"id":21,"left_children":[1,3,5,7,9,11,13,15,17,19,21,23,25,27,29,-1,31,33,35,37,39,-1,-1,-1,-1,41,43,45,47,49,51,-1,-1,-1,-1,-1,-1,-1,-1,-1,-1,-1,-1,-1,-1,-1,-1,-1,-1,-1,-1,-1,-1],"loss_changes":[2.1253593E0,3.9835427E0,3.6099617E0,3.5364618E0,5.1854153E0,3.4499903E0,3.6845045E0,3.2910354E0,2.4670398E0,7.4226675E0,2.7937846E0,1.2743561E0,2.328054E0,4.278291E0,7.456155E0,0E0,2.9604607E0,2.095418E0,7.489191E-1,9.223719E-1,1.8384485E0,0E0,0E0,0E0,0E0,3.5308943E0,4.5169816E0,1.259116E0,3.2059543E0,3.5144444E0,3.048106E0,0E0,0E0,0E0,0E0,0E0,0E0,0E0,0E0,0E0,0E0,0E0,0E0,0E0,0E0,0E0,0E0,0E0,0E0,0E0,0E0,0E0,0E0],"parents":[2147483647,0,0,1,1,2,2,3,3,4,4,5,5,6,6,7,7,8,8,9,9,10,10,11,11,12,12,13,13,14,14,16,16,17,17,18,18,19,19,20,20,25,25,26,26,27,27,28,28,29,29,30,30],"right_children":[2,4,6,8,10,12,14,16,18,20,22,24,26,28,30,-1,32,34,36,38,40,-1,-1,-1,-1,42,44,46,48,50,52,-1,-1,-1,-1,-1,-1,-1,-1,-1,-1,-1,-1,-1,-1,-1,-1,-1,-1,-1,-1,-1,-1],"split_conditions":[2.1E0,2.8E0,2E0,2.5E0,1.5555556E0,9E-1,1.1111112E0,6E-1,1.5E0,1.8333334E0,1.8333334E0,7E-1,4.4444445E-1,2.2E0,1E0,9.45253E-2,4.2857143E-1,1.8333334E0,1.7777778E0,1.2E0,6.666667E-1,-4.9051624E-2,8.8931255E-2,1.8752068E-3,-1.1997111E-1,4.1E0,7E-1,1E0,5E-1,8E-1,8.888889E-1,-1.1773689E-2,2.647801E-3,9.623747E-2,5.389896E-3,1.4192904E-2,-6.829429E-2,7.500426E-2,-2.4110058E-2,-3.368933E-2,-2.0280778E-1,8.0695875E-2,-3.1048266E-2,-5.314807E-2,3.249173E-2,4.5111342E-3,-1.005008E-1,-7.453724E-2,6.354349E-2,4.4430303E-3,-1.338045E-1,-3.3046465E-2,9.328773E-2],"split_indices":[0,10,13,10,6,3,4,8,1,0,0,7,9,13,2,0,9,0,5,11,11,0,0,0,0,14,7,11,12,12,7,0,0,0,0,0,0,0,0,0,0,0,0,0,0,0,0,0,0,0,0,0,0],"split_type":[0,0,0,0,0,0,0,0,0,0,0,0,0,0,0,0,0,0,0,0,0,0,0,0,0,0,0,0,0,0,0,0,0,0,0,0,0,0,0,0,0,0,0,0,0,0,0,0,0,0,0,0,0],"sum_hessian":[7.942189E2,6.967233E2,9.749557E1,6.8601074E2,1.0712576E1,6.622571E1,3.1269857E1,6.7204364E2,1.3967068E1,6.70316E0,4.009416E0,2.4979072E0,6.3727802E1,1.6365011E1,1.4904847E1,2.5693352E0,6.694743E2,1.1132143E1,2.8349252E0,2.1523702E0,4.5507894E0,1.8835303E0,2.125886E0,1.4028035E0,1.0951036E0,1.799637E1,4.5731434E1,3.809755E0,1.2555256E1,8.977973E0,5.926873E0,2.0385863E2,4.656157E2,7.294221E0,3.837922E0,1.7013521E0,1.133573E0,1.1431671E0,1.0092032E0,1.2986511E0,3.2521384E0,1.5125121E1,2.8712506E0,6.339334E0,3.9392097E1,1.6623338E0,2.1474211E0,1.0889641E0,1.1466291E1,2.339112E0,6.638861E0,2.8787365E0,3.048137E0],"tree_param":{"num_deleted":"0","num_feature":"18","num_nodes":"53","size_leaf_vector":"1"}},{"base_weights":[6.848879E-3,6.557486E-1,2.8801528E-3,9.4305314E-2,-2.0854237E-2,-2.4538437E-1,1.8418659E-2,-1.052076E0,-1.5444069E-1,4.4117233E-1,9.313119E-3,-4.057912E-3,-1.3860506E-1,-5.7398075E-1,3.600486E-2,6.9452757E-1,-2.7238545E-1,-2.7181876E-1,2.2878036E-2,-1.19379476E-1,-3.0464757E-2,3.860743E-2,-2.7201409E-2,9.0258196E-2,1.0678261E-2,-9.9986486E-2,2.293321E-2,-7.991535E-2,1.2623337E-2,1.3711168E-3,4.2163692E-2],"categories":[],"categories_nodes":[],"categories_segments":[],"categories_sizes":[],"default_left":[0,0,0,0,0,0,0,0,0,0,0,0,0,0,0,0,0,0,0,0,0,0,0,0,0,0,0,0,0,0,0],"id":22,"left_children":[1,3,5,-1,-1,7,9,11,13,15,17,-1,-1,19,21,23,25,27,29,-1,-1,-1,-1,-1,-1,-1,-1,-1,-1,-1,-1],"loss_changes":[2.043319E0,1.3943431E0,3.0533748E0,0E0,0E0,3.2578878E0,2.8626003E0,1.4813066E0,3.462002E0,3.023939E0,2.790231E0,0E0,0E0,1.8910055E0,3.4007263E0,1.353095E0,1.9910849E0,7.170795E0,2.543306E0,0E0,0E0,0E0,0E0,0E0,0E0,0E0,0E0,0E0,0E0,0E0,0E0],"parents":[2147483647,0,0,1,1,2,2,5,5,6,6,7,7,8,8,9,9,10,10,13,13,14,14,15,15,16,16,17,17,18,18],"right_children":[2,4,6,-1,-1,8,10,12,14,16,18,-1,-1,20,22,24,26,28,30,-1,-1,-1,-1,-1,-1,-1,-1,-1,-1,-1,-1],"split_conditions":[1.4285715E-1,1.75E0,6.666667E-1,9.4305314E-2,-2.0854237E-2,6.666667E-1,5E-1,1.2E0,1.2E0,2.15E0,7.5E-1,-4.057912E-3,-1.3860506E-1,4.2857143E-1,3.15E0,1E0,8.75E-1,1.2222222E0,2.75E0,-1.19379476E-1,-3.0464757E-2,3.860743E-2,-2.7201409E-2,9.0258196E-2,1.0678261E-2,-9.9986486E-2,2.293321E-2,-7.991535E-2,1.2623337E-2,1.3711168E-3,4.2163692E-2],"split_indices":[0,5,0,0,0,5,10,11,13,14,10,0,0,9,15,3,6,5,12,0,0,0,0,0,0,0,0,0,0,0,0],"split_type":[0,0,0,0,0,0,0,0,0,0,0,0,0,0,0,0,0,0,0,0,0,0,0,0,0,0,0,0,0,0,0],"sum_hessian":[7.9316125E2,3.8232205E0,7.89338E2,2.8009946E0,1.0222259E0,4.5622253E1,7.4371576E2,3.5514677E0,4.2070786E1,1.4680402E1,7.290354E2,1.1599308E0,2.3915367E0,1.2506292E1,2.9564491E1,1.0853454E1,3.8269484E0,3.268122E1,6.963542E2,2.7485867E0,9.757706E0,1.3719081E1,1.584541E1,7.620295E0,3.2331583E0,1.1567713E0,2.670177E0,1.3624277E1,1.9056944E1,6.817169E2,1.4637263E1],"tree_param":{"num_deleted":"0","num_feature":"18","num_nodes":"31","size_leaf_vector":"1"}},{"base_weights":[5.9792697E-3,-7.752245E-2,3.6751807E-2,-5.465806E-2,-7.4672586E-1,-4.567614E-2,1.0770108E-1,-8.054482E-2,4.5837754E-1,-1.3839224E-1,-1.07651666E-1,6.259921E-2,-1.6143614E-1,9.357195E-2,9.2356816E-2,2.0791186E-1,-1.3526902E-1,6.503913E-1,-5.828766E-2,7.631055E-2,-6.2408686E-1,-1.1353162E-1,2.4346985E-1,-2.6215398E-1,2.4780895E-1,1.7301507E-1,-1.9799812E-2,3.6060587E-2,-6.8083495E-2,7.74651E-3,-2.3435054E-2,-4.9528155E-2,9.898991E-2,-1.01261914E-1,9.050199E-4,-5.1802147E-2,5.600168E-3,3.993009E-2,-5.440927E-3,-1.5406293E-2,-5.5785842E-2,-7.018578E-2,3.7317306E-2,-1.3011239E-2,2.4150556E-2,-3.6861844E-2,6.811795E-3],"categories":[],"categories_nodes":[],"categories_segments":[],"categories_sizes":[],"default_left":[0,0,0,0,0,0,0,0,0,0,0,0,0,0,0,0,0,0,0,0,0,0,0,0,0,0,0,0,0,0,0,0,0,0,0,0,0,0,0,0,0,0,0,0,0,0,0],"id":23,"left_children":[1,3,5,7,9,11,13,15,17,-1,19,21,23,-1,25,27,29,31,-1,-1,33,35,37,39,41,43,45,-1,-1,-1,-1,-1,-1,-1,-1,-1,-1,-1,-1,-1,-1,-1,-1,-1,-1,-1,-1],"loss_changes":[2.0414608E0,3.2330575E0,3.3992426E0,2.7990098E0,2.6974466E0,3.3840692E0,3.8804214E0,3.1668653E0,2.4063246E0,0E0,2.5332115E0,4.481555E0,5.4388304E0,0E0,2.786516E0,4.6018105E0,3.5536828E0,4.0039506E0,0E0,0E0,8.5080457E-1,4.9331236E0,3.2383146E0,3.273765E0,3.3886724E0,3.7488503E0,3.9993637E0,0E0,0E0,0E0,0E0,0E0,0E0,0E0,0E0,0E0,0E0,0E0,0E0,0E0,0E0,0E0,0E0,0E0,0E0,0E0,0E0],"parents":[2147483647,0,0,1,1,2,2,3,3,4,4,5,5,6,6,7,7,8,8,10,10,11,11,12,12,14,14,15,15,16,16,17,17,20,20,21,21,22,22,23,23,24,24,25,25,26,26],"right_children":[2,4,6,8,10,12,14,16,18,-1,20,22,24,-1,26,28,30,32,-1,-1,34,36,38,40,42,44,46,-1,-1,-1,-1,-1,-1,-1,-1,-1,-1,-1,-1,-1,-1,-1,-1,-1,-1,-1,-1],"split_conditions":[1.1E0,1.6666666E0,5.555556E-1,3.35E0,1E0,2.25E0,9E-1,5E-1,3.2E0,-1.3839224E-1,1E0,1.1E0,1E0,9.357195E-2,8.333333E-1,1.8333334E0,4.2857143E-1,6.666667E-1,-5.828766E-2,7.631055E-2,1.5E0,2.4166667E0,1.7E0,8.75E-1,2.4166667E0,2.0833333E0,5E-1,3.6060587E-2,-6.8083495E-2,7.74651E-3,-2.3435054E-2,-4.9528155E-2,9.898991E-2,-1.01261914E-1,9.050199E-4,-5.1802147E-2,5.600168E-3,3.993009E-2,-5.440927E-3,-1.5406293E-2,-5.5785842E-2,-7.018578E-2,3.7317306E-2,-1.3011239E-2,2.4150556E-2,-3.6861844E-2,6.811795E-3],"split_indices":[6,13,4,15,10,14,0,13,1,0,11,5,9,0,7,1,4,10,0,0,11,15,6,2,14,14,9,0,0,0,0,0,0,0,0,0,0,0,0,0,0,0,0,0,0,0,0],"split_type":[0,0,0,0,0,0,0,0,0,0,0,0,0,0,0,0,0,0,0,0,0,0,0,0,0,0,0,0,0,0,0,0,0,0,0,0,0,0,0,0,0,0,0,0,0,0,0],"sum_hessian":[7.923701E2,2.1296564E2,5.794045E2,2.0697566E2,5.9899726E0,2.6818585E2,3.1121863E2,1.9783624E2,9.139422E0,2.4157796E0,3.5741932E0,1.3881004E2,1.2937581E2,4.571042E0,3.0664758E2,3.1100918E1,1.6673532E2,8.033392E0,1.1060307E0,1.1528096E0,2.4213834E0,7.0515114E1,6.829492E1,1.0411248E2,2.5263327E1,1.7805525E2,1.2859235E2,2.7048088E1,4.05283E0,5.3050606E1,1.13684715E2,1.7315236E0,6.301868E0,1.1291183E0,1.2922652E0,2.0218994E1,5.0296116E1,4.4614845E1,2.3680079E1,7.735671E1,2.675577E1,2.4098108E0,2.2853516E1,3.2650383E1,1.4540486E2,2.524372E1,1.0334863E2],"tree_param":{"num_deleted":"0","num_feature":"18","num_nodes":"47","size_leaf_vector":"1"}},{"base_weights":[5.2354783E-3,2.1293978E-3,8.0873474E-2,1.5300979E-2,-1.8001011E-1,8.034304E-3,7.1934867E-1,-4.838528E-1,1.0956547E-1,-1.9920958E-2,1.6347641E-1,-2.4133446E-2,9.163073E-1,-9.194605E-1,2.4827442E-1,4.347047E-1,-5.2019477E-1,9.190028E-2,-2.5096992E-3,-2.4962319E-2,2.9795406E-2,1.032926E-1,1.4072309E-2,3.294964E-2,-1.1227603E-1,6.0857017E-2,-1.1387181E-1,-8.451998E-2,5.530988E-2,1.1314756E-2,-1.489251E-1],"categories":[],"categories_nodes":[],"categories_segments":[],"categories_sizes":[],"default_left":[0,0,0,0,0,0,0,0,0,0,0,0,0,0,0,0,0,0,0,0,0,0,0,0,0,0,0,0,0,0,0],"id":24,"left_children":[1,3,-1,5,7,9,11,13,15,17,19,-1,21,23,25,27,29,-1,-1,-1,-1,-1,-1,-1,-1,-1,-1,-1,-1,-1,-1],"loss_changes":[1.9753648E0,1.898349E0,0E0,3.7687368E0,4.748312E0,3.1808426E0,1.6451085E0,8.592083E0,5.98789E0,3.0394866E0,6.2725453E0,0E0,4.383707E-1,4.598853E0,5.975315E0,3.3621614E0,6.3283396E0,0E0,0E0,0E0,0E0,0E0,0E0,0E0,0E0,0E0,0E0,0E0,0E0,0E0,0E0],"parents":[2147483647,0,0,1,1,3,3,4,4,5,5,6,6,7,7,8,8,9,9,10,10,12,12,13,13,14,14,15,15,16,16],"right_children":[2,4,-1,6,8,10,12,14,16,18,20,-1,22,24,26,28,30,-1,-1,-1,-1,-1,-1,-1,-1,-1,-1,-1,-1,-1,-1],"split_conditions":[4.4E0,2.8E0,8.0873474E-2,1.4E0,2.3333333E0,3.6E0,3.3333334E-1,1.5555556E0,1.375E0,6E-1,1E0,-2.4133446E-2,2E0,1.8333334E0,8.333333E-1,6.25E-1,1E0,9.190028E-2,-2.5096992E-3,-2.4962319E-2,2.9795406E-2,1.032926E-1,1.4072309E-2,3.294964E-2,-1.1227603E-1,6.0857017E-2,-1.1387181E-1,-8.451998E-2,5.530988E-2,1.1314756E-2,-1.489251E-1],"split_indices":[10,10,0,4,0,14,9,6,4,8,13,0,6,0,9,1,9,0,0,0,0,0,0,0,0,0,0,0,0,0,0],"split_type":[0,0,0,0,0,0,0,0,0,0,0,0,0,0,0,0,0,0,0,0,0,0,0,0,0,0,0,0,0,0,0],"sum_hessian":[7.9118677E2,7.891388E2,2.0479176E0,7.367743E2,5.23645E1,7.3024866E2,6.525691E0,2.5225382E1,2.7139116E1,6.196758E2,1.1057286E2,1.0719336E0,5.4537573E0,1.5654971E1,9.570412E0,1.810263E1,9.036486E0,2.429442E0,6.1724634E2,2.6944935E1,8.362792E1,4.452469E0,1.0012882E0,2.1046247E0,1.3550346E1,8.042469E0,1.5279425E0,1.0129737E0,1.7089657E1,5.998989E0,3.0374968E0],"tree_param":{"num_deleted":"0","num_feature":"18","num_nodes":"31","size_leaf_vector":"1"}},{"base_weights":[4.8359493E-3,4.249133E-1,-6.2145985E-4,7.8707534E-1,-8.5933365E-2,-4.4812104E-3,8.593177E-2,1.6979218E-2,1.00389935E-1,-6.534832E-2,4.234387E-1,-1.0494591E-1,2.460382E-2,7.455946E-2,-1.0303819E-2,-6.0422465E-2,-6.1146426E-1,6.2294784E-3,2.973717E-1,-1.4579917E-2,3.8310837E-2,-1.112829E-2,-1.3855861E-1,1.2267273E-3,-7.854674E-2,1.7724449E-2,1.0251772E-1],"categories":[],"categories_nodes":[],"categories_segments":[],"categories_sizes":[],"default_left":[0,0,0,0,0,0,0,0,0,0,0,0,0,0,0,0,0,0,0,0,0,0,0,0,0,0,0],"id":25,"left_children":[1,3,5,7,9,11,-1,-1,-1,-1,13,15,17,-1,-1,19,21,23,25,-1,-1,-1,-1,-1,-1,-1,-1],"loss_changes":[1.8144575E0,1.9455482E0,2.600084E0,6.3768077E-1,1.7546687E0,2.2808743E0,0E0,0E0,0E0,0E0,6.367144E-1,3.9150295E0,3.0326657E0,0E0,0E0,6.197515E0,5.285757E0,2.7260203E0,3.1572037E0,0E0,0E0,0E0,0E0,0E0,0E0,0E0,0E0],"parents":[2147483647,0,0,1,1,2,2,3,3,4,4,5,5,10,10,11,11,12,12,15,15,16,16,17,17,18,18],"right_children":[2,4,6,8,10,12,-1,-1,-1,-1,14,16,18,-1,-1,20,22,24,26,-1,-1,-1,-1,-1,-1,-1,-1],"split_conditions":[7E-1,1.4E0,6.2E0,4.2857143E-1,1.3333334E0,7E-1,8.593177E-2,1.6979218E-2,1.00389935E-1,-6.534832E-2,1E0,1.6666666E0,2.75E0,7.455946E-2,-1.0303819E-2,1.3333334E0,9E-1,2.7E0,1.6666666E0,-1.4579917E-2,3.8310837E-2,-1.112829E-2,-1.3855861E-1,1.2267273E-3,-7.854674E-2,1.7724449E-2,1.0251772E-1],"split_indices":[3,13,14,9,6,2,0,0,0,0,10,1,13,0,0,1,0,6,12,0,0,0,0,0,0,0,0],"split_type":[0,0,0,0,0,0,0,0,0,0,0,0,0,0,0,0,0,0,0,0,0,0,0,0,0,0,0],"sum_hessian":[7.903485E2,9.150368E0,7.811982E2,5.0379868E0,4.1123815E0,7.786979E2,2.5003183E0,1.7731203E0,3.2648664E0,1.8112931E0,2.3010883E0,1.742388E2,6.0445905E2,1.169354E0,1.1317343E0,1.6118938E2,1.3049413E1,5.6726917E2,3.7189865E1,1.3573297E2,2.5456411E1,8.622155E0,4.427258E0,5.6395276E2,3.3164217E0,3.298851E1,4.201354E0],"tree_param":{"num_deleted":"0","num_feature":"18","num_nodes":"27","size_leaf_vector":"1"}},{"base_weights":[4.5880033E-3,3.559082E-1,-1.6521832E-3,6.75468E-1,-1.7746934E-3,-4.3833744E-2,5.5646777E-2,3.0373542E-2,1.02663696E-1,-8.838334E-2,4.1993147E-1,-5.743951E-2,4.7015005E-1,1.2568681E-1,-7.945572E-2,7.072129E-2,-5.7743955E-2,-2.5446406E-2,6.299178E-1,-4.3034934E-2,-7.900115E-1,6.4457464E-1,-5.318212E-2,-1.2986922E-1,1.440351E-1,-1.3461064E-1,5.744412E-1,-3.9478494E-3,8.987616E-2,-8.731912E-3,1.1658637E-2,-3.3508215E-2,-1.2031358E-1,-3.9074216E-2,9.208261E-2,1.6166618E-2,-1.334972E-1,-2.1993529E-2,3.229723E-2,8.0633275E-2,-6.28789E-2],"categories":[],"categories_nodes":[],"categories_segments":[],"categories_sizes":[],"default_left":[0,0,0,0,0,0,0,0,0,0,0,0,0,0,0,0,0,0,0,0,0,0,0,0,0,0,0,0,0,0,0,0,0,0,0,0,0,0,0,0,0],"id":26,"left_children":[1,3,5,7,9,11,13,15,-1,-1,17,19,21,23,25,-1,-1,-1,27,29,31,33,-1,-1,35,37,39,-1,-1,-1,-1,-1,-1,-1,-1,-1,-1,-1,-1,-1,-1],"loss_changes":[1.7341899E0,1.5791465E0,1.8827422E0,1.6211276E0,3.165168E0,3.1644878E0,3.1355796E0,1.8899754E0,0E0,0E0,9.7595024E-1,4.587657E0,2.383907E0,5.882457E0,4.1667295E0,0E0,0E0,0E0,8.776878E-1,3.0538511E0,1.1733441E0,3.3341074E0,0E0,0E0,5.849688E0,4.1853137E0,3.020954E0,0E0,0E0,0E0,0E0,0E0,0E0,0E0,0E0,0E0,0E0,0E0,0E0,0E0,0E0],"parents":[2147483647,0,0,1,1,2,2,3,3,4,4,5,5,6,6,7,7,10,10,11,11,12,12,13,13,14,14,18,18,19,19,20,20,21,21,24,24,25,25,26,26],"right_children":[2,4,6,8,10,12,14,16,-1,-1,18,20,22,24,26,-1,-1,-1,28,30,32,34,-1,-1,36,38,40,-1,-1,-1,-1,-1,-1,-1,-1,-1,-1,-1,-1,-1,-1],"split_conditions":[2E-1,1.4285715E0,1.4E0,1.6666666E0,1.6666666E0,3.8333333E0,2E0,6E-1,1.02663696E-1,-8.838334E-2,6.25E-1,3.6666667E0,4.25E0,1E0,1.1666666E0,7.072129E-2,-5.7743955E-2,-2.5446406E-2,3.0833333E0,1.7777778E0,2.1E0,8.888889E-1,-5.318212E-2,-1.2986922E-1,2.5714285E0,8.75E-1,4E0,-3.9478494E-3,8.987616E-2,-8.731912E-3,1.1658637E-2,-3.3508215E-2,-1.2031358E-1,-3.9074216E-2,9.208261E-2,1.6166618E-2,-1.334972E-1,-2.1993529E-2,3.229723E-2,8.0633275E-2,-6.28789E-2],"split_indices":[11,5,11,14,12,15,11,12,0,0,9,15,14,14,9,0,0,0,14,5,6,3,0,0,1,4,12,0,0,0,0,0,0,0,0,0,0,0,0,0,0],"split_type":[0,0,0,0,0,0,0,0,0,0,0,0,0,0,0,0,0,0,0,0,0,0,0,0,0,0,0,0,0,0,0,0,0,0,0,0,0,0,0,0,0],"sum_hessian":[7.8976733E2,1.2805187E1,7.769621E2,6.2937713E0,6.5114155E0,4.4765134E2,3.293108E2,2.6014395E0,3.6923318E0,1.7516785E0,4.759737E0,4.3697238E2,1.0678934E1,2.1692297E2,1.1238783E2,1.1534553E0,1.4479842E0,1.0798526E0,3.6798847E0,4.295842E2,7.388177E0,9.399372E0,1.2795625E0,1.8713317E0,2.1505164E2,1.0437791E2,8.009929E0,1.2988992E0,2.3809855E0,3.366417E2,9.2942505E1,4.378118E0,3.0100589E0,1.8924674E0,7.5069046E0,2.1339842E2,1.6532066E0,8.8411354E1,1.5966551E1,6.9922194E0,1.0177097E0],"tree_param":{"num_deleted":"0","num_feature":"18","num_nodes":"41","size_leaf_vector":"1"}},{"base_weights":[3.9071105E-3,1.067424E-3,7.75485E-2,1.3589404E-2,-1.7225914E-1,7.0084394E-3,6.7800474E-1,-3.000025E-2,-6.7582375E-1,8.879881E-2,3.0154614E-3,-2.383993E-2,8.776226E-1,-4.0517575E-1,3.4908378E-1,-1.14132114E-1,-1.4916183E0,-1.4225898E-3,2.1226957E-2,9.9591665E-2,1.682316E-2,-7.3981814E-2,1.1972137E-2,-9.1280155E-2,4.799199E-2,-4.9765084E-2,7.87318E-2,-1.4902334E-2,-1.9570236E-1],"categories":[],"categories_nodes":[],"categories_segments":[],"categories_sizes":[],"default_left":[0,0,0,0,0,0,0,0,0,0,0,0,0,0,0,0,0,0,0,0,0,0,0,0,0,0,0,0,0],"id":27,"left_children":[1,3,-1,5,7,9,11,13,15,-1,17,-1,19,21,23,25,27,-1,-1,-1,-1,-1,-1,-1,-1,-1,-1,-1,-1],"loss_changes":[1.7298217E0,1.7125686E0,0E0,3.2125986E0,3.7882953E0,2.5638938E0,1.5274687E0,6.1860137E0,5.174731E0,0E0,2.627067E0,0E0,3.4694195E-1,3.921891E0,4.0170145E0,3.1544755E0,2.6286201E0,0E0,0E0,0E0,0E0,0E0,0E0,0E0,0E0,0E0,0E0,0E0,0E0],"parents":[2147483647,0,0,1,1,3,3,4,4,5,5,6,6,7,7,8,8,10,10,12,12,13,13,14,14,15,15,16,16],"right_children":[2,4,-1,6,8,10,12,14,16,-1,18,-1,20,22,24,26,28,-1,-1,-1,-1,-1,-1,-1,-1,-1,-1,-1,-1],"split_conditions":[4.4E0,2.8E0,7.75485E-2,1.4E0,1.375E0,6E-1,3.3333334E-1,2.25E0,1E0,8.879881E-2,2.3333333E0,-2.383993E-2,3.05E0,1.375E0,5E-1,1.6666666E0,1.3333334E0,-1.4225898E-3,2.1226957E-2,9.9591665E-2,1.682316E-2,-7.3981814E-2,1.1972137E-2,-9.1280155E-2,4.799199E-2,-4.9765084E-2,7.87318E-2,-1.4902334E-2,-1.9570236E-1],"split_indices":[10,10,0,4,4,8,9,0,9,0,10,0,15,6,11,4,6,0,0,0,0,0,0,0,0,0,0,0,0],"split_type":[0,0,0,0,0,0,0,0,0,0,0,0,0,0,0,0,0,0,0,0,0,0,0,0,0,0,0,0,0],"sum_hessian":[7.888761E2,7.869811E2,1.894993E0,7.348159E2,5.2165184E1,7.286096E2,6.206253E0,4.1500668E1,1.0664517E1,2.2885756E0,7.2632104E2,1.0753351E0,5.130918E0,2.0823269E1,2.0677399E1,6.9909825E0,3.6735353E0,6.718929E2,5.442817E1,4.0514226E0,1.0794954E0,1.2466155E1,8.357113E0,1.3810265E0,1.9296371E1,5.218664E0,1.7723181E0,1.2854598E0,2.3880758E0],"tree_param":{"num_deleted":"0","num_feature":"18","num_nodes":"29","size_leaf_vector":"1"}},{"base_weights":[3.6104317E-3,6.0452825E-1,9.960777E-5,8.995735E-2,-2.21665E-2,-2.1902339E-1,1.3906143E-2,-3.831358E-1,1.03818335E-1,4.1313037E-1,5.4625454E-3,-1.9547723E-1,-9.449463E-1,7.710289E-1,-1.8896404E-1,8.247643E-1,-1.2609854E-2,1.6556287E-2,-3.1095332E-1,-8.258902E-2,2.1321185E-2,-1.3927588E-1,4.8720352E-2,1.0620264E-1,-1.91935E-2,-7.900599E-2,1.2747057E-2,1.739858E-2,9.875149E-2,-7.919764E-2,2.4164042E-2,-4.7789022E-4,3.7798364E-2,-1.0178359E-3,-8.269477E-2],"categories":[],"categories_nodes":[],"categories_segments":[],"categories_sizes":[],"default_left":[0,0,0,0,0,0,0,0,0,0,0,0,0,0,0,0,0,0,0,0,0,0,0,0,0,0,0,0,0,0,0,0,0,0,0],"id":28,"left_children":[1,3,5,-1,-1,7,9,11,13,15,17,19,21,23,25,27,29,31,33,-1,-1,-1,-1,-1,-1,-1,-1,-1,-1,-1,-1,-1,-1,-1,-1],"loss_changes":[1.6649022E0,1.316779E0,2.3797562E0,0E0,0E0,2.5100853E0,2.492129E0,3.0967298E0,3.3689938E0,2.6939914E0,2.5524065E0,6.5121326E0,5.509398E0,1.6691592E0,2.4347749E0,6.5437746E-1,1.8781536E0,5.415281E0,3.8142772E0,0E0,0E0,0E0,0E0,0E0,0E0,0E0,0E0,0E0,0E0,0E0,0E0,0E0,0E0,0E0,0E0],"parents":[2147483647,0,0,1,1,2,2,5,5,6,6,7,7,8,8,9,9,10,10,11,11,12,12,13,13,14,14,15,15,16,16,17,17,18,18],"right_children":[2,4,6,-1,-1,8,10,12,14,16,18,20,22,24,26,28,30,32,34,-1,-1,-1,-1,-1,-1,-1,-1,-1,-1,-1,-1,-1,-1,-1,-1],"split_conditions":[1.4285715E-1,1.75E0,6.666667E-1,8.995735E-2,-2.21665E-2,1.5555556E0,5E-1,8.333333E-1,1.8E0,1.2E0,4.75E0,4.2857143E-1,2.65E0,6.666667E-1,7.1428573E-1,7.5E-1,8.75E-1,4.15E0,1.375E0,-8.258902E-2,2.1321185E-2,-1.3927588E-1,4.8720352E-2,1.0620264E-1,-1.91935E-2,-7.900599E-2,1.2747057E-2,1.739858E-2,9.875149E-2,-7.919764E-2,2.4164042E-2,-4.7789022E-4,3.7798364E-2,-1.0178359E-3,-8.269477E-2],"split_indices":[0,5,0,0,0,6,10,9,13,12,15,9,14,10,7,11,6,15,0,0,0,0,0,0,0,0,0,0,0,0,0,0,0,0,0],"split_type":[0,0,0,0,0,0,0,0,0,0,0,0,0,0,0,0,0,0,0,0,0,0,0,0,0,0,0,0,0,0,0,0,0,0,0],"sum_hessian":[7.8818774E2,3.5838325E0,7.846039E2,2.5753288E0,1.0085037E0,4.562515E1,7.3897876E2,3.0124825E1,1.5500324E1,1.4313007E1,7.246658E2,2.3592342E1,6.532482E0,4.2291718E0,1.12711525E1,6.800543E0,7.512464E0,7.010347E2,2.3631048E1,8.877599E0,1.4714743E1,4.9973793E0,1.535103E0,3.1687398E0,1.0604322E0,3.370959E0,7.9001937E0,1.7744035E0,5.0261393E0,1.3276874E0,6.184777E0,6.628908E2,3.8143913E1,1.5573137E1,8.057912E0],"tree_param":{"num_deleted":"0","num_feature":"18","num_nodes":"35","size_leaf_vector":"1"}},{"base_weights":[3.2899936E-3,6.057558E-4,7.651477E-2,4.0352768E-1,-4.524105E-3,6.211422E-1,-3.076497E-2,-6.7511536E-2,3.4948457E-2,-1.0726937E-2,8.376908E-1,9.767728E-2,-8.004224E-2,-7.2411036E-1,4.204E-2,9.242437E-2,2.2610063E-2,-3.7851576E-2,-3.8921908E-3,-1.37119E-1,2.4331347E-3,5.3469416E-2,3.0161117E-3],"categories":[],"categories_nodes":[],"categories_segments":[],"categories_sizes":[],"default_left":[0,0,0,0,0,0,0,0,0,0,0,0,0,0,0,0,0,0,0,0,0,0,0],"id":29,"left_children":[1,3,-1,5,7,9,-1,11,13,-1,15,-1,17,19,21,-1,-1,-1,-1,-1,-1,-1,-1],"loss_changes":[1.6121325E0,1.6280576E0,0E0,1.7235876E0,1.9363898E0,1.338089E0,0E0,4.004121E0,2.6081152E0,0E0,1.19936466E-1,0E0,3.6351857E0,2.2065527E0,2.7658606E0,0E0,0E0,0E0,0E0,0E0,0E0,0E0,0E0],"parents":[2147483647,0,0,1,1,3,3,4,4,5,5,7,7,8,8,10,10,12,12,13,13,14,14],"right_children":[2,4,-1,6,8,10,-1,12,14,-1,16,-1,18,20,22,-1,-1,-1,-1,-1,-1,-1,-1],"split_conditions":[3.5E0,7E-1,7.651477E-2,1.1E0,1.1111112E0,6.25E-1,-3.076497E-2,6.666667E-1,7E-1,-1.0726937E-2,2.8333333E0,9.767728E-2,1E0,8.333333E-1,7.5E-1,9.242437E-2,2.2610063E-2,-3.7851576E-2,-3.8921908E-3,-1.37119E-1,2.4331347E-3,5.3469416E-2,3.0161117E-3],"split_indices":[0,3,0,0,0,7,0,8,8,0,14,0,1,2,8,0,0,0,0,0,0,0,0],"split_type":[0,0,0,0,0,0,0,0,0,0,0,0,0,0,0,0,0,0,0,0,0,0,0],"sum_hessian":[7.875527E2,7.857849E2,1.7677448E0,8.902227E0,7.768827E2,6.913387E0,1.9888403E0,2.9901926E2,4.7786343E2,1.6999271E0,5.2134595E0,2.6330812E0,2.9638617E2,3.487268E0,4.7437616E2,4.119281E0,1.094179E0,3.489493E1,2.6149124E2,1.424033E0,2.0632348E0,1.0132627E1,4.6424353E2],"tree_param":{"num_deleted":"0","num_feature":"18","num_nodes":"23","size_leaf_vector":"1"}},{"base_weights":[3.1666185E-3,5.9511524E-4,7.402167E-2,1.2370303E-2,-1.6240512E-1,6.3080443E-3,6.467582E-1,8.048672E-2,-4.4013143E-1,2.9516596E-1,-5.4610944E-3,-2.1928873E-2,8.445562E-1,-3.2319298E-1,4.1554207E-1,-5.491648E-1,4.0248695E-1,8.612141E-3,8.082983E-2,-2.0024357E-2,9.654052E-4,1.3707258E-2,9.679236E-2,-7.852992E-2,1.8661696E-2,9.868021E-2,1.4821707E-2,-2.3365669E-2,-1.0658457E-1,7.513748E-2,-1.8660197E-2],"categories":[],"categories_nodes":[],"categories_segments":[],"categories_sizes":[],"default_left":[0,0,0,0,0,0,0,0,0,0,0,0,0,0,0,0,0,0,0,0,0,0,0,0,0,0,0,0,0,0,0],"id":30,"left_children":[1,3,-1,5,7,9,11,13,15,17,19,-1,21,23,25,27,29,-1,-1,-1,-1,-1,-1,-1,-1,-1,-1,-1,-1,-1,-1],"loss_changes":[1.4931326E0,1.5111821E0,0E0,2.819696E0,3.6137533E0,2.4775622E0,1.37408E0,4.076024E0,2.5089397E0,2.9907613E0,2.065128E0,0E0,3.7843657E-1,3.3930106E0,2.3524985E0,3.4143705E0,8.4521306E-1,0E0,0E0,0E0,0E0,0E0,0E0,0E0,0E0,0E0,0E0,0E0,0E0,0E0,0E0],"parents":[2147483647,0,0,1,1,3,3,4,4,5,5,6,6,7,7,8,8,9,9,10,10,12,12,13,13,14,14,15,15,16,16],"right_children":[2,4,-1,6,8,10,12,14,16,18,20,-1,22,24,26,28,30,-1,-1,-1,-1,-1,-1,-1,-1,-1,-1,-1,-1,-1,-1],"split_conditions":[4.4E0,2.8E0,7.402167E-2,1.4E0,1.25E0,1.3333334E0,3.3333334E-1,2.2222223E0,1.6666666E0,7.5E-1,7.5E-1,-2.1928873E-2,5.555556E-1,1.2222222E0,3.85E0,2.8333333E0,3.8333333E0,8.612141E-3,8.082983E-2,-2.0024357E-2,9.654052E-4,1.3707258E-2,9.679236E-2,-7.852992E-2,1.8661696E-2,9.868021E-2,1.4821707E-2,-2.3365669E-2,-1.0658457E-1,7.513748E-2,-1.8660197E-2],"split_indices":[10,10,0,4,12,15,9,0,11,2,13,0,1,6,14,15,15,0,0,0,0,0,0,0,0,0,0,0,0,0,0],"split_type":[0,0,0,0,0,0,0,0,0,0,0,0,0,0,0,0,0,0,0,0,0,0,0,0,0,0,0,0,0,0,0],"sum_hessian":[7.8702936E2,7.8529034E2,1.7390018E0,7.332446E2,5.2045715E1,7.273044E2,5.940233E0,2.8142897E1,2.3902817E1,2.7530289E1,6.997741E2,1.0842516E0,4.8559813E0,1.2780347E1,1.5362551E1,2.1472569E1,2.4302487E0,2.0391037E1,7.139252E0,4.9510136E1,6.50264E2,1.0344933E0,3.8214881E0,6.4203677E0,6.3599787E0,4.039324E0,1.1323227E1,1.4233311E1,7.2392573E0,1.3532816E0,1.076967E0],"tree_param":{"num_deleted":"0","num_feature":"18","num_nodes":"31","size_leaf_vector":"1"}},{"base_weights":[3.211436E-3,5.707374E-1,8.869282E-6,8.6690925E-2,-2.1900188E-2,-1.959354E-1,1.240259E-2,-8.952983E-1,-1.17771305E-1,3.8786778E-1,4.594262E-3,-1.1209939E-2,-1.2691694E-1,3.4792896E-2,-5.5540365E-1,7.861795E-1,-1.4095996E-2,-2.4100357E-1,1.6588796E-2,1.2899197E-2,-9.9872924E-2,-1.2613969E-1,7.4930936E-3,1.6505212E-2,9.457572E-2,-7.395545E-2,2.2691986E-2,-6.445542E-2,2.0719707E-2,3.3695403E-2,5.268768E-4],"categories":[],"categories_nodes":[],"categories_segments":[],"categories_sizes":[],"default_left":[0,0,0,0,0,0,0,0,0,0,0,0,0,0,0,0,0,0,0,0,0,0,0,0,0,0,0,0,0,0,0],"id":31,"left_children":[1,3,5,-1,-1,7,9,11,13,15,17,-1,-1,19,21,23,25,27,29,-1,-1,-1,-1,-1,-1,-1,-1,-1,-1,-1,-1],"loss_changes":[1.4314706E0,1.223555E0,1.9067708E0,0E0,0E0,2.4478922E0,2.1632068E0,1.1883128E0,2.9012935E0,2.4178877E0,2.1380439E0,0E0,0E0,3.3365102E0,5.0861597E0,5.940423E-1,1.6477826E0,6.2464185E0,2.5064592E0,0E0,0E0,0E0,0E0,0E0,0E0,0E0,0E0,0E0,0E0,0E0,0E0],"parents":[2147483647,0,0,1,1,2,2,5,5,6,6,7,7,8,8,9,9,10,10,13,13,14,14,15,15,16,16,17,17,18,18],"right_children":[2,4,6,-1,-1,8,10,12,14,16,18,-1,-1,20,22,24,26,28,30,-1,-1,-1,-1,-1,-1,-1,-1,-1,-1,-1,-1],"split_conditions":[1.4285715E-1,1.75E0,6.666667E-1,8.6690925E-2,-2.1900188E-2,6.666667E-1,5E-1,5.555556E-1,8.333333E-1,1.2E0,7.5E-1,-1.1209939E-2,-1.2691694E-1,2.6666667E0,1.1111112E0,7.5E-1,8.75E-1,1E0,8E-1,1.2899197E-2,-9.9872924E-2,-1.2613969E-1,7.4930936E-3,1.6505212E-2,9.457572E-2,-7.395545E-2,2.2691986E-2,-6.445542E-2,2.0719707E-2,3.3695403E-2,5.268768E-4],"split_indices":[0,5,0,0,0,5,10,2,9,12,10,0,0,13,6,11,6,8,0,0,0,0,0,0,0,0,0,0,0,0,0],"split_type":[0,0,0,0,0,0,0,0,0,0,0,0,0,0,0,0,0,0,0,0,0,0,0,0,0,0,0,0,0,0,0],"sum_hessian":[7.865897E2,3.4194386E0,7.831703E2,2.415755E0,1.0036838E0,4.570867E1,7.374616E2,3.5441117E0,4.216456E1,1.4032493E1,7.2342914E2,1.5651703E0,1.9789414E0,3.1947687E1,1.0216872E1,6.568161E0,7.4643316E0,3.2796722E1,6.906324E2,3.008117E1,1.8665184E0,4.3469768E0,5.8698955E0,1.7583619E0,4.809799E0,1.3455956E0,6.1187363E0,1.7027456E1,1.5769265E1,2.2588713E1,6.680437E2],"tree_param":{"num_deleted":"0","num_feature":"18","num_nodes":"31","size_leaf_vector":"1"}},{"base_weights":[2.654632E-3,3.8138774E-1,-2.0824282E-3,7.2947323E-1,-8.806134E-2,-5.4226206E-3,8.078787E-2,1.3667381E-2,9.4978996E-2,-5.8501076E-2,3.782687E-1,-1.3831963E-3,-6.9778293E-1,6.870385E-2,-1.0059084E-2,-1.0852999E-2,3.00233E-1,1.4745602E-2,-1.3371694E-1,8.255918E-2,-1.4299947E-3,-5.384614E-2,4.561535E-2],"categories":[],"categories_nodes":[],"categories_segments":[],"categories_sizes":[],"default_left":[0,0,0,0,0,0,0,0,0,0,0,0,0,0,0,0,0,0,0,0,0,0,0],"id":32,"left_children":[1,3,5,7,9,11,-1,-1,-1,-1,13,15,17,-1,-1,19,21,-1,-1,-1,-1,-1,-1],"loss_changes":[1.4125217E0,1.6535281E0,2.1096199E0,6.1365724E-1,1.3877238E0,2.1691687E0,0E0,0E0,0E0,0E0,5.428395E-1,2.2095745E0,2.6285205E0,0E0,0E0,2.1739151E0,3.3251429E0,0E0,0E0,0E0,0E0,0E0,0E0],"parents":[2147483647,0,0,1,1,2,2,3,3,4,4,5,5,10,10,11,11,12,12,15,15,16,16],"right_children":[2,4,6,8,10,12,-1,-1,-1,-1,14,16,18,-1,-1,20,22,-1,-1,-1,-1,-1,-1],"split_conditions":[7E-1,1.4E0,6.2E0,4.2857143E-1,1.3333334E0,5.8E0,8.078787E-2,1.3667381E-2,9.4978996E-2,-5.8501076E-2,1E0,2.5555556E0,2.9E0,6.870385E-2,-1.0059084E-2,1.4285715E-1,7E-1,1.4745602E-2,-1.3371694E-1,8.255918E-2,-1.4299947E-3,-5.384614E-2,4.561535E-2],"split_indices":[3,13,14,9,6,14,0,0,0,0,10,5,5,0,0,0,2,0,0,0,0,0,0],"split_type":[0,0,0,0,0,0,0,0,0,0,0,0,0,0,0,0,0,0,0,0,0,0,0],"sum_hessian":[7.858804E2,8.725873E0,7.771545E2,4.692559E0,4.033314E0,7.7495197E2,2.2025135E0,1.7105055E0,2.9820533E0,1.8293494E0,2.2039647E0,7.714531E2,3.4988759E0,1.0756463E0,1.1283184E0,7.489039E2,2.2549215E1,1.8382173E0,1.6606585E0,2.0946605E0,7.468092E2,3.1503081E0,1.9398907E1],"tree_param":{"num_deleted":"0","num_feature":"18","num_nodes":"23","size_leaf_vector":"1"}},{"base_weights":[2.6211187E-3,-6.571331E-2,2.7951704E-2,-4.4644218E-2,-6.8467367E-1,-3.9585527E-2,8.677586E-2,-1.2506488E-1,1.0143088E-1,-1.2616347E-1,-9.6379906E-2,6.1941303E-2,-1.4708325E-1,8.9111125E-1,7.232872E-2,2.0256019E-1,-2.2023572E-1,-4.471621E-2,5.702472E-1,7.253494E-2,-5.661217E-1,2.2373307E-2,7.6915944E-1,-6.507965E-1,-8.058704E-2,3.0413125E-2,9.8772526E-2,2.0740935E-1,3.8038976E-3,2.8980229E-2,-5.153316E-2,-2.6767319E-2,2.929281E-2,1.0464509E-2,-5.227058E-2,1.4396967E-2,9.721062E-2,-9.229889E-2,2.3136004E-3,4.952707E-2,-2.0956416E-3,1.0255815E-1,2.9705167E-2,-1.646831E-1,-1.0416561E-2,-1.367757E-2,5.511092E-2,-7.147625E-2,2.3642458E-2,-2.0519044E-2,7.098153E-3],"categories":[],"categories_nodes":[],"categories_segments":[],"categories_sizes":[],"default_left":[0,0,0,0,0,0,0,0,0,0,0,0,0,0,0,0,0,0,0,0,0,0,0,0,0,0,0,0,0,0,0,0,0,0,0,0,0,0,0,0,0,0,0,0,0,0,0,0,0,0,0],"id":33,"left_children":[1,3,5,7,9,11,13,15,17,-1,19,21,23,25,27,29,31,33,35,-1,37,39,41,43,45,-1,-1,47,49,-1,-1,-1,-1,-1,-1,-1,-1,-1,-1,-1,-1,-1,-1,-1,-1,-1,-1,-1,-1,-1,-1],"loss_changes":[1.3632945E0,2.7472568E0,2.285937E0,2.4451826E0,2.234759E0,2.9356022E0,3.5074787E0,4.2225246E0,5.1007605E0,0E0,2.1553884E0,3.8614097E0,4.319936E0,2.1739006E-3,2.8043604E0,2.0709894E0,2.6176376E0,4.1524825E0,2.888095E0,0E0,7.4424696E-1,2.721095E0,5.807681E-1,8.039873E0,4.2089076E0,0E0,0E0,2.8975372E0,2.8516517E0,0E0,0E0,0E0,0E0,0E0,0E0,0E0,0E0,0E0,0E0,0E0,0E0,0E0,0E0,0E0,0E0,0E0,0E0,0E0,0E0,0E0,0E0],"parents":[2147483647,0,0,1,1,2,2,3,3,4,4,5,5,6,6,7,7,8,8,10,10,11,11,12,12,13,13,14,14,15,15,16,16,17,17,18,18,20,20,21,21,22,22,23,23,24,24,27,27,28,28],"right_children":[2,4,6,8,10,12,14,16,18,-1,20,22,24,26,28,30,32,34,36,-1,38,40,42,44,46,-1,-1,48,50,-1,-1,-1,-1,-1,-1,-1,-1,-1,-1,-1,-1,-1,-1,-1,-1,-1,-1,-1,-1,-1,-1],"split_conditions":[1.1E0,1.6666666E0,5.555556E-1,2.35E0,1E0,2.25E0,9E-1,6E-1,3.25E0,-1.2616347E-1,1E0,1.5E0,5.555556E-1,6.25E-1,1.375E0,1.8333334E0,1.1E0,8.333333E-1,1E0,7.253494E-2,1.5E0,1.1666666E0,5E-1,2.55E0,1.125E0,3.0413125E-2,9.8772526E-2,7.5E-1,8E-1,2.8980229E-2,-5.153316E-2,-2.6767319E-2,2.929281E-2,1.0464509E-2,-5.227058E-2,1.4396967E-2,9.721062E-2,-9.229889E-2,2.3136004E-3,4.952707E-2,-2.0956416E-3,1.0255815E-1,2.9705167E-2,-1.646831E-1,-1.0416561E-2,-1.367757E-2,5.511092E-2,-7.147625E-2,2.3642458E-2,-2.0519044E-2,7.098153E-3],"split_indices":[6,13,4,15,10,14,0,13,14,0,11,12,2,7,6,1,4,9,6,0,11,6,10,14,9,0,0,3,7,0,0,0,0,0,0,0,0,0,0,0,0,0,0,0,0,0,0,0,0,0,0],"split_type":[0,0,0,0,0,0,0,0,0,0,0,0,0,0,0,0,0,0,0,0,0,0,0,0,0,0,0,0,0,0,0,0,0,0,0,0,0,0,0,0,0,0,0,0,0,0,0,0,0,0,0],"sum_hessian":[7.855374E2,2.1200809E2,5.7352936E2,2.0606584E2,5.942246E0,2.6714346E2,3.0638586E2,1.3299188E2,7.307396E1,2.42217E0,3.520076E0,1.3760522E2,1.2953824E2,4.335384E0,3.0205048E2,2.968231E1,1.0330958E2,5.6397446E1,1.6676516E1,1.0824239E0,2.437652E0,1.3129128E2,6.313952E0,1.4081672E1,1.1545657E2,1.198963E0,3.1364207E0,1.0097505E2,2.0107542E2,2.6997715E1,2.6845944E0,9.500554E1,8.304038E0,4.3565308E1,1.2832134E1,8.751501E0,7.9250145E0,1.1654637E0,1.2721884E0,1.0144515E1,1.2114676E2,3.3319046E0,2.9820476E0,4.276544E0,9.805128E0,1.06745186E2,8.711387E0,2.3592286E0,9.861582E1,4.8410988E1,1.5266444E2],"tree_param":{"num_deleted":"0","num_feature":"18","num_nodes":"51","size_leaf_vector":"1"}},{"base_weights":[2.5318495E-3,3.195954E-1,-2.8843826E-3,6.4837235E-1,-3.8450904E-2,-3.898409E-2,4.6432693E-2,2.109633E-2,9.903702E-2,-8.573852E-2,3.783669E-1,7.965498E-2,-4.593094E-2,2.995028E-1,1.1974141E-2,-5.564443E-2,6.854503E-2,-8.738524E-3,7.9176255E-2,-2.877679E-1,-2.1660164E-2,-1.1332871E-1,4.461428E-1,-8.996345E-1,2.3086144E-2,6.309535E-2,-4.6983942E-2,2.179592E-2,-5.0794173E-2,-1.2885834E-3,-7.7980496E-2,4.5104742E-2,-1.08921066E-1,-1.7856276E-2,7.147571E-2,-1.7623914E-2,-1.1364837E-1,7.276418E-2,6.35894E-4],"categories":[],"categories_nodes":[],"categories_segments":[],"categories_sizes":[],"default_left":[0,0,0,0,0,0,0,0,0,0,0,0,0,0,0,0,0,0,0,0,0,0,0,0,0,0,0,0,0,0,0,0,0,0,0,0,0,0,0],"id":34,"left_children":[1,3,5,7,9,11,13,15,-1,-1,17,-1,19,21,23,-1,-1,25,-1,27,29,31,33,35,37,-1,-1,-1,-1,-1,-1,-1,-1,-1,-1,-1,-1,-1,-1],"loss_changes":[1.3497373E0,1.5788865E0,1.3784198E0,1.4674158E0,2.8036408E0,2.6310308E0,2.8501525E0,1.7126833E0,0E0,0E0,8.8820475E-1,0E0,2.6012897E0,2.4222414E0,2.948995E0,0E0,0E0,1.4270556E0,0E0,4.6132402E0,2.682818E0,6.5859885E0,5.012608E0,4.0044332E-1,