{"learner":{"attributes":{"best_iteration":"2","best_score":"0.6242156132226865","scikit_learn":"{\"_estimator_type\": \"classifier\"}"},"feature_names":["home_goals_per_game","home_goals_conceded_per_game","home_over15_rate","home_over05_rate","home_first_half_goals","away_goals_per_game","away_goals_conceded_per_game","away_over15_rate","away_over05_rate","away_first_half_goals","home_home_goals","home_home_conceded","away_away_goals","away_away_conceded","total_expected_goals","defensive_strength","over15_odds","under15_odds","home_btts_rate","away_btts_rate","home_clean_sheet_rate","away_clean_sheet_rate","home_attack_strength","away_attack_strength","attack_vs_defense_ratio","home_momentum","away_momentum","home_goals_std","away_goals_std","home_over25_rate","away_over25_rate","home_scored_in_rate","away_scored_in_rate"],"feature_types":["float","float","float","float","float","float","float","float","float","float","float","float","float","float","float","float","float","float","float","float","float","float","float","float","float","float","float","float","float","float","float","float","float"],"gradient_booster":{"model":{"gbtree_model_param":{"num_parallel_tree":"1","num_trees":"23"},"iteration_indptr":[0,1,2,3,4,5,6,7,8,9,10,11,12,13,14,15,16,17,18,19,20,21,22,23],"tree_info":[0,0,0,0,0,0,0,0,0,0,0,0,0,0,0,0,0,0,0,0,0,0,0],"trees":[{"base_weights":[4.3485064E-2,3.3450443E-1,-1.99289E-1,6.4585465E-1,2.509795E-1,-3.8189763E-1,-9.4547644E-2,9.021609E-2,6.8850553E-1,-3.971706E-1,2.6549822E-1,-5.0565267E-1,-1.3431002E-1,1.0457631E-1,-1.3108745E-1,2.883761E-2,-1.1242011E-2,2.5752617E-2,4.2050257E-2,-4.489262E-2,6.8758414E-3,1.0814677E-2,2.2545544E-2,-2.8611898E-2,1.596091E-3,-1.1700997E-2,3.1177795E-2,3.7584703E-2,2.3954327E-3,-5.370256E-3,-2.7253667E-2],"categories":[],"categories_nodes":[],"categories_segments":[],"categories_sizes":[],"default_left":[0,0,0,0,0,0,0,0,0,0,0,0,0,0,0,0,0,0,0,0,0,0,0,0,0,0,0,0,0,0,0],"id":0,"left_children":[1,3,5,7,9,11,13,15,17,19,21,23,25,27,29,-1,-1,-1,-1,-1,-1,-1,-1,-1,-1,-1,-1,-1,-1,-1,-1],"loss_changes":[2.0395596E2,3.389273E1,3.0015163E1,6.4205704E0,9.852081E0,1.7422935E1,7.3048754E0,3.3919933E0,6.223503E0,6.349535E0,9.09729E0,1.3723114E1,1.4658818E1,5.584487E0,8.183034E0,0E0,0E0,0E0,0E0,0E0,0E0,0E0,0E0,0E0,0E0,0E0,0E0,0E0,0E0,0E0,0E0],"parents":[2147483647,0,0,1,1,2,2,3,3,4,4,5,5,6,6,7,7,8,8,9,9,10,10,11,11,12,12,13,13,14,14],"right_children":[2,4,6,8,10,12,14,16,18,20,22,24,26,28,30,-1,-1,-1,-1,-1,-1,-1,-1,-1,-1,-1,-1,-1,-1,-1,-1],"split_conditions":[1.92E0,1.55E0,1.68E0,6.666667E-1,7.5E-1,1.1005049E0,5.714286E-1,1.2292726E0,8.333333E-1,6E-1,3.65E0,1.6666666E0,1.7142857E0,1.69E0,1E0,2.883761E-2,-1.1242011E-2,2.5752617E-2,4.2050257E-2,-4.489262E-2,6.8758414E-3,1.0814677E-2,2.2545544E-2,-2.8611898E-2,1.596091E-3,-1.1700997E-2,3.1177795E-2,3.7584703E-2,2.3954327E-3,-5.370256E-3,-2.7253667E-2],"split_indices":[16,16,17,13,3,28,31,28,2,31,14,11,5,17,7,0,0,0,0,0,0,0,0,0,0,0,0,0,0,0,0],"split_type":[0,0,0,0,0,0,0,0,0,0,0,0,0,0,0,0,0,0,0,0,0,0,0,0,0,0,0,0,0,0,0],"sum_hessian":[2.8846353E3,1.3119735E3,1.5726616E3,2.7583444E2,1.0361392E3,5.719351E2,1.0007265E3,2.0052929E1,2.5578151E2,2.197289E1,1.0141662E3,3.8036566E2,1.9156947E2,1.5445023E2,8.4627625E2,7.6798453E0,1.2373084E1,1.2202421E2,1.3375731E2,1.109311E1,1.0879781E1,8.036105E2,2.1055576E2,3.3855316E2,4.181249E1,1.7002324E2,2.1546232E1,1.1306438E1,1.4314378E2,8.019038E2,4.437244E1],"tree_param":{"num_deleted":"0","num_feature":"33","num_nodes":"31","size_leaf_vector":"1"}},{"base_weights":[3.8350128E-2,-1.0807254E-1,2.122904E-1,-2.1530044E-1,3.214347E-2,1.3056287E-1,4.7075883E-1,-4.9478862E-1,-1.5467566E-1,5.567955E-2,-6.0951555E-1,5.684761E-2,2.8055096E-1,5.11801E-1,-1.842077E-1,-5.293672E-2,-1.6607493E-2,-2.663504E-3,-1.3504299E-2,-6.498813E-3,6.203178E-3,2.4264604E-2,-5.908943E-2,1.1471149E-4,1.6950665E-2,3.9099615E-2,1.2311629E-2,2.0886665E-2,3.6479834E-2,-2.9566577E-2,2.383841E-2],"categories":[],"categories_nodes":[],"categories_segments":[],"categories_sizes":[],"default_left":[0,0,0,0,0,0,0,0,0,0,0,0,0,0,0,0,0,0,0,0,0,0,0,0,0,0,0,0,0,0,0],"id":1,"left_children":[1,3,5,7,9,11,13,15,17,19,21,23,25,27,29,-1,-1,-1,-1,-1,-1,-1,-1,-1,-1,-1,-1,-1,-1,-1,-1],"loss_changes":[7.364689E1,2.3625092E1,2.7797703E1,1.4938446E1,1.0258027E1,1.1071373E1,8.644089E0,1.3990944E1,8.532928E0,8.3649435E0,1.5690351E1,1.0372345E1,5.396347E0,5.697357E0,5.480282E0,0E0,0E0,0E0,0E0,0E0,0E0,0E0,0E0,0E0,0E0,0E0,0E0,0E0,0E0,0E0,0E0],"parents":[2147483647,0,0,1,1,2,2,3,3,4,4,5,5,6,6,7,7,8,8,9,9,10,10,11,11,12,12,13,13,14,14],"right_children":[2,4,6,8,10,12,14,16,18,20,22,24,26,28,30,-1,-1,-1,-1,-1,-1,-1,-1,-1,-1,-1,-1,-1,-1,-1,-1],"split_conditions":[2.7333333E0,7.5E-1,1E0,5.714286E-1,1.5E0,3.5333333E0,6E-1,2.2222222E-1,2.2222222E-1,5.277778E-1,1.3333334E0,3.45E0,7E-1,1.3165612E0,1.4298407E0,-5.293672E-2,-1.6607493E-2,-2.663504E-3,-1.3504299E-2,-6.498813E-3,6.203178E-3,2.4264604E-2,-5.908943E-2,1.1471149E-4,1.6950665E-2,3.9099615E-2,1.2311629E-2,2.0886665E-2,3.6479834E-2,-2.9566577E-2,2.383841E-2],"split_indices":[14,7,4,2,22,14,21,30,20,24,0,15,1,28,28,0,0,0,0,0,0,0,0,0,0,0,0,0,0,0,0],"split_type":[0,0,0,0,0,0,0,0,0,0,0,0,0,0,0,0,0,0,0,0,0,0,0,0,0,0,0,0,0,0,0],"sum_hessian":[2.889341E3,1.5686542E3,1.3206869E3,8.889907E2,6.7966345E2,1.00484705E3,3.158399E2,1.5689113E2,7.320996E2,6.566467E2,2.3016756E1,6.7509906E2,3.29748E2,2.9756485E2,1.827505E1,3.3747593E1,1.2314354E2,3.909332E2,3.411664E2,1.7612411E2,4.8052258E2,7.8933487E0,1.5123406E1,5.66865E2,1.0823406E2,1.9539986E1,3.10208E2,2.1016853E2,8.7396324E1,1.146804E1,6.8070083E0],"tree_param":{"num_deleted":"0","num_feature":"33","num_nodes":"31","size_leaf_vector":"1"}},{"base_weights":[3.455939E-2,-1.6078828E-1,2.978487E-1,-3.3105013E-1,-6.935992E-2,5.789387E-1,2.1649659E-1,-4.3786925E-1,-1.11318275E-1,-4.1910273E-1,-5.1420838E-2,3.600419E-1,6.7849076E-1,1.5530327E-1,4.0193385E-1,-1.34282475E-2,-3.1093935E-2,-3.6157336E-2,-2.0392432E-3,-2.9907103E-3,-4.3269828E-2,1.6256362E-4,-7.559748E-3,2.691081E-3,3.1376034E-2,-1.9161021E-3,3.5434853E-2,-4.1425712E-3,1.1735135E-2,-3.2735836E-2,2.1614643E-2],"categories":[],"categories_nodes":[],"categories_segments":[],"categories_sizes":[],"default_left":[0,0,0,0,0,0,0,0,0,0,0,0,0,0,0,0,0,0,0,0,0,0,0,0,0,0,0,0,0,0,0],"id":2,"left_children":[1,3,5,7,9,11,13,15,17,19,21,23,25,27,29,-1,-1,-1,-1,-1,-1,-1,-1,-1,-1,-1,-1,-1,-1,-1,-1],"loss_changes":[1.4803061E2,2.56531E1,2.7829056E1,1.3428123E1,6.6852393E0,5.629219E0,1.0692024E1,1.1809242E1,8.103531E0,8.211271E0,5.6084876E0,7.1218233E0,4.145378E0,1.3617462E1,7.809986E0,0E0,0E0,0E0,0E0,0E0,0E0,0E0,0E0,0E0,0E0,0E0,0E0,0E0,0E0,0E0,0E0],"parents":[2147483647,0,0,1,1,2,2,3,3,4,4,5,5,6,6,7,7,8,8,9,9,10,10,11,11,12,12,13,13,14,14],"right_children":[2,4,6,8,10,12,14,16,18,20,22,24,26,28,30,-1,-1,-1,-1,-1,-1,-1,-1,-1,-1,-1,-1,-1,-1,-1,-1],"split_conditions":[2E0,1.68E0,1.55E0,1.1005049E0,1.35E0,1.6666666E0,9E-1,9E-1,2.857143E-1,6.25E-1,1.4285715E0,6.25E-1,1.25E0,4.2857143E-1,3.846154E-1,-1.34282475E-2,-3.1093935E-2,-3.6157336E-2,-2.0392432E-3,-2.9907103E-3,-4.3269828E-2,1.6256362E-4,-7.559748E-3,2.691081E-3,3.1376034E-2,-1.9161021E-3,3.5434853E-2,-4.1425712E-3,1.1735135E-2,-3.2735836E-2,2.1614643E-2],"split_indices":[17,17,16,28,14,10,4,22,18,23,6,30,15,9,24,0,0,0,0,0,0,0,0,0,0,0,0,0,0,0,0],"split_type":[0,0,0,0,0,0,0,0,0,0,0,0,0,0,0,0,0,0,0,0,0,0,0,0,0,0,0,0,0,0,0],"sum_hessian":[2.8759302E3,1.650988E3,1.2249421E3,5.755183E2,1.0754697E3,2.7329614E2,9.51646E2,3.8628445E2,1.8923386E2,5.11088E1,1.0243608E3,8.719386E1,1.8610228E2,7.173132E2,2.343328E2,2.0274492E2,1.8353954E2,1.8457504E1,1.7077635E2,2.9066738E1,2.2042063E1,6.617269E2,3.6263394E2,4.138722E1,4.5806644E1,7.3804474E0,1.7872183E2,1.7902711E2,5.382861E2,5.8782835E0,2.2845451E2],"tree_param":{"num_deleted":"0","num_feature":"33","num_nodes":"31","size_leaf_vector":"1"}},{"base_weights":[4.4003893E-2,-1.4198261E-1,2.9734161E-1,-1.19201966E-1,-6.3250136E-1,5.7274455E-1,2.2139302E-1,-1.8271664E-1,-1.20377345E-2,-8.1591886E-1,-1.2885301E-1,8.6694866E-1,4.662887E-1,1.3047814E-1,3.8193667E-1,-1.8885536E-2,-4.8249345E-3,2.6771948E-3,-1.3270102E-2,-7.995456E-2,-3.1462383E-2,-4.5196887E-2,1.8624645E-2,4.736533E-2,-2.4927913E-3,-2.0151021E-2,2.6352737E-2,2.4451686E-3,1.27333775E-2,-1.21303825E-2,2.0357577E-2],"categories":[],"categories_nodes":[],"categories_segments":[],"categories_sizes":[],"default_left":[0,0,0,0,0,0,0,0,0,0,0,0,0,0,0,0,0,0,0,0,0,0,0,0,0,0,0,0,0,0,0],"id":3,"left_children":[1,3,5,7,9,11,13,15,17,19,21,23,25,27,29,-1,-1,-1,-1,-1,-1,-1,-1,-1,-1,-1,-1,-1,-1,-1,-1],"loss_changes":[1.3596674E2,1.8441189E1,2.5347092E1,1.08100395E1,6.5821667E0,7.704727E0,1.390387E1,1.6703285E1,9.902923E0,6.5897827E0,8.523474E0,5.1842804E0,1.0560242E1,6.182728E0,5.563919E0,0E0,0E0,0E0,0E0,0E0,0E0,0E0,0E0,0E0,0E0,0E0,0E0,0E0,0E0,0E0,0E0],"parents":[2147483647,0,0,1,1,2,2,3,3,4,4,5,5,6,6,7,7,8,8,9,9,10,10,11,11,12,12,13,13,14,14],"right_children":[2,4,6,8,10,12,14,16,18,20,22,24,26,28,30,-1,-1,-1,-1,-1,-1,-1,-1,-1,-1,-1,-1,-1,-1,-1,-1],"split_conditions":[2E0,2.76E0,1.54E0,1.118034E0,1.2222222E0,-3.3333334E-1,8E-1,1.66E0,5E-1,7.1428573E-1,-2.2222222E-1,2.6666667E0,7.5E-1,8.75E-1,1.1666666E0,-1.8885536E-2,-4.8249345E-3,2.6771948E-3,-1.3270102E-2,-7.995456E-2,-3.1462383E-2,-4.5196887E-2,1.8624645E-2,4.736533E-2,-2.4927913E-3,-2.0151021E-2,2.6352737E-2,2.4451686E-3,1.27333775E-2,-1.21303825E-2,2.0357577E-2],"split_indices":[17,16,16,28,6,26,4,17,21,1,25,13,13,7,10,0,0,0,0,0,0,0,0,0,0,0,0,0,0,0,0],"split_type":[0,0,0,0,0,0,0,0,0,0,0,0,0,0,0,0,0,0,0,0,0,0,0,0,0,0,0,0,0,0,0],"sum_hessian":[2.8834753E3,1.6627913E3,1.2206842E3,1.5903778E3,7.241336E1,2.621661E2,9.585181E2,9.975226E2,5.928552E2,5.2482014E1,1.9931347E1,6.751016E1,1.9465594E2,6.1352075E2,3.4499738E2,3.0444238E2,6.930802E2,4.7126538E2,1.2158986E2,8.542062E0,4.3939953E1,7.591409E0,1.2339937E1,6.213945E1,5.370715E0,1.2242257E1,1.8241368E2,3.7161893E2,2.419018E2,1.2899648E1,3.3209775E2],"tree_param":{"num_deleted":"0","num_feature":"33","num_nodes":"31","size_leaf_vector":"1"}},{"base_weights":[4.2545673E-2,-1.410347E-1,2.900287E-1,-3.097316E-1,-4.9786244E-2,5.227623E-1,2.0920657E-1,-4.057422E-1,-1.1076467E-1,-6.068099E-2,5.399224E-1,5.015949E-3,5.66434E-1,4.094313E-1,1.677783E-1,-1.4961979E-2,-3.6503784E-2,-9.338307E-3,2.3357887E-2,-5.580119E-2,-2.7055147E-3,5.135957E-2,-2.9824858E-3,3.0424526E-2,-1.924791E-2,2.413859E-2,4.427763E-2,-5.281184E-2,2.3578702E-2,5.7045035E-3,1.6200464E-2],"categories":[],"categories_nodes":[],"categories_segments":[],"categories_sizes":[],"default_left":[0,0,0,0,0,0,0,0,0,0,0,0,0,0,0,0,0,0,0,0,0,0,0,0,0,0,0,0,0,0,0],"id":4,"left_children":[1,3,5,7,9,11,13,15,17,19,21,23,25,27,29,-1,-1,-1,-1,-1,-1,-1,-1,-1,-1,-1,-1,-1,-1,-1,-1],"loss_changes":[1.3034895E2,2.5300095E1,2.2801315E1,1.0936085E1,6.8616977E0,7.039131E0,7.4130898E0,1.3110199E1,8.391144E0,7.11768E0,5.8114066E0,6.283684E0,7.1610107E0,1.4531193E1,6.253746E0,0E0,0E0,0E0,0E0,0E0,0E0,0E0,0E0,0E0,0E0,0E0,0E0,0E0,0E0,0E0,0E0],"parents":[2147483647,0,0,1,1,2,2,3,3,4,4,5,5,6,6,7,7,8,8,9,9,10,10,11,11,12,12,13,13,14,14],"right_children":[2,4,6,8,10,12,14,16,18,20,22,24,26,28,30,-1,-1,-1,-1,-1,-1,-1,-1,-1,-1,-1,-1,-1,-1,-1,-1],"split_conditions":[2E0,1.68E0,1.57E0,1.1005049E0,3.1E0,7.5E-1,8E-1,9.718253E-1,1.7142857E0,2E-1,3.7762237E-1,-2.5E-1,3.3333334E-1,7.777778E-1,1.6666666E0,-1.4961979E-2,-3.6503784E-2,-9.338307E-3,2.3357887E-2,-5.580119E-2,-2.7055147E-3,5.135957E-2,-2.9824858E-3,3.0424526E-2,-1.924791E-2,2.413859E-2,4.427763E-2,-5.281184E-2,2.3578702E-2,5.7045035E-3,1.6200464E-2],"split_indices":[17,17,16,28,23,13,11,28,5,11,24,26,21,0,11,0,0,0,0,0,0,0,0,0,0,0,0,0,0,0,0],"split_type":[0,0,0,0,0,0,0,0,0,0,0,0,0,0,0,0,0,0,0,0,0,0,0,0,0,0,0,0,0,0,0],"sum_hessian":[2.8668071E3,1.6459122E3,1.2208949E3,5.7653845E2,1.0693738E3,3.1296945E2,9.079254E2,3.8784415E2,1.886943E2,1.0510231E3,1.835076E1,2.4610182E1,2.8835928E2,1.5371536E2,7.5421E2,2.936486E2,9.419556E1,1.6751463E2,2.1179663E1,5.3643737E0,1.0456587E3,9.822029E0,8.528729E0,9.5413265E0,1.5068855E1,2.3070288E2,5.7656403E1,5.5361547E0,1.4817921E2,5.6307996E2,1.9113013E2],"tree_param":{"num_deleted":"0","num_feature":"33","num_nodes":"31","size_leaf_vector":"1"}},{"base_weights":[4.3549985E-2,2.8356552E-1,-1.5037008E-1,2.1124908E-1,5.5141985E-1,-2.8177938E-1,-8.672973E-2,4.8036373E-1,1.6682546E-1,-1.6359372E-2,5.8266693E-1,-3.7499967E-1,-9.172867E-2,-4.3811432E-1,-7.274006E-2,3.5350345E-2,1.6551008E-2,2.8435497E-3,1.3774047E-2,1.2898407E-3,3.1712487E-2,-9.017012E-3,-2.7656255E-2,-3.2830995E-2,-2.0890525E-3,4.828053E-4,-3.648246E-2,-4.3678172E-2,-3.2554716E-3],"categories":[],"categories_nodes":[],"categories_segments":[],"categories_sizes":[],"default_left":[0,0,0,0,0,0,0,0,0,0,0,0,0,0,0,0,0,0,0,0,0,0,0,0,0,0,0,0,0],"id":5,"left_children":[1,3,5,7,9,11,13,15,17,-1,19,21,23,25,27,-1,-1,-1,-1,-1,-1,-1,-1,-1,-1,-1,-1,-1,-1],"loss_changes":[1.3447195E2,2.481739E1,1.3300869E1,1.2032433E1,7.7267914E0,9.1380005E0,5.2182903E0,4.518219E0,1.0418264E1,0E0,7.519554E0,1.1908733E1,4.7816825E0,5.407506E0,6.19593E0,0E0,0E0,0E0,0E0,0E0,0E0,0E0,0E0,0E0,0E0,0E0,0E0,0E0,0E0],"parents":[2147483647,0,0,1,1,2,2,3,3,4,4,5,5,6,6,7,7,8,8,10,10,11,11,12,12,13,13,14,14],"right_children":[2,4,6,8,10,12,14,16,18,-1,20,22,24,26,28,-1,-1,-1,-1,-1,-1,-1,-1,-1,-1,-1,-1,-1,-1],"split_conditions":[1.92E0,2.3333333E0,1.66E0,1.54E0,5E-1,1.1005049E0,2E-1,-1.904762E-1,1.4285715E0,-1.6359372E-2,-1E0,8.5714287E-1,1.3E0,4.2857143E-1,3.75E-1,3.5350345E-2,1.6551008E-2,2.8435497E-3,1.3774047E-2,1.2898407E-3,3.1712487E-2,-9.017012E-3,-2.7656255E-2,-3.2830995E-2,-2.0890525E-3,4.828053E-4,-3.648246E-2,-4.3678172E-2,-3.2554716E-3],"split_indices":[16,10,17,16,13,28,9,25,5,0,25,22,14,18,6,0,0,0,0,0,0,0,0,0,0,0,0,0,0],"split_type":[0,0,0,0,0,0,0,0,0,0,0,0,0,0,0,0,0,0,0,0,0,0,0,0,0,0,0,0,0],"sum_hessian":[2.8869446E3,1.290161E3,1.5967836E3,1.0175898E3,2.7257123E2,5.193637E2,1.0774198E3,1.4246773E2,8.751221E2,8.925727E0,2.636455E2,3.4744287E2,1.7192084E2,3.9818394E1,1.0376014E3,5.4839638E1,8.762808E1,4.3617563E2,4.3894644E2,2.2642605E1,2.4100288E2,1.6724625E2,1.8019664E2,1.2816959E1,1.5910387E2,1.5947849E1,2.3870546E1,8.598661E0,1.0290028E3],"tree_param":{"num_deleted":"0","num_feature":"33","num_nodes":"29","size_leaf_vector":"1"}},{"base_weights":[3.0731786E-2,-1.2414969E-1,2.4511579E-1,-2.4608432E-1,-4.587223E-2,1.6730066E-1,4.6044886E-1,-3.861237E-2,-3.0736563E-1,-2.0550458E-1,2.2590447E-2,1.0885328E-1,3.2137787E-1,-1.7581974E-1,5.184223E-1,-3.201118E-2,3.548439E-3,-3.4754016E-2,-1.37179345E-2,-6.3349246E-3,-3.2471683E-2,1.7011598E-2,-4.950701E-4,1.7847551E-2,1.6119754E-3,1.3730014E-2,4.0488757E-2,1.0291579E-2,-4.584435E-2,1.3239448E-2,2.9266795E-2],"categories":[],"categories_nodes":[],"categories_segments":[],"categories_sizes":[],"default_left":[0,0,0,0,0,0,0,0,0,0,0,0,0,0,0,0,0,0,0,0,0,0,0,0,0,0,0,0,0,0,0],"id":6,"left_children":[1,3,5,7,9,11,13,15,17,19,21,23,25,27,29,-1,-1,-1,-1,-1,-1,-1,-1,-1,-1,-1,-1,-1,-1,-1,-1],"loss_changes":[9.484528E1,1.5784725E1,1.9936539E1,8.186024E0,1.1077459E1,7.8648987E0,1.1823364E1,9.935808E0,6.1026154E0,1.0480185E1,7.3472166E0,1.2141694E1,5.188442E0,7.9203076E0,4.6994934E0,0E0,0E0,0E0,0E0,0E0,0E0,0E0,0E0,0E0,0E0,0E0,0E0,0E0,0E0,0E0,0E0],"parents":[2147483647,0,0,1,1,2,2,3,3,4,4,5,5,6,6,7,7,8,8,9,9,10,10,11,11,12,12,13,13,14,14],"right_children":[2,4,6,8,10,12,14,16,18,20,22,24,26,28,30,-1,-1,-1,-1,-1,-1,-1,-1,-1,-1,-1,-1,-1,-1,-1,-1],"split_conditions":[2E0,1.1E0,2.5E0,2E-1,1.68E0,3.3333333E0,7.5E-1,1.57E0,6.666667E-1,1.6E0,6.992059E-1,8E-1,2.125E0,2.3809524E-1,2.7E0,-3.201118E-2,3.548439E-3,-3.4754016E-2,-1.37179345E-2,-6.3349246E-3,-3.2471683E-2,1.7011598E-2,-4.950701E-4,1.7847551E-2,1.6119754E-3,1.3730014E-2,4.0488757E-2,1.0291579E-2,-4.584435E-2,1.3239448E-2,2.9266795E-2],"split_indices":[17,5,17,20,17,15,13,17,27,6,27,11,24,26,14,0,0,0,0,0,0,0,0,0,0,0,0,0,0,0,0],"split_type":[0,0,0,0,0,0,0,0,0,0,0,0,0,0,0,0,0,0,0,0,0,0,0,0,0,0,0,0,0,0,0],"sum_hessian":[2.8541514E3,1.6570046E3,1.1971466E3,6.46506E2,1.0104987E3,8.810148E2,3.1613187E2,1.4816054E2,4.9834543E2,3.0313858E2,7.073601E2,6.4043054E2,2.4058426E2,2.6085161E1,2.900467E2,2.2223183E1,1.25937355E2,3.728543E1,4.6106E2,2.587212E2,4.4417408E1,6.5048645E1,6.4231146E2,1.4993451E2,4.9049603E2,2.2116826E2,1.9416008E1,1.7605564E1,8.479596E0,6.189347E1,2.2815323E2],"tree_param":{"num_deleted":"0","num_feature":"33","num_nodes":"31","size_leaf_vector":"1"}},{"base_weights":[4.1593775E-2,2.4838713E-1,-1.1938927E-1,5.152455E-1,1.8401083E-1,-1.9310005E-1,1.1992422E-2,-2.5679847E-2,5.637927E-1,5.596976E-2,2.7249748E-1,-1.2597746E-1,-3.6395618E-1,-4.0287323E-2,2.4288349E-1,-2.5274172E-2,1.664081E-2,-1.2939713E-2,2.9270638E-2,4.034719E-3,-5.343504E-2,2.101831E-2,9.502198E-3,-5.478707E-3,-3.4647703E-2,-1.5423119E-2,-3.4445416E-2,-1.7963862E-2,4.1237345E-5,2.7612144E-2,3.53291E-3],"categories":[],"categories_nodes":[],"categories_segments":[],"categories_sizes":[],"default_left":[0,0,0,0,0,0,0,0,0,0,0,0,0,0,0,0,0,0,0,0,0,0,0,0,0,0,0,0,0,0,0],"id":7,"left_children":[1,3,5,7,9,11,13,15,17,19,21,23,25,27,29,-1,-1,-1,-1,-1,-1,-1,-1,-1,-1,-1,-1,-1,-1,-1,-1],"loss_changes":[9.5738106E1,2.1461647E1,1.5677189E1,6.4707184E0,1.1463715E1,1.1788795E1,7.049399E0,3.7745872E0,4.1667786E0,1.158139E1,7.175804E0,6.7808905E0,4.9410477E0,6.260913E0,5.6451607E0,0E0,0E0,0E0,0E0,0E0,0E0,0E0,0E0,0E0,0E0,0E0,0E0,0E0,0E0,0E0,0E0],"parents":[2147483647,0,0,1,1,2,2,3,3,4,4,5,5,6,6,7,7,8,8,9,9,10,10,11,11,12,12,13,13,14,14],"right_children":[2,4,6,8,10,12,14,16,18,20,22,24,26,28,30,-1,-1,-1,-1,-1,-1,-1,-1,-1,-1,-1,-1,-1,-1,-1,-1],"split_conditions":[1.92E0,1.54E0,1.3333334E0,7.5E-1,2.6666667E0,2.38E0,1.3165612E0,5.714286E-1,4.2857143E-1,1.1904762E0,1.125E0,1.8571428E0,1.264911E0,-5.714286E-1,6.666667E-1,-2.5274172E-2,1.664081E-2,-1.2939713E-2,2.9270638E-2,4.034719E-3,-5.343504E-2,2.101831E-2,9.502198E-3,-5.478707E-3,-3.4647703E-2,-1.5423119E-2,-3.4445416E-2,-1.7963862E-2,4.1237345E-5,2.7612144E-2,3.53291E-3],"split_indices":[16,16,11,13,14,16,28,18,1,25,1,1,27,25,32,0,0,0,0,0,0,0,0,0,0,0,0,0,0,0,0],"split_type":[0,0,0,0,0,0,0,0,0,0,0,0,0,0,0,0,0,0,0,0,0,0,0,0,0,0,0,0,0,0,0],"sum_hessian":[2.873584E3,1.2578591E3,1.6157249E3,2.4280504E2,1.01505414E3,1.0352157E3,5.805091E2,1.9865852E1,2.2293918E2,4.15943E2,5.9911115E2,7.4489764E2,2.9031808E2,4.7365396E2,1.0685516E2,8.439515E0,1.1426337E1,5.3100524E0,2.1762914E2,4.0799094E2,7.952056E0,2.1257573E2,3.865354E2,7.2528394E2,1.9613718E1,2.4989857E2,4.0419506E1,5.347021E1,4.2018375E2,3.7217014E1,6.963815E1],"tree_param":{"num_deleted":"0","num_feature":"33","num_nodes":"31","size_leaf_vector":"1"}},{"base_weights":[3.153637E-2,2.3344217E-1,-1.2595823E-1,4.8002392E-1,1.6981183E-1,-2.0444915E-1,-1.2260018E-2,7.5908136E-1,4.0413925E-1,-3.0360962E-3,2.3329557E-1,-2.2167534E-1,4.868887E-1,-4.24199E-1,1.4390097E-2,3.248959E-4,4.391366E-2,-6.947644E-3,2.2750821E-2,2.1284163E-2,-4.2955256E-3,-7.7418624E-3,1.335346E-2,-5.4359375E-3,-1.5674656E-2,3.746593E-2,-1.4184079E-2,-3.3087417E-2,2.7716061E-2,2.865921E-3,-9.910986E-3],"categories":[],"categories_nodes":[],"categories_segments":[],"categories_sizes":[],"default_left":[0,0,0,0,0,0,0,0,0,0,0,0,0,0,0,0,0,0,0,0,0,0,0,0,0,0,0,0,0,0,0],"id":8,"left_children":[1,3,5,7,9,11,13,15,17,19,21,23,25,27,29,-1,-1,-1,-1,-1,-1,-1,-1,-1,-1,-1,-1,-1,-1,-1,-1],"loss_changes":[9.118361E1,1.9570496E1,1.4349056E1,5.016918E0,1.1005104E1,1.1421574E1,7.2855844E0,4.7050457E0,5.742367E0,9.573965E0,9.652962E0,9.568127E0,4.9752555E0,9.751015E0,5.656235E0,0E0,0E0,0E0,0E0,0E0,0E0,0E0,0E0,0E0,0E0,0E0,0E0,0E0,0E0,0E0,0E0],"parents":[2147483647,0,0,1,1,2,2,3,3,4,4,5,5,6,6,7,7,8,8,9,9,10,10,11,11,12,12,13,13,14,14],"right_children":[2,4,6,8,10,12,14,16,18,20,22,24,26,28,30,-1,-1,-1,-1,-1,-1,-1,-1,-1,-1,-1,-1,-1,-1,-1,-1],"split_conditions":[1.92E0,1.55E0,7.1428573E-1,9.189366E-1,4.2857143E-1,1.7763883E0,5E-1,-7.1428573E-1,7.5E-1,4.5454547E-1,1.8333334E0,2.21E0,3.35E0,1.6666666E0,1.5555556E0,3.248959E-4,4.391366E-2,-6.947644E-3,2.2750821E-2,2.1284163E-2,-4.2955256E-3,-7.7418624E-3,1.335346E-2,-5.4359375E-3,-1.5674656E-2,3.746593E-2,-1.4184079E-2,-3.3087417E-2,2.7716061E-2,2.865921E-3,-9.910986E-3],"split_indices":[16,16,7,28,9,28,12,25,13,23,14,16,14,11,0,0,0,0,0,0,0,0,0,0,0,0,0,0,0,0,0],"split_type":[0,0,0,0,0,0,0,0,0,0,0,0,0,0,0,0,0,0,0,0,0,0,0,0,0,0,0,0,0,0,0],"sum_hessian":[2.8652297E3,1.2556532E3,1.6095765E3,2.5589348E2,9.997597E2,9.5122565E2,6.583508E2,5.250208E1,2.033914E2,2.6838947E2,7.3137024E2,9.28904E2,2.2321672E1,3.9325138E1,6.190257E2,7.43713E0,4.506495E1,1.7105095E1,1.862863E2,4.261157E1,2.2577791E2,5.802223E1,6.7334796E2,4.179745E2,5.1092953E2,1.6768312E1,5.55336E0,3.1986012E1,7.3391266E0,5.1603345E2,1.02992226E2],"tree_param":{"num_deleted":"0","num_feature":"33","num_nodes":"31","size_leaf_vector":"1"}},{"base_weights":[2.7136674E-2,3.1866798E-1,-7.209735E-2,2.1370627E-1,4.9694127E-1,4.7300678E-2,-1.5005977E-1,-1.1951003E-1,2.6276782E-1,8.573137E-1,4.3747273E-1,1.6550839E-2,4.6444955E-1,-3.4637067E-1,-1.06838234E-1,1.0897724E-2,-2.2544162E-2,9.881072E-3,3.1205026E-2,5.3359587E-2,3.1210142E-3,1.7177222E-2,3.620031E-2,-2.8037472E-2,1.6710813E-3,3.523929E-2,4.9167215E-3,-1.32028E-2,-5.165915E-2,2.274722E-3,-7.7528455E-3],"categories":[],"categories_nodes":[],"categories_segments":[],"categories_sizes":[],"default_left":[0,0,0,0,0,0,0,0,0,0,0,0,0,0,0,0,0,0,0,0,0,0,0,0,0,0,0,0,0,0,0],"id":9,"left_children":[1,3,5,7,9,11,13,15,17,19,21,23,25,27,29,-1,-1,-1,-1,-1,-1,-1,-1,-1,-1,-1,-1,-1,-1,-1,-1],"loss_changes":[8.2590385E1,1.3388962E1,1.9837158E1,7.540346E0,5.229637E0,1.0736327E1,1.0853453E1,6.74863E0,9.214481E0,5.929653E0,5.887047E0,7.6099753E0,4.9099283E0,1.2696535E1,7.7904787E0,0E0,0E0,0E0,0E0,0E0,0E0,0E0,0E0,0E0,0E0,0E0,0E0,0E0,0E0,0E0,0E0],"parents":[2147483647,0,0,1,1,2,2,3,3,4,4,5,5,6,6,7,7,8,8,9,9,10,10,11,11,12,12,13,13,14,14],"right_children":[2,4,6,8,10,12,14,16,18,20,22,24,26,28,30,-1,-1,-1,-1,-1,-1,-1,-1,-1,-1,-1,-1,-1,-1,-1,-1],"split_conditions":[1.73E0,1.8571428E0,2.03E0,1.8333334E0,7.058824E-1,2.25E0,8.888889E-1,8.333333E-1,2.71E0,3.25E0,2.1666667E0,1.6666667E-1,1.2866839E0,2.76E0,2.1785715E0,1.0897724E-2,-2.2544162E-2,9.881072E-3,3.1205026E-2,5.3359587E-2,3.1210142E-3,1.7177222E-2,3.620031E-2,-2.8037472E-2,1.6710813E-3,3.523929E-2,4.9167215E-3,-1.32028E-2,-5.165915E-2,2.274722E-3,-7.7528455E-3],"split_indices":[16,0,16,15,24,23,6,9,17,23,22,4,27,16,15,0,0,0,0,0,0,0,0,0,0,0,0,0,0,0,0],"split_type":[0,0,0,0,0,0,0,0,0,0,0,0,0,0,0,0,0,0,0,0,0,0,0,0,0,0,0,0,0,0,0],"sum_hessian":[2.852206E3,7.2400604E2,2.1282002E3,4.5743964E2,2.665664E2,8.403421E2,1.287858E3,5.8261925E1,3.9917773E2,3.5619366E1,2.3094704E2,7.838412E2,5.6500908E1,2.3069966E2,1.0571583E3,2.8885721E1,2.9376204E1,3.3974683E2,5.943088E1,2.7808615E1,7.810751E0,1.7584981E2,5.509722E1,2.1172586E1,7.6266864E2,3.33863E1,2.3114607E1,2.0737569E2,2.3323978E1,2.5368811E2,8.034703E2],"tree_param":{"num_deleted":"0","num_feature":"33","num_nodes":"31","size_leaf_vector":"1"}},{"base_weights":[1.1534415E-2,-1.1738859E-1,2.1995892E-1,-1.7663951E-1,-1.7278044E-2,4.6155408E-1,1.5679571E-1,-1.5174256E-1,-5.61353E-1,-7.0338234E-2,1.998715E-1,3.7581795E-1,7.049871E-1,1.0791791E-1,3.9619744E-1,-9.930384E-3,2.073341E-3,-5.0311144E-2,-1.7453693E-2,-2.2214634E-2,-1.6612954E-3,-2.9155074E-2,1.3586673E-2,3.605808E-2,1.5930943E-2,1.6947723E-3,4.644361E-2,1.0734916E-3,1.2346857E-2,2.7799344E-2,1.0966997E-2],"categories":[],"categories_nodes":[],"categories_segments":[],"categories_sizes":[],"default_left":[0,0,0,0,0,0,0,0,0,0,0,0,0,0,0,0,0,0,0,0,0,0,0,0,0,0,0,0,0,0,0],"id":10,"left_children":[1,3,5,7,9,11,13,15,17,19,21,23,25,27,29,-1,-1,-1,-1,-1,-1,-1,-1,-1,-1,-1,-1,-1,-1,-1,-1],"loss_changes":[7.651729E1,1.04105625E1,1.647459E1,1.0419605E1,7.555947E0,4.317398E0,1.002457E1,9.429012E0,5.7932568E0,7.265836E0,7.3656855E0,2.9975471E0,8.449747E0,8.618098E0,3.9231281E0,0E0,0E0,0E0,0E0,0E0,0E0,0E0,0E0,0E0,0E0,0E0,0E0,0E0,0E0,0E0,0E0],"parents":[2147483647,0,0,1,1,2,2,3,3,4,4,5,5,6,6,7,7,8,8,9,9,10,10,11,11,12,12,13,13,14,14],"right_children":[2,4,6,8,10,12,14,16,18,20,22,24,26,28,30,-1,-1,-1,-1,-1,-1,-1,-1,-1,-1,-1,-1,-1,-1,-1,-1],"split_conditions":[2.03E0,1.25E0,1.54E0,2.74E0,1.3165612E0,3.3333334E-1,2.3333333E0,1.6875E0,8.333333E-1,1.3333334E0,4.2307693E-1,7.222222E-1,6.666667E-1,8.75E-1,5.555556E-1,-9.930384E-3,2.073341E-3,-5.0311144E-2,-1.7453693E-2,-2.2214634E-2,-1.6612954E-3,-2.9155074E-2,1.3586673E-2,3.605808E-2,1.5930943E-2,1.6947723E-3,4.644361E-2,1.0734916E-3,1.2346857E-2,2.7799344E-2,1.0966997E-2],"split_indices":[17,11,16,16,28,21,10,23,6,14,24,22,13,7,30,0,0,0,0,0,0,0,0,0,0,0,0,0,0,0,0],"split_type":[0,0,0,0,0,0,0,0,0,0,0,0,0,0,0,0,0,0,0,0,0,0,0,0,0,0,0,0,0,0,0],"sum_hessian":[2.845266E3,1.7578734E3,1.0873927E3,1.1031848E3,6.5468866E2,2.2373409E2,8.636587E2,1.0376848E3,6.5499985E1,5.27043E2,1.2764564E2,1.6764487E2,5.608922E1,7.1877704E2,1.4488164E2,8.3551166E2,2.0217313E2,1.9798157E1,4.570183E1,4.6349186E1,4.8069385E2,1.0015535E1,1.17630104E2,2.1923565E1,1.457213E2,1.4430902E1,4.1658314E1,4.443408E2,2.7443628E2,7.4690346E1,7.0191284E1],"tree_param":{"num_deleted":"0","num_feature":"33","num_nodes":"31","size_leaf_vector":"1"}},{"base_weights":[3.1909686E-2,-8.882491E-2,2.282549E-1,-1.5900612E-1,4.055075E-3,1.6901316E-1,4.3055484E-1,-3.6612698E-1,-1.1682426E-1,4.0254995E-2,-9.877647E-3,2.6484466E-1,1.031895E-1,-2.4205765E-2,4.6057042E-1,-2.4660299E-2,-2.7515085E-3,-2.9889843E-4,-9.692059E-3,1.4809684E-3,-1.5864564E-2,1.0912739E-2,3.4462053E-2,3.93114E-3,3.1779222E-2,1.770208E-2,3.3807267E-2],"categories":[],"categories_nodes":[],"categories_segments":[],"categories_sizes":[],"default_left":[0,0,0,0,0,0,0,0,0,0,0,0,0,0,0,0,0,0,0,0,0,0,0,0,0,0,0],"id":11,"left_children":[1,3,5,7,9,11,13,15,17,-1,19,21,23,-1,25,-1,-1,-1,-1,-1,-1,-1,-1,-1,-1,-1,-1],"loss_changes":[6.723711E1,1.1461532E1,1.2811077E1,8.652441E0,8.525846E0,5.218334E0,6.908783E0,6.577936E0,7.0928907E0,0E0,9.07195E0,6.476181E0,6.401138E0,0E0,5.088539E0,0E0,0E0,0E0,0E0,0E0,0E0,0E0,0E0,0E0,0E0,0E0,0E0],"parents":[2147483647,0,0,1,1,2,2,3,3,4,4,5,5,6,6,7,7,8,8,10,10,11,11,12,12,14,14],"right_children":[2,4,6,8,10,12,14,16,18,-1,20,22,24,-1,26,-1,-1,-1,-1,-1,-1,-1,-1,-1,-1,-1,-1],"split_conditions":[2.04E0,7.5E-1,2.3333333E0,5.714286E-1,2.0289855E-1,-1.25E-1,5E-1,4.2857143E-1,4E-1,4.0254995E-2,1E0,2.73E0,1.3666667E0,-2.4205765E-2,1E0,-2.4660299E-2,-2.7515085E-3,-2.9889843E-4,-9.692059E-3,1.4809684E-3,-1.5864564E-2,1.0912739E-2,3.4462053E-2,3.93114E-3,3.1779222E-2,1.770208E-2,3.3807267E-2],"split_indices":[17,7,10,2,24,26,13,30,30,0,7,17,26,0,31,0,0,0,0,0,0,0,0,0,0,0,0],"split_type":[0,0,0,0,0,0,0,0,0,0,0,0,0,0,0,0,0,0,0,0,0,0,0,0,0,0,0],"sum_hessian":[2.8338877E3,1.754851E3,1.0790367E3,9.9977435E2,7.5507666E2,8.364265E2,2.4261029E2,1.6746066E2,8.3231366E2,1.2060585E1,7.4301605E2,3.3873114E2,4.9769537E2,7.1219406E0,2.3548836E2,1.1825019E2,4.9210476E1,3.4219168E2,4.90122E2,6.5893353E2,8.408252E1,3.0680072E2,3.1930418E1,4.770194E2,2.0675957E1,1.5968456E2,7.58038E1],"tree_param":{"num_deleted":"0","num_feature":"33","num_nodes":"27","size_leaf_vector":"1"}},{"base_weights":[3.110146E-2,-6.2907085E-2,2.4569793E-1,-2.1085218E-1,2.6458097E-4,1.3948956E-1,3.358438E-1,-2.4460073E-1,2.062436E-1,5.7562016E-2,-9.398665E-2,3.0381727E-1,3.6820736E-2,4.100709E-2,4.0250215E-1,-6.791431E-3,-1.8346667E-2,-3.484796E-2,2.1607814E-2,2.4527578E-2,1.3979333E-3,-1.46674635E-2,-4.5519118E-4,-1.6371785E-2,1.9416502E-2,-1.0014812E-2,9.6254535E-3,8.513383E-3,-2.6434435E-2,5.127815E-2,1.9196693E-2],"categories":[],"categories_nodes":[],"categories_segments":[],"categories_sizes":[],"default_left":[0,0,0,0,0,0,0,0,0,0,0,0,0,0,0,0,0,0,0,0,0,0,0,0,0,0,0,0,0,0,0],"id":12,"left_children":[1,3,5,7,9,11,13,15,17,19,21,23,25,27,29,-1,-1,-1,-1,-1,-1,-1,-1,-1,-1,-1,-1,-1,-1,-1,-1],"loss_changes":[5.7578938E1,1.8563477E1,8.23E0,8.417627E0,7.5129147E0,6.72665E0,9.157936E0,7.222973E0,9.415095E0,1.1038432E1,8.86113E0,8.3400755E0,9.213411E0,6.525949E0,3.8868752E0,0E0,0E0,0E0,0E0,0E0,0E0,0E0,0E0,0E0,0E0,0E0,0E0,0E0,0E0,0E0,0E0],"parents":[2147483647,0,0,1,1,2,2,3,3,4,4,5,5,6,6,7,7,8,8,9,9,10,10,11,11,12,12,13,13,14,14],"right_children":[2,4,6,8,10,12,14,16,18,20,22,24,26,28,30,-1,-1,-1,-1,-1,-1,-1,-1,-1,-1,-1,-1,-1,-1,-1,-1],"split_conditions":[2.12E0,1.68E0,2.35E0,1.625E0,1.5E0,1.0540925E0,9.4280905E-1,1.1E0,1.0540925E0,4.7058824E-1,7.5E-1,8.164966E-1,1.0588236E0,1.3888888E0,5.676462E-1,-6.791431E-3,-1.8346667E-2,-3.484796E-2,2.1607814E-2,2.4527578E-2,1.3979333E-3,-1.46674635E-2,-4.5519118E-4,-1.6371785E-2,1.9416502E-2,-1.0014812E-2,9.6254535E-3,8.513383E-3,-2.6434435E-2,5.127815E-2,1.9196693E-2],"split_indices":[17,17,17,5,6,27,27,0,28,23,7,28,22,24,28,0,0,0,0,0,0,0,0,0,0,0,0,0,0,0,0],"split_type":[0,0,0,0,0,0,0,0,0,0,0,0,0,0,0,0,0,0,0,0,0,0,0,0,0,0,0,0,0,0,0],"sum_hessian":[2.8514578E3,1.9830023E3,8.684555E2,5.9314044E2,1.3898619E3,4.0038513E2,4.6807037E2,5.4934454E2,4.3795914E1,8.6528564E2,5.245763E2,1.5283315E2,2.4755199E2,8.688489E1,3.811855E2,2.9233896E2,2.5700558E2,8.25691E0,3.5539E1,5.4160812E1,8.111248E2,1.5556644E2,3.6900986E2,1.75664E1,1.3526674E2,9.7749054E1,1.4980293E2,7.153148E1,1.5353407E1,9.305961E0,3.7187952E2],"tree_param":{"num_deleted":"0","num_feature":"33","num_nodes":"31","size_leaf_vector":"1"}},{"base_weights":[2.77553E-2,1.713506E-1,-1.2997776E-1,3.9154366E-2,2.608083E-1,-4.2610216E-1,-1.0611968E-1,-5.381305E-1,6.189516E-2,4.6082842E-1,1.9111256E-1,-8.114613E-1,-1.5024453E-1,1.106647E-2,-2.0021567E-1,1.1856026E-2,-3.94411E-2,1.7085217E-3,2.8946036E-2,-3.9891275E-3,2.5759412E-2,8.933088E-3,5.1145997E-2,-6.4197383E-3,-5.4882865E-2,9.100979E-3,-2.91672E-2,4.107365E-3,-8.516195E-3,-1.5321146E-2,-1.6254954E-3],"categories":[],"categories_nodes":[],"categories_segments":[],"categories_sizes":[],"default_left":[0,0,0,0,0,0,0,0,0,0,0,0,0,0,0,0,0,0,0,0,0,0,0,0,0,0,0,0,0,0,0],"id":13,"left_children":[1,3,5,7,9,11,13,15,17,19,21,23,25,27,29,-1,-1,-1,-1,-1,-1,-1,-1,-1,-1,-1,-1,-1,-1,-1,-1],"loss_changes":[6.489435E1,1.7697918E1,9.545454E0,7.9541583E0,1.2308788E1,1.0532829E1,1.3968841E1,4.700796E0,8.305187E0,6.8413887E0,6.5845203E0,7.91074E0,8.826469E0,7.274533E0,1.2461515E1,0E0,0E0,0E0,0E0,0E0,0E0,0E0,0E0,0E0,0E0,0E0,0E0,0E0,0E0,0E0,0E0],"parents":[2147483647,0,0,1,1,2,2,3,3,4,4,5,5,6,6,7,7,8,8,9,9,10,10,11,11,12,12,13,13,14,14],"right_children":[2,4,6,8,10,12,14,16,18,20,22,24,26,28,30,-1,-1,-1,-1,-1,-1,-1,-1,-1,-1,-1,-1,-1,-1,-1,-1],"split_conditions":[2.01E0,2.7333333E0,1.25E0,1.6666667E-1,1.57E0,7.378648E-1,8.8235295E-1,-3E-1,2.5E0,7.5E-1,2.8E0,3.75E-1,1.375E0,2.6666668E-1,6.666667E-1,1.1856026E-2,-3.94411E-2,1.7085217E-3,2.8946036E-2,-3.9891275E-3,2.5759412E-2,8.933088E-3,5.1145997E-2,-6.4197383E-3,-5.4882865E-2,9.100979E-3,-2.91672E-2,4.107365E-3,-8.516195E-3,-1.5321146E-2,-1.6254954E-3],"split_indices":[16,14,14,4,16,27,22,26,11,13,11,19,11,25,4,0,0,0,0,0,0,0,0,0,0,0,0,0,0,0,0],"split_type":[0,0,0,0,0,0,0,0,0,0,0,0,0,0,0,0,0,0,0,0,0,0,0,0,0,0,0,0,0,0,0],"sum_hessian":[2.862961E3,1.4989296E3,1.3640314E3,6.05987E2,8.9294257E2,1.0013344E2,1.263898E3,2.194112E1,5.840459E2,2.2891924E2,6.640233E2,4.08141E1,5.931934E1,5.628056E2,7.010924E2,5.277121E0,1.6664E1,5.555166E2,2.852925E1,2.0704506E1,2.0821474E2,6.5554584E2,8.47746E0,1.2582167E1,2.8231932E1,3.3764675E1,2.5554665E1,4.0514227E2,1.576633E2,4.2837875E2,2.7271365E2],"tree_param":{"num_deleted":"0","num_feature":"33","num_nodes":"31","size_leaf_vector":"1"}},{"base_weights":[2.2620272E-2,-1.540265E-1,1.1557659E-1,-2.238643E-1,-2.323337E-2,2.7568504E-1,5.687572E-2,-3.8088533E-1,-1.2691122E-1,-8.71588E-2,4.1140607E-1,1.7373124E-1,4.863316E-1,-7.89934E-2,9.9288166E-2,-2.0696258E-2,3.196087E-2,-7.816733E-3,4.444421E-2,-2.1880756E-3,-3.5294496E-2,3.1343278E-2,-6.202833E-4,7.569304E-3,5.2647162E-2,-2.0989427E-2,2.6215935E-2,-1.5741758E-3,-6.4247295E-2,-2.5940804E-2,5.6142076E-3],"categories":[],"categories_nodes":[],"categories_segments":[],"categories_sizes":[],"default_left":[0,0,0,0,0,0,0,0,0,0,0,0,0,0,0,0,0,0,0,0,0,0,0,0,0,0,0,0,0,0,0],"id":14,"left_children":[1,3,5,7,9,11,13,15,17,19,21,23,25,27,29,-1,-1,-1,-1,-1,-1,-1,-1,-1,-1,-1,-1,-1,-1,-1,-1],"loss_changes":[4.67827E1,8.94079E0,1.7499153E1,9.638218E0,9.546591E0,1.0591515E1,7.892647E0,8.441463E0,1.1941521E1,7.9617863E0,4.088297E0,6.3787203E0,5.8155937E0,1.8472832E1,8.399995E0,0E0,0E0,0E0,0E0,0E0,0E0,0E0,0E0,0E0,0E0,0E0,0E0,0E0,0E0,0E0,0E0],"parents":[2147483647,0,0,1,1,2,2,3,3,4,4,5,5,6,6,7,7,8,8,9,9,10,10,11,11,12,12,13,13,14,14],"right_children":[2,4,6,8,10,12,14,16,18,20,22,24,26,28,30,-1,-1,-1,-1,-1,-1,-1,-1,-1,-1,-1,-1,-1,-1,-1,-1],"split_conditions":[1.77E0,7.5E-1,1.66E0,1.1E0,1.3498971E0,2.25E0,2.1666667E0,1.7159383E0,2.1666667E0,1.76E0,7.1428573E-1,2.625E0,8.4615386E-1,1.7E0,1.6666667E-1,-2.0696258E-2,3.196087E-2,-7.816733E-3,4.444421E-2,-2.1880756E-3,-3.5294496E-2,3.1343278E-2,-6.202833E-4,7.569304E-3,5.2647162E-2,-2.0989427E-2,2.6215935E-2,-1.5741758E-3,-6.4247295E-2,-2.5940804E-2,5.6142076E-3],"split_indices":[17,2,16,6,27,10,14,28,11,17,32,1,22,0,4,0,0,0,0,0,0,0,0,0,0,0,0,0,0,0,0],"split_type":[0,0,0,0,0,0,0,0,0,0,0,0,0,0,0,0,0,0,0,0,0,0,0,0,0,0,0,0,0,0,0],"sum_hessian":[2.8472039E3,9.810886E2,1.8661152E3,6.386182E2,3.424704E2,4.991817E2,1.3669335E3,2.4227696E2,3.9634128E2,2.994568E2,4.3013638E1,3.379244E2,1.612573E2,3.2442172E2,1.0425118E3,2.3534665E2,6.9303155E0,3.8610202E2,1.0239254E1,2.8098132E2,1.847545E1,2.8355146E1,1.465849E1,3.3080298E2,7.121432E0,5.978025E0,1.5527927E2,3.131922E2,1.1229539E1,2.0508059E1,1.0220037E3],"tree_param":{"num_deleted":"0","num_feature":"33","num_nodes":"31","size_leaf_vector":"1"}},{"base_weights":[1.0098902E-2,-1.068743E-1,1.8624021E-1,-6.6069074E-2,-2.4614498E-1,3.857424E-1,1.3711435E-1,-1.7944857E-1,1.0201323E-3,-7.464647E-2,-3.9717183E-1,-7.964962E-3,4.4859573E-1,3.6223937E-2,2.0718846E-1,-7.6704584E-3,-3.827686E-2,1.1809893E-3,-2.6049456E-2,6.0175406E-3,-1.3691691E-2,-3.447688E-2,-1.1319057E-2,4.2441256E-2,-1.2351586E-2,-1.4147584E-2,2.395596E-2,-4.0150993E-2,3.2318372E-3,3.3589404E-2,8.704049E-3],"categories":[],"categories_nodes":[],"categories_segments":[],"categories_sizes":[],"default_left":[0,0,0,0,0,0,0,0,0,0,0,0,0,0,0,0,0,0,0,0,0,0,0,0,0,0,0,0,0,0,0],"id":15,"left_children":[1,3,5,7,9,11,13,15,17,19,21,23,25,27,29,-1,-1,-1,-1,-1,-1,-1,-1,-1,-1,-1,-1,-1,-1,-1,-1],"loss_changes":[5.8596176E1,9.66185E0,1.1019623E1,1.0083553E1,9.926693E0,5.5740776E0,6.421278E0,7.306695E0,9.775346E0,7.132734E0,9.98003E0,6.6033854E0,4.4607277E0,8.94197E0,8.071573E0,0E0,0E0,0E0,0E0,0E0,0E0,0E0,0E0,0E0,0E0,0E0,0E0,0E0,0E0,0E0,0E0],"parents":[2147483647,0,0,1,1,2,2,3,3,4,4,5,5,6,6,7,7,8,8,9,9,10,10,11,11,12,12,13,13,14,14],"right_children":[2,4,6,8,10,12,14,16,18,20,22,24,26,28,30,-1,-1,-1,-1,-1,-1,-1,-1,-1,-1,-1,-1,-1,-1,-1,-1],"split_conditions":[2.01E0,2.4E0,1.54E0,4.4444445E-1,8.8235295E-1,8.333333E-1,1E0,1.98E0,2.6E0,5E-1,2.51E0,9.910312E-1,7.0710677E-1,4.2857143E-1,3.3333334E-1,-7.6704584E-3,-3.827686E-2,1.1809893E-3,-2.6049456E-2,6.0175406E-3,-1.3691691E-2,-3.447688E-2,-1.1319057E-2,4.2441256E-2,-1.2351586E-2,-1.4147584E-2,2.395596E-2,-4.0150993E-2,3.2318372E-3,3.3589404E-2,8.704049E-3],"split_indices":[17,16,16,9,22,13,8,17,22,9,16,28,27,31,30,0,0,0,0,0,0,0,0,0,0,0,0,0,0,0,0],"split_type":[0,0,0,0,0,0,0,0,0,0,0,0,0,0,0,0,0,0,0,0,0,0,0,0,0,0,0,0,0,0,0],"sum_hessian":[2.841597E3,1.707496E3,1.1341008E3,1.3222727E3,3.8522324E2,2.2232832E2,9.117725E2,4.9148615E2,8.307866E2,1.8139572E2,2.038275E2,3.0508461E1,1.9181987E2,3.749196E2,5.3685297E2,4.7195016E2,1.9535965E1,7.9741016E2,3.3376427E1,9.160826E1,8.978746E1,7.3826225E1,1.3000128E2,6.0079017E0,2.4500559E1,7.2205567E0,1.845993E2,1.1269332E1,3.6365024E2,3.4227306E1,5.0262567E2],"tree_param":{"num_deleted":"0","num_feature":"33","num_nodes":"31","size_leaf_vector":"1"}},{"base_weights":[2.1167707E-2,-4.788814E-2,1.7675592E-1,-1.0606611E-1,4.7099542E-2,1.1147434E-1,3.826716E-1,-2.422716E-1,-4.657294E-2,-1.318902E-2,2.3325661E-1,2.4752752E-1,2.2807436E-2,-1.6788244E-1,4.332918E-1,-9.748515E-3,-4.050092E-2,1.2191642E-2,-3.9825686E-3,1.8115105E-3,-1.0430144E-2,2.4951067E-2,2.2044568E-3,1.37466565E-2,-4.3927487E-2,-9.927665E-3,7.2640576E-3,1.2978171E-2,-4.805727E-2,3.0612886E-2,1.4752588E-2],"categories":[],"categories_nodes":[],"categories_segments":[],"categories_sizes":[],"default_left":[0,0,0,0,0,0,0,0,0,0,0,0,0,0,0,0,0,0,0,0,0,0,0,0,0,0,0,0,0,0,0],"id":16,"left_children":[1,3,5,7,9,11,13,15,17,19,21,23,25,27,29,-1,-1,-1,-1,-1,-1,-1,-1,-1,-1,-1,-1,-1,-1,-1,-1],"loss_changes":[3.035298E1,1.0817815E1,1.1582294E1,9.795133E0,8.362104E0,7.9435654E0,5.903715E0,9.630531E0,8.134697E0,5.448855E0,9.082737E0,8.215415E0,1.091816E1,6.4540668E0,4.4585342E0,0E0,0E0,0E0,0E0,0E0,0E0,0E0,0E0,0E0,0E0,0E0,0E0,0E0,0E0,0E0,0E0],"parents":[2147483647,0,0,1,1,2,2,3,3,4,4,5,5,6,6,7,7,8,8,9,9,10,10,11,11,12,12,13,13,14,14],"right_children":[2,4,6,8,10,12,14,16,18,20,22,24,26,28,30,-1,-1,-1,-1,-1,-1,-1,-1,-1,-1,-1,-1,-1,-1,-1,-1],"split_conditions":[2.11E0,1.118034E0,2.3333333E0,1.66E0,1.75E0,-1.4285715E-1,-1.0333333E0,1.4444444E0,4.375E-1,1.4545455E0,2.0666666E0,3E0,8E-1,-1.25E0,1.0540925E0,-9.748515E-3,-4.050092E-2,1.2191642E-2,-3.9825686E-3,1.8115105E-3,-1.0430144E-2,2.4951067E-2,2.2044568E-3,1.37466565E-2,-4.3927487E-2,-9.927665E-3,7.2640576E-3,1.2978171E-2,-4.805727E-2,3.0612886E-2,1.4752588E-2],"split_indices":[17,28,10,17,5,26,25,5,23,23,15,22,2,25,28,0,0,0,0,0,0,0,0,0,0,0,0,0,0,0,0],"split_type":[0,0,0,0,0,0,0,0,0,0,0,0,0,0,0,0,0,0,0,0,0,0,0,0,0,0,0,0,0,0,0],"sum_hessian":[2.8220498E3,1.9545826E3,8.6746716E2,1.2127406E3,7.418421E2,6.601928E2,2.0727435E2,3.6723297E2,8.4550757E2,5.606596E2,1.8118246E2,2.593377E2,4.008551E2,1.7091557E1,1.9018279E2,3.4039297E2,2.6839994E1,8.549817E1,7.600094E2,4.4773294E2,1.1292667E2,7.443741E1,1.0674505E2,2.540007E2,5.337019E0,1.4227234E2,2.5858273E2,1.1462028E1,5.6295285E0,8.107306E1,1.0910973E2],"tree_param":{"num_deleted":"0","num_feature":"33","num_nodes":"31","size_leaf_vector":"1"}},{"base_weights":[1.5654255E-2,1.8983091E-1,-6.6695385E-2,4.2073002E-1,1.4560437E-1,-1.5944298E-1,-1.0531436E-2,7.300938E-1,2.5409925E-1,-4.532411E-1,1.5860614E-1,-1.3000429E-1,-6.128296E-1,-3.2608375E-2,2.854363E-1,4.317833E-2,8.236559E-3,-2.4478702E-2,1.6846664E-2,8.017854E-3,-5.530041E-2,-2.0095797E-3,9.2421025E-3,-3.501875E-3,-1.4763708E-2,-2.2296526E-2,-7.273859E-2,7.381284E-3,-4.0274947E-3,2.9592067E-2,-2.472478E-4],"categories":[],"categories_nodes":[],"categories_segments":[],"categories_sizes":[],"default_left":[0,0,0,0,0,0,0,0,0,0,0,0,0,0,0,0,0,0,0,0,0,0,0,0,0,0,0,0,0,0,0],"id":17,"left_children":[1,3,5,7,9,11,13,15,17,19,21,23,25,27,29,-1,-1,-1,-1,-1,-1,-1,-1,-1,-1,-1,-1,-1,-1,-1,-1],"loss_changes":[4.0515144E1,9.142815E0,9.967417E0,7.1848125E0,5.9829674E0,9.486681E0,7.797172E0,3.5261135E0,6.0578346E0,6.8042626E0,3.9214363E0,6.679471E0,5.282734E0,9.630619E0,7.4278913E0,0E0,0E0,0E0,0E0,0E0,0E0,0E0,0E0,0E0,0E0,0E0,0E0,0E0,0E0,0E0,0E0],"parents":[2147483647,0,0,1,1,2,2,3,3,4,4,5,5,6,6,7,7,8,8,9,9,10,10,11,11,12,12,13,13,14,14],"right_children":[2,4,6,8,10,12,14,16,18,20,22,24,26,28,30,-1,-1,-1,-1,-1,-1,-1,-1,-1,-1,-1,-1,-1,-1,-1,-1],"split_conditions":[1.8E0,1.49E0,1.2E0,-2.2222222E-1,7.777778E-1,2.76E0,2.1818182E0,2.25E0,1.8E0,7E-1,6.25E-1,1.1E0,1.3E0,2E-1,1.2472191E0,4.317833E-2,8.236559E-3,-2.4478702E-2,1.6846664E-2,8.017854E-3,-5.530041E-2,-2.0095797E-3,9.2421025E-3,-3.501875E-3,-1.4763708E-2,-2.2296526E-2,-7.273859E-2,7.381284E-3,-4.0274947E-3,2.9592067E-2,-2.472478E-4],"split_indices":[16,16,10,26,3,16,23,13,15,30,2,0,22,20,28,0,0,0,0,0,0,0,0,0,0,0,0,0,0,0,0],"split_type":[0,0,0,0,0,0,0,0,0,0,0,0,0,0,0,0,0,0,0,0,0,0,0,0,0,0,0,0,0,0,0],"sum_hessian":[2.8219155E3,9.058574E2,1.9160581E3,1.4388495E2,7.619725E2,7.213015E2,1.1947566E3,4.8975765E1,9.490919E1,1.5308969E1,7.4666345E2,6.787379E2,4.2563595E1,1.1129656E3,8.179106E1,3.9051918E1,9.923848E0,8.898856E0,8.601033E1,8.20111E0,7.107859E0,8.654455E1,6.601189E2,4.995201E2,1.7921782E2,3.6897736E1,5.665859E0,2.3296783E2,8.7999774E2,3.9459904E1,4.2331158E1],"tree_param":{"num_deleted":"0","num_feature":"33","num_nodes":"31","size_leaf_vector":"1"}},{"base_weights":[1.9119482E-2,2.0886102E-1,-4.1343715E-2,2.7746934E-2,2.8121614E-1,3.6601913E-3,-1.6552599E-1,2.4219526E-1,-1.0509314E-1,4.5896295E-1,1.9993453E-1,-2.2775576E-2,2.2439557E-1,-1.8934354E-1,3.8183707E-1,3.6813837E-2,4.3122782E-3,-1.7548412E-2,8.997395E-3,1.7114328E-2,3.3495795E-2,5.3690295E-3,2.3992857E-2,-5.5004325E-4,-2.6396854E-2,6.2027313E-2,8.596509E-3,-3.7208877E-3,-1.4210857E-2,5.1324375E-2,4.5999507E-3],"categories":[],"categories_nodes":[],"categories_segments":[],"categories_sizes":[],"default_left":[0,0,0,0,0,0,0,0,0,0,0,0,0,0,0,0,0,0,0,0,0,0,0,0,0,0,0,0,0,0,0],"id":18,"left_children":[1,3,5,7,9,11,13,15,17,19,21,23,25,27,29,-1,-1,-1,-1,-1,-1,-1,-1,-1,-1,-1,-1,-1,-1,-1,-1],"loss_changes":[3.276076E1,9.004801E0,1.2112402E1,5.693918E0,6.9592667E0,9.297464E0,7.566474E0,5.7501287E0,8.699413E0,3.4455948E0,8.7032585E0,8.38389E0,8.732274E0,5.974037E0,4.313172E0,0E0,0E0,0E0,0E0,0E0,0E0,0E0,0E0,0E0,0E0,0E0,0E0,0E0,0E0,0E0,0E0],"parents":[2147483647,0,0,1,1,2,2,3,3,4,4,5,5,6,6,7,7,8,8,9,9,10,10,11,11,12,12,13,13,14,14],"right_children":[2,4,6,8,10,12,14,16,18,20,22,24,26,28,30,-1,-1,-1,-1,-1,-1,-1,-1,-1,-1,-1,-1,-1,-1,-1,-1],"split_conditions":[1.73E0,7.1428573E-1,2.29E0,1.0593499E0,6E-1,1.8571428E0,8E-1,-4.2857143E-1,1.1333333E0,2.0833333E-1,1.7948718E0,6E-1,6.408699E-1,8.4615386E-1,8.5714287E-1,3.6813837E-2,4.3122782E-3,-1.7548412E-2,8.997395E-3,1.7114328E-2,3.3495795E-2,5.3690295E-3,2.3992857E-2,-5.5004325E-4,-2.6396854E-2,6.2027313E-2,8.596509E-3,-3.7208877E-3,-1.4210857E-2,5.1324375E-2,4.5999507E-3],"split_indices":[16,2,16,27,18,23,18,26,22,25,24,20,27,22,8,0,0,0,0,0,0,0,0,0,0,0,0,0,0,0,0],"split_type":[0,0,0,0,0,0,0,0,0,0,0,0,0,0,0,0,0,0,0,0,0,0,0,0,0,0,0,0,0,0,0],"sum_hessian":[2.8524072E3,6.8910474E2,2.1633025E3,1.9750072E2,4.91604E2,1.5879805E3,5.753221E2,7.551837E1,1.21982346E2,1.5241835E2,3.3918564E2,1.4185371E3,1.694434E2,5.521337E2,2.3188366E1,1.707109E1,5.844728E1,6.5554695E1,5.642765E1,1.0013249E2,5.2285862E1,2.562122E2,8.297345E1,1.3874177E3,3.1119318E1,7.113722E0,1.6232968E2,2.5096457E2,3.0116916E2,6.2967305E0,1.6891636E1],"tree_param":{"num_deleted":"0","num_feature":"33","num_nodes":"31","size_leaf_vector":"1"}},{"base_weights":[1.579357E-2,1.3958888E-1,-7.53438E-2,3.2801065E-1,9.7705625E-2,-1.4723901E-1,3.3247806E-2,3.8282052E-1,7.419515E-3,-5.6068093E-2,1.5505943E-1,-2.2928011E-1,-2.3277834E-2,5.5087274E-1,6.462412E-3,3.4461915E-2,1.520329E-2,-1.33829685E-2,3.3136424E-2,-3.2834243E-2,4.0972533E-4,-7.0531056E-3,1.0107865E-2,-9.31276E-3,-3.591607E-2,6.3113146E-4,-2.608706E-2,6.1543155E-2,1.1189013E-2,-1.9991025E-2,1.5998485E-3],"categories":[],"categories_nodes":[],"categories_segments":[],"categories_sizes":[],"default_left":[0,0,0,0,0,0,0,0,0,0,0,0,0,0,0,0,0,0,0,0,0,0,0,0,0,0,0,0,0,0,0],"id":19,"left_children":[1,3,5,7,9,11,13,15,17,19,21,23,25,27,29,-1,-1,-1,-1,-1,-1,-1,-1,-1,-1,-1,-1,-1,-1,-1,-1],"loss_changes":[3.2004288E1,9.419125E0,1.2766712E1,3.7873192E0,8.71535E0,9.969919E0,8.964115E0,4.1751823E0,6.1841173E0,1.04194765E1,1.00615635E1,1.2213594E1,7.094163E0,6.657604E0,6.407941E0,0E0,0E0,0E0,0E0,0E0,0E0,0E0,0E0,0E0,0E0,0E0,0E0,0E0,0E0,0E0,0E0],"parents":[2147483647,0,0,1,1,2,2,3,3,4,4,5,5,6,6,7,7,8,8,9,9,10,10,11,11,12,12,13,13,14,14],"right_children":[2,4,6,8,10,12,14,16,18,20,22,24,26,28,30,-1,-1,-1,-1,-1,-1,-1,-1,-1,-1,-1,-1,-1,-1,-1,-1],"split_conditions":[1.92E0,1.54E0,8E-1,1.7638342E0,4.2857143E-1,1E0,8.5714287E-1,9.189366E-1,8.333333E-1,3.3333334E-1,8.333333E-1,2.1666667E0,1.6666666E0,9.189366E-1,5E-1,3.4461915E-2,1.520329E-2,-1.33829685E-2,3.3136424E-2,-3.2834243E-2,4.0972533E-4,-7.0531056E-3,1.0107865E-2,-9.31276E-3,-3.591607E-2,6.3113146E-4,-2.608706E-2,6.1543155E-2,1.1189013E-2,-1.9991025E-2,1.5998485E-3],"split_indices":[16,16,7,27,9,3,8,28,32,29,10,13,12,27,12,0,0,0,0,0,0,0,0,0,0,0,0,0,0,0,0],"split_type":[0,0,0,0,0,0,0,0,0,0,0,0,0,0,0,0,0,0,0,0,0,0,0,0,0,0,0,0,0,0,0],"sum_hessian":[2.8341594E3,1.2020015E3,1.632158E3,2.169193E2,9.8508215E2,9.8234326E2,6.498147E2,1.8481616E2,3.2103134E1,2.671347E2,7.1794745E2,5.901251E2,3.9221817E2,3.082501E1,6.189897E2,3.594405E1,1.4887212E2,2.2920677E1,9.182456E0,2.5078758E1,2.4205594E2,9.795433E1,6.199931E2,5.438625E2,4.6262638E1,3.665896E2,2.5628555E1,9.015007E0,2.1810003E1,3.550422E1,5.834855E2],"tree_param":{"num_deleted":"0","num_feature":"33","num_nodes":"31","size_leaf_vector":"1"}},{"base_weights":[3.0383533E-2,1.3862276E-1,-8.666701E-2,8.919026E-2,3.4759942E-1,-2.896402E-1,-4.265243E-2,4.8379025E-1,7.338016E-2,-2.744316E-1,4.0069464E-1,-4.8978555E-1,-1.0653822E-1,-6.7978986E-2,2.8886852E-1,2.3287328E-4,3.343993E-2,3.2093886E-3,2.942861E-2,3.3001065E-2,-2.993387E-2,5.4794117E-3,2.5702214E-2,-3.563503E-2,-1.317243E-2,5.920447E-3,-1.9447863E-2,-4.6173763E-3,1.1748911E-2,5.2816765E-3,3.4919597E-2],"categories":[],"categories_nodes":[],"categories_segments":[],"categories_sizes":[],"default_left":[0,0,0,0,0,0,0,0,0,0,0,0,0,0,0,0,0,0,0,0,0,0,0,0,0,0,0,0,0,0,0],"id":20,"left_children":[1,3,5,7,9,11,13,15,17,19,21,23,25,27,29,-1,-1,-1,-1,-1,-1,-1,-1,-1,-1,-1,-1,-1,-1,-1,-1],"loss_changes":[3.580748E1,1.5095623E1,1.2081048E1,7.3286886E0,9.37645E0,8.731731E0,9.376818E0,3.9534426E0,5.319241E0,7.200591E0,8.417923E0,5.504404E0,8.177121E0,7.6771092E0,5.788344E0,0E0,0E0,0E0,0E0,0E0,0E0,0E0,0E0,0E0,0E0,0E0,0E0,0E0,0E0,0E0,0E0],"parents":[2147483647,0,0,1,1,2,2,3,3,4,4,5,5,6,6,7,7,8,8,9,9,10,10,11,11,12,12,13,13,14,14],"right_children":[2,4,6,8,10,12,14,16,18,20,22,24,26,28,30,-1,-1,-1,-1,-1,-1,-1,-1,-1,-1,-1,-1,-1,-1,-1,-1],"split_conditions":[2.01E0,1E0,8.888889E-1,3.2820514E-1,1.5E0,1.0540925E0,1.9E0,6.25E-1,2.7E0,1.4285715E0,4.4444445E-1,5E-1,4.761905E-2,3.85E0,6.25E-1,2.3287328E-4,3.343993E-2,3.2093886E-3,2.942861E-2,3.3001065E-2,-2.993387E-2,5.4794117E-3,2.5702214E-2,-3.563503E-2,-1.317243E-2,5.920447E-3,-1.9447863E-2,-4.6173763E-3,1.1748911E-2,5.2816765E-3,3.4919597E-2],"split_indices":[16,4,6,24,10,28,23,30,1,0,19,4,25,15,4,0,0,0,0,0,0,0,0,0,0,0,0,0,0,0,0],"split_type":[0,0,0,0,0,0,0,0,0,0,0,0,0,0,0,0,0,0,0,0,0,0,0,0,0,0,0,0,0,0,0],"sum_hessian":[2.8239246E3,1.4675337E3,1.3563909E3,1.188342E3,2.7919174E2,2.40317E2,1.1160739E3,4.4394188E1,1.1439478E3,2.1481043E1,2.577107E2,1.1375378E2,1.26563225E2,1.0378815E3,7.819241E1,1.2802943E1,3.1591244E1,1.1251902E3,1.8757677E1,5.1873913E0,1.6293652E1,7.302241E1,1.8468831E2,5.6004913E1,5.7748863E1,7.0576E1,5.5987232E1,9.6156287E2,7.631861E1,5.5059162E1,2.3133253E1],"tree_param":{"num_deleted":"0","num_feature":"33","num_nodes":"31","size_leaf_vector":"1"}},{"base_weights":[2.334914E-2,1.2300091E-1,-8.241515E-2,-7.687957E-2,1.6288021E-1,-2.1067509E-1,-3.9484184E-2,-2.2679618E-2,-8.6040235E-1,-1.766743E-2,2.203947E-1,-2.3920974E-1,5.8513135E-1,2.7507205E-2,-1.3997148E-1,2.3479695E-3,-1.9215172E-2,1.0574259E-3,-6.539602E-2,3.2235514E-2,-3.12582E-3,1.1713135E-2,-1.3680969E-2,-6.070133E-2,-1.0709404E-2,1.0161974E-2,4.470059E-2,-1.51395975E-2,2.950647E-3,8.07485E-3,-1.0968923E-2],"categories":[],"categories_nodes":[],"categories_segments":[],"categories_sizes":[],"default_left":[0,0,0,0,0,0,0,0,0,0,0,0,0,0,0,0,0,0,0,0,0,0,0,0,0,0,0,0,0,0,0],"id":21,"left_children":[1,3,5,7,9,11,13,15,17,19,21,23,25,27,29,-1,-1,-1,-1,-1,-1,-1,-1,-1,-1,-1,-1,-1,-1,-1,-1],"loss_changes":[2.972503E1,1.1597664E1,7.497423E0,1.016179E1,1.2604408E1,7.875247E0,6.925223E0,5.776579E0,6.2710476E0,8.692016E0,6.3582306E0,7.674425E0,1.1256061E0,6.4051847E0,9.88859E0,0E0,0E0,0E0,0E0,0E0,0E0,0E0,0E0,0E0,0E0,0E0,0E0,0E0,0E0,0E0,0E0],"parents":[2147483647,0,0,1,1,2,2,3,3,4,4,5,5,6,6,7,7,8,8,9,9,10,10,11,11,12,12,13,13,14,14],"right_children":[2,4,6,8,10,12,14,16,18,20,22,24,26,28,30,-1,-1,-1,-1,-1,-1,-1,-1,-1,-1,-1,-1,-1,-1,-1,-1],"split_conditions":[2.01E0,2.0833333E0,1E0,1E0,4.4444445E-1,1.7511901E0,1.5E0,1.0909091E0,8.333333E-1,4.117647E-1,6.25E-1,4E-1,4.2857143E-1,6.666667E-1,4.5E-1,2.3479695E-3,-1.9215172E-2,1.0574259E-3,-6.539602E-2,3.2235514E-2,-3.12582E-3,1.1713135E-2,-1.3680969E-2,-6.070133E-2,-1.0709404E-2,1.0161974E-2,4.470059E-2,-1.51395975E-2,2.950647E-3,8.07485E-3,-1.0968923E-2],"split_indices":[16,14,6,9,9,28,6,22,0,23,21,2,18,0,22,0,0,0,0,0,0,0,0,0,0,0,0,0,0,0,0],"split_type":[0,0,0,0,0,0,0,0,0,0,0,0,0,0,0,0,0,0,0,0,0,0,0,0,0,0,0,0,0,0,0],"sum_hessian":[2.8179722E3,1.4513159E3,1.3666564E3,2.4082626E2,1.2104896E3,3.4116373E2,1.0254927E3,2.2632675E2,1.449951E1,2.9219492E2,9.182947E2,3.3015082E2,1.1012903E1,6.1513477E2,4.1035788E2,1.9027795E2,3.6048794E1,5.1277714E0,9.371738E0,1.7540031E1,2.7465488E2,8.939285E2,2.4366184E1,6.973043E0,3.2317776E2,5.8105836E0,5.202319E0,5.253933E1,5.6259546E2,8.5075554E1,3.2528235E2],"tree_param":{"num_deleted":"0","num_feature":"33","num_nodes":"31","size_leaf_vector":"1"}},{"base_weights":[7.542646E-3,2.2235876E-1,-3.9643943E-2,-4.3020844E-1,2.4881828E-1,-1.5193562E-1,4.8177142E-4,-8.940385E-1,6.319046E-3,2.3260981E-1,4.6214204E-2,-2.36719E-1,3.0427694E-2,3.215706E-1,-1.6104128E-2,-1.5728623E-2,-6.5788135E-2,1.2415073E-2,-4.247408E-2,-1.3888556E-2,1.20058535E-2,-3.103015E-3,2.6816344E-2,2.4538282E-2,-3.3758238E-2,-6.35079E-3,1.8385247E-3],"categories":[],"categories_nodes":[],"categories_segments":[],"categories_sizes":[],"default_left":[0,0,0,0,0,0,0,0,0,0,0,0,0,0,0,0,0,0,0,0,0,0,0,0,0,0,0],"id":22,"left_children":[1,3,5,7,9,11,13,15,-1,17,-1,19,21,23,25,-1,-1,-1,-1,-1,-1,-1,-1,-1,-1,-1,-1],"loss_changes":[2.8533545E1,8.843468E0,1.0406694E1,5.3468757E0,5.012577E0,9.425381E0,9.086196E0,2.1400023E0,0E0,8.268686E0,0E0,8.201941E0,9.130269E0,1.444805E1,9.494264E0,0E0,0E0,0E0,0E0,0E0,0E0,0E0,0E0,0E0,0E0,0E0,0E0],"parents":[2147483647,0,0,1,1,2,2,3,3,4,4,5,5,6,6,7,7,9,9,11,11,12,12,13,13,14,14],"right_children":[2,4,6,8,10,12,14,16,-1,18,-1,20,22,24,26,-1,-1,-1,-1,-1,-1,-1,-1,-1,-1,-1,-1],"split_conditions":[1.67E0,5E-1,1.68E0,1.4757296E0,1.3666667E0,1.25E0,2.857143E-1,5.555556E-1,6.319046E-3,1.2222222E0,4.6214204E-2,1.7E0,1.2692956E0,7.777778E-1,7.7272725E-1,-1.5728623E-2,-6.5788135E-2,1.2415073E-2,-4.247408E-2,-1.3888556E-2,1.20058535E-2,-3.103015E-3,2.6816344E-2,2.4538282E-2,-3.3758238E-2,-6.35079E-3,1.8385247E-3],"split_indices":[16,13,17,28,26,11,19,21,0,26,0,5,28,9,23,0,0,0,0,0,0,0,0,0,0,0,0],"split_type":[0,0,0,0,0,0,0,0,0,0,0,0,0,0,0,0,0,0,0,0,0,0,0,0,0,0,0],"sum_hessian":[2.8112751E3,5.0602267E2,2.3052524E3,1.8976229E1,4.8704645E2,6.06808E2,1.6984445E3,1.0117916E1,8.858312E0,4.770906E2,9.955852E0,4.143984E2,1.9240958E2,8.281711E1,1.6156273E3,5.0971994E0,5.020716E0,4.711217E2,5.9688888E0,3.8212723E2,3.227119E1,1.6324496E2,2.9164623E1,7.1318756E1,1.1498347E1,5.217258E2,1.0939015E3],"tree_param":{"num_deleted":"0","num_feature":"33","num_nodes":"27","size_leaf_vector":"1"}}]},"name":"gbtree"},"learner_model_param":{"base_score":"6.914967E-1","boost_from_average":"1","num_class":"0","num_feature":"33","num_target":"1"},"objective":{"name":"binary:logistic","reg_loss_param":{"scale_pos_weight":"1"}}},"version":[2,1,4]}