{"learner":{"attributes":{"best_iteration":"51","best_score":"0.6763340761900226","scikit_learn":"{\"_estimator_type\": \"classifier\"}"},"feature_names":["home_goals_per_game","home_goals_conceded_per_game","home_over15_rate","home_over05_rate","home_first_half_goals","away_goals_per_game","away_goals_conceded_per_game","away_over15_rate","away_over05_rate","away_first_half_goals","home_home_goals","home_home_conceded","away_away_goals","away_away_conceded","total_expected_goals","defensive_strength","over15_odds","under15_odds","home_btts_rate","away_btts_rate","home_clean_sheet_rate","away_clean_sheet_rate","home_attack_strength","away_attack_strength","attack_vs_defense_ratio","home_momentum","away_momentum","home_goals_std","away_goals_std","home_over25_rate","away_over25_rate","home_scored_in_rate","away_scored_in_rate"],"feature_types":["float","float","float","float","float","float","float","float","float","float","float","float","float","float","float","float","float","float","float","float","float","float","float","float","float","float","float","float","float","float","float","float","float"],"gradient_booster":{"model":{"gbtree_model_param":{"num_parallel_tree":"1","num_trees":"72"},"iteration_indptr":[0,1,2,3,4,5,6,7,8,9,10,11,12,13,14,15,16,17,18,19,20,21,22,23,24,25,26,27,28,29,30,31,32,33,34,35,36,37,38,39,40,41,42,43,44,45,46,47,48,49,50,51,52,53,54,55,56,57,58,59,60,61,62,63,64,65,66,67,68,69,70,71,72],"tree_info":[0,0,0,0,0,0,0,0,0,0,0,0,0,0,0,0,0,0,0,0,0,0,0,0,0,0,0,0,0,0,0,0,0,0,0,0,0,0,0,0,0,0,0,0,0,0,0,0,0,0,0,0,0,0,0,0,0,0,0,0,0,0,0,0,0,0,0,0,0,0,0,0],"trees":[{"base_weights":[-8.969745E-3,4.6980903E-1,-2.4221388E-1,8.293723E-1,3.350314E-1,-6.984489E-2,-4.837389E-1,8.7494344E-1,5.6798976E-2,2.6982576E-1,5.3539497E-1,-1.3221811E-1,9.153349E-2,-6.573564E-1,-3.8675582E-1,1.2468531E-2,4.5216467E-2,4.4497203E-2,-1.8227827E-2,1.4834632E-2,-5.784727E-3,3.0677006E-2,5.6966417E-3,-1.4667019E-2,-2.3360697E-3,1.1524768E-2,-6.511097E-3,2.5089204E-2,-3.407588E-2,-2.8261105E-2,-1.4344352E-2],"categories":[],"categories_nodes":[],"categories_segments":[],"categories_sizes":[],"default_left":[0,0,0,0,0,0,0,0,0,0,0,0,0,0,0,0,0,0,0,0,0,0,0,0,0,0,0,0,0,0,0],"id":0,"left_children":[1,3,5,7,9,11,13,15,17,19,21,23,25,27,29,-1,-1,-1,-1,-1,-1,-1,-1,-1,-1,-1,-1,-1,-1,-1,-1],"loss_changes":[3.840058E2,5.4191025E1,9.618324E1,1.0638107E1,1.0503311E1,1.3613406E1,1.5850296E1,4.971222E0,6.782968E0,6.4942207E0,6.4519005E0,1.3385279E1,1.1648514E1,9.972015E0,1.0810707E1,0E0,0E0,0E0,0E0,0E0,0E0,0E0,0E0,0E0,0E0,0E0,0E0,0E0,0E0,0E0,0E0],"parents":[2147483647,0,0,1,1,2,2,3,3,4,4,5,5,6,6,7,7,8,8,9,9,10,10,11,11,12,12,13,13,14,14],"right_children":[2,4,6,8,10,12,14,16,18,20,22,24,26,28,30,-1,-1,-1,-1,-1,-1,-1,-1,-1,-1,-1,-1,-1,-1,-1,-1],"split_conditions":[1.79E0,1.54E0,2.19E0,2.9E0,3.65E0,1.6E0,3.3333334E-1,-8.888889E-1,9.718253E-1,2.6666667E0,1.75E0,9.660918E-1,2.03E0,6.25E-1,3.3333334E-1,1.2468531E-2,4.5216467E-2,4.4497203E-2,-1.8227827E-2,1.4834632E-2,-5.784727E-3,3.0677006E-2,5.6966417E-3,-1.4667019E-2,-2.3360697E-3,1.1524768E-2,-6.511097E-3,2.5089204E-2,-3.407588E-2,-2.8261105E-2,-1.4344352E-2],"split_indices":[16,16,16,5,14,11,30,26,27,13,16,27,16,3,29,0,0,0,0,0,0,0,0,0,0,0,0,0,0,0,0],"split_type":[0,0,0,0,0,0,0,0,0,0,0,0,0,0,0,0,0,0,0,0,0,0,0,0,0,0,0,0,0,0,0],"sum_hessian":[3.4368684E3,1.125375E3,2.3114934E3,3.052161E2,8.2015894E2,1.3498501E3,9.616432E2,2.8796802E2,1.7248085E1,6.20931E2,1.9922787E2,9.7414185E2,3.7570828E2,3.42212E2,6.194312E2,1.3498501E1,2.744695E2,5.499389E0,1.1748695E1,5.809355E2,3.999556E1,1.674814E2,3.1746475E1,3.3646265E2,6.376792E2,2.3122432E2,1.4448395E2,6.499278E0,3.357127E2,2.2022554E2,3.9920566E2],"tree_param":{"num_deleted":"0","num_feature":"33","num_nodes":"31","size_leaf_vector":"1"}},{"base_weights":[-2.699011E-3,-1.9378537E-1,2.2452892E-1,-3.323632E-1,-5.5177435E-2,1.5607527E-1,5.113696E-1,-2.3313874E-1,-5.383E-1,-1.7271444E-1,8.29666E-2,4.3774873E-2,3.9785463E-1,4.769449E-1,6.964399E-2,2.4371846E-2,-1.25778485E-2,-3.0109768E-3,-2.9903645E-2,-1.0530642E-2,1.3956725E-2,5.157815E-3,-3.73559E-2,3.3589068E-3,-4.1353486E-2,-1.8052896E-3,2.2703828E-2,2.1528555E-2,4.9916647E-2],"categories":[],"categories_nodes":[],"categories_segments":[],"categories_sizes":[],"default_left":[0,0,0,0,0,0,0,0,0,0,0,0,0,0,0,0,0,0,0,0,0,0,0,0,0,0,0,0,0],"id":1,"left_children":[1,3,5,7,9,11,13,15,17,19,21,23,25,27,-1,-1,-1,-1,-1,-1,-1,-1,-1,-1,-1,-1,-1,-1,-1],"loss_changes":[1.4967589E2,3.591484E1,3.076844E1,1.8921944E1,1.5251013E1,3.4498306E1,8.332115E0,8.509251E0,8.563255E0,8.741314E0,7.24274E0,1.7721836E1,9.897644E0,6.508789E0,0E0,0E0,0E0,0E0,0E0,0E0,0E0,0E0,0E0,0E0,0E0,0E0,0E0,0E0,0E0],"parents":[2147483647,0,0,1,1,2,2,3,3,4,4,5,5,6,6,7,7,8,8,9,9,10,10,11,11,12,12,13,13],"right_children":[2,4,6,8,10,12,14,16,18,20,22,24,26,28,-1,-1,-1,-1,-1,-1,-1,-1,-1,-1,-1,-1,-1,-1,-1],"split_conditions":[2.7333333E0,5E-1,3.25E0,4E-1,8E-1,1.8888888E0,1.7333333E0,2.2222222E-1,8E-1,2.25E0,8.333333E-1,7E-1,2E-1,8.333333E-1,6.964399E-2,2.4371846E-2,-1.25778485E-2,-3.0109768E-3,-2.9903645E-2,-1.0530642E-2,1.3956725E-2,5.157815E-3,-3.73559E-2,3.3589068E-3,-4.1353486E-2,-1.8052896E-3,2.2703828E-2,2.1528555E-2,4.9916647E-2],"split_indices":[14,29,15,21,7,0,22,19,3,11,19,20,20,29,0,0,0,0,0,0,0,0,0,0,0,0,0,0,0],"split_type":[0,0,0,0,0,0,0,0,0,0,0,0,0,0,0,0,0,0,0,0,0,0,0,0,0,0,0,0,0],"sum_hessian":[3.4452207E3,1.8717596E3,1.573461E3,9.3492175E2,9.368379E2,1.2718344E3,3.016267E2,6.3269464E2,3.0222717E2,5.0642786E2,4.3041003E2,8.695466E2,4.0228772E2,2.9188263E2,9.744082E0,1.49988985E1,6.1769574E2,3.399623E1,2.6823093E2,4.679354E2,3.8492447E1,4.2116254E2,9.247506E0,8.478003E2,2.1746275E1,4.5977802E1,3.563099E2,2.69895E2,2.1987654E1],"tree_param":{"num_deleted":"0","num_feature":"33","num_nodes":"29","size_leaf_vector":"1"}},{"base_weights":[-1.3639696E-2,-2.71617E-1,3.611889E-1,-8.823597E-2,-4.746638E-1,7.463282E-1,2.5127268E-1,-1.0182012E-1,5.170432E-1,-5.453682E-1,-3.4344736E-1,8.418119E-1,4.0340242E-1,1.9835345E-1,4.980197E-1,-1.2070065E-2,-1.8581878E-3,4.138761E-2,-1.0413948E-2,-1.0292624E-2,-2.9408827E-2,-4.2959288E-2,-1.4416121E-2,1.8614454E-2,4.436263E-2,2.8474657E-2,-2.392813E-2,1.3220995E-2,3.594159E-3,3.186838E-2,8.509873E-3],"categories":[],"categories_nodes":[],"categories_segments":[],"categories_sizes":[],"default_left":[0,0,0,0,0,0,0,0,0,0,0,0,0,0,0,0,0,0,0,0,0,0,0,0,0,0,0,0,0,0,0],"id":2,"left_children":[1,3,5,7,9,11,13,15,17,19,21,23,25,27,29,-1,-1,-1,-1,-1,-1,-1,-1,-1,-1,-1,-1,-1,-1,-1,-1],"loss_changes":[3.3197626E2,7.5627716E1,5.895758E1,8.809733E0,8.673264E0,9.6870575E0,1.4070663E1,9.41767E0,5.5285797E0,8.878403E0,9.331326E0,4.6930237E0,1.048714E1,7.4664345E0,8.562214E0,0E0,0E0,0E0,0E0,0E0,0E0,0E0,0E0,0E0,0E0,0E0,0E0,0E0,0E0,0E0,0E0],"parents":[2147483647,0,0,1,1,2,2,3,3,4,4,5,5,6,6,7,7,8,8,9,9,10,10,11,11,12,12,13,13,14,14],"right_children":[2,4,6,8,10,12,14,16,18,20,22,24,26,28,30,-1,-1,-1,-1,-1,-1,-1,-1,-1,-1,-1,-1,-1,-1,-1,-1],"split_conditions":[2.02E0,2.19E0,1.54E0,2.375E0,2.65E0,2.142857E0,2.25E0,1.2E0,1.904762E-1,8E-1,2.2222222E-1,3E-1,2.3636363E0,1.77E0,1.75E0,-1.2070065E-2,-1.8581878E-3,4.138761E-2,-1.0413948E-2,-1.0292624E-2,-2.9408827E-2,-4.2959288E-2,-1.4416121E-2,1.8614454E-2,4.436263E-2,2.8474657E-2,-2.392813E-2,1.3220995E-2,3.594159E-3,3.186838E-2,8.509873E-3],"split_indices":[17,16,16,1,15,5,10,10,25,3,29,9,22,16,16,0,0,0,0,0,0,0,0,0,0,0,0,0,0,0,0],"split_type":[0,0,0,0,0,0,0,0,0,0,0,0,0,0,0,0,0,0,0,0,0,0,0,0,0,0,0,0,0,0,0],"sum_hessian":[3.4312288E3,2.0327335E3,1.3984951E3,1.0691034E3,9.636302E2,3.0901755E2,1.0894775E3,1.0466115E3,2.2491892E1,6.2366E2,3.399702E2,2.403488E2,6.866874E1,8.989015E2,1.9057607E2,3.299753E2,7.1663617E2,1.5744157E1,6.7477345E0,7.0742325E1,5.529176E2,3.124526E1,3.0872498E2,2.221392E1,2.1813487E2,5.8180016E1,1.0488723E1,5.892195E2,3.09682E2,1.3285425E2,5.772182E1],"tree_param":{"num_deleted":"0","num_feature":"33","num_nodes":"31","size_leaf_vector":"1"}},{"base_weights":[-1.1580581E-3,4.1705078E-1,-2.0424998E-1,7.334512E-1,2.929155E-1,-4.2650613E-1,-7.2763614E-2,8.200123E-1,4.1905907E-1,3.0426046E-1,-2.8576259E-2,-4.8866624E-1,-2.4902575E-1,-8.6085685E-2,4.771679E-1,4.6229955E-2,3.0565543E-2,3.371954E-2,-7.2483905E-3,1.2380689E-2,2.2931542E-2,1.1025467E-2,-2.5431786E-2,-1.546789E-2,1.0900475E-2,-6.6777775E-3,2.1900344E-3,5.681022E-2,-4.140472E-3],"categories":[],"categories_nodes":[],"categories_segments":[],"categories_sizes":[],"default_left":[0,0,0,0,0,0,0,0,0,0,0,0,0,0,0,0,0,0,0,0,0,0,0,0,0,0,0,0,0],"id":3,"left_children":[1,3,5,7,9,11,13,15,17,19,-1,21,23,25,27,-1,-1,-1,-1,-1,-1,-1,-1,-1,-1,-1,-1,-1,-1],"loss_changes":[2.9261664E2,4.3911423E1,6.7698784E1,8.143585E0,8.0974655E0,9.310043E0,1.0688966E1,4.668518E0,1.0318978E1,6.8196487E0,0E0,9.157333E0,6.443206E0,8.802499E0,1.2923083E1,0E0,0E0,0E0,0E0,0E0,0E0,0E0,0E0,0E0,0E0,0E0,0E0,0E0,0E0],"parents":[2147483647,0,0,1,1,2,2,3,3,4,4,5,5,6,6,7,7,8,8,9,9,11,11,12,12,13,13,14,14],"right_children":[2,4,6,8,10,12,14,16,18,20,-1,22,24,26,28,-1,-1,-1,-1,-1,-1,-1,-1,-1,-1,-1,-1,-1,-1],"split_conditions":[1.79E0,1.54E0,1.71E0,2.1111112E0,3.7142856E0,2.9642856E0,2.6E0,7E-1,2.3333333E-1,2.2E0,-2.8576259E-2,2.2E0,1.3165612E0,1.98E0,-9.52381E-2,4.6229955E-2,3.0565543E-2,3.371954E-2,-7.2483905E-3,1.2380689E-2,2.2931542E-2,1.1025467E-2,-2.5431786E-2,-1.546789E-2,1.0900475E-2,-6.6777775E-3,2.1900344E-3,5.681022E-2,-4.140472E-3],"split_indices":[16,16,17,5,22,15,11,18,25,10,0,16,28,17,25,0,0,0,0,0,0,0,0,0,0,0,0,0,0],"split_type":[0,0,0,0,0,0,0,0,0,0,0,0,0,0,0,0,0,0,0,0,0,0,0,0,0,0,0,0,0],"sum_hessian":[3.4434375E3,1.1250918E3,2.3183457E3,3.1542114E2,8.096706E2,8.606142E2,1.4577316E3,2.4581497E2,6.960617E1,7.999359E2,9.734705E0,6.356645E2,2.249497E2,1.4242544E3,3.3477203E1,1.6114885E2,8.4666115E1,4.790258E1,2.1703592E1,5.875752E2,2.123607E2,1.699711E1,6.1866736E2,1.9970355E2,2.524616E1,1.043592E3,3.806623E2,1.4987729E1,1.8489473E1],"tree_param":{"num_deleted":"0","num_feature":"33","num_nodes":"29","size_leaf_vector":"1"}},{"base_weights":[3.1664013E-3,-2.6294097E-1,3.3637193E-1,-1.19172774E-1,-4.273778E-1,1.7285596E-1,5.696123E-1,-1.413652E-1,4.323973E-1,-6.6643316E-1,-3.6511016E-1,1.1087913E-1,3.1635517E-1,7.092366E-1,4.3215477E-1,-1.4250389E-2,-3.2271033E-3,3.6948197E-2,2.4392565E-3,-5.3385306E-2,-2.5505533E-2,-1.89762E-2,5.111491E-3,9.7346185E-3,-7.567924E-4,2.7688239E-2,1.0344204E-2,-8.74115E-3,3.698173E-2,1.264665E-2,3.0814176E-2],"categories":[],"categories_nodes":[],"categories_segments":[],"categories_sizes":[],"default_left":[0,0,0,0,0,0,0,0,0,0,0,0,0,0,0,0,0,0,0,0,0,0,0,0,0,0,0,0,0,0,0],"id":4,"left_children":[1,3,5,7,9,11,13,15,17,19,21,23,25,27,29,-1,-1,-1,-1,-1,-1,-1,-1,-1,-1,-1,-1,-1,-1,-1,-1],"loss_changes":[3.039195E2,4.4941116E1,5.7876007E1,1.2497141E1,1.2873718E1,7.894911E0,1.1605286E1,1.0759644E1,4.525783E0,1.0713203E1,4.829956E0,6.654566E0,6.810068E0,8.487808E0,1.0273243E1,0E0,0E0,0E0,0E0,0E0,0E0,0E0,0E0,0E0,0E0,0E0,0E0,0E0,0E0,0E0,0E0],"parents":[2147483647,0,0,1,1,2,2,3,3,4,4,5,5,6,6,7,7,8,8,9,9,10,10,11,11,12,12,13,13,14,14],"right_children":[2,4,6,8,10,12,14,16,18,20,22,24,26,28,30,-1,-1,-1,-1,-1,-1,-1,-1,-1,-1,-1,-1,-1,-1,-1,-1],"split_conditions":[1.98E0,2.21E0,2.34E0,2.4E0,9E-1,3.35E0,1.54E0,4.2857143E-1,0E0,3.75E-1,1.5776212E0,1.1111111E-1,-2.9166666E-1,-1.0666667E0,1.4285715E0,-1.4250389E-2,-3.2271033E-3,3.6948197E-2,2.4392565E-3,-5.3385306E-2,-2.5505533E-2,-1.89762E-2,5.111491E-3,9.7346185E-3,-7.567924E-4,2.7688239E-2,1.0344204E-2,-8.74115E-3,3.698173E-2,1.264665E-2,3.0814176E-2],"split_indices":[17,16,17,11,6,14,16,19,25,18,28,26,26,26,13,0,0,0,0,0,0,0,0,0,0,0,0,0,0,0,0],"split_type":[0,0,0,0,0,0,0,0,0,0,0,0,0,0,0,0,0,0,0,0,0,0,0,0,0,0,0,0,0,0,0],"sum_hessian":[3.4255146E3,1.9044653E3,1.5210493E3,1.01733527E3,8.871301E2,8.9545197E2,6.2559735E2,9.788752E2,3.846006E1,1.809863E2,7.061438E2,6.270854E2,2.6836655E2,3.0792816E2,3.1766916E2,3.3969946E2,6.391757E2,2.0716946E1,1.7743114E1,4.892587E1,1.3206042E2,6.854062E2,2.0737621E1,3.7675333E2,2.5033208E2,8.312395E1,1.8524261E2,9.968728E0,2.9795944E2,1.6245769E2,1.5521147E2],"tree_param":{"num_deleted":"0","num_feature":"33","num_nodes":"31","size_leaf_vector":"1"}},{"base_weights":[2.3218133E-3,-2.3233739E-1,3.3767217E-1,-9.329975E-2,-3.883956E-1,6.6921204E-1,2.4549463E-1,-8.291541E-2,-9.615263E-1,-6.144863E-1,-3.316491E-1,7.9588974E-1,4.8328364E-1,1.0457115E-1,3.3569288E-1,-5.436607E-4,-1.0078692E-2,-6.761885E-2,-2.3908626E-2,-5.1939428E-2,-2.3253236E-2,-1.7432993E-2,1.3486105E-2,1.2401732E-2,4.3383624E-2,4.5472953E-2,1.7948333E-2,9.8608695E-3,-2.9734762E-3,1.4168926E-2,2.9945686E-2],"categories":[],"categories_nodes":[],"categories_segments":[],"categories_sizes":[],"default_left":[0,0,0,0,0,0,0,0,0,0,0,0,0,0,0,0,0,0,0,0,0,0,0,0,0,0,0,0,0,0,0],"id":5,"left_children":[1,3,5,7,9,11,13,15,17,19,21,23,25,27,29,-1,-1,-1,-1,-1,-1,-1,-1,-1,-1,-1,-1,-1,-1,-1,-1],"loss_changes":[2.7152014E2,4.395568E1,4.3157043E1,9.508283E0,1.1962509E1,6.7469025E0,1.4072517E1,9.068105E0,1.5313253E0,1.14257965E1,7.9424973E0,6.809128E0,6.315817E0,6.6574655E0,9.077652E0,0E0,0E0,0E0,0E0,0E0,0E0,0E0,0E0,0E0,0E0,0E0,0E0,0E0,0E0,0E0,0E0],"parents":[2147483647,0,0,1,1,2,2,3,3,4,4,5,5,6,6,7,7,8,8,9,9,10,10,11,11,12,12,13,13,14,14],"right_children":[2,4,6,8,10,12,14,16,18,20,22,24,26,28,30,-1,-1,-1,-1,-1,-1,-1,-1,-1,-1,-1,-1,-1,-1,-1,-1],"split_conditions":[2.02E0,2.19E0,1.54E0,2.5555556E0,8.888889E-1,7.777778E-1,2.65E0,1.4285715E-1,3E0,3.75E-1,7.777778E-1,3E-1,-4.7619048E-1,1.904762E-1,3.45E0,-5.436607E-4,-1.0078692E-2,-6.761885E-2,-2.3908626E-2,-5.1939428E-2,-2.3253236E-2,-1.7432993E-2,1.3486105E-2,1.2401732E-2,4.3383624E-2,4.5472953E-2,1.7948333E-2,9.8608695E-3,-2.9734762E-3,1.4168926E-2,2.9945686E-2],"split_indices":[17,16,16,6,6,9,14,25,13,18,29,9,25,26,15,0,0,0,0,0,0,0,0,0,0,0,0,0,0,0,0],"split_type":[0,0,0,0,0,0,0,0,0,0,0,0,0,0,0,0,0,0,0,0,0,0,0,0,0,0,0,0,0,0,0],"sum_hessian":[3.4482395E3,2.0286876E3,1.4195519E3,1.0740332E3,9.546545E2,3.072183E2,1.1123336E3,1.0625355E3,1.1497673E1,1.8920984E2,7.6544464E2,1.804528E2,1.26765495E2,4.3537793E2,6.769556E2,6.6233826E2,4.001972E2,5.2486815E0,6.248991E0,4.755364E1,1.416562E2,7.4495874E2,2.0485867E1,2.1582312E1,1.588705E2,2.701938E1,9.974611E1,2.7849692E2,1.5688101E2,5.6676855E2,1.1018705E2],"tree_param":{"num_deleted":"0","num_feature":"33","num_nodes":"31","size_leaf_vector":"1"}},{"base_weights":[5.0727627E-3,-2.2721985E-1,2.9752633E-1,-3.7502608E-1,-1.0657334E-1,1.9935073E-1,6.155402E-1,-5.4096264E-1,-2.8148273E-1,-1.2772474E-1,2.1053022E-1,1.4490102E-1,3.4373176E-1,-2.7494056E-2,6.499744E-1,-3.6881518E-2,-1.8528964E-2,1.1608784E-2,-1.5627073E-2,3.2323234E-2,-6.882157E-3,-2.5810225E-2,1.8392796E-2,-4.5990045E-3,8.865849E-3,-3.440325E-2,1.8741246E-2,-1.9873522E-2,3.8616095E-2,2.221051E-2,3.76742E-2],"categories":[],"categories_nodes":[],"categories_segments":[],"categories_sizes":[],"default_left":[0,0,0,0,0,0,0,0,0,0,0,0,0,0,0,0,0,0,0,0,0,0,0,0,0,0,0,0,0,0,0],"id":6,"left_children":[1,3,5,7,9,11,13,15,17,19,21,23,25,27,29,-1,-1,-1,-1,-1,-1,-1,-1,-1,-1,-1,-1,-1,-1,-1,-1],"loss_changes":[2.318516E2,3.3825874E1,4.6968765E1,1.3020561E1,7.053706E0,8.991043E0,7.9560547E0,9.882233E0,8.832119E0,7.59564E0,7.6833706E0,6.4890213E0,1.034523E1,5.8595867E0,6.74028E0,0E0,0E0,0E0,0E0,0E0,0E0,0E0,0E0,0E0,0E0,0E0,0E0,0E0,0E0,0E0,0E0],"parents":[2147483647,0,0,1,1,2,2,3,3,4,4,5,5,6,6,7,7,8,8,9,9,10,10,11,11,12,12,13,13,14,14],"right_children":[2,4,6,8,10,12,14,16,18,20,22,24,26,28,30,-1,-1,-1,-1,-1,-1,-1,-1,-1,-1,-1,-1,-1,-1,-1,-1],"split_conditions":[1.98E0,1.71E0,2.52E0,1.2E0,2.1666667E0,3.25E0,-8.888889E-1,1.2E0,2.857143E-1,5.163978E-1,7.378648E-1,8.333333E-1,5.1754916E-1,1.8408935E0,8.3076924E-1,-3.6881518E-2,-1.8528964E-2,1.1608784E-2,-1.5627073E-2,3.2323234E-2,-6.882157E-3,-2.5810225E-2,1.8392796E-2,-4.5990045E-3,8.865849E-3,-3.440325E-2,1.8741246E-2,-1.9873522E-2,3.8616095E-2,2.221051E-2,3.76742E-2],"split_indices":[17,17,17,13,11,15,26,10,19,28,27,3,28,28,24,0,0,0,0,0,0,0,0,0,0,0,0,0,0,0,0],"split_type":[0,0,0,0,0,0,0,0,0,0,0,0,0,0,0,0,0,0,0,0,0,0,0,0,0,0,0,0,0,0,0],"sum_hessian":[3.4107563E3,1.9008296E3,1.5099268E3,8.5293994E2,1.0478896E3,1.1552311E3,3.546956E2,3.0537802E2,5.475619E2,9.832196E2,6.4670006E1,8.4082947E2,3.1440167E2,1.7891014E1,3.3680457E2,1.3993716E2,1.6544084E2,3.0668144E1,5.168938E2,1.1497673E1,9.717219E2,1.0989491E1,5.368051E1,1.0062018E2,7.402093E2,8.485131E0,3.0591653E2,1.2661961E1,5.229054E0,1.1481807E2,2.2198648E2],"tree_param":{"num_deleted":"0","num_feature":"33","num_nodes":"31","size_leaf_vector":"1"}},{"base_weights":[-6.3903327E-3,2.5731018E-1,-2.0023867E-1,6.0091984E-1,1.7879839E-1,-7.428694E-2,-3.3580336E-1,-4.6432007E-2,6.4573455E-1,1.06798366E-1,3.1358898E-1,-2.0452246E-1,-1.3679869E-2,-2.7754343E-1,-5.052204E-1,-4.143657E-2,4.079607E-2,8.567698E-3,3.511603E-2,5.571951E-4,1.0844019E-2,5.215291E-3,2.165204E-2,-5.862275E-3,-2.8268749E-2,7.985243E-4,-2.3582097E-2,-1.3046279E-2,-4.796832E-2,9.302091E-3,-2.9786173E-2],"categories":[],"categories_nodes":[],"categories_segments":[],"categories_sizes":[],"default_left":[0,0,0,0,0,0,0,0,0,0,0,0,0,0,0,0,0,0,0,0,0,0,0,0,0,0,0,0,0,0,0],"id":7,"left_children":[1,3,5,7,9,11,13,15,17,19,21,23,25,27,29,-1,-1,-1,-1,-1,-1,-1,-1,-1,-1,-1,-1,-1,-1,-1,-1],"loss_changes":[1.7557314E2,3.906658E1,3.3737984E1,7.921669E0,1.1434868E1,8.08913E0,9.186211E0,1.3000786E1,6.5753784E0,8.1362915E0,1.01996E1,1.0127945E1,9.600147E0,7.691231E0,1.5301743E1,0E0,0E0,0E0,0E0,0E0,0E0,0E0,0E0,0E0,0E0,0E0,0E0,0E0,0E0,0E0,0E0],"parents":[2147483647,0,0,1,1,2,2,3,3,4,4,5,5,6,6,7,7,8,8,9,9,10,10,11,11,12,12,13,13,14,14],"right_children":[2,4,6,8,10,12,14,16,18,20,22,24,26,28,30,-1,-1,-1,-1,-1,-1,-1,-1,-1,-1,-1,-1,-1,-1,-1,-1],"split_conditions":[1.89E0,1.52E0,2.19E0,1E-1,3.1666667E0,1.1666666E0,2.54E0,2E0,-6.666667E-1,1.6E0,9.718253E-1,1.1111112E0,5.555556E-1,6.666667E-1,1.6666667E-1,-4.143657E-2,4.079607E-2,8.567698E-3,3.511603E-2,5.571951E-4,1.0844019E-2,5.215291E-3,2.165204E-2,-5.862275E-3,-2.8268749E-2,7.985243E-4,-2.3582097E-2,-1.3046279E-2,-4.796832E-2,9.302091E-3,-2.9786173E-2],"split_indices":[16,16,16,20,15,10,16,11,26,0,27,0,20,20,21,0,0,0,0,0,0,0,0,0,0,0,0,0,0,0,0],"split_type":[0,0,0,0,0,0,0,0,0,0,0,0,0,0,0,0,0,0,0,0,0,0,0,0,0,0,0,0,0,0,0],"sum_hessian":[3.4327737E3,1.4539956E3,1.9787781E3,2.6895908E2,1.1850365E3,1.0269424E3,9.518357E2,1.72671E1,2.5169197E2,7.740843E2,4.1095224E2,3.248544E2,7.02088E2,7.106742E2,2.411615E2,9.135037E0,8.132063E0,2.7440895E1,2.2425108E2,4.152593E2,3.5882498E2,1.5031177E2,2.6064044E2,2.628763E2,6.197808E1,6.6009735E2,4.1990658E1,6.9525824E2,1.541597E1,2.7668541E1,2.1349297E2],"tree_param":{"num_deleted":"0","num_feature":"33","num_nodes":"31","size_leaf_vector":"1"}},{"base_weights":[-6.5086706E-4,2.59834E-1,-1.9972645E-1,4.6286952E-1,1.4804158E-1,-3.386747E-1,-9.084335E-2,-2.4506813E-1,4.9199173E-1,1.0159694E-1,3.6613676E-1,-2.588612E-1,-4.6718037E-1,-1.0995225E-1,3.5984057E-1,-3.4852453E-2,1.1088599E-2,2.7501201E-2,1.0379784E-2,-1.9408021E-2,6.7324075E-3,2.041628E-2,-3.2460663E-2,-1.3753491E-2,2.2022301E-2,-2.4271205E-2,2.2673538E-2,1.4094487E-2,-6.410604E-3,4.5449298E-2,4.7611957E-3],"categories":[],"categories_nodes":[],"categories_segments":[],"categories_sizes":[],"default_left":[0,0,0,0,0,0,0,0,0,0,0,0,0,0,0,0,0,0,0,0,0,0,0,0,0,0,0,0,0,0,0],"id":8,"left_children":[1,3,5,7,9,11,13,15,17,19,21,23,25,27,29,-1,-1,-1,-1,-1,-1,-1,-1,-1,-1,-1,-1,-1,-1,-1,-1],"loss_changes":[1.7777672E2,3.3574707E1,2.9329224E1,1.0999771E1,9.634357E0,8.556061E0,9.413683E0,4.703685E0,8.163734E0,1.285907E1,7.423874E0,6.1002846E0,5.684044E0,7.5189943E0,6.266887E0,0E0,0E0,0E0,0E0,0E0,0E0,0E0,0E0,0E0,0E0,0E0,0E0,0E0,0E0,0E0,0E0],"parents":[2147483647,0,0,1,1,2,2,3,3,4,4,5,5,6,6,7,7,8,8,9,9,10,10,11,11,12,12,13,13,14,14],"right_children":[2,4,6,8,10,12,14,16,18,20,22,24,26,28,30,-1,-1,-1,-1,-1,-1,-1,-1,-1,-1,-1,-1,-1,-1,-1,-1],"split_conditions":[1.9E0,1.62E0,1.71E0,5E-1,1.8333334E0,4E-1,2.3333333E0,5.714286E-1,1.9E0,2.2222222E-1,1.1666666E0,2.75E0,2E0,6.324555E-1,-2.5E-1,-3.4852453E-2,1.1088599E-2,2.7501201E-2,1.0379784E-2,-1.9408021E-2,6.7324075E-3,2.041628E-2,-3.2460663E-2,-1.3753491E-2,2.2022301E-2,-2.4271205E-2,2.2673538E-2,1.4094487E-2,-6.410604E-3,4.5449298E-2,4.7611957E-3],"split_indices":[16,16,17,13,12,21,11,18,1,4,25,13,0,28,25,0,0,0,0,0,0,0,0,0,0,0,0,0,0,0,0],"split_type":[0,0,0,0,0,0,0,0,0,0,0,0,0,0,0,0,0,0,0,0,0,0,0,0,0,0,0,0,0,0,0],"sum_hessian":[3.4263801E3,1.4839133E3,1.9424669E3,5.254908E2,9.5842255E2,8.520795E2,1.0903873E3,2.0334177E1,5.0515662E2,7.91741E2,1.6668152E2,5.2796124E2,3.2411832E2,1.0469739E3,4.341354E1,1.0189798E1,1.0144379E1,4.1847855E2,8.667805E1,4.9182228E1,7.425588E2,1.6070059E2,5.9809346E0,5.1673395E2,1.1227245E1,3.183904E2,5.727904E0,4.5729946E1,1.0012439E3,1.3202358E1,3.0211182E1],"tree_param":{"num_deleted":"0","num_feature":"33","num_nodes":"31","size_leaf_vector":"1"}},{"base_weights":[-5.993138E-3,-1.5000199E-1,3.504603E-1,-3.029327E-1,-1.6898267E-2,5.707921E-1,2.5226024E-1,-3.50314E-1,-1.3074142E-1,-1.4255704E-1,3.9867893E-2,6.113812E-1,4.8066378E-2,1.8016338E-1,4.0216178E-1,-1.4450476E-2,-2.6672697E-2,-4.6470813E-3,-6.052058E-2,-1.0976352E-2,1.1224838E-2,2.505222E-3,-3.202232E-2,2.4871038E-2,3.9895575E-2,2.4075782E-2,-2.1371854E-2,3.0634308E-2,7.256865E-3,4.023033E-3,2.6803467E-2],"categories":[],"categories_nodes":[],"categories_segments":[],"categories_sizes":[],"default_left":[0,0,0,0,0,0,0,0,0,0,0,0,0,0,0,0,0,0,0,0,0,0,0,0,0,0,0,0,0,0,0],"id":9,"left_children":[1,3,5,7,9,11,13,15,17,19,21,23,25,27,29,-1,-1,-1,-1,-1,-1,-1,-1,-1,-1,-1,-1,-1,-1,-1,-1],"loss_changes":[1.753749E2,4.9504707E1,2.1042648E1,9.142876E0,9.30809E0,6.3110275E0,7.24065E0,9.719841E0,9.811242E0,1.1522671E1,6.223601E0,5.423973E0,4.9556365E0,6.8467607E0,9.383049E0,0E0,0E0,0E0,0E0,0E0,0E0,0E0,0E0,0E0,0E0,0E0,0E0,0E0,0E0,0E0,0E0],"parents":[2147483647,0,0,1,1,2,2,3,3,4,4,5,5,6,6,7,7,8,8,9,9,10,10,11,11,12,12,13,13,14,14],"right_children":[2,4,6,8,10,12,14,16,18,20,22,24,26,28,30,-1,-1,-1,-1,-1,-1,-1,-1,-1,-1,-1,-1,-1,-1,-1,-1],"split_conditions":[2.16E0,1.77E0,1.54E0,1.3333334E0,4.2857143E-1,2.7777777E0,3.55E0,1.0909091E0,7E-1,1.6E0,2.5555556E0,1.2583058E0,5.714286E-1,4.2207792E-1,1.6E0,-1.4450476E-2,-2.6672697E-2,-4.6470813E-3,-6.052058E-2,-1.0976352E-2,1.1224838E-2,2.505222E-3,-3.202232E-2,2.4871038E-2,3.9895575E-2,2.4075782E-2,-2.1371854E-2,3.0634308E-2,7.256865E-3,4.023033E-3,2.6803467E-2],"split_indices":[17,17,16,0,19,5,14,22,20,12,6,28,4,24,0,0,0,0,0,0,0,0,0,0,0,0,0,0,0,0,0],"split_type":[0,0,0,0,0,0,0,0,0,0,0,0,0,0,0,0,0,0,0,0,0,0,0,0,0,0,0,0,0,0,0],"sum_hessian":[3.4148196E3,2.4328118E3,9.820077E2,1.1311453E3,1.3016666E3,3.009451E2,6.8106256E2,8.8579016E2,2.4535506E2,4.0512457E2,8.9654205E2,2.789259E2,2.2019207E1,4.618159E2,2.1924667E2,6.659824E2,2.1980772E2,2.3819446E2,7.1606045E0,3.3545508E2,6.966948E1,8.843094E2,1.2232678E1,1.7575276E2,1.0317314E2,1.1622384E1,1.0396824E1,3.3147217E1,4.2866867E2,6.51286E1,1.5411807E2],"tree_param":{"num_deleted":"0","num_feature":"33","num_nodes":"31","size_leaf_vector":"1"}},{"base_weights":[-7.520415E-3,3.235001E-1,-1.4936586E-1,5.425204E-1,2.3804031E-1,-4.3454908E-2,-3.1037155E-1,1.7738279E-2,5.839508E-1,5.435984E-2,3.354785E-1,1.0480612E-1,-8.820938E-2,-2.326801E-1,-4.135187E-1,2.1711394E-2,-4.76701E-2,2.638788E-2,4.7330376E-2,-2.912355E-2,4.4757333E-3,-3.224063E-2,1.7520444E-2,6.5582655E-3,-3.36272E-2,-5.4432936E-3,2.1402646E-2,-8.8440245E-3,-2.3865113E-2,-3.1122763E-2,-1.7254857E-2],"categories":[],"categories_nodes":[],"categories_segments":[],"categories_sizes":[],"default_left":[0,0,0,0,0,0,0,0,0,0,0,0,0,0,0,0,0,0,0,0,0,0,0,0,0,0,0,0,0,0,0],"id":10,"left_children":[1,3,5,7,9,11,13,15,17,19,21,23,25,27,29,-1,-1,-1,-1,-1,-1,-1,-1,-1,-1,-1,-1,-1,-1,-1,-1],"loss_changes":[1.5986327E2,1.8907272E1,4.0600758E1,6.137184E0,1.3127766E1,9.558998E0,7.4148636E0,9.300704E0,4.7415314E0,5.754101E0,7.233551E0,6.871896E0,1.181741E1,7.249052E0,5.468216E0,0E0,0E0,0E0,0E0,0E0,0E0,0E0,0E0,0E0,0E0,0E0,0E0,0E0,0E0,0E0,0E0],"parents":[2147483647,0,0,1,1,2,2,3,3,4,4,5,5,6,6,7,7,8,8,9,9,10,10,11,11,12,12,13,13,14,14],"right_children":[2,4,6,8,10,12,14,16,18,20,22,24,26,28,30,-1,-1,-1,-1,-1,-1,-1,-1,-1,-1,-1,-1,-1,-1,-1,-1],"split_conditions":[1.77E0,1.54E0,2.19E0,7.5E-1,2.6666667E0,1.25E-1,2.42E0,2.25E0,2.1111112E0,1.56E0,8E-1,2.1666667E0,2.4E0,1.4285715E0,8.75E-1,2.1711394E-2,-4.76701E-2,2.638788E-2,4.7330376E-2,-2.912355E-2,4.4757333E-3,-3.224063E-2,1.7520444E-2,6.5582655E-3,-3.36272E-2,-5.4432936E-3,2.1402646E-2,-8.8440245E-3,-2.3865113E-2,-3.1122763E-2,-1.7254857E-2],"split_indices":[16,16,16,13,14,21,16,10,6,16,3,12,11,23,6,0,0,0,0,0,0,0,0,0,0,0,0,0,0,0,0],"split_type":[0,0,0,0,0,0,0,0,0,0,0,0,0,0,0,0,0,0,0,0,0,0,0,0,0,0,0,0,0,0,0],"sum_hessian":[3.4030378E3,1.02021246E3,2.3828254E3,2.8451807E2,7.356944E2,1.438475E3,9.443504E2,2.1099617E1,2.6341846E2,2.5589388E2,4.7980054E2,3.3270978E2,1.1057653E3,5.4105084E2,4.0329956E2,1.5225674E1,5.873943E0,2.3044261E2,3.2975826E1,1.24237585E1,2.4347011E2,6.4645987E0,4.7333594E2,3.2272635E2,9.983429E0,1.064169E3,4.15963E1,4.4229327E2,9.875759E1,9.7132E1,3.0616754E2],"tree_param":{"num_deleted":"0","num_feature":"33","num_nodes":"31","size_leaf_vector":"1"}},{"base_weights":[-1.6671176E-3,-1.6778392E-1,2.539392E-1,-2.8835016E-1,-8.426517E-2,1.7430256E-1,4.714937E-1,-4.9290037E-1,-2.3768194E-1,-9.927403E-2,3.8511682E-1,1.6695689E-1,4.5103252E-2,-2.428395E-1,4.9600434E-1,-2.87059E-2,-6.4951926E-3,-1.5246098E-2,-6.234466E-3,-1.0519514E-2,-2.3381044E-3,-1.3842694E-2,3.027354E-2,5.452892E-2,8.036537E-3,-3.842791E-2,1.3267173E-2,2.281585E-2,4.377065E-2],"categories":[],"categories_nodes":[],"categories_segments":[],"categories_sizes":[],"default_left":[0,0,0,0,0,0,0,0,0,0,0,0,0,0,0,0,0,0,0,0,0,0,0,0,0,0,0,0,0],"id":11,"left_children":[1,3,5,7,9,11,13,15,17,19,21,23,-1,25,27,-1,-1,-1,-1,-1,-1,-1,-1,-1,-1,-1,-1,-1,-1],"loss_changes":[1.4410252E2,2.0654884E1,2.3011353E1,8.526398E0,8.585423E0,4.9836655E0,6.4008636E0,4.7385445E0,5.0579453E0,6.853098E0,5.702146E0,5.2890244E0,0E0,3.5637631E0,4.6753464E0,0E0,0E0,0E0,0E0,0E0,0E0,0E0,0E0,0E0,0E0,0E0,0E0,0E0,0E0],"parents":[2147483647,0,0,1,1,2,2,3,3,4,4,5,5,6,6,7,7,8,8,9,9,10,10,11,11,13,13,14,14],"right_children":[2,4,6,8,10,12,14,16,18,20,22,24,-1,26,28,-1,-1,-1,-1,-1,-1,-1,-1,-1,-1,-1,-1,-1,-1],"split_conditions":[2.04E0,1.71E0,2.52E0,8.888889E-1,2.25E0,3.2E0,-1.0666667E0,1E0,1.0540925E0,1.1666666E0,8E-1,1E-1,4.5103252E-2,1.6363636E0,2.2222223E0,-2.87059E-2,-6.4951926E-3,-1.5246098E-2,-6.234466E-3,-1.0519514E-2,-2.3381044E-3,-1.3842694E-2,3.027354E-2,5.452892E-2,8.036537E-3,-3.842791E-2,1.3267173E-2,2.281585E-2,4.377065E-2],"split_indices":[17,17,17,6,12,11,26,8,27,10,6,9,0,23,6,0,0,0,0,0,0,0,0,0,0,0,0,0,0],"split_type":[0,0,0,0,0,0,0,0,0,0,0,0,0,0,0,0,0,0,0,0,0,0,0,0,0,0,0,0,0],"sum_hessian":[3.3920005E3,2.0563364E3,1.3356641E3,8.400314E2,1.216305E3,9.794086E2,3.5625546E2,1.6464594E2,6.7538544E2,1.1795884E3,3.6716713E1,9.709749E2,8.433725E0,1.1387684E1,3.448678E2,1.338426E2,3.080332E1,4.217973E2,2.5358815E2,3.7698026E2,8.026081E2,8.992352E0,2.7724361E1,5.2278266E0,9.657471E2,5.4421535E0,5.9455304E0,3.1444238E2,3.0425413E1],"tree_param":{"num_deleted":"0","num_feature":"33","num_nodes":"29","size_leaf_vector":"1"}},{"base_weights":[7.1564536E-3,-1.515395E-1,2.3626569E-1,-3.0158505E-1,-7.994223E-2,1.7626818E-1,4.7473034E-1,-4.440957E-2,-3.489309E-1,-9.500367E-2,2.069486E-1,2.406953E-1,6.391492E-2,2.1526077E-1,6.042218E-1,-1.359773E-2,1.5594358E-2,-1.8243778E-2,2.6230505E-2,-4.4504195E-3,-3.8299102E-2,-2.3034079E-2,1.852252E-2,1.0183363E-2,2.8100228E-2,-7.578013E-3,7.904748E-3,1.0176947E-3,2.6694402E-2,4.008048E-2,2.0490572E-2],"categories":[],"categories_nodes":[],"categories_segments":[],"categories_sizes":[],"default_left":[0,0,0,0,0,0,0,0,0,0,0,0,0,0,0,0,0,0,0,0,0,0,0,0,0,0,0,0,0,0,0],"id":12,"left_children":[1,3,5,7,9,11,13,15,17,19,21,23,25,27,29,-1,-1,-1,-1,-1,-1,-1,-1,-1,-1,-1,-1,-1,-1,-1,-1],"loss_changes":[1.2410135E2,2.1596695E1,1.9837143E1,7.865265E0,5.9138308E0,8.047066E0,9.191814E0,8.399365E0,7.8200455E0,5.0738935E0,7.6011534E0,8.251808E0,8.3324995E0,5.83273E0,6.6839294E0,0E0,0E0,0E0,0E0,0E0,0E0,0E0,0E0,0E0,0E0,0E0,0E0,0E0,0E0,0E0,0E0],"parents":[2147483647,0,0,1,1,2,2,3,3,4,4,5,5,6,6,7,7,8,8,9,9,10,10,11,11,12,12,13,13,14,14],"right_children":[2,4,6,8,10,12,14,16,18,20,22,24,26,28,30,-1,-1,-1,-1,-1,-1,-1,-1,-1,-1,-1,-1,-1,-1,-1,-1],"split_conditions":[2.02E0,1.67E0,2.6E0,2E-1,8E-1,8E-1,8.333333E-1,2.35E0,1.7669811E0,2.5555556E0,8.333333E-1,1.7142857E0,1E0,1.8333334E0,1.32E0,-1.359773E-2,1.5594358E-2,-1.8243778E-2,2.6230505E-2,-4.4504195E-3,-3.8299102E-2,-2.3034079E-2,1.852252E-2,1.0183363E-2,2.8100228E-2,-7.578013E-3,7.904748E-3,1.0176947E-3,2.6694402E-2,4.008048E-2,2.0490572E-2],"split_indices":[17,17,17,21,29,9,24,14,28,6,8,5,8,0,24,0,0,0,0,0,0,0,0,0,0,0,0,0,0,0,0],"split_type":[0,0,0,0,0,0,0,0,0,0,0,0,0,0,0,0,0,0,0,0,0,0,0,0,0,0,0,0,0,0,0],"sum_hessian":[3.4110317E3,2.0151263E3,1.3959054E3,6.4945734E2,1.365669E3,1.1170221E3,2.7888333E2,1.01604866E2,5.478525E2,1.2985157E3,6.715321E1,7.0863477E2,4.083873E2,9.3988235E1,1.848951E2,6.232138E1,3.928349E1,5.387161E2,9.136367E0,1.2882864E3,1.0229331E1,1.2732624E1,5.442059E1,6.371536E2,7.148117E1,1.23700645E2,2.8468665E2,5.917074E1,3.4817493E1,8.994E1,9.4955086E1],"tree_param":{"num_deleted":"0","num_feature":"33","num_nodes":"31","size_leaf_vector":"1"}},{"base_weights":[-7.345543E-4,1.7254585E-1,-2.2851442E-1,3.0722827E-1,4.352274E-2,-3.4162828E-1,-1.478383E-1,7.868256E-2,3.687628E-1,-3.1280503E-2,2.2373189E-1,-2.7483487E-1,-5.78692E-1,-3.4812695E-1,-9.125458E-2,-1.02918595E-2,1.1671799E-2,-6.2147677E-3,1.9558927E-2,-4.710429E-3,6.1112526E-3,-7.5323055E-3,1.4026046E-2,-3.565564E-3,-1.8459605E-2,-3.328831E-2,-2.4696796E-3,-2.395908E-2,9.2053984E-4,-1.5769137E-2,-1.4632911E-3],"categories":[],"categories_nodes":[],"categories_segments":[],"categories_sizes":[],"default_left":[0,0,0,0,0,0,0,0,0,0,0,0,0,0,0,0,0,0,0,0,0,0,0,0,0,0,0,0,0,0,0],"id":13,"left_children":[1,3,5,7,9,11,13,15,17,19,21,23,25,27,29,-1,-1,-1,-1,-1,-1,-1,-1,-1,-1,-1,-1,-1,-1,-1,-1],"loss_changes":[1.3526372E2,3.3767975E1,1.3414177E1,1.3308853E1,1.3445003E1,9.497009E0,9.746E0,9.00993E0,8.354698E0,6.808552E0,6.2741528E0,9.189911E0,6.071457E0,9.189451E0,9.368853E0,0E0,0E0,0E0,0E0,0E0,0E0,0E0,0E0,0E0,0E0,0E0,0E0,0E0,0E0,0E0,0E0],"parents":[2147483647,0,0,1,1,2,2,3,3,4,4,5,5,6,6,7,7,8,8,9,9,10,10,11,11,12,12,13,13,14,14],"right_children":[2,4,6,8,10,12,14,16,18,20,22,24,26,28,30,-1,-1,-1,-1,-1,-1,-1,-1,-1,-1,-1,-1,-1,-1,-1,-1],"split_conditions":[2.04E0,1.75E0,1.2E0,2.4666667E0,1.6E0,2.53E0,-3.809524E-1,2.29E0,5E-1,9E-1,4E-1,6.666667E-1,5.714286E-1,5.555556E-1,3.3333334E-1,-1.02918595E-2,1.1671799E-2,-6.2147677E-3,1.9558927E-2,-4.710429E-3,6.1112526E-3,-7.5323055E-3,1.4026046E-2,-3.565564E-3,-1.8459605E-2,-3.328831E-2,-2.4696796E-3,-2.395908E-2,9.2053984E-4,-1.5769137E-2,-1.4632911E-3],"split_indices":[16,16,10,14,11,16,26,17,13,7,30,10,4,30,29,0,0,0,0,0,0,0,0,0,0,0,0,0,0,0,0],"split_type":[0,0,0,0,0,0,0,0,0,0,0,0,0,0,0,0,0,0,0,0,0,0,0,0,0,0,0,0,0,0,0],"sum_hessian":[3.4248784E3,1.9450283E3,1.4798501E3,9.5058826E2,9.9444E2,6.142093E2,8.656408E2,2.0247575E2,7.4811255E2,7.0293097E2,2.91509E2,4.8120847E2,1.3300081E2,1.8915866E2,6.764821E2,7.098711E1,1.3148865E2,3.214057E1,7.15972E2,4.9928983E2,2.0364116E2,3.7945045E1,2.5356396E2,1.5332027E2,3.278882E2,1.13828316E2,1.917249E1,1.3931311E2,4.9845547E1,1.4532832E2,5.311538E2],"tree_param":{"num_deleted":"0","num_feature":"33","num_nodes":"31","size_leaf_vector":"1"}},{"base_weights":[-5.6788824E-3,1.3559592E-1,-2.4168447E-1,3.6111754E-1,6.39607E-2,-4.3346092E-1,-1.9754234E-1,-9.37612E-2,3.98716E-1,2.7711628E-2,2.126081E-1,-1.1366206E0,-3.6521506E-1,-2.0762819E-1,5.384379E-1,-1.4621786E-2,4.189755E-2,-8.9786615E-4,2.1440605E-2,3.4700253E-3,-4.7076577E-3,4.499053E-3,2.2990715E-2,-3.4746844E-2,-6.666693E-2,-9.277565E-3,-2.9736573E-2,-1.4541352E-2,-7.2076507E-3,4.4023503E-2,9.557004E-3],"categories":[],"categories_nodes":[],"categories_segments":[],"categories_sizes":[],"default_left":[0,0,0,0,0,0,0,0,0,0,0,0,0,0,0,0,0,0,0,0,0,0,0,0,0,0,0,0,0,0,0],"id":14,"left_children":[1,3,5,7,9,11,13,15,17,19,21,23,25,27,29,-1,-1,-1,-1,-1,-1,-1,-1,-1,-1,-1,-1,-1,-1,-1,-1],"loss_changes":[1.13593414E2,3.435747E1,1.0652222E1,8.843437E0,8.691917E0,1.0830235E1,7.794338E0,7.5540857E0,5.9969788E0,6.62386E0,9.502545E0,6.4356613E-1,8.80357E0,5.334152E0,1.4108367E0,0E0,0E0,0E0,0E0,0E0,0E0,0E0,0E0,0E0,0E0,0E0,0E0,0E0,0E0,0E0,0E0],"parents":[2147483647,0,0,1,1,2,2,3,3,4,4,5,5,6,6,7,7,8,8,9,9,10,10,11,11,12,12,13,13,14,14],"right_children":[2,4,6,8,10,12,14,16,18,20,22,24,26,28,30,-1,-1,-1,-1,-1,-1,-1,-1,-1,-1,-1,-1,-1,-1,-1,-1],"split_conditions":[2.09E0,1.62E0,9E-1,7.1428573E-1,3.6E0,2.2222222E-1,1.7763883E0,1.7919574E0,7.888106E-1,4E-1,2.21E0,4.2857143E-1,2.4E0,1.2E0,-9.52381E-2,-1.4621786E-2,4.189755E-2,-8.9786615E-4,2.1440605E-2,3.4700253E-3,-4.7076577E-3,4.499053E-3,2.2990715E-2,-3.4746844E-2,-6.666693E-2,-9.277565E-3,-2.9736573E-2,-1.4541352E-2,-7.2076507E-3,4.4023503E-2,9.557004E-3],"split_indices":[16,16,6,6,14,18,27,28,27,21,17,2,16,10,26,0,0,0,0,0,0,0,0,0,0,0,0,0,0,0,0],"split_type":[0,0,0,0,0,0,0,0,0,0,0,0,0,0,0,0,0,0,0,0,0,0,0,0,0,0,0,0,0,0,0],"sum_hessian":[3.4046523E3,2.129762E3,1.2748905E3,5.121082E2,1.6176537E3,2.3646744E2,1.0384231E3,3.8780087E1,4.7332812E2,1.3020063E3,3.1564737E2,1.940555E1,2.1706189E2,1.0252272E3,1.3195919E1,3.261818E1,6.1619067E0,3.1688536E1,4.416396E2,9.7106464E2,3.3094168E2,2.1216907E2,1.0347831E2,7.5329933E0,1.1872558E1,1.23012634E2,9.404925E1,4.4144916E2,5.8377795E2,5.7298274E0,7.4660916E0],"tree_param":{"num_deleted":"0","num_feature":"33","num_nodes":"31","size_leaf_vector":"1"}},{"base_weights":[-2.6842768E-3,-1.3460681E-1,2.6074636E-1,-6.9348715E-2,-3.0707425E-1,4.5195085E-1,2.088667E-1,-9.3652025E-2,2.2325385E-1,3.4842886E-2,-3.5152543E-1,2.9156622E-1,5.917279E-1,3.5314512E-1,1.4791465E-1,-9.525884E-3,-1.1916992E-3,-1.7180873E-2,1.46004725E-2,-3.0920044E-2,8.995767E-3,-2.9026255E-2,-1.4308211E-2,3.2922693E-2,7.0122234E-3,4.2363834E-2,1.52986795E-2,2.2313867E-2,5.7334494E-4,-1.03271E-2,8.997458E-3],"categories":[],"categories_nodes":[],"categories_segments":[],"categories_sizes":[],"default_left":[0,0,0,0,0,0,0,0,0,0,0,0,0,0,0,0,0,0,0,0,0,0,0,0,0,0,0,0,0,0,0],"id":15,"left_children":[1,3,5,7,9,11,13,15,17,19,21,23,25,27,29,-1,-1,-1,-1,-1,-1,-1,-1,-1,-1,-1,-1,-1,-1,-1,-1],"loss_changes":[1.1816835E2,2.5446388E1,1.1093224E1,1.1711458E1,9.487881E0,5.1386566E0,7.765133E0,1.0257722E1,5.0136647E0,6.903836E0,7.982895E0,6.1826143E0,8.928055E0,8.365585E0,7.2010317E0,0E0,0E0,0E0,0E0,0E0,0E0,0E0,0E0,0E0,0E0,0E0,0E0,0E0,0E0,0E0,0E0],"parents":[2147483647,0,0,1,1,2,2,3,3,4,4,5,5,6,6,7,7,8,8,9,9,10,10,11,11,12,12,13,13,14,14],"right_children":[2,4,6,8,10,12,14,16,18,20,22,24,26,28,30,-1,-1,-1,-1,-1,-1,-1,-1,-1,-1,-1,-1,-1,-1,-1,-1],"split_conditions":[2.1E0,2.31E0,1.51E0,7.1428573E-1,-5.555556E-1,9E-1,1.1111112E0,5E-1,3E-1,2.2222222E-1,8.75E-1,9E-1,1.4E0,5.3333336E-1,9E-1,-9.525884E-3,-1.1916992E-3,-1.7180873E-2,1.46004725E-2,-3.0920044E-2,8.995767E-3,-2.9026255E-2,-1.4308211E-2,3.2922693E-2,7.0122234E-3,4.2363834E-2,1.52986795E-2,2.2313867E-2,5.7334494E-4,-1.03271E-2,8.997458E-3],"split_indices":[17,16,16,19,25,2,1,29,29,30,6,22,1,25,3,0,0,0,0,0,0,0,0,0,0,0,0,0,0,0,0],"split_type":[0,0,0,0,0,0,0,0,0,0,0,0,0,0,0,0,0,0,0,0,0,0,0,0,0,0,0,0,0,0,0],"sum_hessian":[3.3986426E3,2.265153E3,1.1334896E3,1.6447832E3,6.203698E2,2.3985516E2,8.936345E2,1.5195891E3,1.2519403E2,7.1138794E1,5.49231E2,1.1346415E2,1.2639101E2,2.6349234E2,6.3014215E2,6.351793E2,8.844098E2,1.29524555E1,1.1224158E2,1.2209384E1,5.892941E1,1.1986387E2,4.293672E2,3.1960949E1,8.1503204E1,6.5499825E1,6.0891182E1,2.0658427E2,5.6908066E1,5.15194E1,5.7862274E2],"tree_param":{"num_deleted":"0","num_feature":"33","num_nodes":"31","size_leaf_vector":"1"}},{"base_weights":[1.6461902E-3,-1.313161E-1,2.0180967E-1,-3.3892193E-1,-8.835175E-2,1.2631494E-1,3.2669264E-1,-3.6517113E-1,2.5944012E-1,-9.892273E-2,3.3229482E-1,7.805539E-2,3.517037E-1,-2.5548607E-1,3.5097453E-1,1.8910857E-2,-1.9202871E-2,-5.586417E-3,3.606161E-2,-2.379766E-3,-9.463025E-3,-1.1716164E-2,2.7270814E-2,4.414307E-2,3.2470447E-3,2.3189666E-2,-9.107131E-3,-3.4796428E-2,1.2254449E-2,1.4208856E-2,2.7122391E-2],"categories":[],"categories_nodes":[],"categories_segments":[],"categories_sizes":[],"default_left":[0,0,0,0,0,0,0,0,0,0,0,0,0,0,0,0,0,0,0,0,0,0,0,0,0,0,0,0,0,0,0],"id":16,"left_children":[1,3,5,7,9,11,13,15,17,19,21,23,25,27,29,-1,-1,-1,-1,-1,-1,-1,-1,-1,-1,-1,-1,-1,-1,-1,-1],"loss_changes":[8.989028E1,1.8025188E1,1.2625061E1,5.5578537E0,7.4925146E0,9.092828E0,7.264286E0,4.8230476E0,2.7148914E0,7.5836506E0,5.1403217E0,7.1887712E0,8.9637985E0,4.7811346E0,5.9937363E0,0E0,0E0,0E0,0E0,0E0,0E0,0E0,0E0,0E0,0E0,0E0,0E0,0E0,0E0,0E0,0E0],"parents":[2147483647,0,0,1,1,2,2,3,3,4,4,5,5,6,6,7,7,8,8,9,9,10,10,11,11,12,12,13,13,14,14],"right_children":[2,4,6,8,10,12,14,16,18,20,22,24,26,28,30,-1,-1,-1,-1,-1,-1,-1,-1,-1,-1,-1,-1,-1,-1,-1,-1],"split_conditions":[2.03E0,1.59E0,2.4E0,7.1428573E-1,3E0,1.8333334E0,5E-1,3.3333334E-1,2.8333333E0,1.4285715E-1,4.2857143E-1,2.8070176E-1,2.5E0,5.555556E-1,2.88E0,1.8910857E-2,-1.9202871E-2,-5.586417E-3,3.606161E-2,-2.379766E-3,-9.463025E-3,-1.1716164E-2,2.7270814E-2,4.414307E-2,3.2470447E-3,2.3189666E-2,-9.107131E-3,-3.4796428E-2,1.2254449E-2,1.4208856E-2,2.7122391E-2],"split_indices":[17,17,17,18,22,12,13,23,15,25,29,24,23,29,17,0,0,0,0,0,0,0,0,0,0,0,0,0,0,0,0],"split_type":[0,0,0,0,0,0,0,0,0,0,0,0,0,0,0,0,0,0,0,0,0,0,0,0,0,0,0,0,0,0,0],"sum_hessian":[3.375271E3,2.0279874E3,1.3472836E3,3.4615128E2,1.6818362E3,8.414308E2,5.058528E2,3.3213776E2,1.4013532E1,1.6415852E3,4.0251003E1,6.945137E2,1.4691713E2,1.9707548E1,4.8614526E2,7.626542E0,3.245112E2,8.069292E0,5.9442396E0,1.0484939E3,5.930913E2,1.0846123E1,2.940488E1,9.950171E0,6.845635E2,1.2168579E2,2.523134E1,1.0382116E1,9.325432E0,3.6264078E2,1.23504486E2],"tree_param":{"num_deleted":"0","num_feature":"33","num_nodes":"31","size_leaf_vector":"1"}},{"base_weights":[5.380504E-3,2.2758676E-1,-9.520492E-2,1.20375276E-1,3.0509198E-1,-2.0456031E-1,-3.1848304E-2,3.1137437E-1,1.4018636E-2,1.7906106E-1,4.1986194E-1,-6.005796E-1,-1.5922205E-1,-9.718877E-2,1.0221513E-1,5.1074815E-3,2.8132288E-2,6.1609954E-2,-1.0698678E-3,-1.6671732E-2,1.16313845E-2,2.3370035E-2,5.174655E-3,-4.22079E-2,-1.1171502E-2,-3.729719E-3,-1.5523754E-2,4.8113924E-2,-5.4083387E-3,7.3749097E-3,-2.0086192E-2],"categories":[],"categories_nodes":[],"categories_segments":[],"categories_sizes":[],"default_left":[0,0,0,0,0,0,0,0,0,0,0,0,0,0,0,0,0,0,0,0,0,0,0,0,0,0,0,0,0,0,0],"id":17,"left_children":[1,3,5,7,9,11,13,15,17,19,21,23,25,27,29,-1,-1,-1,-1,-1,-1,-1,-1,-1,-1,-1,-1,-1,-1,-1,-1],"loss_changes":[7.543611E1,8.660942E0,1.6062473E1,8.973053E0,8.678261E0,1.5113068E1,1.2907526E1,8.195988E0,1.2498291E1,8.099165E0,4.6732864E0,7.684122E0,9.73591E0,1.1544313E1,1.104371E1,0E0,0E0,0E0,0E0,0E0,0E0,0E0,0E0,0E0,0E0,0E0,0E0,0E0,0E0,0E0,0E0],"parents":[2147483647,0,0,1,1,2,2,3,3,4,4,5,5,6,6,7,7,8,8,9,9,10,10,11,11,12,12,13,13,14,14],"right_children":[2,4,6,8,10,12,14,16,18,20,22,24,26,28,30,-1,-1,-1,-1,-1,-1,-1,-1,-1,-1,-1,-1,-1,-1,-1,-1],"split_conditions":[1.78E0,2.34E0,1.2E0,-2.2222222E-1,1.6E0,1.52E0,2.9642856E0,2.857143E-1,2E-1,-7.6666665E-1,2.8E0,3.75E-1,1.4285715E-1,7E-1,1.8333334E0,5.1074815E-3,2.8132288E-2,6.1609954E-2,-1.0698678E-3,-1.6671732E-2,1.16313845E-2,2.3370035E-2,5.174655E-3,-4.22079E-2,-1.1171502E-2,-3.729719E-3,-1.5523754E-2,4.8113924E-2,-5.4083387E-3,7.3749097E-3,-2.0086192E-2],"split_indices":[16,17,10,26,13,17,15,20,9,26,13,20,25,3,0,0,0,0,0,0,0,0,0,0,0,0,0,0,0,0,0],"split_type":[0,0,0,0,0,0,0,0,0,0,0,0,0,0,0,0,0,0,0,0,0,0,0,0,0,0,0,0,0,0,0],"sum_hessian":[3.3725486E3,1.0508395E3,2.3217092E3,4.4253397E2,6.083054E2,8.5028503E2,1.4714242E3,1.5725746E2,2.8527652E2,2.915646E2,3.1674084E2,8.586056E1,7.6442444E2,9.899559E2,4.8146838E2,8.679275E1,7.046472E1,7.184582E0,2.7809192E2,2.691977E1,2.6464484E2,2.7467386E2,4.206698E1,5.1254765E1,3.4605793E1,4.9155087E2,2.728736E2,9.170423E0,9.8078546E2,4.4260263E2,3.8865738E1],"tree_param":{"num_deleted":"0","num_feature":"33","num_nodes":"31","size_leaf_vector":"1"}},{"base_weights":[6.536864E-3,-1.0426967E-1,2.061893E-1,-4.5625065E-2,-2.5056154E-1,3.812752E-1,1.5064208E-1,-4.0562823E-2,-4.421022E-2,-4.0289006E-1,-1.5344864E-1,1.7589116E-1,4.9015495E-1,1.4232264E-1,4.620328E-2,-2.6630713E-3,1.8384213E-2,-3.254581E-2,-1.6344346E-2,1.2625572E-2,-9.829012E-3,9.025987E-4,4.022288E-2,2.862214E-2,1.4243206E-3,9.397103E-3,-2.2321763E-3],"categories":[],"categories_nodes":[],"categories_segments":[],"categories_sizes":[],"default_left":[0,0,0,0,0,0,0,0,0,0,0,0,0,0,0,0,0,0,0,0,0,0,0,0,0,0,0],"id":18,"left_children":[1,3,5,7,9,11,13,15,-1,17,19,21,23,25,-1,-1,-1,-1,-1,-1,-1,-1,-1,-1,-1,-1,-1],"loss_changes":[7.544554E1,1.8769327E1,1.1728519E1,6.523035E0,9.153484E0,6.379223E0,5.721592E0,8.068206E0,0E0,4.2697144E0,6.7806206E0,1.0130001E1,7.142502E0,7.8498535E0,0E0,0E0,0E0,0E0,0E0,0E0,0E0,0E0,0E0,0E0,0E0,0E0,0E0],"parents":[2147483647,0,0,1,1,2,2,3,3,4,4,5,5,6,6,7,7,9,9,10,10,11,11,12,12,13,13],"right_children":[2,4,6,8,10,12,14,16,-1,18,20,22,24,26,-1,-1,-1,-1,-1,-1,-1,-1,-1,-1,-1,-1,-1],"split_conditions":[2.07E0,2.3E0,1.54E0,3.3333333E0,3.3333334E-1,8.333333E-1,5.8E0,2.8E0,-4.421022E-2,5.4545456E-1,2.2222222E-1,5.714286E-1,2.3636363E0,1E0,4.620328E-2,-2.6630713E-3,1.8384213E-2,-3.254581E-2,-1.6344346E-2,1.2625572E-2,-9.829012E-3,9.025987E-4,4.022288E-2,2.862214E-2,1.4243206E-3,9.397103E-3,-2.2321763E-3],"split_indices":[17,16,16,13,30,24,14,13,0,23,9,25,22,9,0,0,0,0,0,0,0,0,0,0,0,0,0],"split_type":[0,0,0,0,0,0,0,0,0,0,0,0,0,0,0,0,0,0,0,0,0,0,0,0,0,0,0],"sum_hessian":[3.4078755E3,2.1915488E3,1.2163265E3,1.5658398E3,6.2570905E2,2.911023E2,9.2522424E2,1.5576047E3,8.235151E0,2.419752E2,3.8373386E2,1.0207959E2,1.890227E2,9.166772E2,8.547057E0,1.5116975E3,4.5907143E1,5.467395E1,1.8730125E2,3.61656E1,3.4756824E2,8.2540634E1,1.9538952E1,1.6004053E2,2.8982172E1,7.3730554E2,1.7937164E2],"tree_param":{"num_deleted":"0","num_feature":"33","num_nodes":"27","size_leaf_vector":"1"}},{"base_weights":[9.68892E-3,2.2199947E-1,-8.296374E-2,3.955809E-1,1.54315E-1,-3.3131637E-2,-2.1690981E-1,-3.0891123E-1,4.2627108E-1,-3.785032E-2,2.1975495E-1,-4.3186676E-2,3.9892733E-1,-3.6065164E-1,-1.2494372E-1,4.983595E-3,-3.3557918E-2,-1.7641484E-3,2.2908654E-2,-7.864227E-3,1.7111136E-2,-3.2796353E-2,1.1834459E-2,-1.34122595E-2,-1.2647066E-3,2.9684309E-2,-1.2092722E-2,5.366126E-3,-2.0448875E-2,-9.845143E-3,7.8439E-3],"categories":[],"categories_nodes":[],"categories_segments":[],"categories_sizes":[],"default_left":[0,0,0,0,0,0,0,0,0,0,0,0,0,0,0,0,0,0,0,0,0,0,0,0,0,0,0,0,0,0,0],"id":19,"left_children":[1,3,5,7,9,11,13,15,17,19,21,23,25,27,29,-1,-1,-1,-1,-1,-1,-1,-1,-1,-1,-1,-1,-1,-1,-1,-1],"loss_changes":[6.665662E1,1.1980442E1,1.5709091E1,6.3656693E0,9.367533E0,7.4564476E0,8.350121E0,1.9678526E0,4.127281E0,8.62209E0,8.338182E0,6.73934E0,5.0462093E0,5.688572E0,7.973912E0,0E0,0E0,0E0,0E0,0E0,0E0,0E0,0E0,0E0,0E0,0E0,0E0,0E0,0E0,0E0,0E0],"parents":[2147483647,0,0,1,1,2,2,3,3,4,4,5,5,6,6,7,7,8,8,9,9,10,10,11,11,12,12,13,13,14,14],"right_children":[2,4,6,8,10,12,14,16,18,20,22,24,26,28,30,-1,-1,-1,-1,-1,-1,-1,-1,-1,-1,-1,-1,-1,-1,-1,-1],"split_conditions":[1.77E0,1.54E0,2.3E0,5E-1,4.2857143E-1,2.6E0,3.3333334E-1,1.5E0,3.3333334E-1,3.05E0,7.1428573E-1,2.5E-1,6.25E-1,7.5E-1,1.2692956E0,4.983595E-3,-3.3557918E-2,-1.7641484E-3,2.2908654E-2,-7.864227E-3,1.7111136E-2,-3.2796353E-2,1.1834459E-2,-1.34122595E-2,-1.2647066E-3,2.9684309E-2,-1.2092722E-2,5.366126E-3,-2.0448875E-2,-9.845143E-3,7.8439E-3],"split_indices":[16,16,16,13,19,11,30,10,30,15,3,29,19,3,28,0,0,0,0,0,0,0,0,0,0,0,0,0,0,0,0],"split_type":[0,0,0,0,0,0,0,0,0,0,0,0,0,0,0,0,0,0,0,0,0,0,0,0,0,0,0,0,0,0,0],"sum_hessian":[3.3859058E3,1.0285957E3,2.35731E3,2.8678757E2,7.418081E2,1.7195702E3,6.377398E2,1.1457485E1,2.7533008E2,1.8816182E2,5.536463E2,1.6815676E3,3.8002583E1,2.4726257E2,3.9047723E2,5.595287E0,5.862199E0,1.759063E1,2.5773944E2,1.4381778E2,4.4344044E1,9.675584E0,5.439707E2,1.2239983E2,1.5591678E3,2.9320488E1,8.682096E0,2.2835894E1,2.2442668E2,3.1157672E2,7.89005E1],"tree_param":{"num_deleted":"0","num_feature":"33","num_nodes":"31","size_leaf_vector":"1"}},{"base_weights":[-2.843337E-4,1.3112187E-1,-1.2409888E-1,7.72505E-2,3.3401442E-1,-3.0069268E-1,-8.871339E-2,3.506819E-2,2.0775908E-1,-1.0963693E-2,3.7690496E-1,-9.504109E-1,-2.4340023E-1,6.042122E-2,-1.2445039E-1,1.8202117E-2,5.9415627E-4,-1.0388854E-2,1.38867E-2,3.9493456E-2,-8.561211E-3,2.3810258E-2,9.777695E-3,-5.8497425E-2,-2.2021255E-2,-2.0946013E-2,-4.700314E-3,-1.425356E-3,1.5136368E-2,-9.781234E-3,-1.2422156E-3],"categories":[],"categories_nodes":[],"categories_segments":[],"categories_sizes":[],"default_left":[0,0,0,0,0,0,0,0,0,0,0,0,0,0,0,0,0,0,0,0,0,0,0,0,0,0,0,0,0,0,0],"id":20,"left_children":[1,3,5,7,9,11,13,15,17,19,21,23,25,27,29,-1,-1,-1,-1,-1,-1,-1,-1,-1,-1,-1,-1,-1,-1,-1,-1],"loss_changes":[5.4975395E1,1.784584E1,1.0808264E1,7.1069236E0,5.118141E0,1.0428944E1,7.7501326E0,7.446083E0,9.251741E0,5.035073E0,5.3411026E0,1.8966751E0,6.9264517E0,6.085124E0,8.280594E0,0E0,0E0,0E0,0E0,0E0,0E0,0E0,0E0,0E0,0E0,0E0,0E0,0E0,0E0,0E0,0E0],"parents":[2147483647,0,0,1,1,2,2,3,3,4,4,5,5,6,6,7,7,8,8,9,9,10,10,11,11,12,12,13,13,14,14],"right_children":[2,4,6,8,10,12,14,16,18,20,22,24,26,28,30,-1,-1,-1,-1,-1,-1,-1,-1,-1,-1,-1,-1,-1,-1,-1,-1],"split_conditions":[1.95E0,2.52E0,8.888889E-1,3.4166667E0,8.333333E-1,2.2222222E-1,5.714286E-1,4E-1,4.2857143E-1,9.910312E-1,6.25E-1,5.555556E-1,1.0540925E0,1.1333333E0,5.555556E-1,1.8202117E-2,5.9415627E-4,-1.0388854E-2,1.38867E-2,3.9493456E-2,-8.561211E-3,2.3810258E-2,9.777695E-3,-5.8497425E-2,-2.2021255E-2,-2.0946013E-2,-4.700314E-3,-1.425356E-3,1.5136368E-2,-9.781234E-3,-1.2422156E-3],"split_indices":[16,17,6,14,6,18,31,24,9,28,18,21,28,23,19,0,0,0,0,0,0,0,0,0,0,0,0,0,0,0,0],"split_type":[0,0,0,0,0,0,0,0,0,0,0,0,0,0,0,0,0,0,0,0,0,0,0,0,0,0,0,0,0,0,0],"sum_hessian":[3.3769856E3,1.6378473E3,1.7391383E3,1.2956927E3,3.4215454E2,2.8858932E2,1.450549E3,9.8073846E2,3.149543E2,3.765997E1,3.0449457E2,2.1981094E1,2.6660825E2,2.7972705E2,1.1708219E3,6.33169E1,9.174216E2,4.49034E1,2.700509E2,5.520585E0,3.213938E1,1.9535123E2,1.0914336E2,1.4324536E1,7.656558E0,1.21447945E2,1.451603E2,2.0497073E2,7.47563E1,6.817234E2,4.890985E2],"tree_param":{"num_deleted":"0","num_feature":"33","num_nodes":"31","size_leaf_vector":"1"}},{"base_weights":[1.23788E-2,1.4712407E-1,-1.0836468E-1,2.826425E-1,8.34413E-2,5.185736E-2,-1.4688468E-1,3.9861035E-1,1.48643E-1,-1.581679E-1,1.14427194E-1,2.6584902E-1,-5.264615E-2,-1.3964401E-1,-5.324611E-2,-1.7959388E-2,2.1405358E-2,4.61718E-3,3.747371E-2,-3.1320546E-2,-2.6147633E-3,8.868666E-3,1.2349673E-4,1.6118294E-2,-3.726523E-2,-2.318432E-2,5.9826556E-4,-1.598323E-2,-5.283334E-3],"categories":[],"categories_nodes":[],"categories_segments":[],"categories_sizes":[],"default_left":[0,0,0,0,0,0,0,0,0,0,0,0,0,0,0,0,0,0,0,0,0,0,0,0,0,0,0,0,0],"id":21,"left_children":[1,3,5,7,9,11,13,15,17,19,21,23,25,27,-1,-1,-1,-1,-1,-1,-1,-1,-1,-1,-1,-1,-1,-1,-1],"loss_changes":[5.475763E1,1.366901E1,1.0969431E1,7.7747803E0,8.130411E0,7.732276E0,9.245655E0,6.221405E0,7.8807755E0,6.011448E0,6.760268E0,6.67914E0,6.206119E0,8.618216E0,0E0,0E0,0E0,0E0,0E0,0E0,0E0,0E0,0E0,0E0,0E0,0E0,0E0,0E0,0E0],"parents":[2147483647,0,0,1,1,2,2,3,3,4,4,5,5,6,6,7,7,8,8,9,9,10,10,11,11,12,12,13,13],"right_children":[2,4,6,8,10,12,14,16,18,20,22,24,26,28,-1,-1,-1,-1,-1,-1,-1,-1,-1,-1,-1,-1,-1,-1,-1],"split_conditions":[1.94E0,1.62E0,1.6666667E-1,2.5E-1,4E-1,1.6E0,2.2E0,6.992059E-1,5.555556E-1,2E0,8E-1,2.3333333E0,5.714286E-1,1.56E0,-5.324611E-2,-1.7959388E-2,2.1405358E-2,4.61718E-3,3.747371E-2,-3.1320546E-2,-2.6147633E-3,8.868666E-3,1.2349673E-4,1.6118294E-2,-3.726523E-2,-2.318432E-2,5.9826556E-4,-1.598323E-2,-5.283334E-3],"split_indices":[16,16,21,21,19,6,6,27,20,17,9,23,2,17,0,0,0,0,0,0,0,0,0,0,0,0,0,0,0],"split_type":[0,0,0,0,0,0,0,0,0,0,0,0,0,0,0,0,0,0,0,0,0,0,0,0,0,0,0,0,0],"sum_hessian":[3.36342E3,1.5898339E3,1.7735862E3,5.066538E2,1.08318E3,3.4318457E2,1.4304016E3,2.701423E2,2.365115E2,1.22291695E2,9.608883E2,1.12411896E2,2.3077269E2,1.4204594E3,9.942291E0,9.575376E0,2.6056693E2,2.174555E2,1.9056002E1,2.1470943E1,1.0082075E2,6.141277E2,3.4676065E2,1.07200195E2,5.2117E0,3.0718876E1,2.0005382E2,2.2372997E2,1.1967294E3],"tree_param":{"num_deleted":"0","num_feature":"33","num_nodes":"29","size_leaf_vector":"1"}},{"base_weights":[-2.0419701E-3,1.2171135E-1,-1.361995E-1,4.5995048E-1,9.3129225E-2,-3.0615476E-1,-9.856696E-2,-2.1685844E-2,5.1663375E-1,1.5002604E-1,2.4625234E-2,8.054054E-2,-3.5998178E-1,-1.1159196E-1,4.6815565E-1,4.3136988E-2,1.9408157E-2,6.734212E-3,3.0134404E-2,-5.5773812E-3,5.099773E-3,1.5045993E-2,-3.2318365E-2,-3.030518E-2,-1.2666943E-2,8.531738E-3,-6.6281715E-3,4.6700243E-2,9.001608E-3],"categories":[],"categories_nodes":[],"categories_segments":[],"categories_sizes":[],"default_left":[0,0,0,0,0,0,0,0,0,0,0,0,0,0,0,0,0,0,0,0,0,0,0,0,0,0,0,0,0],"id":22,"left_children":[1,3,5,7,9,11,13,-1,15,17,19,21,23,25,27,-1,-1,-1,-1,-1,-1,-1,-1,-1,-1,-1,-1,-1,-1],"loss_changes":[5.5799683E1,1.6799192E1,1.0245951E1,7.104452E0,6.26643E0,6.1235523E0,9.779115E0,0E0,5.237343E0,5.9581203E0,7.742813E0,5.9595547E0,6.4864807E0,7.676567E0,3.7113276E0,0E0,0E0,0E0,0E0,0E0,0E0,0E0,0E0,0E0,0E0,0E0,0E0,0E0,0E0],"parents":[2147483647,0,0,1,1,2,2,3,3,4,4,5,5,6,6,8,8,9,9,10,10,11,11,12,12,13,13,14,14],"right_children":[2,4,6,8,10,12,14,-1,16,18,20,22,24,26,28,-1,-1,-1,-1,-1,-1,-1,-1,-1,-1,-1,-1,-1,-1],"split_conditions":[1.99E0,1.45E0,1.57E0,1E-1,1.77E0,2E-1,2.857143E0,-2.1685844E-2,9.486833E-1,2.4285715E0,9.718253E-1,3.3333334E-1,3.75E-1,1.6E0,2.1E0,4.3136988E-2,1.9408157E-2,6.734212E-3,3.0134404E-2,-5.5773812E-3,5.099773E-3,1.5045993E-2,-3.2318365E-2,-3.030518E-2,-1.2666943E-2,8.531738E-3,-6.6281715E-3,4.6700243E-2,9.001608E-3],"split_indices":[16,16,17,20,16,21,22,0,28,1,27,26,18,17,16,0,0,0,0,0,0,0,0,0,0,0,0,0,0],"split_type":[0,0,0,0,0,0,0,0,0,0,0,0,0,0,0,0,0,0,0,0,0,0,0,0,0,0,0,0,0],"sum_hessian":[3.358847E3,1.7468325E3,1.6120144E3,1.3466183E2,1.6121707E3,2.9045874E2,1.3215557E3,7.5298977E0,1.27131935E2,8.792495E2,7.3292114E2,3.5203243E1,2.5525551E2,1.2928221E3,2.8733425E1,3.2657425E1,9.447451E1,8.5189514E2,2.7354342E1,2.649212E2,4.6799994E2,2.7568726E1,7.6345162E0,7.546596E1,1.7978955E2,8.859787E1,1.2042244E3,9.990935E0,1.8742489E1],"tree_param":{"num_deleted":"0","num_feature":"33","num_nodes":"29","size_leaf_vector":"1"}},{"base_weights":[1.11015355E-2,1.2665227E-1,-1.1302425E-1,3.7519727E-2,1.836204E-1,-1.062693E-1,-1.0136206E0,-1.4984936E-2,2.9775208E-1,1.9986966E-1,-4.7140568E-1,-1.3231614E-1,7.7591E-2,-2.748624E-2,-6.37845E-2,-8.495274E-3,4.8406105E-3,6.4063035E-2,1.024174E-2,1.0341685E-2,-4.2872883E-2,-1.1830047E-2,-5.8300853E-2,6.2426836E-3,-7.6132277E-3,6.231598E-3,-5.6287486E-2],"categories":[],"categories_nodes":[],"categories_segments":[],"categories_sizes":[],"default_left":[0,0,0,0,0,0,0,0,0,0,0,0,0,0,0,0,0,0,0,0,0,0,0,0,0,0,0],"id":23,"left_children":[1,3,5,7,9,11,13,15,17,19,21,23,25,-1,-1,-1,-1,-1,-1,-1,-1,-1,-1,-1,-1,-1,-1],"loss_changes":[4.843953E1,8.853798E0,9.683001E0,9.379366E0,1.1416523E1,7.7590923E0,5.618229E-1,9.893361E0,1.0117702E1,7.7800293E0,3.8179526E0,7.291752E0,1.1406301E1,0E0,0E0,0E0,0E0,0E0,0E0,0E0,0E0,0E0,0E0,0E0,0E0,0E0,0E0],"parents":[2147483647,0,0,1,1,2,2,3,3,4,4,5,5,6,6,7,7,8,8,9,9,10,10,11,11,12,12],"right_children":[2,4,6,8,10,12,14,16,18,20,22,24,26,-1,-1,-1,-1,-1,-1,-1,-1,-1,-1,-1,-1,-1,-1],"split_conditions":[1.99E0,2.7333333E0,1.3666667E0,1.4298407E0,6.25E-1,1.8333334E0,1.4545455E0,9.660918E-1,3.15E-1,3.4E0,1.6666666E0,7.777778E-1,7E-1,-2.748624E-2,-6.37845E-2,-8.495274E-3,4.8406105E-3,6.4063035E-2,1.024174E-2,1.0341685E-2,-4.2872883E-2,-1.1830047E-2,-5.8300853E-2,6.2426836E-3,-7.6132277E-3,6.231598E-3,-5.6287486E-2],"split_indices":[16,14,25,28,21,10,22,27,24,13,11,3,20,0,0,0,0,0,0,0,0,0,0,0,0,0,0],"split_type":[0,0,0,0,0,0,0,0,0,0,0,0,0,0,0,0,0,0,0,0,0,0,0,0,0,0,0],"sum_hessian":[3.3751724E3,1.7483707E3,1.6268016E3,6.830625E2,1.0653082E3,1.6159105E3,1.0891153E1,5.6884924E2,1.1421327E2,1.0403478E3,2.4960434E1,1.4161183E3,1.9979225E2,5.187623E0,5.703531E0,2.385954E2,3.3025385E2,8.662041E0,1.0555123E2,1.0344335E3,5.9143047E0,1.9764036E1,5.1963983E0,1.0120015E2,1.3149181E3,1.9321849E2,6.573762E0],"tree_param":{"num_deleted":"0","num_feature":"33","num_nodes":"27","size_leaf_vector":"1"}},{"base_weights":[-4.873314E-3,1.7205724E-1,-8.315546E-2,1.5094267E-1,5.8526355E-1,-1.7863128E-1,-2.959032E-2,1.3803597E-1,6.4890623E-1,-1.316139E-2,7.5912654E-1,4.771344E-2,-2.177616E-1,-1.1604358E-1,2.3007901E-2,8.743459E-3,-3.7256477E-3,5.124103E-2,-1.1807815E-2,1.3458674E-2,5.580963E-2,-2.1764352E-3,2.916551E-2,-1.272289E-2,-2.8249808E-4,-1.1363384E-2,6.0400623E-3,1.48843E-2,-7.321813E-4],"categories":[],"categories_nodes":[],"categories_segments":[],"categories_sizes":[],"default_left":[0,0,0,0,0,0,0,0,0,0,0,0,0,0,0,0,0,0,0,0,0,0,0,0,0,0,0,0,0],"id":24,"left_children":[1,3,5,7,9,11,13,15,17,-1,19,21,23,25,27,-1,-1,-1,-1,-1,-1,-1,-1,-1,-1,-1,-1,-1,-1],"loss_changes":[4.663098E1,8.846283E0,1.19146805E1,6.1552296E0,7.569044E0,7.4519024E0,6.821862E0,7.5426407E0,8.435983E0,0E0,6.8273373E0,6.1392403E0,5.5399704E0,1.4984051E1,9.663272E0,0E0,0E0,0E0,0E0,0E0,0E0,0E0,0E0,0E0,0E0,0E0,0E0,0E0,0E0],"parents":[2147483647,0,0,1,1,2,2,3,3,4,4,5,5,6,6,7,7,8,8,10,10,11,11,12,12,13,13,14,14],"right_children":[2,4,6,8,10,12,14,16,18,-1,20,22,24,26,28,-1,-1,-1,-1,-1,-1,-1,-1,-1,-1,-1,-1,-1,-1],"split_conditions":[1.78E0,8.5714287E-1,1.71E0,2.4285715E0,2.25E0,5.294118E-1,9.660918E-1,2.2857144E0,1.625E0,-1.316139E-2,8E-1,8.5714287E-1,7E-1,1.6E0,5.555556E-1,8.743459E-3,-3.7256477E-3,5.124103E-2,-1.1807815E-2,1.3458674E-2,5.580963E-2,-2.1764352E-3,2.916551E-2,-1.272289E-2,-2.8249808E-4,-1.1363384E-2,6.0400623E-3,1.48843E-2,-7.321813E-4],"split_indices":[16,29,17,1,15,22,27,5,6,0,23,0,18,11,31,0,0,0,0,0,0,0,0,0,0,0,0,0,0],"split_type":[0,0,0,0,0,0,0,0,0,0,0,0,0,0,0,0,0,0,0,0,0,0,0,0,0,0,0,0,0],"sum_hessian":[3.365344E3,1.0315027E3,2.3338413E3,9.8288525E2,4.8617477E1,8.372698E2,1.4965717E3,9.594942E2,2.3391071E1,8.08273E0,4.0534744E1,1.2300237E2,7.142674E2,5.663626E2,9.3020905E2,8.18331E2,1.4116316E2,1.6386345E1,7.0047255E0,1.7945076E1,2.258967E1,1.0572372E2,1.7278652E1,6.0834937E2,1.0591803E2,3.856984E2,1.806642E2,1.1162489E2,8.1858417E2],"tree_param":{"num_deleted":"0","num_feature":"33","num_nodes":"29","size_leaf_vector":"1"}},{"base_weights":[-5.516504E-3,-1.14415675E-1,1.19178586E-1,-1.9915856E-1,-5.9258305E-2,3.1986377E-1,7.434404E-2,-2.2911306E-1,2.725223E-1,-4.413296E-2,-7.257478E-1,3.621414E-1,-2.9278737E-1,3.931861E-2,2.3749368E-1,-9.840192E-3,-2.7914008E-2,5.2503128E-2,6.691405E-3,-1.5027131E-3,-3.6370605E-2,-5.165959E-2,9.905569E-3,1.39786145E-2,3.2467738E-2,6.1785444E-3,-4.554286E-2,3.6155133E-4,1.0064173E-2,2.5192022E-2,3.2952414E-3],"categories":[],"categories_nodes":[],"categories_segments":[],"categories_sizes":[],"default_left":[0,0,0,0,0,0,0,0,0,0,0,0,0,0,0,0,0,0,0,0,0,0,0,0,0,0,0,0,0,0,0],"id":25,"left_children":[1,3,5,7,9,11,13,15,17,19,21,23,25,27,29,-1,-1,-1,-1,-1,-1,-1,-1,-1,-1,-1,-1,-1,-1,-1,-1],"loss_changes":[4.569005E1,8.359732E0,1.40469E1,1.0049652E1,1.0882877E1,7.5119877E0,7.297633E0,6.894253E0,4.3226805E0,1.0170301E1,7.1005917E0,6.076908E0,5.039673E0,5.4782186E0,1.0245354E1,0E0,0E0,0E0,0E0,0E0,0E0,0E0,0E0,0E0,0E0,0E0,0E0,0E0,0E0,0E0,0E0],"parents":[2147483647,0,0,1,1,2,2,3,3,4,4,5,5,6,6,7,7,8,8,9,9,10,10,11,11,12,12,13,13,14,14],"right_children":[2,4,6,8,10,12,14,16,18,20,22,24,26,28,30,-1,-1,-1,-1,-1,-1,-1,-1,-1,-1,-1,-1,-1,-1,-1,-1],"split_conditions":[1.95E0,1.1666666E0,1.54E0,1.5776212E0,1.94E0,2.9E0,1.8333334E0,2.7E0,5.555556E-1,7E-1,1.5E0,3.3333334E-1,6.25E-1,2.25E0,2.1E0,-9.840192E-3,-2.7914008E-2,5.2503128E-2,6.691405E-3,-1.5027131E-3,-3.6370605E-2,-5.165959E-2,9.905569E-3,1.39786145E-2,3.2467738E-2,6.1785444E-3,-4.554286E-2,3.6155133E-4,1.0064173E-2,2.5192022E-2,3.2952414E-3],"split_indices":[17,10,16,28,17,5,12,16,32,20,11,21,4,10,5,0,0,0,0,0,0,0,0,0,0,0,0,0,0,0,0],"split_type":[0,0,0,0,0,0,0,0,0,0,0,0,0,0,0,0,0,0,0,0,0,0,0,0,0,0,0,0,0,0,0],"sum_hessian":[3.362741E3,1.795539E3,1.5672021E3,7.0616876E2,1.0893701E3,2.8466052E2,1.2825416E3,6.646838E2,4.1485016E1,1.0663857E3,2.2984356E1,2.6682E2,1.7840515E1,1.0573917E3,2.2514993E2,6.070052E2,5.7678562E1,5.175927E0,3.6309086E1,1.0460232E3,2.0362556E1,1.7237814E1,5.7465425E0,2.0904466E2,5.777534E1,1.104106E1,6.7994547E0,8.8393365E2,1.7345802E2,8.722965E1,1.3792029E2],"tree_param":{"num_deleted":"0","num_feature":"33","num_nodes":"31","size_leaf_vector":"1"}},{"base_weights":[4.2493194E-3,1.2206464E-1,-1.005753E-1,3.0008683E-1,8.31345E-2,-1.5737294E-1,-5.7685166E-4,2.1087451E-1,6.1120313E-1,3.61826E-2,2.224979E-1,-1.723913E-1,3.2886267E-1,-1.5329972E-1,9.1517165E-2,-2.2073605E-3,1.7230302E-2,-6.383827E-4,3.745353E-2,-1.7123422E-2,3.0254596E-3,5.4813176E-2,8.230801E-3,-2.0247199E-2,-6.4481124E-3,-2.3582036E-2,2.4746334E-2,2.871358E-4,-1.8852463E-2,2.27286E-2,3.0532947E-3],"categories":[],"categories_nodes":[],"categories_segments":[],"categories_sizes":[],"default_left":[0,0,0,0,0,0,0,0,0,0,0,0,0,0,0,0,0,0,0,0,0,0,0,0,0,0,0,0,0,0,0],"id":26,"left_children":[1,3,5,7,9,11,13,15,17,19,21,23,25,27,29,-1,-1,-1,-1,-1,-1,-1,-1,-1,-1,-1,-1,-1,-1,-1,-1],"loss_changes":[4.147064E1,1.0896271E1,1.0073648E1,7.6414013E0,8.468857E0,8.309582E0,9.093908E0,7.604396E0,5.440071E0,8.961695E0,1.6218039E1,1.0996052E1,4.7648106E0,8.703163E0,4.37236E0,0E0,0E0,0E0,0E0,0E0,0E0,0E0,0E0,0E0,0E0,0E0,0E0,0E0,0E0,0E0,0E0],"parents":[2147483647,0,0,1,1,2,2,3,3,4,4,5,5,6,6,7,7,8,8,9,9,10,10,11,11,12,12,13,13,14,14],"right_children":[2,4,6,8,10,12,14,16,18,20,22,24,26,28,30,-1,-1,-1,-1,-1,-1,-1,-1,-1,-1,-1,-1,-1,-1,-1,-1],"split_conditions":[1.94E0,1.54E0,1.25E0,4.7619048E-1,1.75E0,2.857143E0,6.25E-1,8.3076924E-1,1.1111111E-1,2.5E-1,6.25E-1,8.888889E-1,3.3333334E-1,1.8333334E0,-7.6666665E-1,-2.2073605E-3,1.7230302E-2,-6.383827E-4,3.745353E-2,-1.7123422E-2,3.0254596E-3,5.4813176E-2,8.230801E-3,-2.0247199E-2,-6.4481124E-3,-2.3582036E-2,2.4746334E-2,2.871358E-4,-1.8852463E-2,2.27286E-2,3.0532947E-3],"split_indices":[16,16,11,25,12,22,23,24,20,4,7,6,18,24,26,0,0,0,0,0,0,0,0,0,0,0,0,0,0,0,0],"split_type":[0,0,0,0,0,0,0,0,0,0,0,0,0,0,0,0,0,0,0,0,0,0,0,0,0,0,0,0,0,0,0],"sum_hessian":[3.355793E3,1.5803655E3,1.7754275E3,2.819177E2,1.2984478E3,1.1312949E3,6.4413257E2,2.2064667E2,6.127101E1,9.727147E2,3.2573303E2,1.0982252E3,3.3069748E1,2.424651E2,4.0166745E2,7.587589E1,1.4477078E2,1.1120965E1,5.0150047E1,5.768233E1,9.150324E2,1.9015411E1,3.0671762E2,1.7114667E2,9.270785E2,5.2620406E0,2.7807707E1,1.4203397E2,1.00431145E2,2.9750912E1,3.7191653E2],"tree_param":{"num_deleted":"0","num_feature":"33","num_nodes":"31","size_leaf_vector":"1"}},{"base_weights":[-4.914065E-3,1.4464085E-1,-7.102457E-2,9.5403954E-2,2.8729028E-1,-1.8583741E-2,-1.8060866E-1,5.2189815E-1,7.929264E-2,-5.242622E-2,3.2852468E-1,1.3458396E-1,-4.431504E-2,-2.9616988E-1,-1.154751E-1,-1.0324921E-2,5.2818935E-2,2.8873954E-3,2.170807E-2,3.4140494E-2,1.2573506E-2,1.7152025E-3,2.1959139E-2,-2.4435515E-2,-1.6853631E-3,-1.6400367E-2,1.6717114E-2,-1.9178202E-2,-2.7165555E-3],"categories":[],"categories_nodes":[],"categories_segments":[],"categories_sizes":[],"default_left":[0,0,0,0,0,0,0,0,0,0,0,0,0,0,0,0,0,0,0,0,0,0,0,0,0,0,0,0,0],"id":27,"left_children":[1,3,5,7,9,11,13,15,17,-1,19,21,23,25,27,-1,-1,-1,-1,-1,-1,-1,-1,-1,-1,-1,-1,-1,-1],"loss_changes":[3.334945E1,7.1949425E0,1.3423787E1,5.1929665E0,1.48269005E1,6.2411823E0,5.6196537E0,1.1064661E1,5.613014E0,0E0,6.7550488E0,6.888683E0,6.331932E0,5.55991E0,7.903212E0,0E0,0E0,0E0,0E0,0E0,0E0,0E0,0E0,0E0,0E0,0E0,0E0,0E0,0E0],"parents":[2147483647,0,0,1,1,2,2,3,3,4,4,5,5,6,6,7,7,8,8,10,10,11,11,12,12,13,13,14,14],"right_children":[2,4,6,8,10,12,14,16,18,-1,20,22,24,26,28,-1,-1,-1,-1,-1,-1,-1,-1,-1,-1,-1,-1,-1,-1],"split_conditions":[1.78E0,2.25E0,2.25E0,2.857143E-1,6E-1,5.555556E-1,1.1666666E0,1.5333333E0,2.375E0,-5.242622E-2,1.41E0,5E-1,-1E0,8.888889E-1,1.4666667E0,-1.0324921E-2,5.2818935E-2,2.8873954E-3,2.170807E-2,3.4140494E-2,1.2573506E-2,1.7152025E-3,2.1959139E-2,-2.4435515E-2,-1.6853631E-3,-1.6400367E-2,1.6717114E-2,-1.9178202E-2,-2.7165555E-3],"split_indices":[16,10,16,18,13,31,13,23,1,0,16,4,26,7,14,0,0,0,0,0,0,0,0,0,0,0,0,0,0],"split_type":[0,0,0,0,0,0,0,0,0,0,0,0,0,0,0,0,0,0,0,0,0,0,0,0,0,0,0,0,0],"sum_hessian":[3.3717146E3,1.0327443E3,2.3389705E3,7.695099E2,2.6323434E2,1.5833497E3,7.556206E2,2.6642302E1,7.4286755E2,7.0781984E0,2.5615616E2,2.2656802E2,1.3567817E3,2.705403E2,4.850803E2,1.1456201E1,1.5186101E1,7.0171E2,4.115757E1,4.412357E1,2.1203258E2,1.7153595E2,5.503208E1,3.0360981E1,1.3264208E3,2.5814383E2,1.2396497E1,8.880438E1,3.962759E2],"tree_param":{"num_deleted":"0","num_feature":"33","num_nodes":"29","size_leaf_vector":"1"}},{"base_weights":[-1.6440768E-2,8.05052E-2,-1.2149818E-1,2.4711732E-2,1.8903892E-1,-9.088131E-2,-3.3501977E-1,-2.81766E-2,1.4464046E-1,6.9905436E-1,1.7242135E-1,-4.3091197E-2,-1.9291347E-1,-4.452366E-1,-5.2082464E-2,-1.3759548E-2,2.7602547E-4,-1.1170085E-2,1.0196428E-2,1.1658019E-2,5.8873832E-2,7.654682E-3,2.9311044E-2,2.147139E-4,-8.391398E-3,-1.1678681E-2,1.64695E-2,-2.5211466E-2,6.8982937E-3,4.252645E-2,-9.355585E-3],"categories":[],"categories_nodes":[],"categories_segments":[],"categories_sizes":[],"default_left":[0,0,0,0,0,0,0,0,0,0,0,0,0,0,0,0,0,0,0,0,0,0,0,0,0,0,0,0,0,0,0],"id":28,"left_children":[1,3,5,7,9,11,13,15,17,19,21,23,25,27,29,-1,-1,-1,-1,-1,-1,-1,-1,-1,-1,-1,-1,-1,-1,-1,-1],"loss_changes":[3.403956E1,1.0495827E1,1.0414314E1,7.3060737E0,4.785885E0,6.818159E0,6.1764297E0,6.6698527E0,7.735241E0,3.6130762E0,4.412035E0,5.683473E0,9.563499E0,5.054714E0,7.1089883E0,0E0,0E0,0E0,0E0,0E0,0E0,0E0,0E0,0E0,0E0,0E0,0E0,0E0,0E0,0E0,0E0],"parents":[2147483647,0,0,1,1,2,2,3,3,4,4,5,5,6,6,7,7,8,8,9,9,10,10,11,11,12,12,13,13,14,14],"right_children":[2,4,6,8,10,12,14,16,18,20,22,24,26,28,30,-1,-1,-1,-1,-1,-1,-1,-1,-1,-1,-1,-1,-1,-1,-1,-1],"split_conditions":[1.99E0,2.34E0,2.58E0,1.6E0,2.35E0,1.1428572E0,5.555556E-1,2E0,8.164966E-1,2.857143E-1,3.39E0,6.666667E-1,2.857143E0,8.333333E-1,1.1111111E-1,-1.3759548E-2,2.7602547E-4,-1.1170085E-2,1.0196428E-2,1.1658019E-2,5.8873832E-2,7.654682E-3,2.9311044E-2,2.147139E-4,-8.391398E-3,-1.1678681E-2,1.64695E-2,-2.5211466E-2,6.8982937E-3,4.252645E-2,-9.355585E-3],"split_indices":[16,17,16,11,17,22,4,14,28,25,17,9,22,7,20,0,0,0,0,0,0,0,0,0,0,0,0,0,0,0,0],"split_type":[0,0,0,0,0,0,0,0,0,0,0,0,0,0,0,0,0,0,0,0,0,0,0,0,0,0,0,0,0,0,0],"sum_hessian":[3.3397988E3,1.7365807E3,1.6032181E3,1.1483846E3,5.881961E2,1.4038185E3,1.9939963E2,7.968893E2,3.5149533E2,1.7074417E1,5.711217E2,9.576664E2,4.4615213E2,1.4283276E2,5.6566856E1,9.515596E1,7.017333E2,4.8148647E1,3.0334668E2,9.509912E0,7.5645046E0,5.471759E2,2.394582E1,6.941383E2,2.6352805E2,4.146192E2,3.1532915E1,1.2999069E2,1.2842078E1,6.575185E0,4.9991673E1],"tree_param":{"num_deleted":"0","num_feature":"33","num_nodes":"31","size_leaf_vector":"1"}},{"base_weights":[7.403434E-3,-1.19840786E-1,7.04206E-2,-1.9851503E-1,1.1927293E-3,-5.4848682E-2,1.1837159E-1,-2.8170574E-1,-5.7459272E-2,-3.4768566E-1,6.6071674E-2,-7.524531E-2,6.4500827E-1,2.549479E-1,6.8162665E-2,-4.2075748E-4,-1.7174179E-2,3.300814E-3,-1.1235689E-2,5.6395335E-3,-2.8162414E-2,5.898482E-4,1.8961886E-2,-3.456823E-2,-2.7417212E-3,5.1336344E-2,1.01227565E-2,-1.6891552E-2,1.4594118E-2,6.058141E-3,-9.619359E-4],"categories":[],"categories_nodes":[],"categories_segments":[],"categories_sizes":[],"default_left":[0,0,0,0,0,0,0,0,0,0,0,0,0,0,0,0,0,0,0,0,0,0,0,0,0,0,0,0,0,0,0],"id":29,"left_children":[1,3,5,7,9,11,13,15,17,19,21,23,25,27,29,-1,-1,-1,-1,-1,-1,-1,-1,-1,-1,-1,-1,-1,-1,-1,-1],"loss_changes":[2.6894123E1,1.0595199E1,1.349183E1,7.8540306E0,9.90898E0,8.860172E0,1.1084446E1,7.103447E0,5.226419E0,6.9178133E0,6.252202E0,7.4921713E0,2.6355548E0,9.630014E0,5.520891E0,0E0,0E0,0E0,0E0,0E0,0E0,0E0,0E0,0E0,0E0,0E0,0E0,0E0,0E0,0E0,0E0],"parents":[2147483647,0,0,1,1,2,2,3,3,4,4,5,5,6,6,7,7,8,8,9,9,10,10,11,11,12,12,13,13,14,14],"right_children":[2,4,6,8,10,12,14,16,18,20,22,24,26,28,30,-1,-1,-1,-1,-1,-1,-1,-1,-1,-1,-1,-1,-1,-1,-1,-1],"split_conditions":[1.77E0,1.0540925E0,4.2857143E-1,1.0749677E0,8.333333E-1,2.5E0,1.65E0,6.992059E-1,6.25E-1,1E0,8.333333E-1,-1.0333333E0,2.25E0,8.75E-1,1.4285715E-1,-4.2075748E-4,-1.7174179E-2,3.300814E-3,-1.1235689E-2,5.6395335E-3,-2.8162414E-2,5.898482E-4,1.8961886E-2,-3.456823E-2,-2.7417212E-3,5.1336344E-2,1.01227565E-2,-1.6891552E-2,1.4594118E-2,6.058141E-3,-9.619359E-4],"split_indices":[17,27,19,28,10,11,16,28,9,0,7,25,1,8,25,0,0,0,0,0,0,0,0,0,0,0,0,0,0,0,0],"split_type":[0,0,0,0,0,0,0,0,0,0,0,0,0,0,0,0,0,0,0,0,0,0,0,0,0,0,0,0,0,0,0],"sum_hessian":[3.3525437E3,1.1095841E3,2.2429597E3,6.7257965E2,4.370044E2,6.20281E2,1.6226788E3,4.2199365E2,2.50586E2,6.759899E1,3.6940543E2,6.037215E2,1.6559488E1,4.3455374E2,1.188125E3,7.83125E1,3.4368115E2,1.4416423E2,1.0642177E2,2.15588E1,4.604019E1,3.1599704E2,5.3408363E1,1.814767E1,5.8557385E2,8.060788E0,8.4987E0,2.4851166E1,4.0970258E2,7.400917E2,4.480334E2],"tree_param":{"num_deleted":"0","num_feature":"33","num_nodes":"31","size_leaf_vector":"1"}},{"base_weights":[-6.8329326E-3,1.294141E-1,-6.482136E-2,-3.7743306E-1,1.4589635E-1,-1.9316178E-2,-1.337195E-1,1.526431E-2,-9.8534644E-1,8.420891E-2,2.5840223E-1,1.7901553E-1,-4.007289E-2,6.813116E-2,-1.6632032E-1,-3.0734384E-2,1.7389204E-2,-2.0777179E-2,-6.5798864E-2,3.5266865E-3,4.417566E-2,2.9662607E-2,1.0175286E-2,5.805369E-2,5.768236E-3,-3.181584E-3,9.184152E-3,5.7101823E-2,-5.7528535E-4,-9.080875E-3,1.5505964E-2],"categories":[],"categories_nodes":[],"categories_segments":[],"categories_sizes":[],"default_left":[0,0,0,0,0,0,0,0,0,0,0,0,0,0,0,0,0,0,0,0,0,0,0,0,0,0,0,0,0,0,0],"id":30,"left_children":[1,3,5,7,9,11,13,15,17,19,21,23,25,27,29,-1,-1,-1,-1,-1,-1,-1,-1,-1,-1,-1,-1,-1,-1,-1,-1],"loss_changes":[2.6534973E1,8.406179E0,7.371413E0,7.669911E0,6.688246E0,5.8449416E0,6.183302E0,4.4014616E0,1.6424809E0,6.7252035E0,6.1060677E0,8.139311E0,6.789503E0,1.1286388E1,5.924534E0,0E0,0E0,0E0,0E0,0E0,0E0,0E0,0E0,0E0,0E0,0E0,0E0,0E0,0E0,0E0,0E0],"parents":[2147483647,0,0,1,1,2,2,3,3,4,4,5,5,6,6,7,7,8,8,9,9,10,10,11,11,12,12,13,13,14,14],"right_children":[2,4,6,8,10,12,14,16,18,20,22,24,26,28,30,-1,-1,-1,-1,-1,-1,-1,-1,-1,-1,-1,-1,-1,-1,-1,-1],"split_conditions":[1.77E0,1.35E0,2.19E0,1.65E0,8.888889E-1,5.555556E-1,5.294118E-1,1.4444444E0,1.1005049E0,2.8E0,1.4E0,-7.6666665E-1,7.1428573E-1,-5.833333E-1,1.0333333E0,-3.0734384E-2,1.7389204E-2,-2.0777179E-2,-6.5798864E-2,3.5266865E-3,4.417566E-2,2.9662607E-2,1.0175286E-2,5.805369E-2,5.768236E-3,-3.181584E-3,9.184152E-3,5.7101823E-2,-5.7528535E-4,-9.080875E-3,1.5505964E-2],"split_indices":[16,15,16,16,4,7,22,23,27,1,16,25,19,25,25,0,0,0,0,0,0,0,0,0,0,0,0,0,0,0,0],"split_type":[0,0,0,0,0,0,0,0,0,0,0,0,0,0,0,0,0,0,0,0,0,0,0,0,0,0,0,0,0,0,0],"sum_hessian":[3.3572942E3,1.0014278E3,2.3558665E3,3.0659151E1,9.707686E2,1.4204398E3,9.354266E2,1.9119081E1,1.1540071E1,6.286917E2,3.4207693E2,1.333955E2,1.2870444E3,1.2949432E2,8.0593225E2,6.208291E0,1.291079E1,5.177146E0,6.362924E0,6.193094E2,9.382321E0,4.6544308E1,2.9553262E2,6.9745107E0,1.26420975E2,1.1654945E3,1.215499E2,8.105575E0,1.2138875E2,7.816639E2,2.4268372E1],"tree_param":{"num_deleted":"0","num_feature":"33","num_nodes":"31","size_leaf_vector":"1"}},{"base_weights":[-4.663231E-3,-6.534213E-2,6.878158E-2,-1.7261842E-1,-1.2722117E-2,4.949846E-2,5.9507155E-1,-2.1149781E-1,1.7067513E-1,5.171308E-2,-1.2854253E-1,1.1221991E-1,-4.431047E-2,-3.1552387E-3,7.36022E-1,-1.4527135E-2,-2.2698324E-3,2.3699008E-2,-1.7752117E-2,-2.393334E-3,8.185702E-3,-2.538596E-2,-4.7445446E-3,4.7194506E-3,4.3933135E-2,2.505195E-3,-9.358475E-3,5.8560975E-2,1.8903866E-2],"categories":[],"categories_nodes":[],"categories_segments":[],"categories_sizes":[],"default_left":[0,0,0,0,0,0,0,0,0,0,0,0,0,0,0,0,0,0,0,0,0,0,0,0,0,0,0,0,0],"id":31,"left_children":[1,3,5,7,9,11,13,15,17,19,21,23,25,-1,27,-1,-1,-1,-1,-1,-1,-1,-1,-1,-1,-1,-1,-1,-1],"loss_changes":[1.4901374E1,1.0319145E1,1.5251085E1,8.076368E0,9.198423E0,8.601425E0,5.046213E0,7.063469E0,9.993592E0,8.840142E0,5.5154967E0,1.1789141E1,7.9141755E0,0E0,6.255636E0,0E0,0E0,0E0,0E0,0E0,0E0,0E0,0E0,0E0,0E0,0E0,0E0,0E0,0E0],"parents":[2147483647,0,0,1,1,2,2,3,3,4,4,5,5,6,6,7,7,8,8,9,9,10,10,11,11,12,12,14,14],"right_children":[2,4,6,8,10,12,14,16,18,20,22,24,26,-1,28,-1,-1,-1,-1,-1,-1,-1,-1,-1,-1,-1,-1,-1,-1],"split_conditions":[2.7333333E0,2.3333333E0,2.25E0,1.4907119E0,2E-1,8E-1,6.25E-1,4.4444445E-1,1.3E0,9.910312E-1,2.3333333E-1,1.5E0,1.1111111E-1,-3.1552387E-3,1.0327955E0,-1.4527135E-2,-2.2698324E-3,2.3699008E-2,-1.7752117E-2,-2.393334E-3,8.185702E-3,-2.538596E-2,-4.7445446E-3,4.7194506E-3,4.3933135E-2,2.505195E-3,-9.358475E-3,5.8560975E-2,1.8903866E-2],"split_indices":[14,15,1,28,26,9,22,29,22,28,26,4,25,0,27,0,0,0,0,0,0,0,0,0,0,0,0,0,0],"split_type":[0,0,0,0,0,0,0,0,0,0,0,0,0,0,0,0,0,0,0,0,0,0,0,0,0,0,0,0,0],"sum_hessian":[3.3417705E3,1.8307262E3,1.5110442E3,6.0109485E2,1.2296315E3,1.4588755E3,5.216872E1,5.405505E2,6.0544342E1,7.898812E2,4.3975015E2,8.748279E2,5.840476E2,9.173824E0,4.2994896E1,3.653399E2,1.7521059E2,3.8576702E1,2.1967638E1,4.1795676E2,3.719245E2,3.44556E1,4.0529456E2,8.5616327E2,1.8664577E1,3.5161642E2,2.3243115E2,1.8252111E1,2.4742785E1],"tree_param":{"num_deleted":"0","num_feature":"33","num_nodes":"29","size_leaf_vector":"1"}},{"base_weights":[7.674545E-3,-3.3073507E-2,1.7065528E-1,-2.4107818E-3,-1.4011955E-1,1.8486953E-1,-4.028148E-1,-3.5509953E-1,6.587909E-3,-1.570144E-1,3.94966E-2,4.3998763E-1,1.6025683E-1,5.4607433E-3,-4.4470638E-2,-2.4917312E-2,3.4109693E-2,7.877343E-3,-8.0407626E-4,-8.604432E-3,2.3392817E-2,2.8702496E-2,-1.7539732E-3,-3.0180902E-4,1.1014387E-2],"categories":[],"categories_nodes":[],"categories_segments":[],"categories_sizes":[],"default_left":[0,0,0,0,0,0,0,0,0,0,0,0,0,0,0,0,0,0,0,0,0,0,0,0,0],"id":32,"left_children":[1,3,5,7,9,11,13,15,17,19,-1,21,23,-1,-1,-1,-1,-1,-1,-1,-1,-1,-1,-1,-1],"loss_changes":[2.218977E1,8.752418E0,5.5007534E0,6.632187E0,9.3940735E0,3.9700432E0,4.238809E0,8.047398E0,6.953373E0,5.554987E0,0E0,3.6743088E0,5.9876156E0,0E0,0E0,0E0,0E0,0E0,0E0,0E0,0E0,0E0,0E0,0E0,0E0],"parents":[2147483647,0,0,1,1,2,2,3,3,4,4,5,5,6,6,7,7,8,8,9,9,11,11,12,12],"right_children":[2,4,6,8,10,12,14,16,18,20,-1,22,24,-1,-1,-1,-1,-1,-1,-1,-1,-1,-1,-1,-1],"split_conditions":[2.29E0,2.31E0,3.42E0,4.4444445E-1,1.0476191E0,4.556213E-1,1.56E0,5.2380955E-1,5.555556E-1,1.6865481E0,3.94966E-2,9E-1,7.714286E-1,5.4607433E-3,-4.4470638E-2,-2.4917312E-2,3.4109693E-2,7.877343E-3,-8.0407626E-4,-8.604432E-3,2.3392817E-2,2.8702496E-2,-1.7539732E-3,-3.0180902E-4,1.1014387E-2],"split_indices":[17,16,24,2,25,24,16,25,31,28,0,31,24,0,0,0,0,0,0,0,0,0,0,0,0],"split_type":[0,0,0,0,0,0,0,0,0,0,0,0,0,0,0,0,0,0,0,0,0,0,0,0,0],"sum_hessian":[3.3373337E3,2.669976E3,6.6735754E2,2.0769907E3,5.929854E2,6.5204767E2,1.5309895E1,5.0994576E1,2.0259962E3,5.8332764E2,9.657732E0,5.5529366E1,5.965183E2,7.7377653E0,7.572129E0,4.534813E1,5.646448E0,2.6431918E2,1.761677E3,5.7045087E2,1.2876808E1,4.330967E1,1.2219696E1,1.5801921E2,4.3849908E2],"tree_param":{"num_deleted":"0","num_feature":"33","num_nodes":"25","size_leaf_vector":"1"}},{"base_weights":[2.8016036E-3,-4.8251998E-2,1.3417637E-1,2.2031683E-1,-6.432827E-2,1.2509066E-1,4.6667363E-2,6.0783554E-2,1.510745E-1,-1.494803E-1,1.7686798E-3,2.3189375E-1,4.907052E-2,-1.7003125E-2,1.2334322E-2,-1.37857115E-2,-3.5600418E-3,4.9719E-4,-3.4301143E-2,2.1060353E-2,8.810297E-3,2.1200344E-2,1.1883656E-3],"categories":[],"categories_nodes":[],"categories_segments":[],"categories_sizes":[],"default_left":[0,0,0,0,0,0,0,0,0,0,0,0,0,0,0,0,0,0,0,0,0,0,0],"id":33,"left_children":[1,3,5,7,9,11,-1,-1,13,15,17,19,21,-1,-1,-1,-1,-1,-1,-1,-1,-1,-1],"loss_changes":[2.2395594E1,1.0374485E1,6.5638485E0,9.02544E0,1.2783218E1,7.4741087E0,0E0,0E0,6.0860953E0,9.748709E0,7.122406E0,3.9141445E0,5.0912185E0,0E0,0E0,0E0,0E0,0E0,0E0,0E0,0E0,0E0,0E0],"parents":[2147483647,0,0,1,1,2,2,3,3,4,4,5,5,8,8,9,9,10,10,11,11,12,12],"right_children":[2,4,6,8,10,12,-1,-1,14,16,18,20,22,-1,-1,-1,-1,-1,-1,-1,-1,-1,-1],"split_conditions":[2.16E0,7.777778E-1,2.8E0,4E-1,2.2857144E0,1.2222222E0,4.6667363E-2,6.0783554E-2,7.0710677E-1,1.69E0,1.4E0,-3.809524E-1,7.777778E-1,-1.7003125E-2,1.2334322E-2,-1.37857115E-2,-3.5600418E-3,4.9719E-4,-3.4301143E-2,2.1060353E-2,8.810297E-3,2.1200344E-2,1.1883656E-3],"split_indices":[17,3,1,12,14,1,0,0,27,17,25,26,0,0,0,0,0,0,0,0,0,0,0],"split_type":[0,0,0,0,0,0,0,0,0,0,0,0,0,0,0,0,0,0,0,0,0,0,0],"sum_hessian":[3.3358137E3,2.402175E3,9.3363873E2,1.3460191E2,2.2675732E3,9.244108E2,9.2279E0,7.5838304E0,1.27018074E2,9.910565E2,1.2765166E3,3.8298178E2,5.41429E2,2.0110804E1,1.0690727E2,3.7788202E2,6.131745E2,1.2626398E3,1.3876856E1,8.515022E1,2.9783157E2,3.298321E1,5.084458E2],"tree_param":{"num_deleted":"0","num_feature":"33","num_nodes":"23","size_leaf_vector":"1"}},{"base_weights":[7.626378E-3,6.0356032E-2,-1.07288495E-1,1.7084213E-1,2.3849672E-2,-8.826905E-1,-9.789962E-2,2.7161E-1,4.7612622E-2,4.124886E-3,2.1962845E-1,-1.919536E-2,-6.254857E-2,-6.452422E-2,-2.591389E-1,-2.5500348E-3,1.7402533E-2,5.328231E-6,2.9718598E-2,2.3882296E-3,-5.785084E-3,-3.112017E-3,2.313464E-2,-1.1649413E-3,-1.3927785E-2,-1.5268472E-2,2.0990778E-2],"categories":[],"categories_nodes":[],"categories_segments":[],"categories_sizes":[],"default_left":[0,0,0,0,0,0,0,0,0,0,0,0,0,0,0,0,0,0,0,0,0,0,0,0,0,0,0],"id":34,"left_children":[1,3,5,7,9,11,13,15,17,19,21,-1,-1,23,25,-1,-1,-1,-1,-1,-1,-1,-1,-1,-1,-1,-1],"loss_changes":[2.0141808E1,9.170941E0,7.4246817E0,6.9747868E0,6.60054E0,1.6068573E0,5.514986E0,7.7004547E0,6.589031E0,8.154971E0,1.0791887E1,0E0,0E0,7.538063E0,5.6558657E0,0E0,0E0,0E0,0E0,0E0,0E0,0E0,0E0,0E0,0E0,0E0,0E0],"parents":[2147483647,0,0,1,1,2,2,3,3,4,4,5,5,6,6,7,7,8,8,9,9,10,10,13,13,14,14],"right_children":[2,4,6,8,10,12,14,16,18,20,22,-1,-1,24,26,-1,-1,-1,-1,-1,-1,-1,-1,-1,-1,-1,-1],"split_conditions":[2.15E0,1.65E0,4.830459E-1,3E-1,4E0,-6.666667E-2,5E-1,9.486833E-1,5.555556E-1,8E-1,1.0083333E0,-1.919536E-2,-6.254857E-2,2.6E0,1.7142857E0,-2.5500348E-3,1.7402533E-2,5.328231E-6,2.9718598E-2,2.3882296E-3,-5.785084E-3,-3.112017E-3,2.313464E-2,-1.1649413E-3,-1.3927785E-2,-1.5268472E-2,2.0990778E-2],"split_indices":[16,16,27,21,14,26,21,27,20,9,24,0,0,16,0,0,0,0,0,0,0,0,0,0,0,0,0],"split_type":[0,0,0,0,0,0,0,0,0,0,0,0,0,0,0,0,0,0,0,0,0,0,0,0,0,0,0],"sum_hessian":[3.3227537E3,2.2785615E3,1.0441921E3,5.6429877E2,1.7142628E3,1.1252026E1,1.0329402E3,3.093334E2,2.5496535E2,1.55875E3,1.555128E2,5.76208E0,5.4899454E0,8.574702E2,1.7546992E2,5.9067795E1,2.5026561E2,2.3567174E2,1.9293623E1,1.1436715E3,4.150785E2,7.216241E1,8.335039E1,7.2030554E2,1.3716464E2,1.6493678E2,1.0533147E1],"tree_param":{"num_deleted":"0","num_feature":"33","num_nodes":"27","size_leaf_vector":"1"}},{"base_weights":[8.3249435E-3,-8.6513706E-2,3.2931674E-2,7.858244E-1,-1.0342386E-1,8.576236E-2,-2.0356214E-2,1.110505E-2,5.7568796E-2,-5.2855738E-2,-8.9103356E-2,-4.5354846E-1,9.526225E-2,-1.3782285E-1,3.7569847E-2,-5.2611986E-3,1.965103E-2,5.879881E-3,-3.918483E-2,3.9249742E-3,2.0606807E-2,-9.585184E-3,9.404318E-3,7.140334E-3,-6.2286654E-3],"categories":[],"categories_nodes":[],"categories_segments":[],"categories_sizes":[],"default_left":[0,0,0,0,0,0,0,0,0,0,0,0,0,0,0,0,0,0,0,0,0,0,0,0,0],"id":35,"left_children":[1,3,5,7,9,11,13,-1,-1,-1,15,17,19,21,23,-1,-1,-1,-1,-1,-1,-1,-1,-1,-1],"loss_changes":[7.8367934E0,1.0213091E1,7.5214543E0,2.3173494E0,9.068781E0,6.87918E0,9.054775E0,0E0,0E0,0E0,5.2234626E0,4.5350347E0,6.924966E0,7.754837E0,1.5205284E1,0E0,0E0,0E0,0E0,0E0,0E0,0E0,0E0,0E0,0E0],"parents":[2147483647,0,0,1,1,2,2,3,3,4,4,5,5,6,6,10,10,11,11,12,12,13,13,14,14],"right_children":[2,4,6,8,10,12,14,-1,-1,-1,16,18,20,22,24,-1,-1,-1,-1,-1,-1,-1,-1,-1,-1],"split_conditions":[4E-1,7E-1,0E0,8.333333E-1,3.75E-1,5E-1,2.35E0,1.110505E-2,5.7568796E-2,-5.2855738E-2,1.8E0,-5E-1,-4.1666668E-2,1.3703203E0,8E-1,-5.2611986E-3,1.965103E-2,5.879881E-3,-3.918483E-2,3.9249742E-3,2.0606807E-2,-9.585184E-3,9.404318E-3,7.140334E-3,-6.2286654E-3],"split_indices":[30,3,25,0,2,1,14,0,0,0,12,25,25,28,9,0,0,0,0,0,0,0,0,0,0],"split_type":[0,0,0,0,0,0,0,0,0,0,0,0,0,0,0,0,0,0,0,0,0,0,0,0,0],"sum_hessian":[3.358218E3,6.9046497E2,2.667753E3,1.2152912E1,6.783121E2,1.3402596E3,1.3274933E3,5.520613E0,6.632299E0,8.854213E0,6.694579E2,2.2208517E1,1.3180511E3,4.3853912E2,8.8895416E2,6.487548E2,2.0703024E1,8.259956E0,1.394856E1,1.2533136E3,6.473754E1,3.7694025E2,6.159889E1,5.395212E2,3.4943295E2],"tree_param":{"num_deleted":"0","num_feature":"33","num_nodes":"25","size_leaf_vector":"1"}},{"base_weights":[-4.753273E-3,1.02398194E-1,-5.069182E-2,-3.2299478E-2,1.6388103E-1,-4.0373884E-2,-4.160341E-1,-5.9683657E-1,9.749406E-3,9.7948563E-1,1.4976236E-1,-1.78079E-2,-1.6813244E-1,3.0689923E-2,-5.6318414E-1,-9.612682E-3,-6.374516E-2,1.0308145E-2,-5.35864E-3,2.8508348E-2,6.0629714E-2,4.4685393E-3,1.5851228E-2,-3.1500485E-2,-6.151186E-4,-9.433824E-3,4.540547E-2,7.026718E-3,-3.243464E-2],"categories":[],"categories_nodes":[],"categories_segments":[],"categories_sizes":[],"default_left":[0,0,0,0,0,0,0,0,0,0,0,0,0,0,0,0,0,0,0,0,0,0,0,0,0,0,0,0,0],"id":36,"left_children":[1,3,5,7,9,11,13,15,17,19,21,23,25,-1,27,-1,-1,-1,-1,-1,-1,-1,-1,-1,-1,-1,-1,-1,-1],"loss_changes":[1.6438536E1,8.314895E0,8.753668E0,7.5251174E0,7.6686993E0,6.539794E0,1.0018378E1,5.6346083E0,6.768102E0,2.1948242E-1,6.7805862E0,6.4533873E0,7.6359615E0,0E0,3.540907E0,0E0,0E0,0E0,0E0,0E0,0E0,0E0,0E0,0E0,0E0,0E0,0E0,0E0,0E0],"parents":[2147483647,0,0,1,1,2,2,3,3,4,4,5,5,6,6,7,7,8,8,9,9,10,10,11,11,12,12,14,14],"right_children":[2,4,6,8,10,12,14,16,18,20,22,24,26,-1,28,-1,-1,-1,-1,-1,-1,-1,-1,-1,-1,-1,-1,-1,-1],"split_conditions":[1.77E0,7.6704544E-1,2.81E0,8E-1,7.832168E-1,4.2857143E-1,2.2222222E-1,1.68E0,2.4166667E0,1.1737878E0,2.6E0,4.830459E-1,1E0,3.0689923E-2,1.1111111E-1,-9.612682E-3,-6.374516E-2,1.0308145E-2,-5.35864E-3,2.8508348E-2,6.0629714E-2,4.4685393E-3,1.5851228E-2,-3.1500485E-2,-6.151186E-4,-9.433824E-3,4.540547E-2,7.026718E-3,-3.243464E-2],"split_indices":[16,24,16,12,24,21,18,16,15,28,17,27,7,0,21,0,0,0,0,0,0,0,0,0,0,0,0,0,0],"split_type":[0,0,0,0,0,0,0,0,0,0,0,0,0,0,0,0,0,0,0,0,0,0,0,0,0,0,0,0,0],"sum_hessian":[3.3385447E3,1.0007931E3,2.3377515E3,3.1328687E2,6.875062E2,2.2748887E3,6.286279E1,2.0967474E1,2.923194E2,1.0414677E1,6.7709155E2,1.9350272E3,3.398616E2,7.37786E0,5.548493E1,1.4028237E1,6.939237E0,1.0911426E2,1.8320515E2,5.185064E0,5.2296133E0,4.9904044E2,1.780511E2,1.6073704E1,1.9189535E3,3.3439603E2,5.465571E0,5.815075E0,4.9669853E1],"tree_param":{"num_deleted":"0","num_feature":"33","num_nodes":"29","size_leaf_vector":"1"}},{"base_weights":[1.680423E-2,1.23324685E-1,-2.8800778E-2,1.7260972E-1,-4.60316E-2,-1.8165562E-2,-3.9021033E-1,7.454951E-1,1.5774709E-1,-2.9586643E-1,6.0448922E-2,5.9812164E-1,-2.383664E-2,1.1813056E-1,-5.3691655E-1,5.2223396E-2,-0E0,6.0143583E-3,1.6390344E-2,-4.9780976E-2,-6.5911897E-3,3.2258987E-2,-1.9028605E-3,5.691232E-2,4.919387E-3,-2.8902523E-3,3.6580209E-3,3.2030713E-2,-3.9728604E-2,-3.8222596E-2,-4.5099026E-3],"categories":[],"categories_nodes":[],"categories_segments":[],"categories_sizes":[],"default_left":[0,0,0,0,0,0,0,0,0,0,0,0,0,0,0,0,0,0,0,0,0,0,0,0,0,0,0,0,0,0,0],"id":37,"left_children":[1,3,5,7,9,11,13,15,17,19,21,23,25,27,29,-1,-1,-1,-1,-1,-1,-1,-1,-1,-1,-1,-1,-1,-1,-1,-1],"loss_changes":[1.6222113E1,8.376786E0,8.932959E0,6.4005013E0,6.0536647E0,7.8942323E0,5.062748E0,4.1768904E0,4.744177E0,7.560351E0,9.244406E0,5.320717E0,7.4209485E0,7.911266E0,5.1229105E0,0E0,0E0,0E0,0E0,0E0,0E0,0E0,0E0,0E0,0E0,0E0,0E0,0E0,0E0,0E0,0E0],"parents":[2147483647,0,0,1,1,2,2,3,3,4,4,5,5,6,6,7,7,8,8,9,9,10,10,11,11,12,12,13,13,14,14],"right_children":[2,4,6,8,10,12,14,16,18,20,22,24,26,28,30,-1,-1,-1,-1,-1,-1,-1,-1,-1,-1,-1,-1,-1,-1,-1,-1],"split_conditions":[1.77E0,1E0,2.81E0,1.1111111E-1,8.333333E-1,6.25E-1,7.1428573E-1,6.25E-1,8E-1,1.1E0,1E0,2.24E0,1.6E0,1.1111112E0,1.1666666E0,5.2223396E-2,-0E0,6.0143583E-3,1.6390344E-2,-4.9780976E-2,-6.5911897E-3,3.2258987E-2,-1.9028605E-3,5.691232E-2,4.919387E-3,-2.8902523E-3,3.6580209E-3,3.2030713E-2,-3.9728604E-2,-3.8222596E-2,-4.5099026E-3],"split_indices":[16,9,16,9,13,3,5,29,29,9,6,16,11,1,11,0,0,0,0,0,0,0,0,0,0,0,0,0,0,0,0],"split_type":[0,0,0,0,0,0,0,0,0,0,0,0,0,0,0,0,0,0,0,0,0,0,0,0,0,0,0,0,0,0,0],"sum_hessian":[3.3356726E3,1.0001327E3,2.3355398E3,7.7513025E2,2.250024E2,2.2700654E3,6.5474365E1,1.8187798E1,7.5694244E2,6.698838E1,1.5801402E2,1.9585348E1,2.2504802E3,1.4554789E1,5.0919575E1,1.2603974E1,5.5838227E0,6.221858E2,1.3475667E2,1.1643231E1,5.534515E1,2.2128012E1,1.3588602E2,8.702095E0,1.0883252E1,1.6678378E3,5.8264233E2,9.515338E0,5.039451E0,3.311658E1,1.7802996E1],"tree_param":{"num_deleted":"0","num_feature":"33","num_nodes":"31","size_leaf_vector":"1"}},{"base_weights":[5.566167E-3,-1.4477469E-2,1.5077612E-1,1.7931956E-1,-2.5651833E-2,9.5881345E-3,3.314767E-1,2.928831E-1,-1.9977463E-2,-4.9281288E-2,6.822332E-2,1.6539593E-1,-2.6018944E-1,5.1501924E-1,3.405733E-2,-1.0022547E-2,2.2078022E-2,-3.402915E-2,9.0138195E-3,-2.0725619E-2,-1.9915325E-3,-4.9294796E-2,4.445975E-3,2.7308095E-2,3.719074E-3,-2.1776577E-2,2.209564E-2,-1.4954994E-2,2.8711105E-2,-1.8339965E-2,2.1781104E-2],"categories":[],"categories_nodes":[],"categories_segments":[],"categories_sizes":[],"default_left":[0,0,0,0,0,0,0,0,0,0,0,0,0,0,0,0,0,0,0,0,0,0,0,0,0,0,0,0,0,0,0],"id":38,"left_children":[1,3,5,7,9,11,13,15,17,19,21,23,25,27,29,-1,-1,-1,-1,-1,-1,-1,-1,-1,-1,-1,-1,-1,-1,-1,-1],"loss_changes":[9.724713E0,6.3375435E0,1.0302775E1,3.6420064E0,6.152668E0,9.653354E0,9.613258E0,7.59093E0,7.91099E0,7.589804E0,1.2154175E1,4.954227E0,1.0525524E1,5.4741135E0,1.1271742E1,0E0,0E0,0E0,0E0,0E0,0E0,0E0,0E0,0E0,0E0,0E0,0E0,0E0,0E0,0E0,0E0],"parents":[2147483647,0,0,1,1,2,2,3,3,4,4,5,5,6,6,7,7,8,8,9,9,10,10,11,11,12,12,13,13,14,14],"right_children":[2,4,6,8,10,12,14,16,18,20,22,24,26,28,30,-1,-1,-1,-1,-1,-1,-1,-1,-1,-1,-1,-1,-1,-1,-1,-1],"split_conditions":[2.25E0,1.54E0,3.75E-1,6.25E-1,7E-1,1.78E0,1.9090909E0,2.05E0,7.714286E-1,1.59E0,1.35E0,1.197219E0,2.3E0,2.5E-1,7.1428573E-1,-1.0022547E-2,2.2078022E-2,-3.402915E-2,9.0138195E-3,-2.0725619E-2,-1.9915325E-3,-4.9294796E-2,4.445975E-3,2.7308095E-2,3.719074E-3,-2.1776577E-2,2.209564E-2,-1.4954994E-2,2.8711105E-2,-1.8339965E-2,2.1781104E-2],"split_indices":[10,16,20,18,18,16,22,15,24,16,14,27,22,18,32,0,0,0,0,0,0,0,0,0,0,0,0,0,0,0,0],"split_type":[0,0,0,0,0,0,0,0,0,0,0,0,0,0,0,0,0,0,0,0,0,0,0,0,0,0,0,0,0,0,0],"sum_hessian":[3.3347786E3,2.9304885E3,4.042899E2,1.5845236E2,2.7720361E3,2.2786055E2,1.7642934E2,1.0095711E2,5.749525E1,2.2158274E3,5.562089E2,1.4492052E2,8.294004E1,1.0844082E2,6.798852E1,2.3143297E1,7.781381E1,1.2932794E1,4.4562454E1,5.454208E1,2.1612852E3,9.719068E0,5.4648987E2,2.6780922E1,1.1813959E2,6.678368E1,1.6156363E1,6.962046E0,1.0147877E2,3.3942963E1,3.404556E1],"tree_param":{"num_deleted":"0","num_feature":"33","num_nodes":"31","size_leaf_vector":"1"}},{"base_weights":[5.1340074E-3,1.5489295E-1,-2.7465519E-2,-1.1526753E-1,2.0535219E-1,2.7992968E-3,-1.3731685E-1,-0E0,-5.411859E-1,7.881325E-2,2.6956674E-1,3.5173856E-2,-8.174909E-2,-3.4959567E-1,-8.859791E-2,-3.8848973E-3,4.295676E-2,1.3576043E-2,-4.340604E-2,8.533711E-3,-1.6764624E-2,4.5626746E-3,1.6457897E-2,-6.732277E-5,8.881438E-3,-8.651207E-3,2.4933896E-3,-1.1229883E-2,-4.9565356E-2,1.6500307E-2,-6.4416714E-3],"categories":[],"categories_nodes":[],"categories_segments":[],"categories_sizes":[],"default_left":[0,0,0,0,0,0,0,0,0,0,0,0,0,0,0,0,0,0,0,0,0,0,0,0,0,0,0,0,0,0,0],"id":39,"left_children":[1,3,5,7,9,11,13,15,17,19,21,23,25,27,29,-1,-1,-1,-1,-1,-1,-1,-1,-1,-1,-1,-1,-1,-1,-1,-1],"loss_changes":[1.6161325E1,8.100885E0,9.043555E0,4.6151047E0,4.00169E0,5.827452E0,5.9999504E0,5.075847E0,5.6088924E0,6.5093594E0,3.4380016E0,8.037563E0,7.0981445E0,8.392633E0,8.097901E0,0E0,0E0,0E0,0E0,0E0,0E0,0E0,0E0,0E0,0E0,0E0,0E0,0E0,0E0,0E0,0E0],"parents":[2147483647,0,0,1,1,2,2,3,3,4,4,5,5,6,6,7,7,8,8,9,9,10,10,11,11,12,12,13,13,14,14],"right_children":[2,4,6,8,10,12,14,16,18,20,22,24,26,28,30,-1,-1,-1,-1,-1,-1,-1,-1,-1,-1,-1,-1,-1,-1,-1,-1],"split_conditions":[1.66E0,8.333333E-1,2.31E0,1.1E0,7.714286E-1,8E-1,1.5333333E0,2.1666667E0,6.2608695E-1,7E-1,4.2857143E-1,1.4285715E0,1.3333334E0,7.1428573E-1,7.1428573E-1,-3.8848973E-3,4.295676E-2,1.3576043E-2,-4.340604E-2,8.533711E-3,-1.6764624E-2,4.5626746E-3,1.6457897E-2,-6.732277E-5,8.881438E-3,-8.651207E-3,2.4933896E-3,-1.1229883E-2,-4.9565356E-2,1.6500307E-2,-6.4416714E-3],"split_indices":[16,13,16,6,24,9,14,11,24,24,19,5,11,32,10,0,0,0,0,0,0,0,0,0,0,0,0,0,0,0,0],"split_type":[0,0,0,0,0,0,0,0,0,0,0,0,0,0,0,0,0,0,0,0,0,0,0,0,0,0,0,0,0,0,0],"sum_hessian":[3.3058606E3,5.908538E2,2.7150068E3,9.247474E1,4.9837906E2,2.128621E3,5.8638586E2,7.347671E1,1.8998028E1,1.6904651E2,3.2933255E2,1.5405089E3,5.88112E2,1.0792132E2,4.7846457E2,6.816562E1,5.311086E0,5.410939E0,1.3587089E1,1.3903398E2,3.0012537E1,8.3546844E1,2.4578572E2,1.2263942E3,3.1411478E2,3.4754092E2,2.4057109E2,9.1587036E1,1.6334276E1,4.1106968E1,4.373576E2],"tree_param":{"num_deleted":"0","num_feature":"33","num_nodes":"31","size_leaf_vector":"1"}},{"base_weights":[-6.646146E-3,-4.2474672E-2,8.476603E-2,1.7057472E-1,-5.53554E-2,-5.0764686E-1,9.674805E-2,2.9375592E-1,-3.885738E-1,-1.3853425E-1,-7.783405E-3,1.4110337E-2,-8.29513E-1,4.0229252E-1,6.815867E-2,1.1268709E-2,6.091101E-2,-3.3279378E-2,2.4570776E-2,-1.6267657E-2,-4.5627365E-3,-9.5035255E-5,-4.4443294E-2,-7.341491E-2,-1.2840184E-2,5.908844E-2,1.54703455E-2,2.3519842E-2,2.5666533E-3],"categories":[],"categories_nodes":[],"categories_segments":[],"categories_sizes":[],"default_left":[0,0,0,0,0,0,0,0,0,0,0,0,0,0,0,0,0,0,0,0,0,0,0,0,0,0,0,0,0],"id":40,"left_children":[1,3,5,7,9,11,13,15,17,19,21,-1,23,25,27,-1,-1,-1,-1,-1,-1,-1,-1,-1,-1,-1,-1,-1,-1],"loss_changes":[1.0904939E1,6.5665917E0,6.6601934E0,9.490337E0,8.9205885E0,5.0106955E0,7.95833E0,6.6855745E0,6.410561E0,7.1789837E0,7.365238E0,0E0,4.4038134E0,5.1454945E0,5.624943E0,0E0,0E0,0E0,0E0,0E0,0E0,0E0,0E0,0E0,0E0,0E0,0E0,0E0,0E0],"parents":[2147483647,0,0,1,1,2,2,3,3,4,4,5,5,6,6,7,7,8,8,9,9,10,10,12,12,13,13,14,14],"right_children":[2,4,6,8,10,12,14,16,18,20,22,-1,24,26,28,-1,-1,-1,-1,-1,-1,-1,-1,-1,-1,-1,-1,-1,-1],"split_conditions":[2.16E0,7.777778E-1,8E-1,6.666667E-1,2.25E0,7.777778E-1,1E-1,8E-1,1E0,1.8333334E0,1.4E0,1.4110337E-2,1.375E0,4.0816328E-1,7.1428573E-1,1.1268709E-2,6.091101E-2,-3.3279378E-2,2.4570776E-2,-1.6267657E-2,-4.5627365E-3,-9.5035255E-5,-4.4443294E-2,-7.341491E-2,-1.2840184E-2,5.908844E-2,1.54703455E-2,2.3519842E-2,2.5666533E-3],"split_indices":[17,3,3,19,15,7,21,25,7,14,25,0,6,24,0,0,0,0,0,0,0,0,0,0,0,0,0,0,0],"split_type":[0,0,0,0,0,0,0,0,0,0,0,0,0,0,0,0,0,0,0,0,0,0,0,0,0,0,0,0,0],"sum_hessian":[3.328778E3,2.392629E3,9.361491E2,1.3526799E2,2.257361E3,1.7573433E1,9.185757E2,1.1138352E2,2.3884464E1,8.1985095E2,1.43751E3,5.0335994E0,1.2539833E1,7.717808E1,8.4139764E2,1.0497089E2,6.4126363E0,1.84377E1,5.446764E0,1.639656E2,6.558854E2,1.4290841E3,8.425874E0,5.106165E0,7.433668E0,6.854781E0,7.0323296E1,3.246153E1,8.089361E2],"tree_param":{"num_deleted":"0","num_feature":"33","num_nodes":"29","size_leaf_vector":"1"}},{"base_weights":[-4.845188E-3,-6.397281E-2,2.9524995E-2,-3.1463534E-2,-3.0576462E-1,-6.1912807E-3,1.24551065E-1,3.9727945E-2,-1.4605543E-1,2.259346E-1,-3.8246685E-1,-1.1213073E-2,4.676873E-2,-1.1112462E-2,2.0354062E-1,-5.706969E-3,6.079992E-3,2.2304421E-2,-8.998124E-3,-1.0342464E-2,3.7695404E-2,-2.438139E-3,-2.4466135E-2,3.8275009E-3,-3.040158E-3,9.075091E-4,-4.9249895E-2,-3.7468243E-2,1.169612E-2],"categories":[],"categories_nodes":[],"categories_segments":[],"categories_sizes":[],"default_left":[0,0,0,0,0,0,0,0,0,0,0,0,0,0,0,0,0,0,0,0,0,0,0,0,0,0,0,0,0],"id":41,"left_children":[1,3,5,7,9,11,13,15,17,19,21,23,-1,25,27,-1,-1,-1,-1,-1,-1,-1,-1,-1,-1,-1,-1,-1,-1],"loss_changes":[6.791235E0,9.616154E0,7.178232E0,8.8654375E0,6.022149E0,7.1746874E0,6.210765E0,8.446061E0,8.414233E0,4.498456E0,4.46509E0,6.6517143E0,0E0,6.1853433E0,1.0706792E1,0E0,0E0,0E0,0E0,0E0,0E0,0E0,0E0,0E0,0E0,0E0,0E0,0E0,0E0],"parents":[2147483647,0,0,1,1,2,2,3,3,4,4,5,5,6,6,7,7,8,8,9,9,10,10,11,11,13,13,14,14],"right_children":[2,4,6,8,10,12,14,16,18,20,22,24,-1,26,28,-1,-1,-1,-1,-1,-1,-1,-1,-1,-1,-1,-1,-1,-1],"split_conditions":[2.2857144E0,5E-1,3.05E0,1.25E-1,-5E-1,1.8E0,7.619048E-1,6.25E-1,2.857143E-1,2.35E0,7.777778E-1,1.0327955E0,4.676873E-2,8.333333E-1,6.408699E-1,-5.706969E-3,6.079992E-3,2.2304421E-2,-8.998124E-3,-1.0342464E-2,3.7695404E-2,-2.438139E-3,-2.4466135E-2,3.8275009E-3,-3.040158E-3,9.075091E-4,-4.9249895E-2,-3.7468243E-2,1.169612E-2],"split_indices":[14,21,15,25,26,26,23,23,19,15,0,28,0,30,27,0,0,0,0,0,0,0,0,0,0,0,0,0,0],"split_type":[0,0,0,0,0,0,0,0,0,0,0,0,0,0,0,0,0,0,0,0,0,0,0,0,0,0,0,0,0],"sum_hessian":[3.3381455E3,1.2278691E3,2.1102764E3,1.0837069E3,1.4416231E2,1.5337043E3,5.7657196E2,6.6829926E2,4.1540762E2,1.776514E1,1.2639716E2,1.5266562E3,7.0480437E0,2.1202136E2,3.6455063E2,2.3153828E2,4.3676096E2,2.1680443E1,3.9372717E2,9.99279E0,7.77235E0,3.123728E1,9.515988E1,5.5026074E2,9.763955E2,2.0668958E2,5.3317857E0,1.0431045E1,3.5411957E2],"tree_param":{"num_deleted":"0","num_feature":"33","num_nodes":"29","size_leaf_vector":"1"}},{"base_weights":[-1.3997344E-2,-6.3426495E-2,6.229184E-2,-7.4312106E-2,3.3207262E-1,5.580785E-2,6.977002E-1,-1.2350655E-1,6.694672E-3,-1.8439136E-2,4.2966908E-1,-1.4268342E-1,7.260654E-2,4.8750024E-2,1.4669414E-2,-7.4064992E-3,4.622714E-3,-2.7981638E-3,1.3343117E-2,4.2595033E-2,4.7338144E-3,-3.9170356E-3,-5.5516638E-2,3.271946E-3,3.159925E-2],"categories":[],"categories_nodes":[],"categories_segments":[],"categories_sizes":[],"default_left":[0,0,0,0,0,0,0,0,0,0,0,0,0,0,0,0,0,0,0,0,0,0,0,0,0],"id":42,"left_children":[1,3,5,7,9,11,13,15,17,-1,19,21,23,-1,-1,-1,-1,-1,-1,-1,-1,-1,-1,-1,-1],"loss_changes":[1.2525956E1,8.679802E0,5.263537E0,7.836836E0,3.8546238E0,4.3159256E0,1.0381804E0,6.5195255E0,1.2132135E1,0E0,6.6056376E0,6.069539E0,4.674416E0,0E0,0E0,0E0,0E0,0E0,0E0,0E0,0E0,0E0,0E0,0E0,0E0],"parents":[2147483647,0,0,1,1,2,2,3,3,4,4,5,5,6,6,7,7,8,8,10,10,11,11,12,12],"right_children":[2,4,6,8,10,12,14,16,18,-1,20,22,24,-1,-1,-1,-1,-1,-1,-1,-1,-1,-1,-1,-1],"split_conditions":[2.03E0,2.857143E0,2.75E0,1.25E0,3.75E-1,5.3333336E-1,1.25E0,1.4337208E0,1.3165612E0,-1.8439136E-2,1.1E0,5.263158E-1,2.5555556E0,4.8750024E-2,1.4669414E-2,-7.4064992E-3,4.622714E-3,-2.7981638E-3,1.3343117E-2,4.2595033E-2,4.7338144E-3,-3.9170356E-3,-5.5516638E-2,3.271946E-3,3.159925E-2],"split_indices":[17,22,1,11,18,22,12,27,28,0,1,22,6,0,0,0,0,0,0,0,0,0,0,0,0],"split_type":[0,0,0,0,0,0,0,0,0,0,0,0,0,0,0,0,0,0,0,0,0,0,0,0,0],"sum_hessian":[3.3196553E3,2.0153517E3,1.3043036E3,1.9624039E3,5.2947742E1,1.292361E3,1.1942615E1,1.2213827E3,7.410212E2,6.0070343E0,4.694071E1,9.979139E1,1.1925696E3,6.1000266E0,5.8425875E0,1.0970736E3,1.2430905E2,5.975175E2,1.4350368E2,1.9951672E1,2.6989037E1,9.468005E1,5.1113358E0,1.1787612E3,1.380836E1],"tree_param":{"num_deleted":"0","num_feature":"33","num_nodes":"25","size_leaf_vector":"1"}},{"base_weights":[-1.1791713E-3,5.6619413E-2,-7.801257E-2,-3.8353157E-1,6.4584136E-2,-8.639801E-2,4.288192E-1,1.7930502E-2,-5.312988E-1,2.8370136E-1,5.059062E-2,-4.71417E-2,-1.8840201E-1,-1.5713466E-2,6.6110605E-1,-1.4517009E-2,-6.625364E-2,1.979245E-2,-1.1761884E-2,1.259994E-3,8.934119E-3,-7.916444E-3,9.81622E-4,-1.9095823E-2,-2.781809E-3,5.587861E-2,1.3864862E-2],"categories":[],"categories_nodes":[],"categories_segments":[],"categories_sizes":[],"default_left":[0,0,0,0,0,0,0,0,0,0,0,0,0,0,0,0,0,0,0,0,0,0,0,0,0,0,0],"id":43,"left_children":[1,3,5,7,9,11,13,-1,15,17,19,21,23,-1,25,-1,-1,-1,-1,-1,-1,-1,-1,-1,-1,-1,-1],"loss_changes":[1.4786375E1,6.650794E0,6.0801573E0,3.900919E0,5.675331E0,5.604476E0,4.255107E0,0E0,4.923975E0,6.59237E0,5.6865673E0,7.579139E0,9.9591055E0,0E0,2.7278643E0,0E0,0E0,0E0,0E0,0E0,0E0,0E0,0E0,0E0,0E0,0E0,0E0],"parents":[2147483647,0,0,1,1,2,2,3,3,4,4,5,5,6,6,8,8,9,9,10,10,11,11,12,12,14,14],"right_children":[2,4,6,8,10,12,14,-1,16,18,20,22,24,-1,26,-1,-1,-1,-1,-1,-1,-1,-1,-1,-1,-1,-1],"split_conditions":[2.04E0,-1.1666666E0,1.1904762E0,6.666667E-1,1.44E0,6.666667E-1,8.3666E-1,1.7930502E-2,7.1428573E-1,2.1666667E0,1.8333334E0,3.3333334E-1,1.2E0,-1.5713466E-2,1.25E0,-1.4517009E-2,-6.625364E-2,1.979245E-2,-1.1761884E-2,1.259994E-3,8.934119E-3,-7.916444E-3,9.81622E-4,-1.9095823E-2,-2.781809E-3,5.587861E-2,1.3864862E-2],"split_indices":[16,25,26,7,16,9,27,0,29,12,12,30,10,0,0,0,0,0,0,0,0,0,0,0,0,0,0],"split_type":[0,0,0,0,0,0,0,0,0,0,0,0,0,0,0,0,0,0,0,0,0,0,0,0,0,0,0],"sum_hessian":[3.327142E3,1.8981809E3,1.4289613E3,3.267663E1,1.8655043E3,1.4067142E3,2.2247007E1,5.07658E0,2.760005E1,1.10399254E2,1.755105E3,1.0175514E3,3.8916287E2,5.1115746E0,1.7135433E1,2.231718E1,5.282869E0,9.1134186E1,1.9265064E1,1.4664067E3,2.886982E2,3.8185022E2,6.357012E2,1.5728313E2,2.3187975E2,6.8346276E0,1.0300806E1],"tree_param":{"num_deleted":"0","num_feature":"33","num_nodes":"27","size_leaf_vector":"1"}},{"base_weights":[-2.1993886E-3,-1.0763263E-1,3.2719683E-2,-1.1637448E-1,3.269524E-2,3.7411276E-2,-5.549373E-1,4.123431E-2,-1.2336783E-1,3.1501062E-2,4.4909123E-1,-4.887366E-2,-6.709453E-2,-5.765769E-3,-4.702661E-2,-2.799292E-3,2.879569E-3,4.1684985E-2,-4.4098934E-3,2.2514189E-2,-2.6200334E-2],"categories":[],"categories_nodes":[],"categories_segments":[],"categories_sizes":[],"default_left":[0,0,0,0,0,0,0,0,0,0,0,0,0,0,0,0,0,0,0,0,0],"id":44,"left_children":[1,3,5,7,-1,9,11,-1,13,15,17,19,-1,-1,-1,-1,-1,-1,-1,-1,-1],"loss_changes":[1.2285627E1,5.550749E0,6.874255E0,5.4412594E0,0E0,5.9861546E0,7.653349E0,0E0,5.1613073E0,5.6001825E0,7.3533444E0,3.3559015E0,0E0,0E0,0E0,0E0,0E0,0E0,0E0,0E0,0E0],"parents":[2147483647,0,0,1,1,2,2,3,3,5,5,6,6,8,8,9,9,10,10,11,11],"right_children":[2,4,6,8,-1,10,12,-1,14,16,18,20,-1,-1,-1,-1,-1,-1,-1,-1,-1],"split_conditions":[1.71E0,1.3E0,3.3333333E0,2.857143E-1,3.269524E-2,2.9E0,1.264911E0,4.123431E-2,1.1111112E0,2.0666666E0,1.5555556E0,8.333333E-1,-6.709453E-2,-5.765769E-3,-4.702661E-2,-2.799292E-3,2.879569E-3,4.1684985E-2,-4.4098934E-3,2.2514189E-2,-2.6200334E-2],"split_indices":[17,26,13,32,0,0,27,0,26,15,5,12,0,0,0,0,0,0,0,0,0],"split_type":[0,0,0,0,0,0,0,0,0,0,0,0,0,0,0,0,0,0,0,0,0],"sum_hessian":[3.3330151E3,8.294347E2,2.5035806E3,8.209889E2,8.445802E0,2.484849E3,1.8731428E1,5.088081E0,8.159008E2,2.4509814E3,3.3867676E1,1.2124037E1,6.6073914E0,8.091904E2,6.7103834E0,5.618819E2,1.8890995E3,1.9525297E1,1.4342381E1,5.835405E0,6.288632E0],"tree_param":{"num_deleted":"0","num_feature":"33","num_nodes":"21","size_leaf_vector":"1"}},{"base_weights":[3.1231106E-3,1.9108254E-1,-1.3277197E-2,2.2258572E-1,-2.309197E-1,-2.6985308E-2,1.6504142E-1,1.1457413E-1,3.98179E-1,-4.7855563E-2,2.1627827E-1,7.293483E-1,-3.0242192E-2,9.382442E-2,7.5089574E-1,1.741419E-3,3.363621E-2,-2.5369687E-2,2.3251968E-2,-2.0148842E-2,3.919056E-2,1.8713182E-2,4.8565228E-2,-4.882432E-3,2.4173214E-4,-3.8269985E-2,6.7072534E-3,3.328478E-3,4.7310185E-2],"categories":[],"categories_nodes":[],"categories_segments":[],"categories_sizes":[],"default_left":[0,0,0,0,0,0,0,0,0,0,0,0,0,0,0,0,0,0,0,0,0,0,0,0,0,0,0,0,0],"id":45,"left_children":[1,3,5,7,9,11,13,15,17,-1,19,21,23,25,27,-1,-1,-1,-1,-1,-1,-1,-1,-1,-1,-1,-1,-1,-1],"loss_changes":[1.0247444E1,3.5976114E0,7.450738E0,4.625718E0,6.3878136E0,6.9365892E0,8.919107E0,6.8461E0,5.9277773E0,0E0,4.700696E0,5.38527E-1,6.6876526E0,6.8023853E0,2.9468212E0,0E0,0E0,0E0,0E0,0E0,0E0,0E0,0E0,0E0,0E0,0E0,0E0,0E0,0E0],"parents":[2147483647,0,0,1,1,2,2,3,3,4,4,5,5,6,6,7,7,8,8,10,10,11,11,12,12,13,13,14,14],"right_children":[2,4,6,8,10,12,14,16,18,-1,20,22,24,26,28,-1,-1,-1,-1,-1,-1,-1,-1,-1,-1,-1,-1,-1,-1],"split_conditions":[1.54E0,2.9E0,8E-1,1.2583058E0,1.7029387E0,2.857143E-1,7.5E-1,2.2222223E0,-1.1904762E0,-4.7855563E-2,8.333333E-1,2.2222222E-1,4.2857143E-1,4.2857143E-1,-4.5833334E-1,1.741419E-3,3.363621E-2,-2.5369687E-2,2.3251968E-2,-2.0148842E-2,3.919056E-2,1.8713182E-2,4.8565228E-2,-4.882432E-3,2.4173214E-4,-3.8269985E-2,6.7072534E-3,3.328478E-3,4.7310185E-2],"split_indices":[16,5,29,28,28,32,26,6,26,0,13,23,19,32,25,0,0,0,0,0,0,0,0,0,0,0,0,0,0],"split_type":[0,0,0,0,0,0,0,0,0,0,0,0,0,0,0,0,0,0,0,0,0,0,0,0,0,0,0,0,0],"sum_hessian":[3.3167034E3,2.6580713E2,3.0508962E3,2.480028E2,1.7804317E1,2.8344124E3,2.1648389E2,1.5492609E2,9.307672E1,6.4361763E0,1.1368141E1,1.1065513E1,2.823347E3,1.9420677E2,2.2277117E1,1.3664455E2,1.828154E1,5.8437037E0,8.723302E1,5.490745E0,5.877396E0,5.6840153E0,5.381497E0,9.667089E2,1.856638E3,7.787789E0,1.8641899E2,5.3576536E0,1.6919462E1],"tree_param":{"num_deleted":"0","num_feature":"33","num_nodes":"29","size_leaf_vector":"1"}},{"base_weights":[1.3869689E-2,9.788107E-3,7.309476E-1,5.603478E-3,5.849407E-1,8.1619166E-4,5.1873483E-2,3.6395814E-2,-6.0871433E-2,5.8397282E-2,1.0430811E-1,2.0895645E-3,-2.0926861E-2,-3.502021E-3,3.4102555E-2,-2.8893664E-2,3.5443105E-2],"categories":[],"categories_nodes":[],"categories_segments":[],"categories_sizes":[],"default_left":[0,0,0,0,0,0,0,0,0,0,0,0,0,0,0,0,0],"id":46,"left_children":[1,3,5,7,9,-1,-1,11,13,-1,15,-1,-1,-1,-1,-1,-1],"loss_changes":[9.605895E0,7.861352E0,3.9476671E0,6.6923885E0,6.363304E0,0E0,0E0,5.468711E0,7.032884E0,0E0,6.2487507E0,0E0,0E0,0E0,0E0,0E0,0E0],"parents":[2147483647,0,0,1,1,2,2,3,3,4,4,7,7,8,8,10,10],"right_children":[2,4,6,8,10,-1,-1,12,14,-1,16,-1,-1,-1,-1,-1,-1],"split_conditions":[2.7142856E0,1.5666667E0,7.440238E-1,2.15E0,1.2222222E0,8.1619166E-4,5.1873483E-2,4.1538463E0,1.7919574E0,5.8397282E-2,1.0749677E0,2.0895645E-3,-2.0926861E-2,-3.502021E-3,3.4102555E-2,-2.8893664E-2,3.5443105E-2],"split_indices":[1,26,27,16,1,0,0,24,27,0,27,0,0,0,0,0,0],"split_type":[0,0,0,0,0,0,0,0,0,0,0,0,0,0,0,0,0],"sum_hessian":[3.3087866E3,3.2912063E3,1.7580324E1,3.2686086E3,2.2597761E1,5.6912556E0,1.1889069E1,2.2351875E3,1.033421E3,9.471185E0,1.3126577E1,2.2101038E3,2.5083704E1,1.0218499E3,1.1571116E1,6.110351E0,7.0162263E0],"tree_param":{"num_deleted":"0","num_feature":"33","num_nodes":"17","size_leaf_vector":"1"}},{"base_weights":[-3.2934556E-3,2.169116E-1,-1.1330142E-2,2.9438746E-1,-4.5386547E-1,-2.5307313E-2,9.706492E-2,-1.9209353E-2,3.6322597E-1,-5.1000845E-2,8.749559E-3,3.244889E-1,-3.0280402E-2,4.14542E-1,2.1328581E-2,2.4131306E-2,1.2986294E-3,3.0717457E-2,-1.2529986E-2,-1.6867565E-3,2.5247127E-2,-2.3136025E-3,3.230433E-2,1.8849071E-2,-2.7392402E-3],"categories":[],"categories_nodes":[],"categories_segments":[],"categories_sizes":[],"default_left":[0,0,0,0,0,0,0,0,0,0,0,0,0,0,0,0,0,0,0,0,0,0,0,0,0],"id":47,"left_children":[1,3,5,7,9,11,13,-1,15,-1,-1,17,19,21,23,-1,-1,-1,-1,-1,-1,-1,-1,-1,-1],"loss_changes":[5.866306E0,6.181976E0,4.857642E0,5.0585003E0,4.6571784E0,4.928436E0,8.746865E0,0E0,3.814167E0,0E0,0E0,6.8040967E0,5.1578436E0,7.577815E0,8.086683E0,0E0,0E0,0E0,0E0,0E0,0E0,0E0,0E0,0E0,0E0],"parents":[2147483647,0,0,1,1,2,2,3,3,4,4,5,5,6,6,8,8,11,11,12,12,13,13,14,14],"right_children":[2,4,6,8,10,12,14,-1,16,-1,-1,18,20,22,24,-1,-1,-1,-1,-1,-1,-1,-1,-1,-1],"split_conditions":[1.45E0,2.5E0,1.8333334E0,3E-1,1.7029387E0,3.3333334E-1,6.666667E-1,-1.9209353E-2,7.1428573E-1,-5.1000845E-2,8.749559E-3,5.555556E-1,2.13809E0,1.0833334E0,1.1333333E0,2.4131306E-2,1.2986294E-3,3.0717457E-2,-1.2529986E-2,-1.6867565E-3,2.5247127E-2,-2.3136025E-3,3.230433E-2,1.8849071E-2,-2.7392402E-3],"split_indices":[16,12,12,9,28,32,9,0,29,0,0,29,27,23,23,0,0,0,0,0,0,0,0,0,0],"split_type":[0,0,0,0,0,0,0,0,0,0,0,0,0,0,0,0,0,0,0,0,0,0,0,0,0],"sum_hessian":[3.3240513E3,1.1569086E2,3.2083606E3,1.0434862E2,1.1342233E1,2.8434026E3,3.6495792E2,9.055038E0,9.529358E1,5.7250476E0,5.617185E0,3.8675777E1,2.8047268E3,6.917814E1,2.9577975E2,6.984006E1,2.5453522E1,2.5785038E1,1.28907385E1,2.7878557E3,1.6871101E1,2.3258322E1,4.5919815E1,5.1675957E1,2.441038E2],"tree_param":{"num_deleted":"0","num_feature":"33","num_nodes":"25","size_leaf_vector":"1"}},{"base_weights":[4.6648197E-3,1.0761016E-1,-1.5910095E-2,2.0052129E-1,-2.6416753E-3,-2.7537467E-2,1.688065E-1,2.741247E-1,-7.08456E-2,-4.9489554E-2,4.2782977E-1,2.0382299E-1,-3.744941E-2,2.8837484E-1,