{"learner":{"attributes":{"best_iteration":"13","best_score":"0.6185048845857902","scikit_learn":"{\"_estimator_type\": \"classifier\"}"},"feature_names":["home_goals_per_game","home_goals_conceded_per_game","home_over15_rate","home_over05_rate","home_first_half_goals","away_goals_per_game","away_goals_conceded_per_game","away_over15_rate","away_over05_rate","away_first_half_goals","home_home_goals","home_home_conceded","away_away_goals","away_away_conceded","total_expected_goals","defensive_strength","over15_odds","under15_odds","home_btts_rate","away_btts_rate","home_clean_sheet_rate","away_clean_sheet_rate","home_attack_strength","away_attack_strength","attack_vs_defense_ratio","home_momentum","away_momentum","home_goals_std","away_goals_std","home_over25_rate","away_over25_rate","home_scored_in_rate","away_scored_in_rate"],"feature_types":["float","float","float","float","float","float","float","float","float","float","float","float","float","float","float","float","float","float","float","float","float","float","float","float","float","float","float","float","float","float","float","float","float"],"gradient_booster":{"model":{"gbtree_model_param":{"num_parallel_tree":"1","num_trees":"34"},"iteration_indptr":[0,1,2,3,4,5,6,7,8,9,10,11,12,13,14,15,16,17,18,19,20,21,22,23,24,25,26,27,28,29,30,31,32,33,34],"tree_info":[0,0,0,0,0,0,0,0,0,0,0,0,0,0,0,0,0,0,0,0,0,0,0,0,0,0,0,0,0,0,0,0,0,0],"trees":[{"base_weights":[-3.7782535E-2,2.6491034E-1,-2.635735E-1,1.8659508E-1,7.170056E-1,-1.7208442E-1,-4.5641953E-1,1.1760121E-1,4.2926466E-1,-4.6994355E-2,7.716769E-1,-2.4560978E-1,-8.902125E-2,-6.8411684E-1,-3.6417967E-1,4.886435E-3,5.211079E-2,-9.564341E-3,2.4271129E-2,2.4900908E-2,-2.7564991E-2,4.5802098E-2,2.5563736E-2,-5.424838E-3,-1.7848277E-2,-6.9681155E-3,1.0064535E-2,-1.9427743E-2,-3.97631E-2,-1.94362E-2,2.260981E-2],"categories":[],"categories_nodes":[],"categories_segments":[],"categories_sizes":[],"default_left":[0,0,0,0,0,0,0,0,0,0,0,0,0,0,0,0,0,0,0,0,0,0,0,0,0,0,0,0,0,0,0],"id":0,"left_children":[1,3,5,7,9,11,13,15,17,19,21,23,25,27,29,-1,-1,-1,-1,-1,-1,-1,-1,-1,-1,-1,-1,-1,-1,-1,-1],"loss_changes":[2.1293262E2,4.69E1,3.134404E1,1.891438E1,8.294479E0,7.348522E0,1.1685883E1,1.6067749E1,8.861637E0,4.1025105E0,6.2710342E0,9.714939E0,8.373212E0,4.95417E0,8.393356E0,0E0,0E0,0E0,0E0,0E0,0E0,0E0,0E0,0E0,0E0,0E0,0E0,0E0,0E0,0E0,0E0],"parents":[2147483647,0,0,1,1,2,2,3,3,4,4,5,5,6,6,7,7,8,8,9,9,10,10,11,11,12,12,13,13,14,14],"right_children":[2,4,6,8,10,12,14,16,18,20,22,24,26,28,30,-1,-1,-1,-1,-1,-1,-1,-1,-1,-1,-1,-1,-1,-1,-1,-1],"split_conditions":[1.89E0,2.7E0,2.31E0,3.5833333E0,5.555556E-1,1.3E0,6.666667E-1,5.25E0,7E-1,5.555556E-1,6.25E-1,-4.761905E-2,6.666667E-1,3E-1,1.6865481E0,4.886435E-3,5.211079E-2,-9.564341E-3,2.4271129E-2,2.4900908E-2,-2.7564991E-2,4.5802098E-2,2.5563736E-2,-5.424838E-3,-1.7848277E-2,-6.9681155E-3,1.0064535E-2,-1.9427743E-2,-3.97631E-2,-1.94362E-2,2.260981E-2],"split_indices":[16,17,16,15,1,5,12,14,2,19,18,26,29,9,28,0,0,0,0,0,0,0,0,0,0,0,0,0,0,0,0],"split_type":[0,0,0,0,0,0,0,0,0,0,0,0,0,0,0,0,0,0,0,0,0,0,0,0,0,0,0,0,0,0,0],"sum_hessian":[3.1135215E3,1.3299667E3,1.7835548E3,1.1349894E3,1.9497723E2,1.2113046E3,5.7225024E2,8.852102E2,2.4977919E2,1.2907901E1,1.8206934E2,6.408659E2,5.704386E2,1.6282071E2,4.0942953E2,8.6777325E2,1.7436989E1,2.0380896E1,2.293983E2,6.114269E0,6.7936316E0,1.1526529E2,6.680405E1,2.885029E2,3.5236304E2,4.8687695E2,8.356167E1,4.597024E1,1.16850464E2,3.981068E2,1.132272E1],"tree_param":{"num_deleted":"0","num_feature":"33","num_nodes":"31","size_leaf_vector":"1"}},{"base_weights":[-3.0182475E-2,-1.1552492E-1,3.1530002E-1,-1.733012E-1,1.2145029E-1,2.6345405E-1,7.185525E-1,-2.4103284E-1,-9.461509E-4,-9.767174E-2,2.355137E-1,2.56511E-2,3.1522244E-1,9.0835685E-1,-2.897686E-1,-1.4299388E-2,2.4159302E-4,-3.7058927E-3,1.0367968E-2,-2.536383E-2,7.304113E-3,6.8884618E-3,2.913632E-2,-3.6986072E-3,2.4330555E-2,-5.377741E-3,1.8256158E-2,1.034579E-2,5.095929E-2,1.5933307E-2,-4.6774875E-2],"categories":[],"categories_nodes":[],"categories_segments":[],"categories_sizes":[],"default_left":[0,0,0,0,0,0,0,0,0,0,0,0,0,0,0,0,0,0,0,0,0,0,0,0,0,0,0,0,0,0,0],"id":1,"left_children":[1,3,5,7,9,11,13,15,17,19,21,23,25,27,29,-1,-1,-1,-1,-1,-1,-1,-1,-1,-1,-1,-1,-1,-1,-1,-1],"loss_changes":[9.202211E1,3.4300518E1,1.2636734E1,2.3479504E1,1.2307279E1,6.723175E0,1.3650295E1,1.6000343E1,8.6811905E0,1.6931406E1,1.0825451E1,4.654823E0,9.577E0,4.2470284E0,4.958356E0,0E0,0E0,0E0,0E0,0E0,0E0,0E0,0E0,0E0,0E0,0E0,0E0,0E0,0E0,0E0,0E0],"parents":[2147483647,0,0,1,1,2,2,3,3,4,4,5,5,6,6,7,7,8,8,9,9,10,10,11,11,12,12,13,13,14,14],"right_children":[2,4,6,8,10,12,14,16,18,20,22,24,26,28,30,-1,-1,-1,-1,-1,-1,-1,-1,-1,-1,-1,-1,-1,-1,-1,-1],"split_conditions":[1.8E0,7E-1,2.7E0,5.714286E-1,1.1E0,8E-1,1.3333334E0,9E-1,2E0,1.5555556E0,2.3333333E0,7.777778E-1,3.3333334E-1,2.5E0,9E-1,-1.4299388E-2,2.4159302E-4,-3.7058927E-3,1.0367968E-2,-2.536383E-2,7.304113E-3,6.8884618E-3,2.913632E-2,-3.6986072E-3,2.4330555E-2,-5.377741E-3,1.8256158E-2,1.034579E-2,5.095929E-2,1.5933307E-2,-4.6774875E-2],"split_indices":[0,30,0,29,0,12,1,7,11,5,13,29,19,10,23,0,0,0,0,0,0,0,0,0,0,0,0,0,0,0,0],"split_type":[0,0,0,0,0,0,0,0,0,0,0,0,0,0,0,0,0,0,0,0,0,0,0,0,0,0,0,0,0,0,0],"sum_hessian":[3.1194946E3,2.5023174E3,6.1717725E2,2.0123761E3,4.899413E2,5.485516E2,6.862569E1,1.4439556E3,5.684204E2,1.6747662E2,3.2246472E2,9.868055E1,4.49871E2,5.7921055E1,1.0704632E1,1.2209547E3,2.230009E2,4.214881E2,1.4693233E2,6.223161E1,1.0524501E2,2.5294305E2,6.952165E1,8.1655624E1,1.7024925E1,4.7159424E1,4.0271158E2,8.417246E0,4.9503807E1,5.692521E0,5.0121107E0],"tree_param":{"num_deleted":"0","num_feature":"33","num_nodes":"31","size_leaf_vector":"1"}},{"base_weights":[-2.4969721E-2,-2.3447475E-1,2.7574778E-1,-1.370017E-1,-3.900113E-1,1.9898473E-1,6.850193E-1,-1.4563116E-1,4.6187084E-2,-4.3110558E-1,-7.903306E-2,1.3803734E-1,4.1511875E-1,5.6895024E-1,1.0513575E0,4.4910837E-2,-7.6753856E-3,-2.2579199E-2,1.0258414E-2,-3.2050204E-2,4.7659664E-3,2.3838503E-3,1.880945E-2,1.6200282E-2,4.831667E-2,5.6857117E-2,2.3785917E-2,2.9977644E-2,7.620495E-2],"categories":[],"categories_nodes":[],"categories_segments":[],"categories_sizes":[],"default_left":[0,0,0,0,0,0,0,0,0,0,0,0,0,0,0,0,0,0,0,0,0,0,0,0,0,0,0,0,0],"id":2,"left_children":[1,3,5,7,9,11,13,15,-1,17,19,21,23,25,27,-1,-1,-1,-1,-1,-1,-1,-1,-1,-1,-1,-1,-1,-1],"loss_changes":[1.9577151E2,2.76624E1,3.985737E1,1.0381289E1,8.920631E0,1.4060379E1,7.7814636E0,9.270107E0,0E0,8.221085E0,8.322778E0,1.804022E1,1.1400642E1,7.50531E0,8.9010315E0,0E0,0E0,0E0,0E0,0E0,0E0,0E0,0E0,0E0,0E0,0E0,0E0,0E0,0E0],"parents":[2147483647,0,0,1,1,2,2,3,3,4,4,5,5,6,6,7,7,9,9,10,10,11,11,12,12,13,13,14,14],"right_children":[2,4,6,8,10,12,14,16,-1,18,20,22,24,26,28,-1,-1,-1,-1,-1,-1,-1,-1,-1,-1,-1,-1,-1,-1],"split_conditions":[2.02E0,2.25E0,2.7E0,1.3333334E0,1.3498971E0,3.5833333E0,3.3333334E-1,1.67E0,4.6187084E-2,3.4666667E0,6E-1,1.6153846E0,1.8148148E0,7.2727275E-1,2.1666667E0,4.4910837E-2,-7.6753856E-3,-2.2579199E-2,1.0258414E-2,-3.2050204E-2,4.7659664E-3,2.3838503E-3,1.880945E-2,1.6200282E-2,4.831667E-2,5.6857117E-2,2.3785917E-2,2.9977644E-2,7.620495E-2],"split_indices":[17,16,17,9,28,15,21,17,0,14,31,22,24,22,10,0,0,0,0,0,0,0,0,0,0,0,0,0,0],"split_type":[0,0,0,0,0,0,0,0,0,0,0,0,0,0,0,0,0,0,0,0,0,0,0,0,0,0,0,0,0],"sum_hessian":[3.1054336E3,1.8306218E3,1.2748119E3,1.1269182E3,7.0370355E2,1.0749286E3,1.9988327E2,1.1187737E3,8.144587E0,6.209413E2,8.276225E1,8.4012427E2,2.3480434E2,1.5393668E2,4.5946598E1,7.43706E0,1.1113365E3,6.0201306E2,1.8928259E1,1.909914E1,6.3663113E1,6.102146E2,2.2990967E2,2.0301599E2,3.1788343E1,1.9968887E1,1.3396779E2,2.4761509E1,2.1185087E1],"tree_param":{"num_deleted":"0","num_feature":"33","num_nodes":"29","size_leaf_vector":"1"}},{"base_weights":[-1.8981721E-2,-2.2855413E-1,2.6044664E-1,-1.4448155E-1,-3.5838133E-1,1.8349823E-1,6.751651E-1,-3.987402E-1,-1.19296856E-1,-4.6789178E-1,-2.5416285E-1,6.663424E-2,2.7586684E-1,4.4244477E-1,8.328808E-1,4.0966358E-2,-2.418169E-2,-6.966933E-3,1.3061504E-2,-1.7764827E-2,-3.159733E-2,-1.7555285E-2,-1.4237923E-3,1.6671868E-2,5.5176624E-5,2.2640318E-2,7.183564E-3,3.0768141E-2,-1.6742431E-3,3.0939108E-2,5.65975E-2],"categories":[],"categories_nodes":[],"categories_segments":[],"categories_sizes":[],"default_left":[0,0,0,0,0,0,0,0,0,0,0,0,0,0,0,0,0,0,0,0,0,0,0,0,0,0,0,0,0,0,0],"id":3,"left_children":[1,3,5,7,9,11,13,15,17,19,21,23,25,27,29,-1,-1,-1,-1,-1,-1,-1,-1,-1,-1,-1,-1,-1,-1,-1,-1],"loss_changes":[1.8257086E2,1.9344963E1,4.2424217E1,6.839054E0,7.7882385E0,1.2128777E1,7.157135E0,1.0379596E1,7.556696E0,5.9434967E0,7.847769E0,8.707689E0,1.4599659E1,7.207138E0,6.9935074E0,0E0,0E0,0E0,0E0,0E0,0E0,0E0,0E0,0E0,0E0,0E0,0E0,0E0,0E0,0E0,0E0],"parents":[2147483647,0,0,1,1,2,2,3,3,4,4,5,5,6,6,7,7,8,8,9,9,10,10,11,11,12,12,13,13,14,14],"right_children":[2,4,6,8,10,12,14,16,18,20,22,24,26,28,30,-1,-1,-1,-1,-1,-1,-1,-1,-1,-1,-1,-1,-1,-1,-1,-1],"split_conditions":[2E0,2.25E0,2.7E0,5E-1,2.0666666E0,1.6E0,3E-1,6.666667E-1,1.6499158E0,8.4615386E-1,1.25E0,1.1111112E0,-8.3333336E-2,3.08E0,9E-1,4.0966358E-2,-2.418169E-2,-6.966933E-3,1.3061504E-2,-1.7764827E-2,-3.159733E-2,-1.7555285E-2,-1.4237923E-3,1.6671868E-2,5.5176624E-5,2.2640318E-2,7.183564E-3,3.0768141E-2,-1.6742431E-3,3.0939108E-2,5.65975E-2],"split_indices":[17,16,17,11,14,10,20,10,28,22,11,1,26,17,2,0,0,0,0,0,0,0,0,0,0,0,0,0,0,0,0],"split_type":[0,0,0,0,0,0,0,0,0,0,0,0,0,0,0,0,0,0,0,0,0,0,0,0,0,0,0,0,0,0,0],"sum_hessian":[3.1156843E3,1.7806954E3,1.3349889E3,1.0825492E3,6.9814624E2,1.1274763E3,2.0751259E2,9.586962E1,9.866796E2,3.3826056E2,3.5988568E2,4.989778E2,6.284985E2,8.561748E1,1.218951E2,5.60591E0,9.026371E1,9.381645E2,4.851515E1,2.028289E2,1.3543167E2,2.5104962E2,1.08836044E2,9.72831E1,4.016947E2,2.6740448E2,3.61094E2,6.2739628E1,2.2877851E1,7.302276E1,4.8872353E1],"tree_param":{"num_deleted":"0","num_feature":"33","num_nodes":"31","size_leaf_vector":"1"}},{"base_weights":[-1.2158415E-2,-2.1622166E-1,2.531276E-1,-1.379271E-1,-3.8454705E-1,5.277178E-1,1.7776E-1,1.8016169E-2,-1.6756433E-1,-3.993589E-1,3.2755625E-2,3.0861458E-1,6.4369166E-1,1.1035912E-1,3.5140324E-1,-1.6728191E-3,4.636879E-2,4.501952E-2,-8.714854E-3,-2.7348313E-2,-1.5408064E-2,2.1959087E-2,-1.4936856E-2,3.992777E-2,2.2985293E-2,4.728232E-3,4.380288E-2,-2.4018167E-2,1.9529492E-2],"categories":[],"categories_nodes":[],"categories_segments":[],"categories_sizes":[],"default_left":[0,0,0,0,0,0,0,0,0,0,0,0,0,0,0,0,0,0,0,0,0,0,0,0,0,0,0,0,0],"id":4,"left_children":[1,3,5,7,9,11,13,15,17,19,-1,21,23,25,27,-1,-1,-1,-1,-1,-1,-1,-1,-1,-1,-1,-1,-1,-1],"loss_changes":[1.6789388E2,2.2999893E1,2.7738075E1,5.5574207E0,8.792191E0,7.0641403E0,1.2317295E1,9.096857E0,7.3306103E0,7.1299667E0,0E0,8.268954E0,4.8673096E0,9.0748625E0,9.808159E0,0E0,0E0,0E0,0E0,0E0,0E0,0E0,0E0,0E0,0E0,0E0,0E0,0E0,0E0],"parents":[2147483647,0,0,1,1,2,2,3,3,4,4,5,5,6,6,7,7,8,8,9,9,11,11,12,12,13,13,14,14],"right_children":[2,4,6,8,10,12,14,16,18,20,-1,22,24,26,28,-1,-1,-1,-1,-1,-1,-1,-1,-1,-1,-1,-1,-1,-1],"split_conditions":[2E0,2.31E0,1.54E0,5.714286E-1,1.1904762E0,8.3916086E-1,1.8333334E0,8.666667E-1,4.7140452E-1,1.2E0,3.2755625E-2,6.25E-1,1.3333334E0,5.25E0,-9.3333334E-1,-1.6728191E-3,4.636879E-2,4.501952E-2,-8.714854E-3,-2.7348313E-2,-1.5408064E-2,2.1959087E-2,-1.4936856E-2,3.992777E-2,2.2985293E-2,4.728232E-3,4.380288E-2,-2.4018167E-2,1.9529492E-2],"split_indices":[17,16,16,31,25,24,13,25,28,13,0,18,1,14,25,0,0,0,0,0,0,0,0,0,0,0,0,0,0],"split_type":[0,0,0,0,0,0,0,0,0,0,0,0,0,0,0,0,0,0,0,0,0,0,0,0,0,0,0,0,0],"sum_hessian":[3.0994421E3,1.7521871E3,1.347255E3,1.1975668E3,5.546204E2,2.8856918E2,1.0586858E3,1.9077533E2,1.00679144E3,5.475319E2,7.0885224E0,1.0144251E2,1.8712668E2,7.642486E2,2.944372E2,1.8136287E2,9.412455E0,5.382783E0,1.0014087E3,2.0677052E2,3.4076138E2,8.385672E1,1.7585793E1,9.9495735E1,8.763094E1,7.500314E2,1.4217205E1,1.26261835E1,2.81811E2],"tree_param":{"num_deleted":"0","num_feature":"33","num_nodes":"29","size_leaf_vector":"1"}},{"base_weights":[-1.6301095E-2,-2.1693195E-1,2.4256033E-1,-1.3665007E-1,-3.919639E-1,1.7244616E-1,4.8463812E-1,-1.4678843E-1,3.9349547E-1,-4.0995118E-1,2.9906997E-2,9.432173E-1,1.5783167E-1,6.0544834E-2,5.7157946E-1,-1.7558167E-2,-6.1980872E-3,-9.466904E-3,3.587563E-2,-2.1333445E-2,1.51757775E-2,6.351518E-2,-0E0,7.2779963E-3,5.6227803E-2,1.3655777E-2,-5.6527134E-2,2.2584714E-2,4.5328792E-2],"categories":[],"categories_nodes":[],"categories_segments":[],"categories_sizes":[],"default_left":[0,0,0,0,0,0,0,0,0,0,0,0,0,0,0,0,0,0,0,0,0,0,0,0,0,0,0,0,0],"id":5,"left_children":[1,3,5,7,9,11,13,15,17,19,-1,21,23,25,27,-1,-1,-1,-1,-1,-1,-1,-1,-1,-1,-1,-1,-1,-1],"loss_changes":[1.6215172E2,2.4612549E1,2.298648E1,6.5253353E0,1.0060997E1,1.1668106E1,1.1157425E1,5.4425907E0,4.485483E0,6.6191406E0,0E0,5.8581047E0,1.2052597E1,1.3704687E1,9.615883E0,0E0,0E0,0E0,0E0,0E0,0E0,0E0,0E0,0E0,0E0,0E0,0E0,0E0,0E0],"parents":[2147483647,0,0,1,1,2,2,3,3,4,4,5,5,6,6,7,7,8,8,9,9,11,11,12,12,13,13,14,14],"right_children":[2,4,6,8,10,12,14,16,18,20,-1,22,24,26,28,-1,-1,-1,-1,-1,-1,-1,-1,-1,-1,-1,-1,-1,-1],"split_conditions":[2E0,2.31E0,2.3333333E0,1.1904762E0,1.1111112E0,1.1111111E-1,6.666667E-1,2.2222222E-1,6.25E-1,1.6865481E0,2.9906997E-2,2.1E0,2.75E0,6.25E-1,2.8E0,-1.7558167E-2,-6.1980872E-3,-9.466904E-3,3.587563E-2,-2.1333445E-2,1.51757775E-2,6.351518E-2,-0E0,7.2779963E-3,5.6227803E-2,1.3655777E-2,-5.6527134E-2,2.2584714E-2,4.5328792E-2],"split_indices":[17,16,10,26,25,9,12,9,32,28,0,24,1,9,17,0,0,0,0,0,0,0,0,0,0,0,0,0,0],"split_type":[0,0,0,0,0,0,0,0,0,0,0,0,0,0,0,0,0,0,0,0,0,0,0,0,0,0,0,0,0],"sum_hessian":[3.1202058E3,1.7581206E3,1.3620852E3,1.2069027E3,5.512179E2,1.057827E3,3.0425815E2,1.18515E3,2.1752756E1,5.4205725E2,9.160642E0,1.8374414E1,1.0394526E3,5.2247143E1,2.52011E2,1.17185455E2,1.0679645E3,7.810486E0,1.394227E1,5.301765E2,1.1880775E1,1.3311913E1,5.0625014E0,1.0276614E3,1.1791275E1,4.5060036E1,7.1871057E0,1.8754216E2,6.446885E1],"tree_param":{"num_deleted":"0","num_feature":"33","num_nodes":"29","size_leaf_vector":"1"}},{"base_weights":[-1.9734364E-2,-1.9423747E-1,2.0573069E-1,-2.7751306E-1,-7.463299E-2,1.3815996E-1,5.855865E-1,-3.9558768E-1,-1.7977689E-1,-3.4737095E-1,-3.0734975E-2,5.630233E-2,3.514732E-1,5.071956E-1,1.0614127E0,-2.0823063E-2,1.6484348E-2,-1.1823519E-2,2.8328502E-3,1.07071055E-2,-2.3477627E-2,-2.2815278E-2,1.0741309E-4,1.8911606E-3,4.3462656E-2,1.2839544E-2,3.2633882E-2,-4.345042E-3,2.8202375E-2,6.854512E-2,1.9483902E-2],"categories":[],"categories_nodes":[],"categories_segments":[],"categories_sizes":[],"default_left":[0,0,0,0,0,0,0,0,0,0,0,0,0,0,0,0,0,0,0,0,0,0,0,0,0,0,0,0,0,0,0],"id":6,"left_children":[1,3,5,7,9,11,13,15,17,19,21,23,25,27,29,-1,-1,-1,-1,-1,-1,-1,-1,-1,-1,-1,-1,-1,-1,-1,-1],"loss_changes":[1.2150188E2,1.728498E1,3.442416E1,1.1706169E1,8.529878E0,1.9936722E1,6.8736267E0,7.157585E0,7.583172E0,6.9127407E0,8.702822E0,1.2332619E1,8.783882E0,6.0516815E0,5.028797E0,0E0,0E0,0E0,0E0,0E0,0E0,0E0,0E0,0E0,0E0,0E0,0E0,0E0,0E0,0E0,0E0],"parents":[2147483647,0,0,1,1,2,2,3,3,4,4,5,5,6,6,7,7,8,8,9,9,10,10,11,11,12,12,13,13,14,14],"right_children":[2,4,6,8,10,12,14,16,18,20,22,24,26,28,30,-1,-1,-1,-1,-1,-1,-1,-1,-1,-1,-1,-1,-1,-1,-1,-1],"split_conditions":[2E0,1.78E0,2.7E0,2.0666666E0,3.3333334E-1,3.35E0,3.39E0,7.777778E-1,3.0833333E0,6.666667E-1,2.5E-1,5.25E0,2E0,3.3333334E-1,6.25E-1,-2.0823063E-2,1.6484348E-2,-1.1823519E-2,2.8328502E-3,1.07071055E-2,-2.3477627E-2,-2.2815278E-2,1.0741309E-4,1.8911606E-3,4.3462656E-2,1.2839544E-2,3.2633882E-2,-4.345042E-3,2.8202375E-2,6.854512E-2,1.9483902E-2],"split_indices":[17,17,17,14,19,15,17,19,15,13,9,14,10,18,18,0,0,0,0,0,0,0,0,0,0,0,0,0,0,0,0],"split_type":[0,0,0,0,0,0,0,0,0,0,0,0,0,0,0,0,0,0,0,0,0,0,0,0,0,0,0,0,0,0,0],"sum_hessian":[3.0861792E3,1.7400305E3,1.3461488E3,1.0245339E3,7.1549646E2,1.1442335E3,2.0191525E2,4.6214645E2,5.623875E2,9.792127E1,6.175752E2,8.2816364E2,3.1606985E2,1.7530962E2,2.6605623E1,4.4976575E2,1.2380703E1,4.539577E2,1.08429825E2,1.721853E1,8.070274E1,4.359098E1,5.7398425E2,8.1090063E2,1.7262985E1,2.4213904E2,7.393084E1,1.511124E1,1.6019838E2,1.7399439E1,9.206184E0],"tree_param":{"num_deleted":"0","num_feature":"33","num_nodes":"31","size_leaf_vector":"1"}},{"base_weights":[-6.978187E-3,1.9761494E-1,-1.8463919E-1,1.2794577E-1,4.4266775E-1,-1.0706617E-1,-3.4433463E-1,4.7709316E-2,3.167138E-1,9.1082215E-1,3.661265E-1,-1.256418E-1,2.4922273E-1,-3.6241978E-1,3.413405E-1,1.7499646E-2,-2.2373068E-4,5.6546484E-3,2.1151472E-2,7.109345E-2,2.6602862E-2,1.1300322E-2,2.7260408E-2,-1.2143584E-2,-3.2369082E-3,2.1440843E-2,-2.4238864E-2,-2.618133E-2,-1.4930653E-2,4.9909543E-2,-2.1822514E-2],"categories":[],"categories_nodes":[],"categories_segments":[],"categories_sizes":[],"default_left":[0,0,0,0,0,0,0,0,0,0,0,0,0,0,0,0,0,0,0,0,0,0,0,0,0,0,0,0,0,0,0],"id":7,"left_children":[1,3,5,7,9,11,13,15,17,19,21,23,25,27,29,-1,-1,-1,-1,-1,-1,-1,-1,-1,-1,-1,-1,-1,-1,-1,-1],"loss_changes":[1.1296665E2,2.4543217E1,2.0527958E1,1.7006779E1,1.096896E1,7.4422693E0,6.8600464E0,1.2527401E1,7.1588936E0,7.558834E0,6.7256737E0,7.571516E0,7.538018E0,5.210266E0,7.8120804E0,0E0,0E0,0E0,0E0,0E0,0E0,0E0,0E0,0E0,0E0,0E0,0E0,0E0,0E0,0E0,0E0],"parents":[2147483647,0,0,1,1,2,2,3,3,4,4,5,5,6,6,7,7,8,8,9,9,10,10,11,11,12,12,13,13,14,14],"right_children":[2,4,6,8,10,12,14,16,18,20,22,24,26,28,30,-1,-1,-1,-1,-1,-1,-1,-1,-1,-1,-1,-1,-1,-1,-1,-1],"split_conditions":[1.93E0,2.25E0,2.31E0,3.35E0,1.4E0,1.6499158E0,1.0333333E0,1.54E0,2.2142856E0,2.75E0,3.75E-1,1.1666666E0,4.4444445E-1,7.5E-1,2.5E0,1.7499646E-2,-2.2373068E-4,5.6546484E-3,2.1151472E-2,7.109345E-2,2.6602862E-2,1.1300322E-2,2.7260408E-2,-1.2143584E-2,-3.2369082E-3,2.1440843E-2,-2.4238864E-2,-2.618133E-2,-1.4930653E-2,4.9909543E-2,-2.1822514E-2],"split_indices":[16,10,16,15,16,28,25,16,14,10,20,10,20,12,16,0,0,0,0,0,0,0,0,0,0,0,0,0,0,0,0],"split_type":[0,0,0,0,0,0,0,0,0,0,0,0,0,0,0,0,0,0,0,0,0,0,0,0,0,0,0,0,0,0,0],"sum_hessian":[3.1059324E3,1.4432365E3,1.6626959E3,1.125254E3,3.179825E2,1.1206366E3,5.420593E2,7.908733E2,3.343807E2,4.296803E1,2.750145E2,1.0659879E3,5.464875E1,5.2873096E2,1.3328361E1,1.15872574E2,6.7500073E2,1.15731125E2,2.1864957E2,1.7005484E1,2.5962543E1,1.5587364E2,1.1914084E2,3.6287704E2,7.0311084E2,4.4349415E1,1.0299335E1,1.4744337E2,3.812876E2,7.1420484E0,6.1863117E0],"tree_param":{"num_deleted":"0","num_feature":"33","num_nodes":"31","size_leaf_vector":"1"}},{"base_weights":[-1.4791345E-2,-1.3580246E-1,2.5472537E-1,-7.011616E-2,-3.2011673E-1,1.8743333E-1,4.9619693E-1,-9.033832E-2,1.071542E-1,-3.3576244E-1,3.511266E-2,-2.8254611E-2,2.514559E-1,7.4635166E-1,2.9252493E-1,1.9752467E-2,-5.130198E-3,-2.0123355E-2,1.4158997E-2,-2.2090439E-2,-8.429468E-3,3.7005004E-2,-5.0598104E-3,1.9414516E-2,7.368864E-3,4.5017153E-2,2.0034721E-2,3.5483584E-2,5.9324387E-3],"categories":[],"categories_nodes":[],"categories_segments":[],"categories_sizes":[],"default_left":[0,0,0,0,0,0,0,0,0,0,0,0,0,0,0,0,0,0,0,0,0,0,0,0,0,0,0,0,0],"id":8,"left_children":[1,3,5,7,9,11,13,15,17,19,-1,21,23,25,27,-1,-1,-1,-1,-1,-1,-1,-1,-1,-1,-1,-1,-1,-1],"loss_changes":[1.0118565E2,2.586613E1,1.5457695E1,5.6739407E0,9.188732E0,1.0436728E1,1.0303753E1,8.463961E0,1.461573E1,9.691196E0,0E0,9.709436E0,8.172363E0,4.4451866E0,8.306508E0,0E0,0E0,0E0,0E0,0E0,0E0,0E0,0E0,0E0,0E0,0E0,0E0,0E0,0E0],"parents":[2147483647,0,0,1,1,2,2,3,3,4,4,5,5,6,6,7,7,8,8,9,9,11,11,12,12,13,13,14,14],"right_children":[2,4,6,8,10,12,14,16,18,20,-1,22,24,26,28,-1,-1,-1,-1,-1,-1,-1,-1,-1,-1,-1,-1,-1,-1],"split_conditions":[2.14E0,2.3E0,2.7E0,2.3333333E0,1.1904762E0,1.1111112E0,1.1352924E0,5.555556E-1,4.4444445E-1,1.0593499E0,3.511266E-2,3.489796E-1,-8.3333336E-2,3.8333333E0,-3E-1,1.9752467E-2,-5.130198E-3,-2.0123355E-2,1.4158997E-2,-2.2090439E-2,-8.429468E-3,3.7005004E-2,-5.0598104E-3,1.9414516E-2,7.368864E-3,4.5017153E-2,2.0034721E-2,3.5483584E-2,5.9324387E-3],"split_indices":[17,16,17,13,25,0,28,5,19,28,0,24,26,14,25,0,0,0,0,0,0,0,0,0,0,0,0,0,0],"split_type":[0,0,0,0,0,0,0,0,0,0,0,0,0,0,0,0,0,0,0,0,0,0,0,0,0,0,0,0,0],"sum_hessian":[3.1007769E3,2.1405515E3,9.602254E2,1.5795509E3,5.610006E2,7.526665E2,2.0755887E2,1.41876E3,1.6079088E2,5.533026E2,7.697996E0,1.7204716E2,5.806193E2,9.1733795E1,1.1582508E2,3.3998005E1,1.384762E3,4.0803635E1,1.1998725E2,3.3717468E2,2.1612793E2,1.4004859E1,1.580423E2,2.4924281E2,3.3137653E2,6.2151207E1,2.958259E1,3.2999443E1,8.282564E1],"tree_param":{"num_deleted":"0","num_feature":"33","num_nodes":"29","size_leaf_vector":"1"}},{"base_weights":[-1.2932856E-2,-1.3140857E-1,2.4300012E-1,-7.599441E-2,-2.8890917E-1,1.7819428E-1,4.599504E-1,-1.5971796E-1,7.3421206E-3,-3.431731E-1,4.4894196E-2,-1.1460524E-2,2.3602144E-1,3.700813E-1,7.424919E-1,-2.1331556E-2,-6.060338E-3,-2.3614345E-3,1.3444254E-2,-3.1869467E-2,-1.4848061E-2,-3.3989225E-2,8.973809E-3,-2.507912E-2,5.2038E-3,2.1410063E-2,8.01587E-3,3.4601968E-2,1.22485E-2,-1.8025847E-2,4.338361E-2],"categories":[],"categories_nodes":[],"categories_segments":[],"categories_sizes":[],"default_left":[0,0,0,0,0,0,0,0,0,0,0,0,0,0,0,0,0,0,0,0,0,0,0,0,0,0,0,0,0,0,0],"id":9,"left_children":[1,3,5,7,9,11,13,15,17,19,21,23,25,27,29,-1,-1,-1,-1,-1,-1,-1,-1,-1,-1,-1,-1,-1,-1,-1,-1],"loss_changes":[9.37906E1,1.8399311E1,1.361372E1,1.0944449E1,1.0000206E1,8.311342E0,5.3044853E0,7.931284E0,1.1243051E1,6.149864E0,7.628142E0,1.0120096E1,8.3028145E0,6.676716E0,7.6565247E0,0E0,0E0,0E0,0E0,0E0,0E0,0E0,0E0,0E0,0E0,0E0,0E0,0E0,0E0,0E0,0E0],"parents":[2147483647,0,0,1,1,2,2,3,3,4,4,5,5,6,6,7,7,8,8,9,9,10,10,11,11,12,12,13,13,14,14],"right_children":[2,4,6,8,10,12,14,16,18,20,22,24,26,28,30,-1,-1,-1,-1,-1,-1,-1,-1,-1,-1,-1,-1,-1,-1,-1,-1],"split_conditions":[2.14E0,2.3E0,2.68E0,1.3E0,1.3165612E0,1.1111112E0,3.3333334E-1,8.333333E-1,7E-1,-4.7619048E-1,8.125E-1,2.1666667E0,-3E-1,-4.2857143E-1,5.555556E-1,-2.1331556E-2,-6.060338E-3,-2.3614345E-3,1.3444254E-2,-3.1869467E-2,-1.4848061E-2,-3.3989225E-2,8.973809E-3,-2.507912E-2,5.2038E-3,2.1410063E-2,8.01587E-3,3.4601968E-2,1.22485E-2,-1.8025847E-2,4.338361E-2],"split_indices":[17,16,17,5,28,0,21,1,29,26,23,15,26,25,6,0,0,0,0,0,0,0,0,0,0,0,0,0,0,0,0],"split_type":[0,0,0,0,0,0,0,0,0,0,0,0,0,0,0,0,0,0,0,0,0,0,0,0,0,0,0,0,0,0,0],"sum_hessian":[3.0914844E3,2.1138328E3,9.776517E2,1.5652434E3,5.4858936E2,7.545424E2,2.2310925E2,7.8095E2,7.8429333E2,4.7211298E2,7.647636E1,1.7609128E2,5.784512E2,1.712901E2,5.1819157E1,9.687241E1,6.840776E2,6.492622E2,1.3503117E2,6.2057293E1,4.100557E2,1.1227253E1,6.52491E1,3.3119213E1,1.4297206E2,1.617813E2,4.1666986E2,4.6443356E1,1.2484675E2,5.00851E0,4.6810646E1],"tree_param":{"num_deleted":"0","num_feature":"33","num_nodes":"31","size_leaf_vector":"1"}},{"base_weights":[-2.8911076E-2,-1.3889217E-1,2.1550864E-1,-4.4331715E-2,-2.519888E-1,1.2862507E-1,3.7006608E-1,-5.760753E-2,6.331376E-1,-2.6854667E-1,2.7049565E-1,9.190307E-2,5.338358E-1,4.02042E-1,-4.874287E-1,-1.656916E-2,-1.5478985E-3,-2.353519E-2,5.0293382E-2,-1.8779933E-2,-9.198479E-3,2.5538776E-2,-1.4557368E-2,5.448464E-3,-3.1685237E-2,3.6211096E-2,-1.3447779E-2,1.4115679E-2,2.7123338E-2,-4.6481773E-2,8.9313835E-4],"categories":[],"categories_nodes":[],"categories_segments":[],"categories_sizes":[],"default_left":[0,0,0,0,0,0,0,0,0,0,0,0,0,0,0,0,0,0,0,0,0,0,0,0,0,0,0,0,0,0,0],"id":10,"left_children":[1,3,5,7,9,11,13,15,17,19,21,23,25,27,29,-1,-1,-1,-1,-1,-1,-1,-1,-1,-1,-1,-1,-1,-1,-1,-1],"loss_changes":[8.283083E1,2.2689419E1,1.2741257E1,1.0405303E1,8.439507E0,9.024441E0,9.5950165E0,8.256694E0,9.668732E0,8.368927E0,4.2220373E0,7.005682E0,7.971528E0,5.336628E0,2.9396796E0,0E0,0E0,0E0,0E0,0E0,0E0,0E0,0E0,0E0,0E0,0E0,0E0,0E0,0E0,0E0,0E0],"parents":[2147483647,0,0,1,1,2,2,3,3,4,4,5,5,6,6,7,7,8,8,9,9,10,10,11,11,12,12,13,13,14,14],"right_children":[2,4,6,8,10,12,14,16,18,20,22,24,26,28,30,-1,-1,-1,-1,-1,-1,-1,-1,-1,-1,-1,-1,-1,-1,-1,-1],"split_conditions":[2.14E0,2.14E0,9E-1,9E-1,1.6363916E0,1.7919574E0,2.625E0,2.2222222E-1,8.333333E-1,1.1666666E0,2.857143E-1,1.1904762E0,3.75E-1,2.54E0,5.25E0,-1.656916E-2,-1.5478985E-3,-2.353519E-2,5.0293382E-2,-1.8779933E-2,-9.198479E-3,2.5538776E-2,-1.4557368E-2,5.448464E-3,-3.1685237E-2,3.6211096E-2,-1.3447779E-2,1.4115679E-2,2.7123338E-2,-4.6481773E-2,8.9313835E-4],"split_indices":[17,16,4,30,28,28,5,4,10,10,25,25,20,17,14,0,0,0,0,0,0,0,0,0,0,0,0,0,0,0,0],"split_type":[0,0,0,0,0,0,0,0,0,0,0,0,0,0,0,0,0,0,0,0,0,0,0,0,0,0,0,0,0,0,0],"sum_hessian":[3.0794983E3,2.1244185E3,9.5507983E2,1.1582653E3,9.6615314E2,6.129774E2,3.4210245E2,1.1370461E3,2.1219194E1,9.371322E2,2.9020887E1,5.6339374E2,4.958364E1,3.3042856E2,1.1673892E1,9.951576E1,1.0375304E3,5.2222705E0,1.5996923E1,4.1157056E2,5.2556165E2,2.0513502E1,8.507385E0,5.5141223E2,1.1981515E1,4.0258556E1,9.325085E0,1.8036714E2,1.5006142E2,5.8832555E0,5.790637E0],"tree_param":{"num_deleted":"0","num_feature":"33","num_nodes":"31","size_leaf_vector":"1"}},{"base_weights":[-1.807413E-2,-1.4799094E-1,1.6798125E-1,-2.63529E-1,-1.1149307E-1,1.2550971E-1,4.542339E-1,-4.059009E-2,-3.2589522E-1,-2.2085698E-1,-4.5565452E-2,7.0693177E-1,1.13169715E-1,7.8158915E-2,5.9052986E-1,-1.3065132E-2,1.2212412E-2,1.7653791E-2,-1.7589325E-2,1.9611344E-2,-1.2646644E-2,-3.0636445E-3,4.648907E-2,-9.192273E-3,5.507657E-2,2.1241147E-3,9.2826355E-3,5.2727837E-2,-5.686642E-3,3.227536E-2,-2.3690304E-2],"categories":[],"categories_nodes":[],"categories_segments":[],"categories_sizes":[],"default_left":[0,0,0,0,0,0,0,0,0,0,0,0,0,0,0,0,0,0,0,0,0,0,0,0,0,0,0,0,0,0,0],"id":11,"left_children":[1,3,5,7,9,11,13,15,17,19,21,23,25,27,29,-1,-1,-1,-1,-1,-1,-1,-1,-1,-1,-1,-1,-1,-1,-1,-1],"loss_changes":[7.43014E1,7.56699E0,1.5247871E1,5.9731827E0,9.899651E0,7.745022E0,8.220325E0,6.1125264E0,6.06604E0,1.0261677E1,1.3170508E1,8.218821E0,5.5054913E0,8.569492E0,7.2852173E0,0E0,0E0,0E0,0E0,0E0,0E0,0E0,0E0,0E0,0E0,0E0,0E0,0E0,0E0,0E0,0E0],"parents":[2147483647,0,0,1,1,2,2,3,3,4,4,5,5,6,6,7,7,8,8,9,9,10,10,11,11,12,12,13,13,14,14],"right_children":[2,4,6,8,10,12,14,16,18,20,22,24,26,28,30,-1,-1,-1,-1,-1,-1,-1,-1,-1,-1,-1,-1,-1,-1,-1,-1],"split_conditions":[2.04E0,4E-1,2.8E0,8.75E-1,1.1666666E0,2.8070176E-1,1.0801234E0,8.944272E-1,5.163978E-1,4.6666667E-1,2.4E0,2.0168068E-1,1.6E0,4.7058824E-1,6.25E-1,-1.3065132E-2,1.2212412E-2,1.7653791E-2,-1.7589325E-2,1.9611344E-2,-1.2646644E-2,-3.0636445E-3,4.648907E-2,-9.192273E-3,5.507657E-2,2.1241147E-3,9.2826355E-3,5.2727837E-2,-5.686642E-3,3.227536E-2,-2.3690304E-2],"split_indices":[17,9,17,3,10,24,27,28,28,23,6,24,13,24,20,0,0,0,0,0,0,0,0,0,0,0,0,0,0,0,0],"split_type":[0,0,0,0,0,0,0,0,0,0,0,0,0,0,0,0,0,0,0,0,0,0,0,0,0,0,0,0,0,0,0],"sum_hessian":[3.071952E3,1.8093087E3,1.2626432E3,4.3219315E2,1.3771156E3,1.1010651E3,1.6157812E2,9.5186554E1,3.370066E2,5.164826E2,8.6063293E2,2.15449E1,1.0795201E3,4.3595177E1,1.1798294E2,5.3874527E1,4.1312023E1,1.1773003E1,3.2523358E2,2.4965113E1,4.9151752E2,8.480158E2,1.2617132E1,6.7002645E0,1.4844637E1,5.4803094E2,5.3148926E2,6.50771E0,3.7087467E1,1.12651505E2,5.331442E0],"tree_param":{"num_deleted":"0","num_feature":"33","num_nodes":"31","size_leaf_vector":"1"}},{"base_weights":[-1.437211E-2,-1.4816846E-1,1.5837172E-1,-2.040183E-1,-6.95253E-2,-5.693706E-2,2.0873961E-1,-2.1737151E-1,5.633934E-1,-1.8034669E-3,-1.7981857E-1,-5.033256E-1,2.6624402E-2,1.6344093E-1,3.99955E-1,3.1400647E-2,-1.1318942E-2,4.6686657E-2,-1.3186151E-2,3.880241E-2,-1.1416835E-3,2.228543E-2,-1.0799758E-2,-3.568202E-2,1.8615069E-2,-2.6654515E-2,4.1729608E-3,-1.277507E-2,9.577148E-3,2.138904E-2,-2.4289401E-2],"categories":[],"categories_nodes":[],"categories_segments":[],"categories_sizes":[],"default_left":[0,0,0,0,0,0,0,0,0,0,0,0,0,0,0,0,0,0,0,0,0,0,0,0,0,0,0,0,0,0,0],"id":12,"left_children":[1,3,5,7,9,11,13,15,17,19,21,23,25,27,29,-1,-1,-1,-1,-1,-1,-1,-1,-1,-1,-1,-1,-1,-1,-1,-1],"loss_changes":[7.1441925E1,7.6105156E0,1.4655338E1,1.051424E1,5.402147E0,9.615206E0,9.352184E0,7.7236023E0,5.6895943E0,7.323484E0,6.3080254E0,7.781418E0,6.8870163E0,1.0478085E1,5.337574E0,0E0,0E0,0E0,0E0,0E0,0E0,0E0,0E0,0E0,0E0,0E0,0E0,0E0,0E0,0E0,0E0],"parents":[2147483647,0,0,1,1,2,2,3,3,4,4,5,5,6,6,7,7,8,8,9,9,10,10,11,11,12,12,13,13,14,14],"right_children":[2,4,6,8,10,12,14,16,18,20,22,24,26,28,30,-1,-1,-1,-1,-1,-1,-1,-1,-1,-1,-1,-1,-1,-1,-1,-1],"split_conditions":[2.01E0,8E-1,2.2142856E0,1.8287822E0,1.25E0,3.3333334E-1,3.5833333E0,4E-1,7.777778E-1,7.1428573E-1,6.408699E-1,2.25E0,6.749486E-1,6.4E-1,5.25E0,3.1400647E-2,-1.1318942E-2,4.6686657E-2,-1.3186151E-2,3.880241E-2,-1.1416835E-3,2.228543E-2,-1.0799758E-2,-3.568202E-2,1.8615069E-2,-2.6654515E-2,4.1729608E-3,-1.277507E-2,9.577148E-3,2.138904E-2,-2.4289401E-2],"split_indices":[17,7,14,28,23,29,15,5,31,3,27,13,27,23,15,0,0,0,0,0,0,0,0,0,0,0,0,0,0,0,0],"split_type":[0,0,0,0,0,0,0,0,0,0,0,0,0,0,0,0,0,0,0,0,0,0,0,0,0,0,0,0,0,0,0],"sum_hessian":[3.0890815E3,1.7411887E3,1.3478927E3,1.0164635E3,7.247253E2,2.5513698E2,1.0927556E3,9.9991174E2,1.6551746E1,4.5021133E2,2.7451395E2,3.9626106E1,2.1551088E2,8.8538654E2,2.0736914E2,9.699907E0,9.902118E2,1.1427229E1,5.124518E0,1.0781342E1,4.3943E2,1.4238162E1,2.602758E2,3.2192955E1,7.4331527E0,1.8931595E1,1.9657928E2,5.4924652E1,8.304619E2,2.0166377E2,5.705362E0],"tree_param":{"num_deleted":"0","num_feature":"33","num_nodes":"31","size_leaf_vector":"1"}},{"base_weights":[-3.129702E-3,-1.3255951E-1,1.6974476E-1,-6.442131E-2,-2.834566E-1,1.183906E-1,4.291858E-1,-8.094317E-2,2.4970822E-1,-2.9798517E-1,3.0095065E-2,-8.745318E-2,1.7365739E-1,8.226263E-1,3.7759975E-1,3.8296264E-2,-4.4100373E-3,3.142811E-2,-4.8947413E-3,-1.7202254E-2,-1.2205864E-3,4.725285E-2,-6.2183696E-3,6.733199E-3,1.7414106E-2,3.4543374E-3,5.187252E-2,4.723203E-2,1.64555E-2],"categories":[],"categories_nodes":[],"categories_segments":[],"categories_sizes":[],"default_left":[0,0,0,0,0,0,0,0,0,0,0,0,0,0,0,0,0,0,0,0,0,0,0,0,0,0,0,0,0],"id":13,"left_children":[1,3,5,7,9,11,13,15,17,19,-1,21,23,25,27,-1,-1,-1,-1,-1,-1,-1,-1,-1,-1,-1,-1,-1,-1],"loss_changes":[6.946011E1,1.8203945E1,1.7599285E1,6.36123E0,7.244503E0,1.2662746E1,4.0115585E0,7.1593304E0,8.16802E0,6.803257E0,0E0,9.008865E0,5.873434E0,3.7509289E0,4.939142E0,0E0,0E0,0E0,0E0,0E0,0E0,0E0,0E0,0E0,0E0,0E0,0E0,0E0,0E0],"parents":[2147483647,0,0,1,1,2,2,3,3,4,4,5,5,6,6,7,7,8,8,9,9,11,11,12,12,13,13,14,14],"right_children":[2,4,6,8,10,12,14,16,18,20,-1,22,24,26,28,-1,-1,-1,-1,-1,-1,-1,-1,-1,-1,-1,-1,-1,-1],"split_conditions":[2.02E0,2.3E0,2.7E0,1.6499158E0,1.1904762E0,2.2142856E0,7.2727275E-1,-1.1333333E0,7.1428573E-1,1.3165612E0,3.0095065E-2,-8.888889E-1,2.1666667E0,8.333333E-1,8.3666E-1,3.8296264E-2,-4.4100373E-3,3.142811E-2,-4.8947413E-3,-1.7202254E-2,-1.2205864E-3,4.725285E-2,-6.2183696E-3,6.733199E-3,1.7414106E-2,3.4543374E-3,5.187252E-2,4.723203E-2,1.64555E-2],"split_indices":[17,16,17,28,25,14,22,26,7,28,0,26,13,10,27,0,0,0,0,0,0,0,0,0,0,0,0,0,0],"split_type":[0,0,0,0,0,0,0,0,0,0,0,0,0,0,0,0,0,0,0,0,0,0,0,0,0,0,0,0,0],"sum_hessian":[3.1025083E3,1.7746516E3,1.3278566E3,1.224027E3,5.5062463E2,1.1099861E3,2.1787056E2,1.1638729E3,6.0154022E1,5.424987E2,8.125936E0,2.3443396E2,8.7555206E2,2.3297585E1,1.9457297E2,8.884191E0,1.1549888E3,2.8534052E1,3.161997E1,4.637901E2,7.870864E1,7.149455E0,2.2728452E2,7.176466E2,1.5790547E2,5.564845E0,1.773274E1,1.3709538E1,1.8086343E2],"tree_param":{"num_deleted":"0","num_feature":"33","num_nodes":"29","size_leaf_vector":"1"}},{"base_weights":[-1.5280493E-2,9.252316E-2,-2.0891987E-1,4.2627875E-2,2.9860032E-1,-2.2209784E-1,2.4567613E-1,9.021703E-3,2.6437488E-1,1.21437065E-1,4.0529382E-1,1.4765769E-1,-2.3879965E-1,-2.3201591E-1,6.239372E-1,2.3084627E-2,-1.5729474E-4,2.5423339E-2,4.4448986E-3,5.085948E-2,3.3365227E-3,-2.961248E-2,2.1950966E-2,2.6877237E-2,-2.2992395E-2,-1.7268687E-2,-7.984492E-3,5.903464E-3,-2.3150777E-2,4.8726436E-2,-0E0],"categories":[],"categories_nodes":[],"categories_segments":[],"categories_sizes":[],"default_left":[0,0,0,0,0,0,0,0,0,0,0,0,0,0,0,0,0,0,0,0,0,0,0,0,0,0,0,0,0,0,0],"id":14,"left_children":[1,3,5,7,9,11,13,15,17,19,21,23,25,27,29,-1,-1,-1,-1,-1,-1,-1,-1,-1,-1,-1,-1,-1,-1,-1,-1],"loss_changes":[6.445152E1,2.034019E1,6.66753E0,1.1877262E1,7.1929626E0,6.6763573E0,5.852317E0,7.6975513E0,8.88369E0,7.019352E0,8.321869E0,1.1333031E1,8.562592E0,1.259764E0,3.834333E0,0E0,0E0,0E0,0E0,0E0,0E0,0E0,0E0,0E0,0E0,0E0,0E0,0E0,0E0,0E0,0E0],"parents":[2147483647,0,0,1,1,2,2,3,3,4,4,5,5,6,6,7,7,8,8,9,9,10,10,11,11,12,12,13,13,14,14],"right_children":[2,4,6,8,10,12,14,16,18,20,22,24,26,28,30,-1,-1,-1,-1,-1,-1,-1,-1,-1,-1,-1,-1,-1,-1,-1,-1],"split_conditions":[2.09E0,2.5E0,1.6865481E0,1.8461539E0,1.625E0,6E-1,-4.761905E-2,-1.0333333E0,-1.25E-1,1.35E0,2.5E-1,1.0749677E0,1.2E0,1.7919574E0,7.1428573E-1,2.3084627E-2,-1.5729474E-4,2.5423339E-2,4.4448986E-3,5.085948E-2,3.3365227E-3,-2.961248E-2,2.1950966E-2,2.6877237E-2,-2.2992395E-2,-1.7268687E-2,-7.984492E-3,5.903464E-3,-2.3150777E-2,4.8726436E-2,-0E0],"split_indices":[16,17,28,22,0,5,26,26,26,16,18,27,10,28,7,0,0,0,0,0,0,0,0,0,0,0,0,0,0,0,0],"split_type":[0,0,0,0,0,0,0,0,0,0,0,0,0,0,0,0,0,0,0,0,0,0,0,0,0,0,0,0,0,0,0],"sum_hessian":[3.08501E3,1.9817362E3,1.1032739E3,1.5968097E3,3.849265E2,1.0729037E3,3.0370241E1,1.3879542E3,2.088554E2,1.4583867E2,2.3908784E2,4.5770836E1,1.0271328E3,1.34751835E1,1.6895058E1,3.5579124E1,1.3523751E3,8.631793E1,1.2253746E2,7.276333E0,1.3856235E2,7.180307E0,2.3190753E2,2.8049133E1,1.7721703E1,4.3563293E2,5.914999E2,5.3790646E0,8.096119E0,1.037282E1,6.5222387E0],"tree_param":{"num_deleted":"0","num_feature":"33","num_nodes":"31","size_leaf_vector":"1"}},{"base_weights":[-1.5398797E-2,-1.4400505E-1,1.4831293E-1,-2.3136827E-1,-6.2289625E-2,9.811171E-2,3.1456295E-1,-3.1040654E-1,-7.046931E-2,-1.9758303E-1,4.4322507E-3,4.314509E-2,2.3688881E-1,-2.3131954E-2,3.3648792E-1,-1.9843388E-2,-9.091838E-3,5.387287E-4,-1.7126402E-2,-1.0820744E-2,3.6088172E-2,-1.00588305E-2,2.8096167E-3,3.3595495E-2,1.5698342E-3,-2.3313565E-2,1.3766489E-2,-2.0160868E-3,1.9188931E-2],"categories":[],"categories_nodes":[],"categories_segments":[],"categories_sizes":[],"default_left":[0,0,0,0,0,0,0,0,0,0,0,0,0,0,0,0,0,0,0,0,0,0,0,0,0,0,0,0,0],"id":15,"left_children":[1,3,5,7,9,11,13,15,17,19,21,23,25,-1,27,-1,-1,-1,-1,-1,-1,-1,-1,-1,-1,-1,-1,-1,-1],"loss_changes":[6.4888435E1,1.2280342E1,1.1241869E1,1.0538174E1,8.089963E0,7.918912E0,5.4850273E0,6.074394E0,6.1424813E0,5.2263956E0,6.373503E0,5.440887E0,8.088751E0,0E0,5.4954185E0,0E0,0E0,0E0,0E0,0E0,0E0,0E0,0E0,0E0,0E0,0E0,0E0,0E0,0E0],"parents":[2147483647,0,0,1,1,2,2,3,3,4,4,5,5,6,6,7,7,8,8,9,9,10,10,11,11,12,12,14,14],"right_children":[2,4,6,8,10,12,14,16,18,20,22,24,26,-1,28,-1,-1,-1,-1,-1,-1,-1,-1,-1,-1,-1,-1,-1,-1],"split_conditions":[2.01E0,1.74E0,2.56E0,7.777778E-1,1.2E0,1.8333334E0,6.749486E-1,1.4E0,6.25E-1,2.8888888E0,3.3333334E-1,1.6666667E-1,-9E-1,-2.3131954E-2,4.4444445E-1,-1.9843388E-2,-9.091838E-3,5.387287E-4,-1.7126402E-2,-1.0820744E-2,3.6088172E-2,-1.00588305E-2,2.8096167E-3,3.3595495E-2,1.5698342E-3,-2.3313565E-2,1.3766489E-2,-2.0160868E-3,1.9188931E-2],"split_indices":[17,17,17,7,1,13,27,24,30,24,9,9,25,0,29,0,0,0,0,0,0,0,0,0,0,0,0,0,0],"split_type":[0,0,0,0,0,0,0,0,0,0,0,0,0,0,0,0,0,0,0,0,0,0,0,0,0,0,0,0,0],"sum_hessian":[3.0799548E3,1.7253281E3,1.3546267E3,8.3237164E2,8.929565E2,1.0421334E3,3.1249326E2,5.571383E2,2.7523334E2,2.9477408E2,5.981824E2,7.479271E2,2.9420633E2,7.896984E0,3.0459628E2,3.3140732E2,2.25731E2,2.123984E2,6.283492E1,2.8971298E2,5.06109E0,1.19332794E2,4.788496E2,1.2531813E1,7.353953E2,1.4538465E1,2.7966788E2,3.374562E1,2.7085065E2],"tree_param":{"num_deleted":"0","num_feature":"33","num_nodes":"29","size_leaf_vector":"1"}},{"base_weights":[-8.665193E-3,-1.2225281E-1,1.3591892E-1,-2.1702026E-1,-7.492473E-2,8.291126E-2,3.1084704E-1,-2.3088843E-1,3.865024E-2,1.70026E-1,-9.596351E-2,7.426465E-2,5.4711517E-2,5.024582E-1,1.7072691E-1,-1.7500533E-2,-6.352227E-3,2.4041707E-2,-3.636606E-3,2.6039256E-2,-5.2338983E-3,-1.4399126E-2,4.670216E-3,3.2848306E-3,3.134282E-2,1.2694444E-2,-2.3711935E-2],"categories":[],"categories_nodes":[],"categories_segments":[],"categories_sizes":[],"default_left":[0,0,0,0,0,0,0,0,0,0,0,0,0,0,0,0,0,0,0,0,0,0,0,0,0,0,0],"id":16,"left_children":[1,3,5,7,9,11,13,15,-1,17,19,21,-1,23,25,-1,-1,-1,-1,-1,-1,-1,-1,-1,-1,-1,-1],"loss_changes":[5.0278324E1,7.646185E0,1.2421499E1,7.949682E0,5.9145274E0,8.854744E0,8.233397E0,6.871624E0,0E0,6.9135675E0,5.690257E0,7.1325016E0,0E0,7.0137787E0,9.873098E0,0E0,0E0,0E0,0E0,0E0,0E0,0E0,0E0,0E0,0E0,0E0,0E0],"parents":[2147483647,0,0,1,1,2,2,3,3,4,4,5,5,6,6,7,7,9,9,10,10,11,11,13,13,14,14],"right_children":[2,4,6,8,10,12,14,16,-1,18,20,22,-1,24,26,-1,-1,-1,-1,-1,-1,-1,-1,-1,-1,-1,-1],"split_conditions":[2.01E0,1.68E0,2.25E0,1.1904762E0,6.749486E-1,3.39E0,8.888889E-1,1.1E0,3.865024E-2,1.1666666E0,2.9166666E-1,6E-1,5.4711517E-2,6E-1,1.1E0,-1.7500533E-2,-6.352227E-3,2.4041707E-2,-3.636606E-3,2.6039256E-2,-5.2338983E-3,-1.4399126E-2,4.670216E-3,3.2848306E-3,3.134282E-2,1.2694444E-2,-2.3711935E-2],"split_indices":[17,17,10,25,28,17,2,5,0,11,22,2,0,11,9,0,0,0,0,0,0,0,0,0,0,0,0],"split_type":[0,0,0,0,0,0,0,0,0,0,0,0,0,0,0,0,0,0,0,0,0,0,0,0,0,0,0],"sum_hessian":[3.0595364E3,1.7139083E3,1.3456279E3,5.689573E2,1.144951E3,1.0342651E3,3.1136285E2,5.6195325E2,7.0039854E0,8.962528E1,1.0553258E3,1.0266597E3,7.605455E0,1.3012299E2,1.8123988E2,2.601707E2,3.0178256E2,3.9054386E1,5.05709E1,1.3725044E1,1.0416007E3,5.055516E1,9.761045E2,2.936268E1,1.0076031E2,1.6121428E2,2.0025595E1],"tree_param":{"num_deleted":"0","num_feature":"33","num_nodes":"27","size_leaf_vector":"1"}},{"base_weights":[-1.9504022E-2,2.1329464E-1,-7.982082E-2,-5.3163763E-2,2.602349E-1,-1.1176935E-1,8.832447E-2,3.5800418E-1,-2.0564604E-1,1.994889E-1,4.9468112E-1,-2.1295182E-1,-6.665046E-2,-3.9205123E-2,2.7636263E-1,2.9860089E-2,-2.0871364E-2,-2.7166445E-2,9.2823105E-3,3.5585978E-3,1.8249858E-2,3.195764E-2,6.9638975E-3,-7.1909004E-3,-1.9410176E-2,-7.91939E-5,-6.9624917E-3,3.0266172E-3,-1.4336327E-2,4.6161897E-3,2.2766864E-2],"categories":[],"categories_nodes":[],"categories_segments":[],"categories_sizes":[],"default_left":[0,0,0,0,0,0,0,0,0,0,0,0,0,0,0,0,0,0,0,0,0,0,0,0,0,0,0,0,0,0,0],"id":17,"left_children":[1,3,5,7,9,11,13,15,17,19,21,23,25,27,29,-1,-1,-1,-1,-1,-1,-1,-1,-1,-1,-1,-1,-1,-1,-1,-1],"loss_changes":[4.297059E1,7.9093895E0,1.3073433E1,6.0027103E0,7.462467E0,9.289593E0,9.345374E0,5.059475E0,9.382688E0,9.010475E0,5.442301E0,7.5148525E0,6.673808E0,5.765343E0,5.0860567E0,0E0,0E0,0E0,0E0,0E0,0E0,0E0,0E0,0E0,0E0,0E0,0E0,0E0,0E0,0E0,0E0],"parents":[2147483647,0,0,1,1,2,2,3,3,4,4,5,5,6,6,7,7,8,8,9,9,10,10,11,11,12,12,13,13,14,14],"right_children":[2,4,6,8,10,12,14,16,18,20,22,24,26,28,30,-1,-1,-1,-1,-1,-1,-1,-1,-1,-1,-1,-1,-1,-1,-1,-1],"split_conditions":[1.66E0,1.8333334E0,3.6E0,7E-1,3.3333334E-1,2.1E0,2.02E0,1.61E0,1.1E0,8.5714287E-1,1.6E0,2.6666668E-1,3.3333335E-2,2.6E0,8.75E-1,2.9860089E-2,-2.0871364E-2,-2.7166445E-2,9.2823105E-3,3.5585978E-3,1.8249858E-2,3.195764E-2,6.9638975E-3,-7.1909004E-3,-1.9410176E-2,-7.91939E-5,-6.9624917E-3,3.0266172E-3,-1.4336327E-2,4.6161897E-3,2.2766864E-2],"split_indices":[16,15,15,7,21,14,17,16,6,4,16,25,26,13,7,0,0,0,0,0,0,0,0,0,0,0,0,0,0,0,0],"split_type":[0,0,0,0,0,0,0,0,0,0,0,0,0,0,0,0,0,0,0,0,0,0,0,0,0,0,0,0,0,0,0],"sum_hessian":[3.0589573E3,6.2860394E2,2.4303533E3,9.3812126E1,5.347918E2,2.0430858E3,3.8726755E2,2.4836617E1,6.897551E1,4.2654868E2,1.082431E2,6.282507E2,1.4148351E3,2.3091684E2,1.5635071E2,1.9255632E1,5.580984E0,3.6952625E1,3.2022884E1,2.414157E2,1.85133E2,7.6191444E1,3.2051655E1,4.5224066E2,1.7601004E2,7.4739124E2,6.674439E2,1.648449E2,6.607195E1,7.810761E1,7.82431E1],"tree_param":{"num_deleted":"0","num_feature":"33","num_nodes":"31","size_leaf_vector":"1"}},{"base_weights":[-4.233421E-4,-1.0832333E-1,1.3162975E-1,-1.415498E-1,3.961721E-2,1.3860311E-2,1.9452369E-1,-1.2637763E-1,-4.2485097E-1,-2.398004E-1,1.8583256E-1,4.746476E-2,-5.478717E-3,2.984677E-1,1.1243176E-1,-4.0653136E-4,-7.982521E-3,3.802972E-3,-3.1523496E-2,-2.9024584E-2,-2.9078373E-3,2.4978368E-2,6.154374E-4,4.2559016E-2,-1.1933467E-3,1.1514001E-2,3.2977562E-2,4.605546E-3,4.208917E-2],"categories":[],"categories_nodes":[],"categories_segments":[],"categories_sizes":[],"default_left":[0,0,0,0,0,0,0,0,0,0,0,0,0,0,0,0,0,0,0,0,0,0,0,0,0,0,0,0,0],"id":18,"left_children":[1,3,5,7,9,11,13,15,17,19,21,-1,23,25,27,-1,-1,-1,-1,-1,-1,-1,-1,-1,-1,-1,-1,-1,-1],"loss_changes":[4.4067272E1,8.384705E0,1.0275011E1,5.870369E0,1.2805549E1,8.885387E0,7.653843E0,5.183632E0,7.3082914E0,6.557791E0,1.1153765E1,0E0,7.446982E0,9.571407E0,7.3610716E0,0E0,0E0,0E0,0E0,0E0,0E0,0E0,0E0,0E0,0E0,0E0,0E0,0E0,0E0],"parents":[2147483647,0,0,1,1,2,2,3,3,4,4,5,5,6,6,7,7,8,8,9,9,10,10,12,12,13,13,14,14],"right_children":[2,4,6,8,10,12,14,16,18,20,22,-1,24,26,28,-1,-1,-1,-1,-1,-1,-1,-1,-1,-1,-1,-1,-1,-1],"split_conditions":[2E0,9E-1,2.8E0,2.76E0,7E-1,-1E0,-6.666667E-2,9E-1,6.4166665E-1,8.75E-1,4.2857143E-1,4.746476E-2,3.75E-1,2.8E0,1.5E0,-4.0653136E-4,-7.982521E-3,3.802972E-3,-3.1523496E-2,-2.9024584E-2,-2.9078373E-3,2.4978368E-2,6.154374E-4,4.2559016E-2,-1.1933467E-3,1.1514001E-2,3.2977562E-2,4.605546E-3,4.208917E-2],"split_indices":[17,2,14,16,32,26,26,8,24,8,30,0,32,17,26,0,0,0,0,0,0,0,0,0,0,0,0,0,0],"split_type":[0,0,0,0,0,0,0,0,0,0,0,0,0,0,0,0,0,0,0,0,0,0,0,0,0,0,0,0,0],"sum_hessian":[3.0909224E3,1.7015393E3,1.389383E3,1.3900602E3,3.114792E2,4.8466116E2,9.047219E2,1.3211074E3,6.895272E1,1.0654592E2,2.0493327E2,8.947584E0,4.757136E2,3.9752533E2,5.071966E2,2.9104007E2,1.0300674E3,2.0108925E1,4.8843796E1,3.6096653E1,7.044927E1,7.210701E1,1.3282626E2,8.930639E0,4.6678296E2,3.359909E2,6.153444E1,4.9467752E2,1.251906E1],"tree_param":{"num_deleted":"0","num_feature":"33","num_nodes":"29","size_leaf_vector":"1"}},{"base_weights":[2.3216782E-3,1.0833963E-1,-8.457967E-2,-6.491137E-2,1.460608E-1,-4.4392034E-2,-2.0057316E-1,1.2959369E-1,-1.8483767E-1,9.411752E-2,2.6617694E-1,-2.580197E-1,-2.3230817E-2,-2.6054063E-1,1.8674415E-1,1.9892206E-2,-6.841704E-3,7.847135E-3,-1.563464E-2,-6.3137E-3,6.8685845E-3,1.0373584E-2,3.705045E-2,-1.9601021E-2,9.904288E-3,-6.3197403E-3,1.6409882E-3,-1.0813481E-2,-3.175828E-2,-2.0872301E-4,3.4911346E-2],"categories":[],"categories_nodes":[],"categories_segments":[],"categories_sizes":[],"default_left":[0,0,0,0,0,0,0,0,0,0,0,0,0,0,0,0,0,0,0,0,0,0,0,0,0,0,0,0,0,0,0],"id":19,"left_children":[1,3,5,7,9,11,13,15,17,19,21,23,25,27,29,-1,-1,-1,-1,-1,-1,-1,-1,-1,-1,-1,-1,-1,-1,-1,-1],"loss_changes":[2.8320696E1,9.069345E0,7.8381805E0,5.8112354E0,7.0404434E0,5.644006E0,1.012668E1,6.856342E0,6.79671E0,7.6134667E0,9.298277E0,6.9839535E0,6.630703E0,6.015049E0,5.7839346E0,0E0,0E0,0E0,0E0,0E0,0E0,0E0,0E0,0E0,0E0,0E0,0E0,0E0,0E0,0E0,0E0],"parents":[2147483647,0,0,1,1,2,2,3,3,4,4,5,5,6,6,7,7,8,8,9,9,10,10,11,11,12,12,13,13,14,14],"right_children":[2,4,6,8,10,12,14,16,18,20,22,24,26,28,30,-1,-1,-1,-1,-1,-1,-1,-1,-1,-1,-1,-1,-1,-1,-1,-1],"split_conditions":[1.89E0,1.1E0,2.36E0,1.69E0,1.8333334E0,5E-1,1.3165612E0,1E0,4.7619048E-1,4.2857143E-1,1.7948718E0,1.1E0,1.1666666E0,1.5E0,2.7E0,1.9892206E-2,-6.841704E-3,7.847135E-3,-1.563464E-2,-6.3137E-3,6.8685845E-3,1.0373584E-2,3.705045E-2,-1.9601021E-2,9.904288E-3,-6.3197403E-3,1.6409882E-3,-1.0813481E-2,-3.175828E-2,-2.0872301E-4,3.4911346E-2],"split_indices":[16,0,16,16,13,11,28,3,22,29,24,1,10,5,15,0,0,0,0,0,0,0,0,0,0,0,0,0,0,0,0],"split_type":[0,0,0,0,0,0,0,0,0,0,0,0,0,0,0,0,0,0,0,0,0,0,0,0,0,0,0,0,0,0,0],"sum_hessian":[3.0717058E3,1.3840706E3,1.6876351E3,2.4686461E2,1.137206E3,1.2550497E3,4.3258545E2,9.380709E1,1.5305751E2,7.9571954E2,3.4148648E2,1.1168128E2,1.1433684E3,3.7509573E2,5.7489735E1,4.66849E1,4.7122192E1,4.139401E1,1.11663506E2,1.2985294E2,6.658666E2,3.0537888E2,3.6107597E1,8.659887E1,2.508241E1,4.0270255E2,7.4066583E2,3.3710306E2,3.7992672E1,4.244342E1,1.5046313E1],"tree_param":{"num_deleted":"0","num_feature":"33","num_nodes":"31","size_leaf_vector":"1"}},{"base_weights":[8.565783E-4,1.5849008E-1,-6.2293947E-2,9.28009E-1,1.435078E-1,-1.0226366E-1,7.0359066E-2,-2.596272E-3,7.190561E-2,-3.677789E-2,1.8869217E-1,-1.4977878E-1,5.245689E-3,1.0963919E-1,-2.4480931E-1,2.4251116E-3,-3.2659136E-2,1.0023545E-2,-3.859732E-2,-1.0234929E-2,-2.937693E-3,2.2613388E-2,-1.3052212E-3,-1.8652121E-4,1.7256487E-2,2.3609126E-2,-2.4896195E-2],"categories":[],"categories_nodes":[],"categories_segments":[],"categories_sizes":[],"default_left":[0,0,0,0,0,0,0,0,0,0,0,0,0,0,0,0,0,0,0,0,0,0,0,0,0,0,0],"id":20,"left_children":[1,3,5,7,9,11,13,-1,-1,15,17,19,21,23,25,-1,-1,-1,-1,-1,-1,-1,-1,-1,-1,-1,-1],"loss_changes":[3.055524E1,9.883707E0,1.1623923E1,8.441067E0,7.0494766E0,8.618605E0,6.292117E0,0E0,0E0,9.200552E0,7.909466E0,5.8038406E0,7.293112E0,1.2101231E1,1.0442892E1,0E0,0E0,0E0,0E0,0E0,0E0,0E0,0E0,0E0,0E0,0E0,0E0],"parents":[2147483647,0,0,1,1,2,2,3,3,4,4,5,5,6,6,9,9,10,10,11,11,12,12,13,13,14,14],"right_children":[2,4,6,8,10,12,14,-1,-1,16,18,20,22,24,26,-1,-1,-1,-1,-1,-1,-1,-1,-1,-1,-1,-1],"split_conditions":[1.74E0,1.1111111E-1,8.333333E-1,-1.904762E-1,2.5333333E0,6.666667E-1,1.5491934E0,-2.596272E-3,7.190561E-2,1.4757296E0,1E0,1.1352924E0,4.5454547E-1,2E0,8E-1,2.4251116E-3,-3.2659136E-2,1.0023545E-2,-3.859732E-2,-1.0234929E-2,-2.937693E-3,2.2613388E-2,-1.3052212E-3,-1.8652121E-4,1.7256487E-2,2.3609126E-2,-2.4896195E-2],"split_indices":[16,9,7,25,14,4,28,0,0,27,30,28,23,17,9,0,0,0,0,0,0,0,0,0,0,0,0],"split_type":[0,0,0,0,0,0,0,0,0,0,0,0,0,0,0,0,0,0,0,0,0,0,0,0,0,0,0],"sum_hessian":[3.0664893E3,8.7712445E2,2.189365E3,1.5459899E1,8.6166455E2,1.6831865E3,5.0617838E2,5.532963E0,9.926935E0,1.7227202E2,6.893926E2,1.1676609E3,5.1552563E2,4.5094547E2,5.52329E1,1.5200156E2,2.0270462E1,6.8192664E2,7.4659286E0,7.2679974E2,4.4086118E2,3.311411E1,4.824115E2,3.0477872E2,1.4616673E2,1.40821495E1,4.115075E1],"tree_param":{"num_deleted":"0","num_feature":"33","num_nodes":"27","size_leaf_vector":"1"}},{"base_weights":[5.010289E-3,-6.983059E-2,1.6071266E-1,-2.5057368E-2,-2.0581485E-1,2.4937722E-1,4.4111677E-2,-1.175331E-1,2.4192626E-2,-2.429922E-1,2.2807495E-1,4.245496E-1,1.2667751E-1,-5.176781E-1,8.18212E-2,-1.5230288E-2,-2.8510706E-3,-1.5740797E-2,2.3487587E-3,-1.3003625E-2,2.5753692E-2,5.873717E-2,1.915859E-3,1.6021619E-2,4.2238757E-2,6.0932398E-2,4.8399656E-3,-9.421749E-3,-4.9802523E-2,3.2092438E-3,4.2207226E-2],"categories":[],"categories_nodes":[],"categories_segments":[],"categories_sizes":[],"default_left":[0,0,0,0,0,0,0,0,0,0,0,0,0,0,0,0,0,0,0,0,0,0,0,0,0,0,0,0,0,0,0],"id":21,"left_children":[1,3,5,7,9,11,13,15,17,19,21,23,25,27,29,-1,-1,-1,-1,-1,-1,-1,-1,-1,-1,-1,-1,-1,-1,-1,-1],"loss_changes":[3.562852E1,1.2538457E1,1.0222719E1,7.091857E0,8.292723E0,1.1996502E1,9.118971E0,6.0712514E0,7.8227453E0,6.2064857E0,7.1265907E0,9.730022E0,1.0614103E1,3.9541388E0,5.2927413E0,0E0,0E0,0E0,0E0,0E0,0E0,0E0,0E0,0E0,0E0,0E0,0E0,0E0,0E0,0E0,0E0],"parents":[2147483647,0,0,1,1,2,2,3,3,4,4,5,5,6,6,7,7,8,8,9,9,10,10,11,11,12,12,13,13,14,14],"right_children":[2,4,6,8,10,12,14,16,18,20,22,24,26,28,30,-1,-1,-1,-1,-1,-1,-1,-1,-1,-1,-1,-1,-1,-1,-1,-1],"split_conditions":[2.14E0,2.31E0,1.4285715E0,5E-1,1.5555556E0,-1E-1,6.749486E-1,-3.3333334E-1,2.5E-1,1.7159383E0,-5.833333E-1,4.266667E0,2.2222222E-1,1.5555556E0,2.7142856E0,-1.5230288E-2,-2.8510706E-3,-1.5740797E-2,2.3487587E-3,-1.3003625E-2,2.5753692E-2,5.873717E-2,1.915859E-3,1.6021619E-2,4.2238757E-2,6.0932398E-2,4.8399656E-3,-9.421749E-3,-4.9802523E-2,3.2092438E-3,4.2207226E-2],"split_indices":[17,16,1,19,0,26,27,26,9,28,25,14,4,6,1,0,0,0,0,0,0,0,0,0,0,0,0,0,0,0,0],"split_type":[0,0,0,0,0,0,0,0,0,0,0,0,0,0,0,0,0,0,0,0,0,0,0,0,0,0,0,0,0,0,0],"sum_hessian":[3.0547378E3,2.063022E3,9.917158E2,1.5534602E3,5.0956174E2,5.622096E2,4.295062E2,5.400545E2,1.0134057E3,4.6996384E2,3.9597878E1,2.3023676E2,3.3197284E2,2.6049252E1,4.0345694E2,1.3060405E2,4.0945047E2,6.273214E1,9.506736E2,4.603797E2,9.584154E0,5.657226E0,3.3940655E1,1.8612256E2,4.4114197E1,7.6926455E0,3.242802E2,1.6379143E1,9.670109E0,3.9552194E2,7.9350157E0],"tree_param":{"num_deleted":"0","num_feature":"33","num_nodes":"31","size_leaf_vector":"1"}},{"base_weights":[-9.931873E-3,-1.3821766E-1,6.0984675E-2,-1.51619E-1,4.075788E-1,3.57856E-2,3.2995957E-1,4.8587203E-1,-1.6240984E-1,-9.6336395E-2,9.045289E-1,3.5779002E-1,2.0356784E-2,-1.5486604E-1,4.3908328E-1,4.939405E-2,-1.2150883E-2,3.23318E-3,-9.665879E-3,-3.5124276E-2,2.238842E-2,7.514726E-2,2.647983E-3,2.523212E-2,-1.6275786E-2,7.045746E-4,2.8510362E-2,2.5740126E-2,-1.8838877E-2,2.428411E-2,-1.8965708E-2],"categories":[],"categories_nodes":[],"categories_segments":[],"categories_sizes":[],"default_left":[0,0,0,0,0,0,0,0,0,0,0,0,0,0,0,0,0,0,0,0,0,0,0,0,0,0,0,0,0,0,0],"id":22,"left_children":[1,3,5,7,9,11,13,15,17,19,21,23,25,27,29,-1,-1,-1,-1,-1,-1,-1,-1,-1,-1,-1,-1,-1,-1,-1,-1],"loss_changes":[2.7789434E1,7.9914837E0,1.3278358E1,7.3553143E0,6.7183204E0,8.893769E0,8.982714E0,6.8208885E0,7.3643E0,4.8885884E0,6.5759783E0,8.401611E0,5.8531146E0,4.8509126E0,5.439907E0,0E0,0E0,0E0,0E0,0E0,0E0,0E0,0E0,0E0,0E0,0E0,0E0,0E0,0E0,0E0,0E0],"parents":[2147483647,0,0,1,1,2,2,3,3,4,4,5,5,6,6,7,7,8,8,9,9,10,10,11,11,12,12,13,13,14,14],"right_children":[2,4,6,8,10,12,14,16,18,20,22,24,26,28,30,-1,-1,-1,-1,-1,-1,-1,-1,-1,-1,-1,-1,-1,-1,-1,-1],"split_conditions":[1.81E0,1.7159383E0,2.8E0,-9.6666664E-1,7.1428573E-1,3.5897437E-1,1.25E-1,1.125E0,6.992059E-1,2.25E0,2.2666667E0,4.7619048E-1,1.5E0,5.555556E-1,6.25E-1,4.939405E-2,-1.2150883E-2,3.23318E-3,-9.665879E-3,-3.5124276E-2,2.238842E-2,7.514726E-2,2.647983E-3,2.523212E-2,-1.6275786E-2,7.045746E-4,2.8510362E-2,2.5740126E-2,-1.8838877E-2,2.428411E-2,-1.8965708E-2],"split_indices":[17,28,17,25,9,24,20,23,28,15,15,25,26,9,20,0,0,0,0,0,0,0,0,0,0,0,0,0,0,0,0],"split_type":[0,0,0,0,0,0,0,0,0,0,0,0,0,0,0,0,0,0,0,0,0,0,0,0,0,0,0,0,0,0,0],"sum_hessian":[3.0518188E3,1.0866195E3,1.9651993E3,1.0614622E3,2.5157427E1,1.7982354E3,1.6696393E2,1.6781273E1,1.0446809E3,1.2791532E1,1.2365895E1,8.091165E1,1.7173237E3,3.0430172E1,1.3653377E2,9.808042E0,6.9732304E0,1.2464077E2,9.200401E2,6.0000253E0,6.791506E0,6.744233E0,5.621662E0,6.693431E1,1.3977342E1,1.6991699E3,1.815376E1,7.133307E0,2.3296865E1,1.296787E2,6.8550696E0],"tree_param":{"num_deleted":"0","num_feature":"33","num_nodes":"31","size_leaf_vector":"1"}},{"base_weights":[-2.1234273E-3,-9.187544E-2,9.813546E-2,-6.5145835E-2,-2.700465E-1,-1.5426511E-2,1.7181653E-1,-1.400154E-1,1.851406E-3,4.4083822E-1,-3.4287065E-1,-1.4520165E-1,1.2857993E-1,6.551465E-1,1.5468517E-1,2.335423E-2,-7.788934E-3,-4.1456558E-4,4.119701E-2,4.8282158E-2,-2.4203893E-2,-2.137402E-2,-3.0337244E-3,-1.0848673E-2,1.2353119E-2,8.887076E-3,-2.2559425E-2,5.4373056E-2,1.3702492E-2,4.4654347E-2,7.2194696E-3],"categories":[],"categories_nodes":[],"categories_segments":[],"categories_sizes":[],"default_left":[0,0,0,0,0,0,0,0,0,0,0,0,0,0,0,0,0,0,0,0,0,0,0,0,0,0,0,0,0,0,0],"id":23,"left_children":[1,3,5,7,9,11,13,15,17,19,21,23,25,27,29,-1,-1,-1,-1,-1,-1,-1,-1,-1,-1,-1,-1,-1,-1,-1,-1],"loss_changes":[2.7617254E1,7.6638756E0,1.2144446E1,7.0889363E0,1.10399275E1,1.0685067E1,7.1005325E0,6.4228888E0,6.29734E0,1.0161486E1,4.501156E0,8.524683E0,7.767376E0,4.4424515E0,6.2366695E0,0E0,0E0,0E0,0E0,0E0,0E0,0E0,0E0,0E0,0E0,0E0,0E0,0E0,0E0,0E0,0E0],"parents":[2147483647,0,0,1,1,2,2,3,3,4,4,5,5,6,6,7,7,8,8,9,9,10,10,11,11,12,12,13,13,14,14],"right_children":[2,4,6,8,10,12,14,16,18,20,22,24,26,28,30,-1,-1,-1,-1,-1,-1,-1,-1,-1,-1,-1,-1,-1,-1,-1,-1],"split_conditions":[2.6666667E0,4.4444445E-1,2.02E0,5E-1,6E-1,1.1785113E0,1.34E0,2.5E-1,8.5714287E-1,1.1428572E0,5.555556E-1,3.4E0,5.555556E-1,2.3333333E0,4.4444445E-1,2.335423E-2,-7.788934E-3,-4.1456558E-4,4.119701E-2,4.8282158E-2,-2.4203893E-2,-2.137402E-2,-3.0337244E-3,-1.0848673E-2,1.2353119E-2,8.887076E-3,-2.2559425E-2,5.4373056E-2,1.3702492E-2,4.4654347E-2,7.2194696E-3],"split_indices":[14,21,17,4,10,27,16,11,30,23,29,15,20,0,23,0,0,0,0,0,0,0,0,0,0,0,0,0,0,0,0],"split_type":[0,0,0,0,0,0,0,0,0,0,0,0,0,0,0,0,0,0,0,0,0,0,0,0,0,0,0,0,0,0,0],"sum_hessian":[3.0671843E3,1.6189642E3,1.4482201E3,1.4094435E3,2.0952083E2,5.6965894E2,8.7856116E2,6.658063E2,7.4363715E2,1.8872007E1,1.9064882E2,2.999959E2,2.69663E2,2.8599478E1,8.499617E2,1.5964928E1,6.498414E2,7.354319E2,8.205295E0,1.208115E1,6.7908583E0,1.4600388E2,4.464495E1,2.5418921E2,4.5806705E1,2.4938248E2,2.0280525E1,1.2407993E1,1.6191484E1,1.0375656E1,8.39586E2],"tree_param":{"num_deleted":"0","num_feature":"33","num_nodes":"31","size_leaf_vector":"1"}},{"base_weights":[-2.141985E-2,-1.04935415E-1,6.725071E-2,-1.33254E-1,3.0921018E-2,2.1135667E-2,2.2612979E-1,4.56653E-2,-1.6039662E-1,-3.53956E-1,1.5907271E-1,1.15053E-2,8.289196E-1,-1.6293746E-1,2.754672E-1,3.5652608E-2,-1.3329444E-3,-8.306751E-3,3.0745868E-2,-1.2639179E-2,-5.6262154E-2,-5.0141115E-2,1.0425276E-2,-5.2082236E-3,2.5550302E-3,6.268768E-2,1.693978E-2,-4.696833E-2,9.414581E-4,2.398713E-2,4.791651E-3],"categories":[],"categories_nodes":[],"categories_segments":[],"categories_sizes":[],"default_left":[0,0,0,0,0,0,0,0,0,0,0,0,0,0,0,0,0,0,0,0,0,0,0,0,0,0,0,0,0,0,0],"id":24,"left_children":[1,3,5,7,9,11,13,15,17,19,21,23,25,27,29,-1,-1,-1,-1,-1,-1,-1,-1,-1,-1,-1,-1,-1,-1,-1,-1],"loss_changes":[2.2657692E1,6.0769997E0,1.0838459E1,6.355419E0,1.3453486E1,8.862187E0,6.450117E0,8.397707E0,5.1009464E0,4.888979E0,1.1901388E1,5.2157435E0,2.2117424E0,5.4566135E0,1.0765856E1,0E0,0E0,0E0,0E0,0E0,0E0,0E0,0E0,0E0,0E0,0E0,0E0,0E0,0E0,0E0,0E0],"parents":[2147483647,0,0,1,1,2,2,3,3,4,4,5,5,6,6,7,7,8,8,9,9,10,10,11,11,12,12,13,13,14,14],"right_children":[2,4,6,8,10,12,14,16,18,20,22,24,26,28,30,-1,-1,-1,-1,-1,-1,-1,-1,-1,-1,-1,-1,-1,-1,-1,-1],"split_conditions":[1.96E0,6.25E-1,2.25E0,5.3846157E-1,5.714286E-1,2.8E0,6.363636E-1,6E-1,3.6E0,8.333333E-1,1.5333333E0,2.3333333E0,4.7058824E-1,1.1666666E0,1.3411765E0,3.5652608E-2,-1.3329444E-3,-8.306751E-3,3.0745868E-2,-1.2639179E-2,-5.6262154E-2,-5.0141115E-2,1.0425276E-2,-5.2082236E-3,2.5550302E-3,6.268768E-2,1.693978E-2,-4.696833E-2,9.414581E-4,2.398713E-2,4.791651E-3],"split_indices":[17,18,10,23,23,1,24,10,24,18,14,14,23,12,24,0,0,0,0,0,0,0,0,0,0,0,0,0,0,0,0],"split_type":[0,0,0,0,0,0,0,0,0,0,0,0,0,0,0,0,0,0,0,0,0,0,0,0,0,0,0,0,0,0,0],"sum_hessian":[3.057167E3,1.5748334E3,1.4823337E3,1.303815E3,2.7101846E2,1.1502369E3,3.3209674E2,1.7116422E2,1.1326508E3,6.706383E1,2.0395464E2,1.13781E3,1.2426887E1,3.6886444E1,2.952103E2,1.6004337E1,1.5515988E2,1.1252372E3,7.4135947E0,6.0575344E1,6.488486E0,7.453526E0,1.9650111E2,2.8910153E2,8.4870856E2,5.7129245E0,6.713962E0,6.3109493E0,3.0575497E1,1.3708891E2,1.5812137E2],"tree_param":{"num_deleted":"0","num_feature":"33","num_nodes":"31","size_leaf_vector":"1"}},{"base_weights":[-2.2806017E-2,-1.02618605E-1,7.27288E-2,-1.1099413E-1,4.336005E-1,3.555195E-2,2.7190784E-1,-6.9281094E-2,-2.0444101E-1,8.1040874E-2,7.719402E-2,-5.052816E-3,1.8108194E-1,1.6393322E-1,6.0254866E-1,-6.087772E-3,3.6588535E-3,-4.882401E-2,-9.200609E-3,3.1414967E-2,-1.2719347E-2,4.0073292E-3,-7.6976763E-3,-3.7306827E-2,1.0414448E-2,4.809547E-3,4.073147E-2,4.2210396E-2,6.909512E-3],"categories":[],"categories_nodes":[],"categories_segments":[],"categories_sizes":[],"default_left":[0,0,0,0,0,0,0,0,0,0,0,0,0,0,0,0,0,0,0,0,0,0,0,0,0,0,0,0,0],"id":25,"left_children":[1,3,5,7,9,11,13,15,17,19,-1,21,23,25,27,-1,-1,-1,-1,-1,-1,-1,-1,-1,-1,-1,-1,-1,-1],"loss_changes":[2.333482E1,7.5053196E0,1.026985E1,6.3625946E0,9.7595005E0,6.9614396E0,7.622858E0,8.521919E0,7.681576E0,3.9795551E0,0E0,1.1679139E1,6.58171E0,7.159405E0,5.7517147E0,0E0,0E0,0E0,0E0,0E0,0E0,0E0,0E0,0E0,0E0,0E0,0E0,0E0,0E0],"parents":[2147483647,0,0,1,1,2,2,3,3,4,4,5,5,6,6,7,7,8,8,9,9,11,11,12,12,13,13,14,14],"right_children":[2,4,6,8,10,12,14,16,18,20,-1,22,24,26,28,-1,-1,-1,-1,-1,-1,-1,-1,-1,-1,-1,-1,-1,-1],"split_conditions":[2E0,1.2222222E0,2.7E0,2.0833333E-1,1.6363636E0,3.5833333E0,3.3333334E-1,1.2292726E0,1.1111111E-1,1.3333334E0,7.719402E-2,1.4444444E0,-1.0333333E0,2.375E0,2.0833333E-1,-6.087772E-3,3.6588535E-3,-4.882401E-2,-9.200609E-3,3.1414967E-2,-1.2719347E-2,4.0073292E-3,-7.6976763E-3,-3.7306827E-2,1.0414448E-2,4.809547E-3,4.073147E-2,4.2210396E-2,6.909512E-3],"split_indices":[17,25,17,25,23,15,21,28,30,25,0,1,25,6,26,0,0,0,0,0,0,0,0,0,0,0,0,0,0],"split_type":[0,0,0,0,0,0,0,0,0,0,0,0,0,0,0,0,0,0,0,0,0,0,0,0,0,0,0,0,0],"sum_hessian":[3.0579812E3,1.6666147E3,1.3913663E3,1.6419476E3,2.466706E1,1.173932E3,2.1743433E2,1.1371538E3,5.0479388E2,1.9604792E1,5.06227E0,9.180596E2,2.5587247E2,1.6526375E2,5.2170567E1,8.316599E2,3.0549393E2,1.168034E1,4.9311353E2,7.2314715E0,1.237332E1,5.838035E2,3.34256E2,6.43591E0,2.4943657E2,1.5085966E2,1.4404094E1,3.363371E1,1.8536858E1],"tree_param":{"num_deleted":"0","num_feature":"33","num_nodes":"29","size_leaf_vector":"1"}},{"base_weights":[-1.2425084E-2,-1.0374761E-1,6.567439E-2,-1.0968915E-1,5.3617205E-2,3.4319464E-2,2.1952154E-1,-2.1245752E-1,-5.7690542E-2,-1.5928147E-2,1.8263255E-1,4.3671775E-1,1.6195077E-2,-1.1774426E-2,1.5731884E-2,-6.0872985E-3,2.4592392E-3,1.8731698E-2,-2.2234626E-3,9.226589E-4,1.5253747E-2,-3.0123964E-2,2.5689064E-2,-1.6580619E-3,5.0741374E-2],"categories":[],"categories_nodes":[],"categories_segments":[],"categories_sizes":[],"default_left":[0,0,0,0,0,0,0,0,0,0,0,0,0,0,0,0,0,0,0,0,0,0,0,0,0],"id":26,"left_children":[1,3,5,7,-1,9,11,13,15,17,19,21,23,-1,-1,-1,-1,-1,-1,-1,-1,-1,-1,-1,-1],"loss_changes":[2.1773046E1,9.856978E0,7.9010515E0,7.4498634E0,0E0,1.0214453E1,1.2212667E1,5.7698536E0,6.3978796E0,1.1378549E1,6.932953E0,1.1032635E1,7.264961E0,0E0,0E0,0E0,0E0,0E0,0E0,0E0,0E0,0E0,0E0,0E0,0E0],"parents":[2147483647,0,0,1,1,2,2,3,3,5,5,6,6,7,7,8,8,9,9,10,10,11,11,12,12],"right_children":[2,4,6,8,-1,10,12,14,16,18,20,22,24,-1,-1,-1,-1,-1,-1,-1,-1,-1,-1,-1,-1],"split_conditions":[1.91E0,1.3333334E0,1.7857143E0,1.1E0,5.3617205E-2,3.6E0,0E0,1E0,1.25E0,3.764706E-1,6.875E-1,1.96E0,1.3666667E0,-1.1774426E-2,1.5731884E-2,-6.0872985E-3,2.4592392E-3,1.8731698E-2,-2.2234626E-3,9.226589E-4,1.5253747E-2,-3.0123964E-2,2.5689064E-2,-1.6580619E-3,5.0741374E-2],"split_indices":[17,9,22,6,0,15,26,31,11,24,22,17,26,0,0,0,0,0,0,0,0,0,0,0,0],"split_type":[0,0,0,0,0,0,0,0,0,0,0,0,0,0,0,0,0,0,0,0,0,0,0,0,0],"sum_hessian":[3.0502747E3,1.4065422E3,1.6437324E3,1.400459E3,6.0832705E0,1.3670026E3,2.7672983E2,4.6884326E2,9.316157E2,1.0212331E3,3.4576944E2,1.3300854E2,1.437213E2,4.4992703E2,1.8916246E1,5.8299554E2,3.486202E2,6.8481995E1,9.527511E2,1.4855022E2,1.9721922E2,8.622258E0,1.24386284E2,1.377784E2,5.942891E0],"tree_param":{"num_deleted":"0","num_feature":"33","num_nodes":"25","size_leaf_vector":"1"}},{"base_weights":[-5.664374E-3,-6.5106526E-2,1.2720959E-1,-1.858521E-1,-4.4329315E-2,6.26241E-1,1.0905612E-1,-2.320259E-1,4.001114E-1,-1.6205959E-1,-1.1504209E-2,5.2577644E-3,8.0540425E-1,9.938022E-2,4.4629034E-2,-1.0261366E-2,-5.6112677E-2,5.4485507E-2,-5.054438E-3,-9.543621E-3,2.8954789E-2,-5.481642E-3,2.8717627E-3,5.556755E-2,7.577908E-3,4.584329E-3,5.256788E-2],"categories":[],"categories_nodes":[],"categories_segments":[],"categories_sizes":[],"default_left":[0,0,0,0,0,0,0,0,0,0,0,0,0,0,0,0,0,0,0,0,0,0,0,0,0,0,0],"id":27,"left_children":[1,3,5,7,9,11,13,15,17,19,21,-1,23,25,-1,-1,-1,-1,-1,-1,-1,-1,-1,-1,-1,-1,-1],"loss_changes":[2.4223768E1,5.2873125E0,8.443436E0,8.469435E0,6.9785585E0,2.8920612E0,6.7552767E0,6.5161257E0,8.113048E0,8.486737E0,9.602322E0,0E0,4.5382366E0,6.4243193E0,0E0,0E0,0E0,0E0,0E0,0E0,0E0,0E0,0E0,0E0,0E0,0E0,0E0],"parents":[2147483647,0,0,1,1,2,2,3,3,4,4,5,5,6,6,7,7,8,8,9,9,10,10,12,12,13,13],"right_children":[2,4,6,8,10,12,14,16,18,20,22,-1,24,26,-1,-1,-1,-1,-1,-1,-1,-1,-1,-1,-1,-1,-1],"split_conditions":[2.16E0,9E-1,1.34E0,3.75E0,-3.809524E-1,1.25E0,1.76E0,6.25E-1,1.1666666E0,2.6666667E0,5E-1,5.2577644E-3,2.25E0,1.6333333E0,4.4629034E-2,-1.0261366E-2,-5.6112677E-2,5.4485507E-2,-5.054438E-3,-9.543621E-3,2.8954789E-2,-5.481642E-3,2.8717627E-3,5.556755E-2,7.577908E-3,4.584329E-3,5.256788E-2],"split_indices":[17,1,16,23,26,13,16,21,13,13,4,0,13,26,0,0,0,0,0,0,0,0,0,0,0,0,0],"split_type":[0,0,0,0,0,0,0,0,0,0,0,0,0,0,0,0,0,0,0,0,0,0,0,0,0,0,0],"sum_hessian":[3.0656917E3,2.1190027E3,9.4668896E2,3.0922153E2,1.8097811E3,3.1860186E1,9.1482874E2,2.8735287E2,2.1868668E1,3.9305823E2,1.4167229E3,8.700468E0,2.3159718E1,9.049083E2,9.920429E0,2.8025906E2,7.093799E0,8.794155E0,1.30745125E1,3.791942E2,1.3863994E1,5.849556E2,8.317673E2,1.5196391E1,7.9633274E0,8.9884546E2,6.062876E0],"tree_param":{"num_deleted":"0","num_feature":"33","num_nodes":"27","size_leaf_vector":"1"}},{"base_weights":[-1.7485134E-2,1.445283E-2,-1.8153556E-1,-5.472765E-3,2.2726153E-1,-2.6938716E-1,2.4410175E-2,-1.5769115E-1,1.761008E-2,1.9222715E-1,5.4402452E-2,-2.3656164E-1,-7.7359486E-1,7.002149E-1,-4.4150475E-2,-1.3046131E-2,1.00203315E-2,2.3628708E-2,5.771296E-4,7.932951E-3,3.9233323E-2,-1.6841313E-2,-3.5785313E-3,-5.501786E-2,-1.0796714E-2,7.873637E-2,-0E0,2.6086932E-3,-2.1149697E-2],"categories":[],"categories_nodes":[],"categories_segments":[],"categories_sizes":[],"default_left":[0,0,0,0,0,0,0,0,0,0,0,0,0,0,0,0,0,0,0,0,0,0,0,0,0,0,0,0,0],"id":28,"left_children":[1,3,5,7,9,11,13,15,17,19,-1,21,23,25,27,-1,-1,-1,-1,-1,-1,-1,-1,-1,-1,-1,-1,-1,-1],"loss_changes":[1.5946493E1,1.0814691E1,9.004221E0,8.195015E0,6.2472067E0,5.4769707E0,6.994558E0,1.1412907E1,5.5262322E0,3.9797988E0,0E0,5.368162E0,3.3935013E0,8.397158E0,5.020998E0,0E0,0E0,0E0,0E0,0E0,0E0,0E0,0E0,0E0,0E0,0E0,0E0,0E0,0E0],"parents":[2147483647,0,0,1,1,2,2,3,3,4,4,5,5,6,6,7,7,8,8,9,9,11,11,12,12,13,13,14,14],"right_children":[2,4,6,8,10,12,14,16,18,20,-1,22,24,26,28,-1,-1,-1,-1,-1,-1,-1,-1,-1,-1,-1,-1,-1,-1],"split_conditions":[2.31E0,2.7E0,7.777778E-1,8.888889E-1,2.5555556E0,8.5714287E-1,-6.25E-1,1.8E0,2.9166666E-1,4.3333335E0,5.4402452E-2,1.0593499E0,1E0,-1.4285715E-1,6.25E-1,-1.3046131E-2,1.00203315E-2,2.3628708E-2,5.771296E-4,7.932951E-3,3.9233323E-2,-1.6841313E-2,-3.5785313E-3,-5.501786E-2,-1.0796714E-2,7.873637E-2,-0E0,2.6086932E-3,-2.1149697E-2],"split_indices":[16,17,7,1,6,32,25,5,22,15,0,28,6,26,30,0,0,0,0,0,0,0,0,0,0,0,0,0,0],"split_type":[0,0,0,0,0,0,0,0,0,0,0,0,0,0,0,0,0,0,0,0,0,0,0,0,0,0,0,0,0],"sum_hessian":[3.0388613E3,2.5439062E3,4.9495508E2,2.3265703E3,2.1733588E2,3.4707748E2,1.478776E2,3.0615448E2,2.0204159E3,2.1012326E2,7.212609E0,3.2742838E2,1.9649124E1,1.29062E1,1.3497139E2,2.3807382E2,6.8080666E1,2.536127E1,1.9950547E3,2.0021548E2,9.9077835E0,2.0263815E2,1.2479022E2,1.1662797E1,7.986327E0,5.1358123E0,7.770388E0,1.08087494E2,2.6883892E1],"tree_param":{"num_deleted":"0","num_feature":"33","num_nodes":"29","size_leaf_vector":"1"}},{"base_weights":[1.262251E-2,4.4028427E-2,-1.4227718E-1,3.7613094E-2,5.03401E-1,1.2848198E-2,-2.2712149E-1,2.5373518E-1,2.571044E-2,9.711369E-1,-2.0360695E-1,-1.4439823E-1,2.802448E-1,-2.9665938E-1,1.7020568E-1,-1.4474687E-2,1.859235E-2,1.7923284E-3,-1.3585232E-2,7.175227E-2,1.813308E-2,-2.9385392E-2,1.2680593E-2,4.186274E-3,-1.8860834E-2,1.9979281E-2,-2.0631453E-2,3.827085E-3,-1.8288765E-2,-1.705335E-2,2.4901228E-2],"categories":[],"categories_nodes":[],"categories_segments":[],"categories_sizes":[],"default_left":[0,0,0,0,0,0,0,0,0,0,0,0,0,0,0,0,0,0,0,0,0,0,0,0,0,0,0,0,0,0,0],"id":29,"left_children":[1,3,5,7,9,11,13,15,17,19,21,23,25,27,29,-1,-1,-1,-1,-1,-1,-1,-1,-1,-1,-1,-1,-1,-1,-1,-1],"loss_changes":[1.4838876E1,7.4065022E0,6.789543E0,6.4077406E0,1.1736485E1,7.7178135E0,9.256735E0,8.46796E0,7.146401E0,5.2610703E0,2.7362976E0,6.1791954E0,5.7920785E0,7.3764E0,8.562929E0,0E0,0E0,0E0,0E0,0E0,0E0,0E0,0E0,0E0,0E0,0E0,0E0,0E0,0E0,0E0,0E0],"parents":[2147483647,0,0,1,1,2,2,3,3,4,4,5,5,6,6,7,7,8,8,9,9,10,10,11,11,12,12,13,13,14,14],"right_children":[2,4,6,8,10,12,14,16,18,20,22,24,26,28,30,-1,-1,-1,-1,-1,-1,-1,-1,-1,-1,-1,-1,-1,-1,-1,-1],"split_conditions":[2.3E0,5.25E0,7.832168E-1,1.45E0,1.7763883E0,1.1595018E0,2.8333333E0,1.25E-1,4.5333333E0,1.2222222E0,2.7142856E0,1E0,2.3333333E0,6.992059E-1,1.1666666E0,-1.4474687E-2,1.859235E-2,1.7923284E-3,-1.3585232E-2,7.175227E-2,1.813308E-2,-2.9385392E-2,1.2680593E-2,4.186274E-3,-1.8860834E-2,1.9979281E-2,-2.0631453E-2,3.827085E-3,-1.8288765E-2,-1.705335E-2,2.4901228E-2],"split_indices":[16,14,24,16,27,28,14,20,14,9,0,8,23,28,24,0,0,0,0,0,0,0,0,0,0,0,0,0,0,0,0],"split_type":[0,0,0,0,0,0,0,0,0,0,0,0,0,0,0,0,0,0,0,0,0,0,0,0,0,0,0,0,0,0,0],"sum_hessian":[3.0500066E3,2.5369924E3,5.13014E2,2.503332E3,3.366055E1,1.8126587E2,3.3174814E2,1.2917221E2,2.3741597E3,2.0118551E1,1.3541996E1,1.141968E2,6.706906E1,2.8276526E2,4.898289E1,2.26591E1,1.06513115E2,2.2970889E3,7.7070816E1,1.0551327E1,9.5672245E0,7.323217E0,6.218779E0,5.7786457E1,5.6410343E1,5.769865E1,9.370413E0,4.3941677E1,2.3882356E2,1.9001822E1,2.998107E1],"tree_param":{"num_deleted":"0","num_feature":"33","num_nodes":"31","size_leaf_vector":"1"}},{"base_weights":[-3.5026448E-3,-6.050159E-2,7.530783E-2,-6.537852E-2,6.340707E-1,1.7666899E-1,2.1811998E-2,-7.3141344E-2,3.6281297E-1,-4.71502E-3,6.525929E-2,3.4188676E-1,-3.042326E-2,3.861264E-2,-6.16095E-1,-1.6072706E-3,-8.218856E-3,5.8243107E-2,4.079001E-3,1.9062907E-2,-2.9748661E-2,-4.763691E-2,2.2052934E-4,3.1900804E-2,1.347588E-3,-4.7731954E-3,-5.6762587E-2],"categories":[],"categories_nodes":[],"categories_segments":[],"categories_sizes":[],"default_left":[0,0,0,0,0,0,0,0,0,0,0,0,0,0,0,0,0,0,0,0,0,0,0,0,0,0,0],"id":30,"left_children":[1,3,5,7,9,11,13,15,17,-1,-1,19,21,23,25,-1,-1,-1,-1,-1,-1,-1,-1,-1,-1,-1,-1],"loss_changes":[1.3732718E1,5.9969025E0,6.9303584E0,5.8597093E0,6.2694516E0,1.5173151E1,8.981633E0,6.4579325E0,6.8498726E0,0E0,0E0,9.2919655E0,6.4250827E0,5.6528563E0,5.5779037E0,0E0,0E0,0E0,0E0,0E0,0E0,0E0,0E0,0E0,0E0,0E0,0E0],"parents":[2147483647,0,0,1,1,2,2,3,3,4,4,5,5,6,6,7,7,8,8,11,11,12,12,13,13,14,14],"right_children":[2,4,6,8,10,12,14,16,18,-1,-1,20,22,24,26,-1,-1,-1,-1,-1,-1,-1,-1,-1,-1,-1,-1],"split_conditions":[2.04E0,1.9888579E0,-2.2222222E-1,1.1904762E0,2.4166667E0,1.4285715E0,1.5E0,2.0833333E-1,1.65E0,-4.71502E-3,6.525929E-2,2.3333333E0,5.676462E-1,1.1111111E-1,7.777778E-1,-1.6072706E-3,-8.218856E-3,5.8243107E-2,4.079001E-3,1.9062907E-2,-2.9748661E-2,-4.763691E-2,2.2052934E-4,3.1900804E-2,1.347588E-3,-4.7731954E-3,-5.6762587E-2],"split_indices":[17,27,26,25,15,1,9,25,17,0,0,6,27,9,31,0,0,0,0,0,0,0,0,0,0,0,0],"split_type":[0,0,0,0,0,0,0,0,0,0,0,0,0,0,0,0,0,0,0,0,0,0,0,0,0,0,0],"sum_hessian":[3.055388E3,1.7739188E3,1.2814691E3,1.7625927E3,1.1326159E1,4.4124643E2,8.402227E2,1.7322509E3,3.0341831E1,5.7720976E0,5.554061E0,2.4534369E2,1.9590273E2,8.197296E2,2.04931E1,1.1968885E3,5.3536224E2,6.969092E0,2.3372738E1,2.3612056E2,9.223134E0,6.275034E0,1.896277E2,1.4454145E1,8.0527545E2,1.0919296E1,9.573802E0],"tree_param":{"num_deleted":"0","num_feature":"33","num_nodes":"27","size_leaf_vector":"1"}},{"base_weights":[-1.6665958E-2,-1.22192346E-1,2.1394204E-2,-9.775243E-2,-5.154608E-1,1.403652E-2,6.718686E-1,-2.595364E-1,-2.3987446E-2,6.0788267E-3,-6.3977414E-1,8.105337E-2,-4.006931E-2,-4.600098E-3,1.016187E0,-1.0923057E-2,-4.0716354E-2,3.533169E-2,-1.8875735E-3,-5.1559877E-2,-1.6313141E-2,-3.659675E-3,7.2273845E-3,-1.0887371E-2,-3.5380956E-4,7.3154434E-3,7.31763E-2],"categories":[],"categories_nodes":[],"categories_segments":[],"categories_sizes":[],"default_left":[0,0,0,0,0,0,0,0,0,0,0,0,0,0,0,0,0,0,0,0,0,0,0,0,0,0,0],"id":31,"left_children":[1,3,5,7,9,11,13,15,17,-1,19,21,23,-1,25,-1,-1,-1,-1,-1,-1,-1,-1,-1,-1,-1,-1],"loss_changes":[1.2236625E1,7.6503983E0,1.0627994E1,9.056877E0,3.8340807E0,8.032069E0,6.72087E0,5.1434097E0,5.2370014E0,0E0,4.3666573E0,9.711189E0,7.153297E0,0E0,6.356758E0,0E0,0E0,0E0,0E0,0E0,0E0,0E0,0E0,0E0,0E0,0E0,0E0],"parents":[2147483647,0,0,1,1,2,2,3,3,4,4,5,5,6,6,7,7,8,8,10,10,11,11,12,12,14,14],"right_children":[2,4,6,8,10,12,14,16,18,-1,20,22,24,-1,26,-1,-1,-1,-1,-1,-1,-1,-1,-1,-1,-1,-1],"split_conditions":[2.1333334E0,1.4181365E0,1.5E0,2.25E0,7.619048E-1,-8.3333336E-2,2.65E0,7.1428573E-1,-9E-1,6.0788267E-3,6E-1,9.660918E-1,3.3333334E-1,-4.600098E-3,1.1547005E0,-1.0923057E-2,-4.0716354E-2,3.533169E-2,-1.8875735E-3,-5.1559877E-2,-1.6313141E-2,-3.659675E-3,7.2273845E-3,-1.0887371E-2,-3.5380956E-4,7.3154434E-3,7.31763E-2],"split_indices":[14,27,26,15,24,26,14,25,26,0,4,27,9,0,27,0,0,0,0,0,0,0,0,0,0,0,0],"split_type":[0,0,0,0,0,0,0,0,0,0,0,0,0,0,0,0,0,0,0,0,0,0,0,0,0,0,0],"sum_hessian":[3.042541E3,8.0658997E2,2.235951E3,7.608117E2,4.5778282E1,2.2121045E3,2.3846375E1,2.3704411E2,5.237676E2,7.3469296E0,3.843135E1,9.887563E2,1.2233484E3,7.546602E0,1.6299774E1,2.221693E2,1.487481E1,8.619568E0,5.15148E2,1.5931941E1,2.249941E1,2.87822E2,7.0093427E2,1.9023634E2,1.033112E3,6.0621552E0,1.0237618E1],"tree_param":{"num_deleted":"0","num_feature":"33","num_nodes":"27","size_leaf_vector":"1"}},{"base_weights":[2.7184898E-3,-4.770216E-2,1.06863625E-1,-1.2029485E-2,-1.607006E-1,1.1434907E-1,-5.5425894E-1,6.6870856E-1,-1.9068355E-2,-1.7997837E-1,3.9977316E-2,1.2857772E-1,-2.2493154E-1,-5.187999E-2,-0E0,-3.0458753E-3,5.544147E-2,-5.792808E-3,1.2166756E-3,-1.0030956E-2,2.225556E-2,4.6621733E-3,1.6661104E-2,1.559713E-2,-2.5489328E-2],"categories":[],"categories_nodes":[],"categories_segments":[],"categories_sizes":[],"default_left":[0,0,0,0,0,0,0,0,0,0,0,0,0,0,0,0,0,0,0,0,0,0,0,0,0],"id":32,"left_children":[1,3,5,7,9,11,13,15,17,19,-1,21,23,-1,-1,-1,-1,-1,-1,-1,-1,-1,-1,-1,-1],"loss_changes":[1.5974918E1,8.238033E0,4.9319057E0,7.4164762E0,9.166613E0,4.7624836E0,3.0536947E0,5.257135E0,6.4973807E0,6.2840233E0,0E0,6.7516375E0,6.2391167E0,0E0,0E0,0E0,0E0,0E0,0E0,0E0,0E0,0E0,0E0,0E0,0E0],"parents":[2147483647,0,0,1,1,2,2,3,3,4,4,5,5,6,6,7,7,8,8,9,9,11,11,12,12],"right_children":[2,4,6,8,10,12,14,16,18,20,-1,22,24,-1,-1,-1,-1,-1,-1,-1,-1,-1,-1,-1,-1],"split_conditions":[2.14E0,2.31E0,5.25E0,2.5925925E-1,1.0476191E0,9E-1,1.0588236E0,1.81E0,1.1666666E0,3.45E0,3.9977316E-2,1E0,1E0,-5.187999E-2,-0E0,-3.0458753E-3,5.544147E-2,-5.792808E-3,1.2166756E-3,-1.0030956E-2,2.225556E-2,4.6621733E-3,1.6661104E-2,1.559713E-2,-2.5489328E-2],"split_indices":[17,16,15,22,25,18,24,17,10,14,0,31,31,0,0,0,0,0,0,0,0,0,0,0,0],"split_type":[0,0,0,0,0,0,0,0,0,0,0,0,0,0,0,0,0,0,0,0,0,0,0,0,0],"sum_hessian":[3.0391265E3,2.0474563E3,9.916702E2,1.5576959E3,4.897603E2,9.815353E2,1.0134953E1,1.483439E1,1.5428616E3,4.8102014E2,8.740176E0,9.4290765E2,3.862765E1,5.013659E0,5.121294E0,5.8201714E0,9.014218E0,4.7785706E2,1.0650045E3,4.6645657E2,1.4563578E1,8.0573267E2,1.3717497E2,1.3235739E1,2.5391912E1],"tree_param":{"num_deleted":"0","num_feature":"33","num_nodes":"25","size_leaf_vector":"1"}},{"base_weights":[-3.8362322E-3,-1.1847422E-1,3.657991E-2,-1.2889206E-1,3.193318E-2,3.0578861E-2,7.151363E-1,1.4041948E-1,-1.558896E-1,2.2970175E-2,3.575749E-1,-1.1956677E-2,1.0848176E0,2.3848379E-2,-1.0309E-2,-1.3554379E-2,-3.1833139E-3,-2.790304E-3,2.7211604E-3,2.8737191E-2,-6.5498673E-3,2.9047728E-2,6.4608924E-2],"categories":[],"categories_nodes":[],"categories_segments":[],"categories_sizes":[],"default_left":[0,0,0,0,0,0,0,0,0,0,0,0,0,0,0,0,0,0,0,0,0,0,0],"id":33,"left_children":[1,3,5,7,-1,9,11,13,15,17,19,-1,21,-1,-1,-1,-1,-1,-1,-1,-1,-1,-1],"loss_changes":[1.4089672E1,6.285062E0,9.051275E0,5.716732E0,0E0,5.4969254E0,7.2239857E0,8.469636E0,7.5189075E0,5.4010954E0,5.456083E0,0E0,5.574379E-1,0E0,0E0,0E0,0E0,0E0,0E0,0E0,0E0,0E0,0E0],"parents":[2147483647,0,0,1,1,2,2,3,3,5,5,6,6,7,7,8,8,9,9,10,10,12,12],"right_children":[2,4,6,8,-1,10,12,14,16,18,20,-1,22,-1,-1,-1,-1,-1,-1,-1,-1,-1,-1],"split_conditions":[1.74E0,2.3E0,2.7142856E0,8E-1,3.193318E-2,1.9888579E0,9.2796075E-1,8.888889E-1,2.0666666E0,5E-1,2.66E0,-1.1956677E-2,3.75E-1,2.3848379E-2,-1.0309E-2,-1.3554379E-2,-3.1833139E-3,-2.790304E-3,2.7211604E-3,2.8737191E-2,-6.5498673E-3,2.9047728E-2,6.4608924E-2],"split_indices":[17,6,1,3,0,27,28,0,14,19,17,0,4,0,0,0,0,0,0,0,0,0,0],"split_type":[0,0,0,0,0,0,0,0,0,0,0,0,0,0,0,0,0,0,0,0,0,0,0],"sum_hessian":[3.0373047E3,7.918401E2,2.2454646E3,7.820414E2,9.798663E0,2.2269622E3,1.8502476E1,7.053367E1,7.1150775E2,2.1776672E3,4.9294846E1,5.189442E0,1.3313033E1,3.5741276E1,3.4792397E1,3.1500497E2,3.9650275E2,6.202515E2,1.5574156E3,3.4145554E1,1.5149291E1,5.1304746E0,8.182558E0],"tree_param":{"num_deleted":"0","num_feature":"33","num_nodes":"23","size_leaf_vector":"1"}}]},"name":"gbtree"},"learner_model_param":{"base_score":"3.4655425E-1","boost_from_average":"1","num_class":"0","num_feature":"33","num_target":"1"},"objective":{"name":"binary:logistic","reg_loss_param":{"scale_pos_weight":"1"}}},"version":[2,1,4]}