{"learner":{"attributes":{"best_iteration":"19","best_score":"0.5258197940329848","scikit_learn":"{\"_estimator_type\": \"classifier\"}"},"feature_names":["home_goals_per_game","home_goals_conceded_per_game","home_over15_rate","home_over05_rate","home_first_half_goals","away_goals_per_game","away_goals_conceded_per_game","away_over15_rate","away_over05_rate","away_first_half_goals","home_home_goals","home_home_conceded","away_away_goals","away_away_conceded","total_expected_goals","defensive_strength","over15_odds","under15_odds","home_btts_rate","away_btts_rate","home_clean_sheet_rate","away_clean_sheet_rate","home_attack_strength","away_attack_strength","attack_vs_defense_ratio","home_momentum","away_momentum","home_goals_std","away_goals_std","home_over25_rate","away_over25_rate","home_scored_in_rate","away_scored_in_rate"],"feature_types":["float","float","float","float","float","float","float","float","float","float","float","float","float","float","float","float","float","float","float","float","float","float","float","float","float","float","float","float","float","float","float","float","float"],"gradient_booster":{"model":{"gbtree_model_param":{"num_parallel_tree":"1","num_trees":"40"},"iteration_indptr":[0,1,2,3,4,5,6,7,8,9,10,11,12,13,14,15,16,17,18,19,20,21,22,23,24,25,26,27,28,29,30,31,32,33,34,35,36,37,38,39,40],"tree_info":[0,0,0,0,0,0,0,0,0,0,0,0,0,0,0,0,0,0,0,0,0,0,0,0,0,0,0,0,0,0,0,0,0,0,0,0,0,0,0,0],"trees":[{"base_weights":[1.4253902E-1,-3.135712E-2,4.2945033E-1,1.0145334E-1,-2.0144011E-1,3.31258E-1,5.876198E-1,2.2396097E-1,-1.1492966E-2,-3.8117766E-1,-9.8502904E-2,-3.811692E-1,3.457462E-1,7.0541346E-1,4.082932E-1,1.2510978E-2,-4.5862984E-2,1.9716443E-2,-2.750919E-3,-6.7154184E-2,-1.6878394E-2,-3.9582998E-3,-4.467648E-2,-3.5161134E-2,-0E0,-2.488715E-2,1.781107E-2,2.6755784E-2,4.286853E-2,-9.249604E-3,2.7190838E-2],"categories":[],"categories_nodes":[],"categories_segments":[],"categories_sizes":[],"default_left":[0,0,0,0,0,0,0,0,0,0,0,0,0,0,0,0,0,0,0,0,0,0,0,0,0,0,0,0,0,0,0],"id":0,"left_children":[1,3,5,7,9,11,13,15,17,19,21,23,25,27,29,-1,-1,-1,-1,-1,-1,-1,-1,-1,-1,-1,-1,-1,-1,-1,-1],"loss_changes":[1.2345184E2,3.483174E1,1.4213715E1,1.1998851E1,1.2425234E1,6.101589E0,7.1188965E0,1.26178E1,7.950905E0,9.678463E0,6.4680257E0,1.5034686E0,5.18042E0,4.916664E0,1.1699856E1,0E0,0E0,0E0,0E0,0E0,0E0,0E0,0E0,0E0,0E0,0E0,0E0,0E0,0E0,0E0,0E0],"parents":[2147483647,0,0,1,1,2,2,3,3,4,4,5,5,6,6,7,7,8,8,9,9,10,10,11,11,12,12,13,13,14,14],"right_children":[2,4,6,8,10,12,14,16,18,20,22,24,26,28,30,-1,-1,-1,-1,-1,-1,-1,-1,-1,-1,-1,-1,-1,-1,-1,-1],"split_conditions":[2.06E0,2.19E0,2.43E0,2.857143E-1,1.1666666E0,7.1428573E-1,1.4444444E0,2.5555556E0,7.777778E-1,1.1111111E-1,6.25E-1,1.2222222E0,1.05E0,2.4166667E0,4.2857143E-1,1.2510978E-2,-4.5862984E-2,1.9716443E-2,-2.750919E-3,-6.7154184E-2,-1.6878394E-2,-3.9582998E-3,-4.467648E-2,-3.5161134E-2,-0E0,-2.488715E-2,1.781107E-2,2.6755784E-2,4.286853E-2,-9.249604E-3,2.7190838E-2],"split_indices":[17,16,17,21,13,3,1,6,1,9,20,6,15,15,19,0,0,0,0,0,0,0,0,0,0,0,0,0,0,0,0],"split_type":[0,0,0,0,0,0,0,0,0,0,0,0,0,0,0,0,0,0,0,0,0,0,0,0,0,0,0,0,0,0,0],"sum_hessian":[2.472276E3,1.5396442E3,9.3263184E2,8.644489E2,6.7519525E2,5.777121E2,3.5491977E2,4.146259E2,4.4982303E2,2.4453714E2,4.3065808E2,1.0872413E1,5.6683966E2,2.1210419E2,1.4281558E2,4.061491E2,8.476796E0,4.256826E1,4.0725476E2,9.213909E0,2.3532323E2,4.2162848E2,9.029631E0,5.528345E0,5.344067E0,6.265458E0,5.605742E2,1.02458664E2,1.09645515E2,2.635178E1,1.16463806E2],"tree_param":{"num_deleted":"0","num_feature":"33","num_nodes":"31","size_leaf_vector":"1"}},{"base_weights":[1.3385363E-1,3.655883E-1,-9.800937E-2,4.6615833E-1,2.1737331E-1,1.5194252E-2,-3.0451185E-1,1.1691927E-1,5.1512307E-1,2.3696856E-1,-5.2268827E-1,1.1672212E-1,-1.4129536E-1,-4.9563622E-1,-1.833565E-1,-1.9244997E-2,1.8907957E-2,1.8155515E-2,2.9810214E-2,1.0429421E-2,2.8841648E-2,-5.8178898E-2,4.119373E-3,-6.3465177E-3,8.484797E-3,-2.2223892E-3,-2.094452E-2,4.7638337E-3,-2.9858766E-2,-4.240546E-4,-1.7117245E-2],"categories":[],"categories_nodes":[],"categories_segments":[],"categories_sizes":[],"default_left":[0,0,0,0,0,0,0,0,0,0,0,0,0,0,0,0,0,0,0,0,0,0,0,0,0,0,0,0,0,0,0],"id":1,"left_children":[1,3,5,7,9,11,13,15,17,19,21,23,25,27,29,-1,-1,-1,-1,-1,-1,-1,-1,-1,-1,-1,-1,-1,-1,-1,-1],"loss_changes":[1.3291083E2,1.8269165E1,2.893835E1,1.2457001E1,7.3799305E0,1.2713258E1,9.987572E0,1.2206548E1,7.633423E0,4.5292435E0,5.298669E0,6.2950106E0,8.392363E0,1.0252789E1,7.471243E0,0E0,0E0,0E0,0E0,0E0,0E0,0E0,0E0,0E0,0E0,0E0,0E0,0E0,0E0,0E0,0E0],"parents":[2147483647,0,0,1,1,2,2,3,3,4,4,5,5,6,6,7,7,8,8,9,9,10,10,11,11,12,12,13,13,14,14],"right_children":[2,4,6,8,10,12,14,16,18,20,22,24,26,28,30,-1,-1,-1,-1,-1,-1,-1,-1,-1,-1,-1,-1,-1,-1,-1,-1],"split_conditions":[1.96E0,1.76E0,2.31E0,8.5714287E-1,3.3333333E0,1.1005049E0,2.05E0,7.1428573E-1,1.5E0,1.6465452E0,1.4285715E0,8.333333E-1,2.19E0,-4.7619048E-1,5E-1,-1.9244997E-2,1.8907957E-2,1.8155515E-2,2.9810214E-2,1.0429421E-2,2.8841648E-2,-5.8178898E-2,4.119373E-3,-6.3465177E-3,8.484797E-3,-2.2223892E-3,-2.094452E-2,4.7638337E-3,-2.9858766E-2,-4.240546E-4,-1.7117245E-2],"split_indices":[16,16,16,6,24,27,15,9,10,27,1,13,16,25,9,0,0,0,0,0,0,0,0,0,0,0,0,0,0,0,0],"split_type":[0,0,0,0,0,0,0,0,0,0,0,0,0,0,0,0,0,0,0,0,0,0,0,0,0,0,0,0,0,0,0],"sum_hessian":[2.4714827E3,1.2360105E3,1.235472E3,7.3468E2,5.0133054E2,7.9829364E2,4.3717844E2,9.100696E1,6.4367303E2,4.891927E2,1.2137852E1,4.84713E2,3.1358066E2,1.6809294E2,2.6908548E2,3.0863909E1,6.0143047E1,2.2623485E2,4.174382E2,4.5325217E2,3.5940525E1,5.5264916E0,6.61136E0,8.597733E1,3.9873566E2,2.3360182E2,7.997882E1,2.4513273E1,1.4357967E2,1.2894162E2,1.4014388E2],"tree_param":{"num_deleted":"0","num_feature":"33","num_nodes":"31","size_leaf_vector":"1"}},{"base_weights":[1.2216528E-1,6.745886E-2,3.40917E-1,-1.654723E-1,1.1559456E-1,1.949393E-1,4.8069254E-1,-4.2723295E-1,-7.616843E-2,9.429628E-2,5.285737E-1,5.099991E-2,3.815881E-1,4.5121846E-1,5.401529E-2,-1.6918479E-2,-5.9020054E-2,-1.4409411E-2,1.3076189E-3,1.2080827E-4,8.686728E-3,-2.590929E-2,3.0862955E-2,1.9978343E-2,-4.9647912E-3,2.3532486E-2,-2.8212627E-3,2.402882E-2,-7.5290757E-3],"categories":[],"categories_nodes":[],"categories_segments":[],"categories_sizes":[],"default_left":[0,0,0,0,0,0,0,0,0,0,0,0,0,0,0,0,0,0,0,0,0,0,0,0,0,0,0,0,0],"id":2,"left_children":[1,3,5,7,9,11,13,15,17,19,21,23,25,27,-1,-1,-1,-1,-1,-1,-1,-1,-1,-1,-1,-1,-1,-1,-1],"loss_changes":[2.9292156E1,2.2034239E1,9.8394165E0,7.780843E0,1.4211958E1,6.432931E0,3.7662125E0,5.1424484E0,5.5077295E0,1.1295859E1,7.7025337E0,7.2973776E0,4.1568117E0,4.337578E0,0E0,0E0,0E0,0E0,0E0,0E0,0E0,0E0,0E0,0E0,0E0,0E0,0E0,0E0,0E0],"parents":[2147483647,0,0,1,1,2,2,3,3,4,4,5,5,6,6,7,7,8,8,9,9,10,10,11,11,12,12,13,13],"right_children":[2,4,6,8,10,12,14,16,18,20,22,24,26,28,-1,-1,-1,-1,-1,-1,-1,-1,-1,-1,-1,-1,-1,-1,-1],"split_conditions":[1.75E0,8.333333E-1,2.4166667E0,7.5E-1,2.25E0,2.2E0,3E0,6.666667E-1,8.333333E-1,1.1666666E0,2.65E0,-4E-1,1.2222222E0,5E-1,5.401529E-2,-1.6918479E-2,-5.9020054E-2,-1.4409411E-2,1.3076189E-3,1.2080827E-4,8.686728E-3,-2.590929E-2,3.0862955E-2,1.9978343E-2,-4.9647912E-3,2.3532486E-2,-2.8212627E-3,2.402882E-2,-7.5290757E-3],"split_indices":[0,8,15,8,1,0,0,21,11,12,15,25,1,21,0,0,0,0,0,0,0,0,0,0,0,0,0,0,0],"split_type":[0,0,0,0,0,0,0,0,0,0,0,0,0,0,0,0,0,0,0,0,0,0,0,0,0,0,0,0,0],"sum_hessian":[2.4520535E3,1.9629225E3,4.8913098E2,3.3539816E2,1.6275243E3,2.4077858E2,2.4835239E2,8.407123E1,2.5132695E2,1.5491039E3,7.842037E1,1.36964E2,1.03814575E2,2.3854591E2,9.806477E0,7.661389E1,7.4573407E0,8.153611E1,1.6979083E2,7.193623E2,8.297416E2,5.658787E0,7.276159E1,4.096485E1,9.599915E1,8.64005E1,1.7414083E1,2.2780058E2,1.0745335E1],"tree_param":{"num_deleted":"0","num_feature":"33","num_nodes":"29","size_leaf_vector":"1"}},{"base_weights":[1.3053457E-1,3.2713178E-1,-5.8573008E-2,2.4686946E-1,5.830939E-1,-3.7037858E-1,2.2726792E-3,2.5775293E-1,-4.6607923E-2,6.667848E-1,3.504465E-1,1.8959545E-1,-4.4029924E-1,-7.430491E-3,7.198968E-1,-2.3112886E-2,1.3656767E-2,3.499833E-2,-5.148257E-3,-2.0539522E-2,2.3240132E-2,2.8367922E-2,-3.0415816E-2,-2.4881147E-2,9.040057E-3,7.718826E-3,-2.8013438E-3,1.0510109E-2,5.1334973E-2],"categories":[],"categories_nodes":[],"categories_segments":[],"categories_sizes":[],"default_left":[0,0,0,0,0,0,0,0,0,0,0,0,0,0,0,0,0,0,0,0,0,0,0,0,0,0,0,0,0],"id":3,"left_children":[1,3,5,7,9,11,13,15,-1,17,19,21,23,25,27,-1,-1,-1,-1,-1,-1,-1,-1,-1,-1,-1,-1,-1,-1],"loss_changes":[9.12792E1,2.4499176E1,2.3779083E1,1.19561615E1,5.2385864E0,8.119362E0,7.3726163E0,1.0194397E1,0E0,5.472954E0,7.0005245E0,7.3495383E0,6.6139145E0,8.134641E0,1.8694816E0,0E0,0E0,0E0,0E0,0E0,0E0,0E0,0E0,0E0,0E0,0E0,0E0,0E0,0E0],"parents":[2147483647,0,0,1,1,2,2,3,3,4,4,5,5,6,6,7,7,9,9,10,10,11,11,12,12,13,13,14,14],"right_children":[2,4,6,8,10,12,14,16,-1,18,20,22,24,26,28,-1,-1,-1,-1,-1,-1,-1,-1,-1,-1,-1,-1,-1,-1],"split_conditions":[1.96E0,2.5E0,1.57E0,4.2E0,1E0,1.6666667E-1,2.25E0,5.2704626E-1,-4.6607923E-2,2.4E0,4.4444445E-1,8.75E-1,3.03E0,6.363636E-1,1.77E0,-2.3112886E-2,1.3656767E-2,3.499833E-2,-5.148257E-3,-2.0539522E-2,2.3240132E-2,2.8367922E-2,-3.0415816E-2,-2.4881147E-2,9.040057E-3,7.718826E-3,-2.8013438E-3,1.0510109E-2,5.1334973E-2],"split_indices":[16,17,17,22,9,21,0,28,0,11,24,7,16,22,17,0,0,0,0,0,0,0,0,0,0,0,0,0,0],"split_type":[0,0,0,0,0,0,0,0,0,0,0,0,0,0,0,0,0,0,0,0,0,0,0,0,0,0,0,0,0],"sum_hessian":[2.4529546E3,1.202563E3,1.2503916E3,9.1728436E2,2.8527863E2,2.0359895E2,1.0467927E3,9.0975275E2,7.5316114E0,2.081164E2,7.7162224E1,2.2251495E1,1.8134746E2,1.0336665E3,1.3126159E1,1.828591E1,8.9146686E2,1.9972728E2,8.389114E0,9.624952E0,6.753728E1,1.5382896E1,6.868599E0,1.6635384E2,1.4993615E1,2.3776553E2,7.95901E2,5.6878877E0,7.4382715E0],"tree_param":{"num_deleted":"0","num_feature":"33","num_nodes":"29","size_leaf_vector":"1"}},{"base_weights":[1.21734075E-1,3.5915878E-1,-1.5967337E-2,5.3414845E-1,2.9358754E-1,2.818532E-2,-3.8904455E-1,6.2048435E-1,1.9959788E-1,1.9519502E-2,3.2508034E-1,9.218753E-2,-7.9696245E-2,-5.3945535E-1,9.844364E-2,4.7887612E-2,2.8635463E-2,-2.579075E-2,1.7774297E-2,1.5976109E-2,-1.7844759E-2,-1.935732E-2,1.6859299E-2,8.15599E-3,-1.439834E-3,1.3706959E-2,-7.0715756E-3,-1.6964426E-2,-4.0570386E-2,-2.414443E-2,1.764189E-2],"categories":[],"categories_nodes":[],"categories_segments":[],"categories_sizes":[],"default_left":[0,0,0,0,0,0,0,0,0,0,0,0,0,0,0,0,0,0,0,0,0,0,0,0,0,0,0,0,0,0,0],"id":4,"left_children":[1,3,5,7,9,11,13,15,17,19,21,23,25,27,29,-1,-1,-1,-1,-1,-1,-1,-1,-1,-1,-1,-1,-1,-1,-1,-1],"loss_changes":[7.963252E1,1.001799E1,2.5439611E1,6.7850723E0,5.5947E0,9.530739E0,1.2080957E1,2.386917E0,5.89528E0,7.866607E0,5.1714516E0,7.455197E0,1.1241781E1,6.425583E0,5.9583826E0,0E0,0E0,0E0,0E0,0E0,0E0,0E0,0E0,0E0,0E0,0E0,0E0,0E0,0E0,0E0,0E0],"parents":[2147483647,0,0,1,1,2,2,3,3,4,4,5,5,6,6,7,7,8,8,9,9,10,10,11,11,12,12,13,13,14,14],"right_children":[2,4,6,8,10,12,14,16,18,20,22,24,26,28,30,-1,-1,-1,-1,-1,-1,-1,-1,-1,-1,-1,-1,-1,-1,-1,-1],"split_conditions":[1.83E0,1.56E0,2.56E0,1.1E0,8.5714287E-1,2.19E0,7.1428573E-1,5E-1,8.333333E-1,1.625E0,5E-1,1.4285715E-1,6.666667E-1,5E-1,-2.5E-1,4.7887612E-2,2.8635463E-2,-2.579075E-2,1.7774297E-2,1.5976109E-2,-1.7844759E-2,-1.935732E-2,1.6859299E-2,8.15599E-3,-1.439834E-3,1.3706959E-2,-7.0715756E-3,-1.6964426E-2,-4.0570386E-2,-2.414443E-2,1.764189E-2],"split_indices":[16,16,16,9,3,16,7,29,32,5,7,25,10,9,25,0,0,0,0,0,0,0,0,0,0,0,0,0,0,0,0],"split_type":[0,0,0,0,0,0,0,0,0,0,0,0,0,0,0,0,0,0,0,0,0,0,0,0,0,0,0,0,0,0,0],"sum_hessian":[2.4334883E3,8.9296185E2,1.5405264E3,2.4103685E2,6.51925E2,1.3780897E3,1.6243669E2,1.9067632E2,5.036053E1,6.768524E1,5.8423975E2,8.656207E2,5.1246893E2,1.24210884E2,3.82258E1,2.103557E1,1.6964075E2,8.482349E0,4.187818E1,3.7897625E1,2.9787615E1,9.108459E0,5.751313E2,5.459891E2,3.1963162E2,7.537829E1,4.3709067E2,7.305503E1,5.1155857E1,1.12428255E1,2.6982975E1],"tree_param":{"num_deleted":"0","num_feature":"33","num_nodes":"31","size_leaf_vector":"1"}},{"base_weights":[1.2919343E-1,-1.9372946E-2,3.8335064E-1,-3.134572E-1,2.6435796E-2,3.0727828E-1,5.5553555E-1,-3.85141E-1,1.02565065E-1,1.2950598E-2,5.87482E-1,3.1868228E-1,-3.8553644E-2,6.545821E-1,3.9479643E-1,2.628159E-2,-2.1239853E-2,-4.453921E-3,4.6520084E-2,3.2495242E-3,-5.2946983E-3,8.601564E-3,5.057208E-2,-1.7045632E-2,1.6576147E-2,-3.5819642E-3,3.407901E-2,-8.431659E-3,2.5876028E-2],"categories":[],"categories_nodes":[],"categories_segments":[],"categories_sizes":[],"default_left":[0,0,0,0,0,0,0,0,0,0,0,0,0,0,0,0,0,0,0,0,0,0,0,0,0,0,0,0,0],"id":5,"left_children":[1,3,5,7,9,11,13,15,17,19,21,23,-1,25,27,-1,-1,-1,-1,-1,-1,-1,-1,-1,-1,-1,-1,-1,-1],"loss_changes":[9.232225E1,2.082394E1,1.1555878E1,6.2806034E0,1.00379095E1,7.9250336E0,4.0101852E0,6.6466713E0,5.117733E0,8.077061E0,5.19497E0,5.3832855E0,0E0,3.405075E0,7.565134E0,0E0,0E0,0E0,0E0,0E0,0E0,0E0,0E0,0E0,0E0,0E0,0E0,0E0,0E0],"parents":[2147483647,0,0,1,1,2,2,3,3,4,4,5,5,6,6,7,7,8,8,9,9,10,10,11,11,13,13,14,14],"right_children":[2,4,6,8,10,12,14,16,18,20,22,24,-1,26,28,-1,-1,-1,-1,-1,-1,-1,-1,-1,-1,-1,-1,-1,-1],"split_conditions":[2.06E0,1.57E0,2.5E0,3.05E0,2.2E0,4.2E0,1.4285715E0,5E-1,4.1666666E-1,2.6666668E-1,7.1428573E-1,5.2704626E-1,-3.8553644E-2,-1.25E0,4.2857143E-1,2.628159E-2,-2.1239853E-2,-4.453921E-3,4.6520084E-2,3.2495242E-3,-5.2946983E-3,8.601564E-3,5.057208E-2,-1.7045632E-2,1.6576147E-2,-3.5819642E-3,3.407901E-2,-8.431659E-3,2.5876028E-2],"split_indices":[17,17,17,15,0,22,1,6,25,25,7,28,0,25,19,0,0,0,0,0,0,0,0,0,0,0,0,0,0],"split_type":[0,0,0,0,0,0,0,0,0,0,0,0,0,0,0,0,0,0,0,0,0,0,0,0,0,0,0,0,0],"sum_hessian":[2.442865E3,1.5420168E3,9.0084814E2,2.0733057E2,1.3346863E3,6.271394E2,2.7370877E2,1.7712515E2,3.0205408E1,1.3045321E3,3.015416E1,6.213654E2,5.7739787E0,1.6706796E2,1.0664079E2,6.773901E0,1.7035124E2,2.5153902E1,5.051508E0,9.081599E2,3.9637222E2,1.6059055E1,1.4095104E1,1.1228834E1,6.101366E2,5.796299E0,1.6127167E2,1.886092E1,8.777988E1],"tree_param":{"num_deleted":"0","num_feature":"33","num_nodes":"29","size_leaf_vector":"1"}},{"base_weights":[1.1584055E-1,3.1132597E-1,-6.886952E-2,2.4832611E-1,4.6629983E-1,-2.7110505E-1,-9.054627E-3,2.5974712E-1,-4.2182464E-2,4.3295297E-1,9.5800203E-1,-1.1706005E-1,-5.125827E-1,8.14092E-2,-9.909628E-2,7.8435065E-3,1.8017573E-2,2.532102E-2,1.1042117E-2,3.0159576E-2,5.4612704E-2,1.6614316E-2,-1.1510679E-2,-2.1185536E-2,-7.182824E-2,6.8356483E-3,-1.20447045E-2,-8.207224E-3,7.31446E-3],"categories":[],"categories_nodes":[],"categories_segments":[],"categories_sizes":[],"default_left":[0,0,0,0,0,0,0,0,0,0,0,0,0,0,0,0,0,0,0,0,0,0,0,0,0,0,0,0,0],"id":6,"left_children":[1,3,5,7,9,11,13,15,-1,17,19,21,23,25,27,-1,-1,-1,-1,-1,-1,-1,-1,-1,-1,-1,-1,-1,-1],"loss_changes":[8.7125534E1,1.1256248E1,1.4976105E1,1.0585953E1,4.9745407E0,1.0394838E1,7.8197765E0,8.462769E0,0E0,4.7672577E0,1.4330292E-1,8.922228E0,8.203066E0,8.547572E0,7.7118874E0,0E0,0E0,0E0,0E0,0E0,0E0,0E0,0E0,0E0,0E0,0E0,0E0,0E0,0E0],"parents":[2147483647,0,0,1,1,2,2,3,3,4,4,5,5,6,6,7,7,9,9,10,10,11,11,12,12,13,13,14,14],"right_children":[2,4,6,8,10,12,14,16,-1,18,20,22,24,26,28,-1,-1,-1,-1,-1,-1,-1,-1,-1,-1,-1,-1,-1,-1],"split_conditions":[1.96E0,2.42E0,8.333333E-1,4.2E0,2.857143E0,2.3666666E0,2.2E0,1.5E0,-4.2182464E-2,1E0,-2.2222222E-1,-3.809524E-1,6.25E-1,1.8E0,1.6E0,7.8435065E-3,1.8017573E-2,2.532102E-2,1.1042117E-2,3.0159576E-2,5.4612704E-2,1.6614316E-2,-1.1510679E-2,-2.1185536E-2,-7.182824E-2,6.8356483E-3,-1.20447045E-2,-8.207224E-3,7.31446E-3],"split_indices":[16,17,8,22,0,14,16,10,0,9,26,26,21,5,11,0,0,0,0,0,0,0,0,0,0,0,0,0,0],"split_type":[0,0,0,0,0,0,0,0,0,0,0,0,0,0,0,0,0,0,0,0,0,0,0,0,0,0,0,0,0],"sum_hessian":[2.4106414E3,1.17109E3,1.2395515E3,8.349247E2,3.361653E2,2.8174866E2,9.578028E2,8.2712744E2,7.79725E0,3.1676636E2,1.9398964E1,1.7317479E2,1.08573875E2,4.7727515E2,4.8052765E2,4.1070154E2,4.1642587E2,2.3389476E2,8.287159E1,7.0375314E0,1.2361431E1,3.4268814E1,1.3890598E2,1.0047647E2,8.097404E0,4.0813046E2,6.914469E1,3.804218E2,1.0010582E2],"tree_param":{"num_deleted":"0","num_feature":"33","num_nodes":"29","size_leaf_vector":"1"}},{"base_weights":[1.0640176E-1,-3.9633256E-3,3.2091793E-1,-1.2661667E-1,9.20081E-2,3.39223E-1,-2.2024235E-1,1.2238067E-1,-1.7843485E-1,6.819929E-2,7.4164253E-1,2.9834363E-1,5.9441525E-1,2.2884972E-2,-4.6796504E-1,1.3856016E-2,-1.1665555E-2,-1.1986932E-2,4.545446E-3,7.389483E-3,-3.1472668E-3,4.2566974E-2,1.0009567E-2,1.5581885E-2,-1.6288353E-2,8.404366E-3,3.431647E-2,-4.8564937E-2,-7.491951E-5],"categories":[],"categories_nodes":[],"categories_segments":[],"categories_sizes":[],"default_left":[0,0,0,0,0,0,0,0,0,0,0,0,0,0,0,0,0,0,0,0,0,0,0,0,0,0,0,0,0],"id":7,"left_children":[1,3,5,7,9,11,13,15,17,19,21,23,25,-1,27,-1,-1,-1,-1,-1,-1,-1,-1,-1,-1,-1,-1,-1,-1],"loss_changes":[5.73939E1,1.8854456E1,8.242989E0,9.10369E0,1.3758043E1,8.047897E0,4.8113775E0,6.7527895E0,9.663195E0,9.072787E0,1.5952873E0,5.8193054E0,4.0586624E0,0E0,4.7487307E0,0E0,0E0,0E0,0E0,0E0,0E0,0E0,0E0,0E0,0E0,0E0,0E0,0E0,0E0],"parents":[2147483647,0,0,1,1,2,2,3,3,4,4,5,5,6,6,7,7,8,8,9,9,10,10,11,11,12,12,14,14],"right_children":[2,4,6,8,10,12,14,16,18,20,22,24,26,-1,28,-1,-1,-1,-1,-1,-1,-1,-1,-1,-1,-1,-1,-1,-1],"split_conditions":[2.08E0,1.74E0,4.8E0,5.625E-1,2.2E0,2.4E0,2.4E0,3E-1,1.6E0,1.1547005E0,1.8737959E0,3.75E0,2.19E0,2.2884972E-2,3E0,1.3856016E-2,-1.1665555E-2,-1.1986932E-2,4.545446E-3,7.389483E-3,-3.1472668E-3,4.2566974E-2,1.0009567E-2,1.5581885E-2,-1.6288353E-2,8.404366E-3,3.431647E-2,-4.8564937E-2,-7.491951E-5],"split_indices":[17,17,15,22,0,13,13,21,11,27,27,22,17,0,13,0,0,0,0,0,0,0,0,0,0,0,0,0,0],"split_type":[0,0,0,0,0,0,0,0,0,0,0,0,0,0,0,0,0,0,0,0,0,0,0,0,0,0,0,0,0],"sum_hessian":[2.4218386E3,1.5994586E3,8.2238007E2,7.0244403E2,8.970145E2,7.9601245E2,2.6367638E1,1.204353E2,5.820087E2,8.6651605E2,3.04985E1,6.883124E2,1.07700066E2,6.7215343E0,1.9646105E1,8.427462E1,3.616068E1,4.744933E2,1.0751548E2,5.3964594E2,3.2687012E2,2.4731026E1,5.767474E0,6.746037E2,1.3708689E1,1.9796074E1,8.7904E1,8.825961E0,1.0820143E1],"tree_param":{"num_deleted":"0","num_feature":"33","num_nodes":"29","size_leaf_vector":"1"}},{"base_weights":[9.367483E-2,1.9670223E-1,-1.614157E-1,3.2596198E-1,1.13412455E-1,-2.1884981E-1,5.417501E-2,3.4857994E-1,-2.6378557E-1,8.982863E-2,6.658869E-1,-3.650288E-2,-3.6380717E-1,-2.7227885E-1,1.6073357E-1,1.661622E-2,4.530673E-2,-5.0916888E-2,7.568875E-3,5.6158877E-3,-2.9476464E-2,-1.9645039E-2,4.41685E-2,-7.6821395E-3,1.6223269E-2,-1.5027515E-2,-4.0669486E-2,-5.4738075E-2,-4.016952E-3,3.248898E-3,3.3372052E-2],"categories":[],"categories_nodes":[],"categories_segments":[],"categories_sizes":[],"default_left":[0,0,0,0,0,0,0,0,0,0,0,0,0,0,0,0,0,0,0,0,0,0,0,0,0,0,0,0,0,0,0],"id":8,"left_children":[1,3,5,7,9,11,13,15,17,19,21,23,25,27,29,-1,-1,-1,-1,-1,-1,-1,-1,-1,-1,-1,-1,-1,-1,-1,-1],"loss_changes":[6.3453445E1,1.8431984E1,8.627605E0,9.075211E0,1.3516112E1,1.4456972E1,5.129817E0,5.4532394E0,8.152939E0,1.5391018E1,1.01974945E1,1.0372839E1,8.329914E0,5.5091653E0,5.2851076E0,0E0,0E0,0E0,0E0,0E0,0E0,0E0,0E0,0E0,0E0,0E0,0E0,0E0,0E0,0E0,0E0],"parents":[2147483647,0,0,1,1,2,2,3,3,4,4,5,5,6,6,7,7,8,8,9,9,10,10,11,11,12,12,13,13,14,14],"right_children":[2,4,6,8,10,12,14,16,18,20,22,24,26,28,30,-1,-1,-1,-1,-1,-1,-1,-1,-1,-1,-1,-1,-1,-1,-1,-1],"split_conditions":[2.19E0,1.76E0,1.6E0,4.8E0,2.2E0,5E-1,8.333333E-1,2.4285715E0,1E0,4.1E0,2.1666667E0,2.7E0,2.69E0,-4.7619048E-1,1.6E0,1.661622E-2,4.530673E-2,-5.0916888E-2,7.568875E-3,5.6158877E-3,-2.9476464E-2,-1.9645039E-2,4.41685E-2,-7.6821395E-3,1.6223269E-2,-1.5027515E-2,-4.0669486E-2,-5.4738075E-2,-4.016952E-3,3.248898E-3,3.3372052E-2],"split_indices":[16,16,11,15,0,9,8,6,8,14,10,15,16,25,12,0,0,0,0,0,0,0,0,0,0,0,0,0,0,0,0],"split_type":[0,0,0,0,0,0,0,0,0,0,0,0,0,0,0,0,0,0,0,0,0,0,0,0,0,0,0,0,0,0,0],"sum_hessian":[2.412052E3,1.718568E3,6.9348395E2,6.7182684E2,1.0467411E3,5.4795544E2,1.4552852E2,6.4756976E2,2.4257086E1,1.00517615E3,4.1564987E1,2.4353984E2,3.044156E2,3.5198967E1,1.1032956E2,6.3094977E2,1.6620014E1,8.1793165E0,1.6077768E1,9.739179E2,3.1258224E1,6.867089E0,3.46979E1,1.8451364E2,5.90262E1,2.6852472E2,3.589087E1,5.671465E0,2.95275E1,9.390865E1,1.6420906E1],"tree_param":{"num_deleted":"0","num_feature":"33","num_nodes":"31","size_leaf_vector":"1"}},{"base_weights":[8.066128E-2,-3.650237E-2,3.0654576E-1,-3.1193855E-1,1.0674502E-2,2.4264193E-1,4.4030175E-1,-6.235169E-2,-5.638774E-1,-5.6885118E-3,6.804702E-1,4.946218E-2,3.0178076E-1,5.6887245E-1,1.3934183E-1,7.6529942E-3,-3.305685E-2,-3.5076074E-2,-4.3604486E-3,7.7062547E-3,-2.593538E-3,-3.4105727E-3,4.2452313E-2,5.39055E-3,-5.547837E-2,1.4210454E-2,4.7915597E-2,3.7324976E-2,1.5868448E-2,-4.1775536E-2,1.1652455E-2],"categories":[],"categories_nodes":[],"categories_segments":[],"categories_sizes":[],"default_left":[0,0,0,0,0,0,0,0,0,0,0,0,0,0,0,0,0,0,0,0,0,0,0,0,0,0,0,0,0,0,0],"id":9,"left_children":[1,3,5,7,9,11,13,15,17,19,21,23,25,27,29,-1,-1,-1,-1,-1,-1,-1,-1,-1,-1,-1,-1,-1,-1,-1,-1],"loss_changes":[6.3500206E1,2.055838E1,6.828499E0,1.4448103E1,1.4858608E1,6.3156853E0,1.0033279E1,1.5311489E1,7.3918114E0,9.724513E0,4.216258E0,8.959237E0,4.5180244E0,7.869549E0,7.472882E0,0E0,0E0,0E0,0E0,0E0,0E0,0E0,0E0,0E0,0E0,0E0,0E0,0E0,0E0,0E0,0E0],"parents":[2147483647,0,0,1,1,2,2,3,3,4,4,5,5,6,6,7,7,8,8,9,9,10,10,11,11,12,12,13,13,14,14],"right_children":[2,4,6,8,10,12,14,16,18,20,22,24,26,28,30,-1,-1,-1,-1,-1,-1,-1,-1,-1,-1,-1,-1,-1,-1,-1,-1],"split_conditions":[2.08E0,1.58E0,2.5E0,4.4444445E-1,2.2E0,4.2857143E-1,1.3888888E0,1.1005049E0,1.1595018E0,1E0,2.1666667E0,8.888889E-1,5.555556E-1,8.333333E-1,1.25E0,7.6529942E-3,-3.305685E-2,-3.5076074E-2,-4.3604486E-3,7.7062547E-3,-2.593538E-3,-3.4105727E-3,4.2452313E-2,5.39055E-3,-5.547837E-2,1.4210454E-2,4.7915597E-2,3.7324976E-2,1.5868448E-2,-4.1775536E-2,1.1652455E-2],"split_indices":[17,17,17,9,0,29,24,27,27,10,10,19,20,9,10,0,0,0,0,0,0,0,0,0,0,0,0,0,0,0,0],"split_type":[0,0,0,0,0,0,0,0,0,0,0,0,0,0,0,0,0,0,0,0,0,0,0,0,0,0,0,0,0,0,0],"sum_hessian":[2.3969192E3,1.578543E3,8.183763E2,2.3032535E2,1.3482177E3,5.562037E2,2.6217258E2,1.1652882E2,1.1379653E2,1.3168884E3,3.132919E1,1.3119066E2,4.2501303E2,1.8284032E2,7.9332245E1,8.612348E1,3.0405334E1,8.7770256E1,2.6026276E1,2.9422403E2,1.0226644E3,5.758157E0,2.5571032E1,1.2584836E2,5.3423E0,4.154782E2,9.53483E0,1.05771965E2,7.706836E1,6.1692433E0,7.3163E1],"tree_param":{"num_deleted":"0","num_feature":"33","num_nodes":"31","size_leaf_vector":"1"}},{"base_weights":[9.234351E-2,1.9016735E-1,-1.4879118E-1,3.25536E-1,1.0534124E-1,-1.9226494E-1,1.2621272E-1,1.5789856E-1,4.0415773E-1,8.473757E-2,8.109613E-1,-9.315321E-1,-1.7617944E-1,-9.884175E-2,4.3602395E-1,-1.0035815E-2,1.3361621E-2,2.2483198E-2,9.057695E-3,4.930531E-3,-3.4243077E-2,4.8101895E-2,2.366001E-3,-7.4157976E-2,-1.6378717E-2,2.179225E-3,-1.14389155E-2,-1.4333526E-2,3.0997172E-2,-1.787672E-2,3.2274917E-2],"categories":[],"categories_nodes":[],"categories_segments":[],"categories_sizes":[],"default_left":[0,0,0,0,0,0,0,0,0,0,0,0,0,0,0,0,0,0,0,0,0,0,0,0,0,0,0,0,0,0,0],"id":10,"left_children":[1,3,5,7,9,11,13,15,17,19,21,23,25,27,29,-1,-1,-1,-1,-1,-1,-1,-1,-1,-1,-1,-1,-1,-1,-1,-1],"loss_changes":[5.6306366E1,1.9418877E1,8.2653265E0,8.488335E0,1.5044868E1,6.805929E0,6.652456E0,8.316538E0,4.356827E0,1.0870444E1,3.246973E0,3.4358587E0,6.780731E0,7.604291E0,6.917764E0,0E0,0E0,0E0,0E0,0E0,0E0,0E0,0E0,0E0,0E0,0E0,0E0,0E0,0E0,0E0,0E0],"parents":[2147483647,0,0,1,1,2,2,3,3,4,4,5,5,6,6,7,7,8,8,9,9,10,10,11,11,12,12,13,13,14,14],"right_children":[2,4,6,8,10,12,14,16,18,20,22,24,26,28,30,-1,-1,-1,-1,-1,-1,-1,-1,-1,-1,-1,-1,-1,-1,-1,-1],"split_conditions":[2.19E0,1.76E0,7E-1,5.714286E-1,2.2857144E0,7E-1,7.619048E-1,9.660918E-1,1.978022E0,3.6E0,1.4529663E0,1.75E0,8E-1,2.8888888E0,1.1E0,-1.0035815E-2,1.3361621E-2,2.2483198E-2,9.057695E-3,4.930531E-3,-3.4243077E-2,4.8101895E-2,2.366001E-3,-7.4157976E-2,-1.6378717E-2,2.179225E-3,-1.14389155E-2,-1.4333526E-2,3.0997172E-2,-1.787672E-2,3.2274917E-2],"split_indices":[16,16,18,4,0,8,23,28,24,24,28,24,10,24,1,0,0,0,0,0,0,0,0,0,0,0,0,0,0,0,0],"split_type":[0,0,0,0,0,0,0,0,0,0,0,0,0,0,0,0,0,0,0,0,0,0,0,0,0,0,0,0,0,0,0],"sum_hessian":[2.3846287E3,1.6968672E3,6.877613E2,6.5214056E2,1.0447267E3,5.944523E2,9.330901E1,2.0957162E2,4.4256894E2,1.0163128E3,2.8413902E1,1.1314747E1,5.831376E2,5.425502E1,3.905399E1,4.855637E1,1.6101526E2,3.6634723E2,7.6221695E1,9.9930084E2,1.7011932E1,2.3394789E1,5.019112E0,5.066201E0,6.2485456E0,1.1228181E2,4.7085574E2,4.36016E1,1.0653419E1,7.908766E0,3.1145226E1],"tree_param":{"num_deleted":"0","num_feature":"33","num_nodes":"31","size_leaf_vector":"1"}},{"base_weights":[1.03016876E-1,2.83609E-1,-8.408067E-3,2.9625195E-1,-4.6215153E-1,7.06862E-2,-1.0922627E-1,2.9432816E-2,3.2503805E-1,-6.0596626E-2,2.715361E-3,5.8647055E-2,7.018076E-1,4.76694E-2,-1.2386942E-1,-5.999623E-3,2.8979197E-2,1.7022092E-2,-4.9240664E-3,1.62813E-2,1.4199372E-3,5.561328E-2,-1.2025468E-3,-1.4404722E-2,-1.4603053E-3],"categories":[],"categories_nodes":[],"categories_segments":[],"categories_sizes":[],"default_left":[0,0,0,0,0,0,0,0,0,0,0,0,0,0,0,0,0,0,0,0,0,0,0,0,0],"id":11,"left_children":[1,3,5,7,9,11,13,15,17,-1,-1,19,21,-1,23,-1,-1,-1,-1,-1,-1,-1,-1,-1,-1],"loss_changes":[4.77604E1,8.657509E0,1.1713983E1,6.7992554E0,6.126791E0,6.1317096E0,1.0088785E1,7.3672276E0,5.302124E0,0E0,0E0,6.4827185E0,4.6487036E0,0E0,9.883157E0,0E0,0E0,0E0,0E0,0E0,0E0,0E0,0E0,0E0,0E0],"parents":[2147483647,0,0,1,1,2,2,3,3,4,4,5,5,6,6,7,7,8,8,11,11,12,12,14,14],"right_children":[2,4,6,8,10,12,14,16,18,-1,-1,20,22,-1,24,-1,-1,-1,-1,-1,-1,-1,-1,-1,-1],"split_conditions":[1.86E0,3.75E0,2.21E0,8.5714287E-1,2.1666667E0,2.25E0,-9.6666664E-1,4.7619048E-1,2.875E0,-6.0596626E-2,2.715361E-3,2.5E-1,7E-1,4.76694E-2,2.0666666E0,-5.999623E-3,2.8979197E-2,1.7022092E-2,-4.9240664E-3,1.62813E-2,1.4199372E-3,5.561328E-2,-1.2025468E-3,-1.4404722E-2,-1.4603053E-3],"split_indices":[16,22,16,3,10,0,25,25,23,0,0,4,18,0,15,0,0,0,0,0,0,0,0,0,0],"split_type":[0,0,0,0,0,0,0,0,0,0,0,0,0,0,0,0,0,0,0,0,0,0,0,0,0],"sum_hessian":[2.3709998E3,9.04455E2,1.4665447E3,8.9010187E2,1.4353143E1,8.2142456E2,6.4512006E2,8.721351E1,8.0288837E2,5.3839192E0,8.969224E0,8.0727655E2,1.4148068E1,7.8048615E0,6.373152E2,6.9057175E1,1.8156336E1,7.7512854E2,2.7759846E1,8.0824936E1,7.264516E2,8.785482E0,5.3625855E0,2.3190283E2,4.0541235E2],"tree_param":{"num_deleted":"0","num_feature":"33","num_nodes":"25","size_leaf_vector":"1"}},{"base_weights":[8.314177E-2,-1.3363759E-1,1.2720843E-1,-2.3440406E-1,1.2176367E-1,1.0192487E-1,4.1965836E-1,-1.6379878E-1,-8.284398E-1,-4.644544E-1,2.4256879E-1,-5.4093603E-2,1.3351862E-1,3.7092504E-1,4.822521E-2,1.6236162E-2,-1.09543875E-2,1.4180452E-2,-5.6032754E-2,1.513885E-2,-4.2482156E-2,4.6205954E-3,3.6693018E-2,-1.5151645E-4,-4.0505677E-2,-1.5826675E-3,8.005093E-3,2.0441938E-2,-1.3368829E-2],"categories":[],"categories_nodes":[],"categories_segments":[],"categories_sizes":[],"default_left":[0,0,0,0,0,0,0,0,0,0,0,0,0,0,0,0,0,0,0,0,0,0,0,0,0,0,0,0,0],"id":12,"left_children":[1,3,5,7,9,11,13,15,17,19,21,23,25,27,-1,-1,-1,-1,-1,-1,-1,-1,-1,-1,-1,-1,-1,-1,-1],"loss_changes":[2.2753761E1,1.0390999E1,1.4538052E1,1.1887968E1,8.1757555E0,9.001835E0,3.673191E0,7.075883E0,1.0250317E1,6.1365705E0,6.891752E0,1.1775451E1,6.678543E0,3.6508732E0,0E0,0E0,0E0,0E0,0E0,0E0,0E0,0E0,0E0,0E0,0E0,0E0,0E0,0E0,0E0],"parents":[2147483647,0,0,1,1,2,2,3,3,4,4,5,5,6,6,7,7,8,8,9,9,10,10,11,11,12,12,13,13],"right_children":[2,4,6,8,10,12,14,16,18,20,22,24,26,28,-1,-1,-1,-1,-1,-1,-1,-1,-1,-1,-1,-1,-1,-1,-1],"split_conditions":[8.333333E-1,1.8E0,2.1111112E0,8.75E-1,1.5333333E0,3.3333334E-1,3.6666667E0,8E-1,7.777778E-1,1.2692956E0,2.0833333E0,5.555556E-1,1.8333334E0,1.779513E0,4.822521E-2,1.6236162E-2,-1.09543875E-2,1.4180452E-2,-5.6032754E-2,1.513885E-2,-4.2482156E-2,4.6205954E-3,3.6693018E-2,-1.5151645E-4,-4.0505677E-2,-1.5826675E-3,8.005093E-3,2.0441938E-2,-1.3368829E-2],"split_indices":[8,10,0,31,15,30,10,3,6,27,22,20,15,28,0,0,0,0,0,0,0,0,0,0,0,0,0,0,0],"split_type":[0,0,0,0,0,0,0,0,0,0,0,0,0,0,0,0,0,0,0,0,0,0,0,0,0,0,0,0,0],"sum_hessian":[2.3791965E3,4.0120862E2,1.9779878E3,2.8803897E2,1.1316964E2,1.8221459E3,1.5584193E2,2.5873105E2,2.9307907E1,1.8709177E1,9.4460464E1,3.0619504E2,1.5159508E3,1.4475845E2,1.1083489E1,2.5625706E1,2.3310536E2,6.0336404E0,2.3274267E1,6.2381554E0,1.2471022E1,7.341406E1,2.1046406E1,2.878868E2,1.8308239E1,2.096099E2,1.306341E3,1.3712941E2,7.629033E0],"tree_param":{"num_deleted":"0","num_feature":"33","num_nodes":"29","size_leaf_vector":"1"}},{"base_weights":[8.440238E-2,2.3577617E-1,-5.0633617E-2,1.7027922E-1,4.571535E-1,-7.151106E-2,2.8090194E-1,1.5483825E-1,7.686308E-1,1.7255789E-2,5.080073E-1,-8.7925214E-1,-6.294664E-2,-9.499652E-2,5.4144424E-1,-5.323839E-3,9.495878E-3,1.2076078E-2,5.5464506E-2,-2.1128127E-2,2.7195273E-2,3.0142942E-2,1.2313331E-2,-6.647748E-2,-1.2502754E-2,1.2002512E-3,-6.5088384E-3,2.0747801E-2,-1.8977946E-2,8.2290275E-3,3.5376046E-2],"categories":[],"categories_nodes":[],"categories_segments":[],"categories_sizes":[],"default_left":[0,0,0,0,0,0,0,0,0,0,0,0,0,0,0,0,0,0,0,0,0,0,0,0,0,0,0,0,0,0,0],"id":13,"left_children":[1,3,5,7,9,11,13,15,17,19,21,23,25,27,29,-1,-1,-1,-1,-1,-1,-1,-1,-1,-1,-1,-1,-1,-1,-1,-1],"loss_changes":[4.8868416E1,1.6200314E1,8.742753E0,7.8417377E0,5.673706E0,8.079041E0,7.4173756E0,7.8305473E0,3.4598198E0,6.682339E0,5.4657936E0,2.988823E0,6.9012136E0,4.6954675E0,2.578927E0,0E0,0E0,0E0,0E0,0E0,0E0,0E0,0E0,0E0,0E0,0E0,0E0,0E0,0E0,0E0,0E0],"parents":[2147483647,0,0,1,1,2,2,3,3,4,4,5,5,6,6,7,7,8,8,9,9,10,10,11,11,12,12,13,13,14,14],"right_children":[2,4,6,8,10,12,14,16,18,20,22,24,26,28,30,-1,-1,-1,-1,-1,-1,-1,-1,-1,-1,-1,-1,-1,-1,-1,-1],"split_conditions":[1.96E0,2.5E0,7.1428573E-1,1.95E0,-6.666667E-1,4.830459E-1,5.2380955E-1,8.5714287E-1,7.1428573E-1,4.1666668E-2,1.4777777E0,2.2222222E-1,2.19E0,3.1578946E-1,1.1666666E0,-5.323839E-3,9.495878E-3,1.2076078E-2,5.5464506E-2,-2.1128127E-2,2.7195273E-2,3.0142942E-2,1.2313331E-2,-6.647748E-2,-1.2502754E-2,1.2002512E-3,-6.5088384E-3,2.0747801E-2,-1.8977946E-2,8.2290275E-3,3.5376046E-2],"split_indices":[16,17,19,16,26,27,24,3,2,25,24,20,16,24,12,0,0,0,0,0,0,0,0,0,0,0,0,0,0,0,0],"split_type":[0,0,0,0,0,0,0,0,0,0,0,0,0,0,0,0,0,0,0,0,0,0,0,0,0,0,0,0,0,0,0],"sum_hessian":[2.3882263E3,1.1259944E3,1.262232E3,8.706297E2,2.5536462E2,1.1884773E3,7.375481E1,8.501176E2,2.0512114E1,2.6804543E1,2.2856007E2,1.1280005E1,1.1771973E3,3.0296286E1,4.345852E1,1.000361E2,7.5008154E2,8.838558E0,1.1673554E1,1.4610613E1,1.2193929E1,1.6652733E2,6.2032757E1,5.83328E0,5.446726E0,5.1294214E2,6.6425507E2,1.0560897E1,1.973539E1,1.4086451E1,2.9372066E1],"tree_param":{"num_deleted":"0","num_feature":"33","num_nodes":"31","size_leaf_vector":"1"}},{"base_weights":[6.169644E-2,-3.9750837E-2,2.5169614E-1,-2.693829E-1,2.5404975E-4,2.650377E-1,-4.253115E-1,5.8998436E-1,-3.1761873E-1,-1.6705427E-2,3.5011587E-1,-3.5531648E-2,2.9669848E-1,-7.547591E-1,1.2102813E-2,4.7761492E-2,9.2543755E-3,3.5241712E-3,-1.9948324E-2,-5.6120004E-3,2.030633E-3,2.6524667E-2,-1.4616174E-3,-7.943306E-3,4.4718873E-2,9.4004255E-3,1.9226804E-2,-5.1668137E-2,-1.7035332E-2],"categories":[],"categories_nodes":[],"categories_segments":[],"categories_sizes":[],"default_left":[0,0,0,0,0,0,0,0,0,0,0,0,0,0,0,0,0,0,0,0,0,0,0,0,0,0,0,0,0],"id":14,"left_children":[1,3,5,7,9,11,13,15,17,19,21,23,25,27,-1,-1,-1,-1,-1,-1,-1,-1,-1,-1,-1,-1,-1,-1,-1],"loss_changes":[4.5732327E1,1.4231247E1,7.5554466E0,9.685019E0,7.8562317E0,7.7504196E0,3.7952974E0,1.5506077E0,6.953829E0,6.8960767E0,4.255249E0,8.995901E0,6.8755875E0,8.0109406E-1,0E0,0E0,0E0,0E0,0E0,0E0,0E0,0E0,0E0,0E0,0E0,0E0,0E0,0E0,0E0],"parents":[2147483647,0,0,1,1,2,2,3,3,4,4,5,5,6,6,7,7,8,8,9,9,10,10,11,11,12,12,13,13],"right_children":[2,4,6,8,10,12,14,16,18,20,22,24,26,28,-1,-1,-1,-1,-1,-1,-1,-1,-1,-1,-1,-1,-1,-1,-1],"split_conditions":[2.06E0,1.65E0,3.75E0,6.666667E-1,7.5E-1,8.5714287E-1,1.5238839E0,6.666667E-1,1.99E0,7.647059E-1,7E-1,7.777778E-1,2.29E0,-2.2222222E-1,1.2102813E-2,4.7761492E-2,9.2543755E-3,3.5241712E-3,-1.9948324E-2,-5.6120004E-3,2.030633E-3,2.6524667E-2,-1.4616174E-3,-7.943306E-3,4.4718873E-2,9.4004255E-3,1.9226804E-2,-5.1668137E-2,-1.7035332E-2],"split_indices":[17,15,22,28,29,3,28,12,16,23,9,25,17,25,0,0,0,0,0,0,0,0,0,0,0,0,0,0,0],"split_type":[0,0,0,0,0,0,0,0,0,0,0,0,0,0,0,0,0,0,0,0,0,0,0,0,0,0,0,0,0],"sum_hessian":[2.3700112E3,1.5452268E3,8.247845E2,2.2877892E2,1.3164479E3,8.095865E2,1.5197988E1,1.14516945E1,2.1732721E2,1.2562194E3,6.022854E1,7.68392E1,7.327473E2,1.01877E1,5.010288E0,5.176215E0,6.27548E0,3.7469273E1,1.7985794E2,4.713635E2,7.8485583E2,4.072789E1,1.9500652E1,6.866837E1,8.1708355E0,3.2941232E2,4.03335E2,5.051471E0,5.136229E0],"tree_param":{"num_deleted":"0","num_feature":"33","num_nodes":"29","size_leaf_vector":"1"}},{"base_weights":[6.734598E-2,2.4991053E-1,-3.5211455E-2,-3.8696192E-2,2.8491285E-1,-2.6481731E-3,-2.9049522E-1,7.308834E-2,-8.0244976E-1,2.7148366E-1,8.892553E-1,-2.105507E-2,3.8030347E-1,-4.233423E-1,7.6032855E-2,-1.5207948E-2,1.3033027E-2,-1.1321491E-2,-5.869714E-2,7.605802E-3,1.6739031E-2,5.3444453E-2,2.9253472E-2,-9.803987E-3,1.1094727E-3,-1.8118938E-2,2.323331E-2,-1.6412199E-2,-4.051816E-2,1.45615805E-2,-3.0428985E-2],"categories":[],"categories_nodes":[],"categories_segments":[],"categories_sizes":[],"default_left":[0,0,0,0,0,0,0,0,0,0,0,0,0,0,0,0,0,0,0,0,0,0,0,0,0,0,0,0,0,0,0],"id":15,"left_children":[1,3,5,7,9,11,13,15,17,19,21,23,25,27,29,-1,-1,-1,-1,-1,-1,-1,-1,-1,-1,-1,-1,-1,-1,-1,-1],"loss_changes":[4.4292515E1,8.630367E0,1.2557368E1,8.037059E0,5.8040924E0,9.447774E0,8.39044E0,5.8473544E0,2.1662607E0,5.5240517E0,7.8167915E-2,9.738762E0,4.028964E0,4.2509193E0,6.94063E0,0E0,0E0,0E0,0E0,0E0,0E0,0E0,0E0,0E0,0E0,0E0,0E0,0E0,0E0,0E0,0E0],"parents":[2147483647,0,0,1,1,2,2,3,3,4,4,5,5,6,6,7,7,8,8,9,9,10,10,11,11,12,12,13,13,14,14],"right_children":[2,4,6,8,10,12,14,16,18,20,22,24,26,28,30,-1,-1,-1,-1,-1,-1,-1,-1,-1,-1,-1,-1,-1,-1,-1,-1],"split_conditions":[1.85E0,8.888889E-1,2.56E0,1.81E0,3.5E0,7.1428573E-1,1E0,2.5333333E0,1.3333334E0,1.25E0,1.5384616E0,6.1538464E-1,7.2648317E-1,1.5E0,1.5E0,-1.5207948E-2,1.3033027E-2,-1.1321491E-2,-5.869714E-2,7.605802E-3,1.6739031E-2,5.3444453E-2,2.9253472E-2,-9.803987E-3,1.1094727E-3,-1.8118938E-2,2.323331E-2,-1.6412199E-2,-4.051816E-2,1.45615805E-2,-3.0428985E-2],"split_indices":[16,8,16,16,10,29,8,14,24,13,23,23,27,1,10,0,0,0,0,0,0,0,0,0,0,0,0,0,0,0,0],"split_type":[0,0,0,0,0,0,0,0,0,0,0,0,0,0,0,0,0,0,0,0,0,0,0,0,0,0,0,0,0,0,0],"sum_hessian":[2.363013E3,8.498018E2,1.5132112E3,9.159614E1,7.582057E2,1.3432695E3,1.6994162E2,8.057621E1,1.1019928E1,7.433033E2,1.4902376E1,1.282816E3,6.04535E1,1.2481911E2,4.5122517E1,2.6375277E1,5.4200935E1,5.0571856E0,5.962742E0,2.5929623E2,4.8400705E2,7.5821424E0,7.3202343E0,2.5391551E2,1.0289005E3,5.7094913E0,5.4744007E1,1.0188946E2,2.2929646E1,3.4879337E1,1.0243178E1],"tree_param":{"num_deleted":"0","num_feature":"33","num_nodes":"31","size_leaf_vector":"1"}},{"base_weights":[6.6340715E-2,1.3791811E-1,-1.1106938E-1,2.5262353E-1,7.278904E-2,-9.9216394E-2,-6.406725E-2,2.743576E-1,-3.026372E-1,5.1323954E-2,5.95576E-1,1.2039565E-1,-1.4301576E-1,3.313391E-2,1.189649E-2,-5.1216256E-2,4.5745056E-3,6.7617106E-3,-4.1448423E-3,1.4988086E-4,3.840917E-2,8.806183E-3,-4.3404944E-2,-8.2143955E-3,1.7765066E-2],"categories":[],"categories_nodes":[],"categories_segments":[],"categories_sizes":[],"default_left":[0,0,0,0,0,0,0,0,0,0,0,0,0,0,0,0,0,0,0,0,0,0,0,0,0],"id":16,"left_children":[1,3,5,7,9,11,-1,13,15,17,19,21,23,-1,-1,-1,-1,-1,-1,-1,-1,-1,-1,-1,-1],"loss_changes":[2.9805399E1,1.244182E1,9.090825E0,7.3772926E0,1.1896021E1,6.4534864E0,0E0,7.9932823E0,6.751336E0,1.1591096E1,4.202821E0,6.2195582E0,5.9596214E0,0E0,0E0,0E0,0E0,0E0,0E0,0E0,0E0,0E0,0E0,0E0,0E0],"parents":[2147483647,0,0,1,1,2,2,3,3,4,4,5,5,7,7,8,8,9,9,10,10,11,11,12,12],"right_children":[2,4,6,8,10,12,-1,14,16,18,20,22,24,-1,-1,-1,-1,-1,-1,-1,-1,-1,-1,-1,-1],"split_conditions":[2.2E0,1.75E0,8.333333E-1,4.8E0,2.2E0,8E-1,-6.406725E-2,1E-1,1E0,1.1547005E0,2.25E0,1.7142857E0,7.777778E-1,3.313391E-2,1.189649E-2,-5.1216256E-2,4.5745056E-3,6.7617106E-3,-4.1448423E-3,1.4988086E-4,3.840917E-2,8.806183E-3,-4.3404944E-2,-8.2143955E-3,1.7765066E-2],"split_indices":[16,16,19,15,0,10,0,21,8,27,10,5,19,0,0,0,0,0,0,0,0,0,0,0,0],"split_type":[0,0,0,0,0,0,0,0,0,0,0,0,0,0,0,0,0,0,0,0,0,0,0,0,0],"sum_hessian":[2.3447317E3,1.6712429E3,6.734888E2,6.036606E2,1.0675823E3,6.6789435E2,5.5944543E0,5.815822E2,2.2078354E1,1.0267158E3,4.086644E1,1.1038531E2,5.5750903E2,4.8168552E1,5.3341364E2,7.323331E0,1.4755023E1,6.322145E2,3.945014E2,9.578658E0,3.128778E1,1.05368004E2,5.017304E0,5.355198E2,2.1989271E1],"tree_param":{"num_deleted":"0","num_feature":"33","num_nodes":"25","size_leaf_vector":"1"}},{"base_weights":[6.48597E-2,-3.3707056E-2,1.7180344E-1,-2.2897676E-1,4.519886E-3,1.2435149E-1,3.4237555E-1,2.8195897E-2,-2.731121E-1,2.0932583E-2,-4.1593927E-1,1.4430979E-1,-2.4733779E-1,4.3947554E-1,7.540667E-2,-1.1940344E-2,-5.646635E-2,-4.0187065E-2,1.4905618E-3,-4.7517933E-2,-1.6244767E-3,1.2067498E-2,3.4143222E-3,-2.7412712E-3,-5.0626226E-2,2.942339E-2,7.839591E-3,1.1878199E-2,-2.9718101E-2],"categories":[],"categories_nodes":[],"categories_segments":[],"categories_sizes":[],"default_left":[0,0,0,0,0,0,0,0,0,0,0,0,0,0,0,0,0,0,0,0,0,0,0,0,0,0,0,0,0],"id":17,"left_children":[1,3,5,7,9,11,13,-1,15,17,19,21,23,25,27,-1,-1,-1,-1,-1,-1,-1,-1,-1,-1,-1,-1,-1,-1],"loss_changes":[2.4699184E1,9.120567E0,9.004902E0,7.1227417E0,7.006265E0,6.5613365E0,6.227829E0,0E0,5.180669E0,7.141202E0,7.684371E0,6.127718E0,6.468342E0,7.333641E0,7.3201265E0,0E0,0E0,0E0,0E0,0E0,0E0,0E0,0E0,0E0,0E0,0E0,0E0,0E0,0E0],"parents":[2147483647,0,0,1,1,2,2,3,3,4,4,5,5,6,6,8,8,9,9,10,10,11,11,12,12,13,13,14,14],"right_children":[2,4,6,8,10,12,14,-1,16,18,20,22,24,26,28,-1,-1,-1,-1,-1,-1,-1,-1,-1,-1,-1,-1,-1,-1],"split_conditions":[1.92E0,1.65E0,2.5E0,6.666667E-1,6E-1,2.3E0,1.4777777E0,2.8195897E-2,1.779513E0,4.830459E-1,1.627219E0,-6.666667E-2,7E-1,1E0,4.7619048E-1,-1.1940344E-2,-5.646635E-2,-4.0187065E-2,1.4905618E-3,-4.7517933E-2,-1.6244767E-3,1.2067498E-2,3.4143222E-3,-2.7412712E-3,-5.0626226E-2,2.942339E-2,7.839591E-3,1.1878199E-2,-2.9718101E-2],"split_indices":[17,15,17,28,21,6,24,0,28,27,24,26,22,9,26,0,0,0,0,0,0,0,0,0,0,0,0,0,0],"split_type":[0,0,0,0,0,0,0,0,0,0,0,0,0,0,0,0,0,0,0,0,0,0,0,0,0,0,0,0,0],"sum_hessian":[2.340273E3,1.2177031E3,1.1225698E3,1.9896782E2,1.0187353E3,8.8005896E2,2.4251086E2,9.75082E0,1.89217E2,9.8160614E2,3.712912E1,8.3604724E2,4.401176E1,1.7708282E2,6.542803E1,1.8326979E2,5.9472075E0,9.382104E0,9.7222406E2,1.4784508E1,2.2344612E1,3.6572574E2,4.7032147E2,3.6125362E1,7.886398E0,1.1502297E2,6.2059856E1,5.3314663E1,1.2113372E1],"tree_param":{"num_deleted":"0","num_feature":"33","num_nodes":"29","size_leaf_vector":"1"}},{"base_weights":[7.122308E-2,1.9789441E-1,-3.866446E-2,2.1205114E-1,-2.1302179E-1,-2.4724273E-1,3.8959896E-3,1.584666E-1,3.1061462E-1,-6.1050035E-2,-1.3186117E-2,-5.376642E-1,-1.0993887E-1,-9.507575E-3,5.587029E-1,7.093444E-3,3.4275528E-2,-1.842942E-2,1.637639E-2,9.621677E-3,-4.190248E-2,-9.776913E-4,-3.9935566E-2,1.830829E-3,-2.3808634E-2,1.1024299E-2,-2.0635144E-3,4.3295518E-2,-0E0],"categories":[],"categories_nodes":[],"categories_segments":[],"categories_sizes":[],"default_left":[0,0,0,0,0,0,0,0,0,0,0,0,0,0,0,0,0,0,0,0,0,0,0,0,0,0,0,0,0],"id":18,"left_children":[1,3,5,7,9,11,13,15,17,-1,19,21,23,25,27,-1,-1,-1,-1,-1,-1,-1,-1,-1,-1,-1,-1,-1,-1],"loss_changes":[3.2916885E1,6.4341545E0,1.1261957E1,5.5152283E0,7.2815194E0,8.44656E0,7.882301E0,5.8644695E0,4.395546E0,0E0,5.6261377E0,9.1676445E0,7.9741774E0,7.499909E0,4.2521367E0,0E0,0E0,0E0,0E0,0E0,0E0,0E0,0E0,0E0,0E0,0E0,0E0,0E0,0E0],"parents":[2147483647,0,0,1,1,2,2,3,3,4,4,5,5,6,6,7,7,8,8,10,10,11,11,12,12,13,13,14,14],"right_children":[2,4,6,8,10,12,14,16,18,-1,20,22,24,26,28,-1,-1,-1,-1,-1,-1,-1,-1,-1,-1,-1,-1,-1,-1],"split_conditions":[1.96E0,3.0769231E0,1.57E0,2.34E0,5.555556E-1,7.5E-1,2.857143E0,1.95E0,-1.1904762E0,-6.1050035E-2,1.87E0,8.75E-1,1.5E0,6.666667E-1,7E-1,7.093444E-3,3.4275528E-2,-1.842942E-2,1.637639E-2,9.621677E-3,-4.190248E-2,-9.776913E-4,-3.9935566E-2,1.830829E-3,-2.3808634E-2,1.1024299E-2,-2.0635144E-3,4.3295518E-2,-0E0],"split_indices":[16,24,17,17,29,11,22,16,26,0,16,8,1,10,21,0,0,0,0,0,0,0,0,0,0,0,0,0,0],"split_type":[0,0,0,0,0,0,0,0,0,0,0,0,0,0,0,0,0,0,0,0,0,0,0,0,0,0,0,0,0],"sum_hessian":[2.362093E3,1.0973024E3,1.2647908E3,1.0614606E3,3.5841747E1,2.1392712E2,1.0508636E3,6.899746E2,3.7148596E2,5.001839E0,3.083991E1,6.7502815E1,1.4642432E2,1.0268585E3,2.4005226E1,6.703236E2,1.9650988E1,8.376951E0,3.63109E2,2.5202883E1,5.6370277E0,2.3104464E1,4.439835E1,1.0502394E2,4.1400368E1,1.2350072E2,9.033577E2,1.5080927E1,8.9243E0],"tree_param":{"num_deleted":"0","num_feature":"33","num_nodes":"29","size_leaf_vector":"1"}},{"base_weights":[6.280002E-2,-5.745619E-3,2.0682308E-1,-1.3997398E-1,3.2290805E-2,1.4547783E-1,3.419058E-1,-7.3478036E-2,-5.0718284E-1,-2.6169935E-1,5.799873E-2,-6.7912586E-2,2.1108042E-1,3.7838656E-1,-2.2807853E-2,-3.7073053E-2,-1.5456666E-3,1.125846E-2,-3.6670215E-2,4.309388E-2,-1.7414121E-2,8.336451E-3,-1.2163486E-3,2.4234656E-2,-7.074117E-3,1.2294615E-2,-7.7315303E-3,2.3172997E-2,8.062396E-3],"categories":[],"categories_nodes":[],"categories_segments":[],"categories_sizes":[],"default_left":[0,0,0,0,0,0,0,0,0,0,0,0,0,0,0,0,0,0,0,0,0,0,0,0,0,0,0,0,0],"id":19,"left_children":[1,3,5,7,9,11,13,15,17,19,21,23,25,27,-1,-1,-1,-1,-1,-1,-1,-1,-1,-1,-1,-1,-1,-1,-1],"loss_changes":[2.317553E1,8.131112E0,6.1729355E0,8.493799E0,9.357864E0,7.3459406E0,7.0096283E0,8.407532E0,9.084717E0,9.927302E0,1.0225989E1,5.047295E0,5.144619E0,4.028267E0,0E0,0E0,0E0,0E0,0E0,0E0,0E0,0E0,0E0,0E0,0E0,0E0,0E0,0E0,0E0],"parents":[2147483647,0,0,1,1,2,2,3,3,4,4,5,5,6,6,7,7,8,8,9,9,10,10,11,11,12,12,13,13],"right_children":[2,4,6,8,10,12,14,16,18,20,22,24,26,28,-1,-1,-1,-1,-1,-1,-1,-1,-1,-1,-1,-1,-1,-1,-1],"split_conditions":[2.08E0,8.888889E-1,2.5E0,2.59E0,4.8E-1,4.2857143E-1,3E0,1.87E0,8.164966E-1,1.2857143E0,3E-1,6.25E-1,2.45E0,1E0,-2.2807853E-2,-3.7073053E-2,-1.5456666E-3,1.125846E-2,-3.6670215E-2,4.309388E-2,-1.7414121E-2,8.336451E-3,-1.2163486E-3,2.4234656E-2,-7.074117E-3,1.2294615E-2,-7.7315303E-3,2.3172997E-2,8.062396E-3],"split_indices":[17,8,17,16,23,29,24,16,28,1,20,1,17,9,0,0,0,0,0,0,0,0,0,0,0,0,0,0,0],"split_type":[0,0,0,0,0,0,0,0,0,0,0,0,0,0,0,0,0,0,0,0,0,0,0,0,0,0,0,0,0],"sum_hessian":[2.344409E3,1.5886029E3,7.5580615E2,3.5075555E2,1.2378473E3,5.217022E2,2.3410393E2,2.9822412E2,5.2531437E1,9.848823E1,1.139359E3,1.2230667E2,3.9939554E2,2.2449315E2,9.610781E0,1.6740503E1,2.814836E2,1.2294092E1,4.0237347E1,6.323228E0,9.2165E1,4.9102954E2,6.483295E2,1.3553628E1,1.08753044E2,3.6523047E2,3.4165066E1,1.6015186E2,6.434129E1],"tree_param":{"num_deleted":"0","num_feature":"33","num_nodes":"29","size_leaf_vector":"1"}},{"base_weights":[4.694825E-2,-2.487117E-2,1.9700234E-1,-3.632364E-2,5.36866E-1,6.96016E-2,2.6254922E-1,-1.4103423E-1,1.2236674E-2,7.505419E-1,9.71628E-2,8.0641717E-1,3.364426E-2,3.0201128E-1,1.7027069E-2,3.0757079E-2,-8.325051E-3,-2.0892048E-4,2.2252603E-2,2.0524887E-2,5.1300924E-2,2.73572E-2,-1.691192E-2,1.9489205E-2,5.250576E-2,1.8497134E-2,-2.3530305E-3,1.9878441E-2,9.568542E-3,-3.057881E-2,5.5926247E-3],"categories":[],"categories_nodes":[],"categories_segments":[],"categories_sizes":[],"default_left":[0,0,0,0,0,0,0,0,0,0,0,0,0,0,0,0,0,0,0,0,0,0,0,0,0,0,0,0,0,0,0],"id":20,"left_children":[1,3,5,7,9,11,13,15,17,19,21,23,25,27,29,-1,-1,-1,-1,-1,-1,-1,-1,-1,-1,-1,-1,-1,-1,-1,-1],"loss_changes":[2.5174786E1,1.0127006E1,6.262127E0,7.888249E0,2.7958307E0,6.743414E0,4.7912254E0,9.519269E0,7.5637364E0,1.3886127E0,2.475187E0,6.51423E-1,6.7767406E0,4.399788E0,4.215737E0,0E0,0E0,0E0,0E0,0E0,0E0,0E0,0E0,0E0,0E0,0E0,0E0,0E0,0E0,0E0,0E0],"parents":[2147483647,0,0,1,1,2,2,3,3,4,4,5,5,6,6,7,7,8,8,9,9,10,10,11,11,12,12,13,13,14,14],"right_children":[2,4,6,8,10,12,14,16,18,20,22,24,26,28,30,-1,-1,-1,-1,-1,-1,-1,-1,-1,-1,-1,-1,-1,-1,-1,-1],"split_conditions":[2.08E0,2.2E0,5.714286E-1,1.1666666E0,1.1666666E0,1.6666667E-1,1.5811388E0,-8.666667E-1,2.25E0,1.904762E-1,1.5634719E0,2.8333333E0,2.14E0,1.2345679E0,8.333333E-1,3.0757079E-2,-8.325051E-3,-2.0892048E-4,2.2252603E-2,2.0524887E-2,5.1300924E-2,2.73572E-2,-1.691192E-2,1.9489205E-2,5.250576E-2,1.8497134E-2,-2.3530305E-3,1.9878441E-2,9.568542E-3,-3.057881E-2,5.5926247E-3],"split_indices":[17,0,4,13,11,4,28,25,11,26,27,15,17,24,12,0,0,0,0,0,0,0,0,0,0,0,0,0,0,0,0],"split_type":[0,0,0,0,0,0,0,0,0,0,0,0,0,0,0,0,0,0,0,0,0,0,0,0,0,0,0,0,0,0,0],"sum_hessian":[2.3329653E3,1.5779088E3,7.550565E2,1.5474729E3,3.0435888E1,2.5772156E2,4.9733496E2,4.903298E2,1.0571431E3,1.9853588E1,1.05823E1,1.0865448E1,2.4685611E2,4.2791937E2,6.94156E1,1.5093141E1,4.7523666E2,1.01924615E3,3.7896927E1,1.0162408E1,9.69118E0,5.1907554E0,5.3915453E0,5.120719E0,5.7447286E0,4.7321575E1,1.9953453E2,2.2773386E2,2.0018552E2,8.246304E0,6.11693E1],"tree_param":{"num_deleted":"0","num_feature":"33","num_nodes":"31","size_leaf_vector":"1"}},{"base_weights":[4.5148935E-2,1.5707605E-1,-5.0524868E-2,4.1507743E-2,2.2923508E-1,-2.235805E-1,-1.4182279E-2,3.0985594E-1,-7.6200305E-3,1.8785535E-1,5.050868E-1,-4.9008075E-2,-3.951807E-1,-3.579791E-2,2.1476151E-1,2.3535457E-2,-2.0135444E-2,-1.6291001E-3,3.5516873E-2,-2.845089E-2,1.0526108E-2,-9.150627E-3,2.878942E-2,-1.316221E-2,1.4367555E-2,-4.1402638E-2,-9.869634E-3,-4.5422136E-4,-1.3751938E-2,-2.6627604E-2,1.55048E-2],"categories":[],"categories_nodes":[],"categories_segments":[],"categories_sizes":[],"default_left":[0,0,0,0,0,0,0,0,0,0,0,0,0,0,0,0,0,0,0,0,0,0,0,0,0,0,0,0,0,0,0],"id":21,"left_children":[1,3,5,7,9,11,13,15,17,19,21,23,25,27,29,-1,-1,-1,-1,-1,-1,-1,-1,-1,-1,-1,-1,-1,-1,-1,-1],"loss_changes":[2.4951889E1,8.917841E0,7.8699064E0,5.49694E0,7.3726273E0,6.4480114E0,5.132694E0,7.5868373E0,6.2460427E0,9.966688E0,4.2905293E0,7.941077E0,9.082483E0,6.045815E0,6.512003E0,0E0,0E0,0E0,0E0,0E0,0E0,0E0,0E0,0E0,0E0,0E0,0E0,0E0,0E0,0E0,0E0],"parents":[2147483647,0,0,1,1,2,2,3,3,4,4,5,5,6,6,7,7,8,8,9,9,10,10,11,11,12,12,13,13,14,14],"right_children":[2,4,6,8,10,12,14,16,18,20,22,24,26,28,30,-1,-1,-1,-1,-1,-1,-1,-1,-1,-1,-1,-1,-1,-1,-1,-1],"split_conditions":[1.96E0,1.25E0,1.57E0,1.55E0,1E0,4.4444445E-1,7.083333E-1,6.666667E-1,1.9002924E0,5.2704626E-1,6.753247E-1,3.75E-1,8.164966E-1,1.4298407E0,4.0833333E-1,2.3535457E-2,-2.0135444E-2,-1.6291001E-3,3.5516873E-2,-2.845089E-2,1.0526108E-2,-9.150627E-3,2.878942E-2,-1.316221E-2,1.4367555E-2,-4.1402638E-2,-9.869634E-3,-4.5422136E-4,-1.3751938E-2,-2.6627604E-2,1.55048E-2],"split_indices":[16,13,17,16,2,9,26,26,27,28,24,30,27,28,24,0,0,0,0,0,0,0,0,0,0,0,0,0,0,0,0],"split_type":[0,0,0,0,0,0,0,0,0,0,0,0,0,0,0,0,0,0,0,0,0,0,0,0,0,0,0,0,0,0,0],"sum_hessian":[2.3273667E3,1.0727632E3,1.2546035E3,4.1348914E2,6.59274E2,2.1637387E2,1.0382296E3,6.347905E1,3.500101E2,5.750551E2,8.421887E1,1.081842E2,1.0818967E2,9.4983203E2,8.839756E1,5.217982E1,1.1299231E1,3.3930698E2,1.0703134E1,1.5891826E1,5.5916327E2,7.5673294E0,7.665154E1,6.640424E1,4.1779957E1,3.277258E1,7.541709E1,8.5573694E2,9.409509E1,9.36348E0,7.903408E1],"tree_param":{"num_deleted":"0","num_feature":"33","num_nodes":"31","size_leaf_vector":"1"}},{"base_weights":[4.8905306E-2,1.160557E-1,-1.0358287E-1,7.186136E-2,2.3083442E-1,-3.5834664E-1,-6.676211E-2,7.82904E-2,-4.7965918E-2,2.7297586E-1,-3.9007732E-1,-4.8133072E-1,3.3854306E-1,-5.2945714E-2,-6.310161E-2,3.2031746E-3,2.5495961E-2,-1.7877126E-2,1.4353712E-2,-6.2282205E-2,-5.7319975E-3,-3.8814817E-3,-3.9589476E-2,4.18729E-2,-3.3577064E-3,-3.2929543E-3,2.5553713E-2],"categories":[],"categories_nodes":[],"categories_segments":[],"categories_sizes":[],"default_left":[0,0,0,0,0,0,0,0,0,0,0,0,0,0,0,0,0,0,0,0,0,0,0,0,0,0,0],"id":22,"left_children":[1,3,5,7,9,11,13,15,-1,17,19,21,23,25,-1,-1,-1,-1,-1,-1,-1,-1,-1,-1,-1,-1,-1],"loss_changes":[2.3771917E1,8.129171E0,6.588627E0,7.715755E0,1.179105E1,7.8064747E0,1.0064241E1,7.030796E0,0E0,3.8231392E0,6.477581E0,9.401714E0,2.930118E0,4.4717712E0,0E0,0E0,0E0,0E0,0E0,0E0,0E0,0E0,0E0,0E0,0E0,0E0,0E0],"parents":[2147483647,0,0,1,1,2,2,3,3,4,4,5,5,6,6,7,7,9,9,10,10,11,11,12,12,13,13],"right_children":[2,4,6,8,10,12,14,16,-1,18,20,22,24,26,-1,-1,-1,-1,-1,-1,-1,-1,-1,-1,-1,-1,-1],"split_conditions":[2.19E0,2.27E0,5E-1,2.8E0,2.5576923E0,1.5E0,8.333333E-1,2.2857144E0,-4.7965918E-2,-1.1904762E0,1.625E0,6E-1,1.8888888E0,3.65E0,-6.310161E-2,3.2031746E-3,2.5495961E-2,-1.7877126E-2,1.4353712E-2,-6.2282205E-2,-5.7319975E-3,-3.8814817E-3,-3.9589476E-2,4.18729E-2,-3.3577064E-3,-3.2929543E-3,2.5553713E-2],"split_indices":[16,17,11,6,24,12,19,0,0,26,0,2,23,14,0,0,0,0,0,0,0,0,0,0,0,0,0],"split_type":[0,0,0,0,0,0,0,0,0,0,0,0,0,0,0,0,0,0,0,0,0,0,0,0,0,0,0],"sum_hessian":[2.319262E3,1.610812E3,7.084499E2,1.164811E3,4.4600098E2,8.80161E1,6.204338E2,1.1586086E3,6.202474E0,4.1833023E2,2.767076E1,7.519825E1,1.2817851E1,6.144591E2,5.9747124E0,1.1229744E3,3.5634243E1,8.461362E0,4.0986887E2,5.792512E0,2.1878248E1,3.3373547E1,4.1824703E1,5.3817596E0,7.436091E0,6.0174255E2,1.2716504E1],"tree_param":{"num_deleted":"0","num_feature":"33","num_nodes":"27","size_leaf_vector":"1"}},{"base_weights":[5.865586E-2,-9.341325E-3,2.0618267E-1,-2.0813707E-2,3.458467E-1,2.421592E-1,-1.2567202E-2,5.892768E-2,-7.278399E-2,-1.4112702E-1,5.3649724E-1,2.2387555E-1,6.879926E-1,-1.0220115E-1,6.5163606E-1,9.279992E-5,1.8290116E-2,-5.3250743E-3,1.3589147E-2,-2.7156115E-2,1.0230183E-2,3.5943836E-2,-5.493825E-3,9.764855E-3,2.2961197E-2,4.274835E-2,1.2620246E-3,-3.483138E-2,1.4465192E-3,5.2201923E-2,7.616366E-3],"categories":[],"categories_nodes":[],"categories_segments":[],"categories_sizes":[],"default_left":[0,0,0,0,0,0,0,0,0,0,0,0,0,0,0,0,0,0,0,0,0,0,0,0,0,0,0,0,0,0,0],"id":23,"left_children":[1,3,5,7,9,11,13,15,17,19,21,23,25,27,29,-1,-1,-1,-1,-1,-1,-1,-1,-1,-1,-1,-1,-1,-1,-1,-1],"loss_changes":[2.3388731E1,6.473968E0,5.813696E0,6.4137516E0,4.7284527E0,4.906502E0,6.228707E0,1.0644595E1,1.0902634E1,2.1774762E0,4.391382E0,3.9395828E0,2.5683708E0,7.336633E0,2.1547022E0,0E0,0E0,0E0,0E0,0E0,0E0,0E0,0E0,0E0,0E0,0E0,0E0,0E0,0E0,0E0,0E0],"parents":[2147483647,0,0,1,1,2,2,3,3,4,4,5,5,6,6,7,7,8,8,9,9,10,10,11,11,12,12,13,13,14,14],"right_children":[2,4,6,8,10,12,14,16,18,20,22,24,26,28,30,-1,-1,-1,-1,-1,-1,-1,-1,-1,-1,-1,-1,-1,-1,-1,-1],"split_conditions":[2.08E0,2.4E0,2.2857144E0,1.2E0,2E0,2.3333333E0,1E0,1.4375E0,7.083333E-1,9.777778E-1,2.7E0,2.85E0,1.2100841E0,2.2E0,1.7511901E0,9.279992E-5,1.8290116E-2,-5.3250743E-3,1.3589147E-2,-2.7156115E-2,1.0230183E-2,3.5943836E-2,-5.493825E-3,9.764855E-3,2.2961197E-2,4.274835E-2,1.2620246E-3,-3.483138E-2,1.4465192E-3,5.2201923E-2,7.616366E-3],"split_indices":[17,11,5,1,1,12,26,24,26,24,1,17,24,17,28,0,0,0,0,0,0,0,0,0,0,0,0,0,0,0,0],"split_type":[0,0,0,0,0,0,0,0,0,0,0,0,0,0,0,0,0,0,0,0,0,0,0,0,0,0,0,0,0,0,0],"sum_hessian":[2.328396E3,1.5939712E3,7.34425E2,1.5452823E3,4.8688843E1,6.309984E2,1.03426575E2,6.089195E2,9.363628E2,1.3624183E1,3.5064663E1,6.0779895E2,2.319942E1,9.200696E1,1.1419614E1,5.145558E2,9.436372E1,8.53796E2,8.256681E1,6.1692476E0,7.454935E0,2.738134E1,7.6833215E0,5.43996E2,6.3802975E1,1.817858E1,5.0208406E0,1.5987032E1,7.601993E1,5.671325E0,5.748288E0],"tree_param":{"num_deleted":"0","num_feature":"33","num_nodes":"31","size_leaf_vector":"1"}},{"base_weights":[4.899125E-2,-7.9045095E-2,1.0123655E-1,-4.592165E-2,-6.6449516E-2,1.0620378E-1,-3.5969432E-2,3.534044E-2,-1.4991675E-1,9.9903144E-2,7.37801E-1,1.15013225E-2,-4.575975E-3,-4.1428003E-3,-3.0697739E-2,-3.7494346E-3,5.8917818E-3,1.6315589E-2,5.2221593E-2],"categories":[],"categories_nodes":[],"categories_segments":[],"categories_sizes":[],"default_left":[0,0,0,0,0,0,0,0,0,0,0,0,0,0,0,0,0,0,0],"id":24,"left_children":[1,3,5,-1,7,9,-1,11,13,15,17,-1,-1,-1,-1,-1,-1,-1,-1],"loss_changes":[1.5531015E1,6.9495797E0,6.736105E0,0E0,5.655326E0,6.3684616E0,0E0,7.4265184E0,1.1249672E1,5.1095867E0,1.5263166E0,0E0,0E0,0E0,0E0,0E0,0E0,0E0,0E0],"parents":[2147483647,0,0,1,1,2,2,4,4,5,5,7,7,8,8,9,9,10,10],"right_children":[2,4,6,-1,8,10,-1,12,14,16,18,-1,-1,-1,-1,-1,-1,-1,-1],"split_conditions":[1.72E0,1E-1,5E0,-4.592165E-2,4.4444445E-1,3E0,-3.5969432E-2,1.015625E0,2.69E0,1.6666666E0,1.7638342E0,1.15013225E-2,-4.575975E-3,-4.1428003E-3,-3.0697739E-2,-3.7494346E-3,5.8917818E-3,1.6315589E-2,5.2221593E-2],"split_indices":[17,9,22,0,9,0,0,24,16,14,27,0,0,0,0,0,0,0,0],"split_type":[0,0,0,0,0,0,0,0,0,0,0,0,0,0,0,0,0,0,0],"sum_hessian":[2.3192427E3,6.714091E2,1.6478337E3,8.745417E0,6.626637E2,1.6389059E3,8.9278145E0,2.982817E2,3.6438196E2,1.6240216E3,1.4884264E1,1.1767163E2,1.8061009E2,3.1959024E2,4.4791725E1,1.5021803E2,1.4738036E3,7.3760867E0,7.508177E0],"tree_param":{"num_deleted":"0","num_feature":"33","num_nodes":"19","size_leaf_vector":"1"}},{"base_weights":[3.78036E-2,-3.6666475E-2,1.3554211E-1,-5.068258E-2,3.3286017E-1,3.6012456E-2,1.9541822E-1,2.4872863E-1,-6.563664E-2,2.0771888E-1,4.118712E-2,-1.872004E-2,3.5655054E-1,2.561788E-1,5.421197E-2,-7.0513086E-3,2.2785038E-2,1.2084921E-3,-6.7095584E-3,1.6799599E-2,-2.0962419E-2,-7.741365E-3,6.084811E-3,2.3011174E-2,-1.0757255E-2,-4.967879E-3,1.5414149E-2,-3.728889E-2,5.418206E-3],"categories":[],"categories_nodes":[],"categories_segments":[],"categories_sizes":[],"default_left":[0,0,0,0,0,0,0,0,0,0,0,0,0,0,0,0,0,0,0,0,0,0,0,0,0,0,0,0,0],"id":25,"left_children":[1,3,5,7,9,11,13,15,17,19,-1,21,23,25,27,-1,-1,-1,-1,-1,-1,-1,-1,-1,-1,-1,-1,-1,-1],"loss_changes":[1.688609E1,6.8034234E0,5.948097E0,5.6790085E0,2.6715703E0,6.6836247E0,5.3217106E0,4.9557486E0,7.4610953E0,3.326324E0,0E0,6.2165813E0,3.4155383E0,8.138718E0,8.245553E0,0E0,0E0,0E0,0E0,0E0,0E0,0E0,0E0,0E0,0E0,0E0,0E0,0E0,0E0],"parents":[2147483647,0,0,1,1,2,2,3,3,4,4,5,5,6,6,7,7,8,8,9,9,11,11,12,12,13,13,14,14],"right_children":[2,4,6,8,10,12,14,16,18,20,-1,22,24,26,28,-1,-1,-1,-1,-1,-1,-1,-1,-1,-1,-1,-1,-1,-1],"split_conditions":[1.95E0,7.5E-1,1.25E0,6E-1,4.4444445E-1,2.1111112E0,7.5E-1,1.63E0,2.857143E-1,2.0833333E-1,4.118712E-2,7.1428573E-1,6.666667E-1,7.0710677E-1,4.642857E-1,-7.0513086E-3,2.2785038E-2,1.2084921E-3,-6.7095584E-3,1.6799599E-2,-2.0962419E-2,-7.741365E-3,6.084811E-3,2.3011174E-2,-1.0757255E-2,-4.967879E-3,1.5414149E-2,-3.728889E-2,5.418206E-3],"split_indices":[17,29,13,13,25,0,9,17,21,25,0,9,26,28,22,0,0,0,0,0,0,0,0,0,0,0,0,0,0],"split_type":[0,0,0,0,0,0,0,0,0,0,0,0,0,0,0,0,0,0,0,0,0,0,0,0,0,0,0,0,0],"sum_hessian":[2.3169246E3,1.314765E3,1.0021595E3,1.2678105E3,4.6954433E1,3.7766077E2,6.244987E2,5.924684E1,1.2085637E3,3.871232E1,8.242117E0,3.2311746E2,5.4543304E1,4.3555743E2,1.889413E2,2.0492441E1,3.8754402E1,5.2283636E2,6.857273E2,3.265494E1,6.0573745E0,1.6438577E2,1.5873167E2,4.648372E1,8.059586E0,5.5311253E1,3.802462E2,1.1051971E1,1.7788933E2],"tree_param":{"num_deleted":"0","num_feature":"33","num_nodes":"29","size_leaf_vector":"1"}},{"base_weights":[4.015578E-2,-1.6206275E-1,8.3649635E-2,-9.3492486E-2,-3.7078103E-1,4.5222607E-1,6.906538E-2,-7.033333E-2,-5.7066258E-2,-2.0703645E-1,-7.4268234E-1,5.559012E-1,-2.5681315E-2,1.7113952E-2,1.6277257E-1,3.3556364E-2,-4.627504E-3,2.3297768E-2,-1.581573E-2,-7.611086E-2,-1.8704869E-2,1.4975836E-2,4.4695344E-2,1.3265621E-3,-2.2715345E-2,8.989632E-3,-1.1575392E-2],"categories":[],"categories_nodes":[],"categories_segments":[],"categories_sizes":[],"default_left":[0,0,0,0,0,0,0,0,0,0,0,0,0,0,0,0,0,0,0,0,0,0,0,0,0,0,0],"id":26,"left_children":[1,3,5,7,9,11,13,15,-1,17,19,21,-1,23,25,-1,-1,-1,-1,-1,-1,-1,-1,-1,-1,-1,-1],"loss_changes":[2.0380383E1,5.7866154E0,1.0170567E1,7.3286133E0,5.882827E0,7.516116E0,8.919204E0,5.0243587E0,0E0,5.3893814E0,7.9200134E0,5.3103046E0,0E0,5.222189E0,4.4264126E0,0E0,0E0,0E0,0E0,0E0,0E0,0E0,0E0,0E0,0E0,0E0,0E0],"parents":[2147483647,0,0,1,1,2,2,3,3,4,4,5,5,6,6,7,7,9,9,10,10,11,11,13,13,14,14],"right_children":[2,4,6,8,10,12,14,16,-1,18,20,22,-1,24,26,-1,-1,-1,-1,-1,-1,-1,-1,-1,-1,-1,-1],"split_conditions":[8.333333E-1,2.42E0,-9E-1,5E0,2.2666667E0,3.8333333E0,2.06E0,-1E0,-5.7066258E-2,-5.416667E-1,-3E-1,-1.0333333E0,-2.5681315E-2,7E-1,2.7777777E0,3.3556364E-2,-4.627504E-3,2.3297768E-2,-1.581573E-2,-7.611086E-2,-1.8704869E-2,1.4975836E-2,4.4695344E-2,1.3265621E-3,-2.2715345E-2,8.989632E-3,-1.1575392E-2],"split_indices":[8,16,25,22,14,15,17,25,0,25,26,25,0,20,5,0,0,0,0,0,0,0,0,0,0,0,0],"split_type":[0,0,0,0,0,0,0,0,0,0,0,0,0,0,0,0,0,0,0,0,0,0,0,0,0,0,0],"sum_hessian":[2.31555E3,4.0898886E2,1.906561E3,3.0930115E2,9.968771E1,7.116631E1,1.8353948E3,3.0375024E2,5.5509186E0,7.048113E1,2.9206583E1,6.4744576E1,6.4217377E0,1.1822198E3,6.531749E2,7.855979E0,2.9589426E2,9.261981E0,6.121915E1,8.284392E0,2.092219E1,3.805843E1,2.6686146E1,1.1601991E3,2.2020752E1,6.2691046E2,2.6264496E1],"tree_param":{"num_deleted":"0","num_feature":"33","num_nodes":"27","size_leaf_vector":"1"}},{"base_weights":[3.4786664E-2,-1.2765129E-1,7.057215E-2,1.67852E-2,-2.610212E-1,-3.3575658E-2,1.203816E-1,-8.115335E-1,7.695998E-2,-2.2395973E-1,-6.269615E-2,-2.674632E-1,8.8410685E-3,9.640467E-2,3.296024E-1,-7.327059E-2,-0E0,4.369802E-2,1.6565266E-3,-2.9882614E-2,-6.4853965E-3,-4.3192813E-3,-3.26407E-2,1.0528452E-3,-4.6859793E-2,-1.3577366E-2,5.7350267E-3,5.5399095E-3,2.5188008E-2],"categories":[],"categories_nodes":[],"categories_segments":[],"categories_sizes":[],"default_left":[0,0,0,0,0,0,0,0,0,0,0,0,0,0,0,0,0,0,0,0,0,0,0,0,0,0,0,0,0],"id":27,"left_children":[1,3,5,7,9,11,13,15,17,19,-1,21,23,25,27,-1,-1,-1,-1,-1,-1,-1,-1,-1,-1,-1,-1,-1,-1],"loss_changes":[1.3510848E1,8.107013E0,9.896848E0,1.0052668E1,7.6099873E0,6.1450424E0,6.395813E0,7.2036085E0,6.491422E0,7.313244E0,0E0,6.501851E0,5.9667153E0,7.8179636E0,4.904065E0,0E0,0E0,0E0,0E0,0E0,0E0,0E0,0E0,0E0,0E0,0E0,0E0,0E0,0E0],"parents":[2147483647,0,0,1,1,2,2,3,3,4,4,5,5,6,6,7,7,8,8,9,9,11,11,12,12,13,13,14,14],"right_children":[2,4,6,8,10,12,14,16,18,20,-1,22,24,26,28,-1,-1,-1,-1,-1,-1,-1,-1,-1,-1,-1,-1,-1,-1],"split_conditions":[8.333333E-1,0E0,1.77E0,-9E-1,1.7919574E0,1.8E0,1E0,1.1666666E0,4.7058824E-1,2.857143E-1,-6.269615E-2,8E-1,7E-1,4.7058824E-1,-4.761905E-2,-7.327059E-2,-0E0,4.369802E-2,1.6565266E-3,-2.9882614E-2,-6.4853965E-3,-4.3192813E-3,-3.26407E-2,1.0528452E-3,-4.6859793E-2,-1.3577366E-2,5.7350267E-3,5.5399095E-3,2.5188008E-2],"split_indices":[8,26,17,26,27,15,2,11,22,9,0,31,20,23,26,0,0,0,0,0,0,0,0,0,0,0,0,0,0],"split_type":[0,0,0,0,0,0,0,0,0,0,0,0,0,0,0,0,0,0,0,0,0,0,0,0,0,0,0,0,0],"sum_hessian":[2.3227104E3,4.1835342E2,1.9043569E3,2.0090375E2,2.1744969E2,6.155683E2,1.2887887E3,1.2648354E1,1.8825539E2,2.1090369E2,6.546008E0,9.404613E1,5.2152216E2,1.1580173E3,1.307713E2,6.5402775E0,6.108076E0,8.706874E0,1.7954851E2,4.119005E1,1.6971364E2,6.499054E1,2.9055584E1,5.159434E2,5.578745E0,5.3938595E1,1.1040787E3,5.8936478E1,7.183482E1],"tree_param":{"num_deleted":"0","num_feature":"33","num_nodes":"29","size_leaf_vector":"1"}},{"base_weights":[2.0308292E-2,1.2364231E-1,-7.640398E-2,-1.1486161E-1,1.5478028E-1,4.9196947E-2,-8.256373E-2,4.0076107E-2,-1.861652E-1,-1.7773913E-1,1.8163416E-1,-8.857067E-2,4.2548846E-2,-2.5681978E-2,4.8251017E-3,-3.7790935E-2,1.8553874E-3,9.642422E-3,-1.537086E-2,-9.002757E-3,-1.5268895E-3],"categories":[],"categories_nodes":[],"categories_segments":[],"categories_sizes":[],"default_left":[0,0,0,0,0,0,0,0,0,0,0,0,0,0,0,0,0,0,0,0,0],"id":28,"left_children":[1,3,5,7,9,-1,11,-1,13,15,17,19,-1,-1,-1,-1,-1,-1,-1,-1,-1],"loss_changes":[2.2991432E1,8.28319E0,7.7488976E0,8.494793E0,8.825989E0,0E0,6.6270075E0,0E0,1.1225937E1,9.267294E0,5.0492554E0,6.213628E0,0E0,0E0,0E0,0E0,0E0,0E0,0E0,0E0,0E0],"parents":[2147483647,0,0,1,1,2,2,3,3,4,4,6,6,8,8,9,9,10,10,11,11],"right_children":[2,4,6,8,10,-1,12,-1,14,16,18,20,-1,-1,-1,-1,-1,-1,-1,-1,-1],"split_conditions":[1.99E0,8.5714287E-1,2.857143E-1,2.2222222E-1,5E-1,4.9196947E-2,2.75E0,4.0076107E-2,1.3333334E0,1.25E0,2.065591E0,7E-1,4.2548846E-2,-2.5681978E-2,4.8251017E-3,-3.7790935E-2,1.8553874E-3,9.642422E-3,-1.537086E-2,-9.002757E-3,-1.5268895E-3],"split_indices":[16,3,32,9,12,0,11,0,23,13,28,32,0,0,0,0,0,0,0,0,0],"split_type":[0,0,0,0,0,0,0,0,0,0,0,0,0,0,0,0,0,0,0,0,0],"sum_hessian":[2.2981821E3,1.1114202E3,1.186762E3,1.2766431E2,9.837558E2,5.843746E0,1.1809182E3,8.375834E0,1.1928847E2,7.281224E1,9.109436E2,1.1743738E3,6.544364E0,5.5049465E1,6.4239006E1,1.9172665E1,5.363958E1,8.9131525E2,1.962833E1,4.5433038E2,7.200434E2],"tree_param":{"num_deleted":"0","num_feature":"33","num_nodes":"21","size_leaf_vector":"1"}},{"base_weights":[4.5960546E-2,1.330859E-1,-2.5744947E-2,-4.7023144E-1,1.43398E-1,-1.8884344E-1,5.347337E-3,1.0012322E-2,-5.684468E-2,1.3507743E-1,8.2840234E-1,4.8143867E-2,-2.2448468E-1,-1.1550038E-1,8.910004E-2,-1.0804156E-2,1.2366742E-2,3.9598206E-3,1.1342602E-2,2.366774E-2,5.032472E-2,6.024269E-3,-1.6297689E-2,-7.4065397E-3,1.6807957E-2,3.1515326E-2,2.79171E-3],"categories":[],"categories_nodes":[],"categories_segments":[],"categories_sizes":[],"default_left":[0,0,0,0,0,0,0,0,0,0,0,0,0,0,0,0,0,0,0,0,0,0,0,0,0,0,0],"id":29,"left_children":[1,3,5,7,9,11,13,15,-1,17,19,-1,21,23,25,-1,-1,-1,-1,-1,-1,-1,-1,-1,-1,-1,-1],"loss_changes":[1.4426508E1,6.519268E0,6.4376807E0,5.754528E0,5.6378365E0,8.483037E0,1.077142E1,6.5359104E-1,0E0,5.155405E0,1.3248158E-1,0E0,6.9901047E0,6.4460397E0,1.1224059E1,0E0,0E0,0E0,0E0,0E0,0E0,0E0,0E0,0E0,0E0,0E0,0E0],"parents":[2147483647,0,0,1,1,2,2,3,3,4,4,5,5,6,6,7,7,9,9,10,10,12,12,13,13,14,14],"right_children":[2,4,6,8,10,12,14,16,-1,18,20,-1,22,24,26,-1,-1,-1,-1,-1,-1,-1,-1,-1,-1,-1,-1],"split_conditions":[1.96E0,4.2857143E-1,1.65E0,9.718253E-1,3.1E0,5.676462E-1,7.647059E-1,1.7142857E0,-5.684468E-2,1.8E0,1.45E0,4.8143867E-2,5E-1,2.4E0,7.894737E-1,-1.0804156E-2,1.2366742E-2,3.9598206E-3,1.1342602E-2,2.366774E-2,5.032472E-2,6.024269E-3,-1.6297689E-2,-7.4065397E-3,1.6807957E-2,3.1515326E-2,2.79171E-3],"split_indices":[16,7,15,28,0,28,23,0,0,13,16,0,13,11,23,0,0,0,0,0,0,0,0,0,0,0,0],"split_type":[0,0,0,0,0,0,0,0,0,0,0,0,0,0,0,0,0,0,0,0,0,0,0,0,0,0,0],"sum_hessian":[2.305947E3,1.0412819E3,1.2646652E3,1.6586365E1,1.0246956E3,2.0219073E2,1.0624745E3,1.0126507E1,6.459857E0,1.0137252E3,1.0970287E1,5.204049E0,1.969867E2,4.3427753E2,6.2819696E2,5.0159636E0,5.1105437E0,6.319109E2,3.8181436E2,5.0740337E0,5.8962536E0,4.4505604E1,1.524811E2,4.0585007E2,2.8427443E1,3.51635E1,5.9303345E2],"tree_param":{"num_deleted":"0","num_feature":"33","num_nodes":"27","size_leaf_vector":"1"}},{"base_weights":[4.8324004E-2,1.6711815E-1,1.4814949E-2,2.0425458E-1,-1.2566558E-1,-4.677341E-5,3.4730884E-1,-1.680566E-2,2.7425262E-1,2.4796236E-1,-4.2342186E-1,-4.599744E-2,1.05518796E-1,8.409263E-1,1.9880258E-1,4.0150363E-2,-5.7820785E-3,1.6807554E-2,2.2347616E-3,2.8264621E-2,-1.4758243E-2,-3.6650255E-2,7.671655E-3,3.280551E-3,-4.5378585E-3,-1.6124798E-2,6.8378723E-3,5.2981187E-2,1.3240716E-2,1.6374534E-2,-3.357255E-2],"categories":[],"categories_nodes":[],"categories_segments":[],"categories_sizes":[],"default_left":[0,0,0,0,0,0,0,0,0,0,0,0,0,0,0,0,0,0,0,0,0,0,0,0,0,0,0,0,0,0,0],"id":30,"left_children":[1,3,5,7,9,11,13,15,17,19,21,23,25,27,29,-1,-1,-1,-1,-1,-1,-1,-1,-1,-1,-1,-1,-1,-1,-1,-1],"loss_changes":[9.17538E0,5.551755E0,8.947363E0,7.010206E0,6.513113E0,8.377186E0,5.4069147E0,8.86256E0,4.8206024E0,4.667678E0,5.971873E0,6.026826E0,7.024419E0,1.7853785E0,7.0179977E0,0E0,0E0,0E0,0E0,0E0,0E0,0E0,0E0,0E0,0E0,0E0,0E0,0E0,0E0,0E0,0E0],"parents":[2147483647,0,0,1,1,2,2,3,3,4,4,5,5,6,6,7,7,8,8,9,9,10,10,11,11,12,12,13,13,14,14],"right_children":[2,4,6,8,10,12,14,16,18,20,22,24,26,28,30,-1,-1,-1,-1,-1,-1,-1,-1,-1,-1,-1,-1,-1,-1,-1,-1],"split_conditions":[1.6666667E-1,6.333333E-1,1E0,1.1111111E-1,3E-1,1.8E0,8.333333E-1,-6.666667E-1,1.6E0,1.97E0,1.6111112E0,8.333333E-1,3.3333334E-1,3.3333334E-1,2.08E0,4.0150363E-2,-5.7820785E-3,1.6807554E-2,2.2347616E-3,2.8264621E-2,-1.4758243E-2,-3.6650255E-2,7.671655E-3,3.280551E-3,-4.5378585E-3,-1.6124798E-2,6.8378723E-3,5.2981187E-2,1.3240716E-2,1.6374534E-2,-3.357255E-2],"split_indices":[21,26,7,20,20,10,32,26,1,16,23,10,29,20,16,0,0,0,0,0,0,0,0,0,0,0,0,0,0,0,0],"split_type":[0,0,0,0,0,0,0,0,0,0,0,0,0,0,0,0,0,0,0,0,0,0,0,0,0,0,0,0,0,0,0],"sum_hessian":[2.3091707E3,5.0651935E2,1.8026512E3,4.5007602E2,5.6443336E1,1.7261935E3,7.645782E1,1.0808019E2,3.4199582E2,2.4957619E1,3.1485716E1,1.20374E3,5.2245337E2,1.6448616E1,6.0009205E1,1.0752785E1,9.732741E1,2.6865503E2,7.334078E1,1.5843898E1,9.113721E0,2.0426176E1,1.1059542E1,3.437926E2,8.5994745E2,3.4685616E1,4.8776776E2,1.118851E1,5.2601056E0,5.2921997E1,7.0872087E0],"tree_param":{"num_deleted":"0","num_feature":"33","num_nodes":"31","size_leaf_vector":"1"}},{"base_weights":[3.631142E-2,1.4026576E-2,2.4705978E-1,-1.0704381E-3,2.2826317E-1,3.3461472E-1,-4.051956E-2,-7.610499E-2,3.782091E-2,2.7804556E-1,-4.2674884E-2,1.14058256E-1,5.1529735E-1,2.2845164E-1,-5.97528E-1,2.045005E-3,-1.0064589E-2,4.1675135E-3,-5.465915E-3,2.4279684E-2,3.5457206E-3,-7.628016E-3,1.945806E-2,3.225289E-2,9.906104E-3,-2.0368872E-2,2.166291E-2,-2.423616E-3,-6.87881E-2],"categories":[],"categories_nodes":[],"categories_segments":[],"categories_sizes":[],"default_left":[0,0,0,0,0,0,0,0,0,0,0,0,0,0,0,0,0,0,0,0,0,0,0,0,0,0,0,0,0],"id":31,"left_children":[1,3,5,7,9,11,13,15,17,19,-1,21,23,25,27,-1,-1,-1,-1,-1,-1,-1,-1,-1,-1,-1,-1,-1,-1],"loss_changes":[1.07642E1,6.750277E0,5.5645266E0,5.678523E0,7.5772314E0,6.592533E0,7.9351597E0,9.760546E0,8.580753E0,5.591611E0,0E0,5.760438E0,3.5776272E0,4.807078E0,7.16947E0,0E0,0E0,0E0,0E0,0E0,0E0,0E0,0E0,0E0,0E0,0E0,0E0,0E0,0E0],"parents":[2147483647,0,0,1,1,2,2,3,3,4,4,5,5,6,6,7,7,8,8,9,9,11,11,12,12,13,13,14,14],"right_children":[2,4,6,8,10,12,14,16,18,20,-1,22,24,26,28,-1,-1,-1,-1,-1,-1,-1,-1,-1,-1,-1,-1,-1,-1],"split_conditions":[2.5E0,1E0,1.6E0,1E0,1.8885621E0,1.1785113E0,1.8E0,8.25E-1,1.7777778E0,3E-1,-4.2674884E-2,8.095238E-1,1.8888888E0,7.1428573E-1,6.666667E-1,2.045005E-3,-1.0064589E-2,4.1675135E-3,-5.465915E-3,2.4279684E-2,3.5457206E-3,-7.628016E-3,1.945806E-2,3.225289E-2,9.906104E-3,-2.0368872E-2,2.166291E-2,-2.423616E-3,-6.87881E-2],"split_indices":[17,2,24,11,28,27,13,24,1,21,0,24,23,6,32,0,0,0,0,0,0,0,0,0,0,0,0,0,0],"split_type":[0,0,0,0,0,0,0,0,0,0,0,0,0,0,0,0,0,0,0,0,0,0,0,0,0,0,0,0,0],"sum_hessian":[2.2972617E3,2.0789695E3,2.1829228E2,1.9426045E3,1.3636494E2,1.6748488E2,5.0807415E1,6.6370593E2,1.2788986E3,1.311642E2,5.2007356E0,7.640419E1,9.108068E1,3.4539246E1,1.6268167E1,3.429987E2,3.207072E2,9.775332E2,3.0136542E2,6.460349E1,6.6560715E1,3.8842022E1,3.7562172E1,6.3679543E1,2.7401138E1,8.054968E0,2.648428E1,1.0236761E1,6.0314064E0],"tree_param":{"num_deleted":"0","num_feature":"33","num_nodes":"29","size_leaf_vector":"1"}},{"base_weights":[3.293836E-2,-2.5241715E-3,1.980942E-1,3.7799546E-1,-1.5767517E-2,-3.308947E-2,2.1884024E-1,4.951784E-1,-1.7340345E-2,-1.3683876E-1,1.5473556E-2,5.439896E-2,3.0784944E-1,2.9785663E-2,-8.757929E-3,-1.5642645E-2,-1.7572249E-3,3.4720868E-2,3.9768472E-4,9.91553E-3,-9.20024E-3,2.5694788E-2,1.0636646E-2],"categories":[],"categories_nodes":[],"categories_segments":[],"categories_sizes":[],"default_left":[0,0,0,0,0,0,0,0,0,0,0,0,0,0,0,0,0,0,0,0,0,0,0],"id":32,"left_children":[1,3,5,7,9,-1,11,13,-1,15,17,19,21,-1,-1,-1,-1,-1,-1,-1,-1,-1,-1],"loss_changes":[1.3437856E1,9.476402E0,7.3338766E0,5.5573015E0,6.9142947E0,0E0,5.754732E0,3.850543E0,0E0,6.6653814E0,7.328928E0,4.8740263E0,4.8514957E0,0E0,0E0,0E0,0E0,0E0,0E0,0E0,0E0,0E0,0E0],"parents":[2147483647,0,0,1,1,2,2,3,3,4,4,6,6,7,7,9,9,10,10,11,11,12,12],"right_children":[2,4,6,8,10,-1,12,14,-1,16,18,20,22,-1,-1,-1,-1,-1,-1,-1,-1,-1,-1],"split_conditions":[2.29E0,-8.666667E-1,-1.25E0,1.7142857E0,8.75E-1,-3.308947E-2,1.2857143E0,3.8333333E0,-1.7340345E-2,-1.904762E-1,7E-1,1.3333334E0,2.6666667E0,2.9785663E-2,-8.757929E-3,-1.5642645E-2,-1.7572249E-3,3.4720868E-2,3.9768472E-4,9.91553E-3,-9.20024E-3,2.5694788E-2,1.0636646E-2],"split_indices":[17,25,25,11,8,0,6,14,0,25,3,27,15,0,0,0,0,0,0,0,0,0,0],"split_type":[0,0,0,0,0,0,0,0,0,0,0,0,0,0,0,0,0,0,0,0,0,0,0],"sum_hessian":[2.2899604E3,1.8854852E3,4.0447528E2,6.2233833E1,1.8232515E3,8.687213E0,3.9578806E2,5.396395E1,8.269881E0,3.7393384E2,1.4493176E3,1.3995708E2,2.5583098E2,4.7152657E1,6.811295E0,1.358107E2,2.3812314E2,1.4730234E1,1.4345874E3,8.764069E1,5.231638E1,7.907672E1,1.7675426E2],"tree_param":{"num_deleted":"0","num_feature":"33","num_nodes":"23","size_leaf_vector":"1"}},{"base_weights":[4.39141E-2,2.3748424E-2,2.827249E-1,-2.4129736E-1,3.6639184E-2,3.2533082E-1,-3.3457767E-2,3.264368E-2,-3.000783E-1,-1.1002142E-1,5.903024E-2,5.128969E-1,1.2936267E-1,-2.5847886E-2,-3.5600413E-3,-1.1253832E-2,7.5657032E-3,2.1307713E-3,1.51607115E-2,2.976282E-2,-2.1089606E-3,-7.945825E-4,3.090289E-2],"categories":[],"categories_nodes":[],"categories_segments":[],"categories_sizes":[],"default_left":[0,0,0,0,0,0,0,0,0,0,0,0,0,0,0,0,0,0,0,0,0,0,0],"id":33,"left_children":[1,3,5,7,9,11,-1,-1,13,15,17,19,21,-1,-1,-1,-1,-1,-1,-1,-1,-1,-1],"loss_changes":[1.0994925E1,7.211008E0,7.3983574E0,5.3019586E0,6.625449E0,6.1569233E0,0E0,0E0,4.499648E0,8.067476E0,6.971754E0,4.048708E0,6.1216807E0,0E0,0E0,0E0,0E0,0E0,0E0,0E0,0E0,0E0,0E0],"parents":[2147483647,0,0,1,1,2,2,3,3,4,4,5,5,8,8,9,9,10,10,11,11,12,12],"right_children":[2,4,6,8,10,12,-1,-1,14,16,18,20,22,-1,-1,-1,-1,-1,-1,-1,-1,-1,-1],"split_conditions":[1E0,7.5E-1,1.9119507E0,3.125E-1,1.6666666E0,3E-1,-3.3457767E-2,3.264368E-2,1.3529412E0,2E0,1.6465452E0,1.8571428E0,3.75E-1,-2.5847886E-2,-3.5600413E-3,-1.1253832E-2,7.5657032E-3,2.1307713E-3,1.51607115E-2,2.976282E-2,-2.1089606E-3,-7.945825E-4,3.090289E-2],"split_indices":[2,8,28,23,15,21,0,0,22,17,27,5,26,0,0,0,0,0,0,0,0,0,0],"split_type":[0,0,0,0,0,0,0,0,0,0,0,0,0,0,0,0,0,0,0,0,0,0,0],"sum_hessian":[2.289861E3,2.1129568E3,1.7690427E2,9.681783E1,2.016139E3,1.7005588E2,6.8483863E0,5.243653E0,9.157418E1,2.6592966E2,1.7502094E3,8.580357E1,8.4252304E1,4.614889E1,4.542529E1,1.8500223E2,8.092744E1,1.64145E3,1.08759384E2,7.481122E1,1.0992353E1,6.553597E1,1.8716331E1],"tree_param":{"num_deleted":"0","num_feature":"33","num_nodes":"23","size_leaf_vector":"1"}},{"base_weights":[3.666571E-2,-1.9613904E-4,2.4224037E-1,1.9615283E-2,-2.3258536E-1,-1.9550371E-1,2.8046626E-1,8.508572E-3,4.569249E-1,-8.591753E-1,-1.6222194E-1,-8.273954E-1,3.253772E-1,3.072031E-1,-2.6939812E-1,-7.832861E-3,1.4867628E-3,3.1707015E-2,-3.323467E-2,-7.488956E-2,-0E0,-1.1668282E-2,1.5271465E-2,-7.6704405E-2,-5.050512E-3,4.3843206E-2,-3.0477277E-3,-1.916632E-2,1.6340552E-2,-4.0254045E-2,2.3380732E-2],"categories":[],"categories_nodes":[],"categories_segments":[],"categories_sizes":[],"default_left":[0,0,0,0,0,0,0,0,0,0,0,0,0,0,0,0,0,0,0,0,0,0,0,0,0,0,0,0,0,0,0],"id":34,"left_children":[1,3,5,7,9,11,13,15,17,19,21,23,25,27,29,-1,-1,-1,-1,-1,-1,-1,-1,-1,-1,-1,-1,-1,-1,-1,-1],"loss_changes":[1.7270226E1,8.913291E0,5.860506E0,8.591627E0,6.4650555E0,9.602151E0,4.779972E0,6.0798063E0,9.130139E0,8.261911E0,4.659828E0,6.4125996E0,3.5632195E0,4.2503986E0,6.3965144E0,0E0,0E0,0E0,0E0,0E0,0E0,0E0,0E0,0E0,0E0,0E0,0E0,0E0,0E0,0E0,0E0],"parents":[2147483647,0,0,1,1,2,2,3,3,4,4,5,5,6,6,7,7,8,8,9,9,10,10,11,11,12,12,13,13,14,14],"right_children":[2,4,6,8,10,12,14,16,18,20,22,24,26,28,30,-1,-1,-1,-1,-1,-1,-1,-1,-1,-1,-1,-1,-1,-1,-1,-1],"split_conditions":[2.34E0,2.59E0,8.5714287E-1,2.25E0,-5.833333E-1,1.4E0,3E0,4.7058824E-1,2.2E0,6.25E-1,2.99E0,2.5E0,-1.25E-1,-1.1904762E0,3.3333334E-1,-7.832861E-3,1.4867628E-3,3.1707015E-2,-3.323467E-2,-7.488956E-2,-0E0,-1.1668282E-2,1.5271465E-2,-7.6704405E-2,-5.050512E-3,4.3843206E-2,-3.0477277E-3,-1.916632E-2,1.6340552E-2,-4.0254045E-2,2.3380732E-2],"split_indices":[17,16,3,0,26,13,24,24,5,32,16,17,25,26,19,0,0,0,0,0,0,0,0,0,0,0,0,0,0,0,0],"split_type":[0,0,0,0,0,0,0,0,0,0,0,0,0,0,0,0,0,0,0,0,0,0,0,0,0,0,0,0,0,0,0],"sum_hessian":[2.2748364E3,1.9293881E3,3.454484E2,1.7782737E3,1.511144E2,2.720297E1,3.1824542E2,1.7354453E3,4.28284E1,1.3981011E1,1.3713339E2,1.2112531E1,1.509044E1,3.0408273E2,1.4162674E1,1.963723E2,1.539073E3,3.743712E1,5.3912783E0,7.612291E0,6.3687205E0,1.1964642E2,1.7486969E1,5.5060935E0,6.6064377E0,5.8000374E0,9.290402E0,7.7431693E0,2.9633957E2,8.226636E0,5.9360375E0],"tree_param":{"num_deleted":"0","num_feature":"33","num_nodes":"31","size_leaf_vector":"1"}},{"base_weights":[3.287824E-2,3.8727153E-2,-4.499824E-1,1.4216356E-2,1.581907E-1,-8.531038E-1,1.0665133E-1,-4.536089E-2,1.7366134E-2,1.896588E-1,-3.7996152E-1,-7.1589835E-2,-1.5254631E-2,2.7898377E-2,-1.4273092E-2,4.9813907E-4,1.8995387E-2,-2.240886E-2,1.02854315E-2,-5.4434415E-2,-3.3443458E-3],"categories":[],"categories_nodes":[],"categories_segments":[],"categories_sizes":[],"default_left":[0,0,0,0,0,0,0,0,0,0,0,0,0,0,0,0,0,0,0,0,0],"id":35,"left_children":[1,3,5,7,9,11,13,-1,15,17,19,-1,-1,-1,-1,-1,-1,-1,-1,-1,-1],"loss_changes":[6.4791927E0,6.645323E0,6.321066E0,5.413352E0,6.6017046E0,4.5032177E0,2.3644109E0,0E0,5.016791E0,3.816615E0,4.586668E0,0E0,0E0,0E0,0E0,0E0,0E0,0E0,0E0,0E0,0E0],"parents":[2147483647,0,0,1,1,2,2,3,3,4,4,5,5,6,6,8,8,9,9,10,10],"right_children":[2,4,6,8,10,12,14,-1,16,18,20,-1,-1,-1,-1,-1,-1,-1,-1,-1,-1],"split_conditions":[2.065591E0,2.29E0,8.3916086E-1,3E-1,2.7272727E0,1.1666666E0,-9.52381E-2,-4.536089E-2,2.6E0,-1.25E0,1E0,-7.1589835E-2,-1.5254631E-2,2.7898377E-2,-1.4273092E-2,4.9813907E-4,1.8995387E-2,-2.240886E-2,1.02854315E-2,-5.4434415E-2,-3.3443458E-3],"split_indices":[28,17,24,0,24,13,26,0,11,25,3,0,0,0,0,0,0,0,0,0,0],"split_type":[0,0,0,0,0,0,0,0,0,0,0,0,0,0,0,0,0,0,0,0,0],"sum_hessian":[2.301552E3,2.2751204E3,2.6431746E1,1.8894174E3,3.8570297E2,1.5125035E1,1.130671E1,5.350707E0,1.8840667E3,3.6518256E2,2.0520422E1,6.483427E0,8.641608E0,5.1784487E0,6.1282616E0,1.8476398E3,3.642679E1,8.149722E0,3.5703284E2,5.430419E0,1.5090002E1],"tree_param":{"num_deleted":"0","num_feature":"33","num_nodes":"21","size_leaf_vector":"1"}},{"base_weights":[1.7958108E-2,-1.3115173E-2,1.9435841E-1,-7.705563E-3,-6.340474E-1,2.2776584E-1,-3.5438943E-1,1.542825E-1,-2.75714E-2,-5.280721E-2,1.313706E-3,3.2642773E-1,8.580787E-2,-6.4849585E-2,6.270844E-2,-3.6286186E-2,9.30828E-3,-3.534756E-3,3.8834575E-3,1.1960431E-2,3.542795E-2,3.5955787E-2,-1.661867E-4,-2.0643119E-2,2.0891009E-2],"categories":[],"categories_nodes":[],"categories_segments":[],"categories_sizes":[],"default_left":[0,0,0,0,0,0,0,0,0,0,0,0,0,0,0,0,0,0,0,0,0,0,0,0,0],"id":36,"left_children":[1,3,5,7,9,11,13,15,17,-1,-1,19,21,-1,23,-1,-1,-1,-1,-1,-1,-1,-1,-1,-1],"loss_changes":[1.2560981E1,6.4663057E0,6.3595314E0,6.202364E0,4.766429E0,4.4725494E0,8.034013E0,5.9854136E0,7.8133206E0,0E0,0E0,6.0863056E0,7.679543E0,0E0,2.6530836E0,0E0,0E0,0E0,0E0,0E0,0E0,0E0,0E0,0E0,0E0],"parents":[2147483647,0,0,1,1,2,2,3,3,4,4,5,5,6,6,7,7,8,8,11,11,12,12,14,14],"right_children":[2,4,6,8,10,12,14,16,18,-1,-1,20,22,-1,24,-1,-1,-1,-1,-1,-1,-1,-1,-1,-1],"split_conditions":[2.34E0,2.065591E0,2.7272727E0,6.666667E-1,6.818182E-1,1.4285715E0,1E0,2E-1,1.8E0,-5.280721E-2,1.313706E-3,2.25E0,4.4444445E-1,-6.4849585E-2,2.25E0,-3.6286186E-2,9.30828E-3,-3.534756E-3,3.8834575E-3,1.1960431E-2,3.542795E-2,3.5955787E-2,-1.661867E-4,-2.0643119E-2,2.0891009E-2],"split_indices":[17,28,24,10,24,1,3,10,10,0,0,13,18,0,10,0,0,0,0,0,0,0,0,0,0],"split_type":[0,0,0,0,0,0,0,0,0,0,0,0,0,0,0,0,0,0,0,0,0,0,0,0,0],"sum_hessian":[2.2868196E3,1.9446279E3,3.4219153E2,1.9289958E3,1.5632105E1,3.2327774E2,1.8913784E1,2.0943571E2,1.7195602E3,9.262956E0,6.3691487E0,1.8954121E2,1.3373653E2,5.2283626E0,1.3685422E1,6.452122E0,2.0298358E2,1.2206578E3,4.989023E2,1.5585576E2,3.3685448E1,1.5766258E1,1.17970276E2,5.66053E0,8.024892E0],"tree_param":{"num_deleted":"0","num_feature":"33","num_nodes":"25","size_leaf_vector":"1"}},{"base_weights":[2.1315455E-2,2.7247095E-3,2.0279214E-1,1.2088348E-1,-2.5408683E-2,1.5066805E-1,7.581835E-1,2.3528829E-1,-1.8803034E-2,-1.5381703E-2,-3.9457494E-1,5.901095E-1,8.425568E-2,4.8517298E-2,1.6498037E-2,3.7851244E-2,9.32862E-3,-1.5477531E-2,5.395156E-3,-1.0093349E-3,4.383185E-2,-4.4282597E-2,-2.9576835E-3,4.0695176E-2,-6.8117105E-3,7.6275095E-3,-1.4428446E-2],"categories":[],"categories_nodes":[],"categories_segments":[],"categories_sizes":[],"default_left":[0,0,0,0,0,0,0,0,0,0,0,0,0,0,0,0,0,0,0,0,0,0,0,0,0,0,0],"id":37,"left_children":[1,3,5,7,9,11,13,15,17,19,21,23,25,-1,-1,-1,-1,-1,-1,-1,-1,-1,-1,-1,-1,-1,-1],"loss_changes":[7.683389E0,6.9035225E0,5.923072E0,6.4104834E0,6.151087E0,5.5719643E0,1.1624203E0,5.35853E0,6.699775E0,6.9247637E0,7.0962367E0,4.2795954E0,4.3769846E0,0E0,0E0,0E0,0E0,0E0,0E0,0E0,0E0,0E0,0E0,0E0,0E0,0E0,0E0],"parents":[2147483647,0,0,1,1,2,2,3,3,4,4,5,5,6,6,7,7,8,8,9,9,10,10,11,11,12,12],"right_children":[2,4,6,8,10,12,14,16,18,20,22,24,26,-1,-1,-1,-1,-1,-1,-1,-1,-1,-1,-1,-1,-1,-1],"split_conditions":[2.5E0,-4.3333334E-1,2.2222223E0,1.1666666E0,2.81E0,4.4444445E-1,1E0,9E-1,8.5714287E-1,2.78E0,6.666667E-1,1.1111112E0,7.1428573E-1,4.8517298E-2,1.6498037E-2,3.7851244E-2,9.32862E-3,-1.5477531E-2,5.395156E-3,-1.0093349E-3,4.383185E-2,-4.4282597E-2,-2.9576835E-3,4.0695176E-2,-6.8117105E-3,7.6275095E-3,-1.4428446E-2],"split_indices":[17,25,6,24,16,29,4,5,8,16,11,9,19,0,0,0,0,0,0,0,0,0,0,0,0,0,0],"split_type":[0,0,0,0,0,0,0,0,0,0,0,0,0,0,0,0,0,0,0,0,0,0,0,0,0,0,0],"sum_hessian":[2.2826338E3,2.0719465E3,2.1068729E2,3.9850485E2,1.6734417E3,1.939374E2,1.6749897E1,2.1909505E2,1.7940982E2,1.6304689E3,4.2972862E1,2.422863E1,1.6970877E2,1.0197869E1,6.552028E0,1.7293476E1,2.0180156E2,5.425627E1,1.2515354E2,1.6228168E3,7.6520734E0,1.665313E1,2.6319733E1,1.853495E1,5.693681E0,1.4416032E2,2.5548433E1],"tree_param":{"num_deleted":"0","num_feature":"33","num_nodes":"27","size_leaf_vector":"1"}},{"base_weights":[7.523604E-3,5.233573E-2,-8.641734E-2,6.3282505E-2,-2.4717687E-1,-7.1074754E-2,-5.594388E-1,4.9875566E-1,5.3415217E-2,-4.5331705E-2,-9.314277E-1,-7.97274E-2,3.8331028E-2,-6.8699405E-2,-1.1049182E-1,1.5288072E-2,4.7159266E-2,-1.0456373E-3,5.917333E-3,6.2345737E-3,-5.0623517E-2,-7.8346446E-2,-2.3992E-3,-9.5143256E-4,-1.0536842E-2,-3.252349E-2,1.3066386E-2],"categories":[],"categories_nodes":[],"categories_segments":[],"categories_sizes":[],"default_left":[0,0,0,0,0,0,0,0,0,0,0,0,0,0,0,0,0,0,0,0,0,0,0,0,0,0,0],"id":38,"left_children":[1,3,5,7,9,11,13,15,17,19,21,23,-1,-1,25,-1,-1,-1,-1,-1,-1,-1,-1,-1,-1,-1,-1],"loss_changes":[9.614453E0,5.070834E0,5.2471886E0,6.3377438E0,7.379551E0,5.1776457E0,8.040823E0,2.3964071E0,7.069297E0,7.319704E0,6.634059E0,5.6117153E0,0E0,0E0,3.3954315E0,0E0,0E0,0E0,0E0,0E0,0E0,0E0,0E0,0E0,0E0,0E0,0E0],"parents":[2147483647,0,0,1,1,2,2,3,3,4,4,5,5,6,6,7,7,8,8,9,9,10,10,11,11,14,14],"right_children":[2,4,6,8,10,12,14,16,18,20,22,24,-1,-1,26,-1,-1,-1,-1,-1,-1,-1,-1,-1,-1,-1,-1],"split_conditions":[2.18E0,3.0769231E0,6.666667E-1,1.6666667E-1,1.6363916E0,3E0,8.3666E-1,2.05E0,9.444444E-1,1.2222222E0,1E0,1.1005049E0,3.8331028E-2,-6.8699405E-2,1.8846154E0,1.5288072E-2,4.7159266E-2,-1.0456373E-3,5.917333E-3,6.2345737E-3,-5.0623517E-2,-7.8346446E-2,-2.3992E-3,-9.5143256E-4,-1.0536842E-2,-3.252349E-2,1.3066386E-2],"split_indices":[16,24,21,9,27,22,27,16,22,6,6,27,0,0,24,0,0,0,0,0,0,0,0,0,0,0,0],"split_type":[0,0,0,0,0,0,0,0,0,0,0,0,0,0,0,0,0,0,0,0,0,0,0,0,0,0,0],"sum_hessian":[2.2826199E3,1.5464384E3,7.3618146E2,1.492994E3,5.3444294E1,7.1437225E2,2.1809206E1,3.1757538E1,1.4612365E3,4.2206356E1,1.1237935E1,7.080826E2,6.289656E0,6.938E0,1.4871206E1,2.3476028E1,8.281509E0,6.8091785E2,7.8031866E2,3.654875E1,5.6576047E0,6.0203624E0,5.217573E0,4.851934E2,2.2288919E2,5.8683586E0,9.002848E0],"tree_param":{"num_deleted":"0","num_feature":"33","num_nodes":"27","size_leaf_vector":"1"}},{"base_weights":[2.6003633E-2,2.3995799E-1,7.971422E-3,1.7694172E-1,4.717538E-2,-1.591311E-1,2.504056E-2,6.141448E-1,1.08924605E-1,5.3500507E-2,-3.2861215E-1,-8.0118604E-2,5.8657255E-2,1.6081164E-2,5.137846E-2,-9.403407E-3,1.214016E-2,-2.505086E-3,2.6638836E-2,-2.4897112E-2,4.8363428E-3,6.1864103E-3,-8.852248E-3,-7.9099E-3,3.9145476E-3],"categories":[],"categories_nodes":[],"categories_segments":[],"categories_sizes":[],"default_left":[0,0,0,0,0,0,0,0,0,0,0,0,0,0,0,0,0,0,0,0,0,0,0,0,0],"id":39,"left_children":[1,3,5,7,-1,9,11,13,15,17,19,21,23,-1,-1,-1,-1,-1,-1,-1,-1,-1,-1,-1,-1],"loss_changes":[8.7082205E0,7.502673E0,5.950581E0,4.6916795E0,0E0,7.0093713E0,6.7096825E0,2.1295233E0,5.6969876E0,4.3607683E0,7.862423E0,9.102094E0,6.1311665E0,0E0,0E0,0E0,0E0,0E0,0E0,0E0,0E0,0E0,0E0,0E0,0E0],"parents":[2147483647,0,0,1,1,2,2,3,3,5,5,6,6,7,7,8,8,9,9,10,10,11,11,12,12],"right_children":[2,4,6,8,-1,10,12,14,16,18,20,22,24,-1,-1,-1,-1,-1,-1,-1,-1,-1,-1,-1,-1],"split_conditions":[1.56E0,8.333333E-1,5E-1,4.4444445E-1,4.717538E-2,-8.3333336E-2,3.3333334E-1,2.3809524E-1,8.095238E-1,-1.904762E-1,7.1428573E-1,6.315789E-1,5.0980395E-1,1.6081164E-2,5.137846E-2,-9.403407E-3,1.214016E-2,-2.505086E-3,2.6638836E-2,-2.4897112E-2,4.8363428E-3,6.1864103E-3,-8.852248E-3,-7.9099E-3,3.9145476E-3],"split_indices":[16,29,23,29,0,25,29,25,24,25,7,22,24,0,0,0,0,0,0,0,0,0,0,0,0],"split_type":[0,0,0,0,0,0,0,0,0,0,0,0,0,0,0,0,0,0,0,0,0,0,0,0,0],"sum_hessian":[2.2630662E3,1.7451942E2,2.0885469E3,1.6145195E2,1.3067462E1,1.9225343E2,1.8962935E3,2.0457157E1,1.409948E2,8.53133E1,1.06940125E2,4.582974E2,1.437996E3,1.3163239E1,7.2939177E0,4.3451477E1,9.754333E1,7.071425E1,1.4599053E1,7.653534E1,3.0404783E1,1.4726811E2,3.110293E2,1.1837602E2,1.31962E3],"tree_param":{"num_deleted":"0","num_feature":"33","num_nodes":"25","size_leaf_vector":"1"}}]},"name":"gbtree"},"learner_model_param":{"base_score":"7.563627E-1","boost_from_average":"1","num_class":"0","num_feature":"33","num_target":"1"},"objective":{"name":"binary:logistic","reg_loss_param":{"scale_pos_weight":"1"}}},"version":[2,1,4]}