{"learner":{"attributes":{"best_iteration":"0","best_score":"0.6711544773007364","scikit_learn":"{\"_estimator_type\": \"classifier\"}"},"feature_names":["home_goals_per_game","home_goals_conceded_per_game","home_over15_rate","home_over05_rate","home_first_half_goals","away_goals_per_game","away_goals_conceded_per_game","away_over15_rate","away_over05_rate","away_first_half_goals","home_home_goals","home_home_conceded","away_away_goals","away_away_conceded","total_expected_goals","defensive_strength","over15_odds","under15_odds","home_btts_rate","away_btts_rate","home_clean_sheet_rate","away_clean_sheet_rate","home_attack_strength","away_attack_strength","attack_vs_defense_ratio","home_momentum","away_momentum","home_goals_std","away_goals_std","home_over25_rate","away_over25_rate","home_scored_in_rate","away_scored_in_rate"],"feature_types":["float","float","float","float","float","float","float","float","float","float","float","float","float","float","float","float","float","float","float","float","float","float","float","float","float","float","float","float","float","float","float","float","float"],"gradient_booster":{"model":{"gbtree_model_param":{"num_parallel_tree":"1","num_trees":"21"},"iteration_indptr":[0,1,2,3,4,5,6,7,8,9,10,11,12,13,14,15,16,17,18,19,20,21],"tree_info":[0,0,0,0,0,0,0,0,0,0,0,0,0,0,0,0,0,0,0,0,0],"trees":[{"base_weights":[1.4274035E-1,-2.9273236E-2,4.3351346E-1,1.0411719E-1,-1.9457373E-1,3.3643103E-1,5.9073675E-1,2.2854377E-3,2.3349531E-1,-3.8279414E-1,-8.638386E-2,7.142214E-2,3.7910047E-1,7.068142E-1,4.1330463E-1,-8.460322E-4,3.314512E-2,1.2811663E-2,-5.460268E-2,-9.506884E-3,-2.9240085E-2,2.653197E-3,-1.0319454E-2,7.4165906E-3,-3.5948597E-2,-2.621682E-2,1.9869793E-2,2.7307216E-2,4.245154E-2,-8.149832E-3,2.7259478E-2],"categories":[],"categories_nodes":[],"categories_segments":[],"categories_sizes":[],"default_left":[0,0,0,0,0,0,0,0,0,0,0,0,0,0,0,0,0,0,0,0,0,0,0,0,0,0,0,0,0,0,0],"id":0,"left_children":[1,3,5,7,9,11,13,15,17,19,21,23,25,27,29,-1,-1,-1,-1,-1,-1,-1,-1,-1,-1,-1,-1,-1,-1,-1,-1],"loss_changes":[1.2795537E2,3.547212E1,1.4220581E1,1.1700002E1,1.4551844E1,6.6053314E0,7.035927E0,6.412106E0,1.1995886E1,9.993641E0,7.688918E0,5.1225085E0,8.593369E0,4.346718E0,1.1194454E1,0E0,0E0,0E0,0E0,0E0,0E0,0E0,0E0,0E0,0E0,0E0,0E0,0E0,0E0,0E0,0E0],"parents":[2147483647,0,0,1,1,2,2,3,3,4,4,5,5,6,6,7,7,8,8,9,9,10,10,11,11,12,12,13,13,14,14],"right_children":[2,4,6,8,10,12,14,16,18,20,22,24,26,28,30,-1,-1,-1,-1,-1,-1,-1,-1,-1,-1,-1,-1,-1,-1,-1,-1],"split_conditions":[2.06E0,2.19E0,2.43E0,6E-1,1.1666666E0,7.5E-1,1.4444444E0,2.25E0,2.5555556E0,2.42E0,5E-1,2.1111112E0,7.1428573E-1,2.4166667E0,4.2857143E-1,-8.460322E-4,3.314512E-2,1.2811663E-2,-5.460268E-2,-9.506884E-3,-2.9240085E-2,2.653197E-3,-1.0319454E-2,7.4165906E-3,-3.5948597E-2,-2.621682E-2,1.9869793E-2,2.7307216E-2,4.245154E-2,-8.149832E-3,2.7259478E-2],"split_indices":[17,16,17,19,13,12,1,0,6,16,9,1,3,15,19,0,0,0,0,0,0,0,0,0,0,0,0,0,0,0,0],"split_type":[0,0,0,0,0,0,0,0,0,0,0,0,0,0,0,0,0,0,0,0,0,0,0,0,0,0,0,0,0,0,0],"sum_hessian":[2.5561794E3,1.6064199E3,9.497596E2,8.888894E2,7.175306E2,5.895187E2,3.602409E2,4.9839783E2,3.9049158E2,2.6063513E2,4.5689542E2,8.2451454E1,5.0706723E2,2.1562808E2,1.4461284E2,4.8511707E2,1.3280771E1,3.8477347E2,5.71811E0,1.3465227E2,1.2598287E2,2.1120116E2,2.4569427E2,7.599552E1,6.4559307E0,9.407213E0,4.9766E2,1.0384825E2,1.1177982E2,2.6745998E1,1.17866844E2],"tree_param":{"num_deleted":"0","num_feature":"33","num_nodes":"31","size_leaf_vector":"1"}},{"base_weights":[1.3441856E-1,-5.943331E-3,2.616214E-1,-1.2612768E-1,1.863272E-1,5.748698E-2,3.1653228E-1,-3.9071858E-1,-4.2109773E-2,1.16196625E-1,4.3155402E-1,2.9904544E-1,-4.305382E-2,2.6145864E-1,5.01257E-1,-2.8174922E-2,-1.6354386E-3,-6.655597E-3,1.01063E-2,1.46287745E-2,9.118622E-5,-7.4314238E-3,2.7660841E-2,-6.2325923E-3,2.0230137E-2,-2.8324623E-2,2.2553628E-4,1.3544618E-2,-3.5883665E-2,2.762608E-2,6.36419E-3],"categories":[],"categories_nodes":[],"categories_segments":[],"categories_sizes":[],"default_left":[0,0,0,0,0,0,0,0,0,0,0,0,0,0,0,0,0,0,0,0,0,0,0,0,0,0,0,0,0,0,0],"id":1,"left_children":[1,3,5,7,9,11,13,15,17,19,21,23,25,27,29,-1,-1,-1,-1,-1,-1,-1,-1,-1,-1,-1,-1,-1,-1,-1,-1],"loss_changes":[4.5675438E1,2.8118567E1,1.4982826E1,1.6596085E1,7.9410057E0,6.984296E0,1.05421295E1,1.1066412E1,1.2690411E1,7.343002E0,7.4182034E0,3.8563118E0,5.1010427E0,7.691227E0,4.485153E0,0E0,0E0,0E0,0E0,0E0,0E0,0E0,0E0,0E0,0E0,0E0,0E0,0E0,0E0,0E0,0E0],"parents":[2147483647,0,0,1,1,2,2,3,3,4,4,5,5,6,6,7,7,8,8,9,9,10,10,11,11,12,12,13,13,14,14],"right_children":[2,4,6,8,10,12,14,16,18,20,22,24,26,28,30,-1,-1,-1,-1,-1,-1,-1,-1,-1,-1,-1,-1,-1,-1,-1,-1],"split_conditions":[7.1428573E-1,1.375E0,6.25E-1,5.555556E-1,2.1E0,5.555556E-1,2.1666667E0,2.4166667E0,1.6E0,1.2727273E0,2.2E0,1.4166666E0,4.2857143E-1,2.1317704E0,1.884058E0,-2.8174922E-2,-1.6354386E-3,-6.655597E-3,1.01063E-2,1.46287745E-2,9.118622E-5,-7.4314238E-3,2.7660841E-2,-6.2325923E-3,2.0230137E-2,-2.8324623E-2,2.2553628E-4,1.3544618E-2,-3.5883665E-2,2.762608E-2,6.36419E-3],"split_indices":[7,0,2,7,0,31,10,15,11,22,10,14,2,28,24,0,0,0,0,0,0,0,0,0,0,0,0,0,0,0,0],"split_type":[0,0,0,0,0,0,0,0,0,0,0,0,0,0,0,0,0,0,0,0,0,0,0,0,0,0,0,0,0,0,0],"sum_hessian":[2.555694E3,1.2150807E3,1.3406133E3,7.482372E2,4.6684354E2,2.8499536E2,1.0556179E3,1.7916536E2,5.6907184E2,3.6448795E2,1.02355576E2,8.347038E1,2.0152498E2,8.154555E2,2.4016248E2,1.2026886E2,5.8896496E1,4.1522397E2,1.5384789E2,1.4242163E2,2.2206631E2,1.7562132E1,8.479344E1,1.6422745E1,6.704764E1,1.6053354E1,1.8547163E2,8.0849133E2,6.9641786E0,2.1055463E2,2.960785E1],"tree_param":{"num_deleted":"0","num_feature":"33","num_nodes":"31","size_leaf_vector":"1"}},{"base_weights":[1.2105925E-1,3.3888358E-1,-8.4061965E-2,2.2800495E-1,4.9173266E-1,-1.9659664E-1,6.3917376E-2,2.4050339E-1,-3.623551E-2,5.224535E-1,-1.5683532E-2,-4.7624967E-1,-1.359073E-1,7.719858E-2,-4.9260758E-2,2.4568187E-2,1.0164156E-2,3.6915045E-2,2.2736717E-2,-2.3500476E-2,1.193917E-2,1.9814877E-2,-2.7648514E-2,-7.581585E-3,2.9906292E-2,-5.024253E-3,8.225117E-3],"categories":[],"categories_nodes":[],"categories_segments":[],"categories_sizes":[],"default_left":[0,0,0,0,0,0,0,0,0,0,0,0,0,0,0,0,0,0,0,0,0,0,0,0,0,0,0],"id":2,"left_children":[1,3,5,7,9,11,13,15,-1,17,19,21,23,25,-1,-1,-1,-1,-1,-1,-1,-1,-1,-1,-1,-1,-1],"loss_changes":[1.1339266E2,2.0672913E1,2.1790817E1,8.64571E0,8.104973E0,1.2484802E1,7.8571453E0,6.4328423E0,0E0,6.6621704E0,3.6327572E0,9.058052E0,7.1125517E0,8.693006E0,0E0,0E0,0E0,0E0,0E0,0E0,0E0,0E0,0E0,0E0,0E0,0E0,0E0],"parents":[2147483647,0,0,1,1,2,2,3,3,4,4,5,5,6,6,7,7,9,9,10,10,11,11,12,12,13,13],"right_children":[2,4,6,8,10,12,14,16,-1,18,20,22,24,26,-1,-1,-1,-1,-1,-1,-1,-1,-1,-1,-1,-1,-1],"split_conditions":[1.96E0,2.29E0,1.74E0,4.1538463E0,2.5641026E0,1.65E0,3.4285715E0,-6.25E-1,-3.623551E-2,5E-1,2.05E0,1.1111111E-1,3.03E0,6.666667E-1,-4.9260758E-2,2.4568187E-2,1.0164156E-2,3.6915045E-2,2.2736717E-2,-2.3500476E-2,1.193917E-2,1.9814877E-2,-2.7648514E-2,-7.581585E-3,2.9906292E-2,-5.024253E-3,8.225117E-3],"split_indices":[16,17,17,24,24,15,23,25,0,18,15,30,16,32,0,0,0,0,0,0,0,0,0,0,0,0,0],"split_type":[0,0,0,0,0,0,0,0,0,0,0,0,0,0,0,0,0,0,0,0,0,0,0,0,0,0,0],"sum_hessian":[2.535654E3,1.2296681E3,1.3059858E3,7.145039E2,5.151642E2,7.4203424E2,5.6395166E2,7.060933E2,8.410546E0,4.859127E2,2.9251501E1,1.3080359E2,6.1123065E2,5.579107E2,6.0409822E0,8.930434E1,6.16789E2,1.1332446E2,3.7258823E2,1.0338699E1,1.8912802E1,1.0129654E1,1.20673935E2,5.9932166E2,1.1908959E1,1.8338426E2,3.7452643E2],"tree_param":{"num_deleted":"0","num_feature":"33","num_nodes":"27","size_leaf_vector":"1"}},{"base_weights":[1.2958886E-1,3.1548288E-1,-8.09402E-2,2.3981486E-1,5.8903927E-1,-3.3728352E-1,-1.9037243E-2,2.4786639E-1,-5.8461327E-2,6.1112857E-1,-2.656949E-2,2.858531E-1,-4.1918516E-1,1.528474E-1,-6.962451E-2,-1.8387813E-2,1.3045564E-2,1.7095396E-2,3.333745E-2,3.1888016E-2,-1.7537829E-2,-2.3607178E-2,4.754085E-3,-4.8980232E-2,9.269933E-3,-1.3310293E-2,-6.5214274E-4],"categories":[],"categories_nodes":[],"categories_segments":[],"categories_sizes":[],"default_left":[0,0,0,0,0,0,0,0,0,0,0,0,0,0,0,0,0,0,0,0,0,0,0,0,0,0,0],"id":3,"left_children":[1,3,5,7,9,11,13,15,-1,17,-1,19,21,23,25,-1,-1,-1,-1,-1,-1,-1,-1,-1,-1,-1,-1],"loss_changes":[9.942368E1,2.7698563E1,1.886119E1,1.2207966E1,7.5425415E0,1.1939774E1,8.357608E0,8.545845E0,0E0,3.9572525E0,0E0,6.374296E0,5.666069E0,8.151632E0,8.2390175E0,0E0,0E0,0E0,0E0,0E0,0E0,0E0,0E0,0E0,0E0,0E0,0E0],"parents":[2147483647,0,0,1,1,2,2,3,3,4,4,5,5,6,6,7,7,9,9,11,11,12,12,13,13,14,14],"right_children":[2,4,6,8,10,12,14,16,-1,18,-1,20,22,24,26,-1,-1,-1,-1,-1,-1,-1,-1,-1,-1,-1,-1],"split_conditions":[2.01E0,2.5E0,1.57E0,5E0,3.7142856E0,1.6666667E-1,6.363636E-1,5.2704626E-1,-5.8461327E-2,9.486833E-1,-2.656949E-2,8.75E-1,3.02E0,4.830459E-1,3.3333334E-1,-1.8387813E-2,1.3045564E-2,1.7095396E-2,3.333745E-2,3.1888016E-2,-1.7537829E-2,-2.3607178E-2,4.754085E-3,-4.8980232E-2,9.269933E-3,-1.3310293E-2,-6.5214274E-4],"split_indices":[16,17,17,22,22,21,22,28,0,27,0,7,16,27,29,0,0,0,0,0,0,0,0,0,0,0,0],"split_type":[0,0,0,0,0,0,0,0,0,0,0,0,0,0,0,0,0,0,0,0,0,0,0,0,0,0,0],"sum_hessian":[2.5382083E3,1.3479579E3,1.1902502E3,1.0576462E3,2.903117E2,2.3033932E2,9.5991095E2,1.052527E3,5.1192827E0,2.8523215E2,5.079557E0,2.6326536E1,2.0401279E2,2.1736232E2,7.4254865E2,2.1116707E1,1.0314103E3,5.037006E1,2.3486208E2,1.7054415E1,9.272122E0,1.852159E2,1.879688E1,5.1745486E0,2.1218777E2,1.647358E2,5.778128E2],"tree_param":{"num_deleted":"0","num_feature":"33","num_nodes":"27","size_leaf_vector":"1"}},{"base_weights":[1.19995676E-1,3.1255966E-1,-6.03575E-2,1.955732E-1,4.560096E-1,-2.8978297E-1,1.7417857E-2,1.6503221E-1,6.1181694E-1,6.1690375E-2,4.8979214E-1,3.975572E-2,-3.106335E-1,-6.742956E-5,5.298579E-1,8.742646E-3,-3.637954E-2,-1.6078882E-2,3.808116E-2,1.3827026E-2,-3.4697246E-2,2.7058056E-2,1.0084144E-2,-1.8246416E-2,6.095877E-3,-3.684127E-2,4.966003E-4,-6.55471E-3,4.2308416E-2],"categories":[],"categories_nodes":[],"categories_segments":[],"categories_sizes":[],"default_left":[0,0,0,0,0,0,0,0,0,0,0,0,0,0,0,0,0,0,0,0,0,0,0,0,0,0,0,0,0],"id":4,"left_children":[1,3,5,7,9,11,13,15,17,19,21,-1,23,25,27,-1,-1,-1,-1,-1,-1,-1,-1,-1,-1,-1,-1,-1,-1],"loss_changes":[8.7511215E1,2.0293457E1,2.324803E1,8.380274E0,7.190483E0,7.658369E0,8.764858E0,5.584482E0,6.641279E0,7.371223E0,7.25663E0,0E0,7.686695E0,7.012629E0,6.9290314E0,0E0,0E0,0E0,0E0,0E0,0E0,0E0,0E0,0E0,0E0,0E0,0E0,0E0,0E0],"parents":[2147483647,0,0,1,1,2,2,3,3,4,4,5,5,6,6,7,7,8,8,9,9,10,10,12,12,13,13,14,14],"right_children":[2,4,6,8,10,12,14,16,18,20,22,-1,24,26,28,-1,-1,-1,-1,-1,-1,-1,-1,-1,-1,-1,-1,-1,-1],"split_conditions":[1.96E0,2.26E0,1.61E0,2.2E0,8E-1,5.163978E-1,2.4E0,3.7142856E0,1.72E0,2.8125E0,1.5811388E0,3.975572E-2,7E-1,-1.0952381E0,9.5238096E-1,8.742646E-3,-3.637954E-2,-1.6078882E-2,3.808116E-2,1.3827026E-2,-3.4697246E-2,2.7058056E-2,1.0084144E-2,-1.8246416E-2,6.095877E-3,-3.684127E-2,4.966003E-4,-6.55471E-3,4.2308416E-2],"split_indices":[16,17,17,0,6,28,11,22,16,24,28,0,18,26,24,0,0,0,0,0,0,0,0,0,0,0,0,0,0],"split_type":[0,0,0,0,0,0,0,0,0,0,0,0,0,0,0,0,0,0,0,0,0,0,0,0,0,0,0,0,0],"sum_hessian":[2.5175234E3,1.2174584E3,1.3000651E3,6.7226904E2,5.4518933E2,3.2877847E2,9.712866E2,6.278394E2,4.442965E1,4.34788E1,5.017105E2,5.408963E0,3.233695E2,9.400164E2,3.1270164E1,6.219132E2,5.926206E0,5.893707E0,3.8535942E1,3.444999E1,9.028813E0,4.24753E2,7.6957504E1,2.8765048E2,3.571902E1,1.17478695E1,9.2826855E2,1.0208411E1,2.1061754E1],"tree_param":{"num_deleted":"0","num_feature":"33","num_nodes":"29","size_leaf_vector":"1"}},{"base_weights":[1.2736274E-1,-2.2066459E-2,3.892256E-1,-3.012884E-1,2.5353689E-2,3.1129035E-1,5.658657E-1,-9.148672E-2,-5.0922334E-1,7.886288E-2,-9.647611E-2,3.2255685E-1,-3.8938906E-2,6.472685E-1,2.4881099E-1,-1.9400606E-2,1.6546687E-2,-3.1541362E-2,-3.1782165E-3,-2.7891626E-3,8.062965E-3,5.964385E-3,-1.1237587E-2,-1.7397214E-2,1.6797742E-2,3.7159543E-2,1.647919E-2,-2.5050467E-2,2.044308E-2],"categories":[],"categories_nodes":[],"categories_segments":[],"categories_sizes":[],"default_left":[0,0,0,0,0,0,0,0,0,0,0,0,0,0,0,0,0,0,0,0,0,0,0,0,0,0,0,0,0],"id":5,"left_children":[1,3,5,7,9,11,13,15,17,19,21,23,-1,25,27,-1,-1,-1,-1,-1,-1,-1,-1,-1,-1,-1,-1,-1,-1],"loss_changes":[9.9007996E1,2.1365078E1,1.2389633E1,1.0112488E1,8.986934E0,8.070255E0,6.9700165E0,1.4922068E1,6.2414207E0,1.0651966E1,1.16704445E1,5.816765E0,0E0,6.404907E0,7.279936E0,0E0,0E0,0E0,0E0,0E0,0E0,0E0,0E0,0E0,0E0,0E0,0E0,0E0,0E0],"parents":[2147483647,0,0,1,1,2,2,3,3,4,4,5,5,6,6,7,7,8,8,9,9,10,10,11,11,13,13,14,14],"right_children":[2,4,6,8,10,12,14,16,18,20,22,24,-1,26,28,-1,-1,-1,-1,-1,-1,-1,-1,-1,-1,-1,-1,-1,-1],"split_conditions":[2.06E0,1.57E0,2.5E0,4.4444445E-1,2.6666668E-1,4.2E0,1.1E0,4E-1,1.4E0,1.74E0,8.3916086E-1,5.2704626E-1,-3.8938906E-2,1.6666666E0,8.333333E-1,-1.9400606E-2,1.6546687E-2,-3.1541362E-2,-3.1782165E-3,-2.7891626E-3,8.062965E-3,5.964385E-3,-1.1237587E-2,-1.7397214E-2,1.6797742E-2,3.7159543E-2,1.647919E-2,-2.5050467E-2,2.044308E-2],"split_indices":[17,17,17,9,25,22,9,30,24,17,24,28,0,24,32,0,0,0,0,0,0,0,0,0,0,0,0,0,0],"split_type":[0,0,0,0,0,0,0,0,0,0,0,0,0,0,0,0,0,0,0,0,0,0,0,0,0,0,0,0,0],"sum_hessian":[2.5280771E3,1.6099248E3,9.181522E2,2.3324919E2,1.3766755E3,6.393801E2,2.787721E2,1.1705961E2,1.1618959E2,9.573631E2,4.193125E2,6.336271E2,5.7530823E0,2.2074074E2,5.803137E1,6.896595E1,4.809366E1,9.0779366E1,2.5410227E1,3.6310806E2,5.94255E2,1.5607677E2,2.6323575E2,1.17777E1,6.2184937E2,1.6827673E2,5.2463997E1,9.723354E0,4.8308014E1],"tree_param":{"num_deleted":"0","num_feature":"33","num_nodes":"29","size_leaf_vector":"1"}},{"base_weights":[1.1633232E-1,-2.5837127E-2,3.6845315E-1,-1.4802934E-1,7.629558E-2,3.5330424E-1,8.719512E-1,-3.2984105E-1,-4.515046E-2,2.4704602E-1,2.2667928E-2,-2.935993E-1,3.634584E-1,5.4313004E-2,1.47700785E-2,-5.794346E-2,-1.4345895E-2,1.4865075E-2,-5.9974496E-3,3.7118323E-2,9.63835E-3,1.7414531E-3,-3.4585115E-2,-4.3758254E-2,2.8890843E-2,4.0652053E-3,1.9383613E-2],"categories":[],"categories_nodes":[],"categories_segments":[],"categories_sizes":[],"default_left":[0,0,0,0,0,0,0,0,0,0,0,0,0,0,0,0,0,0,0,0,0,0,0,0,0,0,0],"id":6,"left_children":[1,3,5,7,9,11,13,15,17,19,21,23,25,-1,-1,-1,-1,-1,-1,-1,-1,-1,-1,-1,-1,-1,-1],"loss_changes":[8.945E1,1.9931578E1,6.4318085E0,1.3550637E1,7.928185E0,5.863304E0,2.6799698E0,8.856714E0,1.1953369E1,5.335059E0,5.7193866E0,7.593811E0,5.813301E0,0E0,0E0,0E0,0E0,0E0,0E0,0E0,0E0,0E0,0E0,0E0,0E0,0E0,0E0],"parents":[2147483647,0,0,1,1,2,2,3,3,4,4,5,5,6,6,7,7,8,8,9,9,10,10,11,11,12,12],"right_children":[2,4,6,8,10,12,14,16,18,20,22,24,26,-1,-1,-1,-1,-1,-1,-1,-1,-1,-1,-1,-1,-1,-1],"split_conditions":[2.06E0,1.73E0,2.857143E0,1.1666666E0,2E-1,1.05E0,2E0,1.1111111E-1,8E-1,4E-1,4.1538463E0,2.1666667E0,4.3636364E-1,5.4313004E-2,1.47700785E-2,-5.794346E-2,-1.4345895E-2,1.4865075E-2,-5.9974496E-3,3.7118323E-2,9.63835E-3,1.7414531E-3,-3.4585115E-2,-4.3758254E-2,2.8890843E-2,4.0652053E-3,1.9383613E-2],"split_indices":[17,17,0,13,21,15,24,9,10,30,24,10,24,0,0,0,0,0,0,0,0,0,0,0,0,0,0],"split_type":[0,0,0,0,0,0,0,0,0,0,0,0,0,0,0,0,0,0,0,0,0,0,0,0,0,0,0],"sum_hessian":[2.493323E3,1.5946245E3,8.986985E2,7.262565E2,8.683681E2,8.7429364E2,2.4404858E1,2.6129944E2,4.64957E2,2.0623724E2,6.6213086E2,1.2927759E1,8.613659E2,1.7020618E1,7.38424E0,1.1468359E1,2.4983109E2,8.257773E1,3.8237927E2,1.8934273E1,1.8730298E2,6.5212067E2,1.0010195E1,7.819581E0,5.108178E0,6.8749E1,7.926169E2],"tree_param":{"num_deleted":"0","num_feature":"33","num_nodes":"27","size_leaf_vector":"1"}},{"base_weights":[1.07917644E-1,2.0791785E-1,-1.3416854E-1,3.792641E-1,1.3584164E-1,-7.680657E-2,-3.4059495E-1,4.570746E-2,4.2760998E-1,1.1576928E-1,7.0875984E-1,3.7192258E-1,-1.20912276E-1,-4.818753E-1,1.1909774E-1,9.807014E-3,-3.169067E-2,2.2611579E-2,-8.2722735E-3,-4.359117E-3,7.668982E-3,4.1312736E-2,2.8926302E-3,3.6424052E-2,4.761391E-3,-9.229217E-3,5.5075097E-3,-2.0786893E-2,-8.304497E-2,1.5660316E-2,-2.4384145E-2],"categories":[],"categories_nodes":[],"categories_segments":[],"categories_sizes":[],"default_left":[0,0,0,0,0,0,0,0,0,0,0,0,0,0,0,0,0,0,0,0,0,0,0,0,0,0,0,0,0,0,0],"id":7,"left_children":[1,3,5,7,9,11,13,15,17,19,21,23,25,27,29,-1,-1,-1,-1,-1,-1,-1,-1,-1,-1,-1,-1,-1,-1,-1,-1],"loss_changes":[6.0645912E1,2.1786995E1,8.602108E0,8.380821E0,1.4205923E1,1.139308E1,1.0390793E1,7.000703E0,6.778862E0,9.245996E0,3.0709057E0,4.926193E0,7.739636E0,8.587181E0,4.600194E0,0E0,0E0,0E0,0E0,0E0,0E0,0E0,0E0,0E0,0E0,0E0,0E0,0E0,0E0,0E0,0E0],"parents":[2147483647,0,0,1,1,2,2,3,3,4,4,5,5,6,6,7,7,8,8,9,9,10,10,11,11,12,12,13,13,14,14],"right_children":[2,4,6,8,10,12,14,16,18,20,22,24,26,28,30,-1,-1,-1,-1,-1,-1,-1,-1,-1,-1,-1,-1,-1,-1,-1,-1],"split_conditions":[2.19E0,1.69E0,2.59E0,8.333333E-1,2.2857144E0,6.666667E-1,7.1428573E-1,2.8125E0,4.7E0,8.888889E-1,1.4907119E0,1.375E0,1.6E0,8.095238E-1,5.714286E-1,9.807014E-3,-3.169067E-2,2.2611579E-2,-8.2722735E-3,-4.359117E-3,7.668982E-3,4.1312736E-2,2.8926302E-3,3.6424052E-2,4.761391E-3,-9.229217E-3,5.5075097E-3,-2.0786893E-2,-8.304497E-2,1.5660316E-2,-2.4384145E-2],"split_indices":[16,16,16,6,0,0,7,24,15,8,28,1,11,25,18,0,0,0,0,0,0,0,0,0,0,0,0,0,0,0,0],"split_type":[0,0,0,0,0,0,0,0,0,0,0,0,0,0,0,0,0,0,0,0,0,0,0,0,0,0,0,0,0,0,0],"sum_hessian":[2.502675E3,1.7714741E3,7.3120087E2,5.2285223E2,1.248622E3,5.7365076E2,1.5755011E2,6.669716E1,4.5615506E2,1.2076869E3,4.093506E1,5.047016E1,5.2318054E2,1.2064177E2,3.6908348E1,5.5310905E1,1.1386251E1,4.3836188E2,1.7793167E1,1.8819247E2,1.0194944E3,3.4317425E1,6.6176357E0,2.1181168E1,2.9288994E1,4.1065387E2,1.125267E2,1.1559489E2,5.0468793E0,2.8454428E1,8.453919E0],"tree_param":{"num_deleted":"0","num_feature":"33","num_nodes":"31","size_leaf_vector":"1"}},{"base_weights":[9.385776E-2,2.6728708E-1,-6.1337393E-2,4.2500383E-1,2.1435681E-1,-2.3570952E-1,1.1199047E-2,4.6885157E-1,-4.5930424E-1,-3.2568845E-1,2.2570986E-1,-4.2527536E-1,-1.0396542E-1,-0E0,8.5660064E-1,2.920546E-2,1.4467681E-2,-4.8061095E-2,4.0593245E-3,-5.071028E-2,3.8814638E-3,-2.5601864E-3,1.2322362E-2,5.3906026E-3,-2.5773827E-2,-7.2525903E-3,2.2198495E-2,-1.0874777E-2,1.4800789E-3,5.4334838E-2,2.411132E-2],"categories":[],"categories_nodes":[],"categories_segments":[],"categories_sizes":[],"default_left":[0,0,0,0,0,0,0,0,0,0,0,0,0,0,0,0,0,0,0,0,0,0,0,0,0,0,0,0,0,0,0],"id":8,"left_children":[1,3,5,7,9,11,13,15,17,19,21,23,25,27,29,-1,-1,-1,-1,-1,-1,-1,-1,-1,-1,-1,-1,-1,-1,-1,-1],"loss_changes":[6.711449E1,9.674141E0,1.6666883E1,1.1630329E1,5.4838486E0,9.567465E0,8.742212E0,5.558403E0,4.046401E0,5.290368E0,5.0087624E0,7.695566E0,5.2112246E0,5.907816E0,3.590765E-1,0E0,0E0,0E0,0E0,0E0,0E0,0E0,0E0,0E0,0E0,0E0,0E0,0E0,0E0,0E0,0E0],"parents":[2147483647,0,0,1,1,2,2,3,3,4,4,5,5,6,6,7,7,8,8,9,9,10,10,11,11,12,12,13,13,14,14],"right_children":[2,4,6,8,10,12,14,16,18,20,22,24,26,28,30,-1,-1,-1,-1,-1,-1,-1,-1,-1,-1,-1,-1,-1,-1,-1,-1],"split_conditions":[1.96E0,1.59E0,1.63E0,3E0,5.2704626E-1,2.05E0,2.25E0,1.4285715E0,1.25E0,-4.761905E-2,1.6666666E0,-4.7619048E-1,2.91E0,1.65E0,4.2857143E-1,2.920546E-2,1.4467681E-2,-4.8061095E-2,4.0593245E-3,-5.071028E-2,3.8814638E-3,-2.5601864E-3,1.2322362E-2,5.3906026E-3,-2.5773827E-2,-7.2525903E-3,2.2198495E-2,-1.0874777E-2,1.4800789E-3,5.4334838E-2,2.411132E-2],"split_indices":[16,16,17,24,28,15,0,1,11,26,14,25,16,15,30,0,0,0,0,0,0,0,0,0,0,0,0,0,0,0,0],"split_type":[0,0,0,0,0,0,0,0,0,0,0,0,0,0,0,0,0,0,0,0,0,0,0,0,0,0,0,0,0,0,0],"sum_hessian":[2.4911616E3,1.1764313E3,1.3147302E3,2.9336627E2,8.83065E2,3.859837E2,9.287465E2,2.8006247E2,1.3303794E1,1.7430468E1,8.656346E2,1.5703699E2,2.2894672E2,9.176734E2,1.107311E1,1.6883829E2,1.1122418E2,6.59036E0,6.7134337E0,5.970801E0,1.1459667E1,5.987056E1,8.05764E2,2.2537413E1,1.3449957E2,2.1383061E2,1.5116099E1,1.0888936E2,8.0878406E2,5.5141907E0,5.558919E0],"tree_param":{"num_deleted":"0","num_feature":"33","num_nodes":"31","size_leaf_vector":"1"}},{"base_weights":[8.0829225E-2,-3.5263643E-2,3.1044424E-1,6.961674E-2,-1.7344032E-1,2.4587391E-1,4.463454E-1,4.7237106E-2,7.2199863E-1,-5.6599338E-2,-2.6943132E-1,5.2804936E-2,3.0470935E-1,5.661453E-1,1.6971593E-1,4.1082404E-3,-1.0531972E-2,8.1239175E-3,4.294291E-2,9.890607E-3,-8.39495E-3,-9.727953E-3,-3.6105637E-2,5.5264686E-3,-5.5648703E-2,1.6205491E-2,-6.278738E-3,3.750346E-2,1.5273416E-2,2.6946072E-3,4.7200065E-2],"categories":[],"categories_nodes":[],"categories_segments":[],"categories_sizes":[],"default_left":[0,0,0,0,0,0,0,0,0,0,0,0,0,0,0,0,0,0,0,0,0,0,0,0,0,0,0,0,0,0,0],"id":9,"left_children":[1,3,5,7,9,11,13,15,17,19,21,23,25,27,29,-1,-1,-1,-1,-1,-1,-1,-1,-1,-1,-1,-1,-1,-1,-1,-1],"loss_changes":[6.6108315E1,2.3888374E1,7.1282883E0,1.3562186E1,7.9300175E0,6.39151E0,8.661751E0,8.170906E0,2.1201458E0,9.163547E0,1.2978186E1,9.046252E0,3.6846313E0,8.548264E0,7.2221575E0,0E0,0E0,0E0,0E0,0E0,0E0,0E0,0E0,0E0,0E0,0E0,0E0,0E0,0E0,0E0,0E0],"parents":[2147483647,0,0,1,1,2,2,3,3,4,4,5,5,6,6,7,7,8,8,9,9,10,10,11,11,12,12,13,13,14,14],"right_children":[2,4,6,8,10,12,14,16,18,20,22,24,26,28,30,-1,-1,-1,-1,-1,-1,-1,-1,-1,-1,-1,-1,-1,-1,-1,-1],"split_conditions":[2.08E0,2.2E0,2.5E0,2.2E0,4.2857143E-1,4.2857143E-1,1.3888888E0,8.333333E-1,8.333333E-1,6.875E-1,2.67E0,8.888889E-1,4.8E0,8.333333E-1,2.857143E0,4.1082404E-3,-1.0531972E-2,8.1239175E-3,4.294291E-2,9.890607E-3,-8.39495E-3,-9.727953E-3,-3.6105637E-2,5.5264686E-3,-5.5648703E-2,1.6205491E-2,-6.278738E-3,3.750346E-2,1.5273416E-2,2.6946072E-3,4.7200065E-2],"split_indices":[17,16,17,0,9,29,24,4,4,22,16,19,15,9,0,0,0,0,0,0,0,0,0,0,0,0,0,0,0,0,0],"split_type":[0,0,0,0,0,0,0,0,0,0,0,0,0,0,0,0,0,0,0,0,0,0,0,0,0,0,0,0,0,0,0],"sum_hessian":[2.477549E3,1.6458312E3,8.3171783E2,9.3551715E2,7.10314E2,5.6623114E2,2.654867E2,9.0567413E2,2.9843006E1,3.21551E2,3.8876303E2,1.3309055E2,4.3314062E2,1.8427475E2,8.1211945E1,7.985807E2,1.07093414E2,6.438497E0,2.3404509E1,9.7350075E1,2.2420091E2,3.3500482E2,5.3758186E1,1.277556E2,5.3349476E0,4.1491238E2,1.8228247E1,1.0671774E2,7.7557014E1,7.168716E1,9.524784E0],"tree_param":{"num_deleted":"0","num_feature":"33","num_nodes":"31","size_leaf_vector":"1"}},{"base_weights":[9.202967E-2,2.5794578E-1,-5.2389104E-2,2.0345303E-1,4.5137838E-1,6.399499E-2,-1.4495184E-1,-3.9887902E-1,2.2032528E-1,3.913771E-1,9.362191E-1,-4.437623E-1,8.9425236E-2,-1.8698034E-1,1.2130117E-1,-4.4365518E-2,9.337859E-3,1.15135E-2,-3.9998855E-2,2.465293E-2,9.928565E-3,5.215549E-2,2.2130387E-2,-5.15624E-2,7.0402618E-3,5.8172843E-3,-1.0769035E-2,1.181542E-3,-1.1886361E-2,-4.5442763E-3,1.9973349E-2],"categories":[],"categories_nodes":[],"categories_segments":[],"categories_sizes":[],"default_left":[0,0,0,0,0,0,0,0,0,0,0,0,0,0,0,0,0,0,0,0,0,0,0,0,0,0,0,0,0,0,0],"id":10,"left_children":[1,3,5,7,9,11,13,15,17,19,21,23,25,27,29,-1,-1,-1,-1,-1,-1,-1,-1,-1,-1,-1,-1,-1,-1,-1,-1],"loss_changes":[5.9160645E1,1.1951935E1,1.4234955E1,9.20155E0,6.8108063E0,7.5562673E0,8.264101E0,7.294679E0,9.004066E0,4.2539787E0,8.022175E-1,9.807289E0,4.593752E0,6.8275967E0,6.005371E0,0E0,0E0,0E0,0E0,0E0,0E0,0E0,0E0,0E0,0E0,0E0,0E0,0E0,0E0,0E0,0E0],"parents":[2147483647,0,0,1,1,2,2,3,3,4,4,5,5,6,6,7,7,8,8,9,9,10,10,11,11,12,12,13,13,14,14],"right_children":[2,4,6,8,10,12,14,16,18,20,22,24,26,28,30,-1,-1,-1,-1,-1,-1,-1,-1,-1,-1,-1,-1,-1,-1,-1,-1],"split_conditions":[1.96E0,2.5E0,2.19E0,5.477226E-1,2.1111112E0,2.2222222E-1,7E-1,6.25E-1,4.2E0,1.35E0,3.8333333E0,1.25E0,1.8333334E0,8E-1,7.619048E-1,-4.4365518E-2,9.337859E-3,1.15135E-2,-3.9998855E-2,2.465293E-2,9.928565E-3,5.215549E-2,2.2130387E-2,-5.15624E-2,7.0402618E-3,5.8172843E-3,-1.0769035E-2,1.181542E-3,-1.1886361E-2,-4.5442763E-3,1.9973349E-2],"split_indices":[16,17,16,28,6,19,18,4,22,24,14,10,12,10,23,0,0,0,0,0,0,0,0,0,0,0,0,0,0,0,0],"split_type":[0,0,0,0,0,0,0,0,0,0,0,0,0,0,0,0,0,0,0,0,0,0,0,0,0,0,0,0,0,0,0],"sum_hessian":[2.466576E3,1.1478127E3,1.3187631E3,8.975335E2,2.5027928E2,5.8386566E2,7.348974E2,2.36778E1,8.738557E2,2.2450877E2,2.577051E1,2.6875196E1,5.569905E2,6.352892E2,9.960822E1,1.2722573E1,1.0955225E1,8.662845E2,7.571211E0,1.4563052E2,7.887824E1,2.0101711E1,5.6687994E0,1.3108353E1,1.3766843E1,5.126589E2,4.4331623E1,1.23072754E2,5.1221643E2,5.668347E1,4.292475E1],"tree_param":{"num_deleted":"0","num_feature":"33","num_nodes":"31","size_leaf_vector":"1"}},{"base_weights":[1.0213161E-1,-5.7063554E-3,3.020069E-1,-2.5003585E-1,2.442917E-2,1.890856E-1,3.618847E-1,-1.4597756E-1,-6.8677074E-1,4.2180768E-1,1.1594042E-2,3.9090145E-1,4.2836986E-2,3.8695458E-1,-1.0447633E-1,-1.4774537E-3,-2.7381018E-2,-1.5758557E-2,-5.8877077E-2,-1.2718684E-2,2.7682498E-2,6.7124153E-3,-1.6577438E-3,2.3669947E-2,-2.7747238E-2,-1.3403817E-3,3.9100435E-2,2.9603795E-3,2.1224352E-2,-2.7261237E-2,3.7326206E-2],"categories":[],"categories_nodes":[],"categories_segments":[],"categories_sizes":[],"default_left":[0,0,0,0,0,0,0,0,0,0,0,0,0,0,0,0,0,0,0,0,0,0,0,0,0,0,0,0,0,0,0],"id":11,"left_children":[1,3,5,7,9,11,13,15,17,19,21,23,25,27,29,-1,-1,-1,-1,-1,-1,-1,-1,-1,-1,-1,-1,-1,-1,-1,-1],"loss_changes":[5.29191E1,1.1768739E1,5.6930084E0,7.793212E0,7.1940722E0,8.81699E0,6.6216354E0,6.6226587E0,5.555937E0,4.1072865E0,7.571275E0,1.0083464E1,9.146542E0,6.474495E0,1.1330311E1,0E0,0E0,0E0,0E0,0E0,0E0,0E0,0E0,0E0,0E0,0E0,0E0,0E0,0E0,0E0,0E0],"parents":[2147483647,0,0,1,1,2,2,3,3,4,4,5,5,6,6,7,7,8,8,9,9,10,10,11,11,12,12,13,13,14,14],"right_children":[2,4,6,8,10,12,14,16,18,20,22,24,26,28,30,-1,-1,-1,-1,-1,-1,-1,-1,-1,-1,-1,-1,-1,-1,-1,-1],"split_conditions":[2.06E0,1.54E0,1.0540925E0,1.5E0,-8.666667E-1,8.4327406E-1,1.8287822E0,1.6E0,1.4285715E-1,7.5592893E-1,-3E-1,4.4444445E-1,4.2857143E-1,8.5714287E-1,1.4757296E0,-1.4774537E-3,-2.7381018E-2,-1.5758557E-2,-5.8877077E-2,-1.2718684E-2,2.7682498E-2,6.7124153E-3,-1.6577438E-3,2.3669947E-2,-2.7747238E-2,-1.3403817E-3,3.9100435E-2,2.9603795E-3,2.1224352E-2,-2.7261237E-2,3.7326206E-2],"split_indices":[17,17,27,1,25,27,28,10,25,28,26,20,20,8,27,0,0,0,0,0,0,0,0,0,0,0,0,0,0,0,0],"split_type":[0,0,0,0,0,0,0,0,0,0,0,0,0,0,0,0,0,0,0,0,0,0,0,0,0,0,0,0,0,0,0],"sum_hessian":[2.4527158E3,1.5934688E3,8.592471E2,1.7452176E2,1.4189469E3,2.9976312E2,5.5948395E2,1.4220308E2,3.2318684E1,4.3156525E1,1.3757904E3,1.24963326E2,1.747998E2,5.313075E2,2.8176449E1,1.1127046E2,3.0932611E1,1.944293E1,1.2875752E1,6.766293E0,3.639023E1,3.6782834E2,1.0079621E3,1.1549498E2,9.468344E0,1.6050545E2,1.4294347E1,5.5130417E1,4.7617706E2,1.8876694E1,9.299756E0],"tree_param":{"num_deleted":"0","num_feature":"33","num_nodes":"31","size_leaf_vector":"1"}},{"base_weights":[8.048679E-2,-2.1612383E-2,2.8925872E-1,-1.3263154E-1,6.868404E-2,2.271511E-1,4.2294976E-1,9.653766E-2,-1.7623019E-1,5.312999E-2,6.990361E-1,2.546036E-1,-2.2724728E-1,5.050203E-1,1.1699539E-1,-7.171673E-3,2.0839356E-2,-1.7769812E-2,-5.4835915E-3,-6.8617812E-3,4.090875E-3,-0E0,4.6890296E-2,3.0658145E-2,1.0977891E-2,1.5397417E-2,-3.279365E-2,3.022459E-2,1.2235233E-2,-3.6128983E-2,1.1912331E-2],"categories":[],"categories_nodes":[],"categories_segments":[],"categories_sizes":[],"default_left":[0,0,0,0,0,0,0,0,0,0,0,0,0,0,0,0,0,0,0,0,0,0,0,0,0,0,0,0,0,0,0],"id":12,"left_children":[1,3,5,7,9,11,13,15,17,19,21,23,25,27,29,-1,-1,-1,-1,-1,-1,-1,-1,-1,-1,-1,-1,-1,-1,-1,-1],"loss_changes":[5.2586067E1,1.6619915E1,6.565628E0,7.456319E0,8.84499E0,6.99419E0,6.2893486E0,9.244779E0,7.374874E0,4.8815317E0,3.686058E0,6.377224E0,7.574772E0,4.965267E0,5.7795105E0,0E0,0E0,0E0,0E0,0E0,0E0,0E0,0E0,0E0,0E0,0E0,0E0,0E0,0E0,0E0,0E0],"parents":[2147483647,0,0,1,1,2,2,3,3,4,4,5,5,6,6,7,7,8,8,9,9,10,10,11,11,12,12,13,13,14,14],"right_children":[2,4,6,8,10,12,14,16,18,20,22,24,26,28,30,-1,-1,-1,-1,-1,-1,-1,-1,-1,-1,-1,-1,-1,-1,-1,-1],"split_conditions":[2.08E0,1.73E0,2.5E0,6.666667E-1,2.25E0,1.8287822E0,1.1E0,1.4166666E0,8.333333E-1,1.7333333E0,2.2222222E-1,7.378648E-1,1.8E0,1.5714285E0,4.4409937E-1,-7.171673E-3,2.0839356E-2,-1.7769812E-2,-5.4835915E-3,-6.8617812E-3,4.090875E-3,-0E0,4.6890296E-2,3.0658145E-2,1.0977891E-2,1.5397417E-2,-3.279365E-2,3.022459E-2,1.2235233E-2,-3.6128983E-2,1.1912331E-2],"split_indices":[17,17,17,10,0,28,9,14,8,14,20,27,12,24,24,0,0,0,0,0,0,0,0,0,0,0,0,0,0,0,0],"split_type":[0,0,0,0,0,0,0,0,0,0,0,0,0,0,0,0,0,0,0,0,0,0,0,0,0,0,0,0,0,0,0],"sum_hessian":[2.464492E3,1.655361E3,8.09131E2,7.427684E2,9.125926E2,5.548271E2,2.5430386E2,1.1816187E2,6.246065E2,8.9182947E2,2.076313E1,5.238391E2,3.098801E1,1.9974573E2,5.4558144E1,6.768422E1,5.0477657E1,1.6760217E2,4.5700433E2,1.15843216E2,7.7598627E2,5.480046E0,1.5283084E1,4.491871E1,4.7892038E2,1.3802282E1,1.7185728E1,1.4328683E2,5.645888E1,6.1550293E0,4.8403114E1],"tree_param":{"num_deleted":"0","num_feature":"33","num_nodes":"31","size_leaf_vector":"1"}},{"base_weights":[8.443403E-2,-1.3318749E-2,2.87461E-1,6.5695286E-2,-1.09485365E-1,2.1003045E-1,4.5089546E-1,4.578612E-2,6.5190333E-1,-1.3066977E-1,3.350333E-1,-1.5680088E-1,2.5207013E-1,1.0467767E-2,5.0152653E-1,5.557732E-3,-3.2010414E-3,-4.0302067E-3,4.172149E-2,-1.3523304E-3,-1.0872587E-2,2.882135E-2,-2.266226E-2,3.90761E-3,-5.478529E-2,3.7759263E-3,1.5807351E-2,-2.1899099E-2,2.7115671E-2,7.9155405E-4,2.697832E-2],"categories":[],"categories_nodes":[],"categories_segments":[],"categories_sizes":[],"default_left":[0,0,0,0,0,0,0,0,0,0,0,0,0,0,0,0,0,0,0,0,0,0,0,0,0,0,0,0,0,0,0],"id":13,"left_children":[1,3,5,7,9,11,13,15,17,19,21,23,25,27,29,-1,-1,-1,-1,-1,-1,-1,-1,-1,-1,-1,-1,-1,-1,-1,-1],"loss_changes":[4.907299E1,1.2690397E1,1.0006912E1,1.0591404E1,7.1194496E0,8.491747E0,5.6745186E0,6.3800135E0,4.1334677E0,6.4462357E0,6.8088026E0,1.2686844E1,5.500654E0,6.86015E0,4.1904945E0,0E0,0E0,0E0,0E0,0E0,0E0,0E0,0E0,0E0,0E0,0E0,0E0,0E0,0E0,0E0,0E0],"parents":[2147483647,0,0,1,1,2,2,3,3,4,4,5,5,6,6,7,7,8,8,9,9,10,10,11,11,12,12,13,13,14,14],"right_children":[2,4,6,8,10,12,14,16,18,20,22,24,26,28,30,-1,-1,-1,-1,-1,-1,-1,-1,-1,-1,-1,-1,-1,-1,-1,-1],"split_conditions":[2.08E0,2.19E0,2.5E0,2.2E0,8E-1,8.5714287E-1,-6.666667E-1,1.4285715E-1,2.1666667E0,4.2857143E-1,8.333333E-1,2.36E0,8.333333E-1,4.1666668E-2,3.3333334E-1,5.557732E-3,-3.2010414E-3,-4.0302067E-3,4.172149E-2,-1.3523304E-3,-1.0872587E-2,2.882135E-2,-2.266226E-2,3.90761E-3,-5.478529E-2,3.7759263E-3,1.5807351E-2,-2.1899099E-2,2.7115671E-2,7.9155405E-4,2.697832E-2],"split_indices":[17,16,17,0,19,3,26,25,10,9,19,17,11,25,30,0,0,0,0,0,0,0,0,0,0,0,0,0,0,0,0],"split_type":[0,0,0,0,0,0,0,0,0,0,0,0,0,0,0,0,0,0,0,0,0,0,0,0,0,0,0,0,0,0,0],"sum_hessian":[2.4700588E3,1.6675931E3,8.024656E2,9.150398E2,7.5255334E2,5.4646375E2,2.5600186E2,8.861911E2,2.8848684E1,7.1920905E2,3.3344303E1,5.5661545E1,4.908022E2,2.672338E1,2.2927847E2,5.56063E2,3.301281E2,5.7566934E0,2.3091991E1,3.2892075E2,3.902883E2,2.5830017E1,7.514288E0,4.516871E1,1.0492836E1,1.3169128E2,3.591109E2,1.4492139E1,1.223124E1,1.694672E1,2.1233176E2],"tree_param":{"num_deleted":"0","num_feature":"33","num_nodes":"31","size_leaf_vector":"1"}},{"base_weights":[6.1253235E-2,-3.5729576E-2,2.4877653E-1,-3.6409286E-1,-1.5776861E-2,-5.337061E-2,2.7996397E-1,1.6356846E-2,-4.2752314E-1,1.6641855E-1,-5.115652E-2,2.6741654E-1,-4.3528917E-1,2.9403356E-1,-3.81429E-1,-2.8784415E-2,-4.936915E-3,9.904115E-3,-4.333378E-2,-1.2932991E-3,-1.6869534E-2,-3.621256E-2,2.1042624E-2,3.144523E-2,-3.3630114E-2,9.468326E-3,1.8986858E-2,-5.0130226E-2,1.6930174E-3],"categories":[],"categories_nodes":[],"categories_segments":[],"categories_sizes":[],"default_left":[0,0,0,0,0,0,0,0,0,0,0,0,0,0,0,0,0,0,0,0,0,0,0,0,0,0,0,0,0],"id":14,"left_children":[1,3,5,7,9,11,13,-1,15,17,19,21,23,25,27,-1,-1,-1,-1,-1,-1,-1,-1,-1,-1,-1,-1,-1,-1],"loss_changes":[4.4594666E1,1.0541481E1,7.9132805E0,4.193123E0,9.8234005E0,9.7795925E0,7.1573563E0,0E0,4.0179834E0,8.2061615E0,9.204658E0,6.858369E0,9.636863E0,6.5358124E0,4.2781343E0,0E0,0E0,0E0,0E0,0E0,0E0,0E0,0E0,0E0,0E0,0E0,0E0,0E0,0E0],"parents":[2147483647,0,0,1,1,2,2,3,3,4,4,5,5,6,6,8,8,9,9,10,10,11,11,12,12,13,13,14,14],"right_children":[2,4,6,8,10,12,14,-1,16,18,20,22,24,26,28,-1,-1,-1,-1,-1,-1,-1,-1,-1,-1,-1,-1,-1,-1],"split_conditions":[2.06E0,7.1428573E-1,8.5714287E-1,8E-1,-4.7619048E-1,1.625E0,3.7142856E0,1.6356846E-2,1.1595018E0,2.1666667E0,1.8333334E0,8.5714287E-1,1.52E0,2.29E0,1.1595018E0,-2.8784415E-2,-4.936915E-3,9.904115E-3,-4.333378E-2,-1.2932991E-3,-1.6869534E-2,-3.621256E-2,2.1042624E-2,3.144523E-2,-3.3630114E-2,9.468326E-3,1.8986858E-2,-5.0130226E-2,1.6930174E-3],"split_indices":[17,8,3,3,26,5,22,0,27,6,5,8,16,17,28,0,0,0,0,0,0,0,0,0,0,0,0,0,0],"split_type":[0,0,0,0,0,0,0,0,0,0,0,0,0,0,0,0,0,0,0,0,0,0,0,0,0,0,0,0,0],"sum_hessian":[2.4494102E3,1.614634E3,8.3477606E2,9.1216576E1,1.5234175E3,7.773678E1,7.570393E2,7.184937E0,8.403164E1,2.4665947E2,1.2767579E3,4.2270355E1,3.5466423E1,7.419624E2,1.5076871E1,5.7199757E1,2.6831884E1,2.4020245E2,6.45701E0,1.1744297E3,1.02328316E2,5.078122E0,3.7192234E1,6.0891376E0,2.9377285E1,3.3599677E2,4.0596564E2,5.57081E0,9.506062E0],"tree_param":{"num_deleted":"0","num_feature":"33","num_nodes":"29","size_leaf_vector":"1"}},{"base_weights":[6.781977E-2,-2.5689486E-2,2.6323843E-1,-2.0220762E-1,2.1131882E-2,2.0225215E-1,3.7374905E-1,-2.4218485E-1,3.1399214E-1,-5.1042773E-2,1.021126E-1,-1.4489569E-1,2.3847634E-1,4.723705E-2,4.4053406E-1,1.2418869E-2,-1.4271428E-2,-2.9325007E-2,2.9650599E-2,-1.5817572E-3,-2.7524838E-2,1.2658598E-2,1.5151436E-3,-1.7946927E-2,1.9775867E-2,-2.1558695E-2,1.3071299E-2,1.0066753E-2,-5.226853E-2,1.6799456E-2,3.221508E-2],"categories":[],"categories_nodes":[],"categories_segments":[],"categories_sizes":[],"default_left":[0,0,0,0,0,0,0,0,0,0,0,0,0,0,0,0,0,0,0,0,0,0,0,0,0,0,0,0,0,0,0],"id":15,"left_children":[1,3,5,7,9,11,13,15,17,19,21,23,25,27,29,-1,-1,-1,-1,-1,-1,-1,-1,-1,-1,-1,-1,-1,-1,-1,-1],"loss_changes":[4.472603E1,1.3699717E1,5.2048607E0,7.2394657E0,7.657654E0,6.496769E0,6.0338593E0,6.93182E0,6.688062E0,6.630469E0,6.663154E0,5.7885504E0,7.246523E0,8.359796E0,4.627613E0,0E0,0E0,0E0,0E0,0E0,0E0,0E0,0E0,0E0,0E0,0E0,0E0,0E0,0E0,0E0,0E0],"parents":[2147483647,0,0,1,1,2,2,3,3,4,4,5,5,6,6,7,7,8,8,9,9,10,10,11,11,12,12,13,13,14,14],"right_children":[2,4,6,8,10,12,14,16,18,20,22,24,26,28,30,-1,-1,-1,-1,-1,-1,-1,-1,-1,-1,-1,-1,-1,-1,-1,-1],"split_conditions":[2.08E0,8.333333E-1,2.0833333E-1,1.7E0,1.1666666E0,8.5714287E-1,7.1428573E-1,8E-1,5E-1,2.81E0,6E-1,1.6666666E0,5.555556E-1,1E0,1.8E0,1.2418869E-2,-1.4271428E-2,-2.9325007E-2,2.9650599E-2,-1.5817572E-3,-2.7524838E-2,1.2658598E-2,1.5151436E-3,-1.7946927E-2,1.9775867E-2,-2.1558695E-2,1.3071299E-2,1.0066753E-2,-5.226853E-2,1.6799456E-2,3.221508E-2],"split_indices":[17,8,25,6,12,3,22,3,12,16,9,6,1,32,13,0,0,0,0,0,0,0,0,0,0,0,0,0,0,0,0],"split_type":[0,0,0,0,0,0,0,0,0,0,0,0,0,0,0,0,0,0,0,0,0,0,0,0,0,0,0,0,0,0,0],"sum_hessian":[2.4449255E3,1.6538859E3,7.910396E2,3.4647617E2,1.3074098E3,5.1214355E2,2.788961E2,3.2224442E2,2.4231756E1,6.9083386E2,6.1657587E2,4.7847298E1,4.6429626E2,4.790298E1,2.309931E2,2.5533455E1,2.9671097E2,5.3866844E0,1.8845072E1,6.6621E2,2.4623827E1,1.9740192E2,4.1917398E2,3.4645866E1,1.3201429E1,1.4650887E1,4.496454E2,4.2777084E1,5.1258945E0,1.5474121E2,7.6251884E1],"tree_param":{"num_deleted":"0","num_feature":"33","num_nodes":"31","size_leaf_vector":"1"}},{"base_weights":[6.950054E-2,-9.145163E-2,1.4298812E-1,-3.4722266E-1,-5.2813172E-2,7.763784E-2,2.60188E-1,3.7246568E-3,-6.2944794E-1,-1.9766454E-2,-4.1925573E-1,5.9896447E-2,6.6254437E-1,2.8251168E-1,-3.2160822E-1,4.1392937E-2,-6.4172605E-3,-4.4026546E-2,3.3842158E-2,-2.7481874E-3,1.0738393E-2,-4.4068076E-2,-7.04431E-3,3.4858112E-3,-2.4316115E-2,3.8490634E-2,5.4413374E-3,3.3630956E-2,1.2233077E-2,1.3149588E-2,-4.343487E-2],"categories":[],"categories_nodes":[],"categories_segments":[],"categories_sizes":[],"default_left":[0,0,0,0,0,0,0,0,0,0,0,0,0,0,0,0,0,0,0,0,0,0,0,0,0,0,0,0,0,0,0],"id":16,"left_children":[1,3,5,7,9,11,13,15,17,19,21,23,25,27,29,-1,-1,-1,-1,-1,-1,-1,-1,-1,-1,-1,-1,-1,-1,-1,-1],"loss_changes":[2.8697548E1,7.454714E0,1.2701927E1,9.895655E0,7.9641666E0,1.1004276E1,7.8178253E0,5.0825195E0,1.8713762E1,5.0191097E0,6.7791967E0,5.575681E0,1.6857233E0,8.218323E0,7.42045E0,0E0,0E0,0E0,0E0,0E0,0E0,0E0,0E0,0E0,0E0,0E0,0E0,0E0,0E0,0E0,0E0],"parents":[2147483647,0,0,1,1,2,2,3,3,4,4,5,5,6,6,7,7,8,8,9,9,10,10,11,11,12,12,13,13,14,14],"right_children":[2,4,6,8,10,12,14,16,18,20,22,24,26,28,30,-1,-1,-1,-1,-1,-1,-1,-1,-1,-1,-1,-1,-1,-1,-1,-1],"split_conditions":[1.74E0,5E-1,2.18E0,6E-1,9E-1,2.25E0,4.8E0,-4.6666667E-1,1.5E0,9E-1,7.777778E-1,2.17E0,1.3984118E0,1E-1,-4.761905E-2,4.1392937E-2,-6.4172605E-3,-4.4026546E-2,3.3842158E-2,-2.7481874E-3,1.0738393E-2,-4.4068076E-2,-7.04431E-3,3.4858112E-3,-2.4316115E-2,3.8490634E-2,5.4413374E-3,3.3630956E-2,1.2233077E-2,1.3149588E-2,-4.343487E-2],"split_indices":[17,11,17,2,9,0,15,26,12,2,7,17,28,21,26,0,0,0,0,0,0,0,0,0,0,0,0,0,0,0,0],"split_type":[0,0,0,0,0,0,0,0,0,0,0,0,0,0,0,0,0,0,0,0,0,0,0,0,0,0,0,0,0,0,0],"sum_hessian":[2.4237004E3,7.5923083E2,1.6644696E3,9.825405E1,6.609768E2,1.0702291E3,5.942405E2,4.407689E1,5.417716E1,6.075163E2,5.346052E1,1.0399585E3,3.0270658E1,5.729428E2,2.1297651E1,5.464775E0,3.8612114E1,4.5780205E1,8.3969555E0,5.292779E2,7.8238365E1,1.9148226E1,3.4312294E1,1.02262933E3,1.7329119E1,2.4879955E1,5.3907037E0,4.895627E1,5.239866E2,1.0458536E1,1.0839115E1],"tree_param":{"num_deleted":"0","num_feature":"33","num_nodes":"31","size_leaf_vector":"1"}},{"base_weights":[6.630481E-2,1.8569991E-1,-3.4842256E-2,-4.3481764E-1,2.0059511E-1,-1.7965199E-1,1.076013E-2,-0E0,-8.736988E-1,1.6148464E-1,3.3799776E-1,-2.4526209E-2,-4.2164224E-1,2.3072097E-2,-6.470911E-1,2.3401901E-2,-2.5409728E-2,-7.712472E-2,-1.2162206E-2,1.2014691E-2,1.8111004E-3,2.1935169E-2,4.623212E-3,8.433337E-3,-9.978737E-3,1.7208E-2,-2.6395738E-2,5.345361E-4,3.116545E-2,2.2727229E-2,-5.6028914E-2],"categories":[],"categories_nodes":[],"categories_segments":[],"categories_sizes":[],"default_left":[0,0,0,0,0,0,0,0,0,0,0,0,0,0,0,0,0,0,0,0,0,0,0,0,0,0,0,0,0,0,0],"id":17,"left_children":[1,3,5,7,9,11,13,15,17,19,21,23,25,27,29,-1,-1,-1,-1,-1,-1,-1,-1,-1,-1,-1,-1,-1,-1,-1,-1],"loss_changes":[2.9258434E1,1.0331947E1,8.676473E0,5.000625E0,5.7301254E0,1.1753506E1,8.031485E0,3.6059585E0,4.9446087E0,8.331545E0,5.8181877E0,6.563663E0,1.0174908E1,7.2149954E0,1.0074657E1,0E0,0E0,0E0,0E0,0E0,0E0,0E0,0E0,0E0,0E0,0E0,0E0,0E0,0E0,0E0,0E0],"parents":[2147483647,0,0,1,1,2,2,3,3,4,4,5,5,6,6,7,7,8,8,9,9,10,10,11,11,12,12,13,13,14,14],"right_children":[2,4,6,8,10,12,14,16,18,20,22,24,26,28,30,-1,-1,-1,-1,-1,-1,-1,-1,-1,-1,-1,-1,-1,-1,-1,-1],"split_conditions":[1.96E0,7.777778E-1,8.888889E-1,1.1126972E0,2.5E0,2.3666666E0,7E-1,4.4444445E-1,1.7678572E0,1.6666667E-1,1E0,0E0,8.164966E-1,4.4166665E0,8.125E-1,2.3401901E-2,-2.5409728E-2,-7.712472E-2,-1.2162206E-2,1.2014691E-2,1.8111004E-3,2.1935169E-2,4.623212E-3,8.433337E-3,-9.978737E-3,1.7208E-2,-2.6395738E-2,5.345361E-4,3.116545E-2,2.2727229E-2,-5.6028914E-2],"split_indices":[16,8,8,28,17,14,20,21,22,26,9,26,28,15,22,0,0,0,0,0,0,0,0,0,0,0,0,0,0,0,0],"split_type":[0,0,0,0,0,0,0,0,0,0,0,0,0,0,0,0,0,0,0,0,0,0,0,0,0,0,0,0,0,0,0],"sum_hessian":[2.41998E3,1.1099434E3,1.3100365E3,2.5200794E1,1.0847427E3,3.1356586E2,9.9647064E2,1.3160485E1,1.2040309E1,8.4665326E2,2.3808936E2,1.9200029E2,1.2156556E2,9.7926025E2,1.7210339E1,6.8928022E0,6.267683E0,5.0635576E0,6.9767513E0,5.1863605E2,3.2801724E2,1.67993E2,7.009636E1,9.101568E1,1.0098461E2,1.4426734E1,1.07138824E2,9.6062933E2,1.863095E1,5.1220245E0,1.2088314E1],"tree_param":{"num_deleted":"0","num_feature":"33","num_nodes":"31","size_leaf_vector":"1"}},{"base_weights":[7.1554534E-2,1.982523E-1,-3.4663882E-2,2.105828E-1,-1.9113937E-1,-2.9175257E-4,-2.7639937E-1,7.224111E-1,1.9930945E-1,2.7558607E-1,-6.79237E-1,-1.38110565E-2,5.422589E-1,-1.8093039E-1,-6.773283E-1,4.8025537E-2,1.4701563E-2,7.2824806E-3,1.4923744E-2,-1.8391041E-2,3.8789265E-2,-5.2314814E-2,5.559444E-3,4.016073E-3,-3.430593E-3,4.9023077E-2,1.932725E-2,-1.4214317E-2,1.4400101E-2,-5.0474763E-2,2.102046E-3],"categories":[],"categories_nodes":[],"categories_segments":[],"categories_sizes":[],"default_left":[0,0,0,0,0,0,0,0,0,0,0,0,0,0,0,0,0,0,0,0,0,0,0,0,0,0,0,0,0,0,0],"id":18,"left_children":[1,3,5,7,9,11,13,15,17,19,21,23,25,27,29,-1,-1,-1,-1,-1,-1,-1,-1,-1,-1,-1,-1,-1,-1,-1,-1],"loss_changes":[3.2886013E1,5.391884E0,1.10127735E1,5.9996147E0,8.081094E0,8.497599E0,6.1091356E0,1.9093323E0,5.5472717E0,6.1930385E0,5.2131224E0,5.872367E0,1.4058809E0,6.618393E0,7.588975E0,0E0,0E0,0E0,0E0,0E0,0E0,0E0,0E0,0E0,0E0,0E0,0E0,0E0,0E0,0E0,0E0],"parents":[2147483647,0,0,1,1,2,2,3,3,4,4,5,5,6,6,7,7,8,8,9,9,10,10,11,11,12,12,13,13,14,14],"right_children":[2,4,6,8,10,12,14,16,18,20,22,24,26,28,30,-1,-1,-1,-1,-1,-1,-1,-1,-1,-1,-1,-1,-1,-1,-1,-1],"split_conditions":[1.96E0,3.2E0,2.59E0,1.6666667E-1,6.4285713E-1,2.857143E0,1.5E0,9.166667E-1,2.34E0,4.2105263E-1,1E0,8.035714E-1,2.5E-1,1.6666666E0,1.0769231E0,4.8025537E-2,1.4701563E-2,7.2824806E-3,1.4923744E-2,-1.8391041E-2,3.8789265E-2,-5.2314814E-2,5.559444E-3,4.016073E-3,-3.430593E-3,4.9023077E-2,1.932725E-2,-1.4214317E-2,1.4400101E-2,-5.0474763E-2,2.102046E-3],"split_indices":[16,24,16,9,23,22,1,22,17,23,2,24,13,13,22,0,0,0,0,0,0,0,0,0,0,0,0,0,0,0,0],"split_type":[0,0,0,0,0,0,0,0,0,0,0,0,0,0,0,0,0,0,0,0,0,0,0,0,0,0,0,0,0,0,0],"sum_hessian":[2.4409434E3,1.113195E3,1.3277485E3,1.0797205E3,3.347445E1,1.1636984E3,1.6405023E2,2.1718365E1,1.0580021E3,1.7229694E1,1.6244753E1,1.1365369E3,2.7161423E1,1.3387312E2,3.0177105E1,1.3011022E1,8.707342E0,6.887738E2,3.6922827E2,7.5643687E0,9.665326E0,1.0958588E1,5.286165E0,4.17352E2,7.1918494E2,5.564191E0,2.159723E1,1.10192856E2,2.3680264E1,2.0463734E1,9.713373E0],"tree_param":{"num_deleted":"0","num_feature":"33","num_nodes":"31","size_leaf_vector":"1"}},{"base_weights":[6.12026E-2,1.9561298E-1,-5.71693E-3,5.7060022E-2,2.838108E-1,-1.6141081E-2,6.128131E-1,-3.995199E-1,1.0628394E-1,2.9805014E-1,-3.886568E-2,-5.827541E-3,-5.103368E-1,1.470568E-1,5.2401412E-2,-3.0581078E-2,5.3074914E-3,1.168352E-3,1.9668281E-2,3.589916E-2,1.3707246E-2,4.519565E-3,-3.0969994E-3,2.1897012E-2,-4.2580742E-2,-2.525411E-2,4.1761268E-2],"categories":[],"categories_nodes":[],"categories_segments":[],"categories_sizes":[],"default_left":[0,0,0,0,0,0,0,0,0,0,0,0,0,0,0,0,0,0,0,0,0,0,0,0,0,0,0],"id":19,"left_children":[1,3,5,7,9,11,13,15,17,19,-1,21,23,25,-1,-1,-1,-1,-1,-1,-1,-1,-1,-1,-1,-1,-1],"loss_changes":[2.1836496E1,9.80793E0,1.0393831E1,7.1034117E0,7.6214256E0,8.070091E0,5.1410313E0,3.409678E0,6.7514496E0,4.5881577E0,0E0,8.439698E0,1.0892297E1,6.817485E0,0E0,0E0,0E0,0E0,0E0,0E0,0E0,0E0,0E0,0E0,0E0,0E0,0E0],"parents":[2147483647,0,0,1,1,2,2,3,3,4,4,5,5,6,6,7,7,8,8,9,9,11,11,12,12,13,13],"right_children":[2,4,6,8,10,12,14,16,18,20,-1,22,24,26,-1,-1,-1,-1,-1,-1,-1,-1,-1,-1,-1,-1,-1],"split_conditions":[1.83E0,1.5E0,2.6E0,8.888889E-1,5E0,7E-1,7.5E-1,1.4757296E0,6.25E-1,1E-1,-3.886568E-2,8.181818E-1,8E-1,7.692308E-1,5.2401412E-2,-3.0581078E-2,5.3074914E-3,1.168352E-3,1.9668281E-2,3.589916E-2,1.3707246E-2,4.519565E-3,-3.0969994E-3,2.1897012E-2,-4.2580742E-2,-2.525411E-2,4.1761268E-2],"split_indices":[16,10,11,8,22,20,7,28,29,20,0,24,12,22,0,0,0,0,0,0,0,0,0,0,0,0,0],"split_type":[0,0,0,0,0,0,0,0,0,0,0,0,0,0,0,0,0,0,0,0,0,0,0,0,0,0,0],"sum_hessian":[2.424477E3,8.0572314E2,1.6187538E3,3.1447864E2,4.9124448E2,1.5930417E3,2.5712122E1,2.971424E1,2.847644E2,4.855423E2,5.7021875E0,1.5616649E3,3.137678E1,1.3177528E1,1.2534593E1,2.092538E1,8.78886E0,2.2205786E2,6.2706547E1,2.4362307E1,4.6118E2,5.7437024E2,9.872947E2,8.151295E0,2.3225485E1,6.827871E0,6.349657E0],"tree_param":{"num_deleted":"0","num_feature":"33","num_nodes":"27","size_leaf_vector":"1"}},{"base_weights":[4.7021773E-2,-1.9740077E-2,2.0294005E-1,-3.170186E-2,5.1777726E-1,4.9406584E-2,2.7909753E-1,-2.0680453E-1,-1.8819155E-3,-2.0341622E-2,7.2340935E-1,7.9914194E-1,1.060015E-2,3.189905E-1,3.6485374E-2,1.6713755E-2,-1.3473399E-2,6.4873596E-4,-2.0998795E-2,4.7127467E-2,1.2694518E-2,2.1093946E-2,5.1796217E-2,2.2688895E-2,-2.9010728E-3,2.4055531E-2,1.1837632E-2,-4.4574615E-2,6.643876E-3],"categories":[],"categories_nodes":[],"categories_segments":[],"categories_sizes":[],"default_left":[0,0,0,0,0,0,0,0,0,0,0,0,0,0,0,0,0,0,0,0,0,0,0,0,0,0,0,0,0],"id":20,"left_children":[1,3,5,7,9,11,13,15,17,-1,19,21,23,25,27,-1,-1,-1,-1,-1,-1,-1,-1,-1,-1,-1,-1,-1,-1],"loss_changes":[2.5169268E1,1.0846643E1,8.428455E0,8.627024E0,7.305396E0,6.9507027E0,4.635704E0,8.238633E0,8.84623E0,0E0,2.7770061E0,4.6841288E-1,7.097264E0,5.3477364E0,6.2868514E0,0E0,0E0,0E0,0E0,0E0,0E0,0E0,0E0,0E0,0E0,0E0,0E0,0E0,0E0],"parents":[2147483647,0,0,1,1,2,2,3,3,4,4,5,5,6,6,7,7,8,8,10,10,11,11,12,12,13,13,14,14],"right_children":[2,4,6,8,10,12,14,16,18,-1,20,22,24,26,28,-1,-1,-1,-1,-1,-1,-1,-1,-1,-1,-1,-1,-1,-1],"split_conditions":[2.1E0,2.2E0,5.714286E-1,1.65E0,2.1666667E0,1.6666667E-1,1.5811388E0,-6.333333E-1,6E-1,-2.0341622E-2,7E-1,2.8333333E0,2.14E0,7.1428573E-1,2.4166667E0,1.6713755E-2,-1.3473399E-2,6.4873596E-4,-2.0998795E-2,4.7127467E-2,1.2694518E-2,2.1093946E-2,5.1796217E-2,2.2688895E-2,-2.9010728E-3,2.4055531E-2,1.1837632E-2,-4.4574615E-2,6.643876E-3],"split_indices":[17,0,4,15,10,4,28,25,21,0,18,15,17,4,14,0,0,0,0,0,0,0,0,0,0,0,0,0,0],"split_type":[0,0,0,0,0,0,0,0,0,0,0,0,0,0,0,0,0,0,0,0,0,0,0,0,0,0,0,0,0],"sum_hessian":[2.4147935E3,1.6909753E3,7.2381805E2,1.6552665E3,3.5708843E1,2.4097473E2,4.8284332E2,2.3951953E2,1.415747E3,6.2302456E0,2.9478598E1,1.0768021E1,2.3020671E2,4.1403592E2,6.880739E1,2.42446E1,2.1527492E2,1.3678705E3,4.78764E1,1.926604E1,1.0212557E1,5.387775E0,5.380246E0,3.0308748E1,1.9989796E2,1.3730083E2,2.767351E2,5.600899E0,6.3206493E1],"tree_param":{"num_deleted":"0","num_feature":"33","num_nodes":"29","size_leaf_vector":"1"}}]},"name":"gbtree"},"learner_model_param":{"base_score":"7.5601727E-1","boost_from_average":"1","num_class":"0","num_feature":"33","num_target":"1"},"objective":{"name":"binary:logistic","reg_loss_param":{"scale_pos_weight":"1"}}},"version":[2,1,4]}