{"learner":{"attributes":{"best_iteration":"1","best_score":"0.561230875338323","scikit_learn":"{\"_estimator_type\": \"classifier\"}"},"feature_names":["home_goals_per_game","home_goals_conceded_per_game","home_over15_rate","home_over05_rate","home_first_half_goals","away_goals_per_game","away_goals_conceded_per_game","away_over15_rate","away_over05_rate","away_first_half_goals","home_home_goals","home_home_conceded","away_away_goals","away_away_conceded","total_expected_goals","defensive_strength","over15_odds","under15_odds","home_btts_rate","away_btts_rate","home_clean_sheet_rate","away_clean_sheet_rate","home_attack_strength","away_attack_strength","attack_vs_defense_ratio","home_momentum","away_momentum","home_goals_std","away_goals_std","home_over25_rate","away_over25_rate","home_scored_in_rate","away_scored_in_rate"],"feature_types":["float","float","float","float","float","float","float","float","float","float","float","float","float","float","float","float","float","float","float","float","float","float","float","float","float","float","float","float","float","float","float","float","float"],"gradient_booster":{"model":{"gbtree_model_param":{"num_parallel_tree":"1","num_trees":"22"},"iteration_indptr":[0,1,2,3,4,5,6,7,8,9,10,11,12,13,14,15,16,17,18,19,20,21,22],"tree_info":[0,0,0,0,0,0,0,0,0,0,0,0,0,0,0,0,0,0,0,0,0,0],"trees":[{"base_weights":[1.4238958E-1,-3.0850455E-2,4.2939022E-1,1.0040813E-1,-1.9771166E-1,3.296589E-1,5.898405E-1,5.8716782E-3,2.2084E-1,-3.8199776E-1,-9.185447E-2,-3.8041773E-1,3.440305E-1,7.075384E-1,4.088322E-1,1.889301E-2,-1.4258524E-3,1.2196937E-2,-5.468146E-2,-3.9811835E-2,-1.3857633E-2,-7.0373253E-3,1.210496E-2,-3.512159E-2,-0E0,3.4181327E-3,1.940118E-2,2.7127683E-2,4.270876E-2,-9.213402E-3,2.7215382E-2],"categories":[],"categories_nodes":[],"categories_segments":[],"categories_sizes":[],"default_left":[0,0,0,0,0,0,0,0,0,0,0,0,0,0,0,0,0,0,0,0,0,0,0,0,0,0,0,0,0,0,0],"id":0,"left_children":[1,3,5,7,9,11,13,15,17,19,21,23,25,27,29,-1,-1,-1,-1,-1,-1,-1,-1,-1,-1,-1,-1,-1,-1,-1,-1],"loss_changes":[1.240392E2,3.410355E1,1.4738403E1,9.893671E0,1.3293196E1,6.0632668E0,7.2315063E0,6.307614E0,1.17982235E1,1.0507755E1,7.161675E0,1.5034122E0,6.8502502E0,4.6078186E0,1.1695997E1,0E0,0E0,0E0,0E0,0E0,0E0,0E0,0E0,0E0,0E0,0E0,0E0,0E0,0E0,0E0,0E0],"parents":[2147483647,0,0,1,1,2,2,3,3,4,4,5,5,6,6,7,7,8,8,9,9,10,10,11,11,12,12,13,13,14,14],"right_children":[2,4,6,8,10,12,14,16,18,20,22,24,26,28,30,-1,-1,-1,-1,-1,-1,-1,-1,-1,-1,-1,-1,-1,-1,-1,-1],"split_conditions":[2.06E0,2.19E0,2.43E0,6E-1,1.1666666E0,7.1428573E-1,1.4444444E0,7.777778E-1,2.5555556E0,5.555556E-1,1.6E0,1.2222222E0,7.5E-1,2.4166667E0,4.2857143E-1,1.889301E-2,-1.4258524E-3,1.2196937E-2,-5.468146E-2,-3.9811835E-2,-1.3857633E-2,-7.0373253E-3,1.210496E-2,-3.512159E-2,-0E0,3.4181327E-3,1.940118E-2,2.7127683E-2,4.270876E-2,-9.213402E-3,2.7215382E-2],"split_indices":[17,16,17,19,13,3,1,1,6,32,12,6,12,15,19,0,0,0,0,0,0,0,0,0,0,0,0,0,0,0,0],"split_type":[0,0,0,0,0,0,0,0,0,0,0,0,0,0,0,0,0,0,0,0,0,0,0,0,0,0,0,0,0,0,0],"sum_hessian":[2.4926865E3,1.5547491E3,9.379374E2,8.700991E2,6.8465E2,5.806806E2,3.572568E2,4.8850906E2,3.815901E2,2.4849442E2,4.3615564E2,1.087624E1,5.698043E2,2.1439096E2,1.4286586E2,4.073981E1,4.4776926E2,3.7587546E2,5.7146344E0,4.866656E1,1.9982785E2,3.812214E2,5.4934227E1,5.530291E0,5.345948E0,7.908316E1,4.9072116E2,1.0341644E2,1.1097451E2,2.6361055E1,1.165048E2],"tree_param":{"num_deleted":"0","num_feature":"33","num_nodes":"31","size_leaf_vector":"1"}},{"base_weights":[1.3356765E-1,-8.152332E-3,2.6003748E-1,-1.1664193E-1,2.2437035E-1,4.7031283E-2,3.1633478E-1,-3.6970708E-1,-3.8485818E-2,1.2630063E-1,4.3242607E-1,2.990055E-1,-5.750885E-2,2.62346E-1,4.9730626E-1,-1.3559851E-2,-4.742138E-2,-3.9781444E-3,1.9986799E-2,9.3729794E-4,2.0527653E-2,9.161043E-3,2.7921313E-2,-4.911994E-3,1.9963354E-2,-2.6188636E-2,-2.5500753E-4,1.3609113E-2,-3.8358044E-2,2.7585486E-2,6.659624E-3],"categories":[],"categories_nodes":[],"categories_segments":[],"categories_sizes":[],"default_left":[0,0,0,0,0,0,0,0,0,0,0,0,0,0,0,0,0,0,0,0,0,0,0,0,0,0,0,0,0,0,0],"id":1,"left_children":[1,3,5,7,9,11,13,15,17,19,21,23,25,27,29,-1,-1,-1,-1,-1,-1,-1,-1,-1,-1,-1,-1,-1,-1,-1,-1],"loss_changes":[4.4669735E1,2.966019E1,1.5736946E1,1.5812171E1,7.5188065E0,7.3320417E0,9.962784E0,1.0388939E1,1.1058808E1,7.771877E0,3.5615692E0,3.3193521E0,4.73826E0,8.303066E0,4.564949E0,0E0,0E0,0E0,0E0,0E0,0E0,0E0,0E0,0E0,0E0,0E0,0E0,0E0,0E0,0E0,0E0],"parents":[2147483647,0,0,1,1,2,2,3,3,4,4,5,5,6,6,7,7,8,8,9,9,10,10,11,11,12,12,13,13,14,14],"right_children":[2,4,6,8,10,12,14,16,18,20,22,24,26,28,30,-1,-1,-1,-1,-1,-1,-1,-1,-1,-1,-1,-1,-1,-1,-1,-1],"split_conditions":[7.1428573E-1,1.4285715E0,6.25E-1,5.555556E-1,1.4E0,5.555556E-1,2.1666667E0,1.3374935E0,3.0666666E0,2.1E0,1.0625E0,1.4166666E0,1.6666666E0,2.1317704E0,1.8472222E0,-1.3559851E-2,-4.742138E-2,-3.9781444E-3,1.9986799E-2,9.3729794E-4,2.0527653E-2,9.161043E-3,2.7921313E-2,-4.911994E-3,1.9963354E-2,-2.6188636E-2,-2.5500753E-4,1.3609113E-2,-3.8358044E-2,2.7585486E-2,6.659624E-3],"split_indices":[7,0,2,7,6,31,10,28,14,0,22,14,14,28,24,0,0,0,0,0,0,0,0,0,0,0,0,0,0,0,0],"split_type":[0,0,0,0,0,0,0,0,0,0,0,0,0,0,0,0,0,0,0,0,0,0,0,0,0,0,0,0,0,0,0],"sum_hessian":[2.4897478E3,1.1741547E3,1.3155931E3,8.0124225E2,3.7291235E2,2.757769E2,1.0398162E3,1.8788176E2,6.1336053E2,2.548658E2,1.1804654E2,8.060064E1,1.9517624E2,8.032013E2,2.3661491E2,1.6195511E2,2.5926659E1,5.61751E2,5.1609543E1,1.8593134E2,6.8934456E1,4.0732643E1,7.7313896E1,1.6046345E1,6.45543E1,1.8619778E1,1.7655646E2,7.9642474E2,6.7765737E0,2.0516997E2,3.1444956E1],"tree_param":{"num_deleted":"0","num_feature":"33","num_nodes":"31","size_leaf_vector":"1"}},{"base_weights":[1.2167697E-1,3.353057E-1,-8.463993E-2,2.2417185E-1,4.8764384E-1,5.7428196E-2,-2.0185749E-1,2.3675585E-1,-3.589533E-2,5.187118E-1,-2.3490217E-2,7.0452705E-2,-5.5199493E-2,6.7510016E-2,-2.5932574E-1,2.4033327E-2,1.0022197E-2,3.679196E-2,2.2504374E-2,-2.3412105E-2,1.1423392E-2,2.449131E-3,3.4929965E-2,-2.1664882E-2,8.109769E-3,-2.5270505E-2,-1.0122609E-2],"categories":[],"categories_nodes":[],"categories_segments":[],"categories_sizes":[],"default_left":[0,0,0,0,0,0,0,0,0,0,0,0,0,0,0,0,0,0,0,0,0,0,0,0,0,0,0],"id":2,"left_children":[1,3,5,7,9,11,13,15,-1,17,19,21,-1,23,25,-1,-1,-1,-1,-1,-1,-1,-1,-1,-1,-1,-1],"loss_changes":[1.090365E2,2.0393478E1,2.0982298E1,8.478264E0,8.182144E0,8.586111E0,1.0719809E1,6.003849E0,0E0,6.7364807E0,3.500934E0,7.4974384E0,0E0,5.82038E0,7.794468E0,0E0,0E0,0E0,0E0,0E0,0E0,0E0,0E0,0E0,0E0,0E0,0E0],"parents":[2147483647,0,0,1,1,2,2,3,3,4,4,5,5,6,6,7,7,9,9,10,10,11,11,13,13,14,14],"right_children":[2,4,6,8,10,12,14,16,-1,18,20,22,-1,24,26,-1,-1,-1,-1,-1,-1,-1,-1,-1,-1,-1,-1],"split_conditions":[1.96E0,2.29E0,2.19E0,4.16E0,2.556391E0,3.75E0,8E-1,-6.25E-1,-3.589533E-2,5E-1,2.05E0,2.3E0,-5.5199493E-2,3.5947713E-1,1.65E0,2.4033327E-2,1.0022197E-2,3.679196E-2,2.2504374E-2,-2.3412105E-2,1.1423392E-2,2.449131E-3,3.4929965E-2,-2.1664882E-2,8.109769E-3,-2.5270505E-2,-1.0122609E-2],"split_indices":[16,17,16,24,24,23,10,25,0,18,15,1,0,24,15,0,0,0,0,0,0,0,0,0,0,0,0],"split_type":[0,0,0,0,0,0,0,0,0,0,0,0,0,0,0,0,0,0,0,0,0,0,0,0,0,0,0],"sum_hessian":[2.4716604E3,1.2142437E3,1.2574167E3,7.03878E2,5.103656E2,5.682963E2,6.8912036E2,6.954433E2,8.434687E0,4.812923E2,2.9073301E1,5.6300806E2,5.2883077E0,1.20832886E2,5.682875E2,8.817462E1,6.072687E2,1.1289924E2,3.6839307E2,1.0347159E1,1.8726141E1,5.455967E2,1.7411345E1,1.8476274E1,1.02356606E2,1.0487265E2,4.6341483E2],"tree_param":{"num_deleted":"0","num_feature":"33","num_nodes":"27","size_leaf_vector":"1"}},{"base_weights":[1.306954E-1,3.275192E-1,-5.739745E-2,2.4537204E-1,5.8848447E-1,-3.706725E-1,4.624755E-3,2.5816324E-1,-7.7239025E-1,6.0996884E-1,-1.21628735E-2,2.5813892E-1,-4.5301816E-1,1.6292514E-1,-4.199036E-2,-2.2448756E-2,1.3667603E-2,-6.579272E-2,-2.1693239E-3,1.6888572E-2,3.335412E-2,-2.6914973E-2,2.6111279E-2,-2.5409391E-2,7.167747E-3,-3.1170294E-2,1.0262676E-2,-1.2774362E-2,7.9410523E-4],"categories":[],"categories_nodes":[],"categories_segments":[],"categories_sizes":[],"default_left":[0,0,0,0,0,0,0,0,0,0,0,0,0,0,0,0,0,0,0,0,0,0,0,0,0,0,0,0,0],"id":3,"left_children":[1,3,5,7,9,11,13,15,17,19,-1,21,23,25,27,-1,-1,-1,-1,-1,-1,-1,-1,-1,-1,-1,-1,-1,-1],"loss_changes":[9.160608E1,2.5689224E1,2.4621834E1,1.214463E1,5.339264E0,1.0977764E1,7.8177133E0,9.889027E0,4.3993073E0,4.0516357E0,0E0,5.483035E0,6.2169914E0,8.111355E0,1.0119429E1,0E0,0E0,0E0,0E0,0E0,0E0,0E0,0E0,0E0,0E0,0E0,0E0,0E0,0E0],"parents":[2147483647,0,0,1,1,2,2,3,3,4,4,5,5,6,6,7,7,8,8,9,9,11,11,12,12,13,13,14,14],"right_children":[2,4,6,8,10,12,14,16,18,20,-1,22,24,26,28,-1,-1,-1,-1,-1,-1,-1,-1,-1,-1,-1,-1,-1,-1],"split_conditions":[1.96E0,2.5E0,1.57E0,3.75E0,3.4285715E0,1.6666667E-1,6.363636E-1,5.2704626E-1,1.4E0,9.486833E-1,-1.21628735E-2,6.666667E-1,3.03E0,5E-1,3.3333334E-1,-2.2448756E-2,1.3667603E-2,-6.579272E-2,-2.1693239E-3,1.6888572E-2,3.335412E-2,-2.6914973E-2,2.6111279E-2,-2.5409391E-2,7.167747E-3,-3.1170294E-2,1.0262676E-2,-1.2774362E-2,7.9410523E-4],"split_indices":[16,17,17,22,22,21,22,28,23,27,0,10,16,27,29,0,0,0,0,0,0,0,0,0,0,0,0,0,0],"split_type":[0,0,0,0,0,0,0,0,0,0,0,0,0,0,0,0,0,0,0,0,0,0,0,0,0,0,0,0,0],"sum_hessian":[2.472188E3,1.2079536E3,1.2642344E3,9.205154E2,2.874382E2,2.0837337E2,1.055861E3,9.099241E2,1.0591287E1,2.805776E2,6.8606005E0,2.373998E1,1.8463339E2,2.4011247E2,8.157485E2,1.8394545E1,8.9152954E2,5.5280275E0,5.0632596E0,5.016433E1,2.3041328E2,5.558755E0,1.8181227E1,1.6928831E2,1.534508E1,1.1443173E1,2.2866931E2,1.7360751E2,6.42141E2],"tree_param":{"num_deleted":"0","num_feature":"33","num_nodes":"29","size_leaf_vector":"1"}},{"base_weights":[1.21881776E-1,-1.7595954E-2,3.5975218E-1,-3.5165063E-1,3.5388466E-2,2.8535983E-1,5.253005E-1,-6.0867405E-1,-2.3368686E-1,2.0571396E-2,6.541174E-1,-3.3592954E-2,3.2553276E-1,1.3861811E-1,5.6870544E-1,-8.812427E-3,-4.907619E-2,-3.1597074E-2,-4.934501E-4,-1.879855E-2,2.0435469E-3,4.0873766E-2,-1.3686302E-3,4.7539817E-3,-4.7272764E-2,7.4448097E-3,1.9162593E-2,-1.0555487E-2,3.3968292E-2,2.5892133E-2,4.6681404E-2],"categories":[],"categories_nodes":[],"categories_segments":[],"categories_sizes":[],"default_left":[0,0,0,0,0,0,0,0,0,0,0,0,0,0,0,0,0,0,0,0,0,0,0,0,0,0,0,0,0,0,0],"id":4,"left_children":[1,3,5,7,9,11,13,15,17,19,21,23,25,27,29,-1,-1,-1,-1,-1,-1,-1,-1,-1,-1,-1,-1,-1,-1,-1,-1],"loss_changes":[8.14209E1,2.7423948E1,1.0938675E1,6.2048054E0,1.2165315E1,8.091537E0,4.543068E0,1.0326296E1,1.3057521E1,1.0492618E1,3.5581522E0,8.495964E0,5.583248E0,5.820462E0,4.0268326E0,0E0,0E0,0E0,0E0,0E0,0E0,0E0,0E0,0E0,0E0,0E0,0E0,0E0,0E0,0E0,0E0],"parents":[2147483647,0,0,1,1,2,2,3,3,4,4,5,5,6,6,7,7,8,8,9,9,10,10,11,11,12,12,13,13,14,14],"right_children":[2,4,6,8,10,12,14,16,18,20,22,24,26,28,30,-1,-1,-1,-1,-1,-1,-1,-1,-1,-1,-1,-1,-1,-1,-1,-1],"split_conditions":[2.06E0,1.57E0,2.5E0,7.5E-1,2.1111112E0,8.888889E-1,-6.666667E-1,5.555556E-1,8.333333E-1,7.1428573E-1,2.11E0,1.81E0,4.4444445E-1,2.3809524E-1,2.1111112E0,-8.812427E-3,-4.907619E-2,-3.1597074E-2,-4.934501E-4,-1.879855E-2,2.0435469E-3,4.0873766E-2,-1.3686302E-3,4.7539817E-3,-4.7272764E-2,7.4448097E-3,1.9162593E-2,-1.0555487E-2,3.3968292E-2,2.5892133E-2,4.6681404E-2],"split_indices":[17,17,17,11,0,8,26,2,8,8,16,16,29,25,6,0,0,0,0,0,0,0,0,0,0,0,0,0,0,0,0],"split_type":[0,0,0,0,0,0,0,0,0,0,0,0,0,0,0,0,0,0,0,0,0,0,0,0,0,0,0,0,0,0,0],"sum_hessian":[2.4518684E3,1.5459126E3,9.059559E2,2.1111722E2,1.3347954E3,6.27365E2,2.7859088E2,6.483814E1,1.4627907E2,1.3047448E3,3.005063E1,6.991889E1,5.574461E2,2.8771465E1,2.4981941E2,3.0826702E1,3.401144E1,5.1813488E1,9.446558E1,6.2445854E1,1.2422988E3,2.4197514E1,5.8531165E0,6.1961582E1,7.9573135E0,1.3860083E2,4.1884528E2,1.7729563E1,1.10419035E1,2.2162279E2,2.8196625E1],"tree_param":{"num_deleted":"0","num_feature":"33","num_nodes":"31","size_leaf_vector":"1"}},{"base_weights":[1.2843762E-1,-2.0261107E-2,3.837494E-1,-3.106073E-1,2.5759093E-2,3.0611408E-1,5.5952674E-1,-1.1180309E-1,-5.211287E-1,7.899E-2,-9.536675E-2,3.176379E-1,-4.012836E-2,6.4009434E-1,2.419439E-1,-2.1829238E-2,1.875878E-2,-3.3277426E-2,-1.0455E-3,-2.6888454E-3,7.7256537E-3,5.37999E-3,-1.0783447E-2,-1.636534E-2,1.650927E-2,3.6879826E-2,1.5817232E-2,-1.17736785E-2,2.4032354E-2],"categories":[],"categories_nodes":[],"categories_segments":[],"categories_sizes":[],"default_left":[0,0,0,0,0,0,0,0,0,0,0,0,0,0,0,0,0,0,0,0,0,0,0,0,0,0,0,0,0],"id":5,"left_children":[1,3,5,7,9,11,13,15,17,19,21,23,-1,25,27,-1,-1,-1,-1,-1,-1,-1,-1,-1,-1,-1,-1,-1,-1],"loss_changes":[9.361418E1,2.0857285E1,1.2125504E1,8.816669E0,8.682285E0,8.281502E0,6.829109E0,1.7782276E1,7.37335E0,9.403208E0,1.0062467E1,5.176983E0,0E0,6.5935287E0,6.723439E0,0E0,0E0,0E0,0E0,0E0,0E0,0E0,0E0,0E0,0E0,0E0,0E0,0E0,0E0],"parents":[2147483647,0,0,1,1,2,2,3,3,4,4,5,5,6,6,7,7,8,8,9,9,10,10,11,11,13,13,14,14],"right_children":[2,4,6,8,10,12,14,16,18,20,22,24,-1,26,28,-1,-1,-1,-1,-1,-1,-1,-1,-1,-1,-1,-1,-1,-1],"split_conditions":[2.06E0,1.57E0,2.5E0,4.4444445E-1,2.6666668E-1,4.2E0,1.1E0,4E-1,1.3787879E0,1.73E0,8.3916086E-1,5.2704626E-1,-4.012836E-2,1.6666666E0,-3.3333334E-1,-2.1829238E-2,1.875878E-2,-3.3277426E-2,-1.0455E-3,-2.6888454E-3,7.7256537E-3,5.37999E-3,-1.0783447E-2,-1.636534E-2,1.650927E-2,3.6879826E-2,1.5817232E-2,-1.17736785E-2,2.4032354E-2],"split_indices":[17,17,17,9,25,22,9,30,24,17,24,28,0,24,26,0,0,0,0,0,0,0,0,0,0,0,0,0,0],"split_type":[0,0,0,0,0,0,0,0,0,0,0,0,0,0,0,0,0,0,0,0,0,0,0,0,0,0,0,0,0],"sum_hessian":[2.4636697E3,1.5572341E3,9.0643555E2,2.1256473E2,1.3446693E3,6.310368E2,2.7539874E2,1.10356514E2,1.0220822E2,9.349586E2,4.0971072E2,6.253406E2,5.696209E0,2.1860934E2,5.6789402E1,6.638863E1,4.3967876E1,7.88987E1,2.3309528E1,3.3862744E2,5.963312E2,1.5220091E2,2.5750983E2,1.1303099E1,6.140375E2,1.6679062E2,5.181872E1,1.8794376E1,3.7995026E1],"tree_param":{"num_deleted":"0","num_feature":"33","num_nodes":"29","size_leaf_vector":"1"}},{"base_weights":[1.15722485E-1,-2.623863E-2,3.6253145E-1,-2.8268507E-1,2.531942E-2,3.4732848E-1,8.673991E-1,-5.009116E-1,-1.24905705E-1,1.1832532E-2,5.454697E-1,9.134213E-2,3.7477812E-1,5.412543E-2,1.502041E-2,-1.5184547E-2,-4.1255325E-2,-1.27574345E-2,7.7135726E-3,5.6298086E-3,-2.6232512E-3,-7.121219E-3,3.939676E-2,2.5129477E-2,-6.177803E-3,9.582108E-3,2.07469E-2],"categories":[],"categories_nodes":[],"categories_segments":[],"categories_sizes":[],"default_left":[0,0,0,0,0,0,0,0,0,0,0,0,0,0,0,0,0,0,0,0,0,0,0,0,0,0,0],"id":6,"left_children":[1,3,5,7,9,11,13,15,17,19,21,23,25,-1,-1,-1,-1,-1,-1,-1,-1,-1,-1,-1,-1,-1,-1],"loss_changes":[8.519302E1,2.0441107E1,6.391144E0,8.785152E0,8.957523E0,5.987831E0,2.596733E0,6.5413265E0,5.56868E0,8.139324E0,5.5616903E0,7.6399775E0,5.5916367E0,0E0,0E0,0E0,0E0,0E0,0E0,0E0,0E0,0E0,0E0,0E0,0E0,0E0,0E0],"parents":[2147483647,0,0,1,1,2,2,3,3,4,4,5,5,6,6,7,7,8,8,9,9,10,10,11,11,12,12],"right_children":[2,4,6,8,10,12,14,16,18,20,22,24,26,-1,-1,-1,-1,-1,-1,-1,-1,-1,-1,-1,-1,-1,-1],"split_conditions":[2.06E0,1.59E0,2.857143E0,1.1666666E0,2.1111112E0,4.642857E-1,2E0,2.3666666E0,1.25E0,8.333333E-1,2.25E0,1.625E0,2.35E0,5.412543E-2,1.502041E-2,-1.5184547E-2,-4.1255325E-2,-1.27574345E-2,7.7135726E-3,5.6298086E-3,-2.6232512E-3,-7.121219E-3,3.939676E-2,2.5129477E-2,-6.177803E-3,9.582108E-3,2.07469E-2],"split_indices":[17,17,0,13,0,24,24,14,11,24,10,5,14,0,0,0,0,0,0,0,0,0,0,0,0,0,0],"split_type":[0,0,0,0,0,0,0,0,0,0,0,0,0,0,0,0,0,0,0,0,0,0,0,0,0,0,0],"sum_hessian":[2.4292654E3,1.5425186E3,8.867468E2,2.5778235E2,1.2847362E3,8.626559E2,2.4090933E1,1.0699195E2,1.5079039E2,1.2534507E3,3.1285513E1,8.4316696E1,7.7833923E2,1.6677938E1,7.4129944E0,6.7919205E1,3.9072746E1,1.0312453E2,4.7665855E1,4.885795E2,7.648712E2,8.153512E0,2.3132E1,2.863841E1,5.5678288E1,1.4147052E2,6.368687E2],"tree_param":{"num_deleted":"0","num_feature":"33","num_nodes":"27","size_leaf_vector":"1"}},{"base_weights":[1.0746699E-1,2.0552604E-1,-1.3841663E-1,3.740429E-1,1.3414317E-1,1.2764394E-1,-1.8765873E-1,1.454921E-2,4.255291E-1,1.09372854E-1,6.218393E-1,-8.823464E-2,4.276353E-1,-2.4662407E-1,5.3375028E-2,8.895102E-3,-3.7366726E-2,2.2527937E-2,-8.851866E-3,-5.220839E-3,7.439576E-3,3.5286784E-2,-9.317444E-3,7.921442E-3,-3.0037174E-2,2.9141983E-2,-3.240206E-2,1.0249379E-2,-1.4390707E-2,-5.0159693E-3,1.9087514E-2],"categories":[],"categories_nodes":[],"categories_segments":[],"categories_sizes":[],"default_left":[0,0,0,0,0,0,0,0,0,0,0,0,0,0,0,0,0,0,0,0,0,0,0,0,0,0,0,0,0,0,0],"id":7,"left_children":[1,3,5,7,9,11,13,15,17,19,21,23,25,27,29,-1,-1,-1,-1,-1,-1,-1,-1,-1,-1,-1,-1,-1,-1,-1,-1],"loss_changes":[5.8896717E1,2.0901352E1,9.1526785E0,9.54734E0,1.4698536E1,7.1323023E0,8.393684E0,8.319846E0,6.943741E0,9.883648E0,4.181671E0,8.234627E0,8.049034E0,8.86923E0,5.926889E0,0E0,0E0,0E0,0E0,0E0,0E0,0E0,0E0,0E0,0E0,0E0,0E0,0E0,0E0,0E0,0E0],"parents":[2147483647,0,0,1,1,2,2,3,3,4,4,5,5,6,6,7,7,8,8,9,9,10,10,11,11,12,12,13,13,14,14],"right_children":[2,4,6,8,10,12,14,16,18,20,22,24,26,28,30,-1,-1,-1,-1,-1,-1,-1,-1,-1,-1,-1,-1,-1,-1,-1,-1],"split_conditions":[2.19E0,1.69E0,6.666667E-1,8.333333E-1,2.2E0,1.4166666E0,1.6E0,2.8039215E0,4.7E0,8.888889E-1,1.6865481E0,2.56E0,1.75E0,7.777778E-1,7.777778E-1,8.895102E-3,-3.7366726E-2,2.2527937E-2,-8.851866E-3,-5.220839E-3,7.439576E-3,3.5286784E-2,-9.317444E-3,7.921442E-3,-3.0037174E-2,2.9141983E-2,-3.240206E-2,1.0249379E-2,-1.4390707E-2,-5.0159693E-3,1.9087514E-2],"split_indices":[16,16,10,6,0,14,11,24,15,8,28,16,12,3,32,0,0,0,0,0,0,0,0,0,0,0,0,0,0,0,0],"split_type":[0,0,0,0,0,0,0,0,0,0,0,0,0,0,0,0,0,0,0,0,0,0,0,0,0,0,0,0,0,0,0],"sum_hessian":[2.4402625E3,1.7449447E3,6.9531775E2,5.1753485E2,1.2274098E3,1.0802476E2,5.8729297E2,6.5239044E1,4.5229584E2,1.1694426E3,5.796724E1,6.303575E1,4.4989002E1,4.7217422E2,1.1511877E2,5.446018E1,1.0778868E1,4.3465903E2,1.76368E1,1.8140349E2,9.8803906E2,5.2742634E1,5.2246075E0,4.2889416E1,2.0146334E1,3.9797882E1,5.191123E0,3.893066E1,4.3324356E2,7.868201E1,3.6436756E1],"tree_param":{"num_deleted":"0","num_feature":"33","num_nodes":"31","size_leaf_vector":"1"}},{"base_weights":[9.3309835E-2,2.6283586E-1,-6.215613E-2,4.188916E-1,2.105913E-1,-2.4199122E-1,8.9984825E-3,4.6553847E-1,-5.551844E-1,8.0502135E-1,1.9720188E-1,-4.5714462E-1,-9.1336735E-2,-1.7848694E-3,8.3590263E-1,2.9120961E-2,1.4128119E-2,-5.871105E-2,-1.4777929E-3,1.5584625E-2,4.872782E-2,3.8152784E-3,1.2769096E-2,7.780867E-3,-2.8029326E-2,-6.749122E-3,2.4981635E-2,-8.7704184E-4,2.1703104E-2,5.3665053E-2,2.2692284E-2],"categories":[],"categories_nodes":[],"categories_segments":[],"categories_sizes":[],"default_left":[0,0,0,0,0,0,0,0,0,0,0,0,0,0,0,0,0,0,0,0,0,0,0,0,0,0,0,0,0,0,0],"id":8,"left_children":[1,3,5,7,9,11,13,15,17,19,21,23,25,27,29,-1,-1,-1,-1,-1,-1,-1,-1,-1,-1,-1,-1,-1,-1,-1,-1],"loss_changes":[6.408196E1,9.330559E0,1.6252178E1,1.3435322E1,6.6954155E0,1.1570269E1,8.191724E0,5.6852837E0,4.2766514E0,1.1365461E0,5.968296E0,9.490541E0,5.530677E0,6.1350164E0,4.3269157E-1,0E0,0E0,0E0,0E0,0E0,0E0,0E0,0E0,0E0,0E0,0E0,0E0,0E0,0E0,0E0,0E0],"parents":[2147483647,0,0,1,1,2,2,3,3,4,4,5,5,6,6,7,7,8,8,9,9,10,10,11,11,12,12,13,13,14,14],"right_children":[2,4,6,8,10,12,14,16,18,20,22,24,26,28,30,-1,-1,-1,-1,-1,-1,-1,-1,-1,-1,-1,-1,-1,-1,-1,-1],"split_conditions":[1.96E0,1.59E0,1.63E0,3E0,1.93E0,2.05E0,2.25E0,1.4285715E0,2.25E0,8.333333E-1,2.06E0,-4.7619048E-1,2.9E0,2.4E0,4.2857143E-1,2.9120961E-2,1.4128119E-2,-5.871105E-2,-1.4777929E-3,1.5584625E-2,4.872782E-2,3.8152784E-3,1.2769096E-2,7.780867E-3,-2.8029326E-2,-6.749122E-3,2.4981635E-2,-8.7704184E-4,2.1703104E-2,5.3665053E-2,2.2692284E-2],"split_indices":[16,16,17,24,17,15,0,1,10,12,17,25,16,11,30,0,0,0,0,0,0,0,0,0,0,0,0,0,0,0,0],"split_type":[0,0,0,0,0,0,0,0,0,0,0,0,0,0,0,0,0,0,0,0,0,0,0,0,0,0,0,0,0,0,0],"sum_hessian":[2.4290618E3,1.1619642E3,1.2670977E3,2.891963E2,8.7276794E2,3.5893503E2,9.081626E2,2.7657623E2,1.2620041E1,1.7758942E1,8.5500903E2,1.4671275E2,2.1222227E2,8.9733765E2,1.082494E1,1.6710439E2,1.0947185E2,5.141121E0,7.4789195E0,5.4188967E0,1.2340046E1,2.7909286E2,5.7591614E2,2.097736E1,1.257354E2,1.9850278E2,1.37195015E1,8.6717816E2,3.0159496E1,5.399097E0,5.425843E0],"tree_param":{"num_deleted":"0","num_feature":"33","num_nodes":"31","size_leaf_vector":"1"}},{"base_weights":[7.999474E-2,1.8257605E-1,-1.8521449E-1,7.206624E-2,3.0602598E-1,-3.3619702E-1,-9.5596485E-2,4.9255744E-2,7.5602764E-1,2.4198586E-1,4.4038525E-1,-2.0991506E-1,-6.268621E-1,-3.6484417E-1,-2.0469807E-2,4.2072623E-3,-1.045889E-2,1.30757755E-2,4.2434637E-2,2.676197E-3,1.4997417E-2,2.8178984E-2,7.7836174E-3,-6.5297573E-3,-5.568729E-2,1.0562282E-2,-3.5979226E-2,-2.6513273E-2,2.5687534E-3,-2.7191655E-3,3.011324E-2],"categories":[],"categories_nodes":[],"categories_segments":[],"categories_sizes":[],"default_left":[0,0,0,0,0,0,0,0,0,0,0,0,0,0,0,0,0,0,0,0,0,0,0,0,0,0,0,0,0,0,0],"id":9,"left_children":[1,3,5,7,9,11,13,15,17,19,21,23,25,27,29,-1,-1,-1,-1,-1,-1,-1,-1,-1,-1,-1,-1,-1,-1,-1,-1],"loss_changes":[6.573155E1,2.3706806E1,9.041214E0,1.425075E1,6.8992386E0,8.96661E0,8.542992E0,8.052047E0,1.0194092E0,6.0603447E0,9.087917E0,1.2357067E1,6.0327396E0,6.428875E0,7.017679E0,0E0,0E0,0E0,0E0,0E0,0E0,0E0,0E0,0E0,0E0,0E0,0E0,0E0,0E0,0E0,0E0],"parents":[2147483647,0,0,1,1,2,2,3,3,4,4,5,5,6,6,7,7,8,8,9,9,10,10,11,11,12,12,13,13,14,14],"right_children":[2,4,6,8,10,12,14,16,18,20,22,24,26,28,30,-1,-1,-1,-1,-1,-1,-1,-1,-1,-1,-1,-1,-1,-1,-1,-1],"split_conditions":[2.2E0,2.08E0,2.0666666E0,2.2E0,2.5E0,2.59E0,2.26E0,8.333333E-1,-3.3333334E-1,4.2857143E-1,1.3888888E0,8.5714287E-1,6.666667E-1,1.1595018E0,1.69E0,4.2072623E-3,-1.045889E-2,1.30757755E-2,4.2434637E-2,2.676197E-3,1.4997417E-2,2.8178984E-2,7.7836174E-3,-6.5297573E-3,-5.568729E-2,1.0562282E-2,-3.5979226E-2,-2.6513273E-2,2.5687534E-3,-2.7191655E-3,3.011324E-2],"split_indices":[16,17,15,0,17,16,16,4,26,29,24,7,28,28,17,0,0,0,0,0,0,0,0,0,0,0,0,0,0,0,0],"split_type":[0,0,0,0,0,0,0,0,0,0,0,0,0,0,0,0,0,0,0,0,0,0,0,0,0,0,0,0,0,0,0],"sum_hessian":[2.4138784E3,1.7411145E3,6.727638E2,9.199702E2,8.211443E2,2.4914812E2,4.2361566E2,8.914578E2,2.8512398E1,5.584931E2,2.6265118E2,1.7512834E2,7.401978E1,9.128183E1,3.3233383E2,7.863579E2,1.050999E2,5.273169E0,2.323923E1,1.3222365E2,4.2626947E2,1.823976E2,8.0253586E1,1.6215297E2,1.2975363E1,7.1385436E0,6.688124E1,6.52967E1,2.598513E1,3.1618784E2,1.6146019E1],"tree_param":{"num_deleted":"0","num_feature":"33","num_nodes":"31","size_leaf_vector":"1"}},{"base_weights":[9.161681E-2,2.5339597E-1,-5.2913174E-2,1.9899055E-1,4.460674E-1,6.1661176E-2,-1.4673966E-1,-4.5032263E-1,2.1381876E-1,3.8654825E-1,9.288198E-1,-4.4845214E-1,8.7193854E-2,-1.8764897E-1,1.12307645E-1,-5.1726706E-2,7.279196E-3,1.1197395E-2,-4.1347947E-2,2.4656357E-2,9.195176E-3,5.1867604E-2,2.1570982E-2,-5.162833E-2,7.905108E-3,6.3609346E-3,-8.807088E-3,1.3707004E-3,-1.19733205E-2,-1.4425452E-2,1.32372575E-2],"categories":[],"categories_nodes":[],"categories_segments":[],"categories_sizes":[],"default_left":[0,0,0,0,0,0,0,0,0,0,0,0,0,0,0,0,0,0,0,0,0,0,0,0,0,0,0,0,0,0,0],"id":10,"left_children":[1,3,5,7,9,11,13,15,17,19,21,23,25,27,29,-1,-1,-1,-1,-1,-1,-1,-1,-1,-1,-1,-1,-1,-1,-1,-1],"loss_changes":[5.6266823E1,1.1747147E1,1.3677857E1,8.617672E0,6.6574554E0,7.4572725E0,7.440317E0,7.1975503E0,9.28096E0,4.6657944E0,8.3119583E-1,9.907845E0,5.773062E0,6.766657E0,5.919843E0,0E0,0E0,0E0,0E0,0E0,0E0,0E0,0E0,0E0,0E0,0E0,0E0,0E0,0E0,0E0,0E0],"parents":[2147483647,0,0,1,1,2,2,3,3,4,4,5,5,6,6,7,7,8,8,9,9,10,10,11,11,12,12,13,13,14,14],"right_children":[2,4,6,8,10,12,14,16,18,20,22,24,26,28,30,-1,-1,-1,-1,-1,-1,-1,-1,-1,-1,-1,-1,-1,-1,-1,-1],"split_conditions":[1.96E0,2.5E0,2.19E0,5.2704626E-1,2.1111112E0,2.2222222E-1,7E-1,6.25E-1,4.2E0,1.35E0,3.8333333E0,1.25E0,1.8E0,8E-1,8.5714287E-1,-5.1726706E-2,7.279196E-3,1.1197395E-2,-4.1347947E-2,2.4656357E-2,9.195176E-3,5.1867604E-2,2.1570982E-2,-5.162833E-2,7.905108E-3,6.3609346E-3,-8.807088E-3,1.3707004E-3,-1.19733205E-2,-1.4425452E-2,1.32372575E-2],"split_indices":[16,17,16,28,6,19,18,5,22,24,14,10,5,10,22,0,0,0,0,0,0,0,0,0,0,0,0,0,0,0,0],"split_type":[0,0,0,0,0,0,0,0,0,0,0,0,0,0,0,0,0,0,0,0,0,0,0,0,0,0,0,0,0,0,0],"sum_hessian":[2.4039915E3,1.1342788E3,1.2697126E3,8.865047E2,2.4777415E2,5.713262E2,6.9838654E2,1.89866E1,8.6751807E2,2.2236621E2,2.540794E1,2.6257206E1,5.45069E2,6.0370917E2,9.467737E1,9.300437E0,9.686165E0,8.60029E2,7.4891257E0,1.4446135E2,7.790486E1,1.980082E1,5.6071186E0,1.3102225E1,1.3154981E1,4.739319E2,7.1137085E1,1.16932755E2,4.867764E2,2.565965E1,6.901772E1],"tree_param":{"num_deleted":"0","num_feature":"33","num_nodes":"31","size_leaf_vector":"1"}},{"base_weights":[1.0307137E-1,-3.6875834E-3,2.9697773E-1,-9.840547E-2,7.366099E-2,1.9130926E-1,3.597138E-1,5.1048756E-2,-1.1081942E-1,5.9434813E-2,7.037162E-1,-2.7284265E-1,2.375042E-1,3.7859717E-1,-1.9299759E-1,-3.910758E-3,-2.2945926E-2,1.0987288E-2,5.966929E-4,-3.100507E-3,5.0555807E-2,-4.6107735E-2,2.990634E-3,-8.947647E-3,1.4940185E-2,1.5171163E-2,2.5399288E-2,3.379245E-2,-3.7003677E-2],"categories":[],"categories_nodes":[],"categories_segments":[],"categories_sizes":[],"default_left":[0,0,0,0,0,0,0,0,0,0,0,0,0,0,0,0,0,0,0,0,0,0,0,0,0,0,0,0,0],"id":11,"left_children":[1,3,5,7,9,11,13,-1,15,17,19,21,23,25,27,-1,-1,-1,-1,-1,-1,-1,-1,-1,-1,-1,-1,-1,-1],"loss_changes":[4.9506275E1,1.130702E1,5.5041122E0,9.668543E0,7.490167E0,6.9010887E0,5.633438E0,0E0,7.713932E0,6.304768E0,4.511117E0,6.436465E0,7.490593E0,4.763695E0,9.076151E0,0E0,0E0,0E0,0E0,0E0,0E0,0E0,0E0,0E0,0E0,0E0,0E0,0E0,0E0],"parents":[2147483647,0,0,1,1,2,2,3,3,4,4,5,5,6,6,8,8,9,9,10,10,11,11,12,12,13,13,14,14],"right_children":[2,4,6,8,10,12,14,-1,16,18,20,22,24,26,28,-1,-1,-1,-1,-1,-1,-1,-1,-1,-1,-1,-1,-1,-1],"split_conditions":[2.06E0,1.73E0,1.4E0,-1E0,2.25E0,5.03125E-1,2.875E0,5.1048756E-2,9E-1,-3.75E-1,2.857143E-1,2.17E0,2.2666667E0,2.45E0,3.65E0,-3.910758E-3,-2.2945926E-2,1.0987288E-2,5.966929E-4,-3.100507E-3,5.0555807E-2,-4.6107735E-2,2.990634E-3,-8.947647E-3,1.4940185E-2,1.5171163E-2,2.5399288E-2,3.379245E-2,-3.7003677E-2],"split_indices":[17,17,13,25,0,24,23,0,9,26,20,17,14,17,14,0,0,0,0,0,0,0,0,0,0,0,0,0,0],"split_type":[0,0,0,0,0,0,0,0,0,0,0,0,0,0,0,0,0,0,0,0,0,0,0,0,0,0,0,0,0],"sum_hessian":[2.3889946E3,1.5410208E3,8.47974E2,6.931897E2,8.4783105E2,3.1799976E2,5.2997424E2,6.6236944E0,6.86566E2,8.3033575E2,1.7495316E1,2.814425E1,2.898555E2,5.1294543E2,1.7028822E1,6.291495E2,5.741653E1,1.8848532E2,6.418504E2,5.1470633E0,1.2348251E1,9.035774E0,1.9108479E1,3.67349E1,2.5312059E2,3.270497E2,1.858957E2,6.4179254E0,1.0610897E1],"tree_param":{"num_deleted":"0","num_feature":"33","num_nodes":"29","size_leaf_vector":"1"}},{"base_weights":[8.161568E-2,-1.9450407E-2,2.842325E-1,-2.7540308E-1,2.0428436E-2,2.2234806E-1,4.174673E-1,-7.194423E-2,-4.7214308E-1,-1.6290897E-1,6.1088447E-2,2.4902034E-1,-2.196007E-1,3.6797985E-1,4.85224E-2,-7.643025E-3,2.64065E-2,-1.7441457E-2,-4.622185E-2,3.6277305E-2,-1.04317395E-2,3.6012984E-3,-2.7500931E-2,3.1066313E-2,1.0654823E-2,2.168223E-2,-2.7568012E-2,2.3044072E-2,1.9850323E-3],"categories":[],"categories_nodes":[],"categories_segments":[],"categories_sizes":[],"default_left":[0,0,0,0,0,0,0,0,0,0,0,0,0,0,0,0,0,0,0,0,0,0,0,0,0,0,0,0,0],"id":12,"left_children":[1,3,5,7,9,11,13,15,17,19,21,23,25,27,-1,-1,-1,-1,-1,-1,-1,-1,-1,-1,-1,-1,-1,-1,-1],"loss_changes":[4.917432E1,1.6380327E1,6.431488E0,8.570864E0,1.033485E1,6.520548E0,6.3990593E0,5.276406E0,5.660244E0,1.0316532E1,7.5843825E0,6.708885E0,7.0827155E0,7.0336914E0,0E0,0E0,0E0,0E0,0E0,0E0,0E0,0E0,0E0,0E0,0E0,0E0,0E0,0E0,0E0],"parents":[2147483647,0,0,1,1,2,2,3,3,4,4,5,5,6,6,7,7,8,8,9,9,10,10,11,11,12,12,13,13],"right_children":[2,4,6,8,10,12,14,16,18,20,22,24,26,28,-1,-1,-1,-1,-1,-1,-1,-1,-1,-1,-1,-1,-1,-1,-1],"split_conditions":[2.08E0,1.57E0,2.5E0,4.4444445E-1,8.333333E-1,1.8287822E0,2.857143E0,1.5555556E0,1.6E0,6E-1,7E-1,7.2648317E-1,8E-1,1.5714285E0,4.85224E-2,-7.643025E-3,2.64065E-2,-1.7441457E-2,-4.622185E-2,3.6277305E-2,-1.04317395E-2,3.6012984E-3,-2.7500931E-2,3.1066313E-2,1.0654823E-2,2.168223E-2,-2.7568012E-2,2.3044072E-2,1.9850323E-3],"split_indices":[17,17,17,9,8,28,0,6,10,10,20,27,7,24,0,0,0,0,0,0,0,0,0,0,0,0,0,0,0],"split_type":[0,0,0,0,0,0,0,0,0,0,0,0,0,0,0,0,0,0,0,0,0,0,0,0,0,0,0,0,0],"sum_hessian":[2.398798E3,1.6007487E3,7.9804944E2,2.1532689E2,1.3854218E3,5.4727325E2,2.5077618E2,1.0677717E2,1.0854973E2,2.5048955E2,1.1349321E3,5.1674945E2,3.05238E1,2.3187177E2,1.8904419E1,9.489331E1,1.188386E1,8.686035E1,2.1689375E1,1.1426076E1,2.3906348E2,1.1160038E3,1.8928326E1,4.379455E1,4.729549E2,1.0075765E1,2.0448034E1,1.8017459E2,5.169717E1],"tree_param":{"num_deleted":"0","num_feature":"33","num_nodes":"29","size_leaf_vector":"1"}},{"base_weights":[8.2817264E-2,2.3139548E-1,-4.8210174E-2,1.6940036E-1,4.4366807E-1,-6.928172E-2,2.8854316E-1,-1.0128105E-1,2.0571126E-1,1.4309911E-2,4.9369633E-1,-8.225153E-1,-6.1234247E-2,1.4906032E-1,4.5504894E-2,-6.702651E-2,4.001917E-4,-2.0936903E-2,1.0975498E-2,-2.0111052E-2,2.631226E-2,5.510679E-4,2.6597947E-2,-6.353149E-2,-1.0370477E-2,1.1813405E-3,-6.3239518E-3,2.1927144E-2,-2.2459559E-3],"categories":[],"categories_nodes":[],"categories_segments":[],"categories_sizes":[],"default_left":[0,0,0,0,0,0,0,0,0,0,0,0,0,0,0,0,0,0,0,0,0,0,0,0,0,0,0,0,0],"id":13,"left_children":[1,3,5,7,9,11,13,15,17,19,21,23,25,27,-1,-1,-1,-1,-1,-1,-1,-1,-1,-1,-1,-1,-1,-1,-1],"loss_changes":[4.687912E1,1.4711285E1,9.075559E0,8.633465E0,5.399105E0,7.1655803E0,6.2820435E0,1.4210405E1,6.726986E0,6.1415353E0,4.137665E0,3.0413828E0,6.621283E0,3.58455E0,0E0,0E0,0E0,0E0,0E0,0E0,0E0,0E0,0E0,0E0,0E0,0E0,0E0,0E0,0E0],"parents":[2147483647,0,0,1,1,2,2,3,3,4,4,5,5,6,6,7,7,8,8,9,9,10,10,11,11,12,12,13,13],"right_children":[2,4,6,8,10,12,14,16,18,20,22,24,26,28,-1,-1,-1,-1,-1,-1,-1,-1,-1,-1,-1,-1,-1,-1,-1],"split_conditions":[1.96E0,2.5E0,7.1428573E-1,8.5714287E-1,-6.666667E-1,4.830459E-1,1.0588236E0,1.63E0,5.2704626E-1,4.1666668E-2,3.3333334E-1,2.2222222E-1,2.19E0,9.189366E-1,4.5504894E-2,-6.702651E-2,4.001917E-4,-2.0936903E-2,1.0975498E-2,-2.0111052E-2,2.631226E-2,5.510679E-4,2.6597947E-2,-6.353149E-2,-1.0370477E-2,1.1813405E-3,-6.3239518E-3,2.1927144E-2,-2.2459559E-3],"split_indices":[16,17,19,3,26,27,22,16,28,25,30,20,16,28,0,0,0,0,0,0,0,0,0,0,0,0,0,0,0],"split_type":[0,0,0,0,0,0,0,0,0,0,0,0,0,0,0,0,0,0,0,0,0,0,0,0,0,0,0,0,0],"sum_hessian":[2.4055168E3,1.1272603E3,1.2782566E3,8.74212E2,2.5304825E2,1.2040098E3,7.424685E1,1.0286399E2,7.7134796E2,2.6750668E1,2.2629758E2,1.1526323E1,1.1924834E3,6.1782883E1,1.2463967E1,7.4972034E0,9.536678E1,1.5885116E1,7.554629E2,1.4760177E1,1.1990492E1,1.6908009E1,2.0938957E2,5.9577346E0,5.5685883E0,5.179342E2,6.7454926E2,2.4490128E1,3.7292755E1],"tree_param":{"num_deleted":"0","num_feature":"33","num_nodes":"29","size_leaf_vector":"1"}},{"base_weights":[6.168628E-2,-3.5407405E-2,2.4561134E-1,1.4460905E-1,-6.998902E-2,-7.1177654E-2,2.7823108E-1,5.405024E-2,5.359213E-1,-3.9515655E-2,-3.2159877E-1,2.4723691E-1,-4.4379622E-1,2.937182E-1,-4.8106444E-1,3.1324875E-2,-6.644625E-4,3.1765535E-2,-1.1185645E-2,-3.7616686E-4,-1.3492309E-2,5.8268737E-3,-2.4653135E-2,-3.5529472E-2,2.0020138E-2,3.0676356E-2,-3.3812325E-2,9.483843E-3,1.8919736E-2,-5.5479813E-2,7.4764255E-5],"categories":[],"categories_nodes":[],"categories_segments":[],"categories_sizes":[],"default_left":[0,0,0,0,0,0,0,0,0,0,0,0,0,0,0,0,0,0,0,0,0,0,0,0,0,0,0,0,0,0,0],"id":14,"left_children":[1,3,5,7,9,11,13,15,17,19,21,23,25,27,29,-1,-1,-1,-1,-1,-1,-1,-1,-1,-1,-1,-1,-1,-1,-1,-1],"loss_changes":[4.2710114E1,9.743657E0,8.578518E0,8.842595E0,1.0024142E1,9.34177E0,8.937233E0,8.009527E0,3.7349157E0,8.61614E0,1.0719858E1,6.468767E0,9.337865E0,6.3498383E0,4.7328854E0,0E0,0E0,0E0,0E0,0E0,0E0,0E0,0E0,0E0,0E0,0E0,0E0,0E0,0E0,0E0,0E0],"parents":[2147483647,0,0,1,1,2,2,3,3,4,4,5,5,6,6,7,7,8,8,9,9,10,10,11,11,12,12,13,13,14,14],"right_children":[2,4,6,8,10,12,14,16,18,20,22,24,26,28,30,-1,-1,-1,-1,-1,-1,-1,-1,-1,-1,-1,-1,-1,-1,-1,-1],"split_conditions":[2.06E0,-4.7619048E-1,8.5714287E-1,8.333333E-1,1.7777778E0,1.625E0,3.75E0,7.1428573E-1,2.02E0,2.56E0,1.1595018E0,8.5714287E-1,1.52E0,2.29E0,1.1737878E0,3.1324875E-2,-6.644625E-4,3.1765535E-2,-1.1185645E-2,-3.7616686E-4,-1.3492309E-2,5.8268737E-3,-2.4653135E-2,-3.5529472E-2,2.0020138E-2,3.0676356E-2,-3.3812325E-2,9.483843E-3,1.8919736E-2,-5.5479813E-2,7.4764255E-5],"split_indices":[17,26,3,32,5,5,22,10,17,16,28,8,16,17,28,0,0,0,0,0,0,0,0,0,0,0,0,0,0,0,0],"split_type":[0,0,0,0,0,0,0,0,0,0,0,0,0,0,0,0,0,0,0,0,0,0,0,0,0,0,0,0,0,0,0],"sum_hessian":[2.3889927E3,1.5637538E3,8.252388E2,2.510139E2,1.3127399E3,7.664526E1,7.485935E2,2.0497221E2,4.604169E1,1.1723115E3,1.4042836E2,4.1365356E1,3.527991E1,7.343599E2,1.4233607E1,2.0856272E1,1.8411595E2,4.0975784E1,5.0659075E0,1.030627E3,1.4168462E2,3.9424736E1,1.01003624E2,5.111049E0,3.6254307E1,5.9853506E0,2.929456E1,3.3148648E2,4.0287344E2,5.7074766E0,8.526131E0],"tree_param":{"num_deleted":"0","num_feature":"33","num_nodes":"31","size_leaf_vector":"1"}},{"base_weights":[6.738322E-2,-2.650221E-2,2.599725E-1,-2.1615973E-1,2.3211159E-2,1.0190814E-2,2.8621596E-1,-2.5820124E-1,3.225093E-1,1.1580549E-2,5.5138063E-1,-1.7384249E-1,6.574759E-1,7.354114E-1,2.6636565E-1,1.3563133E-2,-1.5227899E-2,-3.152743E-2,3.104034E-2,-2.727473E-3,4.359718E-3,7.0662065E-3,3.722419E-2,2.421699E-2,-1.5675185E-2,4.3866683E-2,8.872747E-3,6.511669E-3,4.6288833E-2,-7.4916333E-3,1.4313469E-2],"categories":[],"categories_nodes":[],"categories_segments":[],"categories_sizes":[],"default_left":[0,0,0,0,0,0,0,0,0,0,0,0,0,0,0,0,0,0,0,0,0,0,0,0,0,0,0,0,0,0,0],"id":15,"left_children":[1,3,5,7,9,11,13,15,17,19,21,23,25,27,29,-1,-1,-1,-1,-1,-1,-1,-1,-1,-1,-1,-1,-1,-1,-1,-1],"loss_changes":[4.3109066E1,1.51311655E1,5.0886536E0,7.624361E0,7.7386947E0,9.177544E0,6.0042152E0,7.6915913E0,7.327406E0,6.227543E0,1.9565325E0,5.612896E0,1.5416675E0,3.1287785E0,5.6767654E0,0E0,0E0,0E0,0E0,0E0,0E0,0E0,0E0,0E0,0E0,0E0,0E0,0E0,0E0,0E0,0E0],"parents":[2147483647,0,0,1,1,2,2,3,3,4,4,5,5,6,6,7,7,8,8,9,9,10,10,11,11,12,12,13,13,14,14],"right_children":[2,4,6,8,10,12,14,16,18,20,22,24,26,28,30,-1,-1,-1,-1,-1,-1,-1,-1,-1,-1,-1,-1,-1,-1,-1,-1],"split_conditions":[2.08E0,8.333333E-1,8.5714287E-1,1.7E0,2.1111112E0,4.7619048E-1,8E-1,8E-1,5E-1,1.1666666E0,1E0,7.5E-1,6.25E-1,5E-1,4.2857143E-1,1.3563133E-2,-1.5227899E-2,-3.152743E-2,3.104034E-2,-2.727473E-3,4.359718E-3,7.0662065E-3,3.722419E-2,2.421699E-2,-1.5675185E-2,4.3866683E-2,8.872747E-3,6.511669E-3,4.6288833E-2,-7.4916333E-3,1.4313469E-2],"split_indices":[17,8,3,6,0,25,0,3,12,12,6,1,19,10,24,0,0,0,0,0,0,0,0,0,0,0,0,0,0,0,0],"split_type":[0,0,0,0,0,0,0,0,0,0,0,0,0,0,0,0,0,0,0,0,0,0,0,0,0,0,0,0,0,0,0],"sum_hessian":[2.3815034E3,1.6012517E3,7.802517E2,3.3227588E2,1.2689758E3,7.467773E1,7.05574E2,3.0887537E2,2.340049E1,1.2428195E3,2.615637E1,5.8595142E1,1.6082582E1,2.812156E1,6.7745245E2,2.430192E1,2.8457346E2,5.232771E0,1.8167719E1,6.624301E2,5.8038934E2,9.094281E0,1.706209E1,9.699635E0,4.8895508E1,1.031988E1,5.7627025E0,7.2578917E0,2.0863667E1,3.039174E1,6.4706067E2],"tree_param":{"num_deleted":"0","num_feature":"33","num_nodes":"31","size_leaf_vector":"1"}},{"base_weights":[6.658025E-2,-1.0062035E-1,1.3978645E-1,-3.89531E-1,-5.6118604E-2,7.600221E-2,2.536254E-1,-2.8482687E-2,-6.720584E-1,-4.3035064E-2,-6.1913688E-2,5.7854224E-2,6.660654E-1,2.7650326E-1,-3.423675E-1,7.961038E-3,-3.4509E-2,-4.5491856E-2,3.141708E-2,-7.0761464E-4,-1.9210892E-2,2.0792212E-3,2.0882186E-2,3.8629025E-2,5.988099E-3,3.341311E-2,1.1924098E-2,1.2630741E-2,-4.5024578E-2],"categories":[],"categories_nodes":[],"categories_segments":[],"categories_sizes":[],"default_left":[0,0,0,0,0,0,0,0,0,0,0,0,0,0,0,0,0,0,0,0,0,0,0,0,0,0,0,0,0],"id":16,"left_children":[1,3,5,7,9,11,13,15,17,19,-1,21,23,25,27,-1,-1,-1,-1,-1,-1,-1,-1,-1,-1,-1,-1,-1,-1],"loss_changes":[2.893164E1,9.183943E0,1.1883053E1,9.658836E0,9.484017E0,1.1191382E1,8.122784E0,5.522535E0,1.711513E1,6.0564637E0,0E0,5.93806E0,1.635704E0,8.213394E0,7.6207247E0,0E0,0E0,0E0,0E0,0E0,0E0,0E0,0E0,0E0,0E0,0E0,0E0,0E0,0E0],"parents":[2147483647,0,0,1,1,2,2,3,3,4,4,5,5,6,6,7,7,8,8,9,9,11,11,12,12,13,13,14,14],"right_children":[2,4,6,8,10,12,14,16,18,20,-1,22,24,26,28,-1,-1,-1,-1,-1,-1,-1,-1,-1,-1,-1,-1,-1,-1],"split_conditions":[1.74E0,5E-1,2.18E0,6E-1,8.333333E-1,2.25E0,4.8E0,1.2222222E0,1.5E0,9E-1,-6.1913688E-2,2.25E0,1.3984118E0,1E-1,-4.761905E-2,7.961038E-3,-3.4509E-2,-4.5491856E-2,3.141708E-2,-7.0761464E-4,-1.9210892E-2,2.0792212E-3,2.0882186E-2,3.8629025E-2,5.988099E-3,3.341311E-2,1.1924098E-2,1.2630741E-2,-4.5024578E-2],"split_indices":[17,11,17,2,19,0,15,0,12,9,0,11,28,21,26,0,0,0,0,0,0,0,0,0,0,0,0,0,0],"split_type":[0,0,0,0,0,0,0,0,0,0,0,0,0,0,0,0,0,0,0,0,0,0,0,0,0,0,0,0,0],"sum_hessian":[2.3612039E3,7.1847943E2,1.6427244E3,9.456327E1,6.239162E2,1.0544562E3,5.882683E2,4.215157E1,5.2411697E1,6.1819525E2,5.7209005E0,1.0242227E3,3.023348E1,5.671995E2,2.106876E1,3.331061E1,8.8409605E0,4.4628586E1,7.7831154E0,5.7117694E2,4.701831E1,9.8124396E2,4.2978672E1,2.480073E1,5.4327493E0,4.8479248E1,5.187203E2,1.0375877E1,1.0692882E1],"tree_param":{"num_deleted":"0","num_feature":"33","num_nodes":"29","size_leaf_vector":"1"}},{"base_weights":[6.51516E-2,1.8168418E-1,-3.597652E-2,-4.7053993E-1,1.9719794E-1,-1.8443736E-1,1.0374778E-2,-3.5647906E-2,-8.8615113E-1,1.662518E-1,3.9593E-1,-2.3264984E-2,-4.349064E-1,-2.1268488E-3,6.189849E-1,2.1866912E-2,-2.7510215E-2,-7.532095E-2,-1.367792E-2,-6.1541437E-3,9.763441E-3,1.384791E-2,3.0451408E-2,8.6414395E-3,-1.0056024E-2,1.6077258E-2,-2.7087418E-2,4.6740912E-4,-2.9721258E-2,4.8036255E-2,-5.4732495E-4],"categories":[],"categories_nodes":[],"categories_segments":[],"categories_sizes":[],"default_left":[0,0,0,0,0,0,0,0,0,0,0,0,0,0,0,0,0,0,0,0,0,0,0,0,0,0,0,0,0,0,0],"id":17,"left_children":[1,3,5,7,9,11,13,15,17,19,21,23,25,27,29,-1,-1,-1,-1,-1,-1,-1,-1,-1,-1,-1,-1,-1,-1,-1,-1],"loss_changes":[2.78265E1,1.1163933E1,8.714526E0,4.508596E0,6.4721375E0,1.2103523E1,7.392987E0,3.5821896E0,4.328865E0,7.8384857E0,3.3759956E0,6.4748926E0,9.703577E0,6.4856963E0,4.315189E0,0E0,0E0,0E0,0E0,0E0,0E0,0E0,0E0,0E0,0E0,0E0,0E0,0E0,0E0,0E0,0E0],"parents":[2147483647,0,0,1,1,2,2,3,3,4,4,5,5,6,6,7,7,8,8,9,9,10,10,11,11,12,12,13,13,14,14],"right_children":[2,4,6,8,10,12,14,16,18,20,22,24,26,28,30,-1,-1,-1,-1,-1,-1,-1,-1,-1,-1,-1,-1,-1,-1,-1,-1],"split_conditions":[1.96E0,7.777778E-1,8.888889E-1,1.118034E0,4.4444445E-1,2.3666666E0,4.4166665E0,4.4444445E-1,1.7692307E0,8.5714287E-1,8.888889E-1,0E0,8.164966E-1,7E-1,3E0,2.1866912E-2,-2.7510215E-2,-7.532095E-2,-1.367792E-2,-6.1541437E-3,9.763441E-3,1.384791E-2,3.0451408E-2,8.6414395E-3,-1.0056024E-2,1.6077258E-2,-2.7087418E-2,4.6740912E-4,-2.9721258E-2,4.8036255E-2,-5.4732495E-4],"split_indices":[16,8,8,28,20,14,15,21,22,3,7,26,28,20,13,0,0,0,0,0,0,0,0,0,0,0,0,0,0,0,0],"split_type":[0,0,0,0,0,0,0,0,0,0,0,0,0,0,0,0,0,0,0,0,0,0,0,0,0,0,0,0,0,0,0],"sum_hessian":[2.3584443E3,1.0958546E3,1.2625896E3,2.462915E1,1.0712255E3,3.0021014E2,9.6237946E2,1.2683561E1,1.1945589E1,9.2891626E2,1.4230923E2,1.8357501E2,1.1663514E2,9.4382434E2,1.8555157E1,6.585666E0,6.097895E0,5.129497E0,6.816092E0,8.405895E1,8.448573E2,9.3100555E1,4.9208687E1,8.705687E1,9.651814E1,1.4070331E1,1.0256481E2,9.2668634E2,1.7137993E1,1.1791723E1,6.763434E0],"tree_param":{"num_deleted":"0","num_feature":"33","num_nodes":"31","size_leaf_vector":"1"}},{"base_weights":[7.080326E-2,1.9535317E-1,-3.617903E-2,2.076537E-1,-1.9809303E-1,-2.3507191E-1,5.1694373E-3,7.236822E-1,1.96184E-1,2.68915E-1,-6.9893575E-1,-5.43766E-2,-4.1083995E-1,-7.950799E-3,5.531149E-1,4.8085272E-2,1.4928232E-2,7.1407356E-3,1.4712862E-2,-1.8850394E-2,3.8623653E-2,-5.2889843E-2,3.751716E-3,-1.7103195E-2,1.9016692E-2,-4.158003E-2,-1.3085172E-2,-3.7988797E-2,7.763976E-5,7.207901E-3,4.2902198E-2],"categories":[],"categories_nodes":[],"categories_segments":[],"categories_sizes":[],"default_left":[0,0,0,0,0,0,0,0,0,0,0,0,0,0,0,0,0,0,0,0,0,0,0,0,0,0,0,0,0,0,0],"id":18,"left_children":[1,3,5,7,9,11,13,15,17,19,21,23,25,27,29,-1,-1,-1,-1,-1,-1,-1,-1,-1,-1,-1,-1,-1,-1,-1,-1],"loss_changes":[3.1756504E1,5.37059E0,1.0563541E1,6.0894394E0,8.100129E0,6.9504423E0,7.690505E0,1.8806581E0,5.392845E0,6.1947937E0,4.792407E0,1.3934151E1,6.675911E0,7.4901495E0,2.8956475E0,0E0,0E0,0E0,0E0,0E0,0E0,0E0,0E0,0E0,0E0,0E0,0E0,0E0,0E0,0E0,0E0],"parents":[2147483647,0,0,1,1,2,2,3,3,4,4,5,5,6,6,7,7,8,8,9,9,10,10,11,11,12,12,13,13,14,14],"right_children":[2,4,6,8,10,12,14,16,18,20,22,24,26,28,30,-1,-1,-1,-1,-1,-1,-1,-1,-1,-1,-1,-1,-1,-1,-1,-1],"split_conditions":[1.96E0,3.2E0,1.57E0,1.6666667E-1,6.4285713E-1,4.2857143E-1,2.857143E0,9.166667E-1,2.34E0,4.2857143E-1,1E0,4E-1,7.527726E-1,-1.0952381E0,1.7777778E0,4.8085272E-2,1.4928232E-2,7.1407356E-3,1.4712862E-2,-1.8850394E-2,3.8623653E-2,-5.2889843E-2,3.751716E-3,-1.7103195E-2,1.9016692E-2,-4.158003E-2,-1.3085172E-2,-3.7988797E-2,7.763976E-5,7.207901E-3,4.2902198E-2],"split_indices":[16,24,17,9,23,9,22,22,17,23,2,30,27,26,0,0,0,0,0,0,0,0,0,0,0,0,0,0,0,0,0],"split_type":[0,0,0,0,0,0,0,0,0,0,0,0,0,0,0,0,0,0,0,0,0,0,0,0,0,0,0,0,0,0,0],"sum_hessian":[2.3805679E3,1.1000209E3,1.2805471E3,1.0673772E3,3.2643665E1,2.2000764E2,1.0605394E3,2.1668882E1,1.0457084E3,1.702873E1,1.5614934E1,1.0940945E2,1.10598206E2,1.0365234E3,2.4015963E1,1.2931243E1,8.737639E0,6.794452E2,3.6626315E2,7.4829464E0,9.545784E0,1.05061245E1,5.10881E0,6.6104965E1,4.3304485E1,2.7569483E1,8.302872E1,1.2084696E1,1.0244387E3,1.1027324E1,1.2988639E1],"tree_param":{"num_deleted":"0","num_feature":"33","num_nodes":"31","size_leaf_vector":"1"}},{"base_weights":[6.315097E-2,1.9125979E-1,-1.8300369E-3,5.0863445E-2,2.8067833E-1,-1.2381466E-2,6.068155E-1,-3.9688537E-1,9.880022E-2,2.957191E-1,-4.2672046E-2,-2.7345184E-3,-4.6446633E-1,8.424331E-1,-7.978787E-3,-2.9841347E-2,1.4099161E-2,8.7664195E-4,1.903159E-2,3.5619725E-2,1.3596296E-2,4.7806604E-3,-2.991365E-3,-5.541365E-3,-7.214367E-2,2.7298147E-2,5.7232287E-2],"categories":[],"categories_nodes":[],"categories_segments":[],"categories_sizes":[],"default_left":[0,0,0,0,0,0,0,0,0,0,0,0,0,0,0,0,0,0,0,0,0,0,0,0,0,0,0],"id":19,"left_children":[1,3,5,7,9,11,13,15,17,19,-1,21,23,25,-1,-1,-1,-1,-1,-1,-1,-1,-1,-1,-1,-1,-1],"loss_changes":[1.9689865E1,9.942209E0,1.001919E1,6.690327E0,8.477669E0,6.6797476E0,5.0026703E0,4.2853208E0,6.416193E0,4.4659843E0,0E0,8.489767E0,1.0759383E1,1.0508089E0,0E0,0E0,0E0,0E0,0E0,0E0,0E0,0E0,0E0,0E0,0E0,0E0,0E0],"parents":[2147483647,0,0,1,1,2,2,3,3,4,4,5,5,6,6,7,7,8,8,9,9,11,11,12,12,13,13],"right_children":[2,4,6,8,10,12,14,16,18,20,-1,22,24,26,-1,-1,-1,-1,-1,-1,-1,-1,-1,-1,-1,-1,-1],"split_conditions":[1.83E0,1.5E0,2.6E0,8.888889E-1,5E0,7E-1,2.625E0,1.9285715E0,6.25E-1,1E-1,-4.2672046E-2,8.181818E-1,1.2866839E0,7.692308E-1,-7.978787E-3,-2.9841347E-2,1.4099161E-2,8.7664195E-4,1.903159E-2,3.5619725E-2,1.3596296E-2,4.7806604E-3,-2.991365E-3,-5.541365E-3,-7.214367E-2,2.7298147E-2,5.7232287E-2],"split_indices":[16,10,11,8,22,20,1,24,29,20,0,24,27,22,0,0,0,0,0,0,0,0,0,0,0,0,0],"split_type":[0,0,0,0,0,0,0,0,0,0,0,0,0,0,0,0,0,0,0,0,0,0,0,0,0,0,0],"sum_hessian":[2.3619336E3,7.947314E2,1.5672021E3,3.1026712E2,4.8446426E2,1.5416207E3,2.5581453E1,2.9099607E1,2.811675E2,4.7893994E2,5.5243053E0,1.5106133E3,3.1007425E1,1.9590008E1,5.991446E0,2.2686188E1,6.413421E0,2.1933759E2,6.1829933E1,2.4080954E1,4.54859E2,5.539521E2,9.566612E2,2.3668188E1,7.3392367E0,1.1472724E1,8.117283E0],"tree_param":{"num_deleted":"0","num_feature":"33","num_nodes":"27","size_leaf_vector":"1"}},{"base_weights":[4.657158E-2,-2.2820156E-2,1.9291642E-1,-3.4352783E-2,5.3317225E-1,5.9642438E-2,2.6081872E-1,-2.1753153E-1,-2.7829027E-3,-1.796454E-2,7.233534E-1,8.1361425E-1,2.1913452E-2,2.4543405E-1,4.5721028E-2,1.8457724E-2,-1.4274119E-2,5.266621E-4,-1.9245548E-2,4.4841755E-2,6.050129E-3,2.123433E-2,5.239389E-2,1.7991275E-2,-2.9513296E-3,1.4275151E-2,-2.8416104E-4],"categories":[],"categories_nodes":[],"categories_segments":[],"categories_sizes":[],"default_left":[0,0,0,0,0,0,0,0,0,0,0,0,0,0,0,0,0,0,0,0,0,0,0,0,0,0,0],"id":20,"left_children":[1,3,5,7,9,11,13,15,17,-1,19,21,23,25,-1,-1,-1,-1,-1,-1,-1,-1,-1,-1,-1,-1,-1],"loss_changes":[2.3904352E1,1.0200673E1,6.8032284E0,9.024584E0,5.7806187E0,7.2182436E0,4.694538E0,9.246692E0,6.8394775E0,0E0,2.6174078E0,5.109329E-1,6.7851186E0,4.967243E0,0E0,0E0,0E0,0E0,0E0,0E0,0E0,0E0,0E0,0E0,0E0,0E0,0E0],"parents":[2147483647,0,0,1,1,2,2,3,3,4,4,5,5,6,6,7,7,8,8,10,10,11,11,12,12,13,13],"right_children":[2,4,6,8,10,12,14,16,18,-1,20,22,24,26,-1,-1,-1,-1,-1,-1,-1,-1,-1,-1,-1,-1,-1],"split_conditions":[2.08E0,2.2E0,5.714286E-1,1.65E0,2.1666667E0,1.6666667E-1,3.6666667E0,-6.333333E-1,6E-1,-1.796454E-2,1.3333334E0,2.8333333E0,2.14E0,1.5811388E0,4.5721028E-2,1.8457724E-2,-1.4274119E-2,5.266621E-4,-1.9245548E-2,4.4841755E-2,6.050129E-3,2.123433E-2,5.239389E-2,1.7991275E-2,-2.9513296E-3,1.4275151E-2,-2.8416104E-4],"split_indices":[17,0,4,15,10,4,10,25,21,0,28,15,17,28,0,0,0,0,0,0,0,0,0,0,0,0,0],"split_type":[0,0,0,0,0,0,0,0,0,0,0,0,0,0,0,0,0,0,0,0,0,0,0,0,0,0,0],"sum_hessian":[2.350812E3,1.5947817E3,7.5603033E2,1.5634697E3,3.1312077E1,2.563112E2,4.9971915E2,2.2851178E2,1.3349579E3,5.2518253E0,2.6060251E1,1.1108332E1,2.4520285E2,4.897205E2,9.998673E0,2.3106495E1,2.0540527E2,1.2906915E3,4.4266415E1,1.9724527E1,6.335724E0,5.3935733E0,5.714759E0,4.6956535E1,1.982463E2,4.225573E2,6.716318E1],"tree_param":{"num_deleted":"0","num_feature":"33","num_nodes":"27","size_leaf_vector":"1"}},{"base_weights":[4.482142E-2,1.5507653E-1,-4.847041E-2,-9.774654E-2,1.8725285E-1,1.3118345E-1,-9.029695E-2,4.9567336E-1,-2.4012008E-1,3.1602678E-1,1.2960897E-1,1.6117911E-1,-3.921453E-2,-1.1666908E-1,1.8768549E-1,3.797933E-2,-1.5636649E-2,3.9571535E-2,-1.5817264E-2,1.9366836E-2,5.0827637E-3,6.9768257E-3,-3.901739E-2,-7.7107633E-3,1.2597728E-2,-4.3189167E-3,-1.9351333E-2,-3.269806E-2,1.48688285E-2],"categories":[],"categories_nodes":[],"categories_segments":[],"categories_sizes":[],"default_left":[0,0,0,0,0,0,0,0,0,0,0,0,0,0,0,0,0,0,0,0,0,0,0,0,0,0,0,0,0],"id":21,"left_children":[1,3,5,7,9,11,13,15,17,19,21,23,-1,25,27,-1,-1,-1,-1,-1,-1,-1,-1,-1,-1,-1,-1,-1,-1],"loss_changes":[2.4149445E1,8.780403E0,9.558844E0,1.038282E1,7.005039E0,6.6544147E0,7.58082E0,5.350464E0,7.989621E0,4.4081573E0,6.025735E0,6.728483E0,0E0,7.6465034E0,8.419909E0,0E0,0E0,0E0,0E0,0E0,0E0,0E0,0E0,0E0,0E0,0E0,0E0,0E0,0E0],"parents":[2147483647,0,0,1,1,2,2,3,3,4,4,5,5,6,6,7,7,8,8,9,9,10,10,11,11,13,13,14,14],"right_children":[2,4,6,8,10,12,14,16,18,20,22,24,-1,26,28,-1,-1,-1,-1,-1,-1,-1,-1,-1,-1,-1,-1,-1,-1],"split_conditions":[1.96E0,8.333333E-1,1.4285715E-1,7.5E-1,1.62E0,9.6666664E-1,7.083333E-1,1.5776212E0,2.2222222E-1,1E0,4.2E0,1.1111111E-1,-3.921453E-2,1.4298407E0,7.5E-1,3.797933E-2,-1.5636649E-2,3.9571535E-2,-1.5817264E-2,1.9366836E-2,5.0827637E-3,6.9768257E-3,-3.901739E-2,-7.7107633E-3,1.2597728E-2,-4.3189167E-3,-1.9351333E-2,-3.269806E-2,1.48688285E-2],"split_indices":[16,3,21,1,16,25,26,27,9,9,22,20,0,28,1,0,0,0,0,0,0,0,0,0,0,0,0,0,0],"split_type":[0,0,0,0,0,0,0,0,0,0,0,0,0,0,0,0,0,0,0,0,0,0,0,0,0,0,0,0,0],"sum_hessian":[2.3450527E3,1.0749976E3,1.2700552E3,1.2078581E2,9.5421173E2,2.3899474E2,1.0310604E3,2.2755577E1,9.8030235E1,2.9313763E2,6.610741E2,2.3231604E2,6.678702E0,9.4257825E2,8.8482155E1,1.7293886E1,5.461691E0,6.00949E0,9.2020744E1,2.1901105E2,7.412658E1,6.548859E2,6.1881847E0,5.1518234E1,1.807978E2,8.4913135E2,9.3446915E1,9.52494E0,7.8957214E1],"tree_param":{"num_deleted":"0","num_feature":"33","num_nodes":"29","size_leaf_vector":"1"}}]},"name":"gbtree"},"learner_model_param":{"base_score":"7.5623614E-1","boost_from_average":"1","num_class":"0","num_feature":"33","num_target":"1"},"objective":{"name":"binary:logistic","reg_loss_param":{"scale_pos_weight":"1"}}},"version":[2,1,4]}