{"learner":{"attributes":{"best_iteration":"0","best_score":"0.6319063702964671","scikit_learn":"{\"_estimator_type\": \"classifier\"}"},"feature_names":["home_goals_per_game","home_goals_conceded_per_game","home_over15_rate","home_over05_rate","home_first_half_goals","away_goals_per_game","away_goals_conceded_per_game","away_over15_rate","away_over05_rate","away_first_half_goals","home_home_goals","home_home_conceded","away_away_goals","away_away_conceded","total_expected_goals","defensive_strength","over15_odds","under15_odds","home_btts_rate","away_btts_rate","home_clean_sheet_rate","away_clean_sheet_rate","home_attack_strength","away_attack_strength","attack_vs_defense_ratio","home_momentum","away_momentum","home_goals_std","away_goals_std","home_over25_rate","away_over25_rate","home_scored_in_rate","away_scored_in_rate"],"feature_types":["float","float","float","float","float","float","float","float","float","float","float","float","float","float","float","float","float","float","float","float","float","float","float","float","float","float","float","float","float","float","float","float","float"],"gradient_booster":{"model":{"gbtree_model_param":{"num_parallel_tree":"1","num_trees":"21"},"iteration_indptr":[0,1,2,3,4,5,6,7,8,9,10,11,12,13,14,15,16,17,18,19,20,21],"tree_info":[0,0,0,0,0,0,0,0,0,0,0,0,0,0,0,0,0,0,0,0,0],"trees":[{"base_weights":[1.4199105E-1,-2.9439654E-2,4.3173322E-1,1.04298465E-1,-1.9611774E-1,3.3307606E-1,5.915009E-1,3.6366615E-3,2.324603E-1,-3.776308E-1,-9.179272E-2,7.069861E-2,3.7514937E-1,7.090526E-1,4.1070527E-1,-7.820627E-4,3.3181977E-2,1.2765313E-2,-5.452307E-2,-3.8549256E-2,-1.3940386E-2,2.2940587E-3,-1.0478587E-2,7.4167023E-3,-3.5877533E-2,-2.6148042E-2,1.9673815E-2,2.7213002E-2,4.277527E-2,-9.087634E-3,2.7300686E-2],"categories":[],"categories_nodes":[],"categories_segments":[],"categories_sizes":[],"default_left":[0,0,0,0,0,0,0,0,0,0,0,0,0,0,0,0,0,0,0,0,0,0,0,0,0,0,0,0,0,0,0],"id":0,"left_children":[1,3,5,7,9,11,13,15,17,19,21,23,25,27,29,-1,-1,-1,-1,-1,-1,-1,-1,-1,-1,-1,-1,-1,-1,-1,-1],"loss_changes":[1.2614859E2,3.5599102E1,1.4589447E1,1.1401147E1,1.3382803E1,6.4007416E0,7.22007E0,6.404974E0,1.195624E1,9.741905E0,7.374549E0,5.103042E0,8.499786E0,4.5990524E0,1.1682615E1,0E0,0E0,0E0,0E0,0E0,0E0,0E0,0E0,0E0,0E0,0E0,0E0,0E0,0E0,0E0,0E0],"parents":[2147483647,0,0,1,1,2,2,3,3,4,4,5,5,6,6,7,7,8,8,9,9,10,10,11,11,12,12,13,13,14,14],"right_children":[2,4,6,8,10,12,14,16,18,20,22,24,26,28,30,-1,-1,-1,-1,-1,-1,-1,-1,-1,-1,-1,-1,-1,-1,-1,-1],"split_conditions":[2.06E0,2.19E0,2.43E0,6E-1,1.1666666E0,7.5E-1,1.4444444E0,2.25E0,2.5555556E0,5.555556E-1,5E-1,2.1111112E0,7.1428573E-1,2.4166667E0,4.2857143E-1,-7.820627E-4,3.3181977E-2,1.2765313E-2,-5.452307E-2,-3.8549256E-2,-1.3940386E-2,2.2940587E-3,-1.0478587E-2,7.4167023E-3,-3.5877533E-2,-2.6148042E-2,1.9673815E-2,2.7213002E-2,4.277527E-2,-9.087634E-3,2.7300686E-2],"split_indices":[17,16,17,19,13,12,1,0,6,32,9,1,3,15,19,0,0,0,0,0,0,0,0,0,0,0,0,0,0,0,0],"split_type":[0,0,0,0,0,0,0,0,0,0,0,0,0,0,0,0,0,0,0,0,0,0,0,0,0,0,0,0,0,0,0],"sum_hessian":[2.5376323E3,1.5946718E3,9.4296045E2,8.846368E2,7.10035E2,5.852667E2,3.5769376E2,4.9648926E2,3.8814755E2,2.578422E2,4.521928E2,8.157928E1,5.036874E2,2.1465315E2,1.4304059E2,4.8320032E2,1.3288932E1,3.8242593E2,5.7216234E0,5.020263E1,2.0763956E2,2.0837782E2,2.4381499E2,7.511938E1,6.4598975E0,9.412993E0,4.942744E2,1.0354292E2,1.1111024E2,2.6393295E1,1.16647285E2],"tree_param":{"num_deleted":"0","num_feature":"33","num_nodes":"31","size_leaf_vector":"1"}},{"base_weights":[1.3285932E-1,-1.0835066E-2,2.6275855E-1,-1.1595925E-1,2.1523196E-1,5.6693077E-2,3.180373E-1,-2.738487E-1,4.485257E-3,1.2214418E-1,4.144458E-1,3.0264297E-1,-4.579159E-2,2.637544E-1,5.001744E-1,-2.5388855E-2,-8.063676E-3,-5.4757087E-3,1.14023425E-2,1.0023144E-3,1.9782355E-2,2.8050521E-2,8.7023685E-3,-6.9730864E-3,2.0627273E-2,-2.521543E-2,1.9541864E-4,1.3674653E-2,-3.8167562E-2,2.761121E-2,6.067813E-3],"categories":[],"categories_nodes":[],"categories_segments":[],"categories_sizes":[],"default_left":[0,0,0,0,0,0,0,0,0,0,0,0,0,0,0,0,0,0,0,0,0,0,0,0,0,0,0,0,0,0,0],"id":1,"left_children":[1,3,5,7,9,11,13,15,17,19,21,23,25,27,29,-1,-1,-1,-1,-1,-1,-1,-1,-1,-1,-1,-1,-1,-1,-1,-1],"loss_changes":[4.735831E1,2.8640171E1,1.5119263E1,1.5681571E1,6.986574E0,7.1823325E0,1.0170906E1,9.241354E0,1.1952979E1,7.2766623E0,4.092581E0,4.154964E0,4.623525E0,8.274872E0,4.587887E0,0E0,0E0,0E0,0E0,0E0,0E0,0E0,0E0,0E0,0E0,0E0,0E0,0E0,0E0,0E0,0E0],"parents":[2147483647,0,0,1,1,2,2,3,3,4,4,5,5,6,6,7,7,8,8,9,9,10,10,11,11,12,12,13,13,14,14],"right_children":[2,4,6,8,10,12,14,16,18,20,22,24,26,28,30,-1,-1,-1,-1,-1,-1,-1,-1,-1,-1,-1,-1,-1,-1,-1,-1],"split_conditions":[7.1428573E-1,1.4285715E0,6.25E-1,2.25E0,1.4E0,5.555556E-1,2.1666667E0,5.555556E-1,1.1666666E0,2.1E0,1.0540925E0,1.4166666E0,1.6666666E0,2.1317704E0,1.8846154E0,-2.5388855E-2,-8.063676E-3,-5.4757087E-3,1.14023425E-2,1.0023144E-3,1.9782355E-2,2.8050521E-2,8.7023685E-3,-6.9730864E-3,2.0627273E-2,-2.521543E-2,1.9541864E-4,1.3674653E-2,-3.8167562E-2,2.761121E-2,6.067813E-3],"split_indices":[7,0,2,15,6,31,10,7,12,0,28,14,14,28,24,0,0,0,0,0,0,0,0,0,0,0,0,0,0,0,0],"split_type":[0,0,0,0,0,0,0,0,0,0,0,0,0,0,0,0,0,0,0,0,0,0,0,0,0,0,0,0,0,0,0],"sum_hessian":[2.5346694E3,1.2035027E3,1.3311666E3,8.221305E2,3.8137225E2,2.823755E2,1.0487911E3,3.5557178E2,4.6655872E2,2.613601E2,1.2001214E2,8.2767334E1,1.9960815E2,8.1029376E2,2.3849738E2,1.1409222E2,2.4147957E2,3.0903644E2,1.5752228E2,1.9136354E2,6.999657E1,7.346985E1,4.654229E1,1.6243946E1,6.6523384E1,1.8822493E1,1.8078568E2,8.035063E2,6.7874937E0,2.0905183E2,2.9445553E1],"tree_param":{"num_deleted":"0","num_feature":"33","num_nodes":"31","size_leaf_vector":"1"}},{"base_weights":[1.2093963E-1,3.3824575E-1,-8.433608E-2,2.2836122E-1,4.9003842E-1,6.1803363E-2,-2.0265365E-1,2.4088904E-1,-3.5995428E-2,5.211109E-1,-2.1831518E-2,7.455031E-2,-5.460134E-2,-4.5499575E-1,-1.4803377E-1,2.4430256E-2,1.0202816E-2,3.6875356E-2,2.2638172E-2,-2.3308754E-2,1.1491402E-2,2.6815159E-3,3.490995E-2,-2.6283232E-2,1.9964512E-2,-6.742876E-3,-5.3851243E-2],"categories":[],"categories_nodes":[],"categories_segments":[],"categories_sizes":[],"default_left":[0,0,0,0,0,0,0,0,0,0,0,0,0,0,0,0,0,0,0,0,0,0,0,0,0,0,0],"id":2,"left_children":[1,3,5,7,9,11,13,15,-1,17,19,21,-1,23,25,-1,-1,-1,-1,-1,-1,-1,-1,-1,-1,-1,-1],"loss_changes":[1.1233769E2,2.021843E1,2.2417658E1,8.581413E0,8.210831E0,8.506555E0,9.743813E0,6.248554E0,0E0,6.694931E0,3.4965832E0,7.381929E0,0E0,7.86751E0,6.962616E0,0E0,0E0,0E0,0E0,0E0,0E0,0E0,0E0,0E0,0E0,0E0,0E0],"parents":[2147483647,0,0,1,1,2,2,3,3,4,4,5,5,6,6,7,7,9,9,10,10,11,11,13,13,14,14],"right_children":[2,4,6,8,10,12,14,16,-1,18,20,22,-1,24,26,-1,-1,-1,-1,-1,-1,-1,-1,-1,-1,-1,-1],"split_conditions":[1.96E0,2.29E0,2.19E0,4.1538463E0,2.560606E0,3.75E0,1.65E0,-6.25E-1,-3.5995428E-2,5E-1,2.05E0,2.3E0,-5.460134E-2,3E0,8.333333E-1,2.4430256E-2,1.0202816E-2,3.6875356E-2,2.2638172E-2,-2.3308754E-2,1.1491402E-2,2.6815159E-3,3.490995E-2,-2.6283232E-2,1.9964512E-2,-6.742876E-3,-5.3851243E-2],"split_indices":[16,17,16,24,24,23,15,25,0,18,15,1,0,22,19,0,0,0,0,0,0,0,0,0,0,0,0],"split_type":[0,0,0,0,0,0,0,0,0,0,0,0,0,0,0,0,0,0,0,0,0,0,0,0,0,0,0],"sum_hessian":[2.5161406E3,1.2221765E3,1.2939641E3,7.107903E2,5.113863E2,5.787527E2,7.152115E2,7.023626E2,8.427659E0,4.8228693E2,2.9099344E1,5.7343964E2,5.3130207E0,1.25632454E2,5.8957904E2,8.89765E1,6.133861E2,1.13062836E2,3.692241E2,1.0357156E1,1.874219E1,5.560341E2,1.7405556E1,1.1649722E2,9.135238E0,5.8256903E2,7.009996E0],"tree_param":{"num_deleted":"0","num_feature":"33","num_nodes":"27","size_leaf_vector":"1"}},{"base_weights":[1.2992442E-1,3.2085368E-1,-7.082714E-2,2.4294752E-1,5.9012127E-1,-3.4009838E-1,-1.0132772E-2,2.5254527E-1,-3.735704E-2,6.128965E-1,-4.078792E-3,3.178045E-1,-4.2854607E-1,1.750634E-1,-6.427072E-2,-2.1041106E-2,1.3319723E-2,1.6625052E-2,3.3593234E-2,3.192335E-2,-1.3826141E-2,8.194731E-3,-2.4167726E-2,-3.9563652E-2,1.0205326E-2,-1.3819109E-2,-2.1948291E-4],"categories":[],"categories_nodes":[],"categories_segments":[],"categories_sizes":[],"default_left":[0,0,0,0,0,0,0,0,0,0,0,0,0,0,0,0,0,0,0,0,0,0,0,0,0,0,0],"id":3,"left_children":[1,3,5,7,9,11,13,15,-1,17,-1,19,21,23,25,-1,-1,-1,-1,-1,-1,-1,-1,-1,-1,-1,-1],"loss_changes":[9.659288E1,2.6864517E1,2.0037525E1,9.676292E0,4.521385E0,1.3276054E1,1.0064185E1,9.374081E0,0E0,4.299217E0,0E0,5.3922224E0,6.587185E0,6.4710383E0,9.850791E0,0E0,0E0,0E0,0E0,0E0,0E0,0E0,0E0,0E0,0E0,0E0,0E0],"parents":[2147483647,0,0,1,1,2,2,3,3,4,4,5,5,6,6,7,7,9,9,11,11,12,12,13,13,14,14],"right_children":[2,4,6,8,10,12,14,16,-1,18,-1,20,22,24,26,-1,-1,-1,-1,-1,-1,-1,-1,-1,-1,-1,-1],"split_conditions":[1.99E0,2.5E0,1.57E0,4.2E0,3.25E0,1.6666667E-1,6.363636E-1,5.1754916E-1,-3.735704E-2,9.486833E-1,-4.078792E-3,8.75E-1,6.666667E-1,4.830459E-1,3.3333334E-1,-2.1041106E-2,1.3319723E-2,1.6625052E-2,3.3593234E-2,3.192335E-2,-1.3826141E-2,8.194731E-3,-2.4167726E-2,-3.9563652E-2,1.0205326E-2,-1.3819109E-2,-2.1948291E-4],"split_indices":[16,17,17,22,22,21,22,28,0,27,0,7,28,27,29,0,0,0,0,0,0,0,0,0,0,0,0],"split_type":[0,0,0,0,0,0,0,0,0,0,0,0,0,0,0,0,0,0,0,0,0,0,0,0,0,0,0],"sum_hessian":[2.517831E3,1.2904344E3,1.2273966E3,1.0026229E3,2.8781146E2,2.2461935E2,1.0027773E3,9.938348E2,8.788156E0,2.7860135E2,9.210122E0,2.6177658E1,1.984417E2,2.2590752E2,7.7686975E2,1.9290617E1,9.745442E2,4.985826E1,2.2874309E2,1.7064623E1,9.113035E0,1.6480814E1,1.8196089E2,5.725279E0,2.2018224E2,1.6986969E2,6.0700006E2],"tree_param":{"num_deleted":"0","num_feature":"33","num_nodes":"27","size_leaf_vector":"1"}},{"base_weights":[1.2016346E-1,-1.9249437E-2,3.626123E-1,-2.9326746E-1,5.05134E-2,2.875415E-1,5.240551E-1,2.662888E-1,-3.4302816E-1,3.605429E-2,6.20132E-1,-2.7656935E-2,3.2574132E-1,1.02795325E-1,5.714118E-1,-2.610051E-2,2.5235577E-2,-2.6585683E-2,-1.0282941E-2,-1.9652642E-2,2.8323343E-3,4.096819E-2,-1.0991326E-2,-4.935274E-2,6.342894E-3,6.6181473E-3,1.9442964E-2,-1.3493473E-2,3.450357E-2,2.6132306E-2,4.5801457E-2],"categories":[],"categories_nodes":[],"categories_segments":[],"categories_sizes":[],"default_left":[0,0,0,0,0,0,0,0,0,0,0,0,0,0,0,0,0,0,0,0,0,0,0,0,0,0,0,0,0,0,0],"id":4,"left_children":[1,3,5,7,9,11,13,15,17,19,21,23,25,27,29,-1,-1,-1,-1,-1,-1,-1,-1,-1,-1,-1,-1,-1,-1,-1,-1],"loss_changes":[8.44742E1,3.0370604E1,1.0824814E1,9.076477E0,1.0332967E1,7.5685234E0,5.6178513E0,5.285558E0,7.5070305E0,1.0903057E1,5.44275E0,1.0326641E1,6.7087173E0,6.9098935E0,3.7198792E0,0E0,0E0,0E0,0E0,0E0,0E0,0E0,0E0,0E0,0E0,0E0,0E0,0E0,0E0,0E0,0E0],"parents":[2147483647,0,0,1,1,2,2,3,3,4,4,5,5,6,6,7,7,8,8,9,9,10,10,11,11,12,12,13,13,14,14],"right_children":[2,4,6,8,10,12,14,16,18,20,22,24,26,28,30,-1,-1,-1,-1,-1,-1,-1,-1,-1,-1,-1,-1,-1,-1,-1,-1],"split_conditions":[2.06E0,1.61E0,2.49E0,6.666667E-1,2.1111112E0,8.333333E-1,-6.666667E-1,1.48E0,4E-1,7.1428573E-1,2.11E0,2.09E0,4.2857143E-1,2.3809524E-1,2.1111112E0,-2.610051E-2,2.5235577E-2,-2.6585683E-2,-1.0282941E-2,-1.9652642E-2,2.8323343E-3,4.096819E-2,-1.0991326E-2,-4.935274E-2,6.342894E-3,6.6181473E-3,1.9442964E-2,-1.3493473E-2,3.450357E-2,2.6132306E-2,4.5801457E-2],"split_indices":[17,17,17,28,0,8,26,17,30,8,16,17,29,25,6,0,0,0,0,0,0,0,0,0,0,0,0,0,0,0,0],"split_type":[0,0,0,0,0,0,0,0,0,0,0,0,0,0,0,0,0,0,0,0,0,0,0,0,0,0,0,0,0,0,0],"sum_hessian":[2.4969778E3,1.5856854E3,9.112924E2,3.2142105E2,1.2642643E3,6.24364E2,2.8692838E2,2.5729801E1,2.9569125E2,1.234175E3,3.0089262E1,6.723614E1,5.5712787E2,2.952971E1,2.5739865E2,5.6013055E0,2.0128496E1,1.2306079E2,1.7263046E2,5.5464058E1,1.178711E3,2.4436646E1,5.652615E0,8.668937E0,5.85672E1,1.3824858E2,4.188793E2,1.8292273E1,1.1237438E1,2.2794914E2,2.9449522E1],"tree_param":{"num_deleted":"0","num_feature":"33","num_nodes":"31","size_leaf_vector":"1"}},{"base_weights":[1.2690006E-1,-2.0884028E-2,3.8563773E-1,-3.109802E-1,2.7507238E-2,3.0849713E-1,5.6120706E-1,-1.02055214E-1,-5.222322E-1,8.150728E-2,-9.5530525E-2,3.1991076E-1,-3.9674293E-2,6.4159244E-1,2.44377E-1,-2.0000756E-2,1.641682E-2,-3.3070937E-2,-3.9158986E-4,-2.44321E-3,8.044061E-3,5.589805E-3,-1.0941019E-2,-1.6968103E-2,1.6661162E-2,3.6955696E-2,1.5878817E-2,-1.1561544E-2,2.4114909E-2],"categories":[],"categories_nodes":[],"categories_segments":[],"categories_sizes":[],"default_left":[0,0,0,0,0,0,0,0,0,0,0,0,0,0,0,0,0,0,0,0,0,0,0,0,0,0,0,0,0],"id":5,"left_children":[1,3,5,7,9,11,13,15,17,19,21,23,-1,25,27,-1,-1,-1,-1,-1,-1,-1,-1,-1,-1,-1,-1,-1,-1],"loss_changes":[9.5939835E1,2.2454342E1,1.2091614E1,9.977003E0,9.103563E0,8.208729E0,6.803673E0,1.5072153E1,8.034395E0,9.877563E0,1.0707911E1,5.6461334E0,0E0,6.608017E0,6.6860094E0,0E0,0E0,0E0,0E0,0E0,0E0,0E0,0E0,0E0,0E0,0E0,0E0,0E0,0E0],"parents":[2147483647,0,0,1,1,2,2,3,3,4,4,5,5,6,6,7,7,8,8,9,9,10,10,11,11,13,13,14,14],"right_children":[2,4,6,8,10,12,14,16,18,20,22,24,-1,26,28,-1,-1,-1,-1,-1,-1,-1,-1,-1,-1,-1,-1,-1,-1],"split_conditions":[2.06E0,1.57E0,2.5E0,4.4444445E-1,2.6666668E-1,4.2E0,1.1E0,4E-1,1.4E0,1.74E0,8.3916086E-1,5.1754916E-1,-3.9674293E-2,1.6666666E0,-3.3333334E-1,-2.0000756E-2,1.641682E-2,-3.3070937E-2,-3.9158986E-4,-2.44321E-3,8.044061E-3,5.589805E-3,-1.0941019E-2,-1.6968103E-2,1.6661162E-2,3.6955696E-2,1.5878817E-2,-1.1561544E-2,2.4114909E-2],"split_indices":[17,17,17,9,25,22,9,30,24,17,24,28,0,24,26,0,0,0,0,0,0,0,0,0,0,0,0,0,0],"split_type":[0,0,0,0,0,0,0,0,0,0,0,0,0,0,0,0,0,0,0,0,0,0,0,0,0,0,0,0,0],"sum_hessian":[2.506899E3,1.5958975E3,9.1100146E2,2.2767435E2,1.368223E3,6.352262E2,2.7577527E2,1.1545127E2,1.12223076E2,9.516873E2,4.1653577E2,6.295066E2,5.7196016E0,2.1889665E2,5.6878613E1,6.840054E1,4.7050735E1,8.7946335E1,2.4276743E1,3.5981564E2,5.918717E2,1.5506223E2,2.6147354E2,1.1826336E1,6.1768024E2,1.6703362E2,5.1863037E1,1.8834995E1,3.8043617E1],"tree_param":{"num_deleted":"0","num_feature":"33","num_nodes":"29","size_leaf_vector":"1"}},{"base_weights":[1.1593827E-1,-2.523941E-2,3.6604273E-1,-1.4871548E-1,7.670679E-2,3.510055E-1,8.6777097E-1,-1.2428853E-1,-9.176676E-1,2.4190839E-1,2.495028E-2,-2.9618183E-1,3.6123556E-1,5.416676E-2,1.4935664E-2,6.9195735E-3,-8.963528E-3,-7.401973E-2,-2.2787593E-2,3.71756E-2,9.330592E-3,1.8632766E-3,-3.4936715E-2,-4.4278245E-2,2.906299E-2,3.5206273E-3,1.9226065E-2],"categories":[],"categories_nodes":[],"categories_segments":[],"categories_sizes":[],"default_left":[0,0,0,0,0,0,0,0,0,0,0,0,0,0,0,0,0,0,0,0,0,0,0,0,0,0,0],"id":6,"left_children":[1,3,5,7,9,11,13,15,17,19,21,23,25,-1,-1,-1,-1,-1,-1,-1,-1,-1,-1,-1,-1,-1,-1],"loss_changes":[8.737671E1,1.9928314E1,6.3088913E0,1.3231973E1,7.3767033E0,5.864525E0,2.6177578E0,1.0071106E1,4.7889404E0,5.486206E0,5.8547344E0,7.7408752E0,5.722389E0,0E0,0E0,0E0,0E0,0E0,0E0,0E0,0E0,0E0,0E0,0E0,0E0,0E0,0E0],"parents":[2147483647,0,0,1,1,2,2,3,3,4,4,5,5,6,6,7,7,8,8,9,9,10,10,11,11,12,12],"right_children":[2,4,6,8,10,12,14,16,18,20,22,24,26,-1,-1,-1,-1,-1,-1,-1,-1,-1,-1,-1,-1,-1,-1],"split_conditions":[2.06E0,1.73E0,2.857143E0,6.25E-1,2E-1,1.05E0,2E0,8E-1,1.8666667E0,4E-1,4.1538463E0,2.1666667E0,4.2857143E-1,5.416676E-2,1.4935664E-2,6.9195735E-3,-8.963528E-3,-7.401973E-2,-2.2787593E-2,3.71756E-2,9.330592E-3,1.8632766E-3,-3.4936715E-2,-4.4278245E-2,2.906299E-2,3.5206273E-3,1.9226065E-2],"split_indices":[17,17,0,21,21,15,24,10,24,30,24,10,24,0,0,0,0,0,0,0,0,0,0,0,0,0,0],"split_type":[0,0,0,0,0,0,0,0,0,0,0,0,0,0,0,0,0,0,0,0,0,0,0,0,0,0,0],"sum_hessian":[2.4723916E3,1.5806522E3,8.9173926E2,7.15079E2,8.655733E2,8.676344E2,2.4104822E1,6.9431464E2,2.0764297E1,2.0514973E2,6.604236E2,1.2914167E1,8.547202E2,1.6699455E1,7.405368E0,1.19596985E2,5.7471765E2,8.269103E0,1.24951935E1,1.8954672E1,1.8619507E2,6.5044147E2,9.982152E0,7.7877774E0,5.12639E0,6.3979385E1,7.9074084E2],"tree_param":{"num_deleted":"0","num_feature":"33","num_nodes":"27","size_leaf_vector":"1"}},{"base_weights":[1.06553376E-1,2.0708993E-1,-1.3869481E-1,3.7669337E-1,1.3595262E-1,-8.0663994E-2,-3.5057977E-1,2.0248767E-2,4.2778572E-1,1.1565984E-1,7.109252E-1,3.7614518E-1,-1.2531014E-1,-4.9113554E-1,1.0115839E-1,9.201499E-3,-3.7343804E-2,2.2640197E-2,-8.770791E-3,-4.2116162E-3,7.64042E-3,4.1411337E-2,3.0293015E-3,-6.5670856E-3,2.7729083E-2,-9.573252E-3,5.685186E-3,-2.1169886E-2,-8.3116606E-2,1.4828374E-2,-2.5335997E-2],"categories":[],"categories_nodes":[],"categories_segments":[],"categories_sizes":[],"default_left":[0,0,0,0,0,0,0,0,0,0,0,0,0,0,0,0,0,0,0,0,0,0,0,0,0,0,0,0,0,0,0],"id":7,"left_children":[1,3,5,7,9,11,13,15,17,19,21,23,25,27,29,-1,-1,-1,-1,-1,-1,-1,-1,-1,-1,-1,-1,-1,-1,-1,-1],"loss_changes":[6.1268883E1,2.1157364E1,8.810808E0,9.4112015E0,1.434267E1,1.1621293E1,9.907347E0,8.429965E0,6.962364E0,8.948097E0,3.0668545E0,4.7050686E0,8.236725E0,8.471348E0,4.5667343E0,0E0,0E0,0E0,0E0,0E0,0E0,0E0,0E0,0E0,0E0,0E0,0E0,0E0,0E0,0E0,0E0],"parents":[2147483647,0,0,1,1,2,2,3,3,4,4,5,5,6,6,7,7,8,8,9,9,10,10,11,11,12,12,13,13,14,14],"right_children":[2,4,6,8,10,12,14,16,18,20,22,24,26,28,30,-1,-1,-1,-1,-1,-1,-1,-1,-1,-1,-1,-1,-1,-1,-1,-1],"split_conditions":[2.19E0,1.69E0,2.59E0,8.333333E-1,2.2857144E0,6.666667E-1,7.1428573E-1,2.8099174E0,4.7E0,8.888889E-1,1.4907119E0,1.6666667E-1,1.6E0,8.095238E-1,5.714286E-1,9.201499E-3,-3.7343804E-2,2.2640197E-2,-8.770791E-3,-4.2116162E-3,7.64042E-3,4.1411337E-2,3.0293015E-3,-6.5670856E-3,2.7729083E-2,-9.573252E-3,5.685186E-3,-2.1169886E-2,-8.3116606E-2,1.4828374E-2,-2.5335997E-2],"split_indices":[16,16,16,6,0,0,7,24,15,8,28,20,11,25,18,0,0,0,0,0,0,0,0,0,0,0,0,0,0,0,0],"split_type":[0,0,0,0,0,0,0,0,0,0,0,0,0,0,0,0,0,0,0,0,0,0,0,0,0,0,0,0,0,0,0],"sum_hessian":[2.4824648E3,1.7610903E3,7.213745E2,5.1870593E2,1.2423844E3,5.6773627E2,1.536383E2,6.544987E1,4.5325607E2,1.2013593E3,4.1025078E1,4.968684E1,5.180494E2,1.17281105E2,3.6357197E1,5.466858E1,1.0781283E1,4.356042E2,1.7651892E1,1.8765419E2,1.0137051E3,3.4394123E1,6.630953E0,1.2848429E1,3.683841E1,4.0622943E2,1.1181996E2,1.12236626E2,5.0444727E0,2.802492E1,8.332279E0],"tree_param":{"num_deleted":"0","num_feature":"33","num_nodes":"31","size_leaf_vector":"1"}},{"base_weights":[9.305939E-2,2.661058E-1,-6.2242743E-2,4.20783E-1,2.1464807E-1,-2.4184021E-1,1.1646872E-2,4.674026E-1,-5.536568E-1,7.682078E-1,2.0188496E-1,-4.2822725E-1,-1.1261634E-1,5.7268224E-4,8.478715E-1,2.9238999E-2,1.4169472E-2,-5.86416E-2,-1.4150398E-3,1.084784E-2,4.9006484E-2,4.1902415E-3,1.2930614E-2,7.4712904E-3,-2.6206551E-2,-7.6956945E-3,2.2007069E-2,-7.639075E-4,2.2302931E-2,5.3937733E-2,2.3712628E-2],"categories":[],"categories_nodes":[],"categories_segments":[],"categories_sizes":[],"default_left":[0,0,0,0,0,0,0,0,0,0,0,0,0,0,0,0,0,0,0,0,0,0,0,0,0,0,0,0,0,0,0],"id":8,"left_children":[1,3,5,7,9,11,13,15,17,19,21,23,25,27,29,-1,-1,-1,-1,-1,-1,-1,-1,-1,-1,-1,-1,-1,-1,-1,-1],"loss_changes":[6.650452E1,9.160896E0,1.7329948E1,1.3452251E1,5.970028E0,9.06316E0,8.475344E0,5.751709E0,4.2799673E0,1.9240236E0,5.720524E0,8.710033E0,5.2073455E0,6.50016E0,3.6510277E-1,0E0,0E0,0E0,0E0,0E0,0E0,0E0,0E0,0E0,0E0,0E0,0E0,0E0,0E0,0E0,0E0],"parents":[2147483647,0,0,1,1,2,2,3,3,4,4,5,5,6,6,7,7,8,8,9,9,10,10,11,11,12,12,13,13,14,14],"right_children":[2,4,6,8,10,12,14,16,18,20,22,24,26,28,30,-1,-1,-1,-1,-1,-1,-1,-1,-1,-1,-1,-1,-1,-1,-1,-1],"split_conditions":[1.96E0,1.59E0,1.63E0,3E0,1.93E0,2.05E0,2.25E0,1.4285715E0,2.25E0,8.333333E-1,2.06E0,-4.7619048E-1,2.91E0,2.4E0,4.2857143E-1,2.9238999E-2,1.4169472E-2,-5.86416E-2,-1.4150398E-3,1.084784E-2,4.9006484E-2,4.1902415E-3,1.2930614E-2,7.4712904E-3,-2.6206551E-2,-7.6956945E-3,2.2007069E-2,-7.639075E-4,2.2302931E-2,5.3937733E-2,2.3712628E-2],"split_indices":[16,16,17,24,17,15,0,1,10,12,17,25,16,11,30,0,0,0,0,0,0,0,0,0,0,0,0,0,0,0,0],"split_type":[0,0,0,0,0,0,0,0,0,0,0,0,0,0,0,0,0,0,0,0,0,0,0,0,0,0,0,0,0,0,0],"sum_hessian":[2.4722593E3,1.169295E3,1.3029644E3,2.8961594E2,8.7967914E2,3.795364E2,9.234279E2,2.7698715E2,1.2628786E1,1.8314634E1,8.613645E2,1.5413335E2,2.2540305E2,9.1246436E2,1.096357E1,1.6745221E2,1.09534935E2,5.1437063E0,7.48508E0,5.778704E0,1.253593E1,2.8090015E2,5.8046436E2,2.1718203E1,1.3241515E2,2.105732E2,1.4829849E1,8.818292E2,3.0635126E1,5.4442506E0,5.5193186E0],"tree_param":{"num_deleted":"0","num_feature":"33","num_nodes":"31","size_leaf_vector":"1"}},{"base_weights":[8.0319524E-2,2.5062433E-1,-7.346228E-2,1.9425844E-1,4.423805E-1,4.7200043E-2,-1.753211E-1,-5.48843E-1,2.1001072E-1,5.6533384E-1,1.5820955E-1,3.394114E-2,4.1450385E-2,-5.7517685E-2,-2.727042E-1,-4.3825004E-2,9.163651E-3,1.5241762E-2,6.3306997E-3,3.734235E-2,1.53245395E-2,2.1474336E-3,4.6825167E-2,5.8371844E-3,-4.18559E-3,1.065009E-2,-8.756555E-3,-2.6912633E-2,-6.8523595E-3],"categories":[],"categories_nodes":[],"categories_segments":[],"categories_sizes":[],"default_left":[0,0,0,0,0,0,0,0,0,0,0,0,0,0,0,0,0,0,0,0,0,0,0,0,0,0,0,0,0],"id":9,"left_children":[1,3,5,7,9,11,13,15,17,19,21,23,-1,25,27,-1,-1,-1,-1,-1,-1,-1,-1,-1,-1,-1,-1,-1,-1],"loss_changes":[6.4452934E1,1.2470886E1,1.5912397E1,1.0669941E1,9.064674E0,6.024214E0,8.002123E0,4.769068E0,6.92997E0,8.295856E0,7.1625175E0,5.697396E0,0E0,1.0193319E1,1.3672085E1,0E0,0E0,0E0,0E0,0E0,0E0,0E0,0E0,0E0,0E0,0E0,0E0,0E0,0E0],"parents":[2147483647,0,0,1,1,2,2,3,3,4,4,5,5,6,6,7,7,8,8,9,9,10,10,11,11,13,13,14,14],"right_children":[2,4,6,8,10,12,14,16,18,20,22,24,-1,26,28,-1,-1,-1,-1,-1,-1,-1,-1,-1,-1,-1,-1,-1,-1],"split_conditions":[1.96E0,2.5E0,2.2E0,5.1754916E-1,1.3888888E0,2.2222223E0,4.2857143E-1,3.75E-1,-3.3333335E-2,8.333333E-1,2.857143E0,1.1352924E0,4.1450385E-2,6.875E-1,1.58E0,-4.3825004E-2,9.163651E-3,1.5241762E-2,6.3306997E-3,3.734235E-2,1.53245395E-2,2.1474336E-3,4.6825167E-2,5.8371844E-3,-4.18559E-3,1.065009E-2,-8.756555E-3,-2.6912633E-2,-6.8523595E-3],"split_indices":[16,17,16,28,24,0,9,9,26,9,0,28,0,22,17,0,0,0,0,0,0,0,0,0,0,0,0,0,0],"split_type":[0,0,0,0,0,0,0,0,0,0,0,0,0,0,0,0,0,0,0,0,0,0,0,0,0,0,0,0,0],"sum_hessian":[2.4586167E3,1.1666439E3,1.2919728E3,9.035762E2,2.630677E2,5.9119543E2,7.007773E2,1.7922169E1,8.8565405E2,1.8268385E2,8.0383835E1,5.8248816E2,8.707265E0,3.183228E2,3.824545E2,1.2339172E1,5.582997E0,4.1262878E2,4.7302524E2,1.0604695E2,7.66369E1,7.1046E1,9.337838E0,3.42382E2,2.4010616E2,9.595591E1,2.223669E2,1.2806418E2,2.5439032E2],"tree_param":{"num_deleted":"0","num_feature":"33","num_nodes":"29","size_leaf_vector":"1"}},{"base_weights":[9.08744E-2,2.5550637E-1,-5.2765794E-2,2.0136727E-1,4.481849E-1,6.133036E-2,-1.4433813E-1,-4.3314543E-1,2.1624725E-1,3.8928467E-1,9.2750925E-1,-4.2224878E-1,8.545157E-2,-1.8537106E-1,1.1642174E-1,-4.605436E-2,6.170868E-3,1.1308151E-2,-3.989614E-2,2.4783855E-2,9.345971E-3,5.17932E-2,2.1595787E-2,-5.1858127E-2,9.694348E-3,5.591733E-3,-1.0572454E-2,1.2256685E-3,-1.1800602E-2,-4.8594265E-3,2.0090606E-2],"categories":[],"categories_nodes":[],"categories_segments":[],"categories_sizes":[],"default_left":[0,0,0,0,0,0,0,0,0,0,0,0,0,0,0,0,0,0,0,0,0,0,0,0,0,0,0,0,0,0,0],"id":10,"left_children":[1,3,5,7,9,11,13,15,17,19,21,23,25,27,29,-1,-1,-1,-1,-1,-1,-1,-1,-1,-1,-1,-1,-1,-1,-1,-1],"loss_changes":[5.7942696E1,1.1752563E1,1.3686197E1,8.506611E0,6.541931E0,6.7995505E0,7.8025446E0,5.801112E0,8.909527E0,4.657795E0,8.2128143E-1,1.07637615E1,4.369415E0,6.7070713E0,6.1090283E0,0E0,0E0,0E0,0E0,0E0,0E0,0E0,0E0,0E0,0E0,0E0,0E0,0E0,0E0,0E0,0E0],"parents":[2147483647,0,0,1,1,2,2,3,3,4,4,5,5,6,6,7,7,8,8,9,9,10,10,11,11,12,12,13,13,14,14],"right_children":[2,4,6,8,10,12,14,16,18,20,22,24,26,28,30,-1,-1,-1,-1,-1,-1,-1,-1,-1,-1,-1,-1,-1,-1,-1,-1],"split_conditions":[1.96E0,2.5E0,2.19E0,5.1754916E-1,2.1111112E0,2.2222222E-1,7E-1,7E-1,4.2E0,1.35E0,3.8333333E0,1.25E0,1.8333334E0,8E-1,7.619048E-1,-4.605436E-2,6.170868E-3,1.1308151E-2,-3.989614E-2,2.4783855E-2,9.345971E-3,5.17932E-2,2.1595787E-2,-5.1858127E-2,9.694348E-3,5.591733E-3,-1.0572454E-2,1.2256685E-3,-1.1800602E-2,-4.8594265E-3,2.0090606E-2],"split_indices":[16,17,16,28,6,19,18,5,22,24,14,10,12,10,23,0,0,0,0,0,0,0,0,0,0,0,0,0,0,0,0],"split_type":[0,0,0,0,0,0,0,0,0,0,0,0,0,0,0,0,0,0,0,0,0,0,0,0,0,0,0,0,0,0,0],"sum_hessian":[2.447812E3,1.1405258E3,1.3072864E3,8.923547E2,2.4817104E2,5.8172015E2,7.2556616E2,1.9649044E1,8.727056E2,2.2281224E2,2.5358793E1,2.6656803E1,5.5506335E2,6.274965E2,9.806964E1,1.0216711E1,9.432332E0,8.651227E2,7.5829124E0,1.4476125E2,7.8051E1,1.9749016E1,5.6097784E0,1.3080857E1,1.3575946E1,5.106466E2,4.441675E1,1.2168938E2,5.0580716E2,5.6265125E1,4.1804516E1],"tree_param":{"num_deleted":"0","num_feature":"33","num_nodes":"31","size_leaf_vector":"1"}},{"base_weights":[1.0208368E-1,-4.9729105E-3,3.0024928E-1,-2.5415182E-1,2.5217416E-2,1.8522064E-1,3.61303E-1,-1.4372307E-1,-6.6171306E-1,4.2179087E-1,1.232259E-2,3.956024E-1,3.4413315E-2,3.8667148E-1,-1.07866645E-1,-1.7593283E-3,-2.8991828E-2,-0E0,-4.765942E-2,-1.2375268E-2,2.7636215E-2,6.539484E-3,-1.548405E-3,2.4164548E-2,-3.258684E-2,-2.0364719E-3,4.0021457E-2,3.1025107E-3,2.1207504E-2,-2.7488306E-2,3.7262205E-2],"categories":[],"categories_nodes":[],"categories_segments":[],"categories_sizes":[],"default_left":[0,0,0,0,0,0,0,0,0,0,0,0,0,0,0,0,0,0,0,0,0,0,0,0,0,0,0,0,0,0,0],"id":11,"left_children":[1,3,5,7,9,11,13,15,17,19,21,23,25,27,29,-1,-1,-1,-1,-1,-1,-1,-1,-1,-1,-1,-1,-1,-1,-1,-1],"loss_changes":[5.1680786E1,1.1925223E1,5.877945E0,7.535533E0,7.1667957E0,9.424292E0,6.692528E0,6.368758E0,7.032401E0,4.037192E0,7.02894E0,1.1722715E1,1.0206398E1,6.352867E0,1.1369631E1,0E0,0E0,0E0,0E0,0E0,0E0,0E0,0E0,0E0,0E0,0E0,0E0,0E0,0E0,0E0,0E0],"parents":[2147483647,0,0,1,1,2,2,3,3,4,4,5,5,6,6,7,7,8,8,9,9,10,10,11,11,12,12,13,13,14,14],"right_children":[2,4,6,8,10,12,14,16,18,20,22,24,26,28,30,-1,-1,-1,-1,-1,-1,-1,-1,-1,-1,-1,-1,-1,-1,-1,-1],"split_conditions":[2.06E0,1.54E0,1.0540925E0,1.6E0,-8.666667E-1,8.3666E-1,1.8287822E0,1.5E0,7E-1,7.5592893E-1,-3E-1,4.4444445E-1,4.2857143E-1,8.5714287E-1,1.4757296E0,-1.7593283E-3,-2.8991828E-2,-0E0,-4.765942E-2,-1.2375268E-2,2.7636215E-2,6.539484E-3,-1.548405E-3,2.4164548E-2,-3.258684E-2,-2.0364719E-3,4.0021457E-2,3.1025107E-3,2.1207504E-2,-2.7488306E-2,3.7262205E-2],"split_indices":[17,17,27,10,25,27,28,1,2,28,26,20,20,8,27,0,0,0,0,0,0,0,0,0,0,0,0,0,0,0,0],"split_type":[0,0,0,0,0,0,0,0,0,0,0,0,0,0,0,0,0,0,0,0,0,0,0,0,0,0,0,0,0,0,0],"sum_hessian":[2.4335942E3,1.5803171E3,8.5327716E2,1.703349E2,1.4099823E3,2.978267E2,5.554505E2,1.3527904E2,3.5055862E1,4.3159824E1,1.3668225E3,1.2339702E2,1.7442969E2,5.273264E2,2.8124096E1,1.09369896E2,2.5909142E1,1.0939446E1,2.4116415E1,6.7911644E0,3.636866E1,3.6587537E2,1.0009471E3,1.14448814E2,8.948204E0,1.5959082E2,1.4838867E1,5.513112E1,4.7219528E2,1.8838703E1,9.285393E0],"tree_param":{"num_deleted":"0","num_feature":"33","num_nodes":"31","size_leaf_vector":"1"}},{"base_weights":[8.0249384E-2,-2.1316972E-2,2.8777185E-1,-2.7178115E-1,1.96899E-2,2.2558908E-1,4.2202505E-1,-5.4540772E-2,-4.7176865E-1,-1.4928749E-1,5.760353E-2,2.5323954E-1,-2.2885294E-1,3.7422296E-1,4.816714E-2,-7.19684E-3,2.9069236E-2,-4.019269E-2,-1.4752656E-2,3.672368E-2,-9.7127175E-3,3.4405326E-3,-2.8442403E-2,3.011622E-2,1.09691825E-2,1.5383318E-2,-3.2947477E-2,2.3284107E-2,2.5940128E-3],"categories":[],"categories_nodes":[],"categories_segments":[],"categories_sizes":[],"default_left":[0,0,0,0,0,0,0,0,0,0,0,0,0,0,0,0,0,0,0,0,0,0,0,0,0,0,0,0,0],"id":12,"left_children":[1,3,5,7,9,11,13,15,17,19,21,23,25,27,-1,-1,-1,-1,-1,-1,-1,-1,-1,-1,-1,-1,-1,-1,-1],"loss_changes":[5.1541283E1,1.6888668E1,6.5471725E0,9.972027E0,9.039301E0,6.993431E0,6.0438385E0,6.4215126E0,6.699751E0,1.0356398E1,8.088681E0,5.9406548E0,7.613624E0,6.8218613E0,0E0,0E0,0E0,0E0,0E0,0E0,0E0,0E0,0E0,0E0,0E0,0E0,0E0,0E0,0E0],"parents":[2147483647,0,0,1,1,2,2,3,3,4,4,5,5,6,6,7,7,8,8,9,9,10,10,11,11,12,12,13,13],"right_children":[2,4,6,8,10,12,14,16,18,20,22,24,26,28,-1,-1,-1,-1,-1,-1,-1,-1,-1,-1,-1,-1,-1,-1,-1],"split_conditions":[2.08E0,1.57E0,2.5E0,4.4444445E-1,8.333333E-1,1.8287822E0,2.857143E0,1.5555556E0,8.232726E-1,6E-1,7E-1,7.378648E-1,1.8E0,1.5714285E0,4.816714E-2,-7.19684E-3,2.9069236E-2,-4.019269E-2,-1.4752656E-2,3.672368E-2,-9.7127175E-3,3.4405326E-3,-2.8442403E-2,3.011622E-2,1.09691825E-2,1.5383318E-2,-3.2947477E-2,2.3284107E-2,2.5940128E-3],"split_indices":[17,17,17,9,8,28,0,6,27,10,20,27,12,24,0,0,0,0,0,0,0,0,0,0,0,0,0,0,0],"split_type":[0,0,0,0,0,0,0,0,0,0,0,0,0,0,0,0,0,0,0,0,0,0,0,0,0,0,0,0,0],"sum_hessian":[2.4427905E3,1.6403702E3,8.0242017E2,2.3033395E2,1.4100363E3,5.5075104E2,2.5166913E2,1.1125441E2,1.19079544E2,2.5737326E2,1.1526631E3,5.197875E2,3.0963577E1,2.3297214E2,1.8696987E1,9.835845E1,1.2895955E1,3.992932E1,7.915022E1,1.1611325E1,2.4576195E2,1.1334358E3,1.9227198E1,4.420892E1,4.7557855E2,1.3800475E1,1.7163101E1,1.808922E2,5.2079945E1],"tree_param":{"num_deleted":"0","num_feature":"33","num_nodes":"29","size_leaf_vector":"1"}},{"base_weights":[8.442591E-2,2.3453215E-1,-4.5045234E-2,1.7233086E-1,4.482362E-1,-6.7858905E-2,3.3851534E-1,-9.9286154E-2,2.0913687E-1,2.6270103E-2,4.9754944E-1,-8.545788E-1,-5.9530336E-2,2.2887525E-1,8.6650443E-1,-6.336447E-2,2.4733448E-4,-4.005998E-4,1.2412525E-2,-1.9567449E-2,2.6829371E-2,8.1607664E-4,2.6783526E-2,-6.475838E-2,-1.088718E-2,1.346582E-3,-6.2439553E-3,1.7217861E-2,-1.1557899E-2,5.4959513E-2,2.4278056E-2],"categories":[],"categories_nodes":[],"categories_segments":[],"categories_sizes":[],"default_left":[0,0,0,0,0,0,0,0,0,0,0,0,0,0,0,0,0,0,0,0,0,0,0,0,0,0,0,0,0,0,0],"id":13,"left_children":[1,3,5,7,9,11,13,15,17,19,21,23,25,27,29,-1,-1,-1,-1,-1,-1,-1,-1,-1,-1,-1,-1,-1,-1,-1,-1],"loss_changes":[4.765705E1,1.4953442E1,1.1513749E1,8.843546E0,5.2404404E0,8.005087E0,3.9652128E0,1.2981461E1,6.624523E0,6.1809506E0,4.1193886E0,3.1652012E0,6.9720383E0,3.4186249E0,3.8714695E-1,0E0,0E0,0E0,0E0,0E0,0E0,0E0,0E0,0E0,0E0,0E0,0E0,0E0,0E0,0E0,0E0],"parents":[2147483647,0,0,1,1,2,2,3,3,4,4,5,5,6,6,7,7,8,8,9,9,10,10,11,11,12,12,13,13,14,14],"right_children":[2,4,6,8,10,12,14,16,18,20,22,24,26,28,30,-1,-1,-1,-1,-1,-1,-1,-1,-1,-1,-1,-1,-1,-1,-1,-1],"split_conditions":[1.96E0,2.5E0,8E-1,8.5714287E-1,-6.666667E-1,4.830459E-1,1.0588236E0,1.63E0,8.232726E-1,4.1666668E-2,3.3333334E-1,2.2222222E-1,2.19E0,3.75E-1,1.2352941E0,-6.336447E-2,2.4733448E-4,-4.005998E-4,1.2412525E-2,-1.9567449E-2,2.6829371E-2,8.1607664E-4,2.6783526E-2,-6.475838E-2,-1.088718E-2,1.346582E-3,-6.2439553E-3,1.7217861E-2,-1.1557899E-2,5.4959513E-2,2.4278056E-2],"split_indices":[16,17,19,3,26,27,22,16,28,25,30,20,16,26,22,0,0,0,0,0,0,0,0,0,0,0,0,0,0,0,0],"split_type":[0,0,0,0,0,0,0,0,0,0,0,0,0,0,0,0,0,0,0,0,0,0,0,0,0,0,0,0,0,0,0],"sum_hessian":[2.449679E3,1.1344182E3,1.3152607E3,8.8043164E2,2.5398659E2,1.2424456E3,7.2815216E1,1.0454054E2,7.758911E2,2.6948963E1,2.2703763E2,1.1825125E1,1.2306204E3,6.1638496E1,1.1176721E1,7.7293057E0,9.681123E1,1.18156204E2,6.5773486E2,1.4840986E1,1.2107978E1,1.696231E1,2.1007532E2,6.285661E0,5.5394635E0,5.293298E2,7.0129065E2,4.9644966E1,1.199353E1,5.6050963E0,5.5716243E0],"tree_param":{"num_deleted":"0","num_feature":"33","num_nodes":"31","size_leaf_vector":"1"}},{"base_weights":[6.0197648E-2,-3.7748333E-2,2.4928933E-1,-9.168029E-3,-2.4854188E-1,-5.8963265E-2,2.8116995E-1,1.21811986E-1,-5.7087086E-2,-3.8543895E-1,2.2480272E-1,2.6412222E-1,-4.4300544E-1,2.9610896E-1,-4.3769062E-1,2.694871E-3,1.9740887E-2,1.1564855E-3,-9.470991E-3,1.8961318E-2,-2.2405587E-2,2.1258382E-2,-2.022524E-2,-3.509156E-2,2.0800421E-2,3.076821E-2,-3.3791985E-2,9.231715E-3,1.8855985E-2,-4.9489215E-2,2.931234E-4],"categories":[],"categories_nodes":[],"categories_segments":[],"categories_sizes":[],"default_left":[0,0,0,0,0,0,0,0,0,0,0,0,0,0,0,0,0,0,0,0,0,0,0,0,0,0,0,0,0,0,0],"id":14,"left_children":[1,3,5,7,9,11,13,15,17,19,21,23,25,27,29,-1,-1,-1,-1,-1,-1,-1,-1,-1,-1,-1,-1,-1,-1,-1,-1],"loss_changes":[4.509257E1,9.631349E0,8.202435E0,8.871377E0,1.2477898E1,9.862029E0,8.205364E0,6.9486256E0,1.1018759E1,7.3014812E0,5.6350594E0,6.581158E0,9.375404E0,6.5452423E0,3.9252496E0,0E0,0E0,0E0,0E0,0E0,0E0,0E0,0E0,0E0,0E0,0E0,0E0,0E0,0E0,0E0,0E0],"parents":[2147483647,0,0,1,1,2,2,3,3,4,4,5,5,6,6,7,7,8,8,9,9,10,10,11,11,12,12,13,13,14,14],"right_children":[2,4,6,8,10,12,14,16,18,20,22,24,26,28,30,-1,-1,-1,-1,-1,-1,-1,-1,-1,-1,-1,-1,-1,-1,-1,-1],"split_conditions":[2.06E0,2.55E0,8.5714287E-1,-3E-1,8E-1,1.625E0,3.7142856E0,1.7E0,1.1005049E0,6.324555E-1,3.6666667E-1,8.5714287E-1,1.52E0,2.27E0,1.1737878E0,2.694871E-3,1.9740887E-2,1.1564855E-3,-9.470991E-3,1.8961318E-2,-2.2405587E-2,2.1258382E-2,-2.022524E-2,-3.509156E-2,2.0800421E-2,3.076821E-2,-3.3791985E-2,9.231715E-3,1.8855985E-2,-4.9489215E-2,2.931234E-4],"split_indices":[17,16,3,26,7,5,22,5,28,28,26,8,16,17,28,0,0,0,0,0,0,0,0,0,0,0,0,0,0,0,0],"split_type":[0,0,0,0,0,0,0,0,0,0,0,0,0,0,0,0,0,0,0,0,0,0,0,0,0,0,0,0,0,0,0],"sum_hessian":[2.4320525E3,1.6023412E3,8.297114E2,1.4123645E3,1.8997662E2,7.739503E1,7.523164E2,3.7733725E2,1.0350272E3,1.4766661E2,4.231002E1,4.2061535E1,3.5333492E1,7.3771277E2,1.4603603E1,3.034203E2,7.391695E1,6.4444836E2,3.9057892E2,1.0682605E1,1.36984E2,3.245878E1,9.851242E0,5.1336713E0,3.692786E1,5.9977493E0,2.9335741E1,3.1237848E2,4.253343E2,6.0576124E0,8.545991E0],"tree_param":{"num_deleted":"0","num_feature":"33","num_nodes":"31","size_leaf_vector":"1"}},{"base_weights":[6.848445E-2,-2.4497641E-2,2.6267117E-1,-1.9360033E-1,2.0451145E-2,2.011749E-1,3.7421492E-1,2.987175E-1,-2.3780748E-1,8.157212E-3,5.6380093E-1,-1.4663915E-1,2.3769487E-1,4.0159312E-1,-2.0536153E-2,2.8557792E-2,-2.8357944E-2,-2.5146857E-2,-6.9176652E-3,-1.6240783E-2,1.2434445E-3,5.383474E-3,3.913525E-2,-1.8135697E-2,1.9851165E-2,-2.1458423E-2,1.3038068E-2,3.7114084E-2,1.763502E-2],"categories":[],"categories_nodes":[],"categories_segments":[],"categories_sizes":[],"default_left":[0,0,0,0,0,0,0,0,0,0,0,0,0,0,0,0,0,0,0,0,0,0,0,0,0,0,0,0,0],"id":15,"left_children":[1,3,5,7,9,11,13,15,17,19,21,23,25,27,-1,-1,-1,-1,-1,-1,-1,-1,-1,-1,-1,-1,-1,-1,-1],"loss_changes":[4.3833405E1,1.2494743E1,5.258339E0,7.577112E0,8.601194E0,6.5140076E0,6.129101E0,7.093868E0,8.237375E0,7.0415573E0,2.672327E0,5.8683715E0,7.195595E0,4.106907E0,0E0,0E0,0E0,0E0,0E0,0E0,0E0,0E0,0E0,0E0,0E0,0E0,0E0,0E0,0E0],"parents":[2147483647,0,0,1,1,2,2,3,3,4,4,5,5,6,6,7,7,8,8,9,9,10,10,11,11,12,12,13,13],"right_children":[2,4,6,8,10,12,14,16,18,20,22,24,26,28,-1,-1,-1,-1,-1,-1,-1,-1,-1,-1,-1,-1,-1,-1,-1],"split_conditions":[2.08E0,8.333333E-1,2.0833333E-1,8E-1,2.1111112E0,8.5714287E-1,8.333333E-1,2.62E0,3.75E-1,5.7735026E-1,1E0,1.6666666E0,5.555556E-1,8E-1,-2.0536153E-2,2.8557792E-2,-2.8357944E-2,-2.5146857E-2,-6.9176652E-3,-1.6240783E-2,1.2434445E-3,5.383474E-3,3.913525E-2,-1.8135697E-2,1.9851165E-2,-2.1458423E-2,1.3038068E-2,3.7114084E-2,1.763502E-2],"split_indices":[17,8,25,3,0,3,19,16,29,27,6,6,1,1,0,0,0,0,0,0,0,0,0,0,0,0,0,0,0],"split_type":[0,0,0,0,0,0,0,0,0,0,0,0,0,0,0,0,0,0,0,0,0,0,0,0,0,0,0,0,0],"sum_hessian":[2.424976E3,1.6400383E3,7.849378E2,3.4416525E2,1.295873E3,5.0836578E2,2.7657202E2,2.7696867E1,3.164684E2,1.2683737E3,2.7499401E1,4.775893E1,4.6060684E2,2.678455E2,8.7265215E0,2.14148E1,6.282066E0,8.494788E1,2.3152052E2,5.944943E1,1.2089242E3,9.549578E0,1.7949823E1,3.4545742E1,1.3213189E1,1.4665953E1,4.459409E2,3.1578281E1,2.3626721E2],"tree_param":{"num_deleted":"0","num_feature":"33","num_nodes":"29","size_leaf_vector":"1"}},{"base_weights":[6.890124E-2,-9.317295E-2,1.4219236E-1,-3.6021134E-1,-5.257792E-2,7.7636436E-2,2.5828737E-1,3.1771578E-3,-6.5480417E-1,-1.7770892E-2,-4.356036E-1,5.857028E-2,6.8818974E-1,2.809062E-1,-3.2958862E-1,9.453018E-3,-3.2592826E-2,-4.5478478E-2,3.331121E-2,-2.8999677E-4,-3.649881E-2,3.3574614E-3,-3.482155E-2,2.1291103E-3,2.0797594E-2,3.961704E-2,7.2280555E-3,3.342211E-2,1.2171152E-2,1.2904393E-2,-4.396802E-2],"categories":[],"categories_nodes":[],"categories_segments":[],"categories_sizes":[],"default_left":[0,0,0,0,0,0,0,0,0,0,0,0,0,0,0,0,0,0,0,0,0,0,0,0,0,0,0,0,0,0,0],"id":16,"left_children":[1,3,5,7,9,11,13,15,17,19,21,23,25,27,29,-1,-1,-1,-1,-1,-1,-1,-1,-1,-1,-1,-1,-1,-1,-1,-1],"loss_changes":[2.8601711E1,8.064541E0,1.2371098E1,1.06017275E1,8.640456E0,1.2310272E1,7.9521523E0,5.5441647E0,1.8973778E1,5.0294895E0,7.1959143E0,5.8577394E0,1.6075869E0,8.029339E0,7.464619E0,0E0,0E0,0E0,0E0,0E0,0E0,0E0,0E0,0E0,0E0,0E0,0E0,0E0,0E0,0E0,0E0],"parents":[2147483647,0,0,1,1,2,2,3,3,4,4,5,5,6,6,7,7,8,8,9,9,10,10,11,11,12,12,13,13,14,14],"right_children":[2,4,6,8,10,12,14,16,18,20,22,24,26,28,30,-1,-1,-1,-1,-1,-1,-1,-1,-1,-1,-1,-1,-1,-1,-1,-1],"split_conditions":[1.74E0,5E-1,2.18E0,6E-1,9E-1,2.25E0,4.8E0,1.2222222E0,1.5E0,1E0,7.2727275E-1,2.25E0,1.3984118E0,1E-1,-4.761905E-2,9.453018E-3,-3.2592826E-2,-4.5478478E-2,3.331121E-2,-2.8999677E-4,-3.649881E-2,3.3574614E-3,-3.482155E-2,2.1291103E-3,2.0797594E-2,3.961704E-2,7.2280555E-3,3.342211E-2,1.2171152E-2,1.2904393E-2,-4.396802E-2],"split_indices":[17,11,17,2,9,0,15,0,12,32,22,11,28,21,26,0,0,0,0,0,0,0,0,0,0,0,0,0,0,0,0],"split_type":[0,0,0,0,0,0,0,0,0,0,0,0,0,0,0,0,0,0,0,0,0,0,0,0,0,0,0,0,0,0,0],"sum_hessian":[2.4053074E3,7.4848663E2,1.6568208E3,9.740563E1,6.5108105E2,1.0663789E3,5.904419E2,4.3901577E1,5.3504055E1,5.980421E2,5.303893E1,1.0353083E3,3.1070547E1,5.6923267E2,2.120925E1,3.487025E1,9.031324E0,4.5178394E1,8.32566E0,5.8928577E2,8.756337E0,1.823998E1,3.479895E1,9.9231445E2,4.2993923E1,2.5536655E1,5.533891E0,4.8481766E1,5.207509E2,1.0419754E1,1.0789495E1],"tree_param":{"num_deleted":"0","num_feature":"33","num_nodes":"31","size_leaf_vector":"1"}},{"base_weights":[6.6079326E-2,1.8337093E-1,-3.3356484E-2,-4.353723E-1,1.9831406E-1,-4.38038E-2,5.667828E-1,-0E0,-8.650202E-1,1.6821292E-1,3.9183775E-1,-1.7847097E-1,-7.301277E-4,8.431076E-1,-5.263214E-3,2.3086004E-2,-2.5177715E-2,-7.6166645E-2,-1.2071223E-2,-6.097161E-3,9.874324E-3,1.3709779E-2,3.0251518E-2,-8.49032E-4,-2.1485252E-2,5.578019E-4,-3.1136332E-2,2.1419408E-2,5.706485E-2],"categories":[],"categories_nodes":[],"categories_segments":[],"categories_sizes":[],"default_left":[0,0,0,0,0,0,0,0,0,0,0,0,0,0,0,0,0,0,0,0,0,0,0,0,0,0,0,0,0],"id":17,"left_children":[1,3,5,7,9,11,13,15,17,19,21,23,25,27,-1,-1,-1,-1,-1,-1,-1,-1,-1,-1,-1,-1,-1,-1,-1],"loss_changes":[2.8032444E1,1.0256702E1,8.124495E0,4.83179E0,6.1541786E0,7.4011126E0,4.276703E0,3.507115E0,4.8265276E0,7.969742E0,3.3533268E0,1.2500709E1,7.2441807E0,1.3223457E0,0E0,0E0,0E0,0E0,0E0,0E0,0E0,0E0,0E0,0E0,0E0,0E0,0E0,0E0,0E0],"parents":[2147483647,0,0,1,1,2,2,3,3,4,4,5,5,6,6,7,7,8,8,9,9,10,10,11,11,12,12,13,13],"right_children":[2,4,6,8,10,12,14,16,18,20,22,24,26,28,-1,-1,-1,-1,-1,-1,-1,-1,-1,-1,-1,-1,-1,-1,-1],"split_conditions":[1.96E0,7.777778E-1,4.5666666E0,1.1352924E0,4.4444445E-1,8.888889E-1,2.1111112E0,4.4444445E-1,1.7692307E0,8.5714287E-1,8.888889E-1,2.3666666E0,7E-1,3.3333335E-2,-5.263214E-3,2.3086004E-2,-2.5177715E-2,-7.6166645E-2,-1.2071223E-2,-6.097161E-3,9.874324E-3,1.3709779E-2,3.0251518E-2,-8.49032E-4,-2.1485252E-2,5.578019E-4,-3.1136332E-2,2.1419408E-2,5.706485E-2],"split_indices":[16,8,15,28,20,8,6,21,22,3,7,14,20,26,0,0,0,0,0,0,0,0,0,0,0,0,0,0,0],"split_type":[0,0,0,0,0,0,0,0,0,0,0,0,0,0,0,0,0,0,0,0,0,0,0,0,0,0,0,0,0],"sum_hessian":[2.4007288E3,1.1015426E3,1.2991862E3,2.515451E1,1.0763881E3,1.2780316E3,2.1154531E1,1.3071688E1,1.2082823E1,9.33565E2,1.4282304E2,3.083935E2,9.6963806E2,1.4915858E1,6.238673E0,6.7898784E0,6.2818093E0,5.0979147E0,6.9849076E0,8.495177E1,8.486133E2,9.3811806E1,4.901124E1,1.8861781E2,1.1977569E2,9.5226196E2,1.7376148E1,7.39832E0,7.517538E0],"tree_param":{"num_deleted":"0","num_feature":"33","num_nodes":"29","size_leaf_vector":"1"}},{"base_weights":[7.168434E-2,1.9687028E-1,-3.3490393E-2,2.0971769E-1,-2.1162966E-1,-2.1861999E-1,7.0044035E-3,7.2240996E-1,1.9838965E-1,2.7982724E-1,-7.3821884E-1,-4.1170858E-2,-3.8298172E-1,-5.2303122E-3,5.22017E-1,4.793531E-2,1.5116969E-2,7.2030085E-3,1.4925833E-2,-1.8687455E-2,3.90519E-2,-5.5656254E-2,3.989472E-3,-1.099494E-2,2.8235052E-2,-2.49801E-2,1.2291566E-3,-3.7804525E-2,2.0486841E-4,7.138951E-3,3.9905593E-2],"categories":[],"categories_nodes":[],"categories_segments":[],"categories_sizes":[],"default_left":[0,0,0,0,0,0,0,0,0,0,0,0,0,0,0,0,0,0,0,0,0,0,0,0,0,0,0,0,0,0,0],"id":18,"left_children":[1,3,5,7,9,11,13,15,17,19,21,23,25,27,29,-1,-1,-1,-1,-1,-1,-1,-1,-1,-1,-1,-1,-1,-1,-1,-1],"loss_changes":[3.1921215E1,5.8523483E0,9.89597E0,6.0004196E0,9.052801E0,6.8496904E0,6.866791E0,1.8314409E0,5.6357613E0,6.299903E0,5.34091E0,1.2575402E1,5.884403E0,7.4803557E0,2.4397144E0,0E0,0E0,0E0,0E0,0E0,0E0,0E0,0E0,0E0,0E0,0E0,0E0,0E0,0E0,0E0,0E0],"parents":[2147483647,0,0,1,1,2,2,3,3,4,4,5,5,6,6,7,7,8,8,9,9,10,10,11,11,12,12,13,13,14,14],"right_children":[2,4,6,8,10,12,14,16,18,20,22,24,26,28,30,-1,-1,-1,-1,-1,-1,-1,-1,-1,-1,-1,-1,-1,-1,-1,-1],"split_conditions":[1.96E0,3.2E0,1.57E0,1.6666667E-1,6.4E-1,4.2857143E-1,2.857143E0,9.166667E-1,2.34E0,4.2E-1,1E0,1.3333334E0,1.1666666E0,-1.0952381E0,1.7777778E0,4.793531E-2,1.5116969E-2,7.2030085E-3,1.4925833E-2,-1.8687455E-2,3.90519E-2,-5.5656254E-2,3.989472E-3,-1.099494E-2,2.8235052E-2,-2.49801E-2,1.2291566E-3,-3.7804525E-2,2.0486841E-4,7.138951E-3,3.9905593E-2],"split_indices":[16,24,17,9,23,9,22,22,17,23,2,6,27,26,0,0,0,0,0,0,0,0,0,0,0,0,0,0,0,0,0],"split_type":[0,0,0,0,0,0,0,0,0,0,0,0,0,0,0,0,0,0,0,0,0,0,0,0,0,0,0,0,0,0,0],"sum_hessian":[2.4217039E3,1.1057024E3,1.3160015E3,1.0726973E3,3.300513E1,2.3584811E2,1.0801533E3,2.1641294E1,1.051056E3,1.7216223E1,1.5788911E1,1.143028E2,1.2154532E2,1.0558657E3,2.4287628E1,1.2877305E1,8.763989E0,6.835794E2,3.6747656E2,7.4961157E0,9.720106E0,1.0663248E1,5.125663E0,8.888458E1,2.541822E1,9.451921E1,2.7026114E1,1.2104922E1,1.0437607E3,1.1024265E1,1.3263363E1],"tree_param":{"num_deleted":"0","num_feature":"33","num_nodes":"31","size_leaf_vector":"1"}},{"base_weights":[6.062292E-2,1.9419771E-1,-5.914062E-3,4.8630606E-2,2.8661472E-1,-1.9952532E-2,4.451617E-1,-3.8684562E-1,9.643248E-2,3.0149043E-1,-4.1889865E-2,1.2308401E-1,-5.6104474E-2,-1.2274413E-2,5.4319155E-1,-2.975585E-2,5.543018E-3,6.8196934E-4,1.9168971E-2,3.5824474E-2,1.3892612E-2,1.10179875E-2,-1.2486054E-3,-1.3843656E-3,-1.3574888E-2,3.796869E-2,8.665643E-3],"categories":[],"categories_nodes":[],"categories_segments":[],"categories_sizes":[],"default_left":[0,0,0,0,0,0,0,0,0,0,0,0,0,0,0,0,0,0,0,0,0,0,0,0,0,0,0],"id":19,"left_children":[1,3,5,7,9,11,13,15,17,19,-1,21,23,-1,25,-1,-1,-1,-1,-1,-1,-1,-1,-1,-1,-1,-1],"loss_changes":[2.1402351E1,1.0721184E1,1.0138603E1,6.5129004E0,8.378143E0,8.062202E0,3.4341116E0,3.3174243E0,6.6682415E0,4.4439163E0,0E0,4.551702E0,7.5877066E0,0E0,3.1931324E0,0E0,0E0,0E0,0E0,0E0,0E0,0E0,0E0,0E0,0E0,0E0,0E0],"parents":[2147483647,0,0,1,1,2,2,3,3,4,4,5,5,6,6,7,7,8,8,9,9,11,11,12,12,14,14],"right_children":[2,4,6,8,10,12,14,16,18,20,-1,22,24,-1,26,-1,-1,-1,-1,-1,-1,-1,-1,-1,-1,-1,-1],"split_conditions":[1.83E0,1.5E0,2.4E0,8.888889E-1,5E0,1.4285715E-1,2.857143E-1,1.4757296E0,6.25E-1,1E-1,-4.1889865E-2,1.0749677E0,2.59E0,-1.2274413E-2,1E0,-2.975585E-2,5.543018E-3,6.8196934E-4,1.9168971E-2,3.5824474E-2,1.3892612E-2,1.10179875E-2,-1.2486054E-3,-1.3843656E-3,-1.3574888E-2,3.796869E-2,8.665643E-3],"split_indices":[16,10,11,8,22,21,9,28,29,20,0,28,16,0,27,0,0,0,0,0,0,0,0,0,0,0,0],"split_type":[0,0,0,0,0,0,0,0,0,0,0,0,0,0,0,0,0,0,0,0,0,0,0,0,0,0,0],"sum_hessian":[2.4048486E3,7.9947174E2,1.605377E3,3.1147388E2,4.8799786E2,1.558064E3,4.7312923E1,2.9899948E1,2.815739E2,4.8243616E2,5.561717E0,3.1330197E2,1.2447621E3,5.567051E0,4.1745872E1,2.108279E1,8.817158E0,2.1960663E2,6.1967293E1,2.4190996E1,4.5824518E2,1.8918852E2,1.2411345E2,1.1010868E3,1.4367523E2,2.5511705E1,1.6234167E1],"tree_param":{"num_deleted":"0","num_feature":"33","num_nodes":"27","size_leaf_vector":"1"}},{"base_weights":[4.5771923E-2,-2.1226427E-2,2.0198408E-1,-3.3775993E-2,5.3106326E-1,4.8472382E-2,2.7807194E-1,5.3604983E-2,-9.008511E-2,-2.204479E-2,7.401245E-1,7.9227406E-1,1.0244616E-2,3.201235E-1,2.1061977E-2,3.9726733E-3,-2.7551511E-2,-5.2958913E-3,2.0975893E-2,4.7851086E-2,1.3531356E-2,1.981707E-2,5.1856607E-2,2.2131618E-2,-2.8131867E-3,2.3669455E-2,1.2149341E-2,-4.4825446E-2,5.8834273E-3],"categories":[],"categories_nodes":[],"categories_segments":[],"categories_sizes":[],"default_left":[0,0,0,0,0,0,0,0,0,0,0,0,0,0,0,0,0,0,0,0,0,0,0,0,0,0,0,0,0],"id":20,"left_children":[1,3,5,7,9,11,13,15,17,-1,19,21,23,25,27,-1,-1,-1,-1,-1,-1,-1,-1,-1,-1,-1,-1,-1,-1],"loss_changes":[2.5101122E1,1.1594499E1,8.361252E0,8.084154E0,7.905469E0,6.7408724E0,5.153393E0,1.0047809E1,8.0747595E0,0E0,2.77845E0,5.701518E-1,6.665665E0,4.691536E0,6.1425743E0,0E0,0E0,0E0,0E0,0E0,0E0,0E0,0E0,0E0,0E0,0E0,0E0,0E0,0E0],"parents":[2147483647,0,0,1,1,2,2,3,3,4,4,5,5,6,6,7,7,8,8,10,10,11,11,12,12,13,13,14,14],"right_children":[2,4,6,8,10,12,14,16,18,-1,20,22,24,26,28,-1,-1,-1,-1,-1,-1,-1,-1,-1,-1,-1,-1,-1,-1],"split_conditions":[2.1E0,2.2E0,5.714286E-1,8.333333E-1,2.1666667E0,1.6666667E-1,1.5811388E0,7E-1,7.1428573E-1,-2.204479E-2,7E-1,2.8333333E0,2.14E0,7.1428573E-1,2.4166667E0,3.9726733E-3,-2.7551511E-2,-5.2958913E-3,2.0975893E-2,4.7851086E-2,1.3531356E-2,1.981707E-2,5.1856607E-2,2.2131618E-2,-2.8131867E-3,2.3669455E-2,1.2149341E-2,-4.4825446E-2,5.8834273E-3],"split_indices":[17,0,4,24,10,4,28,20,19,0,18,15,17,4,14,0,0,0,0,0,0,0,0,0,0,0,0,0,0],"split_type":[0,0,0,0,0,0,0,0,0,0,0,0,0,0,0,0,0,0,0,0,0,0,0,0,0,0,0,0,0],"sum_hessian":[2.3952222E3,1.6764344E3,7.1878754E2,1.6402826E3,3.6151897E1,2.3917973E2,4.7960785E2,6.4211505E2,9.9816754E2,6.1185465E0,3.0033352E1,1.0599678E1,2.2858005E2,4.1162393E2,6.798391E1,6.167813E2,2.5333757E1,9.690488E2,2.9118736E1,1.968701E1,1.0346342E1,5.20703E0,5.3926487E0,2.9918772E1,1.9866129E2,1.3565424E2,2.759697E2,5.588559E0,6.239535E1],"tree_param":{"num_deleted":"0","num_feature":"33","num_nodes":"29","size_leaf_vector":"1"}}]},"name":"gbtree"},"learner_model_param":{"base_score":"7.5579584E-1","boost_from_average":"1","num_class":"0","num_feature":"33","num_target":"1"},"objective":{"name":"binary:logistic","reg_loss_param":{"scale_pos_weight":"1"}}},"version":[2,1,4]}