{"learner":{"attributes":{"best_iteration":"1","best_score":"0.5695965831257783","scikit_learn":"{\"_estimator_type\": \"classifier\"}"},"feature_names":["home_goals_per_game","home_goals_conceded_per_game","home_over15_rate","home_over05_rate","home_first_half_goals","away_goals_per_game","away_goals_conceded_per_game","away_over15_rate","away_over05_rate","away_first_half_goals","home_home_goals","home_home_conceded","away_away_goals","away_away_conceded","total_expected_goals","defensive_strength","over15_odds","under15_odds","home_btts_rate","away_btts_rate","home_clean_sheet_rate","away_clean_sheet_rate","home_attack_strength","away_attack_strength","attack_vs_defense_ratio","home_momentum","away_momentum","home_goals_std","away_goals_std","home_over25_rate","away_over25_rate","home_scored_in_rate","away_scored_in_rate"],"feature_types":["float","float","float","float","float","float","float","float","float","float","float","float","float","float","float","float","float","float","float","float","float","float","float","float","float","float","float","float","float","float","float","float","float"],"gradient_booster":{"model":{"gbtree_model_param":{"num_parallel_tree":"1","num_trees":"22"},"iteration_indptr":[0,1,2,3,4,5,6,7,8,9,10,11,12,13,14,15,16,17,18,19,20,21,22],"tree_info":[0,0,0,0,0,0,0,0,0,0,0,0,0,0,0,0,0,0,0,0,0,0],"trees":[{"base_weights":[1.4289337E-1,-2.9750861E-2,4.296072E-1,1.0090696E-1,-1.9533947E-1,3.3014554E-1,5.897212E-1,6.13634E-3,2.2174895E-1,-3.7741935E-1,-9.0650775E-2,-3.8060528E-1,3.445211E-1,7.0742965E-1,4.0869766E-1,-3.0989787E-2,1.3402313E-3,1.224216E-2,-5.4692842E-2,-3.943191E-2,-1.3676912E-2,-6.955729E-3,1.2097589E-2,-3.513146E-2,-0E0,3.4099668E-3,1.9429332E-2,2.7121557E-2,4.2703982E-2,-9.222437E-3,2.7209256E-2],"categories":[],"categories_nodes":[],"categories_segments":[],"categories_sizes":[],"default_left":[0,0,0,0,0,0,0,0,0,0,0,0,0,0,0,0,0,0,0,0,0,0,0,0,0,0,0,0,0,0,0],"id":0,"left_children":[1,3,5,7,9,11,13,15,17,19,21,23,25,27,29,-1,-1,-1,-1,-1,-1,-1,-1,-1,-1,-1,-1,-1,-1,-1,-1],"loss_changes":[1.2371538E2,3.3781246E1,1.4670654E1,9.965814E0,1.3047222E1,6.0740585E0,7.232353E0,6.301432E0,1.1817305E1,1.0390118E1,7.099061E0,1.5034267E0,6.8819504E0,4.608429E0,1.169696E1,0E0,0E0,0E0,0E0,0E0,0E0,0E0,0E0,0E0,0E0,0E0,0E0,0E0,0E0,0E0,0E0],"parents":[2147483647,0,0,1,1,2,2,3,3,4,4,5,5,6,6,7,7,8,8,9,9,10,10,11,11,12,12,13,13,14,14],"right_children":[2,4,6,8,10,12,14,16,18,20,22,24,26,28,30,-1,-1,-1,-1,-1,-1,-1,-1,-1,-1,-1,-1,-1,-1,-1,-1],"split_conditions":[2.06E0,2.19E0,2.43E0,6E-1,1.1666666E0,7.1428573E-1,1.4444444E0,5.2704626E-1,2.5555556E0,5.555556E-1,1.6E0,1.2222222E0,7.5E-1,2.4166667E0,4.2857143E-1,-3.0989787E-2,1.3402313E-3,1.224216E-2,-5.4692842E-2,-3.943191E-2,-1.3676912E-2,-6.955729E-3,1.2097589E-2,-3.513146E-2,-0E0,3.4099668E-3,1.9429332E-2,2.7121557E-2,4.2703982E-2,-9.222437E-3,2.7209256E-2],"split_indices":[17,16,17,19,13,3,1,28,6,32,12,6,12,15,19,0,0,0,0,0,0,0,0,0,0,0,0,0,0,0,0],"split_type":[0,0,0,0,0,0,0,0,0,0,0,0,0,0,0,0,0,0,0,0,0,0,0,0,0,0,0,0,0,0,0],"sum_hessian":[2.4972603E3,1.5590365E3,9.382237E2,8.7131305E2,6.877235E2,5.809982E2,3.5722546E2,4.8938782E2,3.8192526E2,2.497629E2,4.379606E2,1.0875284E1,5.70123E2,2.1437213E2,1.4285332E2,1.4561822E1,4.74826E2,3.7621112E2,5.714133E0,4.884662E1,2.0091628E2,3.8303122E2,5.4929405E1,5.5298057E0,5.345479E0,7.9076225E1,4.9104675E2,1.03407364E2,1.1096477E2,2.635874E1,1.16494576E2],"tree_param":{"num_deleted":"0","num_feature":"33","num_nodes":"31","size_leaf_vector":"1"}},{"base_weights":[1.3372026E-1,-6.252788E-3,2.5898626E-1,-1.1512493E-1,2.2734435E-1,4.4252776E-2,3.1575295E-1,-2.724649E-1,3.8220896E-3,1.3017924E-1,4.3376866E-1,2.887657E-1,-5.7372876E-2,2.6167628E-1,4.9716637E-1,-1.4877993E-2,3.5340898E-2,-5.465993E-3,1.1215544E-2,1.2115187E-3,2.0557297E-2,9.156289E-3,2.801067E-2,-4.94832E-3,1.9320687E-2,-2.6178947E-2,-2.4853594E-4,1.3575128E-2,-3.8378194E-2,2.7581206E-2,6.630882E-3],"categories":[],"categories_nodes":[],"categories_segments":[],"categories_sizes":[],"default_left":[0,0,0,0,0,0,0,0,0,0,0,0,0,0,0,0,0,0,0,0,0,0,0,0,0,0,0,0,0,0,0],"id":1,"left_children":[1,3,5,7,9,11,13,15,17,19,21,23,25,27,29,-1,-1,-1,-1,-1,-1,-1,-1,-1,-1,-1,-1,-1,-1,-1,-1],"loss_changes":[4.3781406E1,3.0002853E1,1.6007523E1,1.5098006E1,7.4064713E0,6.921804E0,1.0009804E1,8.698071E0,1.1491232E1,7.586946E0,3.6017113E0,3.162877E0,4.7374988E0,8.297688E0,4.5752106E0,0E0,0E0,0E0,0E0,0E0,0E0,0E0,0E0,0E0,0E0,0E0,0E0,0E0,0E0,0E0,0E0],"parents":[2147483647,0,0,1,1,2,2,3,3,4,4,5,5,6,6,7,7,8,8,9,9,10,10,11,11,12,12,13,13,14,14],"right_children":[2,4,6,8,10,12,14,16,18,20,22,24,26,28,30,-1,-1,-1,-1,-1,-1,-1,-1,-1,-1,-1,-1,-1,-1,-1,-1],"split_conditions":[7.1428573E-1,1.4285715E0,6.25E-1,2.25E0,1.4E0,5.555556E-1,2.1666667E0,2.2E0,1.1666666E0,2.1E0,1.0625E0,1.4166666E0,1.6666666E0,2.1317704E0,1.8472222E0,-1.4877993E-2,3.5340898E-2,-5.465993E-3,1.1215544E-2,1.2115187E-3,2.0557297E-2,9.156289E-3,2.801067E-2,-4.94832E-3,1.9320687E-2,-2.6178947E-2,-2.4853594E-4,1.3575128E-2,-3.8378194E-2,2.7581206E-2,6.630882E-3],"split_indices":[7,0,2,15,6,31,10,5,12,0,22,14,14,28,24,0,0,0,0,0,0,0,0,0,0,0,0,0,0,0,0],"split_type":[0,0,0,0,0,0,0,0,0,0,0,0,0,0,0,0,0,0,0,0,0,0,0,0,0,0,0,0,0,0,0],"sum_hessian":[2.494429E3,1.1781302E3,1.3162988E3,8.042366E2,3.7389365E2,2.759591E2,1.0403397E3,3.4604605E2,4.5819052E2,2.556655E2,1.1822815E2,8.076933E1,1.9518976E2,8.03748E2,2.3659174E2,3.3817822E2,7.8678436E0,3.0284094E2,1.553496E2,1.8670403E2,6.896148E1,4.0730316E1,7.749783E1,1.6040306E1,6.472903E1,1.8621355E1,1.765684E2,7.9697253E2,6.7754164E0,2.0515707E2,3.1434666E1],"tree_param":{"num_deleted":"0","num_feature":"33","num_nodes":"31","size_leaf_vector":"1"}},{"base_weights":[1.2179618E-1,3.3589202E-1,-8.451797E-2,2.2547625E-1,4.8746035E-1,5.7301942E-2,-2.0120879E-1,2.3805557E-1,-3.5874687E-2,5.1857656E-1,-2.4703259E-2,7.0194E-2,-5.4377478E-2,7.27417E-2,-2.5967044E-1,2.4097694E-2,1.008634E-2,3.679857E-2,2.2492593E-2,-2.3481103E-2,1.1370993E-2,2.442353E-3,3.4830645E-2,-2.0899322E-2,8.299611E-3,-2.550276E-2,-1.0080468E-2],"categories":[],"categories_nodes":[],"categories_segments":[],"categories_sizes":[],"default_left":[0,0,0,0,0,0,0,0,0,0,0,0,0,0,0,0,0,0,0,0,0,0,0,0,0,0,0],"id":2,"left_children":[1,3,5,7,9,11,13,15,-1,17,19,21,-1,23,25,-1,-1,-1,-1,-1,-1,-1,-1,-1,-1,-1,-1],"loss_changes":[1.09473785E2,2.0171051E1,2.0912277E1,8.495136E0,8.210571E0,8.388881E0,1.1136288E1,6.0135193E0,0E0,6.7552643E0,3.5024204E0,7.4436035E0,0E0,5.6433535E0,8.136211E0,0E0,0E0,0E0,0E0,0E0,0E0,0E0,0E0,0E0,0E0,0E0,0E0],"parents":[2147483647,0,0,1,1,2,2,3,3,4,4,5,5,6,6,7,7,9,9,10,10,11,11,13,13,14,14],"right_children":[2,4,6,8,10,12,14,16,-1,18,20,22,-1,24,26,-1,-1,-1,-1,-1,-1,-1,-1,-1,-1,-1,-1],"split_conditions":[1.96E0,2.29E0,2.19E0,4.16E0,2.556391E0,3.75E0,8E-1,-6.25E-1,-3.5874687E-2,5E-1,2.05E0,2.3E0,-5.4377478E-2,3.5986158E-1,1.65E0,2.4097694E-2,1.008634E-2,3.679857E-2,2.2492593E-2,-2.3481103E-2,1.1370993E-2,2.442353E-3,3.4830645E-2,-2.0899322E-2,8.299611E-3,-2.550276E-2,-1.0080468E-2],"split_indices":[16,17,16,24,24,23,10,25,0,18,15,1,0,24,15,0,0,0,0,0,0,0,0,0,0,0,0],"split_type":[0,0,0,0,0,0,0,0,0,0,0,0,0,0,0,0,0,0,0,0,0,0,0,0,0,0,0],"sum_hessian":[2.4761965E3,1.215111E3,1.2610856E3,7.048114E2,5.102996E2,5.690924E2,6.9199316E2,6.9637524E2,8.436123E0,4.812446E2,2.9054995E1,5.637699E2,5.3225226E0,1.2135775E2,5.706354E2,8.833133E1,6.0804395E2,1.12911354E2,3.6833325E2,1.0340752E1,1.8714243E1,5.463878E2,1.7382053E1,1.8651258E1,1.0270649E2,1.0562543E2,4.6500998E2],"tree_param":{"num_deleted":"0","num_feature":"33","num_nodes":"27","size_leaf_vector":"1"}},{"base_weights":[1.3058798E-1,3.2808957E-1,-5.7678152E-2,2.4626565E-1,5.8830637E-1,-3.721525E-1,5.308605E-3,2.5905174E-1,-7.7199256E-1,6.098154E-1,-1.2241431E-2,2.659546E-1,-4.552265E-1,1.6217384E-1,-4.078151E-2,-2.2040434E-2,1.3705957E-2,-6.5821186E-2,-2.123186E-3,1.6857523E-2,3.3350635E-2,-2.690433E-2,2.6487036E-2,-2.550889E-2,6.2586963E-3,-3.123254E-2,1.0226479E-2,-1.26324445E-2,8.3049125E-4],"categories":[],"categories_nodes":[],"categories_segments":[],"categories_sizes":[],"default_left":[0,0,0,0,0,0,0,0,0,0,0,0,0,0,0,0,0,0,0,0,0,0,0,0,0,0,0,0,0],"id":3,"left_children":[1,3,5,7,9,11,13,15,17,19,-1,21,23,25,27,-1,-1,-1,-1,-1,-1,-1,-1,-1,-1,-1,-1,-1,-1],"loss_changes":[9.218907E1,2.553064E1,2.5180763E1,1.2157913E1,5.353897E0,1.1382799E1,7.66962E0,9.719227E0,4.412715E0,4.0655823E0,0E0,5.5703173E0,6.103634E0,8.117777E0,9.976708E0,0E0,0E0,0E0,0E0,0E0,0E0,0E0,0E0,0E0,0E0,0E0,0E0,0E0,0E0],"parents":[2147483647,0,0,1,1,2,2,3,3,4,4,5,5,6,6,7,7,8,8,9,9,11,11,12,12,13,13,14,14],"right_children":[2,4,6,8,10,12,14,16,18,20,-1,22,24,26,28,-1,-1,-1,-1,-1,-1,-1,-1,-1,-1,-1,-1,-1,-1],"split_conditions":[1.96E0,2.5E0,1.57E0,3.75E0,3.4285715E0,1.6666667E-1,6.363636E-1,5.2704626E-1,1.4E0,9.486833E-1,-1.2241431E-2,6.666667E-1,3.03E0,5E-1,3.3333334E-1,-2.2040434E-2,1.3705957E-2,-6.5821186E-2,-2.123186E-3,1.6857523E-2,3.3350635E-2,-2.690433E-2,2.6487036E-2,-2.550889E-2,6.2586963E-3,-3.123254E-2,1.0226479E-2,-1.26324445E-2,8.3049125E-4],"split_indices":[16,17,17,22,22,21,22,28,23,27,0,10,16,27,29,0,0,0,0,0,0,0,0,0,0,0,0,0,0],"split_type":[0,0,0,0,0,0,0,0,0,0,0,0,0,0,0,0,0,0,0,0,0,0,0,0,0,0,0,0,0],"sum_hessian":[2.477107E3,1.2087986E3,1.2683083E3,9.213996E2,2.8739905E2,2.1108786E2,1.0572205E3,9.108065E2,1.0593041E1,2.805443E2,6.8547482E0,2.3923307E1,1.8716457E2,2.4001006E2,8.172104E2,1.8460238E1,8.923463E2,5.5268884E0,5.066153E0,5.014433E1,2.3039998E2,5.559265E0,1.8364042E1,1.712447E2,1.5919854E1,1.1437204E1,2.2857286E2,1.7383109E2,6.433793E2],"tree_param":{"num_deleted":"0","num_feature":"33","num_nodes":"29","size_leaf_vector":"1"}},{"base_weights":[1.2191647E-1,-1.7232662E-2,3.598193E-1,-3.5427436E-1,3.6640674E-2,2.85566E-1,5.251314E-1,-6.952392E-1,-2.7639145E-1,2.1833856E-2,6.5532976E-1,-3.5207987E-2,3.259164E-1,1.381787E-1,5.685621E-1,-7.37438E-3,-6.508296E-2,-2.6735662E-2,-6.6204327E-3,-1.8927649E-2,2.1134953E-3,4.092894E-2,-1.3042475E-3,4.685763E-3,-4.7457833E-2,7.45365E-3,1.9183686E-2,-1.0580093E-2,3.395285E-2,2.588422E-2,4.6678964E-2],"categories":[],"categories_nodes":[],"categories_segments":[],"categories_sizes":[],"default_left":[0,0,0,0,0,0,0,0,0,0,0,0,0,0,0,0,0,0,0,0,0,0,0,0,0,0,0,0,0,0,0],"id":4,"left_children":[1,3,5,7,9,11,13,15,17,19,21,23,25,27,29,-1,-1,-1,-1,-1,-1,-1,-1,-1,-1,-1,-1,-1,-1,-1,-1],"loss_changes":[8.1383835E1,2.8208529E1,1.0903992E1,5.396406E0,1.2174862E1,8.17643E0,4.548874E0,1.2589062E1,6.4158583E0,1.068394E1,3.5579824E0,8.523852E0,5.5962486E0,5.8214197E0,4.029091E0,0E0,0E0,0E0,0E0,0E0,0E0,0E0,0E0,0E0,0E0,0E0,0E0,0E0,0E0,0E0,0E0],"parents":[2147483647,0,0,1,1,2,2,3,3,4,4,5,5,6,6,7,7,8,8,9,9,10,10,11,11,12,12,13,13,14,14],"right_children":[2,4,6,8,10,12,14,16,18,20,22,24,26,28,30,-1,-1,-1,-1,-1,-1,-1,-1,-1,-1,-1,-1,-1,-1,-1,-1],"split_conditions":[2.06E0,1.57E0,2.5E0,5E-1,2.1111112E0,8.888889E-1,-6.666667E-1,5.555556E-1,8.333333E-1,7.1428573E-1,2.11E0,1.81E0,4.4444445E-1,2.3809524E-1,2.1111112E0,-7.37438E-3,-6.508296E-2,-2.6735662E-2,-6.6204327E-3,-1.8927649E-2,2.1134953E-3,4.092894E-2,-1.3042475E-3,4.685763E-3,-4.7457833E-2,7.45365E-3,1.9183686E-2,-1.0580093E-2,3.395285E-2,2.588422E-2,4.6678964E-2],"split_indices":[17,17,17,11,0,8,26,2,8,8,16,16,29,25,6,0,0,0,0,0,0,0,0,0,0,0,0,0,0,0,0],"split_type":[0,0,0,0,0,0,0,0,0,0,0,0,0,0,0,0,0,0,0,0,0,0,0,0,0,0,0,0,0,0,0],"sum_hessian":[2.456209E3,1.5500774E3,9.0613165E2,2.1310881E2,1.3369686E3,6.275757E2,2.7855594E2,3.7913967E1,1.7519485E2,1.3068883E3,3.0080275E1,6.985982E1,5.577159E2,2.8763851E1,2.4979208E2,2.066044E1,1.7253527E1,6.148158E1,1.1371327E2,6.237664E1,1.2445117E3,2.4222628E1,5.8576465E0,6.1914143E1,7.9456744E0,1.3861421E2,4.1910168E2,1.7725103E1,1.103875E1,2.215971E2,2.8194979E1],"tree_param":{"num_deleted":"0","num_feature":"33","num_nodes":"31","size_leaf_vector":"1"}},{"base_weights":[1.2797481E-1,-2.064546E-2,3.8377747E-1,1.7736375E-2,-3.8623586E-1,3.0625835E-1,5.5936354E-1,-8.042786E-2,8.0153465E-2,-3.3123198E-1,-6.848704E-2,3.177897E-1,-4.0204205E-2,6.3998824E-1,2.4150518E-1,6.8210014E-3,-8.455486E-3,8.536911E-3,-3.5500494E-3,1.4453942E-2,-1.9755771E-2,-1.641521E-2,1.651751E-2,3.687771E-2,1.5798718E-2,-1.1840115E-2,2.4026826E-2],"categories":[],"categories_nodes":[],"categories_segments":[],"categories_sizes":[],"default_left":[0,0,0,0,0,0,0,0,0,0,0,0,0,0,0,0,0,0,0,0,0,0,0,0,0,0,0],"id":5,"left_children":[1,3,5,7,9,11,13,15,17,19,-1,21,-1,23,25,-1,-1,-1,-1,-1,-1,-1,-1,-1,-1,-1,-1],"loss_changes":[9.390568E1,2.196615E1,1.2095581E1,8.673768E0,7.4219112E0,8.301762E0,6.8397446E0,1.0597684E1,1.1877806E1,5.7625017E0,0E0,5.1931458E0,0E0,6.6034546E0,6.743443E0,0E0,0E0,0E0,0E0,0E0,0E0,0E0,0E0,0E0,0E0,0E0,0E0],"parents":[2147483647,0,0,1,1,2,2,3,3,4,4,5,5,6,6,7,7,8,8,9,9,11,11,13,13,14,14],"right_children":[2,4,6,8,10,12,14,16,18,20,-1,22,-1,24,26,-1,-1,-1,-1,-1,-1,-1,-1,-1,-1,-1,-1],"split_conditions":[2.06E0,2.59E0,2.5E0,1.73E0,8.888889E-1,4.2E0,1.1E0,1E0,1.4285715E-1,6.666667E-1,-6.848704E-2,5.2704626E-1,-4.0204205E-2,1.6666666E0,-3.3333334E-1,6.8210014E-3,-8.455486E-3,8.536911E-3,-3.5500494E-3,1.4453942E-2,-1.9755771E-2,-1.641521E-2,1.651751E-2,3.687771E-2,1.5798718E-2,-1.1840115E-2,2.4026826E-2],"split_indices":[17,16,17,17,9,22,9,10,25,28,0,28,0,24,26,0,0,0,0,0,0,0,0,0,0,0,0],"split_type":[0,0,0,0,0,0,0,0,0,0,0,0,0,0,0,0,0,0,0,0,0,0,0,0,0,0,0],"sum_hessian":[2.4679038E3,1.5613148E3,9.0658905E2,1.4135862E3,1.4772865E2,6.312248E2,2.753643E2,5.487184E2,8.648678E2,1.4126659E2,6.4620643E0,6.255322E2,5.6925597E0,2.1859076E2,5.6773537E1,1.5878526E2,3.899331E2,5.411164E2,3.2375143E2,1.2714806E1,1.2855179E2,1.1297681E1,6.1423456E2,1.6678433E2,5.1806427E1,1.8781757E1,3.799178E1],"tree_param":{"num_deleted":"0","num_feature":"33","num_nodes":"27","size_leaf_vector":"1"}},{"base_weights":[1.1629113E-1,-2.5167588E-2,3.6279657E-1,-1.5160641E-1,7.712571E-2,3.4761074E-1,8.6732227E-1,-3.342526E-1,-4.788391E-2,5.823807E-2,6.0378337E-1,6.663625E-2,3.7230623E-1,5.4122414E-2,1.5015493E-2,-2.774902E-2,-9.267011E-3,1.4670886E-2,-6.13917E-3,6.840815E-3,-3.5328676E-3,-3.083143E-3,4.2969745E-2,2.7261132E-2,-4.4853818E-3,-1.7276622E-2,1.9161744E-2],"categories":[],"categories_nodes":[],"categories_segments":[],"categories_sizes":[],"default_left":[0,0,0,0,0,0,0,0,0,0,0,0,0,0,0,0,0,0,0,0,0,0,0,0,0,0,0],"id":6,"left_children":[1,3,5,7,9,11,13,15,17,19,21,23,25,-1,-1,-1,-1,-1,-1,-1,-1,-1,-1,-1,-1,-1,-1],"loss_changes":[8.494594E1,2.0037096E1,6.38134E0,1.3073255E1,8.411308E0,5.926506E0,2.596964E0,8.055738E0,1.1355686E1,8.396875E0,5.1230764E0,5.4331503E0,6.3624954E0,0E0,0E0,0E0,0E0,0E0,0E0,0E0,0E0,0E0,0E0,0E0,0E0,0E0,0E0],"parents":[2147483647,0,0,1,1,2,2,3,3,4,4,5,5,6,6,7,7,8,8,9,9,10,10,11,11,12,12],"right_children":[2,4,6,8,10,12,14,16,18,20,22,24,26,-1,-1,-1,-1,-1,-1,-1,-1,-1,-1,-1,-1,-1,-1],"split_conditions":[2.06E0,1.73E0,2.857143E0,1.1666666E0,2.1111112E0,4.3724698E-1,2E0,1.58E0,8E-1,1.1401755E0,2.25E0,2.35E0,1.05E0,5.4122414E-2,1.5015493E-2,-2.774902E-2,-9.267011E-3,1.4670886E-2,-6.13917E-3,6.840815E-3,-3.5328676E-3,-3.083143E-3,4.2969745E-2,2.7261132E-2,-4.4853818E-3,-1.7276622E-2,1.9161744E-2],"split_indices":[17,17,0,13,0,24,24,17,10,27,10,14,15,0,0,0,0,0,0,0,0,0,0,0,0,0,0],"split_type":[0,0,0,0,0,0,0,0,0,0,0,0,0,0,0,0,0,0,0,0,0,0,0,0,0,0,0],"sum_hessian":[2.433821E3,1.5467188E3,8.8710223E2,6.9194324E2,8.547755E2,8.6301337E2,2.408881E1,2.4946709E2,4.424762E2,8.2643726E2,2.8338247E1,7.034989E1,7.926635E2,1.6676357E1,7.412453E0,9.913063E1,1.5033646E2,7.886264E1,3.6361353E2,5.138776E2,3.1255966E2,7.966417E0,2.037183E1,1.686783E1,5.348206E1,1.1290505E1,7.81373E2],"tree_param":{"num_deleted":"0","num_feature":"33","num_nodes":"27","size_leaf_vector":"1"}},{"base_weights":[1.0662185E-1,2.0439158E-1,-1.3730812E-1,3.7422907E-1,1.3242991E-1,-1.9503726E-1,8.982962E-2,1.7517311E-2,4.2539868E-1,1.0758813E-1,6.216116E-1,9.104291E-2,-2.4845725E-1,3.3649128E-2,4.657313E-2,9.046779E-3,-3.729984E-2,2.2525392E-2,-8.993948E-3,-5.458288E-3,7.3726512E-3,3.5267577E-2,-9.203908E-3,1.8854355E-2,-1.2172524E-2,9.842248E-3,-1.4343445E-2,4.0712156E-3,-3.655203E-2],"categories":[],"categories_nodes":[],"categories_segments":[],"categories_sizes":[],"default_left":[0,0,0,0,0,0,0,0,0,0,0,0,0,0,0,0,0,0,0,0,0,0,0,0,0,0,0,0,0],"id":7,"left_children":[1,3,5,7,9,11,13,15,17,19,21,23,25,27,-1,-1,-1,-1,-1,-1,-1,-1,-1,-1,-1,-1,-1,-1,-1],"loss_changes":[5.833588E1,2.123687E1,9.203782E0,9.414391E0,1.4785622E1,8.575531E0,6.5932193E0,8.357E0,6.9967957E0,1.0131982E1,4.1594543E0,8.557217E0,8.126801E0,4.9045787E0,0E0,0E0,0E0,0E0,0E0,0E0,0E0,0E0,0E0,0E0,0E0,0E0,0E0,0E0,0E0],"parents":[2147483647,0,0,1,1,2,2,3,3,4,4,5,5,6,6,7,7,8,8,9,9,10,10,11,11,12,12,13,13],"right_children":[2,4,6,8,10,12,14,16,18,20,22,24,26,28,-1,-1,-1,-1,-1,-1,-1,-1,-1,-1,-1,-1,-1,-1,-1],"split_conditions":[2.19E0,1.69E0,1.6E0,8.333333E-1,2.2E0,8E-1,7.1428573E-1,2.8039215E0,4.7E0,8.888889E-1,1.6865481E0,2.45E0,7.777778E-1,2.3333333E0,4.657313E-2,9.046779E-3,-3.729984E-2,2.2525392E-2,-8.993948E-3,-5.458288E-3,7.3726512E-3,3.5267577E-2,-9.203908E-3,1.8854355E-2,-1.2172524E-2,9.842248E-3,-1.4343445E-2,4.0712156E-3,-3.655203E-2],"split_indices":[16,16,11,6,0,10,19,24,15,8,28,16,3,1,0,0,0,0,0,0,0,0,0,0,0,0,0,0,0],"split_type":[0,0,0,0,0,0,0,0,0,0,0,0,0,0,0,0,0,0,0,0,0,0,0,0,0,0,0,0,0],"sum_hessian":[2.4435964E3,1.7448243E3,6.987722E2,5.1761224E2,1.227212E3,5.576276E2,1.4114458E2,6.534917E1,4.522631E2,1.1692587E3,5.7953346E1,8.733675E1,4.702909E2,1.3339877E2,7.7458076E0,5.4564487E1,1.078468E1,4.3465298E2,1.7610107E1,1.8098082E2,9.882779E2,5.2722275E1,5.2310715E0,4.717034E1,4.01664E1,3.6811455E1,4.3347946E2,1.26518616E2,6.880157E0],"tree_param":{"num_deleted":"0","num_feature":"33","num_nodes":"29","size_leaf_vector":"1"}},{"base_weights":[9.281029E-2,2.6277897E-1,-6.263525E-2,4.1942513E-1,2.103268E-1,-2.4399492E-1,9.574426E-3,4.6607184E-1,-5.5504984E-1,8.094755E-1,1.9671185E-1,-4.5445454E-1,-9.639515E-2,-1.3029261E-3,8.408089E-1,2.9177269E-2,1.4096777E-2,-5.8879893E-2,-1.3934256E-3,1.694882E-2,4.8706688E-2,3.7660976E-3,1.2756111E-2,7.929374E-3,-2.7858807E-2,-7.05791E-3,2.5369702E-2,-8.555562E-4,2.1757198E-2,5.3780165E-2,2.3109024E-2],"categories":[],"categories_nodes":[],"categories_segments":[],"categories_sizes":[],"default_left":[0,0,0,0,0,0,0,0,0,0,0,0,0,0,0,0,0,0,0,0,0,0,0,0,0,0,0,0,0,0,0],"id":8,"left_children":[1,3,5,7,9,11,13,15,17,19,21,23,25,27,29,-1,-1,-1,-1,-1,-1,-1,-1,-1,-1,-1,-1,-1,-1,-1,-1],"loss_changes":[6.434847E1,9.406578E0,1.6682297E1,1.3446434E1,6.8691597E0,1.1165794E1,8.315236E0,5.755806E0,4.3168864E0,1.0053034E0,6.017151E0,9.507095E0,5.837658E0,6.1708403E0,4.0503597E-1,0E0,0E0,0E0,0E0,0E0,0E0,0E0,0E0,0E0,0E0,0E0,0E0,0E0,0E0,0E0,0E0],"parents":[2147483647,0,0,1,1,2,2,3,3,4,4,5,5,6,6,7,7,8,8,9,9,10,10,11,11,12,12,13,13,14,14],"right_children":[2,4,6,8,10,12,14,16,18,20,22,24,26,28,30,-1,-1,-1,-1,-1,-1,-1,-1,-1,-1,-1,-1,-1,-1,-1,-1],"split_conditions":[1.96E0,1.59E0,1.63E0,3E0,1.93E0,2.05E0,2.25E0,1.4285715E0,2.25E0,8.333333E-1,2.06E0,-4.7619048E-1,2.9E0,2.4E0,4.2857143E-1,2.9177269E-2,1.4096777E-2,-5.8879893E-2,-1.3934256E-3,1.694882E-2,4.8706688E-2,3.7660976E-3,1.2756111E-2,7.929374E-3,-2.7858807E-2,-7.05791E-3,2.5369702E-2,-8.555562E-4,2.1757198E-2,5.3780165E-2,2.3109024E-2],"split_indices":[16,16,17,24,17,15,0,1,10,12,17,25,16,11,30,0,0,0,0,0,0,0,0,0,0,0,0,0,0,0,0],"split_type":[0,0,0,0,0,0,0,0,0,0,0,0,0,0,0,0,0,0,0,0,0,0,0,0,0,0,0,0,0,0,0],"sum_hessian":[2.4331362E3,1.1622505E3,1.2708857E3,2.893164E2,8.729341E2,3.616307E2,9.09255E2,2.766957E2,1.2620686E1,1.7933664E1,8.550004E2,1.4793567E2,2.1369504E2,8.9837714E2,1.0877836E1,1.6727014E2,1.0942559E2,5.1342287E0,7.4864573E0,5.599495E0,1.2334168E1,2.7905753E2,5.759429E2,2.1012972E1,1.269227E2,1.9981334E2,1.3881703E1,8.681235E2,3.0253696E1,5.414999E0,5.462837E0],"tree_param":{"num_deleted":"0","num_feature":"33","num_nodes":"31","size_leaf_vector":"1"}},{"base_weights":[7.978388E-2,1.814773E-1,-1.8163222E-1,7.012811E-2,3.058682E-1,-1.2101248E-1,-3.9614984E-1,4.7345355E-2,7.544221E-1,2.4144156E-1,4.409536E-1,-3.2280514E-1,-5.4634057E-2,-5.948977E-1,-7.807977E-2,4.1086124E-3,-1.0542259E-2,1.2953179E-2,4.236513E-2,2.6184726E-3,1.4978163E-2,2.8203527E-2,7.820933E-3,1.5239958E-3,-2.239426E-2,-2.7193084E-2,-9.5411687E-4,-2.4709588E-2,-6.7680225E-2,7.641759E-3,-2.7267084E-2],"categories":[],"categories_nodes":[],"categories_segments":[],"categories_sizes":[],"default_left":[0,0,0,0,0,0,0,0,0,0,0,0,0,0,0,0,0,0,0,0,0,0,0,0,0,0,0,0,0,0,0],"id":9,"left_children":[1,3,5,7,9,11,13,15,17,19,21,23,25,27,29,-1,-1,-1,-1,-1,-1,-1,-1,-1,-1,-1,-1,-1,-1,-1,-1],"loss_changes":[6.433223E1,2.4070251E1,8.711994E0,1.4241841E1,6.9803925E0,7.04539E0,9.273249E0,8.029671E0,1.0255451E0,6.096031E0,9.079945E0,5.828223E0,6.898813E0,6.1025276E0,6.429065E0,0E0,0E0,0E0,0E0,0E0,0E0,0E0,0E0,0E0,0E0,0E0,0E0,0E0,0E0,0E0,0E0],"parents":[2147483647,0,0,1,1,2,2,3,3,4,4,5,5,6,6,7,7,8,8,9,9,10,10,11,11,12,12,13,13,14,14],"right_children":[2,4,6,8,10,12,14,16,18,20,22,24,26,28,30,-1,-1,-1,-1,-1,-1,-1,-1,-1,-1,-1,-1,-1,-1,-1,-1],"split_conditions":[2.2E0,2.08E0,2.59E0,2.2E0,2.5E0,2.26E0,2.2666667E0,8.333333E-1,-3.3333334E-1,4.2857143E-1,1.3888888E0,-3E-1,1.35E0,1.53E0,1.5E0,4.1086124E-3,-1.0542259E-2,1.2953179E-2,4.236513E-2,2.6184726E-3,1.4978163E-2,2.8203527E-2,7.820933E-3,1.5239958E-3,-2.239426E-2,-2.7193084E-2,-9.5411687E-4,-2.4709588E-2,-6.7680225E-2,7.641759E-3,-2.7267084E-2],"split_indices":[16,17,16,0,17,16,15,4,26,29,24,26,15,17,1,0,0,0,0,0,0,0,0,0,0,0,0,0,0,0,0],"split_type":[0,0,0,0,0,0,0,0,0,0,0,0,0,0,0,0,0,0,0,0,0,0,0,0,0,0,0,0,0,0,0],"sum_hessian":[2.417694E3,1.7410839E3,6.766103E2,9.1995197E2,8.2113196E2,5.291188E2,1.4749147E2,8.9148627E2,2.846565E1,5.5835956E2,2.6277243E2,1.296398E2,3.99479E2,9.004292E1,5.7448547E1,7.864697E2,1.0501655E2,5.262903E0,2.3202747E1,1.321364E2,4.2622314E2,1.8248024E2,8.029219E1,3.388616E1,9.575364E1,2.5903944E1,3.7357504E2,8.106592E1,8.97701E0,3.8755146E1,1.8693403E1],"tree_param":{"num_deleted":"0","num_feature":"33","num_nodes":"31","size_leaf_vector":"1"}},{"base_weights":[9.1991514E-2,2.5323877E-1,-5.162671E-2,1.9858415E-1,4.4670278E-1,6.0790498E-2,-1.4315324E-1,-4.464257E-1,2.1333766E-1,3.8726416E-1,9.289316E-1,-4.5591307E-1,8.657093E-2,-1.839624E-1,1.1630678E-1,-5.1383145E-2,7.35185E-3,1.1171521E-2,-4.1081205E-2,2.4688872E-2,9.236445E-3,5.186307E-2,2.163627E-2,-5.2355815E-2,7.804379E-3,6.299499E-3,-8.599347E-3,-3.2948703E-3,-1.4038853E-2,-1.4161939E-2,1.3411972E-2],"categories":[],"categories_nodes":[],"categories_segments":[],"categories_sizes":[],"default_left":[0,0,0,0,0,0,0,0,0,0,0,0,0,0,0,0,0,0,0,0,0,0,0,0,0,0,0,0,0,0,0],"id":10,"left_children":[1,3,5,7,9,11,13,15,17,19,21,23,25,27,29,-1,-1,-1,-1,-1,-1,-1,-1,-1,-1,-1,-1,-1,-1,-1,-1],"loss_changes":[5.5824867E1,1.1852425E1,1.3132968E1,8.517731E0,6.642967E0,7.625984E0,7.476512E0,7.1443624E0,9.195793E0,4.6622276E0,8.239727E-1,1.0083969E1,5.583205E0,6.9029713E0,5.8950343E0,0E0,0E0,0E0,0E0,0E0,0E0,0E0,0E0,0E0,0E0,0E0,0E0,0E0,0E0,0E0,0E0],"parents":[2147483647,0,0,1,1,2,2,3,3,4,4,5,5,6,6,7,7,8,8,9,9,10,10,11,11,12,12,13,13,14,14],"right_children":[2,4,6,8,10,12,14,16,18,20,22,24,26,28,30,-1,-1,-1,-1,-1,-1,-1,-1,-1,-1,-1,-1,-1,-1,-1,-1],"split_conditions":[1.96E0,2.5E0,2.19E0,5.2704626E-1,2.1111112E0,2.2222222E-1,7E-1,6.25E-1,4.2E0,1.35E0,3.8333333E0,1.25E0,1.8E0,5E-1,8.5714287E-1,-5.1383145E-2,7.35185E-3,1.1171521E-2,-4.1081205E-2,2.4688872E-2,9.236445E-3,5.186307E-2,2.163627E-2,-5.2355815E-2,7.804379E-3,6.299499E-3,-8.599347E-3,-3.2948703E-3,-1.4038853E-2,-1.4161939E-2,1.3411972E-2],"split_indices":[16,17,16,28,6,19,18,5,22,24,14,10,5,9,22,0,0,0,0,0,0,0,0,0,0,0,0,0,0,0,0],"split_type":[0,0,0,0,0,0,0,0,0,0,0,0,0,0,0,0,0,0,0,0,0,0,0,0,0,0,0,0,0,0,0],"sum_hessian":[2.4081687E3,1.1344258E3,1.2737428E3,8.86522E2,2.4790384E2,5.712948E2,7.02448E2,1.9018393E1,8.675036E2,2.2249052E2,2.5413319E1,2.6172382E1,5.4512244E2,6.075638E2,9.488425E1,9.323663E0,9.694729E0,8.599978E2,7.505785E0,1.4454344E2,7.794708E1,1.9798973E1,5.6143456E0,1.3033867E1,1.3138515E1,4.7378925E2,7.133315E1,2.7496225E2,3.326015E2,2.572125E1,6.9162994E1],"tree_param":{"num_deleted":"0","num_feature":"33","num_nodes":"31","size_leaf_vector":"1"}},{"base_weights":[1.0318791E-1,-3.3653362E-3,2.971764E-1,-2.3998532E-1,2.7392557E-2,1.9249937E-1,3.5937428E-1,2.7535164E-1,-3.108827E-1,4.1870716E-1,1.4647928E-2,-2.4892384E-1,2.3604962E-1,2.8831977E-1,4.7920814E-1,-1.772337E-2,2.7710652E-2,1.5930614E-2,-1.871926E-2,3.8487058E-2,6.5852026E-3,7.0034214E-3,-1.5370914E-3,-4.3079372E-2,2.9453214E-3,-9.484175E-3,1.4911013E-2,1.5271544E-2,-1.995878E-2,2.5217861E-2,-3.5155627E-3],"categories":[],"categories_nodes":[],"categories_segments":[],"categories_sizes":[],"default_left":[0,0,0,0,0,0,0,0,0,0,0,0,0,0,0,0,0,0,0,0,0,0,0,0,0,0,0,0,0,0,0],"id":11,"left_children":[1,3,5,7,9,11,13,15,17,19,21,23,25,27,29,-1,-1,-1,-1,-1,-1,-1,-1,-1,-1,-1,-1,-1,-1,-1,-1],"loss_changes":[4.952452E1,1.1280996E1,5.405014E0,6.605152E0,6.7772493E0,6.195657E0,4.3062286E0,4.0677137E0,6.4174986E0,4.1297655E0,7.5694027E0,5.591473E0,7.778721E0,4.069502E0,2.782215E0,0E0,0E0,0E0,0E0,0E0,0E0,0E0,0E0,0E0,0E0,0E0,0E0,0E0,0E0,0E0,0E0],"parents":[2147483647,0,0,1,1,2,2,3,3,4,4,5,5,6,6,7,7,8,8,9,9,10,10,11,11,12,12,13,13,14,14],"right_children":[2,4,6,8,10,12,14,16,18,20,22,24,26,28,30,-1,-1,-1,-1,-1,-1,-1,-1,-1,-1,-1,-1,-1,-1,-1,-1],"split_conditions":[2.06E0,1.55E0,1.4E0,1.6666667E-1,-8.666667E-1,5.031056E-1,2.45E0,-1.904762E-1,6.666667E-1,1.125E0,-3E-1,2.17E0,2.2666667E0,1.1666666E0,3E0,-1.772337E-2,2.7710652E-2,1.5930614E-2,-1.871926E-2,3.8487058E-2,6.5852026E-3,7.0034214E-3,-1.5370914E-3,-4.3079372E-2,2.9453214E-3,-9.484175E-3,1.4911013E-2,1.5271544E-2,-1.995878E-2,2.5217861E-2,-3.5155627E-3],"split_indices":[17,17,13,21,25,24,17,25,28,6,26,17,14,25,23,0,0,0,0,0,0,0,0,0,0,0,0,0,0,0,0],"split_type":[0,0,0,0,0,0,0,0,0,0,0,0,0,0,0,0,0,0,0,0,0,0,0,0,0,0,0,0,0,0,0],"sum_hessian":[2.3934797E3,1.5452034E3,8.4827625E2,1.7734442E2,1.367859E3,3.1829648E2,5.2997974E2,2.0928144E1,1.5641628E2,4.1892105E1,1.3259669E3,2.7953112E1,2.9034335E2,3.3536707E2,1.946127E2,6.2293024E0,1.4698841E1,1.3820705E1,1.4259557E2,1.7930658E1,2.3961445E1,3.5238306E2,9.7358386E2,8.855092E0,1.909802E1,3.6530388E1,2.5381296E2,3.2790695E2,7.4601054E0,1.8634853E2,8.264178E0],"tree_param":{"num_deleted":"0","num_feature":"33","num_nodes":"31","size_leaf_vector":"1"}},{"base_weights":[8.148918E-2,-1.9610282E-2,2.845378E-1,-2.7501687E-1,2.055317E-2,2.225795E-1,4.1794252E-1,-5.45343E-2,-4.8861626E-1,-1.6112517E-1,6.0893524E-2,2.4948898E-1,-2.2467913E-1,3.6870718E-1,4.846443E-2,9.913165E-3,-1.3000208E-2,-1.695501E-2,-4.5091864E-2,3.599475E-2,-1.0307952E-2,3.57899E-3,-2.6602432E-2,3.0960029E-2,1.0695205E-2,2.1410381E-2,-2.775897E-2,2.3071732E-2,2.0566925E-3],"categories":[],"categories_nodes":[],"categories_segments":[],"categories_sizes":[],"default_left":[0,0,0,0,0,0,0,0,0,0,0,0,0,0,0,0,0,0,0,0,0,0,0,0,0,0,0,0,0],"id":12,"left_children":[1,3,5,7,9,11,13,15,17,19,21,23,25,27,-1,-1,-1,-1,-1,-1,-1,-1,-1,-1,-1,-1,-1,-1,-1],"loss_changes":[4.937635E1,1.6498692E1,6.4504013E0,1.0211594E1,1.0170865E1,6.6603394E0,6.346138E0,5.714123E0,6.406481E0,1.009464E1,7.195244E0,6.600212E0,7.0355444E0,7.0083523E0,0E0,0E0,0E0,0E0,0E0,0E0,0E0,0E0,0E0,0E0,0E0,0E0,0E0,0E0,0E0],"parents":[2147483647,0,0,1,1,2,2,3,3,4,4,5,5,6,6,7,7,8,8,9,9,10,10,11,11,12,12,13,13],"right_children":[2,4,6,8,10,12,14,16,18,20,22,24,26,28,-1,-1,-1,-1,-1,-1,-1,-1,-1,-1,-1,-1,-1,-1,-1],"split_conditions":[2.08E0,1.57E0,2.5E0,4.4444445E-1,8.333333E-1,1.8287822E0,2.857143E0,1.0980393E0,1.2516656E0,6E-1,7E-1,7.2648317E-1,8E-1,1.5714285E0,4.846443E-2,9.913165E-3,-1.3000208E-2,-1.695501E-2,-4.5091864E-2,3.599475E-2,-1.0307952E-2,3.57899E-3,-2.6602432E-2,3.0960029E-2,1.0695205E-2,2.1410381E-2,-2.775897E-2,2.3071732E-2,2.0566925E-3],"split_indices":[17,17,17,9,8,28,0,24,28,10,20,27,7,24,0,0,0,0,0,0,0,0,0,0,0,0,0,0,0],"split_type":[0,0,0,0,0,0,0,0,0,0,0,0,0,0,0,0,0,0,0,0,0,0,0,0,0,0,0,0,0],"sum_hessian":[2.4027422E3,1.60434E3,7.984023E2,2.1754904E2,1.3867909E3,5.475275E2,2.508748E2,1.07897766E2,1.09651276E2,2.509827E2,1.1358082E3,5.170828E2,3.0444706E1,2.3200667E2,1.8868132E1,4.8174805E1,5.972296E1,8.203215E1,2.7619123E1,1.1368516E1,2.3961418E2,1.11673E3,1.9078285E1,4.3712963E1,4.7336984E2,1.003092E1,2.0413786E1,1.8026456E2,5.1742107E1],"tree_param":{"num_deleted":"0","num_feature":"33","num_nodes":"29","size_leaf_vector":"1"}},{"base_weights":[8.325971E-2,2.32086E-1,-4.774733E-2,1.7027001E-1,4.438937E-1,-6.8723686E-2,2.8811315E-1,-9.29338E-2,2.057674E-1,1.4116197E-2,4.9395445E-1,-8.2640964E-1,-6.0664833E-2,1.4953938E-1,4.538004E-2,-6.6806905E-2,8.054993E-4,-6.315083E-4,1.22608775E-2,-2.016354E-2,2.6332766E-2,6.052062E-4,2.6608376E-2,-6.360668E-2,-1.0611999E-2,1.1886762E-3,-6.26608E-3,2.1708129E-2,-1.9944136E-3],"categories":[],"categories_nodes":[],"categories_segments":[],"categories_sizes":[],"default_left":[0,0,0,0,0,0,0,0,0,0,0,0,0,0,0,0,0,0,0,0,0,0,0,0,0,0,0,0,0],"id":13,"left_children":[1,3,5,7,9,11,13,15,17,19,21,23,25,27,-1,-1,-1,-1,-1,-1,-1,-1,-1,-1,-1,-1,-1,-1,-1],"loss_changes":[4.7031914E1,1.4646816E1,9.033831E0,8.215191E0,5.409195E0,7.2389865E0,6.2233577E0,1.4314594E1,6.682667E0,6.160722E0,4.1253777E0,3.0051718E0,6.546913E0,3.4464588E0,0E0,0E0,0E0,0E0,0E0,0E0,0E0,0E0,0E0,0E0,0E0,0E0,0E0,0E0,0E0],"parents":[2147483647,0,0,1,1,2,2,3,3,4,4,5,5,6,6,7,7,8,8,9,9,10,10,11,11,12,12,13,13],"right_children":[2,4,6,8,10,12,14,16,18,20,22,24,26,28,-1,-1,-1,-1,-1,-1,-1,-1,-1,-1,-1,-1,-1,-1,-1],"split_conditions":[1.96E0,2.5E0,7.1428573E-1,8.5714287E-1,-6.666667E-1,4.830459E-1,1.0588236E0,1.63E0,8.232726E-1,4.1666668E-2,3.3333334E-1,2.2222222E-1,2.19E0,9.189366E-1,4.538004E-2,-6.6806905E-2,8.054993E-4,-6.315083E-4,1.22608775E-2,-2.016354E-2,2.6332766E-2,6.052062E-4,2.6608376E-2,-6.360668E-2,-1.0611999E-2,1.1886762E-3,-6.26608E-3,2.1708129E-2,-1.9944136E-3],"split_indices":[16,17,19,3,26,27,22,16,28,25,30,20,16,28,0,0,0,0,0,0,0,0,0,0,0,0,0,0,0],"split_type":[0,0,0,0,0,0,0,0,0,0,0,0,0,0,0,0,0,0,0,0,0,0,0,0,0,0,0,0,0],"sum_hessian":[2.4097144E3,1.1281302E3,1.2815841E3,8.7502936E2,2.5310092E2,1.2072761E3,7.4307976E1,1.0346061E2,7.715687E2,2.6747755E1,2.2635316E2,1.1506323E1,1.1957698E3,6.187085E1,1.2437131E1,7.5094523E0,9.595116E1,1.17764595E2,6.5380414E2,1.475229E1,1.1995466E1,1.6920946E1,2.0943222E2,5.952362E0,5.5539613E0,5.181624E2,6.776073E2,2.4417877E1,3.745297E1],"tree_param":{"num_deleted":"0","num_feature":"33","num_nodes":"29","size_leaf_vector":"1"}},{"base_weights":[6.1821777E-2,-3.5209604E-2,2.4600603E-1,1.4646229E-1,-7.010088E-2,-6.598481E-2,2.7825636E-1,5.588041E-2,5.374911E-1,-3.998398E-2,-3.1916237E-1,2.5304687E-1,-4.404542E-1,2.9361343E-1,-4.7182965E-1,3.144825E-2,-5.9009047E-4,3.181697E-2,-1.0952154E-2,-3.219872E-4,-1.3920798E-2,5.8479155E-3,-2.4484552E-2,-3.5433747E-2,2.0297084E-2,3.0638447E-2,-3.355578E-2,9.471214E-3,1.8920546E-2,-5.483268E-2,3.744764E-4],"categories":[],"categories_nodes":[],"categories_segments":[],"categories_sizes":[],"default_left":[0,0,0,0,0,0,0,0,0,0,0,0,0,0,0,0,0,0,0,0,0,0,0,0,0,0,0,0,0,0,0],"id":14,"left_children":[1,3,5,7,9,11,13,15,17,19,21,23,25,27,29,-1,-1,-1,-1,-1,-1,-1,-1,-1,-1,-1,-1,-1,-1,-1,-1],"loss_changes":[4.2820923E1,9.9464E0,8.357052E0,8.857918E0,9.830978E0,9.444081E0,8.756317E0,8.075611E0,3.7098227E0,9.379656E0,1.0624398E1,6.5196123E0,9.253645E0,6.368622E0,4.6974316E0,0E0,0E0,0E0,0E0,0E0,0E0,0E0,0E0,0E0,0E0,0E0,0E0,0E0,0E0,0E0,0E0],"parents":[2147483647,0,0,1,1,2,2,3,3,4,4,5,5,6,6,7,7,8,8,9,9,10,10,11,11,12,12,13,13,14,14],"right_children":[2,4,6,8,10,12,14,16,18,20,22,24,26,28,30,-1,-1,-1,-1,-1,-1,-1,-1,-1,-1,-1,-1,-1,-1,-1,-1],"split_conditions":[2.06E0,-4.7619048E-1,8.5714287E-1,8.333333E-1,1.7777778E0,1.625E0,3.75E0,7.1428573E-1,2.02E0,2.56E0,1.1595018E0,8.5714287E-1,1.52E0,2.29E0,1.1737878E0,3.144825E-2,-5.9009047E-4,3.181697E-2,-1.0952154E-2,-3.219872E-4,-1.3920798E-2,5.8479155E-3,-2.4484552E-2,-3.5433747E-2,2.0297084E-2,3.0638447E-2,-3.355578E-2,9.471214E-3,1.8920546E-2,-5.483268E-2,3.744764E-4],"split_indices":[17,26,3,32,5,5,22,10,17,16,28,8,16,17,28,0,0,0,0,0,0,0,0,0,0,0,0,0,0,0,0],"split_type":[0,0,0,0,0,0,0,0,0,0,0,0,0,0,0,0,0,0,0,0,0,0,0,0,0,0,0,0,0,0,0],"sum_hessian":[2.3933606E3,1.5677234E3,8.2563727E2,2.5160466E2,1.3161187E3,7.6961586E1,7.486757E2,2.0541815E2,4.6186504E1,1.1755334E3,1.405853E2,4.15878E1,3.537379E1,7.34382E2,1.4293668E1,2.0977793E1,1.8444035E2,4.1106598E1,5.0799065E0,1.0318168E3,1.4371661E2,3.9441883E1,1.0114341E2,5.116358E0,3.647144E1,5.9797115E0,2.939408E1,3.314942E2,4.0288785E2,5.7364798E0,8.557188E0],"tree_param":{"num_deleted":"0","num_feature":"33","num_nodes":"31","size_leaf_vector":"1"}},{"base_weights":[6.745405E-2,-2.6232243E-2,2.6006836E-1,-2.0793746E-1,2.1556634E-2,1.990829E-1,3.7092927E-1,-2.502359E-1,3.317458E-1,9.492436E-3,5.643718E-1,-1.432347E-1,2.3529273E-1,3.9843222E-1,-2.0605247E-2,1.4178865E-2,-1.4862877E-2,-3.1457108E-2,3.1453434E-2,-2.7650557E-3,4.172483E-3,-3.9852886E-3,3.5844367E-2,-1.7762614E-2,1.966257E-2,-2.0993924E-2,1.2909949E-2,3.7151035E-2,1.7433634E-2],"categories":[],"categories_nodes":[],"categories_segments":[],"categories_sizes":[],"default_left":[0,0,0,0,0,0,0,0,0,0,0,0,0,0,0,0,0,0,0,0,0,0,0,0,0,0,0,0,0],"id":15,"left_children":[1,3,5,7,9,11,13,15,17,19,21,23,25,27,-1,-1,-1,-1,-1,-1,-1,-1,-1,-1,-1,-1,-1,-1,-1],"loss_changes":[4.310118E1,1.397176E1,5.1526833E0,7.722785E0,8.269165E0,6.3259106E0,6.0979576E0,7.9025307E0,7.4261007E0,5.9774723E0,2.8188286E0,5.6918797E0,6.9813137E0,4.207752E0,0E0,0E0,0E0,0E0,0E0,0E0,0E0,0E0,0E0,0E0,0E0,0E0,0E0,0E0,0E0],"parents":[2147483647,0,0,1,1,2,2,3,3,4,4,5,5,6,6,7,7,8,8,9,9,10,10,11,11,12,12,13,13],"right_children":[2,4,6,8,10,12,14,16,18,20,22,24,26,28,-1,-1,-1,-1,-1,-1,-1,-1,-1,-1,-1,-1,-1,-1,-1],"split_conditions":[2.08E0,8.333333E-1,2.0833333E-1,1.7E0,2.1111112E0,8.5714287E-1,8.333333E-1,8E-1,5E-1,1.1666666E0,8E-1,1.6666666E0,5.555556E-1,8E-1,-2.0605247E-2,1.4178865E-2,-1.4862877E-2,-3.1457108E-2,3.1453434E-2,-2.7650557E-3,4.172483E-3,-3.9852886E-3,3.5844367E-2,-1.7762614E-2,1.966257E-2,-2.0993924E-2,1.2909949E-2,3.7151035E-2,1.7433634E-2],"split_indices":[17,8,25,6,0,3,19,3,12,12,13,6,1,1,0,0,0,0,0,0,0,0,0,0,0,0,0,0,0],"split_type":[0,0,0,0,0,0,0,0,0,0,0,0,0,0,0,0,0,0,0,0,0,0,0,0,0,0,0,0,0],"sum_hessian":[2.3858225E3,1.6053406E3,7.804821E2,3.3402722E2,1.2713134E3,5.058874E2,2.745947E2,3.1041928E2,2.3607924E1,1.244848E3,2.6465336E1,4.7846123E1,4.5804126E2,2.6587512E2,8.7196E0,2.4550655E1,2.8586865E2,5.2354946E0,1.8372429E1,6.629452E2,5.819028E2,5.032914E0,2.143242E1,3.466919E1,1.3176935E1,1.4740261E1,4.43301E2,3.1537022E1,2.3433809E2],"tree_param":{"num_deleted":"0","num_feature":"33","num_nodes":"29","size_leaf_vector":"1"}},{"base_weights":[6.658931E-2,-1.0067445E-1,1.4018995E-1,-3.767492E-1,-5.784745E-2,7.677293E-2,2.5348178E-1,-3.4652792E-2,-6.4409417E-1,-4.473556E-2,-6.2702425E-2,5.8194578E-2,6.755849E-1,2.763776E-1,-3.4311593E-1,7.3451283E-3,-3.400313E-2,-4.3724485E-2,3.149797E-2,-7.0599484E-4,-2.0430809E-2,2.102001E-3,2.0780219E-2,3.9033644E-2,6.737172E-3,3.334719E-2,1.1926045E-2,1.2567274E-2,-4.500435E-2],"categories":[],"categories_nodes":[],"categories_segments":[],"categories_sizes":[],"default_left":[0,0,0,0,0,0,0,0,0,0,0,0,0,0,0,0,0,0,0,0,0,0,0,0,0,0,0,0,0],"id":16,"left_children":[1,3,5,7,9,11,13,15,17,19,-1,21,23,25,27,-1,-1,-1,-1,-1,-1,-1,-1,-1,-1,-1,-1,-1,-1],"loss_changes":[2.915889E1,8.488798E0,1.1763561E1,8.750589E0,9.660981E0,1.1639765E1,8.136665E0,5.2651258E0,1.6438017E1,6.8827524E0,0E0,5.8599486E0,1.5954676E0,8.150925E0,7.5956793E0,0E0,0E0,0E0,0E0,0E0,0E0,0E0,0E0,0E0,0E0,0E0,0E0,0E0,0E0],"parents":[2147483647,0,0,1,1,2,2,3,3,4,4,5,5,6,6,7,7,8,8,9,9,11,11,12,12,13,13,14,14],"right_children":[2,4,6,8,10,12,14,16,18,20,-1,22,24,26,28,-1,-1,-1,-1,-1,-1,-1,-1,-1,-1,-1,-1,-1,-1],"split_conditions":[1.74E0,5E-1,2.18E0,6E-1,8.333333E-1,2.25E0,4.8E0,1.2222222E0,1.5E0,9E-1,-6.2702425E-2,2.25E0,1.3984118E0,1E-1,-4.761905E-2,7.3451283E-3,-3.400313E-2,-4.3724485E-2,3.149797E-2,-7.0599484E-4,-2.0430809E-2,2.102001E-3,2.0780219E-2,3.9033644E-2,6.737172E-3,3.334719E-2,1.1926045E-2,1.2567274E-2,-4.500435E-2],"split_indices":[17,11,17,2,19,0,15,0,12,9,0,11,28,21,26,0,0,0,0,0,0,0,0,0,0,0,0,0,0],"split_type":[0,0,0,0,0,0,0,0,0,0,0,0,0,0,0,0,0,0,0,0,0,0,0,0,0,0,0,0,0],"sum_hessian":[2.3661099E3,7.224817E2,1.643628E3,9.5665215E1,6.2681647E2,1.0554066E3,5.882214E2,4.262529E1,5.3039925E1,6.211291E2,5.687373E0,1.0248738E3,3.0532883E1,5.671597E2,2.1061678E1,3.3749046E1,8.876241E0,4.5249306E1,7.790622E0,5.7413684E2,4.699228E1,9.8189075E2,4.2983036E1,2.5039297E1,5.493585E0,4.8414074E1,5.1874567E2,1.036654E1,1.0695138E1],"tree_param":{"num_deleted":"0","num_feature":"33","num_nodes":"29","size_leaf_vector":"1"}},{"base_weights":[6.514127E-2,1.8205622E-1,-3.6144145E-2,-4.6005902E-1,1.9741838E-1,-4.7014643E-2,5.7043797E-1,-1.6945895E-2,-8.926399E-1,1.656522E-1,4.0064734E-1,-1.8447298E-1,-3.4282124E-3,8.4630144E-1,-5.079362E-3,2.1933537E-2,-2.5172142E-2,-7.592005E-2,-1.380574E-2,-6.086366E-3,9.726713E-3,1.4250367E-2,3.0440336E-2,-9.722278E-4,-2.2087397E-2,3.9082477E-4,-2.9119266E-2,2.176755E-2,5.7094134E-2],"categories":[],"categories_nodes":[],"categories_segments":[],"categories_sizes":[],"default_left":[0,0,0,0,0,0,0,0,0,0,0,0,0,0,0,0,0,0,0,0,0,0,0,0,0,0,0,0,0],"id":17,"left_children":[1,3,5,7,9,11,13,15,17,19,21,23,25,27,-1,-1,-1,-1,-1,-1,-1,-1,-1,-1,-1,-1,-1,-1,-1],"loss_changes":[2.8001202E1,1.0889736E1,8.325003E0,4.8373113E0,6.8016396E0,7.440974E0,4.2778683E0,3.3024075E0,4.3843746E0,7.7480507E0,3.2001476E0,1.2649063E1,6.227113E0,1.2836618E0,0E0,0E0,0E0,0E0,0E0,0E0,0E0,0E0,0E0,0E0,0E0,0E0,0E0,0E0,0E0],"parents":[2147483647,0,0,1,1,2,2,3,3,4,4,5,5,6,6,7,7,8,8,9,9,10,10,11,11,12,12,13,13],"right_children":[2,4,6,8,10,12,14,16,18,20,22,24,26,28,-1,-1,-1,-1,-1,-1,-1,-1,-1,-1,-1,-1,-1,-1,-1],"split_conditions":[1.96E0,7.777778E-1,4.5666666E0,1.1126972E0,4.4444445E-1,8.888889E-1,2.1111112E0,4.4444445E-1,1.7692307E0,8.5714287E-1,8.888889E-1,2.3666666E0,7E-1,3.3333335E-2,-5.079362E-3,2.1933537E-2,-2.5172142E-2,-7.592005E-2,-1.380574E-2,-6.086366E-3,9.726713E-3,1.4250367E-2,3.0440336E-2,-9.722278E-4,-2.2087397E-2,3.9082477E-4,-2.9119266E-2,2.176755E-2,5.7094134E-2],"split_indices":[16,8,15,28,20,8,6,21,22,3,7,14,20,26,0,0,0,0,0,0,0,0,0,0,0,0,0,0,0],"split_type":[0,0,0,0,0,0,0,0,0,0,0,0,0,0,0,0,0,0,0,0,0,0,0,0,0,0,0,0,0],"sum_hessian":[2.361823E3,1.0964117E3,1.2654113E3,2.4789537E1,1.0716222E3,1.2442014E3,2.120986E1,1.2873225E1,1.1916311E1,9.2875775E2,1.4286449E2,2.9821027E2,9.459911E2,1.4958808E1,6.2510524E0,6.592211E0,6.281015E0,5.107381E0,6.8089304E0,8.420746E1,8.445503E2,9.3674515E1,4.9189972E1,1.8256721E2,1.1564306E2,9.2876605E2,1.7225046E1,7.434168E0,7.52464E0],"tree_param":{"num_deleted":"0","num_feature":"33","num_nodes":"29","size_leaf_vector":"1"}},{"base_weights":[7.027505E-2,1.956568E-1,-3.718118E-2,2.0784368E-1,-1.9274676E-1,-2.3599742E-1,4.6351273E-3,7.223241E-1,1.9642584E-1,2.7601132E-1,-7.001227E-1,-4.2007443E-2,-4.2536235E-1,-8.751181E-3,5.607149E-1,4.7965623E-2,1.5022734E-2,7.166938E-3,1.4703049E-2,-1.894871E-2,3.8929477E-2,-5.2872222E-2,3.6194013E-3,-1.7118432E-2,1.9932332E-2,-4.1124143E-2,-1.428471E-2,-3.83427E-2,4.019198E-5,7.3359543E-3,4.3355137E-2],"categories":[],"categories_nodes":[],"categories_segments":[],"categories_sizes":[],"default_left":[0,0,0,0,0,0,0,0,0,0,0,0,0,0,0,0,0,0,0,0,0,0,0,0,0,0,0,0,0,0,0],"id":18,"left_children":[1,3,5,7,9,11,13,15,17,19,21,23,25,27,29,-1,-1,-1,-1,-1,-1,-1,-1,-1,-1,-1,-1,-1,-1,-1,-1],"loss_changes":[3.2165436E1,5.2558823E0,1.0708089E1,6.044712E0,8.270296E0,8.1549E0,7.96793E0,1.8494415E0,5.3417625E0,6.3176174E0,4.7594557E0,1.4940976E1,5.9137287E0,7.597376E0,2.9631424E0,0E0,0E0,0E0,0E0,0E0,0E0,0E0,0E0,0E0,0E0,0E0,0E0,0E0,0E0,0E0,0E0],"parents":[2147483647,0,0,1,1,2,2,3,3,4,4,5,5,6,6,7,7,8,8,9,9,10,10,11,11,12,12,13,13,14,14],"right_children":[2,4,6,8,10,12,14,16,18,20,22,24,26,28,30,-1,-1,-1,-1,-1,-1,-1,-1,-1,-1,-1,-1,-1,-1,-1,-1],"split_conditions":[1.96E0,3.2E0,1.57E0,1.6666667E-1,6.4285713E-1,4.2857143E-1,2.857143E0,9.166667E-1,2.34E0,4.2857143E-1,1E0,4E-1,7.527726E-1,-1.0952381E0,1.7777778E0,4.7965623E-2,1.5022734E-2,7.166938E-3,1.4703049E-2,-1.894871E-2,3.8929477E-2,-5.2872222E-2,3.6194013E-3,-1.7118432E-2,1.9932332E-2,-4.1124143E-2,-1.428471E-2,-3.83427E-2,4.019198E-5,7.3359543E-3,4.3355137E-2],"split_indices":[16,24,17,9,23,9,22,22,17,23,2,30,27,26,0,0,0,0,0,0,0,0,0,0,0,0,0,0,0,0,0],"split_type":[0,0,0,0,0,0,0,0,0,0,0,0,0,0,0,0,0,0,0,0,0,0,0,0,0,0,0,0,0,0,0],"sum_hessian":[2.3846748E3,1.1005935E3,1.2840813E3,1.0678113E3,3.27822E1,2.2275189E2,1.0613295E3,2.1641441E1,1.0461698E3,1.7174143E1,1.5608058E1,1.1089663E2,1.11855255E2,1.0371665E3,2.4162903E1,1.2889608E1,8.751833E0,6.799523E2,3.662176E2,7.47687E0,9.697272E0,1.0508158E1,5.0999E0,6.621367E1,4.468296E1,2.7645523E1,8.420973E1,1.20533495E1,1.0251132E3,1.1044567E1,1.3118335E1],"tree_param":{"num_deleted":"0","num_feature":"33","num_nodes":"31","size_leaf_vector":"1"}},{"base_weights":[6.2840305E-2,1.9118735E-1,-2.1538846E-3,4.7540065E-2,2.8237683E-1,-1.2624567E-2,6.042402E-1,-4.0375632E-1,9.5804535E-2,2.9734004E-1,-4.2188007E-2,-1.892671E-2,7.045134E-1,1.41918E-1,5.198736E-2,-3.0164892E-2,1.3789274E-2,7.15122E-4,1.8921915E-2,3.5645287E-2,1.3681251E-2,-4.598998E-4,-2.4357818E-2,1.35097345E-2,4.7860064E-2,-2.5923384E-2,4.1783545E-2],"categories":[],"categories_nodes":[],"categories_segments":[],"categories_sizes":[],"default_left":[0,0,0,0,0,0,0,0,0,0,0,0,0,0,0,0,0,0,0,0,0,0,0,0,0,0,0],"id":19,"left_children":[1,3,5,7,9,11,13,15,17,19,-1,21,23,25,-1,-1,-1,-1,-1,-1,-1,-1,-1,-1,-1,-1,-1],"loss_changes":[1.9754324E1,1.0378141E1,9.923138E0,6.7744117E0,8.388451E0,6.92944E0,5.0747595E0,4.267717E0,6.4431553E0,4.442856E0,0E0,6.9295626E0,1.0838504E0,6.941046E0,0E0,0E0,0E0,0E0,0E0,0E0,0E0,0E0,0E0,0E0,0E0,0E0,0E0],"parents":[2147483647,0,0,1,1,2,2,3,3,4,4,5,5,6,6,7,7,8,8,9,9,11,11,12,12,13,13],"right_children":[2,4,6,8,10,12,14,16,18,20,-1,22,24,26,-1,-1,-1,-1,-1,-1,-1,-1,-1,-1,-1,-1,-1],"split_conditions":[1.83E0,1.5E0,2.6E0,8.888889E-1,5E0,2.3333333E0,7.5E-1,1.9285715E0,6.25E-1,1E-1,-4.2188007E-2,7E-1,3.75E-1,7.692308E-1,5.198736E-2,-3.0164892E-2,1.3789274E-2,7.15122E-4,1.8921915E-2,3.5645287E-2,1.3681251E-2,-4.598998E-4,-2.4357818E-2,1.35097345E-2,4.7860064E-2,-2.5923384E-2,4.1783545E-2],"split_indices":[16,10,11,8,22,0,7,24,29,20,0,20,20,22,0,0,0,0,0,0,0,0,0,0,0,0,0],"split_type":[0,0,0,0,0,0,0,0,0,0,0,0,0,0,0,0,0,0,0,0,0,0,0,0,0,0,0],"sum_hessian":[2.3647937E3,7.9482086E2,1.5699728E3,3.0965353E2,4.8516733E2,1.5444487E3,2.55241E1,2.9005018E1,2.806485E2,4.7961932E2,5.548028E0,1.5320978E3,1.2350886E1,1.3135404E1,1.2388695E1,2.2621708E1,6.3833103E0,2.189229E2,6.1725605E1,2.409619E1,4.5552313E2,1.5021205E3,2.9977327E1,5.449441E0,6.9014454E0,6.785133E0,6.350271E0],"tree_param":{"num_deleted":"0","num_feature":"33","num_nodes":"27","size_leaf_vector":"1"}},{"base_weights":[4.7239095E-2,-2.1787295E-2,1.931399E-1,-3.323608E-2,5.32117E-1,5.8487386E-2,2.6166123E-1,-2.1196073E-1,-2.26239E-3,-1.793286E-2,7.2224414E-1,8.1380713E-1,2.0652162E-2,3.0043387E-1,1.9609533E-2,1.8604219E-2,-1.3959623E-2,5.943865E-4,-2.044072E-2,4.7563907E-2,1.1658481E-2,2.12764E-2,5.2388746E-2,1.7986225E-2,-3.0368578E-3,-4.090252E-3,1.6458182E-2,-3.48742E-2,5.0847633E-3],"categories":[],"categories_nodes":[],"categories_segments":[],"categories_sizes":[],"default_left":[0,0,0,0,0,0,0,0,0,0,0,0,0,0,0,0,0,0,0,0,0,0,0,0,0,0,0,0,0],"id":20,"left_children":[1,3,5,7,9,11,13,15,17,-1,19,21,23,25,27,-1,-1,-1,-1,-1,-1,-1,-1,-1,-1,-1,-1,-1,-1],"loss_changes":[2.3751432E1,1.0114023E1,6.9400787E0,8.661951E0,5.7627354E0,7.249569E0,4.665161E0,9.173606E0,7.744429E0,0E0,2.6873064E0,5.07514E-1,6.8425393E0,4.790352E0,4.1679707E0,0E0,0E0,0E0,0E0,0E0,0E0,0E0,0E0,0E0,0E0,0E0,0E0,0E0,0E0],"parents":[2147483647,0,0,1,1,2,2,3,3,4,4,5,5,6,6,7,7,8,8,10,10,11,11,12,12,13,13,14,14],"right_children":[2,4,6,8,10,12,14,16,18,-1,20,22,24,26,28,-1,-1,-1,-1,-1,-1,-1,-1,-1,-1,-1,-1,-1,-1],"split_conditions":[2.08E0,2.2E0,5.714286E-1,1.65E0,2.1666667E0,1.6666667E-1,1.5811388E0,-6.333333E-1,6E-1,-1.793286E-2,7E-1,2.8333333E0,2.14E0,2.11E0,2.4166667E0,1.8604219E-2,-1.3959623E-2,5.943865E-4,-2.044072E-2,4.7563907E-2,1.1658481E-2,2.12764E-2,5.2388746E-2,1.7986225E-2,-3.0368578E-3,-4.090252E-3,1.6458182E-2,-3.48742E-2,5.0847633E-3],"split_indices":[17,0,4,15,10,4,28,25,21,0,18,15,17,17,14,0,0,0,0,0,0,0,0,0,0,0,0,0,0],"split_type":[0,0,0,0,0,0,0,0,0,0,0,0,0,0,0,0,0,0,0,0,0,0,0,0,0,0,0,0,0],"sum_hessian":[2.3552778E3,1.598965E3,7.563129E2,1.5676826E3,3.128228E1,2.561874E2,5.0012555E2,2.3021606E2,1.3374667E3,5.2540226E0,2.6028257E1,1.1116283E1,2.4507112E2,4.305106E2,6.961496E1,2.3143719E1,2.0707234E2,1.293182E3,4.4284653E1,1.6943895E1,9.084363E0,5.400345E0,5.715939E0,4.70146E1,1.9805652E2,2.9723389E1,4.007872E2,6.2551627E0,6.3359795E1],"tree_param":{"num_deleted":"0","num_feature":"33","num_nodes":"29","size_leaf_vector":"1"}},{"base_weights":[4.5038182E-2,1.5508522E-1,-4.7841687E-2,1.21301495E-1,3.974774E-1,1.3505195E-1,-8.97227E-2,-5.5920863E-1,1.3284244E-1,4.701646E-1,-3.7775066E-2,1.6564986E-1,-3.9561383E-2,-1.16664715E-1,1.9448344E-1,-5.8733463E-2,-7.373282E-3,1.32014975E-2,4.0879725E-3,6.7871823E-3,2.9114312E-2,-7.107757E-3,1.2825158E-2,-4.3094233E-3,-1.9458149E-2,-3.2230448E-2,1.5177819E-2],"categories":[],"categories_nodes":[],"categories_segments":[],"categories_sizes":[],"default_left":[0,0,0,0,0,0,0,0,0,0,0,0,0,0,0,0,0,0,0,0,0,0,0,0,0,0,0],"id":21,"left_children":[1,3,5,7,9,11,13,15,17,19,-1,21,-1,23,25,-1,-1,-1,-1,-1,-1,-1,-1,-1,-1,-1,-1],"loss_changes":[2.4035492E1,8.712976E0,9.77033E0,7.4641857E0,1.129274E1,6.7979097E0,7.9638414E0,3.7059503E0,6.18651E0,4.4906654E0,0E0,6.501482E0,0E0,7.801531E0,8.393348E0,0E0,0E0,0E0,0E0,0E0,0E0,0E0,0E0,0E0,0E0,0E0,0E0],"parents":[2147483647,0,0,1,1,2,2,3,3,4,4,5,5,6,6,7,7,8,8,9,9,11,11,13,13,14,14],"right_children":[2,4,6,8,10,12,14,16,18,20,-1,22,-1,24,26,-1,-1,-1,-1,-1,-1,-1,-1,-1,-1,-1,-1],"split_conditions":[1.96E0,1E0,1.25E-1,3.5E-1,1.8885621E0,9.6666664E-1,7.083333E-1,2.05E0,1.62E0,4.2857143E-1,-3.7775066E-2,1.4285715E-1,-3.9561383E-2,1.4298407E0,7.5E-1,-5.8733463E-2,-7.373282E-3,1.32014975E-2,4.0879725E-3,6.7871823E-3,2.9114312E-2,-7.107757E-3,1.2825158E-2,-4.3094233E-3,-1.9458149E-2,-3.2230448E-2,1.5177819E-2],"split_indices":[16,2,21,23,28,25,26,17,16,19,0,20,0,28,1,0,0,0,0,0,0,0,0,0,0,0,0],"split_type":[0,0,0,0,0,0,0,0,0,0,0,0,0,0,0,0,0,0,0,0,0,0,0,0,0,0,0],"sum_hessian":[2.3487683E3,1.0752201E3,1.2735482E3,9.453708E2,1.2984932E2,2.3643378E2,1.0371145E3,1.48295355E1,9.3054126E2,1.22787384E2,7.061931E0,2.297728E2,6.660989E0,9.4817163E2,8.8942894E1,5.1041794E0,9.725356E0,2.5907584E2,6.7146545E2,3.1609503E1,9.117788E1,5.1985157E1,1.7778764E2,8.5430884E2,9.3862785E1,9.561336E0,7.938155E1],"tree_param":{"num_deleted":"0","num_feature":"33","num_nodes":"27","size_leaf_vector":"1"}}]},"name":"gbtree"},"learner_model_param":{"base_score":"7.562677E-1","boost_from_average":"1","num_class":"0","num_feature":"33","num_target":"1"},"objective":{"name":"binary:logistic","reg_loss_param":{"scale_pos_weight":"1"}}},"version":[2,1,4]}